svm_type c_svc
kernel_type rbf
gamma 0.1
nr_class 2
total_sv 207
rho -1.00585
label 1 0
probA -79.9125
probB 77.559
nr_sv 105 102
SV
0.01 11:0.228205 14:0.187284 20:0.398318 21:0.272487 22:0.082798 23:0.157525 26:0.615466 28:0.366569 29:0.102373 52:0.5062 53:0.440737 54:0.490505 56:0.784007 57:0.498489 111:0.190418 114:0.0532135 120:0.0872136 121:0.205962 122:0.186497 123:0.370929 126:0.200976 128:0.0807814 129:0.0349162 152:0.380683 153:0.299967 154:0.367865 156:0.10815 157:1 211:0.476558 214:0.436735 220:0.522508 221:0.0907859 222:0.0747207 223:0.153646 226:0.596801 228:0.505582 229:0.471895 252:0.138351 253:0.152957 254:0.0854229 256:0.852558 257:0.290126 311:0.190073 314:0.128514 320:0.0321665 321:0.305142 322:0.107889 323:0.157932 326:0.120761 328:0.0579869 352:0.355959 353:0.164885 354:0.47424 356:0.035818 357:0.963081 411:0.384403 414:0.497595 420:0.419705 421:0.189723 422:0.133239 423:0.176799 426:0.702233 428:0.133499 429:0.49177 452:0.501917 453:0.567612 454:0.231826 456:0.590453 457:0.733721 
0.01 11:0.198718 14:0.0532135 20:0.0902141 21:0.201058 22:0.162741 23:0.298172 26:0.147246 28:0.0897361 29:0.0338983 52:0.380683 53:0.315607 54:0.389995 56:0.10815 57:1 111:0.523342 114:0.485142 120:0.527716 121:0.0907859 122:0.0715241 123:0.140588 126:0.70439 128:0.508976 129:0.468575 152:0.138351 153:0.152957 154:0.0849894 156:0.857843 157:0.254022 211:0.207943 214:0.120408 221:0.304201 222:0.111732 223:0.196181 226:0.105219 228:0.0781499 229:0.018737 252:0.335871 253:0.148332 254:0.477263 256:0.0381316 257:0.985778 311:0.353638 314:0.437751 320:0.443709 321:0.194858 322:0.12677 323:0.176799 326:0.702233 328:0.0995624 329:0.474101 352:0.505376 353:0.575316 354:0.220861 356:0.565344 357:0.751489 411:0.467367 414:0.602062 420:0.189294 421:0.116601 422:0.0914245 423:0.287212 426:0.143093 428:0.534988 429:0.950617 452:0.352583 453:0.316293 454:0.276152 456:0.318334 457:0.622868 
0.01 11:0.224359 14:0.246717 20:0.345566 21:0.0886243 22:0.102784 23:0.0787623 26:0.17161 28:0.126686 29:0.161356 52:0.126604 53:0.107056 54:0.126911 56:0.845895 57:0.293429 111:0.0380835 114:0.0739461 120:0.125647 121:0.379404 122:0.205214 123:0.509929 126:0.152195 128:0.109293 129:0.10824 152:0.743528 153:0.44929 154:0.88203 156:0.117953 157:0.321362 211:0.346387 214:0.27619 220:0.289389 221:0.452575 222:0.197626 223:0.521701 226:0.287037 228:0.141946 229:0.478834 252:0.782249 253:0.786918 254:0.527837 256:0.168414 257:0.631451 311:0.152284 314:0.366801 320:0.438032 321:0.224628 322:0.275792 323:0.0782669 326:0.143093 328:0.107221 329:0.164029 352:0.176971 353:0.0929705 354:0.230574 356:0.953856 357:0.0944819 411:0.472898 414:0.450172 420:0.549263 421:0.0750988 422:0.0970943 423:0.122991 426:0.177833 428:0.366253 429:0.211248 452:0.274081 453:0.228562 454:0.239805 456:0.921557 457:0.0972868 
0.01 11:0.0397436 14:0.0739461 20:0.129969 21:0.37037 22:0.182727 23:0.421238 26:0.0942797 28:0.121408 29:0.105085 52:0.743528 53:0.472715 54:0.953219 56:0.117953 57:0.314955 111:0.378378 114:0.322046 120:0.313378 121:0.452575 122:0.189171 123:0.477363 126:0.345366 128:0.147835 129:0.475559 152:0.782249 153:0.786918 154:0.525159 156:0.198223 157:0.568275 211:0.170987 214:0.362585 220:0.344855 221:0.223577 222:0.285615 223:0.0972222 226:0.127946 228:0.125997 229:0.17696 252:0.162062 253:0.0749917 254:0.232044 256:0.942167 257:0.0967087 311:0.44388 314:0.391566 320:0.601703 321:0.0771313 322:0.0923803 323:0.122991 326:0.177833 328:0.356127 329:0.179856 352:0.279122 353:0.242306 354:0.228463 356:0.916747 357:0.0996427 411:0.116704 414:0.109966 420:0.410396 421:0.537549 422:0.192062 423:0.354997 426:0.139785 428:0.0997519 429:0.10631 452:0.768554 453:0.499011 454:0.847961 456:0.224384 457:0.717054 
0.01 11:0.394872 14:0.322046 20:0.324159 21:0.441799 22:0.165596 23:0.392405 26:0.304025 28:0.164223 29:0.461695 52:0.782249 53:0.827946 54:0.562297 56:0.198223 57:0.564199 111:0.183047 114:0.409813 120:0.364375 121:0.223577 122:0.273396 123:0.0889595 126:0.160976 128:0.131996 129:0.171788 152:0.162062 153:0.0749917 154:0.230867 156:0.94424 157:0.0759446 211:0.45615 214:0.387755 220:0.483923 221:0.0758808 222:0.0956704 223:0.152778 226:0.1633 228:0.367889 229:0.192228 252:0.261257 253:0.227288 254:0.229919 256:0.905624 257:0.101991 311:0.0806543 314:0.060241 320:0.432356 321:0.552097 322:0.182738 323:0.354997 326:0.139785 328:0.0623632 329:0.0697842 352:0.770161 353:0.507937 354:0.807855 356:0.176831 357:0.734418 411:0.11781 414:0.308591 420:0.493406 421:0.257576 422:0.175053 423:0.419287 426:0.359801 428:0.154839 429:0.482167 452:0.927363 453:1 454:0.486702 456:0.466707 457:0.431395 
0.007990539664764925 11:0.191026 14:0.409813 20:0.376911 21:0.218254 22:0.255532 23:0.0485232 26:0.103814 28:0.146628 29:0.16678 52:0.162062 53:0.0789016 54:0.239926 56:0.94424 57:0.0672205 111:0.500614 114:0.435384 120:0.492239 121:0.0758808 122:0.0915775 123:0.139793 126:0.201951 128:0.372228 129:0.187151 152:0.261257 153:0.227288 154:0.228753 156:0.909007 157:0.0808081 211:0.100938 214:0.0510204 220:0.340032 221:0.551491 222:0.189246 223:0.440972 226:0.124579 228:0.082403 229:0.0860514 252:0.73809 253:0.498183 254:0.813005 256:0.176994 257:0.751727 311:0.0817823 314:0.253681 320:0.533586 321:0.264547 322:0.166554 323:0.419287 326:0.359801 328:0.123085 329:0.464029 352:0.927867 353:1 354:0.463682 356:0.434011 357:0.441842 411:0.376659 414:0.141581 420:0.224205 421:0.35112 422:0.172927 423:0.503843 426:0.139785 428:0.448635 429:0.178326 452:0.821114 453:0.87467 454:0.446365 456:0.28945 457:0.342248 
0.01 11:0.522436 14:0.435384 20:0.509174 21:0.0740741 22:0.0613847 23:0.0935302 26:0.148305 28:0.41349 29:0.181695 52:0.261257 53:0.239138 54:0.23761 56:0.909007 57:0.0721299 111:0.105037 114:0.0932965 120:0.359941 121:0.551491 122:0.18115 123:0.403495 126:0.157073 128:0.0887012 129:0.0803073 152:0.73809 153:0.498183 154:0.808879 156:0.206495 157:0.679012 211:0.102041 214:0.247619 220:0.426045 221:0.26355 222:0.172486 223:0.520833 226:0.348485 228:0.141414 229:0.466343 252:0.891233 253:1 254:0.466638 256:0.430251 257:0.452255 311:0.345742 314:0.0910308 320:0.205298 321:0.360622 322:0.164531 323:0.503843 326:0.139785 328:0.446937 329:0.145324 352:0.822357 353:0.876903 354:0.425253 356:0.245886 357:0.350536 411:0.28042 414:0.549141 420:0.392552 421:0.33531 422:0.17151 423:0.327044 426:0.455749 428:0.390074 429:0.495885 452:0.768554 453:0.711412 454:0.5625 456:0.66616 457:0.382171 
0.01 11:0.109615 14:0.0932965 20:0.372324 21:0.53836 22:0.157031 23:0.327004 26:0.0995763 28:0.0985337 29:0.0779661 52:0.73809 53:0.524157 54:0.873089 56:0.206495 57:0.675982 111:0.106265 114:0.29302 120:0.439024 121:0.26355 122:0.165107 123:0.476569 126:0.416585 128:0.147307 129:0.462989 152:0.891233 153:1 154:0.464271 156:0.450674 157:0.403292 211:0.360177 214:0.0823129 220:0.147106 221:0.359756 222:0.170391 223:0.625868 226:0.124579 228:0.45614 229:0.158917 252:0.788775 253:0.874463 254:0.427964 256:0.244995 257:0.358797 311:0.247603 314:0.487952 320:0.410596 321:0.344384 322:0.163183 323:0.327044 326:0.455749 328:0.382385 329:0.478417 352:0.770161 353:0.716553 354:0.535895 356:0.645692 357:0.391425 411:0.144912 414:0.199313 420:0.283165 421:0.452569 422:0.285613 423:0.344514 426:0.38627 428:0.149876 429:0.311385 452:0.828333 453:0.789578 454:0.574911 456:0.609 457:0.431395 
0.01 11:0.205128 14:0.22944 20:0.281346 21:0.681878 22:0.245539 23:0.547117 26:0.26589 28:0.228739 29:0.271186 52:0.786165 53:0.878345 54:0.503474 56:0.285233 57:0.613671 111:0.226658 114:0.641327 120:0.406504 121:0.192412 122:0.167781 123:0.24305 126:0.228293 128:0.393875 129:0.886173 152:0.34305 153:0.35745 154:0.221142 156:0.740809 157:0.223345 211:0.266961 214:0.278231 220:0.400322 221:0.24458 222:0.24162 223:0.27691 226:0.644781 228:0.18235 229:0.256766 252:0.30868 253:0.262306 254:0.277518 256:0.814426 257:0.397399 311:0.243655 314:0.319946 320:0.547777 321:0.159675 322:0.194875 323:0.171908 326:0.283706 328:0.16302 329:0.251799 352:0.250672 353:0.215743 354:0.209459 356:0.917393 357:0.283049 411:0.24115 414:0.316838 420:0.754849 421:0.522398 422:0.347271 423:0.361985 426:0.28536 428:0.246154 429:0.278464 452:0.734266 453:0.447889 454:0.849291 456:0.443296 457:0.468992 
0.01 11:0.230128 14:0.776088 20:0.470183 21:0.16336 22:0.149893 23:0.144163 26:0.251059 28:0.826393 29:0.35322 52:0.243637 53:0.22871 54:0.213988 56:0.670956 57:0.517749 111:0.482801 114:0.201797 120:0.260163 121:0.226965 122:0.262701 123:0.285941 126:0.279024 128:0.172122 129:0.180168 152:0.418969 153:0.410307 154:0.301057 156:0.42402 157:0.729892 211:0.567568 214:0.340816 220:0.920418 221:0.212737 222:0.192039 223:0.618924 226:0.176768 228:0.214779 229:0.467037 252:0.5273 253:0.515692 254:0.378666 256:0.729266 257:0.347013 311:0.185561 314:0.385542 320:0.264901 321:0.326116 322:0.259609 323:0.278127 326:0.349049 328:0.161926 329:0.192806 352:0.651658 353:0.480726 354:0.619932 356:0.341723 357:0.912267 411:0.251659 414:0.319588 420:0.67339 421:0.419631 422:0.615875 423:0.429769 426:0.358974 428:0.241191 429:0.276406 452:0.648545 453:0.55409 454:0.538121 456:0.702645 457:0.538372 
0.01 11:0.503846 14:0.201797 20:0.269113 21:0.221561 22:0.244111 23:0.222925 26:0.231992 28:0.191202 29:0.174915 52:0.418969 53:0.4317 54:0.316813 56:0.42402 57:0.727341 111:0.624693 114:0.387699 120:0.89357 121:0.212737 122:0.183824 123:0.566322 126:0.217561 128:0.220169 129:0.463687 152:0.5273 153:0.515692 154:0.376744 156:0.738971 157:0.306397 211:0.20353 214:0.381633 220:0.197749 221:0.325203 222:0.268855 223:0.345486 226:0.337542 228:0.17916 229:0.204719 252:0.623015 253:0.470433 254:0.623884 256:0.339371 257:0.933767 311:0.218274 314:0.264391 320:0.753075 321:0.430988 322:0.585974 323:0.429769 326:0.358974 328:0.218271 329:0.248201 352:0.650986 353:0.562034 354:0.512669 356:0.684414 357:0.551409 411:0.236173 414:0.267354 420:0.308766 421:0.79776 422:0.433735 423:0.396925 426:0.497932 428:0.224318 429:0.265432 452:0.692759 453:0.609828 454:0.550089 456:0.351779 457:0.602326 
0.01 11:0.651923 14:0.387699 20:0.924312 21:0.207672 22:0.159886 23:0.471167 26:0.165254 28:0.244575 29:0.450169 52:0.5273 53:0.542579 54:0.399722 56:0.738971 57:0.299849 111:0.219287 114:0.429164 120:0.22912 121:0.325203 122:0.257353 123:0.316124 126:0.403902 128:0.184794 129:0.199721 152:0.623015 153:0.470433 154:0.620719 156:0.363051 157:0.846614 211:0.235521 214:0.258503 220:0.61254 221:0.430217 222:0.606844 223:0.533854 226:0.347643 228:0.233918 229:0.258154 252:0.622362 253:0.553353 254:0.515937 256:0.676835 257:0.564405 311:0.202482 314:0.213521 320:0.30842 321:0.81935 322:0.412677 323:0.396925 326:0.497932 328:0.199672 329:0.236691 352:0.694892 353:0.61678 354:0.524071 356:0.312036 357:0.616911 411:0.461283 414:0.403436 420:0.550815 421:0.482213 422:0.335932 423:0.358491 426:0.272953 428:0.273449 429:0.310014 452:0.767426 453:0.751319 454:0.506649 456:0.555184 457:0.580233 
0.008365278176902495 11:0.205128 14:0.892191 20:0.355505 21:0.179894 22:0.1399 23:0.156821 26:0.0985169 28:0.777126 29:0.791186 52:0.304982 53:0.317692 54:0.226031 56:0.51685 57:0.19864 111:0.215602 114:0.254319 120:0.312639 121:0.444444 122:0.229278 123:0.344718 126:0.28 128:0.184794 129:0.213687 152:0.636502 153:0.624381 154:0.449894 156:0.685662 157:0.506173 211:0.215665 214:0.422449 220:0.763666 221:0.148374 222:0.177374 223:0.216146 226:0.186027 228:0.200425 229:0.246357 252:0.224712 253:0.201189 254:0.192095 256:0.925643 257:0.224705 311:0.150592 314:0.484605 320:0.964049 321:0.55954 322:0.220499 323:0.480783 326:0.449132 328:0.697484 329:0.294964 352:0.730511 353:0.79527 354:0.35853 356:0.328816 357:0.442239 411:0.146571 414:0.2 420:0.211016 421:0.494071 422:0.248051 423:0.283019 426:0.19024 428:0.152854 429:0.357339 452:0.711933 453:0.400396 454:0.869238 456:0.30374 457:0.505814 
0.01 11:0.280769 14:0.389081 20:0.954893 21:0.179233 22:0.167737 23:0.220113 26:0.261653 28:0.25044 29:0.259661 52:0.284968 53:0.282934 54:0.229736 56:0.859681 57:0.254154 111:0.203931 114:0.2868 120:0.375462 121:0.586721 122:0.245989 123:0.613979 126:0.536585 128:0.196938 129:0.231844 152:0.685229 153:0.547737 154:0.642706 156:0.655331 157:0.352039 211:0.247104 214:0.321769 220:0.631833 221:0.49729 222:0.199022 223:0.256944 226:0.260101 228:0.189261 229:0.258848 252:0.294105 253:0.253056 254:0.260943 256:0.89069 257:0.305567 311:0.113931 314:0.130522 320:0.274361 321:0.537212 322:0.289953 323:0.581412 326:0.416873 328:0.147702 329:0.189928 352:0.866039 353:0.578231 354:0.896959 356:0.230074 357:0.430726 411:0.198562 414:0.226117 420:0.700543 421:0.326746 422:0.815734 423:0.674354 426:0.45244 428:0.197519 429:0.234568 452:0.653057 453:0.536939 454:0.570035 456:0.37823 457:0.491473 
0.01 11:0.212821 14:0.2868 20:0.388379 21:0.572751 22:0.226267 23:0.513361 26:0.511653 28:0.218768 29:0.225085 52:0.685229 53:0.576295 54:0.691061 56:0.655331 57:0.345921 111:0.267813 114:0.368348 120:0.628234 121:0.49729 122:0.190508 123:0.235107 126:0.314146 128:0.194826 129:0.25419 152:0.294105 153:0.253056 154:0.259619 156:0.894608 157:0.268238 211:0.13348 214:0.122449 220:0.205788 221:0.536585 222:0.300279 223:0.722222 226:0.406566 228:0.165338 229:0.201943 252:0.831194 253:0.569871 254:0.902677 256:0.229425 257:0.440878 311:0.164129 314:0.17336 320:0.786187 321:0.335589 322:0.776129 323:0.674354 326:0.45244 328:0.170131 329:0.204317 352:0.655466 353:0.54519 354:0.543074 356:0.34011 357:0.503374 411:0.264934 414:0.411684 420:0.543832 421:0.140316 422:0.18781 423:0.160727 426:0.249793 428:0.209429 429:0.281207 452:0.230769 453:0.194921 454:0.199911 456:0.941016 457:0.225581 
0.01 11:0.279487 14:0.368348 20:0.649847 21:0.48545 22:0.167024 23:0.177918 26:0.270127 28:0.216422 29:0.24678 52:0.294105 53:0.26625 54:0.271422 56:0.894608 57:0.261329 111:0.141278 114:0.16586 120:0.236511 121:0.536585 122:0.287433 123:0.660842 126:0.483902 128:0.171067 129:0.196927 152:0.831194 153:0.569871 154:0.898097 156:0.257047 157:0.392817 211:0.18257 214:0.165986 220:0.640675 221:0.334688 222:0.803771 223:0.837674 226:0.442761 228:0.187135 229:0.215822 252:0.626713 253:0.536174 254:0.546536 256:0.337782 257:0.515238 311:0.23181 314:0.354083 320:0.59508 321:0.144114 322:0.178692 323:0.160727 326:0.249793 328:0.18326 329:0.253237 352:0.236111 353:0.209265 354:0.190456 356:0.937399 357:0.231044 411:0.181416 414:0.241237 420:0.617533 421:0.519763 422:0.709426 423:0.492662 426:0.25062 428:0.173697 429:0.22085 452:0.723438 453:0.423153 454:0.861259 456:0.553664 457:0.384496 
0.01 11:0.147436 14:0.16586 20:0.244648 21:0.52381 22:0.270521 23:0.554852 26:0.454449 28:0.190029 29:0.191186 52:0.831194 53:0.599583 54:0.97082 56:0.257047 57:0.387085 111:0.195946 114:0.21009 120:0.636364 121:0.334688 122:0.769385 123:0.766481 126:0.525854 128:0.192714 129:0.210894 152:0.626713 153:0.536174 154:0.543763 156:0.36152 157:0.461279 211:0.248759 214:0.34966 220:0.478296 221:0.142954 222:0.185056 223:0.199653 226:0.236532 228:0.199894 229:0.263012 252:0.219491 253:0.193591 254:0.19167 256:0.925961 257:0.236489 311:0.146644 314:0.188086 320:0.684957 321:0.533829 322:0.674983 323:0.492662 326:0.25062 328:0.143873 329:0.189928 352:0.725358 353:0.433431 354:0.820524 356:0.526299 357:0.393807 411:0.269912 414:0.406873 420:0.54616 421:0.144269 422:0.194189 423:0.176101 426:0.259719 428:0.212903 429:0.285322 452:0.24453 453:0.209433 454:0.207447 456:0.956218 457:0.249225 
0.007044796934866407 11:0.173077 14:0.812025 20:0.571865 21:0.187831 22:0.115632 23:0.16315 26:0.105932 28:0.350147 29:0.820339 52:0.44181 53:0.450469 54:0.340435 56:0.561581 57:0.359517 111:0.115479 114:0.154112 120:0.206948 121:0.28523 122:0.187166 123:0.377284 126:0.444878 128:0.142027 129:0.174581 152:0.865564 153:0.94516 154:0.484567 156:0.352328 157:0.353909 211:0.180364 214:0.538776 220:0.500804 221:0.0928184 222:0.117318 223:0.142361 226:0.254209 228:0.419989 229:0.442054 252:0.14466 253:0.135117 254:0.120697 256:0.926915 257:0.139781 311:0.150028 314:0.157296 320:0.488174 321:0.230717 322:0.175995 323:0.49406 326:0.629446 328:0.100109 329:0.14964 352:0.573701 353:0.445416 354:0.519003 356:0.690545 357:0.538706 411:0.129978 414:0.772509 420:0.254461 421:0.296443 422:0.715096 423:0.619147 426:0.284533 428:0.249628 429:0.727023 452:0.524476 453:0.395778 454:0.507092 456:0.387656 457:0.455814 
0.01 11:0.20641 14:0.204561 20:0.284404 21:0.714286 22:0.259814 23:0.651195 26:0.326271 28:0.207038 29:0.263729 52:0.761801 53:0.80292 54:0.552107 56:0.263174 57:0.550982 111:0.272727 114:0.40774 120:0.505543 121:0.146341 122:0.18115 123:0.207307 126:0.280976 128:0.223865 129:0.267458 152:0.239286 153:0.218698 154:0.19704 156:0.926164 157:0.216985 211:0.241589 214:0.3 220:0.436495 221:0.384146 222:0.25419 223:0.538194 226:0.636364 228:0.215311 229:0.259542 252:0.485099 253:0.474397 254:0.349341 256:0.722593 257:0.402275 311:0.175973 314:0.153949 320:0.275307 321:0.717862 322:0.276467 323:0.512928 326:0.325889 328:0.156455 329:0.196403 352:0.687052 353:0.531584 354:0.620355 356:0.221362 357:0.810242 411:0.271018 414:0.372509 420:0.588829 421:0.151515 422:0.198441 423:0.171209 426:0.276261 428:0.189082 429:0.275034 452:0.239116 453:0.197559 454:0.212766 456:0.921861 457:0.267442 
0.01 11:0.284615 14:0.40774 20:0.522936 21:0.142857 22:0.157031 23:0.153305 26:0.23411 28:0.24868 29:0.259661 52:0.239286 53:0.230101 54:0.202872 56:0.926164 57:0.209592 111:0.261671 114:0.346234 120:0.448633 121:0.384146 122:0.243316 123:0.492454 126:0.750244 128:0.220697 129:0.254888 152:0.485099 153:0.474397 154:0.347569 156:0.732537 157:0.357276 211:0.194153 214:0.146259 220:0.206592 221:0.71748 222:0.286313 223:0.637153 226:0.313973 228:0.173844 229:0.208189 252:0.657385 253:0.522299 254:0.624309 256:0.220845 257:0.829338 311:0.238015 314:0.31593 320:0.649953 321:0.155616 322:0.188806 323:0.171209 326:0.276261 328:0.160832 329:0.246763 352:0.2444 353:0.211856 354:0.202703 356:0.91707 357:0.273918 411:0.189712 414:0.210997 420:0.323507 421:0.522398 422:0.29837 423:0.524808 426:0.34574 428:0.181141 429:0.233882 452:0.797428 453:0.628628 454:0.730496 456:0.450593 457:0.520155 
0.01 11:0.273077 14:0.346234 20:0.464067 21:0.375 22:0.223412 23:0.405767 26:0.743644 28:0.245161 29:0.247458 52:0.485099 53:0.499131 54:0.367763 56:0.732537 57:0.351208 111:0.208845 114:0.190048 120:0.237251 121:0.71748 122:0.274064 123:0.583002 126:0.376585 128:0.179514 129:0.203212 152:0.657385 153:0.522299 154:0.621142 156:0.248775 157:0.750468 211:0.254826 214:0.310884 220:0.52492 221:0.154472 222:0.195531 223:0.212674 226:0.263468 228:0.178097 229:0.256766 252:0.22754 253:0.196234 254:0.203995 256:0.905942 257:0.280374 311:0.155104 314:0.158635 320:0.326395 321:0.536536 322:0.283884 323:0.524808 326:0.34574 328:0.152079 329:0.203597 352:0.798835 353:0.635245 354:0.695946 356:0.416909 357:0.532751 411:0.265487 414:0.371821 420:0.501939 421:0.158762 422:0.194189 423:0.178896 426:0.264682 428:0.192556 429:0.283265 452:0.338371 453:0.340369 454:0.215869 456:0.940103 457:0.262403 
0.01 11:0.101282 14:0.141672 20:0.154434 21:0.746693 22:0.167024 23:0.462025 26:0.241525 28:0.116129 29:0.328814 52:0.647379 53:0.406326 54:0.836962 56:0.300858 57:0.317598 111:0.18059 114:0.179682 120:0.249815 121:0.228997 122:0.806818 123:0.257347 126:0.650732 128:0.128828 129:0.135475 152:0.437677 153:0.406343 154:0.342495 156:0.557904 157:0.585859 211:0.1754 214:0.108844 220:0.176045 221:0.537263 222:0.235335 223:0.588542 226:0.574916 228:0.122807 229:0.158917 252:0.688057 253:0.529237 254:0.675308 256:0.326025 257:0.735473 311:0.116187 314:0.109103 320:0.262062 321:0.290934 322:0.218476 323:0.668064 326:0.414392 328:0.113239 329:0.151079 352:0.843862 353:0.729511 354:0.657939 356:0.400452 357:0.62763 411:0.157633 414:0.166323 420:0.275407 421:0.402503 422:0.226081 423:0.50594 426:0.700579 428:0.146898 429:0.177641 452:0.783217 453:0.698879 454:0.608156 456:0.358468 457:0.447674 
0.01 11:0.188462 14:0.179682 20:0.25841 21:0.223545 22:0.825125 23:0.197609 26:0.635593 28:0.143109 29:0.131525 52:0.437677 53:0.427529 54:0.362205 56:0.557904 57:0.581949 111:0.187961 114:0.152039 120:0.209165 121:0.537263 122:0.225267 123:0.538523 126:0.679024 128:0.128828 129:0.153631 152:0.688057 153:0.529237 154:0.671882 156:0.350184 157:0.664048 211:0.135687 214:0.10068 220:0.195338 221:0.289973 222:0.226257 223:0.829861 226:0.40404 228:0.131845 229:0.164469 252:0.809658 253:0.724149 254:0.662133 256:0.397204 257:0.642422 311:0.122391 314:0.115127 320:0.267739 321:0.413396 322:0.215105 323:0.50594 326:0.700579 328:0.114333 329:0.144604 352:0.784722 353:0.704244 354:0.579392 356:0.319135 357:0.458515 411:0.134956 414:0.813058 420:0.307215 421:0.185771 422:0.121899 423:0.202655 426:0.0909843 428:0.341935 429:0.928669 452:0.562824 453:0.670515 454:0.213209 456:0.415324 457:0.312016 
0.01 11:0.196154 14:0.152039 20:0.216361 21:0.524471 22:0.20414 23:0.446554 26:0.666314 28:0.143109 29:0.149153 52:0.688057 53:0.55683 54:0.72302 56:0.350184 57:0.660876 111:0.143735 114:0.143746 120:0.226903 121:0.289973 122:0.216578 123:0.759333 126:0.480976 128:0.137804 129:0.159218 152:0.809658 153:0.724149 154:0.658774 156:0.418811 157:0.578376 211:0.141754 214:0.106803 220:0.200161 221:0.412602 222:0.222765 223:0.628472 226:0.695286 228:0.132908 229:0.158223 252:0.75223 253:0.698381 254:0.583085 256:0.317127 257:0.469321 311:0.0992668 314:0.74498 320:0.306528 321:0.190798 322:0.115981 323:0.202655 326:0.0909843 328:0.329322 329:0.932374 352:0.56586 353:0.676385 354:0.203125 356:0.379477 357:0.319571 411:0.104535 414:0.110653 420:0.313421 421:0.303689 422:0.22679 423:1 426:0.168734 428:0.180149 429:0.197531 452:0.614482 453:0.524406 454:0.511082 456:0.206142 457:0.294574 
0.01 11:0.15 14:0.143746 20:0.234709 21:0.283069 22:0.194861 23:0.642053 26:0.451271 28:0.153079 29:0.154576 52:0.809658 53:0.761905 54:0.708661 56:0.418811 57:0.574396 111:0.150491 114:0.149965 120:0.231338 121:0.412602 122:0.213235 123:0.57506 126:0.818537 128:0.13886 129:0.152933 152:0.75223 153:0.698381 154:0.580127 156:0.341605 157:0.419005 211:0.11914 214:0.746939 220:0.233119 221:0.189702 222:0.120112 223:0.251736 226:0.0749158 228:0.341839 229:0.918112 252:0.5397 253:0.66997 254:0.20442 256:0.376549 257:0.327103 311:0.0682459 314:0.0609103 320:0.314096 321:0.311908 322:0.215779 323:1 326:0.168734 328:0.150985 329:0.165468 352:0.617159 353:0.53288 354:0.486909 356:0.15747 357:0.301707 411:0.182522 414:0.196564 420:0.283165 421:0.485507 422:0.587527 423:0.472397 426:0.756824 428:0.154342 429:0.360082 452:0.590571 453:0.545515 454:0.435727 456:0.490119 457:0.462791 
0.002533151538692992 11:0.074359 14:0.222529 20:0.321101 21:0.422619 22:0.103498 23:0.340366 26:0.601695 28:0.537243 29:0.451525 52:0.907331 53:1 54:0.599352 56:0.317708 57:0.345921 111:0.492629 114:0.486524 120:0.440503 121:0.0345528 122:0.0581551 123:0.0635425 126:0.117073 128:0.111932 129:0.149441 152:0.131825 153:0.171787 154:0.048203 156:0.966912 157:0.0325477 211:0.604523 214:0.390476 220:0.393891 221:0.177507 222:0.0691341 223:0.296007 226:0.249158 228:0.314726 229:0.378904 252:0.343485 253:0.42187 254:0.140246 256:0.888783 257:0.338074 311:0.229554 314:0.455154 320:0.122044 321:0.320027 322:0.148348 323:0.556254 326:0.16129 328:0.0804158 329:0.115827 352:0.879928 353:0.705863 354:0.756757 356:0.101 357:0.582374 411:0.481748 414:0.272852 420:0.186967 421:0.146245 422:0.427356 423:0.131377 426:0.117452 428:0.104715 429:0.0980796 452:0.182495 453:0.137863 454:0.181738 456:0.404682 457:0.94031 
0.01 11:0.170513 14:0.464409 20:0.320336 21:0.21164 22:0.127766 23:0.201828 26:0.381356 28:0.300293 29:0.770847 52:0.574505 53:0.367397 54:0.733673 56:0.738664 57:0.175982 111:0.153563 114:0.431237 120:0.28677 121:0.250678 122:0.17246 123:0.503574 126:0.602927 128:0.476241 129:0.538408 152:0.789428 153:0.819954 154:0.496829 156:0.671262 157:0.27385 211:0.181467 214:0.547619 220:0.7709 221:0.119919 222:0.127793 223:0.195313 226:0.154882 228:0.165869 229:0.236641 252:0.301283 253:0.351503 254:0.148321 256:0.860502 257:0.263714 311:0.0851664 314:0.131191 320:0.479659 321:0.455345 322:0.186109 323:0.389937 326:0.236559 328:0.100109 329:0.129496 352:0.81474 353:0.608358 354:0.76098 356:0.605034 357:0.369591 411:0.123894 414:0.298969 420:0.224981 421:0.28722 422:0.19915 423:0.581412 426:0.604632 428:0.145906 429:0.246914 452:0.946312 453:0.900396 454:0.657801 456:0.20979 457:0.375194 
0.01 11:0.160256 14:0.431237 20:0.296636 21:0.244709 22:0.147752 23:0.415612 26:0.583686 28:0.529032 29:0.522712 52:0.789428 53:0.862704 54:0.531264 56:0.671262 57:0.266994 111:0.194717 114:0.597789 120:0.756098 121:0.119919 122:0.122326 123:0.178713 126:0.192195 128:0.171595 129:0.231844 152:0.301283 153:0.351503 154:0.147569 156:0.865502 157:0.229704 211:0.10535 214:0.123129 220:0.380225 221:0.454607 222:0.192737 223:0.484375 226:0.223064 228:0.119086 229:0.14365 252:0.781379 253:0.600595 254:0.765831 256:0.598665 257:0.378302 311:0.0879865 314:0.244311 320:0.206244 321:0.294993 322:0.189481 323:0.581412 326:0.604632 328:0.113239 329:0.217266 352:0.946685 353:0.90217 354:0.626689 356:0.161342 357:0.384279 411:0.110619 414:0.131959 420:0.182312 421:0.658103 422:0.36995 423:0.443047 426:0.156328 428:0.112655 429:0.138546 452:0.8545 453:0.559367 454:0.935727 456:0.32107 457:0.329457 
0.01 11:0.203205 14:0.597789 20:0.78211 21:0.117063 22:0.0942184 23:0.127989 26:0.137712 28:0.190616 29:0.225085 52:0.301283 53:0.36983 54:0.14868 56:0.865502 57:0.222432 111:0.109951 114:0.166551 120:0.396896 121:0.454607 122:0.184492 123:0.443209 126:0.27122 128:0.125132 129:0.138268 152:0.781379 153:0.600595 154:0.761945 156:0.613051 157:0.335204 211:0.108108 214:0.238095 220:0.14791 221:0.294038 222:0.196229 223:0.722222 226:0.597643 228:0.131845 229:0.228314 252:0.909506 253:0.900231 254:0.630684 256:0.161741 257:0.393336 311:0.0744501 314:0.08166 320:0.15421 321:0.675913 322:0.351989 323:0.443047 326:0.156328 328:0.0765864 329:0.103597 352:0.855511 353:0.567217 354:0.89147 356:0.279445 357:0.337435 411:0.356195 414:0.419244 420:0.560124 421:0.0928854 422:0.124026 423:0.128581 426:0.162945 428:0.422829 429:0.199588 452:0.298669 453:0.235488 454:0.278812 456:0.877166 457:0.306589 
0.01 11:0.114744 14:0.166551 20:0.41055 21:0.443783 22:0.1606 23:0.362166 26:0.223517 28:0.139003 29:0.134237 52:0.781379 53:0.631908 54:0.821677 56:0.613051 57:0.328927 111:0.113022 114:0.283345 120:0.183296 121:0.294038 122:0.187834 123:0.660842 126:0.705366 128:0.137804 129:0.223464 152:0.909506 153:0.900231 154:0.627484 156:0.191789 157:0.349046 211:0.0948704 214:0.0727891 220:0.103698 221:0.675474 222:0.364525 223:0.550347 226:0.141414 228:0.0962254 229:0.118668 252:0.82097 253:0.558639 254:0.897153 256:0.278043 257:0.345388 311:0.324873 314:0.361446 320:0.614948 321:0.0953992 322:0.118004 323:0.128581 326:0.162945 328:0.41849 329:0.167626 352:0.303539 353:0.249109 354:0.265625 356:0.869635 357:0.314013 411:0.143805 414:0.224055 420:0.851047 421:0.329381 422:0.582566 423:0.332635 426:0.606286 428:0.636228 429:0.454733 452:0.63095 453:0.389512 454:0.724734 456:0.350562 457:0.509302 
0.01 11:0.117949 14:0.283345 20:0.189602 21:0.287037 22:0.164168 23:0.554852 26:0.694915 28:0.153079 29:0.216949 52:0.909506 53:0.947167 54:0.674386 56:0.191789 57:0.3429 111:0.0982801 114:0.115411 120:0.142646 121:0.675474 122:0.34893 123:0.503574 126:0.176585 128:0.102429 129:0.113128 152:0.82097 153:0.558639 154:0.8926 156:0.303922 157:0.304901 211:0.339768 214:0.357143 220:0.495177 221:0.0941734 222:0.122207 223:0.159722 226:0.148148 228:0.428495 229:0.18043 252:0.284968 253:0.234225 254:0.267318 256:0.859231 257:0.321414 311:0.108291 314:0.171352 320:0.969726 321:0.338295 322:0.554282 323:0.332635 326:0.606286 328:0.65372 329:0.435252 352:0.633513 353:0.400389 354:0.690456 356:0.310745 357:0.521636 411:0.184181 414:0.610309 420:0.489527 421:0.0777339 422:0.103473 423:0.0880503 426:0.148056 428:0.154839 429:0.369684 452:0.158583 453:0.157982 454:0.107713 456:0.908179 457:0.300388 
0.01 11:0.102564 14:0.115411 20:0.147554 21:0.659392 22:0.336188 23:0.415612 26:0.120763 28:0.113783 29:0.109831 52:0.82097 53:0.587765 54:0.964799 56:0.303922 57:0.298338 111:0.371007 114:0.404285 120:0.502587 121:0.0941734 122:0.116979 123:0.146148 126:0.18439 128:0.432418 129:0.175279 152:0.284968 153:0.234225 154:0.265962 156:0.864277 157:0.282828 211:0.127965 214:0.163946 220:0.796624 221:0.337398 222:0.574022 223:0.413194 226:0.599327 228:0.657097 229:0.438584 252:0.605395 253:0.388503 254:0.694858 256:0.308866 257:0.533929 311:0.149464 314:0.547523 320:0.528855 321:0.0798376 322:0.0984491 323:0.0880503 326:0.148056 328:0.123085 329:0.346043 352:0.164427 353:0.172983 354:0.102618 356:0.902549 357:0.307662 411:0.122788 414:0.10378 420:0.192397 421:0.380764 422:0.833451 423:0.357792 426:0.674938 428:0.0972705 429:0.109739 452:0.681254 453:0.519789 454:0.648493 456:0.371846 457:0.364729 
0.008285794587842621 11:0.364744 14:0.40152 20:0.543578 21:0.243386 22:0.296931 23:0.261603 26:0.429025 28:0.265689 29:0.343729 52:0.400479 53:0.356274 54:0.377953 56:0.849265 57:0.41994 111:0.950246 114:0.334485 120:0.380636 121:0.249322 122:0.246658 123:0.251787 126:0.364878 128:0.290919 129:0.286313 152:0.336524 153:0.306244 154:0.273996 156:0.519608 157:0.461654 211:0.320463 214:0.421088 220:0.520096 221:0.249322 222:0.257682 223:0.275174 226:0.303872 228:0.233918 229:0.358085 252:0.357842 253:0.306244 254:0.317042 256:0.874484 257:0.396587 311:0.360406 314:0.293842 320:0.458846 321:0.316644 322:0.38031 323:0.357792 326:0.397022 328:0.218271 329:0.282014 352:0.553539 353:0.47781 354:0.438767 356:0.538238 357:0.853116 411:0.283186 414:0.685223 420:0.432118 421:0.3083 422:0.261517 423:0.357792 426:0.235732 428:0.483375 429:0.911523 452:0.550643 453:0.532982 454:0.374113 456:0.535117 457:0.378682 
0.01 11:0.991667 14:0.334485 20:0.393731 21:0.243386 22:0.226981 23:0.192686 26:0.325212 28:0.323167 29:0.277966 52:0.336524 53:0.322211 54:0.28717 56:0.519608 57:0.456571 111:0.349509 114:0.469247 120:0.525499 121:0.249322 122:0.246658 123:0.251787 126:0.364878 128:0.239176 129:0.35405 152:0.357842 153:0.306244 154:0.315433 156:0.878983 157:0.352039 211:0.374517 214:0.288435 220:0.36254 221:0.315718 222:0.393855 223:0.444444 226:0.386364 228:0.233918 229:0.29077 252:0.527735 253:0.46746 254:0.441564 256:0.532888 257:0.873222 311:0.250423 314:0.620482 320:0.458846 321:0.316644 322:0.24882 323:0.357792 326:0.235732 328:0.48523 329:0.914388 352:0.553763 353:0.541302 354:0.356419 356:0.506615 357:0.387852 411:0.283186 414:0.685223 420:0.432118 421:0.3083 422:0.261517 423:0.357792 426:0.235732 428:0.483375 429:0.911523 452:0.550643 453:0.532982 454:0.374113 456:0.535117 457:0.378682 
0.01 11:0.190385 14:0.521769 20:0.245413 21:0.262566 22:0.474661 23:0.28903 26:0.633475 28:0.512023 29:0.179661 52:0.430716 53:0.416058 54:0.362668 56:0.461397 57:0.680891 111:0.168305 114:0.403594 120:0.601626 121:0.0514905 122:0.303476 123:0.19301 126:0.166829 128:0.162619 129:0.171089 152:0.144442 153:0.16551 154:0.0807611 156:0.8125 157:0.0478863 211:0.17209 214:0.173469 220:0.165595 221:0.365854 222:0.431564 223:0.256076 226:0.659091 228:0.0999468 229:0.130465 252:0.380901 253:0.371655 254:0.277943 256:0.517318 257:0.72694 311:0.159052 314:0.293842 320:0.551561 321:0.0764547 322:0.174646 323:0.0992313 326:0.220017 328:0.0913567 329:0.143165 352:0.1306 353:0.120505 354:0.107264 356:0.893514 357:0.366812 411:0.138827 414:0.291409 420:0.209465 421:0.33004 422:0.65769 423:0.740042 426:0.315964 428:0.568734 429:0.188615 452:0.517257 453:0.475264 454:0.386082 456:0.237762 457:0.613566 
0.01 11:0.300641 14:0.112647 20:0.197248 21:0.64418 22:0.680228 23:0.626582 26:0.471398 28:0.0950147 29:0.0772881 52:0.460518 53:0.355579 54:0.506716 56:0.523897 57:0.46639 111:0.108722 114:0.396683 120:0.324464 121:0.310976 122:0.210561 123:0.664813 126:0.759024 128:0.100317 129:0.114525 152:0.637155 153:0.629336 154:0.44482 156:0.491115 157:0.601197 211:0.310535 214:0.188435 220:0.26045 221:0.565718 222:0.247905 223:0.835938 226:0.438552 228:0.0919724 229:0.0971548 252:0.667174 253:0.496531 254:0.676583 256:0.321258 257:0.706623 311:0.261139 314:0.556894 320:0.543046 321:0.194181 322:0.260283 323:0.169811 326:0.455749 328:0.114333 329:0.167626 352:0.393369 353:0.346615 354:0.307855 356:0.895127 357:0.250893 411:0.361173 414:0.83299 420:0.428239 421:0.120553 422:0.213324 423:0.171209 426:0.488834 428:0.442184 429:0.624143 452:0.36499 453:0.372032 454:0.225621 456:0.70599 457:0.381395 
0.01 11:0.317308 14:0.50933 20:0.503058 21:0.0489418 22:0.0428266 23:0.0316456 26:0.0519068 28:0.38827 29:0.261017 52:0.0994127 53:0.111227 54:0.0634553 56:0.958333 57:0.154456 111:0.0780098 114:0.0843124 120:0.124908 121:0.333333 122:0.149064 123:0.421763 126:0.630244 128:0.0887012 129:0.105447 152:0.939308 153:0.811364 154:0.799154 156:0.310355 157:0.421624 211:0.256481 214:0.142177 220:0.374598 221:0.132791 222:0.24162 223:0.352431 226:0.695286 228:0.321637 229:0.333796 252:0.241027 253:0.161216 254:0.275393 256:0.777248 257:0.483543 311:0.233503 314:0.528112 320:0.211921 321:0.338295 322:0.306136 323:0.487072 326:0.489661 328:0.427243 329:0.530935 352:0.805332 353:0.826369 354:0.459037 356:0.512101 357:0.375943 411:0.276549 414:0.212371 420:0.622188 421:0.231884 422:0.639263 423:0.297694 426:0.382961 428:0.282382 429:0.288066 452:0.661178 453:0.539578 454:0.582447 456:0.782609 457:0.353876 
0.01 11:0.0814103 14:0.0843124 20:0.129205 21:0.325397 22:0.122769 23:0.343179 26:0.613347 28:0.0985337 29:0.102373 52:0.939308 53:0.853667 54:0.862436 56:0.310355 57:0.416163 111:0.278256 114:0.185902 120:0.391722 121:0.132791 122:0.231283 123:0.322478 126:0.818537 128:0.326294 129:0.329609 152:0.241027 153:0.161216 154:0.273996 156:0.785233 157:0.432099 211:0.250414 214:0.526531 220:0.152733 221:0.337398 222:0.317039 223:0.605035 226:0.48064 228:0.437002 229:0.530881 252:0.772243 253:0.822927 254:0.461963 256:0.50715 257:0.384803 311:0.243655 314:0.159973 320:0.690634 321:0.23816 322:0.608227 323:0.297694 326:0.382961 328:0.263676 329:0.260432 352:0.66353 353:0.547781 354:0.554899 356:0.76928 357:0.362445 411:0.389381 414:0.701718 420:0.312645 421:0.121212 422:0.20978 423:0.340321 426:0.258892 428:0.198015 429:0.640604 452:0.407399 453:0.359499 454:0.325798 456:0.844634 457:0.263178 
0.01 11:0.290385 14:0.185902 20:0.405199 21:0.12963 22:0.210564 23:0.255274 26:0.817797 28:0.362463 29:0.32 52:0.241027 53:0.169621 54:0.28717 56:0.785233 57:0.426737 111:0.271499 114:0.576365 120:0.187731 121:0.337398 122:0.303476 123:0.553614 126:0.569756 128:0.440866 129:0.527933 152:0.772243 153:0.822927 154:0.459619 156:0.524816 157:0.34119 211:0.260342 214:0.152381 220:0.559486 221:0.237127 222:0.629888 223:0.369792 226:0.372054 228:0.278044 229:0.269951 252:0.634544 253:0.538817 254:0.558436 256:0.760407 257:0.370987 311:0.358714 314:0.636546 320:0.31315 321:0.124493 322:0.199595 323:0.340321 326:0.258892 328:0.170678 329:0.630216 352:0.411514 353:0.37091 354:0.310389 356:0.835108 357:0.269551 411:0.230088 414:0.156014 420:0.209465 421:0.452569 422:0.493976 423:0.473096 426:0.375517 428:0.144417 429:0.152949 452:0.840965 453:0.689314 454:0.734486 456:0.37215 457:0.601938 
0.01 11:0.283333 14:0.576365 20:0.19419 21:0.329365 22:0.287652 23:0.459916 26:0.547669 28:0.489736 29:0.512542 52:0.772243 53:0.865832 54:0.490505 56:0.524816 57:0.33497 111:0.282555 114:0.196268 120:0.561715 121:0.237127 122:0.602941 123:0.338364 126:0.443902 128:0.282999 129:0.265363 152:0.634544 153:0.538817 154:0.555603 156:0.768995 157:0.32847 211:0.372863 214:0.636735 220:0.238746 221:0.123306 222:0.206704 223:0.422743 226:0.245791 228:0.187666 229:0.626648 252:0.389819 253:0.358441 254:0.312367 256:0.82523 257:0.275904 311:0.196277 314:0.105087 320:0.187323 321:0.464817 322:0.469993 323:0.473096 326:0.375517 328:0.111597 329:0.118705 352:0.84207 353:0.694849 354:0.699747 356:0.333656 357:0.616514 411:0.172566 414:0.74433 420:0.593483 421:0.29776 422:0.153083 423:0.255066 426:0.375517 428:0.429777 429:0.566529 452:0.405369 453:0.350594 454:0.333777 456:0.834296 457:0.352713 
0.01 11:0.294872 14:0.196268 20:0.58104 21:0.231481 22:0.607423 23:0.269339 26:0.411017 28:0.31437 29:0.257627 52:0.634544 53:0.56691 54:0.595646 56:0.768995 57:0.32213 111:0.407862 114:0.688321 120:0.266814 121:0.123306 122:0.197861 123:0.386815 126:0.297561 128:0.193242 129:0.624302 152:0.389819 153:0.358441 154:0.310782 156:0.831495 157:0.240928 211:0.21401 214:0.0965986 220:0.131833 221:0.464092 222:0.486732 223:0.587674 226:0.364478 228:0.13025 229:0.133241 252:0.807918 253:0.688801 254:0.704207 256:0.331427 257:0.631044 311:0.13762 314:0.678046 320:0.655629 321:0.305819 322:0.145651 323:0.255066 326:0.375517 328:0.426149 329:0.552518 352:0.409498 353:0.362164 354:0.31799 356:0.824137 357:0.361254 411:0.127212 414:0.308591 420:0.16602 421:0.308959 422:1 423:0.272537 426:0.343259 428:0.126055 429:0.131001 452:0.562373 453:0.466029 454:0.487145 456:0.272727 457:0.399225 
0.01 11:0.425641 14:0.688321 20:0.275994 21:0.12037 22:0.174875 23:0.312236 26:0.252119 28:0.214663 29:0.606102 52:0.389819 53:0.377129 54:0.327466 56:0.831495 57:0.233761 111:0.230958 114:0.139599 120:0.168514 121:0.464092 122:0.465909 123:0.537728 126:0.435122 128:0.13622 129:0.127793 152:0.807918 153:0.688801 154:0.700634 156:0.355392 157:0.567901 211:0.156646 214:0.678912 220:0.529743 221:0.304878 222:0.150838 223:0.31684 226:0.364478 228:0.435938 229:0.5517 252:0.387862 253:0.349521 254:0.320017 256:0.814426 257:0.369768 311:0.0913706 314:0.253681 320:0.134342 321:0.317321 322:0.95145 323:0.272537 326:0.343259 328:0.0913567 329:0.0956835 352:0.565412 353:0.475543 354:0.464105 356:0.228138 357:0.408892 411:0.258296 414:0.487973 420:0.678045 421:0.208827 422:0.294118 423:0.163522 426:0.645161 428:0.391067 429:0.441701 452:0.443041 453:0.30376 454:0.470745 456:0.784129 457:0.30155 
0.01 11:0.727564 14:0.324119 20:0.180428 21:0.306217 22:0.348323 23:0.253868 26:0.273305 28:0.141349 29:0.430508 52:0.311725 53:0.241223 54:0.342288 56:0.454963 57:0.795695 111:0.103194 114:0.246026 120:0.0931264 121:0.216125 122:0.256684 123:0.131851 126:0.24 128:0.111932 129:0.174581 152:0.282358 153:0.224645 154:0.27315 156:0.279412 157:0.847737 211:0.623276 214:0.285034 220:0.338424 221:0.107046 222:0.120112 223:0.128472 226:0.246633 228:0.103668 229:0.181818 252:0.211877 253:0.185002 254:0.187845 256:0.798221 257:0.71475 311:0.280316 314:0.329987 320:0.552507 321:0.0453315 322:0.149697 323:0.0607966 326:0.111663 328:0.303611 329:0.342446 352:0.0701165 353:0.0667315 354:0.0633446 356:0.973863 357:0.244145 411:0.477323 414:0.438488 420:0.450737 421:0.0731225 422:0.588235 423:0.0852551 426:0.103391 428:0.362779 429:0.21262 452:0.200541 453:0.218008 454:0.109486 456:0.927638 457:0.296899 
0.01 11:0.527564 14:0.423635 20:0.41208 21:0.0720899 22:0.556031 23:0.0555556 26:0.0529661 28:0.409384 29:0.183051 52:0.190342 53:0.228015 54:0.101436 56:0.915135 57:0.266616 111:0.559582 114:0.75812 120:0.464154 121:0.165989 122:0.149733 123:0.312947 126:0.201951 128:0.611404 129:0.772346 152:0.427018 153:0.425834 154:0.296829 156:0.697304 157:0.24841 211:0.259239 214:0.172789 220:0.252412 221:0.409892 222:0.372207 223:0.429688 226:0.3367 228:0.266348 229:0.281055 252:0.732434 253:0.713908 254:0.524437 256:0.479504 257:0.659082 311:0.360406 314:0.299197 320:0.46263 321:0.456022 322:0.557653 323:0.436059 326:0.287014 328:0.180525 329:0.346763 352:0.796147 353:0.711046 354:0.592061 356:0.628913 357:0.478364 411:0.288164 414:0.409622 420:0.264546 421:0.62253 422:0.224663 423:0.371069 426:0.403639 428:0.270968 429:0.34225 452:0.832168 453:0.665897 454:0.74867 456:0.545759 457:0.536047 
0.01 11:0.247436 14:0.674499 20:0.469419 21:0.0489418 22:0.0442541 23:0.0471167 26:0.110169 28:0.201173 29:0.24678 52:0.0841853 53:0.0865485 54:0.0639185 56:0.932292 57:0.0589124 111:0.163391 114:0.109883 120:0.167036 121:0.483062 122:0.180481 123:0.602065 126:0.357073 128:0.110876 129:0.185754 152:0.932565 153:0.814007 154:0.782664 156:0.332721 157:0.41489 211:0.0849421 214:0.0530612 220:0.0715434 221:0.831978 222:0.15852 223:0.545139 226:0.145623 228:0.0813397 229:0.152672 252:0.774853 253:0.71589 254:0.60476 256:0.0584684 257:0.684681 311:0.261139 314:0.256359 320:0.479659 321:0.0595399 322:0.0950775 323:0.0845563 326:0.146402 328:0.106674 329:0.153237 352:0.0999104 353:0.0926466 354:0.0857264 356:0.993869 357:0.188567 411:0.445243 414:0.317526 420:0.271528 421:0.481555 422:0.18781 423:0.408106 426:0.66005 428:0.372208 429:0.426612 452:0.699977 453:0.663588 454:0.492021 456:0.388872 457:0.685271 
0.01 11:0.170513 14:0.109883 20:0.172783 21:0.471561 22:0.156317 23:0.502813 26:0.316737 28:0.123167 29:0.180339 52:0.932565 53:0.856448 54:0.844372 56:0.332721 57:0.409366 111:0.0872236 114:0.0953697 120:0.113082 121:0.831978 122:0.151738 123:0.498809 126:0.181463 128:0.0876452 129:0.147346 152:0.774853 153:0.71589 154:0.601691 156:0.0922181 157:0.617284 211:0.277441 214:0.25034 220:0.380225 221:0.0582656 222:0.0984637 223:0.105035 226:0.131313 228:0.125465 229:0.166551 252:0.0872308 253:0.0746614 254:0.0862728 256:0.98157 257:0.193011 311:0.41568 314:0.262383 320:0.263009 321:0.494587 322:0.178692 323:0.408106 326:0.66005 328:0.362691 329:0.405755 352:0.702061 353:0.669582 354:0.46875 356:0.351404 357:0.701866 411:0.345686 414:0.190378 420:0.313421 421:0.256258 422:0.206237 423:0.352201 426:0.134822 428:0.130025 429:0.272977 452:0.823821 453:0.94624 454:0.355496 456:0.396777 457:0.255426 
0.01 11:0.0910256 14:0.0953697 20:0.116972 21:0.812169 22:0.125625 23:0.411392 26:0.126059 28:0.0973607 29:0.143051 52:0.774853 53:0.753215 54:0.646132 56:0.0922181 57:0.613671 111:0.301597 114:0.295784 120:0.396896 121:0.0582656 122:0.0942513 123:0.096108 126:0.164878 128:0.131468 129:0.161313 152:0.0872308 153:0.0746614 154:0.0858351 156:0.98223 157:0.164609 211:0.428571 214:0.256463 220:0.196141 221:0.493902 222:0.185056 223:0.506944 226:0.65404 228:0.374269 229:0.410132 252:0.67196 253:0.663033 254:0.471738 256:0.348904 257:0.718407 311:0.314157 314:0.138554 320:0.314096 321:0.263194 322:0.196224 323:0.352201 326:0.134822 328:0.095733 329:0.244604 352:0.825045 353:0.947198 354:0.338682 356:0.359793 357:0.261612 411:0.216261 414:0.389691 420:0.274631 421:0.381423 422:0.194189 423:0.466806 426:0.535153 428:0.14938 429:0.327846 452:0.774419 453:0.783971 454:0.476507 456:0.483126 457:0.667829 
0.01 11:0.254487 14:0.362129 20:0.666667 21:0.118386 22:0.125625 23:0.127286 26:0.198093 28:0.211144 29:0.224407 52:0.190777 53:0.182134 54:0.163502 56:0.950368 57:0.167674 111:0.280098 114:0.400138 120:0.473762 121:0.254065 122:0.266711 123:0.292295 126:0.279024 128:0.273495 129:0.285615 152:0.378073 153:0.333994 154:0.319239 156:0.787071 157:0.450804 211:0.258136 214:0.286395 220:0.290997 221:0.385501 222:0.335196 223:0.401042 226:0.824916 228:0.270601 229:0.550312 252:0.591473 253:0.420548 254:0.626434 256:0.412774 257:0.541243 311:0.161873 314:0.477242 320:0.333964 321:0.324763 322:0.260958 323:0.378057 326:0.218362 328:0.217177 329:0.271223 352:0.734543 353:0.779397 354:0.386824 356:0.313327 357:0.461294 411:0.200221 414:0.298969 420:0.303336 421:0.376812 422:0.274982 423:0.449336 426:0.210091 428:0.224318 429:0.412894 452:0.854726 453:0.837071 454:0.562943 456:0.30222 457:0.508527 
0.01 11:0.292308 14:0.400138 20:0.490061 21:0.248016 22:0.248394 23:0.228551 26:0.231992 28:0.303812 29:0.277288 52:0.378073 53:0.351408 54:0.33673 56:0.787071 57:0.445619 111:0.280098 114:0.332412 120:0.314856 121:0.385501 122:0.320856 123:0.366958 126:0.96878 128:0.275607 129:0.547486 152:0.591473 153:0.420548 154:0.623256 156:0.433824 157:0.485223 211:0.180364 214:0.47483 220:0.256431 221:0.323848 222:0.270251 223:0.469618 226:0.204545 228:0.232855 229:0.280361 252:0.703502 253:0.775025 254:0.38929 256:0.311408 257:0.472166 311:0.165821 314:0.244311 320:0.301798 321:0.387009 322:0.261632 323:0.449336 326:0.210091 328:0.199672 329:0.391367 352:0.855735 353:0.839974 354:0.536318 356:0.259439 357:0.520842 411:0.246128 414:0.639175 420:0.348332 421:0.265481 422:0.279943 423:0.283019 426:0.214227 428:0.820844 429:0.687929 452:0.517934 453:0.500989 454:0.352837 456:0.407115 457:0.620155 
0.01 11:0.292308 14:0.332412 20:0.325688 21:0.376323 22:0.30621 23:0.294655 26:0.980932 28:0.306158 29:0.531525 52:0.591473 53:0.442475 54:0.669755 56:0.433824 57:0.480363 111:0.193489 114:0.523842 120:0.283075 121:0.323848 122:0.25869 123:0.429706 126:0.249756 128:0.23812 129:0.275838 152:0.703502 153:0.775025 154:0.387315 156:0.336091 157:0.421624 211:0.184225 214:0.238095 220:0.2291 221:0.386179 222:0.27095 223:0.55816 226:0.196128 228:0.215843 229:0.396253 252:0.821188 253:0.836802 254:0.539737 256:0.258341 257:0.533117 311:0.212634 314:0.575636 320:0.35667 321:0.272666 322:0.266352 323:0.283019 326:0.214227 328:0.857221 329:0.679856 352:0.521281 353:0.50988 354:0.336149 356:0.370765 357:0.635173 411:0.186947 414:0.261856 420:0.327386 421:0.322793 422:0.263643 423:0.421384 426:0.210091 428:0.210422 429:0.288752 452:0.962554 453:0.953166 454:0.618794 456:0.533901 457:0.343798 
0.01 11:0.212821 14:0.186593 20:0.269113 21:0.324735 22:0.223412 23:0.525316 26:1 28:0.180645 29:0.217627 52:0.710681 53:0.753563 54:0.509032 56:0.372549 57:0.406344 111:0.191032 114:0.604008 120:0.546933 121:0.20393 122:0.14238 123:0.23193 126:0.39122 128:0.498944 129:0.828911 152:0.433761 153:0.503799 154:0.210148 156:0.693321 157:0.197531 211:0.121346 214:0.27551 220:0.203376 221:0.369241 222:0.214385 223:0.721354 226:0.267677 228:0.13025 229:0.175573 252:0.724385 253:0.521308 254:0.756481 256:0.488084 257:0.362048 311:0.135364 314:0.884873 320:0.682119 321:0.0811908 322:0.074174 323:0.0908456 326:0.0843672 328:0.265317 329:0.406475 352:0.150538 353:0.160674 354:0.0924831 356:0.649242 357:0.094085 411:0.141593 414:0.163574 420:0.659426 421:0.619236 422:0.326719 423:0.407407 426:0.323408 428:0.133995 429:0.179698 452:0.880893 453:0.810026 454:0.650709 456:0.304652 457:0.531008 
0.01 11:0.251923 14:0.351762 20:0.451835 21:0.135582 22:0.129907 23:0.112518 26:0.208686 28:0.195308 29:0.215593 52:0.190559 53:0.171359 54:0.177397 56:0.930453 57:0.261707 111:0.187346 114:0.211472 120:0.298596 121:0.319106 122:0.475267 123:0.692613 126:0.446829 128:0.169483 129:0.194832 152:0.691538 153:0.673274 154:0.494292 156:0.548713 157:0.50954 211:0.114727 214:0.135374 220:0.170418 221:0.523713 222:0.233939 223:0.456597 226:0.322391 228:0.135035 229:0.25399 252:1 253:0.878097 254:0.835954 256:0.296791 257:0.394961 311:0.206994 314:0.261044 320:0.468307 321:0.161028 322:0.171949 323:0.169113 326:0.467328 328:0.132385 329:0.202158 352:0.303539 353:0.303531 354:0.194679 356:0.899968 357:0.335451 411:0.20354 414:0.527148 420:0.648565 421:0.359684 422:0.229624 423:0.550664 426:0.629446 428:0.220844 429:0.560357 452:0.504173 453:0.484169 454:0.348404 456:0.514442 457:0.710078 
0.01 11:0.195513 14:0.211472 20:0.308869 21:0.311508 22:0.471092 23:0.582982 26:0.414195 28:0.18827 29:0.189153 52:0.691538 53:0.708377 54:0.528485 56:0.548713 57:0.504909 111:0.120393 114:0.178991 120:0.203991 121:0.523713 122:0.22393 123:0.417792 126:0.386341 128:0.140971 129:0.249302 152:1 153:0.878097 154:0.831712 156:0.321998 157:0.350542 211:0.22449 214:0.255102 220:0.370579 221:0.159892 222:0.178073 223:0.210069 226:0.457912 228:0.150452 229:0.21374 252:0.284968 253:0.289726 254:0.19592 256:0.889101 257:0.343356 311:0.169205 314:0.466533 320:0.7228 321:0.369418 322:0.218476 323:0.550664 326:0.629446 328:0.195842 329:0.546043 352:0.507616 353:0.493359 354:0.331926 356:0.484672 357:0.727273 411:0.228982 414:0.371134 420:0.466253 421:0.107378 422:0.145996 423:0.137666 426:0.204301 428:0.208437 429:0.55144 452:0.190841 453:0.171834 454:0.152482 456:0.953177 457:0.184884 
0.006304130300388478 11:0.253205 14:0.300622 20:0.401376 21:0.156085 22:0.14561 23:0.139944 26:0.519068 28:0.173607 29:0.202712 52:0.284968 53:0.304831 54:0.200556 56:0.893076 57:0.29645 111:0.201474 114:0.512785 120:0.586844 121:0.368564 122:0.216578 123:0.625894 126:0.734634 128:0.217529 129:0.542598 152:0.483141 153:0.483317 154:0.332347 156:0.498775 157:0.672278 211:0.212907 214:0.309524 220:0.39791 221:0.109079 222:0.143855 223:0.171007 226:0.190236 228:0.19883 229:0.536433 252:0.180988 253:0.170466 254:0.146196 256:0.938672 257:0.193824 311:0.673435 314:0.46988 320:0.438978 321:0.17456 322:0.474039 323:0.301188 326:0.179487 328:0.167396 329:0.238849 352:0.478719 353:0.54195 354:0.214105 356:0.715069 357:0.400556 411:0.427544 414:0.156701 420:0.218774 421:0.322793 422:0.211198 423:0.250874 426:0.493797 428:0.142928 429:0.13786 452:0.673133 453:0.510224 454:0.64539 456:0.294618 457:0.77093 
0.01 11:0.239744 14:0.355909 20:0.42737 21:0.106481 22:0.110635 23:0.108298 26:0.182203 28:0.226979 29:0.517966 52:0.180988 53:0.179353 54:0.146364 56:0.94087 57:0.157477 111:0.750614 114:0.51624 120:0.365115 121:0.173442 122:0.46992 123:0.342335 126:0.203902 128:0.190074 129:0.244413 152:0.455079 153:0.532871 154:0.214376 156:0.717525 157:0.364385 211:0.410921 214:0.0972789 220:0.141479 221:0.330623 222:0.208101 223:0.311632 226:0.484848 228:0.128655 229:0.117974 252:0.646074 253:0.509415 254:0.618785 256:0.250397 257:0.808208 311:0.142132 314:0.773762 320:0.360454 321:0.175913 322:0.115981 323:0.160727 326:0.296112 328:0.278446 329:0.77482 352:0.413082 353:0.476514 354:0.175676 356:0.650532 357:0.182612 411:0.107854 414:0.141581 420:0.238169 421:0.30303 422:0.228207 423:0.730957 426:0.176179 428:0.149876 429:0.208505 452:0.846379 453:0.637203 454:0.81516 456:0.285193 457:0.527519 
0.01 11:0.182692 14:0.2481 20:0.511468 21:0.257937 22:0.17773 23:0.805204 26:0.48411 28:0.208211 29:0.195254 52:0.518817 53:0.463677 54:0.486799 56:0.657782 57:0.255287 111:0.143735 114:0.17208 120:0.227642 121:0.591463 122:0.225267 123:0.854647 126:0.484878 128:0.166315 129:0.328911 152:0.792691 153:0.635613 154:0.739112 156:0.259804 157:0.463524 211:0.841699 214:0.771429 220:0.217042 221:0.148374 222:0.123603 223:0.16059 226:0.113636 228:0.282297 229:0.696044 252:0.258864 253:0.193921 254:0.268168 256:0.374007 257:0.401056 311:0.144952 314:0.147925 320:0.28666 321:0.388363 322:0.202967 323:0.291405 326:0.669148 328:0.113239 329:0.178417 352:0.776434 353:0.84872 354:0.375422 356:0.494998 357:0.547042 411:0.204646 414:0.447423 420:0.79519 421:0.0810277 422:0.115521 423:0.120196 426:0.159636 428:0.17469 429:0.226337 452:0.13783 453:0.121702 454:0.115691 456:0.965035 457:0.123256 
0.01 11:0.15 14:0.17208 20:0.235474 21:0.577381 22:0.20414 23:0.726442 26:0.455508 28:0.184751 29:0.319322 52:0.792691 53:0.668752 54:0.796665 56:0.259804 57:0.458459 111:0.929975 114:0.825155 120:0.246859 121:0.148374 122:0.118316 123:0.146942 126:0.14439 128:0.287223 129:0.694134 152:0.258864 153:0.193921 154:0.266808 156:0.396446 157:0.356154 211:0.163817 214:0.140136 220:0.216238 221:0.387534 222:0.210196 223:0.361979 226:0.6633 228:0.131845 229:0.19084 252:0.744181 253:0.845722 254:0.377816 256:0.490308 257:0.559935 311:0.170333 314:0.388889 320:0.901608 321:0.0832206 322:0.109912 323:0.120196 326:0.159636 328:0.144967 329:0.195683 352:0.143817 353:0.13735 354:0.11022 356:0.962891 357:0.126241 411:0.544801 414:0.576632 420:0.552366 421:0.693017 422:0.173636 423:0.635919 426:0.484698 428:0.648635 429:0.283951 452:0.715317 453:0.778364 454:0.367908 456:0.258741 457:0.276744 
0.01 11:0.217949 14:0.475466 20:0.494648 21:0.118386 22:0.102784 23:0.0921238 26:0.423729 28:0.162463 29:0.192542 52:0.150968 53:0.13243 54:0.144975 56:0.912684 57:0.32364 111:0.194103 114:0.26745 120:0.580192 121:0.154472 122:0.143717 123:0.185068 126:0.332683 128:0.142555 129:0.167598 152:0.394823 153:0.23819 154:0.474419 156:0.913909 157:0.317621 211:0.471042 214:0.231973 220:0.544212 221:0.359079 222:0.193436 223:0.517361 226:0.118687 228:0.123339 229:0.278973 252:0.718947 253:0.846713 254:0.327242 256:0.393708 257:0.248679 311:0.324873 314:0.0702811 320:0.527909 321:0.257781 322:0.190829 323:0.602376 326:0.333333 328:0.0875274 329:0.11295 352:0.770609 353:0.603499 354:0.684122 356:0.263311 357:0.593092 411:0.106748 414:0.0831615 420:0.0954228 421:0.427536 422:0.13253 423:0.128581 426:0.0711332 428:0.126055 429:0.0521262 452:0.216332 453:0.156992 454:0.222518 456:0.0577683 457:0.791473 
0.01 11:0.202564 14:0.26745 20:0.600153 21:0.150794 22:0.117059 23:0.133615 26:0.290254 28:0.158358 29:0.162712 52:0.394823 53:0.250608 54:0.506716 56:0.913909 57:0.311178 111:0.517199 114:0.277125 120:0.547672 121:0.359079 122:0.18516 123:0.473392 126:0.150244 128:0.129356 129:0.274441 152:0.718947 153:0.846713 154:0.325581 156:0.415441 157:0.215862 211:0.339768 214:0.0612245 220:0.421222 221:0.256775 222:0.197626 223:0.748264 226:0.321549 228:0.106858 229:0.127689 252:0.738525 253:0.595639 254:0.688483 256:0.262154 257:0.60707 311:0.070502 314:0.0341365 320:0.0482498 321:0.439107 322:0.126096 323:0.128581 326:0.0711332 328:0.0913567 329:0.0129496 352:0.221774 353:0.172012 354:0.211993 357:0.810639 411:0.424779 414:0.583505 420:0.42436 421:0.0922266 422:0.248051 423:0.2942 426:0.272953 428:0.911166 429:0.805213 452:0.276562 453:0.287929 454:0.164894 456:0.436303 457:0.134884 
0.01 11:0.539744 14:0.277125 20:0.566514 21:0.350529 22:0.161313 23:0.388889 26:0.092161 28:0.143695 29:0.266441 52:0.718947 53:0.890859 54:0.343678 56:0.415441 57:0.208459 111:0.371007 114:0.103663 120:0.43459 121:0.256775 122:0.189171 123:0.68467 126:0.385366 128:0.112988 129:0.122207 152:0.738525 153:0.595639 154:0.684989 156:0.288603 157:0.545829 211:0.0910094 214:0.0244898 220:0.0136656 221:0.438347 222:0.130587 223:0.159722 226:0.0547138 228:0.110579 229:0.0312283 252:0.205569 253:0.1556 254:0.213345 256:0.00285987 257:0.829744 311:0.394811 314:0.521419 320:0.449385 321:0.0947226 322:0.236008 323:0.2942 326:0.272953 328:0.956783 329:0.802878 352:0.281586 353:0.300615 354:0.157095 356:0.401742 357:0.13815 411:0.484513 414:0.331959 420:0.6827 421:0.0395257 422:0.0758327 423:0.0943396 426:0.0934657 428:0.169727 429:0.187929 452:0.0875254 453:0.0870712 454:0.0633865 456:0.819702 457:0.053876 
0.01 11:0.101282 14:0.162405 20:0.247706 21:0.312169 22:0.171306 23:0.374121 26:0.150424 28:0.184164 29:0.189831 52:0.721993 53:0.863747 54:0.38629 56:0.22549 57:0.260952 111:0.15602 114:0.138908 120:0.133777 121:0.321138 122:0.193182 123:0.218427 126:0.156098 128:0.176346 129:0.0935754 152:0.303241 153:0.246118 154:0.286258 156:0.130515 157:0.75795 211:0.271925 214:0.161905 220:0.245981 221:0.23916 222:0.301676 223:0.330729 226:0.263468 228:0.168527 229:0.195003 252:0.372199 253:0.32144 254:0.325542 256:0.357801 257:0.866315 311:0.225042 314:0.228246 320:0.421003 321:0.288904 322:0.238031 323:0.233403 326:0.857734 328:0.150438 329:0.205755 352:0.349462 353:0.289925 354:0.298986 356:0.723136 357:0.408892 411:0.528208 414:0.213058 420:0.329713 421:0.453228 422:0.275691 423:0.584906 426:0.884202 428:0.184119 429:0.220165 452:0.502143 453:0.373351 454:0.493351 456:0.390696 457:0.493411 
0.01 11:0.189744 14:0.213545 20:0.267584 21:0.726852 22:0.223412 23:0.338256 26:0.243644 28:0.201173 29:0.201356 52:0.734174 53:0.717762 54:0.606762 56:0.426164 57:0.487538 111:0.240172 114:0.313062 120:0.402069 121:0.149051 122:0.16377 123:0.173948 126:0.428293 128:0.161035 129:0.206704 152:0.199695 153:0.169475 154:0.183087 156:0.929841 157:0.37486 211:0.427468 214:0.259864 220:0.340032 221:0.216802 222:0.199022 223:0.261285 226:0.59596 228:0.179692 229:0.445524 252:0.371982 253:0.380244 254:0.249469 256:0.806482 257:0.480293 311:0.603497 314:0.439759 320:0.663198 321:0.474966 322:0.269724 323:0.266946 326:0.383788 328:0.225383 329:0.265468 352:0.448029 353:0.352122 354:0.403716 356:0.718942 357:0.64867 411:0.219027 414:0.268041 420:0.336695 421:0.567194 422:0.308292 423:0.372467 426:0.527709 428:0.22134 429:0.253772 452:0.787954 453:0.588061 454:0.766401 456:0.529644 457:0.460078 
0.01 11:0.250641 14:0.313062 20:0.415902 21:0.145503 22:0.138473 23:0.123769 26:0.394068 28:0.178886 29:0.200678 52:0.199695 53:0.178311 54:0.187587 56:0.929841 57:0.368958 111:0.468673 114:0.30546 120:0.359941 121:0.216802 122:0.190508 123:0.239079 126:0.703415 128:0.185322 129:0.442039 152:0.371982 153:0.380244 154:0.248203 156:0.813419 157:0.429106 211:0.612245 214:0.436735 220:0.536174 221:0.474255 222:0.27933 223:0.331597 226:0.372896 228:0.240829 229:0.274809 252:0.425277 253:0.33928 254:0.40629 256:0.710836 257:0.663958 311:0.184997 314:0.21419 320:0.342479 321:0.582544 322:0.293324 323:0.372467 326:0.527709 328:0.196389 329:0.22446 352:0.789427 353:0.5954 354:0.730152 356:0.500807 357:0.471219 411:0.229535 414:0.296907 420:0.367727 421:0.31357 422:0.432318 423:0.271139 426:0.237386 428:0.211414 429:0.248285 452:0.661629 453:0.420185 454:0.743794 456:0.749772 457:0.612403 
0.01 11:0.130128 14:0.524534 20:0.365443 21:0.605159 22:0.1399 23:0.498594 26:0.494703 28:0.409971 29:0.505763 52:0.748097 53:0.750087 54:0.59333 56:0.290748 57:0.511707 111:0.178747 114:0.475466 120:0.334812 121:0.0724932 122:0.433155 123:0.0937252 126:0.376585 128:0.1283 129:0.169693 152:0.0957146 153:0.0766435 154:0.0997886 156:0.943627 157:0.202394 211:0.132929 214:0.283673 220:0.290997 221:0.506098 222:0.165503 223:0.486111 226:0.477273 228:0.334397 229:0.361554 252:0.614966 253:0.562273 254:0.490013 256:0.458532 257:0.879724 311:0.0846024 314:0.994645 320:0.302744 321:0.0635995 322:0.0337154 323:0.033543 326:0.0173697 328:0.624726 329:0.446763 352:0.101478 353:0.115646 354:0.0586993 356:0.39787 357:0.257245 411:0.163164 414:0.334708 420:0.245151 421:0.314229 422:0.202693 423:0.454228 426:0.603805 428:0.136476 429:0.170096 452:0.717798 453:0.635884 454:0.564273 456:0.487686 457:0.718605 
0.01 11:0.146795 14:0.166551 20:0.272936 21:0.384921 22:0.280514 23:0.610408 26:0.241525 28:0.197067 29:0.202712 52:0.87035 53:0.756691 54:0.844836 56:0.261949 57:0.386707 111:0.239558 114:0.319281 120:0.387288 121:0.350271 122:0.299465 123:0.682288 126:0.301463 128:0.26188 129:0.271648 152:0.70285 153:0.616122 154:0.589429 156:0.546875 157:0.56229 211:0.123552 214:0.129932 220:0.216238 221:0.565718 222:0.270251 223:0.534722 226:0.223064 228:0.163211 229:0.210965 252:0.899065 253:0.831186 254:0.699108 256:0.220845 257:0.405526 311:0.135364 314:0.129183 320:0.299905 321:0.340325 322:0.279838 323:0.410901 326:0.448304 328:0.13895 329:0.189928 352:0.778674 353:0.806932 354:0.434122 356:0.254276 357:0.505359 411:0.134956 414:0.175258 420:0.250582 421:0.555995 422:0.815734 423:0.355695 426:0.198511 428:0.141935 429:0.21262 452:0.859914 453:0.699538 454:0.757979 456:0.388568 457:0.334496 
0.01 11:0.25 14:0.319281 20:0.400612 21:0.341931 22:0.283369 23:0.57384 26:0.256356 28:0.290909 29:0.263729 52:0.70285 53:0.648245 54:0.6327 56:0.546875 57:0.558157 111:0.130221 114:0.173462 120:0.24612 121:0.565718 122:0.25869 123:0.489277 126:0.27122 128:0.168955 129:0.206006 152:0.899065 153:0.831186 154:0.69556 156:0.248775 157:0.360269 211:0.15444 214:0.121088 220:0.227492 221:0.339431 222:0.289804 223:0.510417 226:0.438552 228:0.156831 229:0.201943 252:0.746356 253:0.803105 254:0.436889 256:0.253257 257:0.517269 311:0.0992668 314:0.123829 320:0.237465 321:0.571042 322:0.776129 323:0.355695 326:0.198511 328:0.108862 329:0.181295 352:0.860887 353:0.704891 354:0.722128 356:0.351081 357:0.342596 411:0.256084 414:0.32646 420:0.45384 421:0.134387 422:0.184975 423:0.154437 426:0.25641 428:0.164268 429:0.246228 452:0.210467 453:0.170185 454:0.193262 456:0.898449 457:0.329457 
0.01 11:0.135897 14:0.173462 20:0.254587 21:0.552249 22:0.239829 23:0.402954 26:0.223517 28:0.187683 29:0.2 52:0.899065 53:0.874522 54:0.748958 56:0.248775 57:0.35423 111:0.164619 114:0.164478 120:0.256467 121:0.339431 122:0.277406 123:0.467037 126:0.520976 128:0.162619 129:0.196927 152:0.746356 153:0.803105 154:0.434672 156:0.280025 157:0.46315 211:0.11914 214:0.115646 220:0.174437 221:0.570461 222:0.803771 223:0.44184 226:0.184343 228:0.127592 229:0.193616 252:0.826191 253:0.699042 254:0.726732 256:0.348586 257:0.35067 311:0.222786 314:0.271084 320:0.485336 321:0.138024 322:0.175995 323:0.154437 326:0.25641 328:0.133479 329:0.216547 352:0.21595 353:0.184969 354:0.184122 356:0.892223 357:0.337435 411:0.206858 414:0.258419 420:0.354538 421:0.57971 422:0.243799 423:0.324948 426:0.534326 428:0.172705 429:0.24417 452:0.734942 453:0.632916 454:0.60195 456:0.604135 457:0.58876 
0.01 11:0.171795 14:0.164478 20:0.265291 21:0.331349 22:0.259814 23:0.383263 26:0.494703 28:0.180645 29:0.191186 52:0.746356 53:0.844977 54:0.463177 56:0.280025 57:0.458082 111:0.125307 114:0.15895 120:0.207687 121:0.570461 122:0.769385 123:0.404289 126:0.226341 128:0.13358 129:0.188547 152:0.826191 153:0.699042 154:0.723044 156:0.371936 157:0.309764 211:0.239934 214:0.265306 220:0.385048 221:0.136856 222:0.182263 223:0.19184 226:0.243266 228:0.151515 229:0.22762 252:0.199913 253:0.168814 254:0.185295 256:0.881474 257:0.345388 311:0.172589 314:0.204819 320:0.364238 321:0.595399 322:0.231962 323:0.324948 326:0.534326 328:0.142779 329:0.214388 352:0.736783 353:0.639456 354:0.57348 356:0.579864 357:0.603017 411:0.233407 414:0.361512 420:0.481769 421:0.106061 422:0.149539 423:0.114605 426:0.20761 428:0.171712 429:0.237311 452:0.162869 453:0.131266 454:0.152039 456:0.929158 457:0.162791 
0.01 11:0.166026 14:0.45888 20:0.730887 21:0.117063 22:0.0749465 23:0.249648 26:0.248941 28:0.702053 29:0.374915 52:0.417011 53:0.491137 54:0.233441 56:0.833946 57:0.361405 111:0.105651 114:0.907395 120:0.329638 121:0.0528455 122:0.0247326 123:0.207307 128:0.944034 129:0.416201 152:0.132478 153:0.16551 154:0.0575053 156:0.424326 157:0.17284 211:0.131826 214:0.0789116 220:0.0731511 221:0.262195 222:0.176676 223:0.197917 226:0.0892256 228:0.146199 229:0.0860514 252:0.248205 253:0.197555 254:0.242669 256:0.102955 257:0.915075 311:0.163565 314:0.400937 320:0.543046 321:0.305819 322:0.18004 323:0.174703 326:0.61952 328:0.469912 329:0.405036 352:0.264785 353:0.222222 354:0.227618 356:0.559858 357:0.854307 411:0.211283 414:0.169072 420:0.240497 421:0.212121 422:0.333097 423:0.192173 426:0.263854 428:0.141439 429:0.150206 452:0.284006 453:0.223945 454:0.265514 456:0.431134 457:1 
0.01 11:0.144231 14:0.139599 20:0.305046 21:0.23545 22:0.582441 23:0.203235 26:0.96822 28:0.100293 29:0.101695 52:0.564281 53:0.533194 54:0.490968 56:0.632966 57:0.286631 111:0.0565111 114:0.424326 120:0.31116 121:0.320461 122:0.215909 123:0.529786 126:0.536585 128:0.116684 129:0.459497 152:0.910376 153:0.819623 154:0.732347 156:0.236213 157:0.429854 211:0.180364 214:0.137415 220:0.0442122 221:0.474255 222:0.560056 223:0.473958 226:0.0563973 228:0.0834662 229:0.190146 252:0.816184 253:0.881401 254:0.472588 256:0.0537019 257:0.747664 311:0.0609137 314:0.823963 320:0.826868 321:0.11502 322:0.0505732 323:0.146052 326:0.468983 328:0.474289 329:0.889928 352:0.421371 353:0.504697 354:0.154561 356:0.348177 357:0.181818 411:0.155973 414:0.446048 420:0.629946 421:0.057971 422:0.194189 423:0.208945 426:0.278743 428:0.356824 429:0.261317 452:0.147981 453:0.137203 454:0.114805 456:0.936151 457:0.369767 
0.01 11:0.0589744 14:0.424326 20:0.321865 21:0.312831 22:0.194147 23:0.438819 26:0.511653 28:0.129619 29:0.446102 52:0.910376 53:0.862357 54:0.789254 56:0.236213 57:0.424471 111:0.193489 114:0.181064 120:0.0879527 121:0.474255 122:0.536096 123:0.433678 126:0.0780488 128:0.0897571 129:0.185056 152:0.816184 153:0.881401 154:0.47019 156:0.0876225 157:0.675271 211:0.0816327 214:0.827211 220:0.675241 221:0.113821 222:0.0523743 223:0.181424 226:0.459596 228:0.482722 229:0.877169 252:0.399391 253:0.494879 254:0.155546 256:0.345726 257:0.186103 311:0.120699 314:0.38755 320:0.700095 321:0.0595399 322:0.184761 323:0.208945 326:0.278743 328:0.345733 329:0.232374 352:0.153898 353:0.152575 354:0.109375 356:0.932236 357:0.378722 411:0.185841 414:0.0742268 420:0.27851 421:0.456522 422:0.510276 423:0.51782 426:0.695616 428:0.0794045 429:0.130316 452:0.813896 453:0.596636 454:0.805851 456:0.235634 457:0.455426 
0.01 11:0.201923 14:0.181064 20:0.0909786 21:0.462963 22:0.536046 23:0.353727 26:0.0137712 28:0.0997067 29:0.179661 52:0.816184 53:0.927355 54:0.502084 56:0.0876225 57:0.672205 111:0.0835381 114:0.881824 120:0.668145 121:0.113821 122:0.0501337 123:0.166005 126:0.545366 128:0.486272 129:0.876397 152:0.399391 153:0.494879 154:0.154757 156:0.369179 157:0.158249 211:0.140099 214:0.383673 220:0.567524 221:0.0582656 222:0.191341 223:0.259549 226:0.265993 228:0.357788 229:0.242887 252:0.139656 253:0.135778 254:0.110072 256:0.920877 257:0.387647 311:0.151156 314:0.0254351 320:0.271523 321:0.468877 322:0.485502 323:0.51782 326:0.695616 328:0.0399344 329:0.094964 352:0.815188 353:0.603822 354:0.767736 356:0.188771 357:0.466455 411:0.33573 414:0.517526 420:0.300233 421:0.183136 422:0.13253 423:0.128581 426:0.464847 428:0.380645 429:0.277092 452:0.31852 453:0.35653 454:0.155142 456:0.875038 457:0.458527 
0.01 11:0.164103 14:0.589496 20:0.615443 21:0.287698 22:0.186296 23:0.482419 26:0.508475 28:0.228152 29:0.260339 52:0.684794 53:0.813695 54:0.373784 56:0.39185 57:0.361405 111:0.208231 114:0.223912 120:0.672579 121:0.596883 122:0.219251 123:0.349484 126:0.683902 128:0.161563 129:0.202514 152:0.644333 153:0.616782 154:0.474841 156:0.529412 157:0.571642 211:0.195808 214:0.64898 220:1 221:0.144986 222:0.145251 223:0.266493 226:0.165825 228:0.235513 229:0.312977 252:0.286274 253:0.228609 254:0.277093 256:0.742612 257:0.209671 311:0.366046 314:0.141232 320:0.316935 321:0.311231 322:0.401888 323:0.734451 326:0.503722 328:0.140044 329:0.217986 352:0.825493 353:0.902494 354:0.397804 356:0.447241 357:0.333466 411:0.579093 414:0.274914 420:0.390225 421:0.167984 422:0.214741 423:0.183089 426:0.394541 428:0.164268 429:0.21262 452:0.256034 453:0.209103 454:0.230496 456:0.800547 457:0.575581 
0.01 11:0.217308 14:0.223912 20:0.695719 21:0.582672 22:0.197716 23:0.279184 26:0.67161 28:0.179472 29:0.19661 52:0.644333 53:0.64894 54:0.507179 56:0.529412 57:0.567598 111:0.210688 114:0.70076 120:0.966741 121:0.144986 122:0.139037 123:0.243844 126:0.204878 128:0.24076 129:0.308659 152:0.286274 153:0.228609 154:0.275687 156:0.751838 157:0.179948 211:0.380033 214:0.133333 220:0.241961 221:0.310298 222:0.416201 223:0.912326 226:0.494949 228:0.157895 229:0.229008 252:0.791821 253:0.900562 254:0.40034 256:0.443279 257:0.341325 311:0.552171 314:0.220884 320:0.407758 321:0.17253 322:0.204316 323:0.183089 326:0.394541 328:0.133479 329:0.181295 352:0.261201 353:0.223194 354:0.219595 356:0.788319 357:0.58952 411:0.575221 414:0.216495 420:0.3173 421:0.267457 422:0.231042 423:0.260657 426:0.617039 428:0.15732 429:0.196845 452:0.592375 453:0.509235 454:0.488032 456:0.574643 457:0.629457 
0.01 11:0.219872 14:0.70076 20:1 21:0.141534 22:0.112063 23:0.185654 26:0.151483 28:0.267449 29:0.299661 52:0.286274 53:0.240528 54:0.289023 56:0.751838 57:0.172205 111:0.415848 114:0.176918 120:0.269771 121:0.310298 122:0.398396 123:0.83479 126:0.586341 128:0.163675 129:0.224162 152:0.791821 153:0.900562 154:0.398309 156:0.463235 157:0.30116 211:0.562052 214:0.214286 220:0.319132 221:0.171409 222:0.211592 223:0.227431 226:0.383838 228:0.151515 229:0.193616 252:0.243855 253:0.207796 254:0.220994 256:0.779155 257:0.603413 311:0.548223 314:0.163989 320:0.318827 321:0.274696 322:0.219825 323:0.260657 326:0.617039 328:0.125821 329:0.164748 352:0.595206 353:0.517979 354:0.464949 356:0.548564 357:0.6447 411:0.134403 414:0.208935 420:0.269201 421:0.747036 422:0.222537 423:0.348707 426:0.212572 428:0.162283 429:0.434842 452:0.74938 453:0.781662 454:0.430408 456:0.326847 457:0.408915 
0.01 11:0.432051 14:0.201797 20:0.285933 21:0.355159 22:0.157031 23:0.335443 26:0.900424 28:0.151906 29:0.143051 52:0.491407 53:0.363573 54:0.561834 56:0.696385 57:0.502644 111:0.163391 114:0.261921 120:0.439763 121:0.0562331 122:0.0748663 123:0.205719 126:0.406829 128:0.111404 129:0.249302 152:0.0994127 153:0.103072 154:0.0731501 156:0.897672 157:0.0774411 211:0.0805295 214:0.146939 220:0.159968 221:0.329946 222:0.143855 223:0.457465 226:0.515993 228:0.0903775 229:0.201943 252:0.782467 253:0.905847 254:0.375266 256:0.548459 257:0.271028 311:0.0592217 314:0.0381526 320:0.0870388 321:0.969553 322:0.261632 323:0.320755 326:0.253102 328:0.0366521 329:0.0726619 352:0.521057 353:0.43505 354:0.433277 356:0.083898 357:0.574037 411:0.418142 414:0.147766 420:0.32661 421:0.21805 422:0.28703 423:0.232006 426:0.27378 428:0.116129 429:0.116598 452:0.289195 453:0.212401 454:0.291223 456:0.541806 457:0.843798 
0.01 11:0.136538 14:0.337941 20:0.256881 21:0.147487 22:0.576731 23:0.414909 26:0.467161 28:0.16305 29:0.55661 52:0.449424 53:0.261036 54:0.609078 56:0.786152 57:0.386329 111:0.144963 114:0.181755 120:0.603843 121:0.235095 122:0.358289 123:0.395552 126:0.56878 128:0.105069 129:0.115922 152:0.562758 153:0.423852 154:0.563214 156:0.765625 157:0.444444 211:0.0959735 214:0.0387755 220:0.0763666 221:0.47019 222:0.463687 223:0.506944 226:0.573232 228:0.0829346 229:0.0818876 252:0.753535 253:0.534192 254:0.796855 256:0.201462 257:0.70256 311:0.0693739 314:0.423695 320:0.194891 321:0.305142 322:0.280512 323:0.672257 326:0.309347 328:0.459519 329:0.38705 352:0.731855 353:0.526401 354:0.711571 356:0.413036 357:0.509726 411:0.245022 414:0.237801 420:0.574864 421:0.382082 422:0.235294 423:0.36478 426:0.588089 428:0.134988 429:0.240741 452:0.704263 453:0.729222 454:0.412234 456:0.598966 457:0.545736 
0.01 11:0.151282 14:0.181755 20:0.624618 21:0.229497 22:0.346181 23:0.319972 26:0.54661 28:0.116716 29:0.112542 52:0.562758 53:0.445951 54:0.603983 56:0.765625 57:0.439199 111:0.0995086 114:0.0808569 120:0.117517 121:0.47019 122:0.44385 123:0.46386 126:0.677073 128:0.0892291 129:0.0761173 152:0.753535 153:0.534192 154:0.792812 156:0.230086 157:0.633745 211:0.0899062 214:0.420408 220:0.138264 221:0.304201 222:0.290503 223:0.835069 226:0.297138 228:0.468368 229:0.392089 252:0.700892 253:0.517014 254:0.716107 256:0.409596 257:0.521739 311:0.211506 314:0.184739 320:0.632923 321:0.392422 322:0.223871 323:0.36478 326:0.588089 328:0.101204 329:0.210791 352:0.706317 353:0.734046 354:0.392736 356:0.574379 357:0.558952 411:0.159845 414:0.67079 420:0.50737 421:0.085639 422:0.246634 423:0.25297 426:0.210091 428:0.165757 429:0.314815 452:0.265734 453:0.222296 454:0.231826 456:0.939495 457:0.216279 
0.01 11:0.103846 14:0.0808569 20:0.12156 21:0.458995 22:0.437545 23:0.38045 26:0.664195 28:0.0991202 29:0.0738983 52:0.753535 53:0.562044 54:0.855489 56:0.230086 57:0.630287 111:0.0927518 114:0.468556 120:0.174427 121:0.304201 122:0.278075 123:0.764098 126:0.357073 128:0.472017 129:0.388268 152:0.700892 153:0.517014 154:0.712474 156:0.43076 157:0.467265 211:0.228902 214:0.177551 220:0.51045 221:0.391599 222:0.231844 223:0.453125 226:0.580808 228:0.120149 229:0.222068 252:0.676093 253:0.728774 254:0.39524 256:0.568478 257:0.572125 311:0.124647 314:0.606426 320:0.550615 321:0.0879567 322:0.234659 323:0.25297 326:0.210091 328:0.13512 329:0.288489 352:0.270833 353:0.236152 354:0.220861 356:0.935786 357:0.221516 411:0.275996 414:0.151203 420:0.325834 421:0.572464 422:0.218285 423:0.451433 426:0.612076 428:0.120596 429:0.209877 452:0.679901 453:0.616095 454:0.516401 456:0.538157 457:0.637984 
0.007466848461307008 11:0.0967949 14:0.468556 20:0.180428 21:0.296958 22:0.260528 23:0.646273 26:0.316737 28:0.52434 29:0.376949 52:0.700892 53:0.543969 54:0.767485 56:0.43076 57:0.462236 111:0.247543 114:0.221838 120:0.51663 121:0.391599 122:0.221925 123:0.414615 126:0.685854 128:0.126188 129:0.217179 152:0.676093 153:0.728774 154:0.393235 156:0.583946 157:0.513655 211:0.14396 214:0.606122 220:0.440514 221:0.0867209 222:0.243017 223:0.314236 226:0.196128 228:0.15311 229:0.297016 252:0.253209 253:0.221011 254:0.222269 256:0.924372 257:0.226737 311:0.243091 314:0.100402 320:0.329234 321:0.587957 322:0.207687 323:0.451433 326:0.612076 328:0.0853392 329:0.178417 352:0.682124 353:0.622935 354:0.491976 356:0.509842 357:0.653434 411:0.163717 414:0.629553 420:0.832428 421:0.156785 422:0.102764 423:0.185185 426:0.293631 428:0.177171 429:0.322359 452:0.228739 453:0.192612 454:0.199025 456:0.892673 457:0.15155 
0.01 11:0.258333 14:0.221838 20:0.534404 21:0.382275 22:0.200571 23:0.33685 26:0.673729 28:0.140176 29:0.210847 52:0.676093 53:0.766771 54:0.417786 56:0.583946 57:0.509063 111:0.152948 114:0.657222 120:0.452328 121:0.0867209 122:0.23262 123:0.28753 126:0.24 128:0.158923 129:0.292598 152:0.253209 153:0.221011 154:0.221142 156:0.927083 157:0.19566 211:0.25979 214:0.0918367 220:0.252412 221:0.587398 222:0.215084 223:0.560764 226:0.605219 228:0.104732 229:0.19084 252:0.6526 253:0.615461 254:0.495113 256:0.504925 257:0.668834 311:0.128596 314:0.566265 320:0.94702 321:0.161028 322:0.0977748 323:0.185185 326:0.293631 328:0.147702 329:0.296403 352:0.234095 353:0.206997 354:0.189611 356:0.886092 357:0.15522 411:0.209624 414:0.313402 420:0.375485 421:0.594862 422:0.694543 423:0.574423 426:0.359801 428:0.103722 429:0.11797 452:0.732236 453:0.593997 454:0.648936 456:0.311949 457:0.627519 
0.01 11:0.182692 14:0.322046 20:0.383028 21:0.042328 22:0.0927909 23:0.0295359 26:0.105932 28:0.140762 29:0.149153 52:0.0593866 53:0.0507473 54:0.0588235 56:0.971814 57:0.0479607 111:0.0872236 114:0.15895 120:0.186253 121:0.386179 122:0.180481 123:0.657665 126:0.491707 128:0.107709 129:0.138966 152:0.869045 153:0.735712 154:0.759408 156:0.344056 157:0.418257 211:0.230006 214:0.622449 220:0.498392 221:0.114499 222:0.0949721 223:0.108507 226:0.21633 228:0.166401 229:0.310201 252:0.124647 253:0.125206 254:0.0943476 256:0.928503 257:0.237708 311:0.106599 314:0.0870147 320:0.23368 321:0.449932 322:0.17532 323:0.524109 326:0.377998 328:0.0743982 329:0.111511 352:0.947805 353:0.838678 354:0.711571 356:0.325912 357:0.424375 411:0.090708 414:0.135395 420:0.138092 421:0.824769 422:0.153083 423:0.438854 426:0.138958 428:0.0913151 429:0.142661 452:0.785473 453:0.653034 454:0.674202 456:0.124354 457:0.622868 
0.01 11:0.0910256 14:0.15895 20:0.192661 21:0.376984 22:0.156317 23:0.552039 26:0.462924 28:0.119648 29:0.134915 52:0.869045 53:0.77407 54:0.818898 56:0.344056 57:0.412764 111:0.248771 114:0.673808 120:0.505543 121:0.114499 122:0.0909091 123:0.0992851 126:0.263415 128:0.172122 129:0.305866 152:0.124647 153:0.125206 154:0.0938689 156:0.931066 157:0.205761 211:0.12631 214:0.0782313 220:0.171222 221:0.449187 222:0.181564 223:0.651042 226:0.367003 228:0.0940989 229:0.126301 252:0.910594 253:0.835481 254:0.716107 256:0.3238 257:0.434376 311:0.0541455 314:0.0850067 320:0.100284 321:0.847091 322:0.145651 323:0.438854 326:0.138958 328:0.0530635 329:0.107914 352:0.786962 353:0.659216 354:0.642314 356:0.070668 357:0.637952 411:0.186394 414:0.349828 420:0.49263 421:0.0494071 422:0.0900071 423:0.0775681 426:0.135649 428:0.138958 429:0.184499 452:0.0812091 453:0.0666227 454:0.0784574 456:1 457:0.139147 
0.01 11:0.259615 14:0.673808 20:0.522936 21:0.111772 22:0.0606709 23:0.0576653 26:0.215042 28:0.191202 29:0.296949 52:0.124647 53:0.131734 54:0.0898564 56:0.931066 57:0.198263 111:0.133292 114:0.12094 120:0.20473 121:0.449187 122:0.173797 123:0.595711 126:0.438049 128:0.100317 129:0.12081 152:0.910594 153:0.835481 154:0.712474 156:0.348039 157:0.386831 211:0.0750138 214:0.0761905 220:0.0578778 221:0.846883 222:0.150838 223:0.545139 226:0.123737 228:0.0733652 229:0.122831 252:0.754405 253:0.652461 254:0.646409 256:0.07245 257:0.652987 311:0.15172 314:0.293842 320:0.53264 321:0.0507442 322:0.0856372 323:0.0775681 326:0.135649 328:0.10558 329:0.151799 352:0.0875896 353:0.0832523 354:0.0747466 356:1 357:0.142517 411:0.420907 414:0.264605 420:0.215671 421:0.594203 422:0.16584 423:0.410901 426:0.546733 428:0.304715 429:0.437586 452:0.810061 453:0.80409 454:0.519504 456:0.40529 457:0.568217 
0.01 11:0.139103 14:0.12094 20:0.211774 21:0.438492 22:0.149179 23:0.497187 26:0.404661 28:0.111437 29:0.117288 52:0.910594 53:0.879041 54:0.767485 56:0.348039 57:0.381042 111:0.0761671 114:0.118867 120:0.100517 121:0.846883 122:0.144385 123:0.498809 126:0.156098 128:0.0797254 129:0.117318 152:0.754405 153:0.652461 154:0.643129 156:0.105699 157:0.588103 211:0.170436 214:0.288435 220:0.425241 221:0.049458 222:0.0886872 223:0.0963542 226:0.12037 228:0.124402 229:0.165163 252:0.0752665 253:0.0650809 254:0.0752231 256:0.987607 257:0.145876 311:0.390863 314:0.210843 320:0.194891 321:0.610284 322:0.157788 323:0.410901 326:0.546733 328:0.288293 329:0.417266 352:0.81138 353:0.80758 354:0.494932 356:0.368829 357:0.581977 411:0.206858 414:0.202749 420:0.284717 421:0.259552 422:0.204111 423:0.392034 426:0.128205 428:0.1067 429:0.140604 452:0.684187 453:0.733509 454:0.367021 456:0.319246 457:0.249225 
0.01 11:0.0794872 14:0.118867 20:0.103976 21:0.82672 22:0.117773 23:0.411392 26:0.0985169 28:0.088563 29:0.113898 52:0.754405 53:0.686479 54:0.691524 56:0.105699 57:0.584215 111:0.182432 114:0.334485 120:0.438285 121:0.049458 122:0.084893 123:0.0881652 126:0.152195 128:0.130412 129:0.159916 152:0.0752665 153:0.0650809 154:0.0748414 156:0.988051 157:0.121212 211:0.404302 214:0.204082 220:0.138264 221:0.609756 222:0.163408 223:0.510417 226:0.538721 228:0.301967 229:0.421235 252:0.778116 253:0.803766 254:0.498088 256:0.366063 257:0.595693 311:0.172589 314:0.150602 320:0.279092 321:0.266576 322:0.194201 323:0.392034 326:0.128205 328:0.0700219 329:0.105755 352:0.68638 353:0.738257 354:0.349662 356:0.277509 357:0.25526 411:0.26604 414:0.367698 420:0.256012 421:0.401845 422:0.167257 423:0.478686 426:0.494624 428:0.612903 429:0.5 452:0.699752 453:0.734169 454:0.39672 456:0.48647 457:0.572868 
0.01 11:0.617949 14:0.21009 20:0.224771 21:0.343254 22:0.222698 23:0.232771 26:0.192797 28:0.231085 29:0.214915 52:0.506417 53:0.535975 54:0.364057 56:0.257353 57:0.820242 111:0.295455 114:0.330339 120:0.422764 121:0.26084 122:0.244652 123:0.275616 126:0.69561 128:0.19641 129:0.256285 152:0.336959 153:0.288074 154:0.298097 156:0.817096 157:0.493079 211:0.253172 214:0.540136 220:0.46865 221:0.184282 222:0.221369 223:0.277778 226:0.228114 228:0.283892 229:0.560722 252:0.316076 253:0.300297 254:0.243094 256:0.754687 257:0.507111 311:0.514946 314:0.207497 320:0.370861 321:0.373478 322:0.287256 323:0.356394 326:0.684864 328:0.172867 329:0.222302 352:0.658602 353:0.561063 354:0.528294 356:0.482414 357:0.644303 411:0.268252 414:0.661856 420:0.728472 421:0.175889 422:0.217576 423:0.225017 426:0.239041 428:0.269975 429:0.366255 452:0.31085 453:0.278694 454:0.244681 456:0.782913 457:0.452326 
0.01 11:0.308333 14:0.330339 20:0.437309 21:0.25463 22:0.224839 23:0.213783 26:0.684322 28:0.218182 29:0.248814 52:0.336959 53:0.303094 54:0.313571 56:0.817096 57:0.488293 111:0.27457 114:0.590187 120:0.478197 121:0.184282 122:0.211898 123:0.25417 126:0.277073 128:0.288807 129:0.557961 152:0.316076 153:0.300297 154:0.24186 156:0.76348 157:0.453797 211:0.525648 214:0.20068 220:0.287781 221:0.372629 222:0.297486 223:0.442708 226:0.679293 228:0.189793 229:0.233171 252:0.629759 253:0.552362 254:0.531662 256:0.477915 257:0.659488 311:0.235195 314:0.597724 320:0.820246 321:0.18065 322:0.207013 323:0.225017 326:0.239041 328:0.25 329:0.342446 352:0.315636 353:0.291545 354:0.233108 356:0.769603 357:0.463279 411:0.168695 414:0.218557 420:0.3173 421:0.387352 422:0.269313 423:0.561146 426:0.502895 428:0.191067 429:0.272977 452:0.937514 453:0.860158 454:0.694592 456:0.309517 457:0.396124 
0.01 11:0.286538 14:0.590187 20:0.494648 21:0.179894 22:0.189864 23:0.194796 26:0.229873 28:0.320821 29:0.541695 52:0.316076 53:0.315954 54:0.251969 56:0.76348 57:0.44864 111:0.57801 114:0.245335 120:0.311899 121:0.372629 122:0.284759 123:0.405083 126:0.8 128:0.195354 129:0.228352 152:0.629759 153:0.552362 154:0.528964 156:0.49663 157:0.594089 211:0.252068 214:0.597279 220:0.669614 221:0.179539 222:0.214385 223:0.279514 226:0.225589 228:0.264753 229:0.349063 252:0.296715 253:0.277502 254:0.234594 256:0.760724 257:0.474197 311:0.133672 314:0.165997 320:0.318827 321:0.397835 322:0.256237 323:0.561146 326:0.502895 328:0.16302 329:0.244604 352:0.937948 353:0.86265 354:0.66174 356:0.267183 357:0.405717 411:0.262168 414:0.602749 420:0.581846 421:0.139657 422:0.183558 423:0.189378 426:0.224152 428:0.261042 429:0.342936 452:0.26032 453:0.237137 454:0.201241 456:0.870173 457:0.23062 
0.01 11:0.603205 14:0.245335 20:0.32263 21:0.363757 22:0.267666 23:0.328411 26:0.797669 28:0.217009 29:0.221695 52:0.629759 53:0.581161 54:0.566466 56:0.49663 57:0.590257 111:0.273342 114:0.648238 120:0.662971 121:0.179539 122:0.205214 123:0.255759 126:0.274146 128:0.269799 129:0.344972 152:0.296715 153:0.277502 154:0.233404 156:0.769301 157:0.423494 211:0.152785 214:0.158503 220:0.243569 221:0.397019 222:0.265363 223:0.697049 226:0.494108 228:0.180223 229:0.254684 252:0.901022 253:0.859927 254:0.665958 256:0.265968 257:0.415278 311:0.22899 314:0.540161 320:0.641438 321:0.143437 322:0.174646 323:0.189378 326:0.224152 328:0.240153 329:0.317986 352:0.265457 353:0.250729 354:0.191723 356:0.862214 357:0.236205 411:0.213496 414:0.316151 420:0.419705 421:0.365613 422:0.294826 423:0.594689 426:0.442514 428:0.231762 429:0.329904 452:0.897586 453:0.754947 454:0.757535 456:0.532989 457:0.405039 
0.01 11:0.244231 14:0.671735 20:0.366972 21:0.271825 22:0.192006 23:0.272855 26:0.21822 28:0.559531 29:0.926102 52:0.486839 53:0.533194 54:0.326077 56:0.467218 57:0.310801 111:0.285627 114:0.333794 120:0.424982 121:0.318428 122:0.296791 123:0.475774 126:0.399024 128:0.218585 129:0.291201 152:0.633892 153:0.447968 154:0.670613 156:0.733456 157:0.415264 211:0.285714 214:0.419048 220:0.56672 221:0.188347 222:0.231844 223:0.284722 226:0.275253 228:0.262626 229:0.321305 252:0.31216 253:0.287744 254:0.251594 256:0.869082 257:0.315319 311:0.302876 314:0.320616 320:0.536424 321:0.278078 322:0.323668 323:0.29979 326:0.349876 328:0.213895 329:0.281295 352:0.453181 353:0.387755 354:0.366976 356:0.722814 357:0.743946 411:0.175885 414:0.23299 420:0.344453 421:0.403821 422:0.369242 423:0.532495 426:0.306038 428:0.219355 429:0.281207 452:0.903 453:0.718338 454:0.817376 456:0.338097 457:0.494574 
0.01 11:0.298077 14:0.333794 20:0.439602 21:0.310847 22:0.280514 23:0.390999 26:0.362288 28:0.242815 29:0.282712 52:0.633892 53:0.471324 54:0.72163 56:0.733456 57:0.409743 111:0.310811 114:0.467173 120:0.568367 121:0.188347 122:0.221925 123:0.260524 126:0.331707 128:0.267687 129:0.317039 152:0.31216 153:0.287744 154:0.250317 156:0.873775 157:0.277217 211:0.318257 214:0.315646 220:0.428457 221:0.2771 222:0.335196 223:0.372396 226:0.338384 228:0.229665 229:0.290076 252:0.430281 253:0.375619 254:0.369316 256:0.714649 257:0.761479 311:0.141004 314:0.180054 320:0.351939 321:0.41475 322:0.351315 323:0.532495 326:0.306038 328:0.194201 329:0.253237 352:0.903674 353:0.723356 354:0.778716 356:0.297515 357:0.50655 411:0.179757 414:0.230241 420:0.383243 421:0.409091 422:0.360737 423:0.734451 426:0.306038 428:0.243176 429:0.294239 452:0.845928 453:0.625989 454:0.829344 456:0.342353 457:0.491085 
0.01 11:0.324359 14:0.467173 20:0.58792 21:0.183862 22:0.200571 23:0.200422 26:0.289195 28:0.297361 29:0.307797 52:0.31216 53:0.302746 54:0.261232 56:0.873775 57:0.270393 111:0.347052 114:0.362129 120:0.441242 121:0.2771 122:0.320856 123:0.340747 126:0.404878 128:0.234952 129:0.285615 152:0.430281 153:0.375619 154:0.367442 156:0.724877 157:0.687991 211:0.159956 214:0.172789 220:0.271704 221:0.413957 222:0.363827 223:0.661458 226:0.293771 228:0.210526 229:0.263012 252:0.86774 253:0.717872 254:0.78368 256:0.295837 257:0.518488 311:0.144952 314:0.177376 320:0.399243 321:0.420162 322:0.343223 323:0.734451 326:0.306038 328:0.22046 329:0.266906 352:0.846998 353:0.632653 354:0.790118 356:0.302033 357:0.502977 411:0.297013 414:0.793814 420:0.525213 421:0.211462 422:0.23742 423:0.215933 426:0.311828 428:0.334988 429:0.513717 452:0.350102 453:0.309037 454:0.281028 456:0.792642 457:0.367829 
0.01 11:0.121154 14:0.340705 20:0.142966 21:0.454365 22:0.176303 23:0.187764 26:0.694915 28:0.110264 29:0.119322 52:0.677833 53:0.460549 54:0.829551 56:0.353248 57:0.704683 111:0.150491 114:0.340014 120:0.232816 121:0.632114 122:0.465909 123:0.428118 126:0.767805 128:0.267687 129:0.174581 152:0.539047 153:0.395111 154:0.553911 156:0.502145 157:0.596708 211:0.142857 214:0.284354 220:0.381029 221:0.153794 222:0.314246 223:0.618056 226:0.276936 228:0.129187 229:0.41499 252:0.562541 253:0.491576 254:0.478538 256:0.81252 257:0.247867 311:0.0924986 314:0.174699 320:0.15421 321:0.334912 322:0.859744 323:0.451433 326:0.55335 328:0.0743982 329:0.192086 352:0.531362 353:0.352446 354:0.560389 356:0.298806 357:0.596665 411:0.173119 414:0.603436 420:0.59038 421:0.0783926 422:0.282069 423:0.104123 426:0.321754 428:0.180149 429:0.288066 452:0.167381 453:0.172493 454:0.105496 456:0.872302 457:0.215504 
0.01 11:0.157051 14:0.340014 20:0.240826 21:0.617063 22:0.461099 23:0.348805 26:0.762712 28:0.297361 29:0.169492 52:0.539047 53:0.415711 54:0.593793 56:0.502145 57:0.5929 111:0.15172 114:0.330339 120:0.397635 121:0.153794 122:0.300802 123:0.565528 126:0.333659 128:0.135164 129:0.411313 152:0.562541 153:0.491576 154:0.47611 156:0.81924 157:0.215114 211:0.112521 214:0.167347 220:0.103698 221:0.334011 222:0.890363 223:0.560764 226:0.545455 228:0.0940989 229:0.204025 252:0.5062 253:0.33961 254:0.563961 256:0.297108 257:0.610727 311:0.138184 314:0.54083 320:0.651845 321:0.0805142 322:0.268375 323:0.104123 326:0.321754 328:0.150985 329:0.260432 352:0.173163 353:0.187237 354:0.100507 356:0.864472 357:0.220723 411:0.147677 414:0.394502 420:0.485648 421:0.350461 422:0.398299 423:0.322152 426:0.560794 428:0.252605 429:0.522634 452:0.814798 453:0.791227 454:0.546099 456:0.648221 457:0.410078 
0.01 11:0.158333 14:0.330339 20:0.411315 21:0.150132 22:0.284797 23:0.470464 26:0.291314 28:0.150147 29:0.399322 52:0.562541 53:0.517205 54:0.508569 56:0.81924 57:0.207704 111:0.117936 114:0.211472 120:0.142646 121:0.334011 122:0.852273 123:0.513106 126:0.644878 128:0.100317 129:0.199022 152:0.5062 153:0.33961 154:0.561099 156:0.322304 157:0.549196 211:0.157198 214:0.539456 220:0.526527 221:0.0792683 222:0.277933 223:0.12934 226:0.309764 228:0.168527 229:0.269951 252:0.158364 253:0.171127 254:0.101147 256:0.854147 257:0.225924 311:0.112239 314:0.337349 320:0.524125 321:0.359946 322:0.378962 323:0.322152 326:0.560794 328:0.230853 329:0.506475 352:0.816084 353:0.794947 354:0.52027 356:0.626654 357:0.420008 411:0.110066 414:0.23299 420:0.17533 421:0.810935 422:0.360737 423:0.54717 426:0.326716 428:0.50273 429:0.239369 452:0.678322 453:0.423813 454:0.77172 456:0.245363 457:0.431008 
0.01 11:0.123077 14:0.211472 20:0.147554 21:0.326058 22:0.873662 23:0.424051 26:0.629237 28:0.111437 29:0.19322 52:0.5062 53:0.357317 54:0.601667 56:0.322304 57:0.54494 111:0.16769 114:0.589496 120:0.531412 121:0.0792683 122:0.266043 123:0.118348 126:0.371707 128:0.174234 129:0.265363 152:0.158364 153:0.171127 154:0.100634 156:0.859375 157:0.194912 211:0.131826 214:0.332653 220:0.418006 221:0.359079 222:0.392458 223:0.400174 226:0.55303 228:0.246146 229:0.507287 252:0.782684 253:0.790882 254:0.523587 256:0.619956 257:0.429907 311:0.0738861 314:0.180054 320:0.145695 321:0.832882 322:0.343223 323:0.54717 326:0.326716 328:0.506565 329:0.209353 352:0.680556 353:0.434078 354:0.73522 356:0.199096 357:0.441445 411:0.152655 414:0.755326 420:0.525989 421:0.449934 422:0.147413 423:0.406709 426:0.265509 428:0.273449 429:0.841564 452:0.501917 453:0.429749 454:0.41711 456:0.581332 457:0.539535 
0.01 11:0.201282 14:0.175536 20:0.285168 21:0.357804 22:0.242684 23:0.769339 26:0.524364 28:0.206452 29:0.221695 52:0.718947 53:0.781022 54:0.490042 56:0.26685 57:0.565332 111:0.146806 114:0.2481 120:0.232077 121:0.299458 122:0.204545 123:0.41938 126:0.233171 128:0.769799 129:0.282821 152:0.721775 153:0.712587 154:0.502748 156:0.238971 157:0.463524 211:0.257584 214:0.497279 220:0.378617 221:0.24187 222:0.254888 223:0.282986 226:0.281987 228:0.223817 229:0.299098 252:0.335001 253:0.286753 254:0.297493 256:0.819193 257:0.501829 311:0.182177 314:0.197456 320:0.298013 321:0.380244 322:0.494268 323:0.34102 326:0.574028 328:0.181072 329:0.201439 352:0.739247 353:0.405896 354:0.882601 356:0.405615 357:0.497023 411:0.227323 414:0.452921 420:0.652444 421:0.158762 422:0.181432 423:0.192872 426:0.181141 428:0.2933 429:0.751715 452:0.294157 453:0.277375 454:0.213652 456:0.830952 457:0.215116 
0.01 11:0.153205 14:0.2481 20:0.240061 21:0.292328 22:0.182013 23:0.341069 26:0.182203 28:0.855132 29:0.274576 52:0.721775 53:0.749739 54:0.537749 56:0.238971 57:0.458459 111:0.279484 114:0.546648 120:0.395418 121:0.24187 122:0.243984 123:0.258936 126:0.339512 128:0.229145 129:0.294693 152:0.335001 153:0.286753 154:0.295983 156:0.825674 157:0.448934 211:0.200221 214:0.190476 220:0.225884 221:0.379404 222:0.511872 223:0.423611 226:0.566498 228:0.197767 229:0.213046 252:0.70807 253:0.39412 254:0.888228 256:0.402288 257:0.508736 311:0.193457 314:0.394244 320:0.727531 321:0.163058 322:0.172623 323:0.192872 326:0.181141 328:0.275711 329:0.746763 352:0.299059 353:0.290249 354:0.203547 356:0.820587 357:0.220326 411:0.184735 414:0.997251 420:0.375485 421:0.16996 422:0.150248 423:0.15304 426:0.124069 428:0.37072 429:0.805898 452:0.292804 453:0.281003 454:0.206117 456:0.492551 457:0.205814 
0.01 11:0.210256 14:0.26123 20:0.349388 21:0.236772 22:0.413276 23:0.415612 26:0.431144 28:0.193548 29:0.20339 52:0.634762 53:0.770247 54:0.325151 56:0.784314 57:0.259441 111:0.0976658 114:0.154112 120:0.217295 121:0.299458 122:0.191845 123:0.423352 126:0.179512 128:0.158923 129:0.177374 152:0.754623 153:0.828213 154:0.418605 156:0.213235 157:0.246914 211:0.163265 214:0.231973 220:0.500804 221:0.287263 222:0.483939 223:0.662326 226:0.4133 228:0.507709 229:0.394865 252:0.519252 253:0.560621 254:0.305142 256:0.728313 257:0.26087 311:0.256627 314:0.259705 320:0.275307 321:0.258457 322:0.171274 323:0.38225 326:0.489661 328:0.210066 329:0.708633 352:0.685036 353:0.744736 354:0.338682 356:0.468216 357:0.452561 411:0.117257 414:0.234364 420:0.47789 421:0.279974 422:0.191354 423:0.698812 426:0.144748 428:0.190074 429:0.541152 452:0.856305 453:0.984169 454:0.368351 456:0.30374 457:0.372093 
0.01 11:0.101923 14:0.154112 20:0.224771 21:0.292328 22:0.168451 23:0.344585 26:0.123941 28:0.17654 29:0.172203 52:0.754623 53:0.871394 54:0.445577 56:0.213235 57:0.239804 111:0.174447 114:0.277125 120:0.507761 121:0.287263 122:0.463235 123:0.606037 126:0.491707 128:0.511088 129:0.391061 152:0.519252 153:0.560621 154:0.303594 156:0.738051 157:0.227086 211:0.273028 214:0.253741 220:0.206592 221:0.257453 222:0.177374 223:0.474826 226:0.48064 228:0.225944 229:0.70229 252:0.655427 253:0.739676 254:0.340841 256:0.463934 257:0.463226 311:0.0812183 314:0.181392 320:0.514664 321:0.287551 322:0.182063 323:0.698812 326:0.144748 328:0.161926 329:0.525899 352:0.857303 353:0.984451 354:0.350929 356:0.261052 357:0.381104 411:0.199668 414:0.369759 420:0.510473 421:0.0757576 422:0.109142 423:0.136967 426:0.124069 428:0.19603 429:0.222908 452:0.229641 453:0.256596 454:0.114805 456:0.784737 457:0.0988372 
0.01 11:0.182051 14:0.277125 20:0.525229 21:0.280423 22:0.458244 23:0.506329 26:0.462924 28:0.567742 29:0.379661 52:0.519252 53:0.589851 54:0.319592 56:0.738051 57:0.219789 111:0.296683 114:0.29924 120:0.237251 121:0.257453 122:0.169786 123:0.434472 126:0.569756 128:0.231257 129:0.700419 152:0.655427 153:0.739676 154:0.339112 156:0.48315 157:0.413393 211:0.101489 214:0.17415 220:0.409968 221:0.286585 222:0.188547 223:0.868056 226:0.12963 228:0.17916 229:0.526024 252:0.82271 253:0.984143 254:0.353166 256:0.25993 257:0.390085 311:0.165257 314:0.313253 320:0.554399 321:0.0778078 322:0.103844 323:0.136967 326:0.124069 328:0.16849 329:0.192086 352:0.234991 353:0.269841 354:0.109375 356:0.771539 357:0.101231 411:0.147677 414:0.82543 420:0.303336 421:0.177866 422:0.124734 423:0.324249 426:0.0934657 428:0.372208 429:0.993141 452:0.402662 453:0.443272 454:0.203901 456:0.380055 457:0.162403 
0.01 11:0.309615 14:0.29924 20:0.245413 21:0.251323 22:0.144897 23:0.35443 26:0.547669 28:0.256891 29:0.68 52:0.655427 53:0.778241 54:0.358499 56:0.48315 57:0.407855 111:0.105651 114:0.218383 120:0.424242 121:0.286585 122:0.180481 123:0.794281 126:0.162927 128:0.184794 129:0.523045 152:0.82271 153:0.984143 154:0.351374 156:0.286458 157:0.346053 211:0.183673 214:0.308163 220:0.44373 221:0.0765583 222:0.107542 223:0.170139 226:0.108586 228:0.18554 229:0.204025 252:0.218403 253:0.255368 254:0.110072 256:0.762631 257:0.103616 311:0.112239 314:0.757028 320:0.301798 321:0.182679 322:0.118678 323:0.324249 326:0.0934657 328:0.362691 329:1 352:0.40681 353:0.453191 354:0.194257 356:0.342046 357:0.166336 411:0.86781 414:0.217182 420:0.272304 421:0.464427 422:0.236712 423:0.228512 426:0.536807 428:0.190571 429:0.196845 452:0.40018 453:0.354551 454:0.318262 456:0.340225 457:0.586822 
0.01 11:0.329487 14:0.373877 20:0.110092 21:0.384921 22:1 23:0.139944 26:0.0487288 28:0.435191 29:0.595254 52:0.37916 53:0.420229 54:0.247337 56:0.152267 57:0.207704 111:0.523342 114:0.131997 120:0.18847 121:0.179539 122:0.330214 123:0.206513 126:0.199024 128:0.120908 129:0.10824 152:0.245812 153:0.204493 154:0.227907 156:0.334865 157:0.851478 211:0.0761169 214:0.0346939 220:0.127814 221:0.407859 222:0.214385 223:0.424479 226:0.328283 228:0.0903775 229:0.120749 252:0.651729 253:0.718203 254:0.361241 256:0.118526 257:0.382771 311:0.153412 314:0.248996 320:0.448439 321:0.0588633 322:0.0896831 323:0.0726765 326:0.243176 328:0.103939 329:0.148921 352:0.0900538 353:0.0819566 354:0.0810811 356:0.98677 357:0.122271 411:0.115597 414:0.186254 420:0.163693 421:0.97365 422:0.16017 423:0.254368 426:0.187758 428:0.139454 429:0.536351 452:0.46605 453:0.355541 454:0.446365 456:0.141684 457:0.365116 
0.002009460335235075 11:0.546154 14:0.131997 20:0.194954 21:0.175265 22:0.316203 23:0.152602 26:0.145127 28:0.134311 29:0.105085 52:0.245812 53:0.215155 54:0.236684 56:0.334865 57:0.850076 111:0.0773956 114:0.0767104 120:0.164819 121:0.407859 122:0.205214 123:0.388403 126:0.393171 128:0.0966209 129:0.115223 152:0.651729 153:0.718203 154:0.359408 156:0.150123 157:0.339319 211:0.17209 214:0.242857 220:0.353698 221:0.0575881 222:0.0928771 223:0.0902778 226:0.229798 228:0.122807 229:0.162387 252:0.0776593 253:0.0637595 254:0.081598 256:0.974579 257:0.125152 311:0.0795262 314:0.134538 320:0.131504 321:1 322:0.152394 323:0.254368 326:0.187758 328:0.106127 329:0.520863 352:0.469758 353:0.367023 354:0.425253 356:0.089061 357:0.373958 411:0.186394 414:0.514089 420:0.519783 421:0.0770751 422:0.407512 423:0.114605 426:0.11249 428:0.193548 429:0.366941 452:0.145274 453:0.130937 454:0.117908 456:0.86014 457:0.101938 
-0.01 11:0.126282 14:0.844506 20:0.615443 21:0.113095 22:0.259814 23:0.134318 28:0.948387 29:0.505085 52:0.422232 53:0.492875 54:0.242242 56:0.433824 57:0.20997 111:0.52887 114:0.366966 120:0.162602 121:0.595528 122:0.591578 123:0.324067 126:0.185366 128:0.119324 129:0.14595 152:0.742223 153:0.851008 154:0.365328 156:0.207108 157:0.411897 211:0.479868 214:0.685034 220:0.241961 221:0.173442 222:0.751397 223:0.194444 226:0.117845 228:0.181287 229:0.25746 252:0.398086 253:0.455897 254:0.203145 256:0.576422 257:0.596912 311:0.0941906 314:0.105087 320:0.43141 321:0.335589 322:0.873904 323:0.373166 326:0.129859 328:0.109409 329:0.111511 352:0.658378 353:0.52057 354:0.580659 356:0.395289 357:0.351727 411:0.55531 414:0.194502 420:0.704422 421:0.442029 422:0.200567 423:0.570231 426:0.622829 428:0.15732 429:0.177641 452:0.610873 453:0.551121 454:0.468085 456:0.494679 457:0.628682 
-0.01 11:0.209615 14:0.365584 20:0.327982 21:0.468254 22:0.257673 23:0.421941 26:0.21822 28:0.279179 29:0.524068 52:0.795519 53:0.875217 54:0.527559 56:0.291054 57:0.400302 111:0.20086 114:0.365584 120:0.317073 121:0.479675 122:0.275401 123:0.510723 126:0.266341 128:0.25132 129:0.539804 152:0.795519 153:0.831847 154:0.493446 156:0.291054 157:0.405911 211:0.158301 214:0.153061 220:0.161576 221:0.530488 222:0.339385 223:0.486111 226:0.276936 228:0.138224 229:0.184594 252:0.758756 253:0.458209 254:0.904802 256:0.239593 257:0.50833 311:0.204174 314:0.627175 320:0.434248 321:0.284844 322:0.221848 323:0.307477 326:0.239868 328:0.497812 329:0.960432 352:0.521505 353:0.525429 354:0.316301 356:0.459826 357:0.360461 411:0.174226 414:0.213058 420:0.238169 421:0.517128 422:0.344437 423:0.391335 426:0.289495 428:0.151861 429:0.203704 452:0.789984 453:0.459103 454:0.943706 456:0.284281 457:0.484884 
-0.01 11:0.224359 14:0.213545 20:0.283639 21:0.635582 22:0.720914 23:0.269339 26:0.825212 28:0.187683 29:0.181017 52:0.492278 53:0.380257 54:0.541454 56:0.43076 57:0.47432 111:0.170147 114:0.176227 120:0.241685 121:0.618564 122:0.524064 123:0.826052 126:0.484878 128:0.170539 129:0.25 152:0.688928 153:0.6518 154:0.516702 156:0.242341 157:0.630378 211:0.205185 214:0.138095 220:0.233923 221:0.45935 222:0.46648 223:0.796875 226:0.502525 228:0.161085 229:0.190146 252:0.58908 253:0.526924 254:0.484913 256:0.37782 257:0.832182 311:0.177101 314:0.627175 320:0.732261 321:0.279432 322:0.433581 323:0.784067 326:0.334988 328:0.230853 329:0.313669 352:0.492608 353:0.425656 354:0.391892 356:0.612133 357:0.454148 411:0.222898 414:0.505155 420:0.329713 421:0.537549 422:0.294118 423:0.661076 426:0.238213 428:0.276427 429:0.616598 452:0.632529 453:0.503298 454:0.574911 456:0.359988 457:0.725581 
-0.01 11:0.236538 14:0.400829 20:0.316514 21:0.502646 22:0.294076 23:0.398734 26:0.21822 28:0.320821 29:0.545085 52:0.806613 53:0.870003 54:0.558129 56:0.335784 57:0.416541 111:0.292998 114:0.445059 120:1 121:0.264905 122:0.238636 123:0.41938 126:0.355122 128:0.293031 129:0.321927 152:0.417011 153:0.407664 154:0.300634 156:0.702819 157:0.360643 211:0.204633 214:0.167347 220:0.17926 221:0.392276 222:0.27514 223:0.329861 226:0.212121 228:0.227007 229:0.172103 252:0.417446 253:0.350182 254:0.376966 256:0.198284 257:0.897196 311:0.860124 314:0.227577 320:0.369915 321:0.32544 322:0.268375 323:0.262753 326:0.362283 328:0.214989 329:0.22518 352:0.399866 353:0.337545 354:0.331926 356:0.424008 357:0.636364 411:0.267699 414:0.325773 420:0.371606 421:0.399868 422:0.364281 423:0.390636 426:0.297767 428:0.289826 429:0.310014 452:0.697947 453:0.662269 454:0.489805 456:0.411371 457:0.767054 
-0.01 11:0.362821 14:0.469247 20:0.545872 21:0.237434 22:0.220557 23:0.186357 26:0.322034 28:0.260411 29:0.341695 52:0.348053 53:0.312826 54:0.324224 56:0.886949 57:0.338369 111:0.224201 114:0.399447 120:0.304508 121:0.51626 122:0.308155 123:0.484512 126:0.26439 128:0.287751 129:0.562849 152:0.807483 153:0.828873 154:0.520507 156:0.332108 157:0.419753 211:0.207943 214:0.352381 220:0.279743 221:0.51626 222:0.321927 223:0.529514 226:0.217172 228:0.282828 229:0.565579 252:0.807483 253:0.828873 254:0.523162 256:0.307277 257:0.470134 311:0.190073 314:0.35676 320:0.3614 321:0.516915 322:0.310856 323:0.426275 326:0.230769 328:0.2686 329:0.566906 352:0.841622 353:0.8322 354:0.519848 356:0.309132 357:0.459309 411:0.224004 414:0.414433 420:0.352211 421:0.503294 422:0.326719 423:0.426275 426:0.230769 428:0.286849 429:0.580247 452:0.840514 453:0.829156 454:0.545656 456:0.349042 457:0.44845 
-0.01 11:0.0961538 14:0.0635798 20:0.0993884 21:0.185847 22:0.975018 23:0.295359 26:0.0815678 28:0.48915 29:0.0691525 52:0.450946 53:0.225235 54:0.660028 56:0.132966 57:0.421828 111:0.19226 114:0.306151 120:0.181079 121:0.430894 122:0.393048 123:0.449563 126:0.55122 128:0.12302 129:0.141061 152:0.399826 153:0.373307 154:0.311205 156:0.355699 157:0.76618 211:0.168781 214:0.092517 220:0.266077 221:0.175474 222:0.743017 223:0.453993 226:0.239899 228:0.105795 229:0.25052 252:0.293235 253:0.271886 254:0.235019 256:0.413092 257:0.828931 311:0.122955 314:0.271754 320:0.773888 321:0.14276 322:0.34592 323:0.495458 326:0.220017 328:0.122538 329:0.145324 352:0.516353 353:0.49757 354:0.342905 356:0.738625 357:0.469234 411:0.176991 414:0.237801 420:0.346005 421:0.100132 422:0.255847 423:0.234801 426:0.381307 428:0.119603 429:0.157064 452:0.30476 453:0.296174 454:0.20922 456:0.923989 457:0.396899 
