svm_type c_svc
kernel_type rbf
gamma 0.1
nr_class 2
total_sv 666
rho -1.00434
label 1 0
probA -338.117
probB 336.034
nr_sv 333 333
SV
0.001 11:0.363331 18:0.327258 26:0.327087 51:0.496674 54:0.418029 55:0.837897 56:0.577869 57:0.44697 111:0.30967 118:0.336323 126:0.512777 151:0.768591 154:0.447357 155:0.410519 156:0.571518 157:0.789204 211:0.297373 218:0.46087 226:0.622545 251:0.876845 254:0.601437 255:0.252049 256:0.348684 257:0.747833 311:0.307562 318:0.398782 326:0.499186 351:0.888869 354:0.722319 355:0.55881 356:0.383895 357:0.606118 411:0.239278 418:0.420091 426:0.259812 451:0.967419 454:0.699875 455:0.426278 456:0.4548 457:0.505665 511:0.0897291 518:0.362752 526:0.509721 551:0.770901 554:0.653096 555:0.392277 556:0.263125 557:0.822008 611:0.259594 618:0.540666 626:0.349958 651:0.766643 654:0.498304 655:0.33238 656:0.404916 657:0.810863 711:0.278689 718:0.463981 726:0.526613 751:0.913522 754:0.597576 755:0.425702 756:0.391054 757:0.683333 811:0.261555 818:0.535211 826:0.375 851:0.83932 854:0.434393 855:0.541725 856:0.506917 857:0.697999 911:0.224035 918:0.574116 926:0.462662 951:0.815555 954:0.642153 955:0.383099 956:0.520497 957:0.549641 
0.001 11:0.30967 18:0.356577 26:0.512777 51:0.776261 54:0.443606 55:0.432859 56:0.574401 57:0.787081 111:0.297373 118:0.475336 126:0.63799 151:0.834287 154:0.601691 155:0.252049 156:0.349122 157:0.747833 211:0.314142 218:0.397101 226:0.474808 251:0.928767 254:0.736264 255:0.515938 256:0.381579 257:0.589046 311:0.239278 318:0.420091 326:0.269544 351:0.941282 354:0.734961 355:0.439065 356:0.456929 357:0.505665 411:0.0897291 418:0.351598 426:0.473312 451:0.810255 454:0.607306 455:0.382022 456:0.263125 457:0.804003 511:0.259594 518:0.522064 526:0.349958 551:0.752094 554:0.498304 555:0.328232 556:0.409444 557:0.812741 611:0.27991 618:0.463981 626:0.573119 651:0.88184 654:0.606446 655:0.432046 656:0.408909 657:0.687982 711:0.244771 718:0.529822 726:0.379032 751:0.864777 754:0.443794 755:0.535092 756:0.48754 757:0.73373 811:0.224035 818:0.597027 826:0.462662 851:0.801121 854:0.636919 855:0.38042 856:0.515217 857:0.549641 911:0.121805 918:0.173062 926:0.150974 951:0.314841 954:0.167625 955:0.385915 956:0.954658 957:0.134013 
0.001 11:0.297373 18:0.503962 26:0.63799 51:0.842612 54:0.596646 55:0.280394 56:0.350883 57:0.745215 111:0.314142 118:0.409567 126:0.49063 151:0.883689 154:0.736575 155:0.515938 156:0.382058 157:0.589046 211:0.246506 218:0.417391 226:0.233988 251:0.981782 254:0.748521 255:0.400501 256:0.454887 257:0.48424 311:0.0897291 318:0.351598 326:0.491042 351:0.788365 354:0.637751 355:0.393481 356:0.264357 357:0.804003 411:0.259594 418:0.513699 426:0.324961 451:0.789893 454:0.455791 455:0.319651 456:0.409444 457:0.79494 511:0.27991 518:0.448018 526:0.573119 551:0.865105 554:0.606446 555:0.426654 556:0.413482 557:0.689575 611:0.24605 618:0.529822 626:0.418428 651:0.834786 654:0.450382 655:0.539819 656:0.50169 657:0.736903 711:0.205766 718:0.591015 726:0.466129 751:0.82542 754:0.651483 755:0.367619 756:0.496166 757:0.577778 811:0.121805 818:0.179969 826:0.150974 851:0.309269 854:0.166259 855:0.383217 856:0.944974 857:0.134013 911:0.249592 918:0.34161 926:0.129058 951:0.576882 954:0.350863 955:0.979108 956:0.365528 957:0.472254 
0.001 11:0.314142 18:0.434231 26:0.49063 51:0.892507 54:0.730398 55:0.534283 56:0.383985 57:0.58453 111:0.246506 118:0.430493 126:0.250426 151:0.934131 154:0.748837 155:0.400501 156:0.455458 157:0.48424 211:0.098379 218:0.352174 226:0.466268 251:0.827109 254:0.654269 255:0.356557 256:0.261591 257:0.795508 311:0.259594 318:0.513699 326:0.337134 351:0.768552 354:0.47864 355:0.329239 356:0.411361 357:0.79494 411:0.27991 418:0.438356 426:0.532182 451:0.912255 454:0.561644 455:0.415501 456:0.413482 457:0.674471 511:0.24605 518:0.511593 526:0.418428 551:0.818943 554:0.450382 555:0.533082 556:0.5073 557:0.73861 611:0.207111 618:0.591015 626:0.509721 651:0.796793 654:0.661154 655:0.374821 656:0.509985 657:0.585516 711:0.0994912 718:0.178156 726:0.156452 751:0.31865 754:0.168826 755:0.370523 756:0.942812 757:0.140873 811:0.249592 818:0.355243 826:0.129058 851:0.566673 854:0.348003 855:0.972261 856:0.36182 857:0.472254 911:0.26373 918:0.255079 926:0.388799 951:0.7137 954:0.468776 955:0.292723 956:0.852174 957:0.408456 
0.001 11:0.246506 18:0.456418 26:0.250426 51:0.943452 54:0.742558 55:0.42322 56:0.457755 57:0.478469 111:0.098379 118:0.363229 126:0.482112 151:0.786965 154:0.654545 155:0.356557 156:0.26192 157:0.795508 211:0.266629 218:0.506522 226:0.304868 251:0.807069 254:0.5 255:0.294627 256:0.409148 257:0.786052 311:0.27991 318:0.438356 326:0.552117 351:0.887608 354:0.589799 355:0.427964 356:0.415418 357:0.674471 411:0.24605 418:0.503044 426:0.38854 451:0.862273 454:0.408883 455:0.519147 456:0.5073 457:0.722432 511:0.207111 518:0.570681 526:0.509721 551:0.781672 554:0.661154 555:0.370144 556:0.515688 557:0.586873 611:0.101016 618:0.178156 626:0.185123 651:0.307598 654:0.171332 655:0.377682 656:0.939478 657:0.161402 711:0.232335 718:0.351665 726:0.134677 751:0.58386 754:0.355203 755:0.982091 756:0.336741 757:0.496429 811:0.26373 818:0.265258 826:0.388799 851:0.701069 854:0.464955 855:0.290676 856:0.843529 857:0.408456 911:0.294182 918:0.206922 926:0.37013 951:0.480378 954:0.256779 955:0.731221 956:0.827019 957:0.373726 
0.001 11:0.098379 18:0.385103 26:0.482112 51:0.794818 54:0.649057 55:0.380942 56:0.263241 57:0.793461 111:0.266629 118:0.522422 126:0.321124 151:0.767897 154:0.500211 155:0.294627 156:0.409661 157:0.786052 211:0.286752 218:0.434783 226:0.530316 251:0.927491 254:0.607777 255:0.3898 256:0.413221 257:0.660362 311:0.24605 318:0.503044 326:0.403094 351:0.838977 354:0.429381 355:0.534719 356:0.509675 357:0.722432 411:0.207111 418:0.563166 426:0.473312 451:0.821918 454:0.615193 455:0.360468 456:0.515688 457:0.574018 511:0.101016 518:0.172027 526:0.185123 551:0.301761 554:0.171332 555:0.372969 556:0.949984 557:0.161776 611:0.233634 618:0.351665 626:0.162299 651:0.563611 654:0.360475 655:0.98021 656:0.356682 657:0.506549 711:0.247032 718:0.262587 726:0.392742 751:0.722333 754:0.475136 755:0.274443 756:0.83738 757:0.429365 811:0.294182 818:0.21518 826:0.37013 851:0.471877 854:0.254686 855:0.726107 856:0.818629 857:0.373726 911:0.0918978 918:0.403311 926:0.373377 951:0.9604 954:0.772391 955:0.147183 956:0.295031 957:0.540581 
0.001 11:0.266629 18:0.553883 26:0.321124 51:0.77556 54:0.496017 55:0.321358 56:0.411728 57:0.783892 111:0.286752 118:0.44843 126:0.545997 151:0.882475 154:0.608034 155:0.3898 156:0.413739 157:0.660362 211:0.253214 218:0.496377 226:0.374039 251:0.878302 254:0.45224 255:0.492714 256:0.507832 257:0.710402 311:0.207111 318:0.563166 326:0.491042 351:0.799712 354:0.646033 355:0.37128 356:0.518102 357:0.574018 411:0.101016 418:0.157534 426:0.1719 451:0.302295 454:0.135741 455:0.363219 456:0.949984 457:0.158233 511:0.233634 518:0.339566 526:0.162299 551:0.552915 554:0.360475 555:0.967977 556:0.360671 557:0.507722 611:0.248307 618:0.262587 626:0.432798 651:0.697281 654:0.482188 655:0.283023 656:0.838095 657:0.441448 711:0.278689 718:0.213013 726:0.374194 751:0.486189 754:0.259507 755:0.726525 756:0.811502 757:0.392857 811:0.0918978 818:0.419405 826:0.373377 851:0.943403 854:0.766096 855:0.146154 856:0.292038 857:0.540581 911:0.138119 918:0.300226 926:0.538149 951:0.571887 954:0.262942 955:0.330751 956:0.841615 957:0.480181 
0.001 11:0.221912 18:0.237718 26:0.25724 51:0.505602 54:0.526625 55:0.556846 56:0.76198 57:0.273923 111:0.244271 118:0.353513 126:0.621806 151:0.812446 154:0.435941 155:0.242031 156:0.431932 157:0.775414 211:0.23924 218:0.337681 226:0.707942 251:0.734742 254:0.433643 255:0.483151 256:0.361842 257:0.688731 311:0.234763 318:0.319635 326:0.925896 351:0.572226 354:0.367916 355:0.468588 356:0.455993 357:0.484517 411:0.150113 418:0.228311 426:0.177394 451:0.378749 454:0.228726 455:0.818849 456:0.399503 457:0.475831 511:0.152935 518:0.365744 526:0.287405 551:0.796717 554:0.888041 555:0.253826 556:0.296987 557:0.44749 611:0.242664 618:0.265686 626:0.284024 651:0.459219 654:0.298558 655:0.358131 656:0.883257 657:0.320878 711:0.246467 718:0.288149 726:0.294355 751:0.588554 754:0.327622 755:0.303969 756:0.853994 757:0.369048 811:0.23491 818:0.631455 826:0.818182 851:0.659541 854:0.391606 855:0.267366 856:0.54688 857:0.437901 911:0.200109 918:0.816403 926:0.476461 951:0.857474 954:0.566968 955:0.33216 956:0.374534 957:0.443186 
0.001 11:0.244271 18:0.374802 26:0.621806 51:0.820553 54:0.432285 55:0.270756 56:0.434111 57:0.773126 111:0.23924 118:0.348281 126:0.723169 151:0.699081 154:0.433827 155:0.483151 156:0.362296 157:0.688731 211:0.242035 218:0.321739 226:0.922289 251:0.60849 254:0.392646 255:0.428962 256:0.453947 257:0.462175 311:0.150113 318:0.228311 326:0.184039 351:0.368516 354:0.240192 355:0.84341 356:0.401373 357:0.475831 411:0.152935 418:0.354642 426:0.266876 451:0.838208 454:0.837277 455:0.247191 456:0.296987 457:0.437689 511:0.242664 518:0.256545 526:0.284024 551:0.450504 554:0.298558 555:0.353661 556:0.893135 557:0.321622 611:0.247743 618:0.288149 626:0.32967 651:0.568142 654:0.332485 655:0.312113 656:0.854071 657:0.382897 711:0.217072 718:0.625097 726:0.819355 751:0.679545 754:0.399916 755:0.250242 756:0.529073 757:0.460317 811:0.200109 818:0.848983 826:0.476461 851:0.842299 854:0.562347 855:0.329837 856:0.370735 857:0.443186 911:0.200109 918:0.399549 926:0.313312 951:0.82269 954:0.532046 955:0.329108 956:0.311801 957:0.472631 
0.001 11:0.23924 18:0.369255 26:0.723169 51:0.706057 54:0.430189 55:0.502738 56:0.364124 57:0.685407 111:0.242035 118:0.331839 126:0.936968 151:0.578956 154:0.392812 155:0.428962 156:0.454517 157:0.462175 211:0.158189 218:0.234783 226:0.144321 251:0.402441 254:0.268808 255:0.790301 256:0.399123 257:0.453113 311:0.152935 318:0.354642 326:0.276873 351:0.815562 354:0.87925 355:0.254606 356:0.298377 357:0.437689 411:0.242664 418:0.243531 426:0.263736 451:0.463347 454:0.260274 455:0.344416 456:0.893135 457:0.314577 511:0.247743 518:0.278235 526:0.32967 551:0.55736 554:0.332485 555:0.308218 556:0.863622 557:0.383784 611:0.218397 618:0.625097 626:0.879966 651:0.655978 654:0.405852 655:0.25918 656:0.541628 657:0.471495 711:0.180893 718:0.840434 726:0.479839 751:0.867846 754:0.57501 755:0.315102 756:0.346006 757:0.465873 811:0.200109 818:0.415493 826:0.313312 851:0.80813 854:0.52771 855:0.326807 856:0.308638 857:0.472631 911:0.218053 918:0.386757 926:0.37013 951:0.98234 954:0.563681 955:0.322066 956:0.443168 957:0.500189 
0.001 11:0.242035 18:0.351823 26:0.936968 51:0.584734 54:0.389518 55:0.450602 56:0.45681 57:0.45614 111:0.158189 118:0.242152 126:0.160988 151:0.382909 154:0.268922 155:0.790301 156:0.399624 157:0.453113 211:0.160984 218:0.355072 226:0.241674 251:0.854618 254:0.888419 255:0.222678 256:0.295739 257:0.413318 311:0.242664 318:0.243531 326:0.273616 351:0.450829 354:0.273322 355:0.354747 356:0.897316 357:0.314577 411:0.247743 418:0.265601 426:0.306122 451:0.579045 454:0.293483 455:0.300161 456:0.863622 457:0.375378 511:0.218397 518:0.60359 526:0.879966 551:0.643529 554:0.405852 555:0.255945 556:0.547686 557:0.472587 611:0.18228 618:0.840434 626:0.524091 651:0.837748 654:0.583545 655:0.323081 656:0.365591 657:0.476888 711:0.180893 718:0.411309 726:0.317742 751:0.832641 754:0.53949 755:0.311955 756:0.28147 757:0.496825 811:0.218053 818:0.402191 826:0.37013 851:0.964955 854:0.559087 855:0.319814 856:0.438672 857:0.500189 911:0.25503 918:0.309255 926:0.258117 951:0.560471 954:0.322925 955:0.469249 956:0.885714 957:0.322008 
0.001 11:0.158189 18:0.256735 26:0.160988 51:0.38673 54:0.266667 55:0.798248 56:0.401639 57:0.44697 111:0.160984 118:0.366218 126:0.258092 151:0.813139 154:0.888795 155:0.222678 156:0.29611 157:0.413318 211:0.24986 218:0.249275 226:0.238258 251:0.485699 254:0.30093 255:0.319217 256:0.89693 257:0.28487 311:0.247743 318:0.265601 326:0.31759 351:0.563401 354:0.308195 355:0.309164 356:0.867665 357:0.375378 411:0.218397 418:0.596651 426:0.817111 451:0.672344 454:0.365297 455:0.249255 456:0.547686 457:0.462236 511:0.18228 518:0.811518 526:0.524091 551:0.82185 554:0.583545 555:0.319049 556:0.36968 557:0.477992 611:0.18228 618:0.411309 626:0.354184 651:0.803764 654:0.547498 655:0.319981 656:0.303533 657:0.506934 711:0.199548 718:0.398141 726:0.374194 751:0.994223 754:0.571667 755:0.304695 756:0.416613 757:0.525794 811:0.25503 818:0.321596 826:0.258117 851:0.550552 854:0.320293 855:0.465967 856:0.876729 857:0.322008 911:0.239804 918:0.488337 926:0.576299 951:0.880485 954:0.451931 955:0.324178 956:0.567702 957:0.552661 
0.001 11:0.164338 18:0.623613 26:0.225724 51:0.696429 54:0.364361 55:0.383352 56:0.723518 57:0.325359 111:0.192845 118:0.521674 126:0.5477 151:0.778644 154:0.55518 155:0.195811 156:0.527604 157:0.583924 211:0.129681 218:0.243478 226:0.12468 251:0.480962 254:0.469992 255:0.118397 256:0.140038 257:0.768716 311:0.134876 318:0.353881 326:0.584691 351:0.941282 354:0.771142 355:0.303732 356:0.280899 357:0.574396 411:0.115124 418:0.343227 426:0.285714 451:0.754165 454:0.465338 455:0.20477 456:0.17521 457:0.422205 511:0.193567 518:0.532536 526:0.890955 551:0.690203 554:0.499576 555:0.222745 556:0.465673 557:0.501931 611:0.19921 618:0.163439 626:0.23246 651:0.275706 654:0.173876 655:0.353839 656:0.927496 657:0.1849 711:0.191068 718:0.521301 726:0.689516 751:0.542156 754:0.416632 755:0.64908 756:0.553355 757:0.421429 811:0.225122 818:0.181534 826:0.199675 851:0.305239 854:0.177262 855:0.288811 856:0.925607 857:0.16459 911:0.203915 918:0.407073 926:0.548701 951:0.90635 954:0.716105 955:0.250469 956:0.303106 957:0.713099 
0.001 11:0.192845 18:0.55309 26:0.5477 51:0.786415 54:0.550524 55:0.226287 56:0.530265 57:0.579346 111:0.129681 118:0.251121 126:0.141397 151:0.457618 154:0.47019 155:0.118397 156:0.140213 157:0.768716 211:0.143097 218:0.354348 226:0.564475 251:0.981782 254:0.783601 255:0.270036 256:0.278195 257:0.55595 311:0.115124 318:0.343227 326:0.296417 351:0.73379 354:0.488666 355:0.210912 356:0.17603 357:0.422205 411:0.193567 418:0.524353 426:0.827316 451:0.72288 454:0.457036 455:0.216923 456:0.465673 457:0.490937 511:0.19921 518:0.157816 526:0.23246 551:0.270474 554:0.173876 555:0.349423 556:0.937869 557:0.185328 611:0.192438 618:0.521301 626:0.743872 651:0.523353 654:0.422816 655:0.652122 656:0.564977 657:0.433744 711:0.206897 718:0.179706 726:0.204839 751:0.314497 754:0.180109 755:0.272507 756:0.922684 757:0.173016 811:0.203915 818:0.423318 826:0.548701 851:0.89031 854:0.710269 855:0.248718 856:0.300031 857:0.713099 911:0.25938 918:0.292701 926:0.276786 951:0.608812 954:0.352095 955:0.355869 956:0.869255 957:0.411854 
0.001 11:0.104528 18:0.506339 26:0.322828 51:0.880077 54:0.904403 55:0.249726 56:0.31715 57:0.557018 111:0.136389 118:0.589686 126:0.207836 151:0.800659 154:0.575053 155:0.438525 156:0.252196 157:0.688337 211:0.379542 218:0.211594 226:0.16567 251:0.459464 254:0.26585 255:0.607468 256:0.718672 257:0.241135 311:0.0682844 318:0.812024 326:0.211726 351:0.837716 354:0.792502 355:0.359707 356:0.207241 357:0.333082 411:0.393905 418:0.200152 426:0.288854 451:0.505368 454:0.213782 455:0.163265 456:0.804598 457:0.252266 511:0.136005 518:0.786836 526:0.354184 551:0.654129 554:0.401612 555:0.292442 556:0.714508 557:0.372587 611:0.0699774 618:0.526723 626:0.311919 651:0.792611 654:0.941476 655:0.277062 656:0.211674 657:0.407935 711:0.150367 718:0.484121 726:0.433871 751:0.809171 754:0.475972 755:0.345353 756:0.661981 757:0.398413 811:0.210984 818:0.190923 826:0.194805 851:0.329245 854:0.178484 855:0.317949 856:0.954504 857:0.350698 911:0.162588 918:0.325809 926:0.700487 951:0.826258 954:0.677896 955:0.347653 956:0.401553 957:0.470366 
0.001 11:0.113471 18:0.389857 26:0.220613 51:0.869223 54:0.910273 55:0.176342 56:0.214376 57:0.459729 111:0.541084 118:0.204783 126:0.235094 151:0.412203 154:0.221987 155:0.374772 156:0.852572 157:0.381403 211:0.172722 218:0.410145 226:0.227156 251:0.912735 254:0.55579 255:0.248862 256:0.394737 257:0.542159 311:0.212754 318:0.169711 326:0.262215 351:0.302053 354:0.176548 355:0.49693 356:0.921036 357:0.245091 411:0.54684 418:0.329528 426:0.463108 451:0.823954 454:0.436281 455:0.231828 456:0.301025 457:0.429003 511:0.0784424 518:0.347794 526:0.228233 551:0.843221 554:0.880831 555:0.140805 556:0.185772 557:0.362548 611:0.185666 618:0.317583 626:0.267117 651:0.695887 654:0.697201 655:0.207201 656:0.411674 657:0.821263 711:0.140192 718:0.642912 726:0.476613 751:0.859361 754:0.842457 755:0.223863 756:0.260383 757:0.530159 811:0.156063 818:0.529734 826:0.206981 851:0.762923 854:0.830888 855:0.456643 856:0.277283 857:0.642884 911:0.214247 918:0.492099 926:0.508117 951:0.721192 954:0.518077 955:0.308216 956:0.345031 957:0.707059 
0.001 11:0.267188 18:0.305071 26:0.300681 51:0.825455 54:0.813417 55:0.172399 56:0.163304 57:0.520335 111:0.125769 118:0.535127 126:0.460818 151:0.807939 154:0.655391 155:0.295765 156:0.52478 157:0.645784 211:0.0726663 218:0.468841 226:0.561059 251:0.973948 254:0.639899 255:0.38775 256:0.453321 257:0.562648 311:0.341422 318:0.405632 326:0.535016 351:0.817363 354:0.527899 355:0.579594 356:0.65231 357:0.398792 411:0.351016 418:0.31583 426:0.255887 451:0.444465 454:0.230801 455:0.75235 456:0.736875 457:0.276435 511:0.272009 518:0.258788 526:0.28825 551:0.653274 554:0.486005 555:0.779138 556:0.46443 557:0.264479 611:0.519187 618:0.255616 626:0.240913 651:0.577379 654:0.441052 655:0.484263 656:0.770814 657:0.523498 711:0.219898 718:0.351665 726:0.187097 751:0.847626 754:0.684914 755:0.664327 756:0.511502 757:0.509524 811:0.315933 818:0.228482 826:0.363636 851:0.54477 854:0.340668 855:0.489277 856:0.809407 857:0.541714 911:0.31267 918:0.388262 926:0.672078 951:0.825722 954:0.460148 955:0.569953 956:0.41118 957:0.552661 
0.001 11:0.309111 18:0.232171 26:0.378194 51:0.54972 54:0.352201 55:0.462651 56:0.821248 57:0.542265 111:0.305757 118:0.386398 126:0.701874 151:0.807766 154:0.475264 155:0.516393 156:0.406524 157:0.558708 211:0.352711 218:0.181884 226:0.243382 251:0.441428 254:0.221048 255:0.393215 256:0.897243 257:0.549251 311:0.272573 318:0.332572 326:0.639251 351:0.736311 354:0.408457 355:0.297355 356:0.547129 357:0.714502 411:0.235892 418:0.364536 426:0.307692 451:0.594409 454:0.218763 455:0.205687 456:0.500777 457:0.488671 511:0.206546 518:0.190726 526:0.367709 551:0.390152 554:0.235793 555:0.421709 556:0.961479 557:0.162934 611:0.218397 618:0.586367 626:0.385461 651:0.655281 654:0.35581 655:0.754888 656:0.520737 657:0.291602 711:0.175806 718:0.298218 726:0.23629 751:0.771619 754:0.796908 755:0.355276 756:0.270927 757:0.558333 811:0.191952 818:0.437402 826:0.287338 851:0.901174 854:0.824776 855:0.371562 856:0.315094 857:0.626274 911:0.240892 918:0.495109 926:0.330357 951:0.898323 954:0.771569 955:0.404695 956:0.339441 957:0.563986 
0.001 11:0.218558 18:0.217116 26:0.351789 51:0.381828 54:0.289727 55:0.305367 56:0.949874 57:0.316587 111:0.138625 118:0.566517 126:0.486371 151:0.853874 154:0.84482 155:0.387978 156:0.255646 157:0.506304 211:0.137507 218:0.286232 226:0.487617 251:0.599563 254:0.400254 255:0.591302 256:0.473371 257:0.389677 311:0.581264 318:0.726027 326:0.29316 351:0.682817 354:0.361378 355:0.352858 356:0.389201 357:0.299094 411:0.205418 418:0.189498 426:0.321036 451:0.405961 454:0.200498 455:0.264389 456:0.931966 457:0.347054 511:0.181151 518:0.509349 526:0.524937 551:0.855873 554:0.818914 555:0.271957 556:0.53557 557:0.520849 611:0.170429 618:0.323005 626:0.220626 651:0.611886 654:0.259966 655:0.262041 656:0.86298 657:0.226888 711:0.200678 718:0.62897 726:0.506452 751:0.944575 754:0.654827 755:0.296225 756:0.408626 757:0.619444 811:0.190865 818:0.805164 826:0.611201 851:0.770107 854:0.689894 855:0.419347 856:0.337842 857:0.483956 911:0.179445 918:0.471031 926:0.412338 951:0.918302 954:0.842235 955:0.320892 956:0.318323 957:0.447339 
0.001 11:0.138625 18:0.600634 26:0.486371 51:0.862395 54:0.837736 55:0.411172 56:0.256936 57:0.500797 111:0.137507 118:0.295217 126:0.503407 151:0.570463 154:0.400423 155:0.591302 156:0.473965 157:0.389677 211:0.585243 218:0.708696 226:0.258753 251:0.72035 254:0.386306 255:0.317395 256:0.386905 257:0.268716 311:0.205418 318:0.189498 326:0.333062 351:0.394993 354:0.210549 355:0.272319 356:0.93633 357:0.347054 411:0.181151 418:0.500761 426:0.487441 451:0.902258 454:0.769614 455:0.264848 456:0.53557 457:0.509441 511:0.170429 518:0.311892 526:0.220626 551:0.600274 554:0.259966 555:0.258771 556:0.872631 557:0.227413 611:0.202032 618:0.62897 626:0.551986 651:0.911816 654:0.664546 655:0.304483 656:0.425806 657:0.625963 711:0.171283 718:0.797057 726:0.61371 751:0.793465 754:0.705809 755:0.408035 756:0.311821 757:0.50873 811:0.179445 818:0.489828 826:0.412338 851:0.90205 854:0.835371 855:0.318648 856:0.315094 857:0.447339 911:0.186514 918:0.571106 926:0.530844 951:0.784695 954:0.460148 955:0.585211 956:0.536335 957:0.566251 
0.001 11:0.137507 18:0.312995 26:0.503407 51:0.576155 54:0.397065 55:0.606791 56:0.476356 57:0.382775 111:0.585243 118:0.730942 126:0.275128 151:0.685387 154:0.386469 155:0.317395 156:0.38739 157:0.268716 211:0.212968 218:0.197826 226:0.300598 251:0.429222 254:0.240068 255:0.239754 256:0.93609 257:0.318755 311:0.181151 318:0.500761 326:0.5057 351:0.877882 354:0.808195 355:0.272792 356:0.538077 357:0.509441 411:0.170429 418:0.299848 426:0.204867 451:0.625509 454:0.222499 455:0.252006 456:0.872631 457:0.222432 511:0.202032 518:0.60733 526:0.551986 551:0.894512 554:0.664546 555:0.300683 556:0.430568 557:0.627413 611:0.172686 618:0.797057 626:0.664413 651:0.765946 654:0.716285 655:0.41464 656:0.332719 657:0.51849 711:0.159412 718:0.484895 726:0.416129 751:0.92941 754:0.854994 755:0.303485 756:0.288179 757:0.470238 811:0.186514 818:0.593897 826:0.530844 851:0.770808 854:0.456398 855:0.581119 856:0.530895 857:0.566251 911:0.158782 918:0.444695 926:0.439123 951:0.879058 954:0.784306 955:0.206338 956:0.367081 957:0.571536 
0.001 11:0.30967 18:0.427892 26:0.829642 51:0.750875 54:0.498952 55:0.357722 56:0.570933 57:0.582536 111:0.198435 118:0.328849 126:0.236797 151:0.622465 154:0.460888 155:0.287341 156:0.287641 157:0.861308 211:0.30967 218:0.318841 226:0.390265 251:0.581709 254:0.376585 255:0.332878 256:0.878133 257:0.430654 311:0.303047 318:0.316591 326:0.418567 351:0.545749 354:0.351351 355:0.368918 356:0.878589 357:0.454305 411:0.134876 418:0.543379 426:0.325746 451:0.965939 454:0.829805 455:0.357945 456:0.380864 457:0.529456 511:0.863431 518:0.254301 526:0.350803 551:0.456146 554:0.2905 555:0.344008 556:0.53557 557:0.503089 611:0.190745 618:0.879163 626:0.350803 651:0.845765 654:0.585242 655:0.348593 656:0.407066 657:0.540062 711:0.189373 718:0.340046 726:0.233871 751:0.642715 754:0.452152 755:0.316796 756:0.26262 757:0.885714 811:0.208265 818:0.343505 826:0.228896 851:0.623795 854:0.442543 855:0.331469 856:0.290501 857:0.842582 911:0.208265 918:0.854026 926:0.310065 951:0.86568 954:0.568611 955:0.357277 956:0.41646 957:0.505096 
0.001 11:0.198435 18:0.348653 26:0.236797 51:0.628676 54:0.457023 55:0.314348 56:0.289092 57:0.860048 111:0.30967 118:0.328849 126:0.406303 151:0.553475 154:0.376744 155:0.332878 156:0.879235 157:0.430654 211:0.30967 218:0.318841 226:0.390265 251:0.581709 254:0.376585 255:0.332878 256:0.878133 257:0.430654 311:0.134876 318:0.543379 326:0.337948 351:0.939841 354:0.871404 355:0.368682 356:0.382647 357:0.529456 411:0.863431 418:0.241248 426:0.325746 451:0.469456 454:0.252387 455:0.335015 456:0.53557 457:0.492069 511:0.190745 518:0.848915 526:0.350803 551:0.829714 554:0.585242 555:0.344243 556:0.411619 557:0.541313 611:0.190745 618:0.340046 626:0.266272 651:0.620425 654:0.458863 655:0.32475 656:0.285407 657:0.884438 711:0.189373 718:0.340046 726:0.233871 751:0.642715 754:0.452152 755:0.316796 756:0.26262 757:0.885714 811:0.208265 818:0.888106 826:0.310065 851:0.850359 854:0.563977 855:0.354779 856:0.412235 857:0.505096 911:0.262099 918:0.255831 926:0.228896 951:0.422761 954:0.283073 955:0.846948 956:0.385714 957:0.317478 
0.001 11:0.30967 18:0.348653 26:0.406303 51:0.558999 54:0.373585 55:0.35816 56:0.88367 57:0.424242 111:0.30967 118:0.328849 126:0.406303 151:0.553475 154:0.376744 155:0.332878 156:0.879235 157:0.430654 211:0.143097 218:0.534783 226:0.305722 251:0.980324 254:0.880811 255:0.33265 256:0.380326 257:0.509062 311:0.863431 318:0.241248 326:0.337948 351:0.456772 354:0.265039 355:0.345064 356:0.538077 357:0.492069 411:0.190745 418:0.846271 426:0.325746 451:0.873936 454:0.540888 455:0.335244 456:0.411619 457:0.529456 511:0.190745 518:0.328347 526:0.266272 551:0.608651 554:0.458863 555:0.320697 556:0.288599 557:0.886486 611:0.190745 618:0.340046 626:0.266272 651:0.620425 654:0.458863 655:0.32475 656:0.285407 657:0.884438 711:0.189373 718:0.879163 726:0.314516 751:0.876151 754:0.576682 755:0.340997 756:0.389137 757:0.530952 811:0.262099 818:0.266041 826:0.228896 851:0.415279 854:0.280766 855:0.841026 856:0.381801 857:0.317478 911:0.316476 918:0.405568 926:0.793831 951:0.759543 954:0.487264 955:0.380282 956:0.571118 957:0.579841 
0.001 11:0.30967 18:0.348653 26:0.406303 51:0.558999 54:0.373585 55:0.35816 56:0.88367 57:0.424242 111:0.143097 118:0.55157 126:0.321976 151:0.932744 154:0.881184 155:0.33265 156:0.380803 157:0.509062 211:0.864729 218:0.247101 226:0.305722 251:0.491711 254:0.292899 255:0.309882 256:0.536341 257:0.470055 311:0.190745 318:0.846271 326:0.337948 351:0.850324 354:0.568003 355:0.3453 356:0.413546 357:0.529456 411:0.190745 418:0.316591 426:0.247253 451:0.63458 454:0.417186 455:0.312314 456:0.288599 457:0.867069 511:0.190745 518:0.328347 526:0.266272 551:0.608651 554:0.458863 555:0.320697 556:0.288599 557:0.886486 611:0.190745 618:0.879163 626:0.350803 651:0.845765 654:0.585242 655:0.348593 656:0.407066 657:0.540062 711:0.245336 718:0.263362 726:0.233871 751:0.427875 754:0.286252 755:0.845837 756:0.357508 757:0.33373 811:0.316476 818:0.421753 826:0.793831 851:0.746101 854:0.483293 855:0.377622 856:0.565324 857:0.579841 911:0.154432 918:0.554552 926:0.310065 951:0.954335 954:0.85456 955:0.380516 956:0.385714 957:0.505096 
0.001 11:0.143097 18:0.584786 26:0.321976 51:0.942052 54:0.873795 55:0.357941 56:0.382724 57:0.503589 111:0.864729 118:0.254858 126:0.321976 151:0.467845 154:0.293023 155:0.309882 156:0.537014 157:0.470055 211:0.198435 218:0.823188 226:0.305722 251:0.88978 254:0.586644 255:0.310109 256:0.411341 257:0.509062 311:0.190745 318:0.316591 326:0.256515 351:0.617435 354:0.438099 355:0.321682 356:0.28995 357:0.867069 411:0.190745 418:0.316591 426:0.247253 451:0.63458 454:0.417186 455:0.312314 456:0.288599 457:0.867069 511:0.190745 518:0.848915 526:0.350803 551:0.829714 554:0.585242 555:0.344243 556:0.411619 557:0.541313 611:0.246614 618:0.263362 626:0.266272 651:0.413036 654:0.2905 655:0.84597 656:0.376651 657:0.348613 711:0.301865 718:0.417506 726:0.795161 751:0.768731 754:0.493941 755:0.364714 756:0.548243 757:0.609524 811:0.154432 818:0.576682 826:0.310065 851:0.937445 854:0.847596 855:0.377855 856:0.381801 857:0.505096 911:0.316476 918:0.330324 926:0.390422 951:0.564039 954:0.364421 955:0.380751 956:0.879193 957:0.429974 
0.001 11:0.864729 18:0.270206 26:0.321976 51:0.472514 54:0.290566 55:0.336035 56:0.539723 57:0.464115 111:0.198435 118:0.849028 126:0.321976 151:0.846594 154:0.586892 155:0.310109 156:0.411857 157:0.509062 211:0.198435 218:0.318841 226:0.220325 251:0.654218 254:0.460693 255:0.287341 256:0.287281 257:0.861308 311:0.190745 318:0.316591 326:0.256515 351:0.617435 354:0.438099 355:0.321682 356:0.28995 357:0.867069 411:0.190745 418:0.846271 426:0.325746 451:0.873936 454:0.540888 455:0.335244 456:0.411619 457:0.529456 511:0.246614 518:0.254301 526:0.266272 551:0.405197 554:0.2905 555:0.835413 556:0.380864 557:0.349421 611:0.303047 618:0.417506 626:0.854607 651:0.74207 654:0.501272 655:0.37196 656:0.560061 657:0.616333 711:0.133409 718:0.570875 726:0.314516 751:0.965878 754:0.86753 755:0.364956 756:0.357508 757:0.530952 811:0.316476 818:0.343505 826:0.390422 851:0.554056 854:0.361451 855:0.378089 856:0.870274 857:0.429974 911:0.208265 918:0.554552 926:0.310065 951:0.971994 954:0.65037 955:0.42723 956:0.41646 957:0.505096 
0.001 11:0.198435 18:0.900158 26:0.321976 51:0.855042 54:0.581971 55:0.336254 56:0.413934 57:0.503589 111:0.198435 118:0.328849 126:0.236797 151:0.622465 154:0.460888 155:0.287341 156:0.287641 157:0.861308 211:0.198435 218:0.318841 226:0.220325 251:0.654218 254:0.460693 255:0.287341 256:0.287281 257:0.861308 311:0.190745 318:0.846271 326:0.337948 351:0.850324 354:0.568003 355:0.3453 356:0.413546 357:0.529456 411:0.246614 418:0.241248 426:0.247253 451:0.414291 454:0.252387 455:0.813575 456:0.380864 457:0.341767 511:0.303047 518:0.403141 526:0.854607 551:0.727988 554:0.501272 555:0.367318 556:0.566325 557:0.617761 611:0.134876 618:0.570875 626:0.350803 651:0.932381 654:0.880407 655:0.372198 656:0.376651 657:0.540062 711:0.301865 718:0.340046 726:0.394355 751:0.570861 754:0.368993 755:0.365198 756:0.865176 757:0.451984 811:0.208265 818:0.576682 826:0.310065 851:0.954792 854:0.645069 855:0.424242 856:0.412235 857:0.505096 911:0.208265 918:0.405568 926:0.310065 951:0.900999 954:0.895234 955:0.310798 956:0.324224 957:0.505096 
0.001 11:0.198435 18:0.348653 26:0.236797 51:0.628676 54:0.457023 55:0.314348 56:0.289092 57:0.860048 111:0.198435 118:0.328849 126:0.236797 151:0.622465 154:0.460888 155:0.287341 156:0.287641 157:0.861308 211:0.198435 218:0.823188 226:0.305722 251:0.88978 254:0.586644 255:0.310109 256:0.411341 257:0.509062 311:0.246614 318:0.241248 326:0.256515 351:0.403098 354:0.265039 355:0.837978 356:0.382647 357:0.341767 411:0.303047 418:0.392694 426:0.793564 451:0.763791 454:0.458697 455:0.357716 456:0.566325 457:0.60423 511:0.134876 518:0.551234 526:0.350803 551:0.914686 554:0.880407 555:0.367554 556:0.380864 557:0.541313 611:0.303047 618:0.340046 626:0.434489 651:0.551063 654:0.37447 655:0.372437 656:0.864823 657:0.463405 711:0.189373 718:0.570875 726:0.314516 751:0.983752 754:0.659841 755:0.413117 756:0.389137 757:0.530952 811:0.208265 818:0.421753 826:0.310065 851:0.885053 854:0.887938 855:0.308625 856:0.320935 857:0.505096 911:0.856444 918:0.255831 926:0.310065 951:0.475919 954:0.283073 955:0.357042 956:0.540373 957:0.467724 
0.001 11:0.0866406 18:0.68225 26:0.354344 51:0.91334 54:0.638155 55:0.350712 56:0.286885 57:0.620415 111:0.16825 118:0.63154 126:0.480409 151:0.967239 154:0.768288 155:0.211066 156:0.34724 157:0.41647 211:0.38569 218:0.136957 226:0.238258 251:0.308982 254:0.161877 255:0.38092 256:0.912907 257:0.408589 311:0.106095 318:0.582192 326:0.751629 351:0.829251 354:0.561029 355:0.207605 356:0.502185 357:0.413142 411:0.164786 418:0.101218 426:0.191523 451:0.249352 454:0.0946451 455:0.127723 456:0.929481 457:0.25642 511:0.427765 518:0.459985 526:0.388842 551:0.808514 554:0.675148 555:0.505298 556:0.586518 557:0.373745 611:0.339729 618:0.214562 626:0.591716 651:0.707738 654:0.24894 655:0.280401 656:0.717051 657:0.284284 711:0.075749 718:0.494965 726:0.200806 751:0.801408 754:0.564145 755:0.424492 756:0.246965 757:0.409921 811:0.11093 818:0.216745 826:0.170455 851:0.475732 854:0.256724 855:0.204429 856:0.0894559 857:0.87769 911:0.105492 918:0.303988 926:0.0787338 951:0.389226 954:0.248973 955:0.103521 956:0.0993789 957:0.718762 
0.001 11:0.16825 18:0.669572 26:0.480409 51:0.976891 54:0.761845 55:0.240964 56:0.348991 57:0.409888 111:0.38569 118:0.141256 126:0.254685 151:0.293985 154:0.161945 155:0.38092 156:0.914053 157:0.408589 211:0.114589 218:0.571739 226:0.739539 251:0.868464 254:0.579882 255:0.177368 256:0.500313 257:0.387707 311:0.164786 318:0.101218 326:0.198697 351:0.242615 354:0.0993897 355:0.131554 356:0.933833 357:0.25642 411:0.427765 418:0.450533 426:0.361068 451:0.850981 454:0.628892 455:0.492089 456:0.586518 457:0.365559 511:0.339729 518:0.20718 526:0.591716 551:0.694307 554:0.24894 555:0.276901 556:0.72507 557:0.284942 611:0.0773138 618:0.494965 626:0.231615 651:0.773614 654:0.572519 655:0.430854 656:0.270353 657:0.422573 711:0.0881854 718:0.214562 726:0.175806 751:0.490161 754:0.261596 755:0.184898 756:0.0536741 757:0.922619 811:0.105492 818:0.316119 826:0.0787338 851:0.382337 854:0.246944 855:0.102797 856:0.0983707 857:0.718762 911:0.420881 918:0.428894 926:0.55763 951:0.962183 954:0.782662 955:0.438263 956:0.354969 957:0.423934 
0.001 11:0.0927893 18:0.320919 26:0.0792164 51:0.38743 54:0.255765 55:0.0994524 56:0.0920555 57:0.729266 111:0.416993 118:0.426756 126:0.581772 151:0.940371 154:0.807188 155:0.388661 156:0.349749 157:0.42435 211:0.352152 218:0.119565 226:0.115286 251:0.248861 254:0.131445 255:0.16439 256:0.9599 257:0.128448 311:0.125282 318:0.452055 326:0.580619 351:0.8125 354:0.544464 355:0.403873 356:0.712235 357:0.327795 411:0.159707 418:0.294521 426:0.428571 451:0.276009 454:0.139062 455:0.315753 456:0.938801 457:0.16994 511:0.186795 518:0.405385 526:0.620456 551:0.808343 554:0.774385 555:0.262067 556:0.480273 557:0.637452 611:0.125282 618:0.142525 626:0.216399 651:0.340188 654:0.305344 655:0.799952 656:0.691859 657:0.42604 711:0.102883 718:0.680868 726:0.381452 751:0.967503 754:0.628918 755:0.209826 756:0.356869 757:0.606746 811:0.142469 818:0.530516 826:0.19724 851:0.825477 854:0.771394 855:0.259207 856:0.474024 857:0.609664 911:0.216422 918:0.474793 926:0.353084 951:0.901712 954:0.832375 955:0.257746 956:0.5 957:0.604379 
0.001 11:0.160984 18:0.686212 26:0.303237 51:0.83841 54:0.503983 55:0.357284 56:0.373581 57:0.429825 111:0.312465 118:0.423767 126:0.82368 151:0.75195 154:0.499366 155:0.321494 156:0.563676 157:0.615839 211:0.182225 218:0.815217 226:0.328779 251:0.885043 254:0.589603 255:0.303279 256:0.380013 257:0.521671 311:0.174379 318:0.8379 326:0.359935 351:0.845641 354:0.571055 355:0.338214 356:0.382335 357:0.541541 411:0.152935 418:0.640791 426:0.308477 451:0.85635 454:0.463678 455:0.357258 456:0.371855 457:0.459592 511:0.334086 518:0.4181 526:0.430262 551:0.683365 554:0.465225 555:0.348246 556:0.527804 557:0.872587 611:0.18228 618:0.60031 626:0.372781 651:0.940572 654:0.655216 655:0.405341 656:0.385868 657:0.543143 711:0.279819 718:0.289698 726:0.290323 751:0.519047 754:0.286252 755:0.424976 756:0.823003 757:0.326984 811:0.323002 818:0.308294 826:0.385552 851:0.521815 854:0.319071 855:0.361772 856:0.861359 857:0.415251 911:0.231104 918:0.230248 926:0.206169 951:0.433107 954:0.273213 955:0.785915 956:0.612112 957:0.305398 
0.001 11:0.312465 18:0.449287 26:0.82368 51:0.759454 54:0.495178 55:0.347207 56:0.56652 57:0.611643 111:0.182225 118:0.840807 126:0.344974 151:0.842087 154:0.589852 155:0.303279 156:0.380489 157:0.521671 211:0.182225 218:0.815217 226:0.328779 251:0.885043 254:0.589603 255:0.303279 256:0.380013 257:0.521671 311:0.152935 318:0.640791 326:0.320033 351:0.833213 354:0.486922 355:0.367974 356:0.373596 357:0.459592 411:0.334086 418:0.407915 426:0.399529 451:0.715476 454:0.423412 455:0.339142 456:0.527804 457:0.853474 511:0.18228 518:0.579656 526:0.372781 551:0.922722 554:0.655216 555:0.400283 556:0.390183 557:0.544402 611:0.281038 618:0.289698 626:0.325444 651:0.501046 654:0.2905 655:0.43133 656:0.82427 657:0.342065 711:0.308649 718:0.30519 726:0.389516 751:0.537642 754:0.325533 755:0.348258 756:0.855911 757:0.436508 811:0.231104 818:0.239437 826:0.206169 851:0.425442 854:0.270986 855:0.78042 856:0.605902 857:0.305398 911:0.200109 918:0.583145 926:0.331169 951:0.962719 954:0.636401 955:0.413146 956:0.395031 957:0.508116 
0.001 11:0.182225 18:0.891442 26:0.344974 51:0.85049 54:0.584906 55:0.329682 56:0.382409 57:0.516348 111:0.182225 118:0.840807 126:0.344974 151:0.842087 154:0.589852 155:0.303279 156:0.380489 157:0.521671 211:0.160984 218:0.627536 226:0.286934 251:0.872472 254:0.50803 255:0.331967 256:0.371241 257:0.43617 311:0.334086 318:0.407915 326:0.414495 351:0.696146 354:0.444638 355:0.349315 356:0.530275 357:0.853474 411:0.18228 418:0.572298 426:0.346154 451:0.974639 454:0.609381 455:0.389819 456:0.390183 457:0.532477 511:0.281038 518:0.279731 526:0.325444 551:0.491537 554:0.2905 555:0.425948 556:0.833489 557:0.342857 611:0.309819 618:0.30519 626:0.429417 651:0.518996 654:0.330365 655:0.355746 656:0.855914 657:0.448382 711:0.213115 718:0.237026 726:0.21129 751:0.438346 754:0.276222 755:0.782914 756:0.590415 757:0.321032 811:0.200109 818:0.606416 826:0.331169 851:0.945681 854:0.631214 855:0.410256 856:0.391024 857:0.508116 911:0.231104 918:0.230248 926:0.206169 951:0.433107 954:0.273213 955:0.785915 956:0.612112 957:0.305398 
0.001 11:0.182225 18:0.891442 26:0.344974 51:0.85049 54:0.584906 55:0.329682 56:0.382409 57:0.516348 111:0.160984 118:0.647235 126:0.303237 151:0.830127 154:0.508245 155:0.331967 156:0.371706 157:0.43617 211:0.340414 218:0.405797 226:0.385995 251:0.733831 254:0.467033 255:0.31398 256:0.528509 257:0.847124 311:0.18228 318:0.572298 326:0.359121 351:0.948307 354:0.63993 355:0.401512 356:0.39201 357:0.532477 411:0.281038 418:0.267123 426:0.302198 451:0.507775 454:0.252387 455:0.414813 456:0.833489 457:0.335347 511:0.309819 518:0.29469 526:0.429417 551:0.509147 554:0.330365 555:0.351307 556:0.865486 557:0.449421 611:0.214447 618:0.237026 626:0.242604 651:0.423144 654:0.280322 655:0.783977 656:0.600614 657:0.336287 711:0.180893 718:0.60031 726:0.335484 751:0.974364 754:0.645633 755:0.398596 756:0.367093 757:0.534127 811:0.231104 818:0.239437 826:0.206169 851:0.425442 854:0.270986 855:0.78042 856:0.605902 857:0.305398 911:0.346384 918:0.420617 926:0.386364 951:0.712986 954:0.452342 955:0.361268 956:0.532609 957:0.828992 
0.001 11:0.160984 18:0.686212 26:0.303237 51:0.83841 54:0.503983 55:0.357284 56:0.373581 57:0.429825 111:0.340414 118:0.418535 126:0.402044 151:0.698215 154:0.46723 155:0.31398 156:0.529172 157:0.847124 211:0.19005 218:0.562319 226:0.327925 251:0.988887 254:0.656382 255:0.364299 256:0.389724 257:0.512214 311:0.281038 318:0.267123 326:0.313518 351:0.494056 354:0.265039 355:0.427256 356:0.837391 357:0.335347 411:0.309819 418:0.282344 426:0.398744 451:0.526842 454:0.291407 455:0.342123 456:0.865486 457:0.439577 511:0.214447 518:0.228871 526:0.242604 551:0.415114 554:0.280322 555:0.774194 556:0.607331 557:0.337066 611:0.18228 618:0.60031 626:0.372781 651:0.940572 654:0.655216 655:0.405341 656:0.385868 657:0.543143 711:0.213115 718:0.237026 726:0.21129 751:0.438346 754:0.276222 755:0.782914 756:0.590415 757:0.321032 811:0.346384 818:0.437402 826:0.386364 851:0.700368 854:0.448655 855:0.358741 856:0.527206 857:0.828992 911:0.223491 918:0.355907 926:0.252435 951:0.597039 954:0.416598 955:0.297418 956:0.281677 957:0.838052 
0.001 11:0.340414 18:0.44374 26:0.402044 51:0.705182 54:0.463312 55:0.339978 56:0.531841 57:0.845694 111:0.19005 118:0.57997 126:0.344123 151:0.940891 154:0.65666 155:0.364299 156:0.390213 157:0.512214 211:0.28787 218:0.271739 226:0.280102 251:0.529422 254:0.292899 255:0.389117 256:0.836779 257:0.306541 311:0.309819 318:0.282344 326:0.413681 351:0.512608 354:0.306016 355:0.352385 356:0.869538 357:0.439577 411:0.214447 418:0.215373 426:0.225275 451:0.425028 454:0.242424 455:0.753956 456:0.607331 457:0.329683 511:0.18228 518:0.579656 526:0.372781 551:0.922722 554:0.655216 555:0.400283 556:0.390183 557:0.544402 611:0.214447 618:0.237026 626:0.242604 651:0.423144 654:0.280322 655:0.783977 656:0.600614 657:0.336287 711:0.332956 718:0.432998 726:0.390323 751:0.72161 754:0.45842 755:0.345111 756:0.508626 757:0.871429 811:0.223491 818:0.37011 826:0.252435 851:0.586473 854:0.413203 855:0.295338 856:0.27882 857:0.838052 911:0.200109 918:0.583145 926:0.331169 951:0.962719 954:0.636401 955:0.413146 956:0.395031 957:0.508116 
0.001 11:0.19005 18:0.614897 26:0.344123 51:0.95028 54:0.651153 55:0.38839 56:0.392182 57:0.506778 111:0.28787 118:0.280269 126:0.296422 151:0.503727 154:0.293023 155:0.389117 156:0.837829 157:0.306541 211:0.316378 218:0.286232 226:0.385141 251:0.548187 254:0.332629 255:0.31694 256:0.869048 257:0.415288 311:0.214447 318:0.215373 326:0.233713 351:0.413545 354:0.254577 355:0.776571 356:0.610175 357:0.329683 411:0.18228 418:0.572298 426:0.346154 451:0.974639 454:0.609381 455:0.389819 456:0.390183 457:0.532477 511:0.214447 518:0.228871 526:0.242604 551:0.415114 554:0.280322 555:0.774194 556:0.607331 557:0.337066 611:0.334086 618:0.432998 626:0.430262 651:0.696584 654:0.465225 655:0.352647 656:0.521966 657:0.87057 711:0.205201 718:0.366383 726:0.257258 751:0.604261 754:0.422064 755:0.279284 756:0.250479 757:0.880952 811:0.200109 818:0.606416 826:0.331169 851:0.945681 854:0.631214 855:0.410256 856:0.391024 857:0.508116 911:0.214791 918:0.465011 926:0.386364 951:0.899215 954:0.612983 955:0.359859 956:0.315528 957:0.562476 
0.001 11:0.28787 18:0.297147 26:0.296422 51:0.508754 54:0.290566 55:0.412267 56:0.842055 57:0.298644 111:0.316378 118:0.295217 126:0.401193 151:0.521581 154:0.33277 155:0.31694 156:0.870138 157:0.415288 211:0.221912 218:0.222464 226:0.196413 251:0.447987 254:0.282756 255:0.725865 256:0.608709 257:0.30063 311:0.18228 318:0.572298 326:0.359121 351:0.948307 354:0.63993 355:0.401512 356:0.39201 357:0.532477 411:0.214447 418:0.215373 426:0.225275 451:0.425028 454:0.242424 455:0.753956 456:0.607331 457:0.329683 511:0.334086 518:0.4181 526:0.430262 551:0.683365 554:0.465225 555:0.348246 556:0.527804 557:0.872587 611:0.206546 618:0.366383 626:0.290786 651:0.583304 654:0.428329 655:0.287792 656:0.273733 657:0.879815 711:0.180893 718:0.60031 726:0.335484 751:0.974364 754:0.645633 755:0.398596 756:0.367093 757:0.534127 811:0.214791 818:0.483568 826:0.386364 851:0.883301 854:0.607987 855:0.357343 856:0.312327 857:0.562476 911:0.318651 918:0.463506 926:0.510552 951:0.865323 954:0.550123 955:0.372535 956:0.417391 957:0.808985 
0.001 11:0.316378 18:0.312995 26:0.401193 51:0.526786 54:0.329979 55:0.342826 56:0.874527 57:0.408692 111:0.221912 118:0.229447 126:0.212947 151:0.426244 154:0.282875 155:0.725865 156:0.609473 157:0.30063 211:0.19005 218:0.562319 226:0.327925 251:0.988887 254:0.656382 255:0.364299 256:0.389724 257:0.512214 311:0.214447 318:0.215373 326:0.233713 351:0.413545 354:0.254577 355:0.776571 356:0.610175 357:0.329683 411:0.334086 418:0.407915 426:0.399529 451:0.715476 454:0.423412 455:0.339142 456:0.527804 457:0.853474 511:0.206546 518:0.353777 526:0.290786 551:0.572235 554:0.428329 555:0.284201 556:0.276794 557:0.881853 611:0.18228 618:0.60031 626:0.372781 651:0.940572 654:0.655216 655:0.405341 656:0.385868 657:0.543143 711:0.196156 718:0.478699 726:0.390323 751:0.910092 754:0.621814 755:0.343659 756:0.285304 757:0.59127 811:0.318651 818:0.482003 826:0.510552 851:0.850009 854:0.54564 855:0.36993 856:0.413157 857:0.808985 911:0.214791 918:0.465011 926:0.386364 951:0.899215 954:0.612983 955:0.359859 956:0.315528 957:0.562476 
0.001 11:0.237004 18:0.203645 26:0.26661 51:0.33841 54:0.211321 55:0.25126 56:0.971942 57:0.219298 111:0.514813 118:0.370703 126:0.576661 151:0.713815 154:0.399154 155:0.663707 156:0.430678 157:0.518125 211:0.16825 218:0.14058 226:0.123826 251:0.279832 254:0.183009 255:0.646858 256:0.655075 257:0.167061 311:0.507336 318:0.369863 326:0.394137 351:0.776837 354:0.650392 355:0.289325 356:0.586142 357:0.396148 411:0.110609 418:0.343988 426:0.200157 451:0.717327 454:0.421752 455:0.590232 456:0.211246 457:0.350453 511:0.11456 518:0.670157 526:0.217244 551:0.662848 554:0.578032 555:0.603485 556:0.246039 557:0.647104 611:0.170429 618:0.265686 626:0.217244 651:0.427675 654:0.310008 655:0.208631 656:0.517358 657:0.84245 711:0.119276 718:0.869094 726:0.414516 751:0.82542 754:0.556206 755:0.239351 756:0.3377 757:0.388492 811:0.144644 818:0.367762 826:0.237825 851:0.81987 854:0.837001 855:0.22634 856:0.245927 857:0.388826 911:0.230016 918:0.543266 926:0.73539 951:0.737246 954:0.41249 955:0.291549 956:0.447205 957:0.660627 
0.001 11:0.514813 18:0.393027 26:0.576661 51:0.720938 54:0.395807 55:0.676451 56:0.43285 57:0.512759 111:0.16825 118:0.144993 126:0.140545 151:0.266251 154:0.183087 155:0.646858 156:0.655897 157:0.167061 211:0.512018 218:0.369565 226:0.364646 251:0.815449 254:0.666526 255:0.256148 256:0.584586 257:0.369976 311:0.110609 318:0.343988 326:0.207655 351:0.697947 354:0.442895 355:0.607936 356:0.212235 357:0.350453 411:0.11456 418:0.664384 426:0.201727 451:0.693262 454:0.533831 455:0.587709 456:0.246039 457:0.632931 511:0.170429 518:0.256545 526:0.217244 551:0.419559 554:0.310008 555:0.206028 556:0.523144 557:0.844402 611:0.120767 618:0.869094 626:0.455621 651:0.796793 654:0.564461 655:0.24845 656:0.357604 657:0.401772 711:0.123233 718:0.364059 726:0.242742 751:0.844737 754:0.856665 755:0.207648 756:0.216294 757:0.40873 811:0.230016 818:0.564945 826:0.73539 851:0.724198 854:0.409128 855:0.28951 856:0.442668 857:0.660627 911:0.193583 918:0.543266 926:0.244318 951:0.859615 954:0.440016 955:0.403991 956:0.63323 957:0.387316 
0.001 11:0.16825 18:0.153724 26:0.140545 51:0.268908 54:0.181551 55:0.660241 56:0.659206 57:0.157496 111:0.512018 118:0.381166 126:0.38075 151:0.775871 154:0.666808 155:0.256148 156:0.58532 157:0.369976 211:0.119061 218:0.344928 226:0.169086 251:0.735653 254:0.465342 255:0.563297 256:0.209273 257:0.322301 311:0.11456 318:0.664384 326:0.209283 351:0.674532 354:0.560593 355:0.605338 356:0.247191 357:0.632931 411:0.170429 418:0.243531 426:0.201727 451:0.429841 454:0.271482 455:0.200642 456:0.523144 457:0.825906 511:0.120767 518:0.839192 526:0.455621 551:0.781672 554:0.564461 555:0.24535 556:0.361603 557:0.402703 611:0.124718 618:0.364059 626:0.275571 651:0.815441 654:0.869381 655:0.217215 656:0.24086 657:0.421418 711:0.211984 718:0.559256 726:0.737097 751:0.746164 754:0.417885 755:0.273233 756:0.420767 757:0.694444 811:0.193583 818:0.564945 826:0.244318 851:0.844402 854:0.43643 855:0.401166 856:0.626806 857:0.387316 911:0.169114 918:0.231001 926:0.172078 951:0.508562 954:0.430156 955:0.784038 956:0.454348 957:0.357871 
0.001 11:0.121297 18:0.415214 26:0.610733 51:0.626576 54:0.272117 55:0.441183 56:0.683796 57:0.352871 111:0.118502 118:0.209268 126:0.396082 151:0.492806 154:0.230867 155:0.0407559 156:0.169072 157:0.912924 211:0.100615 218:0.357971 226:0.371477 251:0.607032 254:0.387997 255:0.590164 256:0.778509 257:0.279748 311:0.121896 318:0.211568 326:0.197068 351:0.35951 354:0.239756 355:0.541096 356:0.883271 357:0.152946 411:0.0931151 418:0.638508 426:0.607535 451:0.875231 454:0.589456 455:0.274249 456:0.445169 457:0.41994 511:0.143905 518:0.137622 526:0.173288 551:0.271499 554:0.147583 555:0.50624 556:0.814228 557:0.249807 611:0.0880361 618:0.580945 626:0.663567 651:0.728477 654:0.849449 655:0.188126 656:0.456221 657:0.49114 711:0.0604862 718:0.388071 726:0.0887097 751:0.582416 754:0.559549 755:0.0517909 756:0.0341853 757:0.76746 811:0.516041 818:0.573552 826:0.164773 851:0.766953 854:0.665444 855:0.127273 856:0.458654 857:0.663647 911:0.135943 918:0.631302 926:0.418831 951:0.791295 954:0.640099 955:0.430047 956:0.338509 957:0.635334 
0.001 11:0.250978 18:0.652932 26:0.313458 51:0.823004 54:0.757652 55:0.515005 56:0.478562 57:0.485646 111:0.260481 118:0.596413 126:0.482964 151:0.850407 154:0.681184 155:0.545765 156:0.469887 157:0.503152 211:0.205143 218:0.571014 226:0.276687 251:0.788304 254:0.495351 255:0.611111 256:0.393484 257:0.436564 311:0.22912 318:0.625571 326:0.313518 351:0.782061 354:0.567132 355:0.334908 356:0.556492 357:0.633686 411:0.188488 418:0.356164 426:0.289639 451:0.843947 454:0.726858 455:0.490255 456:0.353526 457:0.558535 511:0.222348 518:0.546746 526:0.686391 551:0.613267 554:0.496183 555:0.640923 556:0.598633 557:0.444402 611:0.20316 618:0.219985 626:0.239222 651:0.476473 654:0.234521 655:0.499523 656:0.784025 657:0.260015 711:0.698135 718:0.205267 726:0.285484 751:0.36252 754:0.218554 755:0.240077 756:0.84377 757:0.311905 811:0.284394 818:0.331768 826:0.297078 851:0.530752 854:0.340668 855:0.279953 856:0.660928 857:0.740279 911:0.26808 918:0.373213 926:0.421266 951:0.748662 954:0.448233 955:0.284977 956:0.524845 957:0.765194 
0.001 11:0.260481 18:0.63233 26:0.482964 51:0.858894 54:0.675472 55:0.562979 56:0.472257 57:0.497608 111:0.205143 118:0.588939 126:0.293015 151:0.750043 154:0.49556 155:0.611111 156:0.393977 157:0.436564 211:0.236445 218:0.613043 226:0.280102 251:0.820732 254:0.585799 255:0.300091 256:0.554825 257:0.617809 311:0.188488 318:0.356164 326:0.300489 351:0.821146 354:0.763296 355:0.50496 356:0.355181 357:0.558535 411:0.222348 418:0.538813 426:0.637363 451:0.639578 454:0.453715 455:0.624169 456:0.598633 457:0.434668 511:0.20316 518:0.212416 526:0.239222 551:0.46743 554:0.234521 555:0.493289 556:0.792793 557:0.260618 611:0.698646 618:0.205267 626:0.320372 651:0.349948 654:0.221798 655:0.249165 656:0.84424 657:0.327427 711:0.268513 718:0.328428 726:0.301613 751:0.54685 754:0.347681 755:0.263311 756:0.647604 757:0.778175 811:0.26808 818:0.388106 826:0.421266 851:0.735413 854:0.44458 855:0.282984 856:0.51952 857:0.765194 911:0.218597 918:0.626035 926:0.665584 951:0.855869 954:0.493837 955:0.283803 956:0.354969 957:0.582106 
0.001 11:0.205143 18:0.624406 26:0.293015 51:0.757528 54:0.491405 55:0.625849 56:0.395965 57:0.430223 111:0.236445 118:0.632287 126:0.296422 151:0.780898 154:0.586047 155:0.300091 156:0.555521 157:0.617809 211:0.196199 218:0.356522 226:0.266439 251:0.860266 254:0.775993 255:0.464026 256:0.352757 257:0.539401 311:0.222348 318:0.538813 326:0.661238 351:0.622298 354:0.47646 355:0.642891 356:0.601436 357:0.434668 411:0.20316 418:0.19863 426:0.222135 451:0.481673 454:0.197592 455:0.480394 456:0.792793 457:0.254909 511:0.698646 518:0.198205 526:0.320372 551:0.343307 554:0.221798 555:0.246056 556:0.853681 557:0.328185 611:0.269752 618:0.328428 626:0.337278 651:0.527884 654:0.352841 655:0.272055 656:0.655607 657:0.780046 711:0.251555 718:0.384198 726:0.425 751:0.757718 754:0.454242 755:0.266457 756:0.500639 757:0.804365 811:0.218597 818:0.651017 826:0.665584 851:0.840722 854:0.489813 855:0.281818 856:0.351368 857:0.582106 911:0.179445 918:0.220467 926:0.146104 951:0.472351 954:0.283895 955:0.792958 956:0.295963 957:0.251793 
0.001 11:0.170486 18:0.653724 26:0.193356 51:0.740371 54:0.67044 55:0.242716 56:0.330391 57:0.701754 111:0.0536613 118:0.943199 126:0.143101 151:0.719015 154:0.490909 155:0.0796903 156:0.180991 157:0.429866 211:0.107323 218:0.341304 226:0.524338 251:0.819821 254:0.604396 255:0.634107 256:0.458647 257:0.305753 311:0.417607 318:0.121005 326:0.530945 351:0.311599 354:0.136879 355:0.367974 356:0.808989 357:0.351208 411:0.103273 418:0.818874 426:0.360283 451:0.700296 454:0.572022 455:0.190094 456:0.451382 457:0.563066 511:0.137698 518:0.127898 526:0.213018 551:0.332877 554:0.137829 555:0.409466 556:0.869214 557:0.337452 611:0.0840858 618:0.567777 626:0.381234 651:0.764204 654:0.768448 655:0.337148 656:0.513057 657:0.632512 711:0.0734878 718:0.334624 726:0.165323 751:0.621592 754:0.619306 755:0.140852 756:0.185942 757:0.828571 811:0.329527 818:0.0837246 826:0.17776 851:0.115472 854:0.0896496 855:0.916084 856:0.478328 857:0.133635 911:0.0918978 918:0.750941 926:0.167208 951:0.72137 954:0.511504 955:0.469014 956:0.453106 957:0.498679 
0.001 11:0.0536613 18:1 26:0.143101 51:0.72619 54:0.486792 55:0.114567 56:0.181904 57:0.423445 111:0.107323 118:0.352018 126:0.540034 151:0.780031 154:0.604651 155:0.634107 156:0.459222 157:0.305753 211:0.423141 218:0.132609 226:0.508113 251:0.344872 254:0.168639 255:0.331967 256:0.808271 257:0.323089 311:0.103273 318:0.818874 326:0.373779 351:0.681376 354:0.600697 355:0.195796 356:0.453496 357:0.563066 411:0.137698 418:0.112633 426:0.197802 451:0.335987 454:0.102947 455:0.398762 456:0.869214 457:0.33006 511:0.0840858 518:0.548242 526:0.381234 551:0.749701 554:0.768448 555:0.332941 556:0.518795 557:0.633977 611:0.0750564 618:0.334624 626:0.194421 651:0.600035 654:0.628499 655:0.151407 656:0.211674 657:0.828968 711:0.315432 718:0.0828815 726:0.183065 751:0.118975 754:0.0902633 755:0.923766 756:0.457827 757:0.140476 811:0.0918978 818:0.780908 826:0.167208 851:0.708603 854:0.507335 855:0.465734 856:0.448509 857:0.498679 911:0.074497 918:0.227991 926:0.261364 951:0.77756 954:0.705423 955:0.112207 956:0.114596 957:0.613439 
0.001 11:0.423141 18:0.145008 26:0.52385 51:0.331408 54:0.167296 55:0.357284 56:0.813367 57:0.315391 111:0.111794 118:0.822123 126:0.359455 151:0.684001 154:0.618605 155:0.165984 156:0.452008 157:0.544129 211:0.145892 218:0.124638 226:0.166524 251:0.360357 254:0.140744 255:0.373179 256:0.872807 257:0.301024 311:0.0840858 318:0.540335 326:0.367264 351:0.76603 354:0.756321 355:0.333963 356:0.521223 357:0.620091 411:0.0750564 418:0.311263 426:0.180534 451:0.612921 454:0.58323 455:0.145609 456:0.214042 457:0.812689 511:0.316591 518:0.0800299 526:0.213018 551:0.112669 554:0.0916031 555:0.911231 556:0.478409 557:0.16139 611:0.0699774 618:0.773044 626:0.202029 651:0.704775 654:0.526293 655:0.462089 656:0.443318 657:0.533513 711:0.0503109 718:0.234702 726:0.266129 751:0.786965 754:0.715838 755:0.0883349 756:0.0785942 757:0.644841 811:0.230016 818:0.758216 826:0.253247 851:0.603645 854:0.347596 855:0.302564 856:0.63111 857:0.522839 911:0.262643 918:0.663657 926:0.373377 951:0.821085 954:0.890715 955:0.164319 956:0.303106 957:0.506984 
0.001 11:0.952487 18:0.152139 26:0.223169 51:0.271008 54:0.162264 55:0.189047 56:0.405738 57:0.314593 111:0.228619 118:0.42003 126:0.303237 151:0.882822 154:0.479915 155:0.30806 156:0.490276 157:0.740347 211:0.190609 218:0.161594 226:0.138343 251:0.318819 254:0.187236 255:0.560565 256:0.703321 257:0.163121 311:0.174944 318:0.200152 326:0.199511 351:0.425252 354:0.201395 355:0.798063 356:0.696629 357:0.233006 411:0.142212 418:0.516743 426:0.244113 451:0.805257 454:0.453715 455:0.496904 456:0.406337 457:0.456571 511:0.189616 518:0.488407 526:0.521555 551:0.628654 554:0.455047 555:0.202731 556:0.29388 557:0.942471 611:0.128104 618:0.800155 626:0.437025 651:0.817881 654:0.83503 655:0.227468 656:0.272197 657:0.424499 711:0.220464 718:0.507359 726:0.415323 751:0.875068 754:0.620142 755:0.265005 756:0.43131 757:0.752381 811:0.237085 818:0.348983 826:0.502435 851:0.646399 854:0.482885 855:0.276224 856:0.349216 857:0.923367 911:0.231104 918:0.362679 926:0.464286 951:0.799322 954:0.722679 955:0.289906 956:0.368012 957:0.810872 
0.001 11:0.228619 18:0.445325 26:0.303237 51:0.891632 54:0.475891 55:0.334283 56:0.492749 57:0.73764 111:0.190609 118:0.166667 126:0.155026 151:0.303345 154:0.187315 155:0.560565 156:0.704203 157:0.163121 211:0.182784 218:0.207971 226:0.160547 251:0.459829 254:0.231192 255:0.746585 256:0.695489 257:0.199764 311:0.142212 318:0.516743 326:0.253257 351:0.783501 354:0.47646 355:0.511809 356:0.40824 357:0.456571 411:0.189616 418:0.479452 426:0.484301 451:0.656238 454:0.41345 455:0.197432 456:0.29388 457:0.921828 511:0.128104 518:0.772625 526:0.437025 551:0.802359 554:0.83503 555:0.224629 556:0.275241 557:0.425483 611:0.221783 618:0.507359 626:0.456467 651:0.844719 654:0.629347 655:0.273724 656:0.447619 657:0.755008 711:0.219333 718:0.345469 726:0.505645 751:0.666005 754:0.493523 755:0.259439 756:0.323642 757:0.970635 811:0.231104 818:0.377152 826:0.464286 851:0.785176 854:0.716789 855:0.287879 856:0.364279 857:0.810872 911:0.271343 918:0.586907 926:0.44237 951:0.726543 954:0.552999 955:0.333568 956:0.441615 957:0.753114 
0.001 11:0.190609 18:0.176704 26:0.155026 51:0.306373 54:0.185744 55:0.577218 56:0.707755 57:0.153509 111:0.182784 118:0.214499 126:0.177172 151:0.437511 154:0.23129 155:0.746585 156:0.696361 157:0.199764 211:0.150363 218:0.50942 226:0.216909 251:0.82219 254:0.497887 255:0.470628 256:0.406015 257:0.433018 311:0.189616 318:0.479452 326:0.502443 351:0.638509 354:0.434176 355:0.203354 356:0.295256 357:0.921828 411:0.128104 418:0.768645 426:0.405808 451:0.844317 454:0.785388 455:0.218757 456:0.275241 457:0.416163 511:0.221783 518:0.489903 526:0.456467 551:0.828689 554:0.629347 555:0.270308 556:0.452625 557:0.756757 611:0.220655 618:0.345469 626:0.551141 651:0.642907 654:0.500848 655:0.26824 656:0.344086 657:0.966872 711:0.213115 718:0.373354 726:0.467742 751:0.808991 754:0.733389 755:0.271539 756:0.339297 757:0.852381 811:0.271343 818:0.610329 826:0.44237 851:0.713685 854:0.548492 855:0.331235 856:0.437135 857:0.753114 911:0.231648 918:0.402558 926:0.463474 951:0.874955 954:0.819638 955:0.321831 956:0.434783 957:0.625142 
0.001 11:0.182784 18:0.227417 26:0.177172 51:0.441877 54:0.22935 55:0.756188 56:0.699874 57:0.19059 111:0.150363 118:0.525411 126:0.23339 151:0.782285 154:0.498097 155:0.470628 156:0.406524 157:0.433018 211:0.197317 218:0.473913 226:0.478224 251:0.675533 254:0.456889 255:0.17327 256:0.292607 257:0.91844 311:0.128104 318:0.768645 326:0.42101 351:0.821506 354:0.82476 355:0.225319 356:0.276529 357:0.416163 411:0.221783 418:0.480974 426:0.423862 451:0.872825 454:0.58406 455:0.263242 456:0.452625 457:0.740181 511:0.220655 518:0.333583 526:0.551141 551:0.630706 554:0.500848 555:0.264893 556:0.347934 557:0.969112 611:0.214447 618:0.373354 626:0.511412 651:0.780934 654:0.744275 655:0.280162 656:0.35914 657:0.85208 711:0.254946 718:0.604183 726:0.445968 751:0.735331 754:0.560802 755:0.316554 756:0.415016 757:0.791667 811:0.231648 818:0.418623 826:0.463474 851:0.859471 854:0.812958 855:0.31958 856:0.430372 857:0.625142 911:0.263187 918:0.360421 926:0.258929 951:0.660186 954:0.423172 955:0.803756 956:0.455901 957:0.493771 
0.001 11:0.150363 18:0.557052 26:0.23339 51:0.790091 54:0.49392 55:0.49069 56:0.408575 57:0.426635 111:0.197317 118:0.488789 126:0.494037 151:0.642746 154:0.457082 155:0.17327 156:0.292974 157:0.91844 211:0.136389 218:0.749275 226:0.392827 251:0.86063 254:0.835587 255:0.194444 256:0.27381 257:0.390859 311:0.221783 318:0.480974 326:0.439739 351:0.849244 354:0.613339 355:0.271138 356:0.454744 357:0.740181 411:0.220655 418:0.321918 426:0.511774 451:0.65846 454:0.458281 455:0.257968 456:0.347934 457:0.947885 511:0.214447 518:0.360509 526:0.511412 551:0.766114 554:0.744275 555:0.276666 556:0.363156 557:0.854054 611:0.256208 618:0.604183 626:0.488588 651:0.709829 654:0.569126 655:0.324511 656:0.431951 657:0.793143 711:0.21368 718:0.414407 726:0.466935 751:0.885539 754:0.83201 755:0.304453 756:0.407987 757:0.657143 811:0.263187 818:0.374804 826:0.258929 851:0.648502 854:0.419723 855:0.798135 856:0.451276 857:0.493771 911:0.156063 918:0.582393 926:0.183442 951:0.643418 954:0.378389 955:0.300704 956:0.227019 957:0.753869 
0.001 11:0.197317 18:0.518225 26:0.494037 51:0.64916 54:0.453249 55:0.2046 56:0.294451 57:0.917863 111:0.136389 118:0.772795 126:0.408859 151:0.818859 154:0.835941 155:0.194444 156:0.274153 157:0.390859 211:0.229178 218:0.475362 226:0.412468 251:0.888686 254:0.6306 255:0.238616 256:0.452694 257:0.72892 311:0.220655 318:0.321918 326:0.530945 351:0.64067 354:0.481255 355:0.265706 356:0.349563 357:0.947885 411:0.214447 418:0.349315 426:0.474882 451:0.805072 454:0.696555 455:0.269434 456:0.363156 457:0.835347 511:0.256208 518:0.583396 526:0.488588 551:0.696358 554:0.569126 555:0.320462 556:0.436782 557:0.794981 611:0.215011 618:0.414407 626:0.510566 651:0.854827 654:0.84436 655:0.312589 656:0.425192 657:0.662558 711:0.246467 718:0.37103 726:0.26371 751:0.668171 754:0.428751 755:0.801307 756:0.429712 757:0.519048 811:0.156063 818:0.605634 826:0.183442 851:0.632031 854:0.375306 855:0.298601 856:0.224716 857:0.753869 911:0.174551 918:0.297968 926:0.480519 951:0.65965 954:0.355382 955:0.190141 956:0.262733 957:0.724424 
0.001 11:0.136389 18:0.819334 26:0.408859 51:0.827031 54:0.828931 55:0.224973 56:0.275536 57:0.383971 111:0.229178 118:0.490284 126:0.42845 151:0.845554 154:0.630867 155:0.238616 156:0.453262 157:0.72892 211:0.22806 218:0.323913 226:0.508113 251:0.677719 254:0.502536 255:0.233379 256:0.347118 257:0.945626 311:0.214447 318:0.349315 326:0.492671 351:0.783321 354:0.731473 355:0.277515 356:0.364856 357:0.835347 411:0.256208 418:0.576104 426:0.453689 451:0.729545 454:0.525114 455:0.312084 456:0.436782 457:0.777568 511:0.215011 518:0.40015 526:0.510566 551:0.838605 554:0.84436 555:0.308688 556:0.429947 557:0.664093 611:0.247743 618:0.37103 626:0.297549 651:0.644998 654:0.435115 655:0.802098 656:0.446083 657:0.528505 711:0.135105 718:0.599535 726:0.18871 751:0.651201 754:0.383201 755:0.282672 756:0.194249 757:0.79246 811:0.174551 818:0.309859 826:0.480519 851:0.647976 854:0.352486 855:0.188811 856:0.260068 857:0.724424 911:0.941816 918:0.143717 926:0.215909 951:0.270603 954:0.157354 955:0.199531 956:0.408385 957:0.326161 
0.001 11:0.229178 18:0.51981 26:0.42845 51:0.853992 54:0.625577 55:0.26747 56:0.455549 57:0.726077 111:0.22806 118:0.334081 126:0.52385 151:0.644826 154:0.502748 155:0.233379 156:0.347553 157:0.945626 211:0.221912 218:0.35 226:0.467976 251:0.822008 254:0.745139 255:0.244763 256:0.362469 257:0.828211 311:0.256208 318:0.576104 326:0.470684 351:0.709834 354:0.551439 355:0.321445 356:0.438826 357:0.777568 411:0.215011 418:0.38965 426:0.474097 451:0.883562 454:0.794521 455:0.300619 456:0.429947 457:0.649547 511:0.247743 518:0.358265 526:0.297549 551:0.632758 554:0.435115 555:0.792089 556:0.451072 557:0.52973 611:0.136569 618:0.599535 626:0.218935 651:0.628616 654:0.388889 655:0.29113 656:0.219662 657:0.793914 711:0.154324 718:0.306739 726:0.483871 751:0.66763 754:0.359799 755:0.168683 756:0.23099 757:0.761508 811:0.941816 818:0.149452 826:0.215909 851:0.265814 854:0.156072 855:0.198135 856:0.404242 857:0.326161 911:0.211528 918:0.361926 926:0.593344 951:0.814128 954:0.413722 955:0.236385 956:0.336646 957:0.768969 
0.001 11:0.192845 18:0.44691 26:0.206133 51:0.630077 54:0.457442 55:0.517634 56:0.801072 57:0.50638 111:0.182784 118:0.643498 126:0.360307 151:0.785058 154:0.546723 155:0.477687 156:0.444166 157:0.526005 211:0.442146 218:0.295652 226:0.394535 251:0.674075 254:0.421386 255:0.60337 256:0.677632 257:0.351852 311:0.202032 318:0.464992 326:0.285831 351:0.862212 354:0.683522 355:0.424894 356:0.365169 357:0.758308 411:0.196953 418:0.729072 426:0.256672 451:0.744169 454:0.482358 455:0.523274 456:0.512271 457:0.590257 511:0.240406 518:0.368736 526:0.700761 551:0.700462 554:0.555556 555:0.433247 556:0.544268 557:0.697297 611:0.220655 618:0.515879 626:0.413356 651:0.855002 654:0.667091 655:0.400334 656:0.384639 657:0.778891 711:0.231204 718:0.512006 726:0.414516 751:0.902148 754:0.530297 755:0.322362 756:0.476677 757:0.701984 811:0.249592 818:0.332551 826:0.265422 851:0.690731 854:0.585575 855:0.465035 856:0.813096 857:0.490751 911:0.214791 918:0.604966 926:0.622565 951:0.817874 954:0.552177 955:0.310563 956:0.604969 957:0.497169 
0.001 11:0.182784 18:0.68225 26:0.360307 51:0.792892 54:0.542138 55:0.497481 56:0.446406 57:0.520734 111:0.442146 118:0.304933 126:0.410562 151:0.641359 154:0.421564 155:0.60337 156:0.678482 157:0.351852 211:0.209614 218:0.460145 226:0.251067 251:0.901804 254:0.698648 255:0.38684 256:0.362782 257:0.747833 311:0.196953 318:0.729072 326:0.266287 351:0.724063 354:0.506539 355:0.53897 356:0.514669 357:0.590257 411:0.240406 418:0.357686 426:0.650706 451:0.733987 454:0.511831 455:0.421922 456:0.544268 457:0.682024 511:0.220655 518:0.49813 526:0.413356 551:0.838776 554:0.667091 555:0.395338 556:0.388941 557:0.780695 611:0.232506 618:0.512006 626:0.455621 651:0.870861 654:0.538168 655:0.330234 656:0.491244 657:0.706086 711:0.232335 718:0.329202 726:0.270161 751:0.711681 754:0.59883 755:0.45547 756:0.805751 757:0.515873 811:0.214791 818:0.629108 826:0.622565 851:0.803399 854:0.547677 855:0.308392 856:0.598832 857:0.497169 911:0.228929 918:0.431904 926:0.454545 951:0.584374 954:0.317995 955:0.410563 956:0.768944 957:0.543979 
0.001 11:0.442146 18:0.323296 26:0.410562 51:0.647759 54:0.418029 55:0.618401 56:0.681904 57:0.344498 111:0.209614 118:0.474589 126:0.267462 151:0.858034 154:0.698943 155:0.38684 156:0.363237 157:0.747833 211:0.204584 218:0.711594 226:0.230572 251:0.76207 254:0.52705 255:0.496812 256:0.512845 257:0.572498 311:0.240406 318:0.357686 326:0.675081 351:0.714157 354:0.537489 355:0.434577 356:0.546816 357:0.682024 411:0.220655 418:0.489346 426:0.38383 451:0.883747 454:0.621005 455:0.385003 456:0.388941 457:0.763595 511:0.232506 518:0.49439 526:0.455621 551:0.854334 554:0.538168 555:0.326113 556:0.496738 557:0.707722 611:0.233634 618:0.329202 626:0.304311 651:0.686999 654:0.607718 655:0.461373 656:0.80768 657:0.525424 711:0.196156 718:0.622773 726:0.625 751:0.827767 754:0.559967 755:0.292836 756:0.583067 757:0.522619 811:0.228929 818:0.449139 826:0.454545 851:0.574032 854:0.315403 855:0.407692 856:0.761144 857:0.543979 911:0.22186 918:0.470278 926:0.324675 951:0.805744 954:0.707888 955:0.378169 956:0.59441 957:0.654209 
0.001 11:0.209614 18:0.50317 26:0.267462 51:0.866597 54:0.693082 55:0.410077 56:0.365069 57:0.745215 111:0.204584 118:0.733931 126:0.247019 151:0.725082 154:0.527273 155:0.496812 156:0.513488 157:0.572498 211:0.247624 218:0.357971 226:0.659266 251:0.75205 254:0.557058 255:0.396175 256:0.545113 257:0.668243 311:0.220655 318:0.489346 326:0.398208 351:0.85987 354:0.652136 355:0.396552 356:0.390762 357:0.763595 411:0.232506 418:0.48554 426:0.423077 451:0.900592 454:0.494811 455:0.317588 456:0.496738 457:0.692221 511:0.233634 518:0.317876 526:0.304311 551:0.673961 554:0.607718 555:0.455616 556:0.816713 557:0.526641 611:0.197517 618:0.622773 626:0.676247 651:0.799059 654:0.568278 655:0.301144 656:0.593548 657:0.531972 711:0.210854 718:0.444617 726:0.458065 751:0.591442 754:0.321772 755:0.395934 756:0.751757 757:0.571825 811:0.22186 818:0.489045 826:0.324675 851:0.791484 854:0.702119 855:0.375524 856:0.58838 857:0.654209 911:0.218053 918:0.354402 926:0.466721 951:0.903853 954:0.652424 955:0.283803 956:0.453416 957:0.684409 
0.001 11:0.121297 18:0.46038 26:0.208688 51:0.86292 54:0.478407 55:0.170208 56:0.324716 57:0.376794 111:0.09782 118:0.658445 126:0.173765 151:0.817299 154:0.37167 155:0.325364 156:0.380176 157:0.259653 211:0.112353 218:0.256522 226:0.144321 251:0.750774 254:0.592984 255:0.206284 256:0.173246 257:0.72695 311:0.473476 318:0.282344 326:0.750814 351:0.647514 354:0.334786 355:0.305149 356:0.514669 357:0.700529 411:0.124718 418:0.79376 426:0.610675 451:0.7699 454:0.634288 455:0.180922 456:0.41721 457:0.425604 511:0.133183 518:0.160808 526:0.142857 551:0.332706 554:0.167091 555:0.779609 556:0.615409 557:0.161776 611:0.134876 618:0.831913 626:0.521555 651:0.589055 654:0.4419 655:0.417501 656:0.650691 657:0.406394 711:0.186546 718:0.146398 726:0.204032 751:0.246254 754:0.156289 755:0.376331 756:0.918211 757:0.163492 811:0.130506 818:0.618936 826:0.441558 851:0.805502 854:0.790139 855:0.306061 856:0.450968 857:0.533786 911:0.125068 918:0.743416 926:0.313312 951:0.857117 954:0.755136 955:0.290376 956:0.345652 957:0.557191 
0.001 11:0.09782 18:0.698098 26:0.173765 51:0.825455 54:0.368553 55:0.350931 56:0.382093 57:0.251196 111:0.112353 118:0.264574 126:0.160988 151:0.714335 154:0.593235 155:0.206284 156:0.173463 157:0.72695 211:0.47848 218:0.286232 226:0.738685 251:0.684642 254:0.360524 255:0.271403 256:0.512845 257:0.687549 311:0.124718 318:0.79376 326:0.63355 351:0.749099 354:0.666085 355:0.186349 356:0.419164 357:0.425604 411:0.133183 418:0.146119 426:0.132653 451:0.335802 454:0.13159 455:0.75923 456:0.615409 457:0.158233 511:0.134876 518:0.803291 526:0.521555 551:0.577877 554:0.4419 555:0.412291 556:0.657968 557:0.407336 611:0.187923 618:0.146398 626:0.234996 651:0.237713 654:0.158609 655:0.383405 656:0.915822 657:0.183359 711:0.108536 718:0.612703 726:0.445161 751:0.829933 754:0.808608 755:0.290416 756:0.429393 757:0.561111 811:0.125068 818:0.773083 826:0.313312 851:0.841948 854:0.748981 855:0.288345 856:0.342146 857:0.557191 911:0.214247 918:0.231001 926:0.399351 951:0.509454 954:0.216516 955:0.224648 956:0.848447 957:0.391091 
0.001 11:0.112353 18:0.280507 26:0.160988 51:0.721464 54:0.58826 55:0.236364 56:0.174338 57:0.724083 111:0.47848 118:0.295217 126:0.753833 151:0.651413 154:0.360677 155:0.271403 156:0.513488 157:0.687549 211:0.133035 218:0.773188 226:0.615713 251:0.787393 254:0.681741 255:0.156876 256:0.41698 257:0.400709 311:0.133183 318:0.146119 326:0.137622 351:0.326729 354:0.138187 355:0.782003 356:0.61829 357:0.158233 411:0.134876 418:0.799848 426:0.484301 451:0.601259 454:0.400581 455:0.401513 456:0.657968 457:0.398414 511:0.187923 518:0.141361 526:0.234996 551:0.233202 554:0.158609 555:0.37862 556:0.926064 557:0.183784 611:0.110045 618:0.612703 626:0.487743 651:0.80115 654:0.820611 655:0.29876 656:0.445776 657:0.569337 711:0.102883 718:0.765298 726:0.317742 751:0.867485 754:0.766402 755:0.272023 756:0.316294 757:0.585714 811:0.214247 818:0.240219 826:0.399351 851:0.500438 854:0.214751 855:0.223077 856:0.83984 857:0.391091 911:0.177814 918:0.537998 926:0.583604 951:0.706743 954:0.548069 955:0.623239 956:0.487888 957:0.482069 
0.001 11:0.310229 18:0.120444 26:0.205281 51:0.297094 54:0.11782 55:0.215115 56:0.960908 57:0.346491 111:0.264394 118:0.210762 126:0.511925 151:0.457618 154:0.252854 155:0.108379 156:0.632999 157:0.821907 211:0.164897 218:0.117391 226:0.4193 251:0.24795 254:0.139476 255:0.16826 256:0.904135 257:0.282112 311:0.108916 318:0.114916 326:0.107492 351:0.392651 354:0.191805 355:0.66462 356:0.642634 357:0.265861 411:0.274831 418:0.188737 426:0.682889 451:0.548501 454:0.271897 455:0.336161 456:0.762349 457:0.558912 511:0.115124 518:0.572924 526:0.742181 551:0.841853 554:0.669211 555:0.275724 556:0.282075 557:0.609266 611:0.0795711 618:0.597211 626:0.244294 651:0.912339 654:0.723494 655:0.244158 656:0.21321 657:0.727658 711:0.110797 718:0.26646 726:0.508065 751:0.770897 754:0.455913 755:0.453291 756:0.364856 757:0.798016 811:0.108211 818:0.629108 826:0.462662 851:0.880498 854:0.643847 855:0.39021 856:0.215493 857:0.694224 911:0.113649 918:0.534989 926:0.382305 951:0.896718 954:0.612572 955:0.315493 956:0.474845 957:0.652699 
0.001 11:0.264394 18:0.223455 26:0.511925 51:0.462185 54:0.250734 55:0.142169 56:0.636192 57:0.820175 111:0.164897 118:0.121076 126:0.435264 151:0.235916 154:0.139535 155:0.16826 156:0.90527 157:0.282112 211:0.117384 218:0.126812 226:0.0640478 251:0.426854 254:0.221893 255:0.617942 256:0.641291 257:0.234043 311:0.274831 318:0.188737 326:0.708469 351:0.533682 354:0.285527 355:0.346245 356:0.765918 357:0.558912 411:0.115124 418:0.565449 426:0.689168 451:0.887079 454:0.62308 455:0.268516 456:0.282075 457:0.595921 511:0.0795711 518:0.576664 526:0.244294 551:0.895025 554:0.723494 555:0.241111 556:0.215595 557:0.729344 611:0.112302 618:0.26646 626:0.553677 651:0.744162 654:0.46268 655:0.459227 656:0.383717 657:0.799307 711:0.085359 718:0.622773 726:0.466129 751:0.907203 754:0.658588 755:0.377783 756:0.184665 757:0.729762 811:0.113649 818:0.556338 826:0.382305 851:0.880848 854:0.607579 855:0.313287 856:0.470028 857:0.652699 911:0.116368 918:0.383747 926:0.515422 951:0.833036 954:0.749384 955:0.150469 956:0.32764 957:0.723669 
0.001 11:0.123533 18:0.225832 26:0.215503 51:0.376926 54:0.20587 55:0.250821 56:0.782472 57:0.692584 111:0.0860816 118:0.235426 126:0.4046 151:0.620211 154:0.496829 155:0.703324 156:0.61606 157:0.541765 211:0.10341 218:0.271739 226:0.333903 251:0.422481 254:0.243872 255:0.455829 256:0.865915 257:0.255713 311:0.0643341 318:0.582192 326:0.493485 351:0.824207 354:0.625981 355:0.54582 356:0.333958 357:0.624245 411:0.15237 418:0.625571 426:0.324961 451:0.925953 454:0.632628 455:0.292593 456:0.316558 457:0.716767 511:0.134876 518:0.516081 526:0.562975 551:0.734143 554:0.544953 555:0.409701 556:0.261261 557:0.773359 611:0.295711 618:0.749032 626:0.424345 651:0.762287 654:0.534775 655:0.269671 656:0.322273 657:0.677196 711:0.152063 718:0.0271108 726:0.232258 751:0.0693266 754:0.0605934 755:0.636496 756:0.666134 757:0.115476 811:0.0739532 818:0.5759 826:0.390422 851:0.781321 854:0.503667 855:0.678089 856:0.52782 857:0.414874 911:0.079391 918:0.303988 926:0.431818 951:0.810738 954:0.741988 955:0.424648 956:0.319565 957:0.624009 
0.001 11:0.0860816 18:0.249604 26:0.4046 51:0.626401 54:0.492662 55:0.714567 56:0.619168 57:0.536683 111:0.10341 118:0.280269 126:0.350085 151:0.401976 154:0.243975 155:0.455829 156:0.867001 157:0.255713 211:0.0732253 218:0.571739 226:0.46883 251:0.863363 254:0.642857 255:0.503415 256:0.331454 257:0.607959 311:0.15237 318:0.625571 326:0.337134 351:0.900937 354:0.664342 355:0.30137 356:0.31804 357:0.716767 411:0.134876 418:0.50761 426:0.522763 451:0.770455 454:0.501453 455:0.398991 456:0.261261 457:0.75642 511:0.295711 518:0.723261 526:0.424345 551:0.74782 554:0.534775 555:0.266306 556:0.325878 557:0.678764 611:0.153499 618:0.0271108 626:0.264582 651:0.0669223 654:0.0614928 655:0.639723 656:0.673425 657:0.136749 711:0.0497456 718:0.570101 726:0.394355 751:0.805019 754:0.514835 755:0.67667 756:0.509265 757:0.436111 811:0.079391 818:0.316119 826:0.431818 851:0.79639 854:0.735941 855:0.421678 856:0.316323 857:0.624009 911:0.0924415 918:0.462002 926:0.439123 951:0.843917 954:0.70871 955:0.413615 956:0.639752 957:0.560211 
0.001 11:0.0994969 18:0.464342 26:0.436968 51:0.854517 54:0.695597 55:0.518949 56:0.423707 57:0.650718 111:0.307993 118:0.495516 126:0.558773 151:0.889582 154:0.521776 155:0.527095 156:0.427227 157:0.614657 211:0.339296 218:0.612319 226:0.369769 251:0.917107 254:0.630178 255:0.465164 256:0.430138 257:0.485422 311:0.348194 318:0.462709 326:0.464169 351:0.873559 354:0.596338 355:0.435286 356:0.520911 357:0.595921 411:0.417607 418:0.494673 426:0.225275 451:0.724361 454:0.388958 455:0.624398 456:0.765144 457:0.401813 511:0.270316 518:0.420344 526:0.388842 551:0.865105 554:0.918575 555:0.281611 556:0.319043 557:0.547104 611:0.106659 618:0.46708 626:0.449704 651:0.842977 654:0.69296 655:0.437768 656:0.62212 657:0.54584 711:0.33013 718:0.130906 726:0.304032 751:0.373894 754:0.213122 755:0.761859 756:0.339297 757:0.277778 811:0.107123 818:0.494523 826:0.203734 851:0.425618 854:0.277099 855:0.720047 856:0.769136 857:0.238203 911:0.225122 918:0.529722 926:0.378247 951:0.976811 954:0.766639 955:0.260798 956:0.387267 957:0.383541 
0.001 11:0.307993 18:0.525357 26:0.558773 51:0.898459 54:0.5174 55:0.545016 56:0.429382 57:0.610447 111:0.339296 118:0.63154 126:0.38586 151:0.872595 154:0.630444 155:0.465164 156:0.430678 157:0.485422 211:0.354388 218:0.457971 226:0.438087 251:0.913281 254:0.614117 255:0.396858 256:0.51911 257:0.578408 311:0.417607 318:0.494673 326:0.233713 351:0.704791 354:0.408457 355:0.643127 356:0.768727 357:0.401813 411:0.270316 418:0.410198 426:0.361068 451:0.912255 454:0.867165 455:0.274249 456:0.319043 457:0.535121 511:0.106659 518:0.45101 526:0.449704 551:0.826979 554:0.69296 555:0.432305 556:0.629077 557:0.547104 611:0.331264 618:0.130906 626:0.339814 651:0.360927 654:0.216285 655:0.763233 656:0.35914 657:0.294299 711:0.0842284 718:0.489543 726:0.208871 751:0.438527 754:0.282491 755:0.720232 756:0.760064 757:0.250397 811:0.225122 818:0.550861 826:0.378247 851:0.959523 854:0.760391 855:0.258974 856:0.383338 857:0.383541 911:0.395867 918:0.259594 926:0.0560065 951:0.355512 954:0.182005 955:0.200235 956:0.78354 957:0.251416 
0.001 11:0.339296 18:0.669572 26:0.38586 51:0.881303 54:0.625157 55:0.485433 56:0.43285 57:0.479665 111:0.354388 118:0.472347 126:0.454003 151:0.868955 154:0.614376 155:0.396858 156:0.519762 157:0.578408 211:0.423141 218:0.488406 226:0.196413 251:0.742576 254:0.431953 255:0.597222 256:0.767857 257:0.375887 311:0.270316 318:0.410198 326:0.374593 351:0.887608 354:0.910636 355:0.282475 356:0.320537 357:0.535121 411:0.106659 418:0.4414 426:0.417582 451:0.870974 454:0.646326 455:0.421004 456:0.629077 457:0.535121 511:0.331264 518:0.126402 526:0.339814 551:0.354078 554:0.216285 555:0.753709 556:0.363156 557:0.294981 611:0.0857788 618:0.489543 626:0.240068 651:0.423318 654:0.286684 655:0.722222 656:0.763748 657:0.26772 711:0.206897 718:0.545314 726:0.382258 751:0.988626 754:0.778103 755:0.24153 756:0.359105 757:0.403175 811:0.395867 818:0.269953 826:0.0560065 851:0.34922 854:0.180522 855:0.198834 856:0.775592 857:0.251416 911:0.227297 918:0.626035 926:0.202922 951:0.899215 954:0.817995 955:0.201408 956:0.473913 957:0.332578 
0.001 11:0.354388 18:0.500792 26:0.454003 51:0.877626 54:0.609224 55:0.419715 56:0.522383 57:0.573764 111:0.423141 118:0.503737 126:0.212947 151:0.706535 154:0.432135 155:0.597222 156:0.768821 157:0.375887 211:0.27725 218:0.407971 226:0.34415 251:0.927491 254:0.91885 255:0.249545 256:0.317982 257:0.514972 311:0.106659 318:0.4414 326:0.433225 351:0.847442 354:0.678727 355:0.433632 356:0.632022 357:0.535121 411:0.331264 418:0.111111 426:0.315542 451:0.358941 454:0.179743 455:0.734006 456:0.363156 457:0.28852 511:0.0857788 518:0.4727 526:0.240068 551:0.415285 554:0.286684 555:0.713209 556:0.77229 557:0.26834 611:0.208239 618:0.545314 626:0.421809 651:0.954339 654:0.789652 655:0.250596 656:0.378187 657:0.416025 711:0.384398 718:0.267235 726:0.0620968 751:0.359812 754:0.183452 755:0.17909 756:0.766773 757:0.264286 811:0.227297 818:0.651017 826:0.202922 851:0.883301 854:0.811328 855:0.2 856:0.469105 857:0.332578 911:0.28385 918:0.712566 926:0.402597 951:0.733321 954:0.447823 955:0.162676 956:0.313354 957:0.487354 
0.001 11:0.213527 18:0.190174 26:0.193356 51:0.321078 54:0.183648 55:0.359036 56:0.87831 57:0.152711 111:0.148686 118:0.7287 126:0.232538 151:0.742936 154:0.438478 155:0.526867 156:0.464241 157:0.435382 211:0.100615 218:0.491304 226:0.16567 251:0.701949 254:0.38377 255:0.196949 256:0.228697 257:0.55398 311:0.593679 318:0.239726 326:0.617264 351:0.425072 354:0.264167 355:0.227208 356:0.741573 357:0.653323 411:0.591986 418:0.236682 426:0.237834 451:0.574232 454:0.278539 455:0.713368 456:0.483069 457:0.451662 511:0.239278 518:0.228123 526:0.306002 551:0.391691 554:0.267176 555:0.286084 556:0.916744 557:0.368726 611:0.228555 618:0.398141 626:0.683855 651:0.757232 654:0.557252 655:0.319266 656:0.674654 657:0.524653 711:0.195025 718:0.525174 726:0.568548 751:0.755552 754:0.41496 755:0.274443 756:0.354633 757:0.60754 811:0.118543 818:0.388889 826:0.228896 851:0.809006 854:0.93643 855:0.196037 856:0.224408 857:0.383541 911:0.168026 918:0.772009 926:0.289773 951:0.839814 954:0.508217 955:0.345775 956:0.359006 957:0.444696 
0.001 11:0.455562 18:0.73851 26:0.368825 51:0.795518 54:0.569392 55:0.456736 56:0.499369 57:0.295455 111:0.364449 118:0.251868 126:0.206985 151:0.570983 154:0.612262 155:0.158698 156:0.81054 157:0.304177 211:0.157071 218:0.506522 226:0.335611 251:0.625068 254:0.380811 255:0.266166 256:0.876566 257:0.240741 311:0.0908578 318:0.547945 326:0.337948 351:0.913725 354:0.705318 355:0.555267 356:0.327091 357:0.504909 411:0.13149 418:0.506849 426:0.202512 451:0.884857 454:0.591532 455:0.230222 456:0.596769 457:0.586103 511:0.124153 518:0.576664 526:0.609467 551:0.718413 554:0.575488 555:0.327525 556:0.237341 557:0.858687 611:0.119074 618:0.546863 626:0.492815 651:0.729174 654:0.56531 655:0.154268 656:0.438402 657:0.756163 711:0.0802713 718:0.768397 726:0.266129 751:0.78173 754:0.439198 755:0.25363 756:0.168371 757:0.556349 811:0.363785 818:0.843505 826:0.691558 851:0.708779 854:0.423798 855:0.310023 856:0.382109 857:0.382408 911:0.526373 918:0.436418 926:0.476461 951:0.595077 954:0.266639 955:0.450469 956:0.370807 957:0.793129 
0.001 11:0.364449 18:0.267036 26:0.206985 51:0.576681 54:0.607128 55:0.190581 56:0.814628 57:0.296252 111:0.157071 118:0.522422 126:0.351789 151:0.59473 154:0.380973 155:0.266166 156:0.877666 157:0.240741 211:0.0994969 218:0.53913 226:0.305722 251:0.953908 254:0.71978 255:0.512523 256:0.324561 257:0.483452 311:0.13149 318:0.506849 326:0.210098 351:0.860951 354:0.621186 355:0.237128 356:0.599563 357:0.586103 411:0.124153 418:0.569254 426:0.565934 451:0.753425 454:0.531341 455:0.318964 456:0.237341 457:0.839879 511:0.119074 518:0.528048 526:0.492815 551:0.715336 554:0.56531 555:0.152343 556:0.443305 557:0.757915 611:0.0818284 618:0.768397 626:0.300085 651:0.754618 654:0.445717 655:0.262518 656:0.194777 657:0.564715 711:0.351046 718:0.835012 726:0.693548 751:0.730276 754:0.432929 755:0.29453 756:0.357827 757:0.401984 811:0.526373 818:0.453834 826:0.476461 851:0.584545 854:0.264466 855:0.447319 856:0.367046 857:0.793129 911:0.17292 918:0.285929 926:0.624188 951:0.532822 954:0.555875 955:0.548122 956:0.823913 957:0.212911 
0.001 11:0.157071 18:0.553883 26:0.351789 51:0.600665 54:0.377778 55:0.293976 56:0.882093 57:0.232057 111:0.0994969 118:0.556054 126:0.321976 151:0.90761 154:0.720085 155:0.512523 156:0.324969 157:0.483452 211:0.139743 218:0.5 226:0.171648 251:0.900528 254:0.638208 255:0.205829 256:0.598058 257:0.568164 311:0.124153 318:0.569254 326:0.587134 351:0.733069 354:0.557977 355:0.328531 356:0.238452 357:0.839879 411:0.119074 418:0.519787 426:0.457614 451:0.750093 454:0.521378 455:0.14836 456:0.443305 457:0.741314 511:0.0818284 518:0.74196 526:0.300085 551:0.740297 554:0.445717 555:0.259242 556:0.196956 557:0.566023 611:0.352144 618:0.835012 626:0.748098 651:0.704949 654:0.439355 655:0.302814 656:0.376959 657:0.414869 711:0.520068 718:0.449264 726:0.479839 751:0.602275 754:0.269536 755:0.437076 756:0.342173 757:0.83373 811:0.17292 818:0.29734 826:0.624188 851:0.523392 854:0.551345 855:0.544289 856:0.815555 857:0.212911 911:0.42795 918:0.158014 926:0.37987 951:0.283803 954:0.169269 955:0.531455 956:0.81646 957:0.280483 
0.001 11:0.0994969 18:0.58954 26:0.321976 51:0.916667 54:0.714046 55:0.530997 56:0.326608 57:0.477671 111:0.139743 118:0.515695 126:0.188245 151:0.856821 154:0.638478 155:0.205829 156:0.598808 157:0.568164 211:0.132476 218:0.55942 226:0.567037 251:0.771179 254:0.576923 255:0.293944 256:0.235589 257:0.832939 311:0.119074 318:0.519787 326:0.474756 351:0.729827 354:0.547515 355:0.152811 356:0.445381 357:0.741314 411:0.0818284 418:0.737443 426:0.27865 451:0.77712 454:0.404317 455:0.252465 456:0.196956 457:0.553625 511:0.352144 518:0.806283 526:0.748098 551:0.691571 554:0.439355 555:0.299035 556:0.381174 557:0.41583 611:0.52088 618:0.449264 626:0.524091 651:0.581387 654:0.273537 655:0.443252 656:0.361905 657:0.833975 711:0.152629 718:0.294345 726:0.626613 751:0.539267 754:0.563728 755:0.537754 756:0.808307 757:0.22381 811:0.42795 818:0.164319 826:0.37987 851:0.27878 854:0.167889 855:0.527739 856:0.808177 857:0.280483 911:0.0989668 918:0.641084 926:0.413149 951:0.868355 954:0.843468 955:0.3723 956:0.42236 957:0.289543 
0.001 11:0.139743 18:0.546751 26:0.188245 51:0.865371 54:0.633124 55:0.235926 56:0.601828 57:0.563397 111:0.132476 118:0.576981 126:0.582624 151:0.733749 154:0.577167 155:0.293944 156:0.235885 157:0.832939 211:0.127446 218:0.512319 226:0.449189 251:0.767899 254:0.566779 255:0.124545 256:0.443296 257:0.730102 311:0.0818284 318:0.737443 326:0.289088 351:0.756124 354:0.424586 355:0.260038 356:0.197878 357:0.553625 411:0.352144 418:0.802892 426:0.694662 451:0.724361 454:0.39809 455:0.291218 456:0.381174 457:0.406722 511:0.52088 518:0.433807 526:0.524091 551:0.570354 554:0.273537 555:0.437721 556:0.365952 557:0.835907 611:0.154063 618:0.294345 626:0.677937 651:0.520565 654:0.572095 655:0.542442 656:0.810138 657:0.241911 711:0.41775 718:0.162665 726:0.383871 751:0.287236 754:0.170497 755:0.520571 756:0.800639 757:0.294841 811:0.0989668 818:0.666667 826:0.413149 851:0.852988 854:0.836593 855:0.369697 856:0.418076 857:0.289543 911:0.581838 918:0.145222 926:0.185877 951:0.265787 954:0.156532 955:0.339906 956:0.856522 957:0.431861 
0.001 11:0.132476 18:0.611727 26:0.582624 51:0.741071 54:0.572327 55:0.320701 56:0.237074 57:0.83134 111:0.127446 118:0.528401 126:0.465077 151:0.730629 154:0.567019 155:0.124545 156:0.443852 157:0.730102 211:0.0905534 218:0.719565 226:0.254483 251:0.794498 254:0.447591 255:0.227914 256:0.194862 257:0.534279 311:0.352144 318:0.802892 326:0.720684 351:0.704791 354:0.418047 355:0.299953 356:0.382959 357:0.406722 411:0.52088 418:0.423896 426:0.486656 451:0.593114 454:0.235782 455:0.426278 456:0.365952 457:0.817598 511:0.154063 518:0.284218 526:0.677937 551:0.510686 554:0.572095 555:0.535672 556:0.819199 557:0.242471 611:0.418736 618:0.162665 626:0.4235 651:0.277274 654:0.173028 655:0.525513 656:0.802765 657:0.310863 711:0.075749 718:0.659954 726:0.416935 751:0.878859 754:0.856247 755:0.356486 756:0.395208 757:0.304365 811:0.581838 818:0.151017 826:0.185877 851:0.261083 854:0.155257 855:0.337529 856:0.847833 857:0.431861 911:0.103317 918:0.593679 926:0.523539 951:0.901534 954:0.781841 955:0.315023 956:0.297516 957:0.353341 
0.001 11:0.127446 18:0.560222 26:0.465077 51:0.73792 54:0.562264 55:0.157722 56:0.446091 57:0.727273 111:0.0905534 118:0.742152 126:0.270869 151:0.755937 154:0.44778 155:0.227914 156:0.195107 157:0.534279 211:0.358301 218:0.781884 226:0.707088 251:0.742576 254:0.441251 255:0.266393 256:0.380639 257:0.381009 311:0.52088 318:0.423896 326:0.504886 351:0.577089 354:0.247602 355:0.439065 356:0.367665 357:0.817598 411:0.154063 418:0.271689 426:0.629513 451:0.528508 454:0.52802 455:0.521669 456:0.819199 457:0.23716 511:0.418736 518:0.157068 526:0.4235 551:0.272012 554:0.173028 555:0.518955 556:0.811743 557:0.311583 611:0.0773138 618:0.659954 626:0.458157 651:0.848379 654:0.868957 655:0.363853 656:0.412903 657:0.320108 711:0.577728 718:0.149497 726:0.191129 751:0.269002 754:0.157543 755:0.323088 756:0.841853 757:0.453968 811:0.103317 818:0.617371 826:0.523539 851:0.885579 854:0.775469 855:0.312821 856:0.294497 857:0.353341 911:0.34149 918:0.191874 926:0.364448 951:0.488405 954:0.341002 955:0.174413 956:0.840062 957:0.681012 
0.001 11:0.424259 18:0.167195 26:0.39523 51:0.283964 54:0.174423 55:0.498795 56:0.819987 57:0.266348 111:0.0860816 118:0.637519 126:0.430153 151:0.849194 154:0.869767 155:0.324681 156:0.417817 157:0.284082 211:0.582448 218:0.14058 226:0.175064 251:0.2771 254:0.162722 255:0.29326 256:0.855263 257:0.432624 311:0.0818284 318:0.582953 326:0.552117 351:0.886527 354:0.794246 355:0.302787 356:0.294007 357:0.377644 411:0.329007 418:0.17656 426:0.378336 451:0.482414 454:0.310917 455:0.156615 456:0.835353 457:0.705438 511:0.123025 518:0.445026 526:0.650042 551:0.56608 554:0.443172 555:0.797269 556:0.472818 557:0.262162 611:0.339729 618:0.558482 626:0.381234 651:0.727431 654:0.464377 655:0.191941 656:0.65745 657:0.525039 711:0.105709 718:0.717273 726:0.152419 751:0.680448 754:0.601755 755:0.164811 756:0.463578 757:0.693254 811:0.0766721 818:0.327074 826:0.221591 851:0.841598 854:0.945803 855:0.195338 856:0.235782 857:0.446584 911:0.31267 918:0.617758 926:0.443994 951:0.732073 954:0.678307 955:0.196009 956:0.765528 957:0.229521 
0.001 11:0.0860816 18:0.675911 26:0.430153 51:0.857668 54:0.862474 55:0.350274 56:0.419924 57:0.275917 111:0.582448 118:0.144993 126:0.191652 151:0.263651 154:0.162791 155:0.29326 156:0.856336 157:0.432624 211:0.0905534 218:0.572464 226:0.530316 251:0.926398 254:0.806002 255:0.269126 256:0.291353 257:0.35067 311:0.329007 318:0.17656 326:0.392508 351:0.46938 354:0.326504 355:0.161313 356:0.839263 357:0.705438 411:0.123025 418:0.435312 426:0.603611 451:0.588486 454:0.401826 455:0.776427 456:0.472818 457:0.25642 511:0.339729 518:0.539267 526:0.381234 551:0.713626 554:0.464377 555:0.189546 556:0.664803 557:0.526255 611:0.107223 618:0.717273 626:0.180896 651:0.656849 654:0.610687 655:0.175012 656:0.478648 657:0.697612 711:0.0525721 718:0.32378 726:0.226613 751:0.867124 754:0.968241 755:0.17546 756:0.205751 757:0.469444 811:0.31267 818:0.64241 826:0.443994 851:0.719117 854:0.672779 855:0.194639 856:0.757762 857:0.229521 911:0.355628 918:0.570354 926:0.327922 951:0.543525 954:0.397699 955:0.236385 956:0.809006 957:0.451114 
0.001 11:0.582448 18:0.153724 26:0.191652 51:0.266282 54:0.161426 55:0.320044 56:0.860656 57:0.426236 111:0.0905534 118:0.590433 126:0.545997 151:0.881435 154:0.806342 155:0.269126 156:0.291719 157:0.35067 211:0.335383 218:0.185507 226:0.362938 251:0.504463 254:0.352494 255:0.132741 256:0.838659 257:0.692671 311:0.123025 318:0.435312 326:0.626221 351:0.572586 354:0.42197 355:0.799717 356:0.475031 357:0.25642 411:0.339729 418:0.531202 426:0.354003 451:0.748241 454:0.422582 455:0.184591 456:0.664803 457:0.514728 511:0.107223 518:0.692595 526:0.180896 551:0.644384 554:0.610687 555:0.172828 556:0.484001 557:0.699228 611:0.0541761 618:0.32378 626:0.258664 651:0.837051 654:0.982612 655:0.185503 656:0.230722 657:0.480354 711:0.297908 718:0.635941 726:0.447581 751:0.740928 754:0.688257 755:0.174734 756:0.748243 757:0.24127 811:0.355628 818:0.593114 826:0.327922 851:0.533906 854:0.394458 855:0.234732 856:0.800799 857:0.451114 911:0.214247 918:0.187359 926:0.214286 951:0.457545 954:0.207067 955:0.232864 956:0.923292 957:0.217441 
0.001 11:0.0905534 18:0.62599 26:0.545997 51:0.890231 54:0.799581 55:0.296824 56:0.29319 57:0.343301 111:0.335383 118:0.19133 126:0.379046 151:0.479979 154:0.352643 155:0.132741 156:0.839711 157:0.692671 211:0.131358 218:0.431884 226:0.608027 251:0.608854 254:0.445055 255:0.748179 256:0.473058 257:0.224192 311:0.339729 318:0.531202 326:0.367264 351:0.728026 354:0.443766 355:0.190128 356:0.667915 357:0.514728 411:0.107223 418:0.687215 426:0.167975 451:0.673269 454:0.565795 455:0.16831 456:0.484001 457:0.683912 511:0.0541761 518:0.31264 526:0.258664 551:0.821166 554:0.982612 555:0.183188 556:0.233302 557:0.481467 611:0.299097 618:0.635941 626:0.490279 651:0.715232 654:0.698473 655:0.184788 656:0.752381 657:0.25886 711:0.342566 718:0.587142 726:0.332258 751:0.550099 754:0.402842 755:0.21636 756:0.792971 757:0.474206 811:0.214247 818:0.194836 826:0.214286 851:0.449448 854:0.205379 855:0.231235 856:0.913926 857:0.217441 911:0.186514 918:0.203913 926:0.148539 951:0.449518 954:0.338948 955:0.586854 956:0.595963 957:0.467724 
0.001 11:0.335383 18:0.202853 26:0.379046 51:0.484769 54:0.349686 55:0.165608 56:0.843947 57:0.689394 111:0.131358 118:0.445441 126:0.623509 151:0.579303 154:0.445243 155:0.748179 156:0.473651 157:0.224192 211:0.346003 218:0.523188 226:0.336465 251:0.766078 254:0.466188 255:0.160519 256:0.666667 257:0.493696 311:0.107223 318:0.687215 326:0.174267 351:0.655079 354:0.594159 355:0.173359 356:0.486267 357:0.683912 411:0.0541761 418:0.300609 426:0.240188 451:0.86468 454:0.929846 455:0.178399 456:0.233302 457:0.470921 511:0.299097 518:0.614061 526:0.490279 551:0.701658 554:0.698473 555:0.182482 556:0.760795 557:0.259459 611:0.343679 618:0.587142 626:0.3694 651:0.531021 654:0.408821 655:0.225799 656:0.795392 657:0.484977 711:0.195591 718:0.192874 726:0.219355 751:0.46308 754:0.208943 755:0.21273 756:0.910543 757:0.228571 811:0.186514 818:0.21205 826:0.148539 851:0.441563 854:0.336186 855:0.582751 856:0.589917 857:0.467724 911:0.112017 918:0.673439 926:0.441558 951:0.900642 954:0.803205 955:0.265023 956:0.369876 957:0.321631 
0.001 11:0.0542202 18:0.62916 26:0.183986 51:0.87395 54:0.627673 55:0.245564 56:0.185687 57:0.541467 111:0.0665176 118:0.437967 126:0.281942 151:0.836367 154:0.775053 155:0.28051 156:0.265684 157:0.623719 211:0.131917 218:0.0775362 226:0.0760034 251:0.230643 254:0.090448 255:0.189663 256:1 257:0.0791962 311:0.0795711 318:0.58828 326:0.412052 351:0.802233 354:0.496949 355:0.666982 356:0.561798 357:0.373489 411:0.123589 418:0.156773 426:0.1146 451:0.212144 454:0.0788709 455:0.419629 456:0.968934 457:0.11216 511:0.171558 518:0.303665 526:0.374472 551:0.767311 554:0.591603 555:0.36308 556:0.296987 557:0.623938 611:0.120203 618:0.523625 626:0.202874 651:0.857267 654:0.685327 655:0.479018 656:0.261444 657:0.704545 711:0.127756 718:0.547637 726:0.396774 751:0.856292 754:0.597994 755:0.366893 756:0.475719 757:0.646429 811:0.190865 818:0.530516 826:0.5 851:0.909935 854:0.56031 855:0.368065 856:0.545343 857:0.480181 911:0.174551 918:0.419112 926:0.332792 951:0.719051 954:0.424815 955:0.423474 956:0.667081 957:0.713854 
0.001 11:0.207378 18:0.400158 26:0.336457 51:0.560574 54:0.313208 55:0.487185 56:0.493695 57:0.654705 111:0.164897 118:0.586697 126:0.53322 151:0.721096 154:0.620296 155:0.268443 156:0.711418 157:0.277778 211:0.18502 218:0.26087 226:0.175918 251:0.532155 254:0.35672 255:0.285291 256:0.899436 257:0.192277 311:0.139955 318:0.436834 326:0.249186 351:0.85969 354:0.797733 355:0.232641 356:0.305243 357:0.751888 411:0.116253 418:0.434551 426:0.194662 451:0.752129 454:0.750934 455:0.350837 456:0.205343 457:0.714124 511:0.0959368 518:0.889304 526:0.222316 551:0.762011 554:0.653096 555:0.18154 556:0.217459 557:0.597297 611:0.187359 618:0.261038 626:0.5765 651:0.546009 654:0.459288 655:0.219599 656:0.846083 657:0.508475 711:0.526851 718:0.202169 726:0.284677 751:0.441957 754:0.215629 755:0.234995 756:0.875719 757:0.394444 811:0.219685 818:0.257433 826:0.458604 851:0.652882 854:0.420945 855:0.262704 856:0.754381 857:0.449981 911:0.162588 918:0.89541 926:0.208604 951:0.655369 954:0.48521 955:0.437559 956:0.39472 957:0.600982 
0.001 11:0.164897 18:0.622029 26:0.53322 51:0.728291 54:0.615094 55:0.296166 56:0.715006 57:0.269537 111:0.18502 118:0.269058 126:0.192504 151:0.506327 154:0.356871 155:0.285291 156:0.900565 157:0.192277 211:0.148127 218:0.433333 226:0.212639 251:0.899253 254:0.809383 255:0.201503 256:0.302632 257:0.741135 311:0.116253 318:0.434551 326:0.201954 351:0.731808 354:0.788579 355:0.36136 356:0.206305 357:0.714124 411:0.0959368 418:0.887367 426:0.206436 451:0.800629 454:0.607306 455:0.176794 456:0.217459 457:0.584215 511:0.187359 518:0.252057 526:0.5765 551:0.535647 554:0.459288 555:0.216859 556:0.855545 557:0.509653 611:0.527652 618:0.202169 626:0.319527 651:0.426629 654:0.21883 655:0.244158 656:0.874962 657:0.40755 711:0.201244 718:0.254841 726:0.462097 751:0.672685 754:0.430004 755:0.245402 756:0.744728 757:0.473016 811:0.162588 818:0.931142 826:0.208604 851:0.643771 854:0.481255 855:0.434499 856:0.390716 857:0.600982 911:0.219685 918:0.186606 926:0.396104 951:0.334998 954:0.210764 955:0.264789 956:0.939752 957:0.203851 
0.001 11:0.261599 18:0.291601 26:0.289608 51:0.498599 54:0.327883 55:0.507119 56:0.876419 57:0.333333 111:0.288429 118:0.429746 126:0.343271 151:0.765817 154:0.510359 155:0.355191 156:0.480552 157:0.827817 211:0.233091 218:0.463768 226:0.528608 251:0.940062 254:0.537194 255:0.3199 256:0.39599 257:0.592593 311:0.687359 318:0.268645 326:0.335505 351:0.49964 354:0.308631 355:0.353803 356:0.845818 357:0.415785 411:0.244921 418:0.426941 426:0.66719 451:0.845428 454:0.62225 455:0.349003 456:0.5831 457:0.522281 511:0.217269 518:0.650711 526:0.338969 551:0.868183 554:0.507209 555:0.343066 556:0.408201 557:0.618533 611:0.27088 618:0.377227 626:0.865596 651:0.667654 654:0.433418 655:0.302814 656:0.602765 657:0.618644 711:0.268513 718:0.41983 726:0.641129 751:0.797617 754:0.491015 755:0.295257 756:0.372524 757:0.804762 811:0.261011 818:0.242567 826:0.233766 851:0.414053 854:0.228606 855:0.376923 856:0.821088 857:0.238581 911:0.284937 918:0.3845 926:0.853896 951:0.709062 954:0.442482 955:0.310329 956:0.490062 957:0.600982 
0.001 11:0.106764 18:0.666403 26:0.374787 51:0.775735 54:0.520755 55:0.240088 56:0.239912 57:0.722488 111:0.287311 118:0.299701 126:0.482964 151:0.653146 154:0.6926 155:0.0924408 156:0.706713 157:0.552403 211:0.111235 218:0.633333 226:0.433817 251:0.876662 254:0.700338 255:0.136612 256:0.639724 257:0.448385 311:0.39842 318:0.142314 326:0.23127 351:0.372839 354:0.153444 355:0.243505 356:0.865793 357:0.520393 411:0.129233 418:0.648402 426:0.647567 451:0.818215 454:0.683686 455:0.215776 456:0.550792 457:0.39577 511:0.274831 518:0.123411 526:0.196957 551:0.266883 554:0.130195 555:0.228161 556:0.95744 557:0.271429 611:0.100451 618:0.65763 626:0.527473 651:0.784594 654:0.712044 655:0.239866 656:0.569585 657:0.45339 711:0.1368 718:0.152595 726:0.13629 751:0.46308 754:0.246135 755:0.259923 756:0.7 757:0.105952 811:0.207178 818:0.612676 826:0.554383 851:0.705975 854:0.44458 855:0.239161 856:0.732247 857:0.435259 911:0.288744 918:0.783296 926:0.310065 951:0.782911 954:0.447412 955:0.529343 956:0.397205 957:0.516044 
0.001 11:0.108999 18:0.673534 26:0.5 51:0.793592 54:0.707338 55:0.236364 56:0.580706 57:0.413876 111:0.146451 118:0.147982 126:0.133731 151:0.449991 154:0.252431 155:0.233834 156:0.717064 157:0.0870764 211:0.197317 218:0.568116 226:0.562767 251:0.739661 254:0.462806 255:0.197177 256:0.737469 257:0.43617 311:0.274266 318:0.774734 326:0.337948 351:0.766751 354:0.439407 355:0.518422 356:0.394195 357:0.540408 411:0.260158 418:0.308219 426:0.160126 451:0.607183 454:0.355749 455:0.12199 456:0.171482 457:0.322885 511:0.203725 518:0.142109 526:0.268808 551:0.407762 554:0.254877 555:0.177773 556:0.929171 557:0.267954 611:0.796275 618:0.178931 626:0.203719 651:0.370338 654:0.196777 655:0.229375 656:0.513671 657:0.670262 711:0.502544 718:0.168861 726:0.483065 751:0.409099 754:0.170497 755:0.161181 756:0.845367 757:0.45754 811:0.0750408 818:0.553991 826:0.296266 851:0.822323 854:0.874083 855:0.356177 856:0.26929 857:0.385428 911:0.227841 918:0.705794 926:0.324675 951:0.845879 954:0.671323 955:0.269014 956:0.552795 957:0.321631 
0.001 11:0.218558 18:0.744057 26:0.337308 51:0.835609 54:0.686792 55:0.253888 56:0.552333 57:0.309809 111:0.0883175 118:0.433483 126:0.088586 151:0.497833 154:0.334461 155:0.186931 156:0.340652 157:0.695429 211:0.131917 218:0.256522 226:0.375747 251:0.900528 254:0.778107 255:0.162113 256:0.534148 257:0.573286 311:0.0440181 318:0.755708 326:0.267101 351:0.680295 354:0.320401 355:0.14478 356:0.175406 357:0.330438 411:0.358916 418:0.0555556 426:0.164835 451:0.122547 454:0.0589456 455:0.577849 456:0.71078 457:0.114048 511:0.336907 518:0.259536 526:0.532544 551:0.440075 554:0.267176 555:0.130916 556:0.517863 557:0.79305 611:0.155756 618:0.107668 626:0.177515 651:0.236494 654:0.110263 655:0.164759 656:0.974808 657:0.105162 711:0.283776 718:0.450039 726:0.366129 751:0.880845 754:0.502716 755:0.43514 756:0.506709 757:0.762302 811:0.141925 818:0.49374 826:0.238636 851:0.673208 854:0.355338 855:0.25711 856:0.324316 857:0.352963 911:0.117999 918:0.524454 926:0.164773 951:0.86782 954:0.864832 955:0.325352 956:0.248137 957:0.284636 
0.001 11:0.188932 18:0.307448 26:0.212095 51:0.460609 54:0.30566 55:0.835268 56:0.459332 57:0.277512 111:0.285075 118:0.340807 126:0.525554 151:0.582943 154:0.391121 155:0.261612 156:0.648055 157:0.817967 211:0.129122 218:0.497101 226:0.269855 251:0.952815 254:0.84235 255:0.278689 256:0.304511 257:0.435382 311:0.175508 318:0.30137 326:0.236156 351:0.50054 354:0.359198 355:0.232404 356:0.225031 357:0.841012 411:0.250564 418:0.222983 426:0.265306 451:0.422066 454:0.20714 455:0.358175 456:0.866418 457:0.273414 511:0.275959 518:0.38893 526:0.907861 551:0.690374 554:0.463104 555:0.305392 556:0.494564 557:0.64556 611:0.132054 618:0.417506 626:0.266272 651:0.80481 654:0.832485 655:0.583214 656:0.264209 657:0.429892 711:0.203505 718:0.279628 726:0.21129 751:0.455136 754:0.290013 755:0.974589 756:0.430351 757:0.45754 811:0.194671 818:0.492175 826:0.620942 851:0.846855 854:0.793399 855:0.313054 856:0.37842 857:0.469989 911:0.273518 918:0.256584 926:0.301948 951:0.503389 954:0.268283 955:0.487559 956:0.85559 957:0.326916 
0.001 11:0.285075 18:0.361331 26:0.525554 51:0.588761 54:0.387841 55:0.289595 56:0.651324 57:0.816188 111:0.129122 118:0.512706 126:0.286201 151:0.90657 154:0.842706 155:0.278689 156:0.304893 157:0.435382 211:0.183343 218:0.304348 226:0.198975 251:0.535981 254:0.384193 255:0.201275 256:0.222118 257:0.834121 311:0.250564 318:0.222983 326:0.275244 351:0.410663 354:0.217524 355:0.368918 356:0.870474 357:0.273414 411:0.275959 418:0.378234 426:0.843014 451:0.723066 454:0.421337 455:0.297409 456:0.494564 457:0.63142 511:0.132054 518:0.403141 526:0.266272 551:0.789537 554:0.832485 555:0.575936 556:0.267164 557:0.430888 611:0.204853 618:0.279628 626:0.242604 651:0.439352 654:0.294317 655:0.972818 656:0.446697 657:0.468798 711:0.17524 718:0.487219 726:0.623387 751:0.87254 754:0.811952 755:0.297677 756:0.353994 757:0.494048 811:0.273518 818:0.266823 826:0.301948 851:0.49448 854:0.266096 855:0.484149 856:0.846911 857:0.326916 911:0.207178 918:0.413093 926:0.301948 951:0.892258 954:0.774445 955:0.476995 956:0.349379 957:0.479426 
