svm_type c_svc
kernel_type rbf
gamma 1
nr_class 2
total_sv 309
rho -0.93615
label 1 0
probA -9.09046
probB 6.3218
nr_sv 194 115
SV
0.1 11:0.284091 14:0.422012 26:0.282224 28:0.168381 29:0.49292 51:0.453407 52:0.418446 53:0.37315 54:0.320303 56:0.776385 57:0.549095 111:0.0264216 114:0.313712 126:0.43801 128:0.481957 129:0.499296 151:0.874781 152:0.740501 153:0.77364 154:0.414741 156:0.271019 157:0.715056 211:0.190424 214:0.556381 226:0.49055 228:0.409853 229:0.374091 251:0.873085 252:0.714878 253:0.45987 254:0.714343 256:0.316217 257:0.767379 311:0.0884908 314:0.601621 326:0.124702 328:0.0734086 329:0.291667 351:0.47934 352:0.193726 353:0.142399 354:0.162224 356:0.658898 357:0.370851 411:0.376338 414:0.2317 426:0.468366 428:0.103575 429:0.114888 451:0.771173 452:0.660962 453:0.497733 454:0.601285 456:0.428881 457:0.768242 
0.05716016187218814 11:0.0600649 14:0.307225 26:0.452401 28:0.401191 29:0.486177 51:0.868692 52:0.710359 53:0.764544 54:0.382514 56:0.271108 57:0.715056 111:0.155083 114:0.520401 126:0.516313 128:0.458716 129:0.395775 151:0.849351 152:0.70747 153:0.48057 154:0.714343 156:0.32608 157:0.769349 211:0.0759494 214:0.601621 226:0.0532646 228:0.0749476 229:0.272968 251:0.48729 252:0.199389 253:0.151224 254:0.169721 256:0.648034 257:0.368155 311:0.365907 314:0.226874 326:0.44162 328:0.0523614 329:0.0805085 351:0.773364 352:0.646672 353:0.480595 354:0.534653 356:0.418268 357:0.784433 411:0.0808351 414:0.790579 428:1 429:0.513256 451:0.127126 452:0.181326 453:0.150801 454:0.144754 456:0.356834 457:0.10397 
0.01453352071231555 11:0.193182 14:0.264686 26:0.171019 28:0.0855441 29:0.169252 51:0.243094 52:0.114266 53:0.118072 54:0.0689365 56:0.951847 57:0.116673 111:0.309592 114:0.317057 126:0.52447 128:0.131498 129:0.380282 151:0.491056 152:0.625648 153:0.769106 154:0.208367 156:0.758325 157:0.246823 211:0.156852 214:0.480081 226:0.222509 228:0.51153 229:0.194316 251:0.215612 252:0.173866 253:0.150914 254:0.123506 256:0.948976 257:0.197282 311:0.512486 314:0.108035 326:0.258141 328:0.0929158 329:0.108051 351:0.799965 352:0.520136 353:0.336154 354:0.495811 356:0.195591 357:0.912247 411:0.213062 414:0.185869 426:0.88225 428:0.153523 429:0.176071 451:0.589794 452:0.360052 453:0.284376 454:0.308779 456:0.485467 457:0.729679 
0.03693643376930849 11:0.460227 14:0.310601 26:0.541702 28:0.0909583 29:0.372218 51:0.465746 52:0.589505 53:0.759725 54:0.164775 56:0.758575 57:0.246823 111:0.120046 114:0.444816 126:0.261827 128:0.57737 129:0.204225 151:0.209751 152:0.172064 153:0.157707 154:0.123506 156:0.968018 157:0.204082 211:0.505779 214:0.108035 226:0.197595 228:0.0948637 229:0.101124 251:0.813232 252:0.53534 253:0.356988 254:0.518725 256:0.169971 257:0.919223 311:0.200326 314:0.178258 326:0.815727 328:0.101129 329:0.144068 351:0.593722 352:0.352268 353:0.274584 354:0.274562 356:0.475906 357:0.745517 411:0.0701285 414:0.0751114 426:0.195079 428:0.0667718 429:0.0829368 451:0.72641 452:0.676993 453:0.316108 454:0.890364 456:0.0711194 457:0.418147 
0.07607343204304765 11:0.19237 14:0.439568 26:0.27043 28:0.485652 29:0.203641 51:0.17035 52:0.112222 53:0.109811 54:0.0752417 56:0.968338 57:0.204082 111:0.484204 114:0.0762542 126:0.238173 128:0.0911315 129:0.10493 151:0.791126 152:0.529793 153:0.373057 154:0.518725 156:0.177712 157:0.919908 211:0.189323 214:0.178258 226:0.800687 228:0.103249 229:0.134831 251:0.603569 252:0.362565 253:0.291602 254:0.287251 256:0.459214 257:0.749515 311:0.0553746 314:0.0607698 326:0.194599 328:0.0164271 329:0.0473164 351:0.72903 352:0.662357 353:0.305223 354:0.791698 356:0.0538583 357:0.431133 411:0.177195 414:0.81986 426:0.186292 428:0.254469 429:0.371856 451:0.211638 452:0.198873 453:0.175884 454:0.143897 456:0.851268 457:0.222306 
0.1 11:0.706981 14:0.0675219 26:0.245998 28:0.0552247 29:0.108564 51:0.780847 52:0.488642 53:0.338726 54:0.492224 56:0.17777 57:0.919908 111:0.153935 114:0.145819 126:0.810767 128:0.100917 129:0.140845 151:0.587162 152:0.358808 153:0.304728 154:0.287251 156:0.471151 157:0.751637 211:0.0423775 214:0.0607698 226:0.128866 228:0.0167715 229:0.0442829 251:0.741121 252:0.681719 253:0.32414 254:0.828287 256:0.0237244 257:0.429515 311:0.163952 314:0.850777 326:0.186656 328:0.199692 329:0.347458 351:0.219188 352:0.194574 353:0.169828 354:0.127951 356:0.848504 357:0.233499 411:0.156852 414:0.352642 426:0.254833 428:0.17613 429:0.262407 451:0.736258 452:0.784445 453:0.717437 454:0.534047 456:0.377551 457:0.765974 
0.02663786267185987 11:0.24026 14:0.137745 26:0.837405 28:0.0638874 29:0.142953 51:0.566667 52:0.308723 53:0.266093 54:0.248003 56:0.471306 57:0.751637 111:0.000574383 114:0.0294314 126:0.17292 129:0.0443662 151:0.720975 152:0.674655 153:0.338731 154:0.828287 156:0.0293439 157:0.434347 211:0.152449 214:0.850777 226:0.120275 228:0.203878 229:0.325182 251:0.222823 252:0.200262 253:0.180353 254:0.133865 256:0.843679 257:0.22835 311:0.143322 314:0.355165 326:0.24861 328:0.123203 329:0.233757 351:0.738783 352:0.767486 353:0.692734 354:0.474867 356:0.365984 357:0.782144 411:0.144004 414:0.846595 426:0.144112 428:0.395899 429:0.939497 451:0.280036 452:0.402946 453:0.419462 454:0.202141 456:0.428262 457:0.161437 
0.06737234751861902 11:0.512175 14:0.246455 26:0.912384 28:0.0449377 29:0.256237 51:0.626888 52:0.541799 53:0.472633 54:0.42707 56:0.350923 57:0.649596 111:0.493969 114:0.542475 126:0.23491 128:0.957187 129:0.566197 151:0.340056 152:0.281952 153:0.290155 154:0.163347 156:0.647544 157:0.514055 211:0.237204 214:0.0850777 226:0.320447 228:0.0744235 229:0.0634501 251:0.708852 252:0.575044 253:0.32321 254:0.634661 256:0.166071 257:0.917282 311:0.482628 314:0.295071 326:0.655282 328:0.0770021 329:0.107345 351:0.546905 352:0.334252 353:0.282171 354:0.232292 356:0.414488 357:0.966425 411:0.49197 414:0.287715 426:0.413884 428:0.133544 429:0.156356 451:0.52838 452:0.244584 453:0.196132 454:0.205567 456:0.770563 457:0.669565 
0.05269858120659762 11:0.720779 14:0.53815 26:0.242628 28:0.821873 29:0.550236 51:0.307182 52:0.227851 53:0.250602 54:0.117276 56:0.647757 57:0.514055 111:0.203906 114:0.0535117 126:0.354812 128:0.0672783 129:0.0647887 151:0.689583 152:0.569085 153:0.337759 154:0.634661 156:0.173755 157:0.917982 211:0.475509 214:0.295071 226:0.627148 228:0.0786164 229:0.100463 251:0.555976 252:0.344023 253:0.299659 254:0.243028 256:0.39584 257:0.974369 311:0.48317 314:0.286293 326:0.392375 328:0.0816222 329:0.123588 351:0.532896 352:0.239296 353:0.189378 354:0.182788 356:0.766299 357:0.684853 411:0.165953 414:0.316359 426:0.367311 428:0.139853 429:0.317471 451:0.314772 452:0.281196 453:0.189785 454:0.286938 456:0.927025 457:0.396219 
0.02808026436807895 11:0.310877 14:0.0445645 26:0.36647 28:0.0341094 29:0.0701281 51:0.674217 52:0.529986 53:0.301205 54:0.614544 56:0.173813 57:0.917982 111:0.452613 114:0.261538 126:0.646003 128:0.0721713 129:0.104225 151:0.540863 152:0.340458 153:0.313148 154:0.243028 156:0.406858 157:0.974586 211:0.476059 214:0.286293 226:0.342784 228:0.0833333 229:0.115664 251:0.541734 252:0.246291 253:0.201116 254:0.191235 256:0.758856 257:0.687767 311:0.152552 314:0.316678 326:0.350278 328:0.0877823 329:0.29096 351:0.321334 352:0.275117 353:0.183251 354:0.255141 356:0.925669 357:0.409004 411:0.147752 414:0.637174 426:0.137083 428:0.640379 429:0.484704 451:0.243868 452:0.181759 453:0.137806 454:0.164026 456:0.880952 457:0.274102 
0.0418673354103181 11:0.662338 14:0.254558 26:0.667228 28:0.0384407 29:0.107889 51:0.518048 52:0.289414 53:0.275043 54:0.201345 56:0.406992 57:0.974586 111:0.453188 114:0.252843 126:0.37602 128:0.0776758 129:0.120423 151:0.527008 152:0.243739 153:0.210168 154:0.191235 156:0.77514 157:0.690412 211:0.140892 214:0.316678 226:0.297251 228:0.0896226 229:0.272307 251:0.326663 252:0.283159 253:0.194608 254:0.266932 256:0.923302 257:0.40699 311:0.134093 314:0.656989 326:0.142176 328:0.576489 329:0.464689 351:0.251108 352:0.17783 353:0.133061 354:0.145849 356:0.87874 357:0.285769 411:0.0513919 414:0.094844 426:0.295255 428:0.115668 429:0.21414 451:0.763653 452:1 453:1 454:0.559743 456:0.179654 457:0.248771 
0.05442044022005893 11:0.209416 14:0.211344 26:0.599832 28:0.22523 29:0.303439 51:0.48011 52:0.607451 53:0.713253 54:0.254729 56:0.741095 57:0.32345 111:0.0809879 114:0.253512 126:0.198206 128:0.0495413 129:0.110563 151:0.16959 152:0.083981 153:0.0680052 154:0.0713147 156:0.882954 157:0.0866384 211:0.182719 214:0.228224 226:0.528351 228:0.0728512 229:0.310641 251:0.756986 252:0.723822 253:0.598079 254:0.552988 256:0.685733 257:0.56 311:0.193811 314:0.0594193 326:0.438443 328:0.0292608 329:0.0600282 351:0.882603 352:0.851208 353:0.627663 354:0.710206 356:0.209764 357:0.657383 411:0.828694 414:0.139402 426:0.510545 428:0.107781 429:0.10673 451:0.295076 452:0.165078 453:0.12602 454:0.147752 456:0.63389 457:0.595463 
0.03736700256778062 11:0.137175 14:0.246455 26:0.204718 28:0.0184082 29:0.113958 51:0.128177 52:0.0195366 53:0.0144578 54:0.0201765 56:0.883245 57:0.0866384 111:0.147042 114:0.195318 126:0.552202 128:0.0654434 129:0.328169 151:0.736408 152:0.716321 153:0.625 154:0.552988 156:0.700956 157:0.563727 211:0.182719 214:0.0594193 226:0.392612 228:0.0298742 229:0.0561798 251:0.897242 252:0.876091 253:0.666563 254:0.743028 256:0.184595 257:0.659806 311:0.824647 314:0.128967 326:0.479746 328:0.0564682 329:0.0720339 351:0.301827 352:0.161509 353:0.121681 354:0.131379 356:0.627087 357:0.610072 411:0.0888651 414:0.192234 426:0.704745 428:0.10673 429:0.163154 451:0.623456 452:0.715555 453:0.558175 454:0.623555 456:0.201917 457:0.733459 
0.1 11:0.230519 14:0.187711 26:0.570345 28:0.0324851 29:0.32232 51:0.723389 52:0.684916 53:0.60654 54:0.528373 56:0.701187 57:0.563727 111:0.147042 114:0.0280936 126:0.423328 128:0.0152905 129:0.0570423 151:0.872852 152:0.867012 153:0.696567 154:0.743028 156:0.192549 157:0.662688 211:0.822234 214:0.128967 226:0.437285 228:0.057652 229:0.0674157 251:0.306833 252:0.16623 253:0.129222 254:0.13745 256:0.61521 257:0.61165 311:0.0743757 314:0.18501 326:0.655282 328:0.0554415 329:0.13065 351:0.627062 352:0.700085 353:0.538955 354:0.554455 356:0.187087 357:0.749332 411:0.117773 414:0.171229 426:0.249561 428:0.106204 429:0.14276 451:0.641361 452:0.657279 453:0.471744 454:0.630835 456:0.82684 457:0.158034 
0.1 11:0.0633117 14:0.0722485 26:0.398484 28:0.0665945 29:0.146999 51:0.866667 52:0.852794 53:0.733219 54:0.684321 56:0.282652 57:0.316134 111:0.0201034 114:0.143144 126:0.186786 128:0.12844 129:0.476761 151:0.921782 152:0.826209 153:0.639896 154:0.73745 156:0.316518 157:0.288025 211:0.556412 214:0.149899 226:0.229381 228:0.1174 229:0.251818 251:0.719488 252:0.770506 253:0.795786 254:0.384064 256:0.300292 257:0.596117 311:0.409338 314:0.286293 326:0.245433 328:0.112936 329:0.178672 351:0.40681 352:0.242264 353:0.191421 354:0.185453 356:0.869606 357:0.425792 411:0.604925 414:0.292807 426:0.454306 428:0.178759 429:0.219579 451:0.474485 452:0.29831 453:0.21366 454:0.286938 456:0.878788 457:0.222306 
0.1 11:0.0511364 14:0.135044 26:0.192923 28:0.0882512 29:0.464599 51:0.918048 52:0.800545 53:0.622375 54:0.722993 56:0.316623 57:0.288025 111:0.537048 114:0.117726 126:0.268352 128:0.117431 129:0.265493 151:0.69993 152:0.762522 153:0.831606 154:0.384064 156:0.309924 157:0.599538 211:0.401211 214:0.286293 226:0.183849 228:0.115304 229:0.167217 251:0.413557 252:0.249346 253:0.203285 254:0.194024 256:0.865453 257:0.424078 311:0.59772 314:0.291695 326:0.428912 328:0.12577 329:0.189266 351:0.479518 352:0.291861 353:0.206303 354:0.255141 356:0.876535 357:0.233499 411:0.192184 414:0.155315 426:0.315466 428:0.165615 429:0.188987 451:0.84154 452:0.711005 453:0.60683 454:0.54561 456:0.24026 457:0.894896 
0.02967385124437208 11:0.781656 14:0.109386 26:0.277169 28:0.0785057 29:0.262306 51:0.685083 52:0.73353 53:0.826162 54:0.350147 56:0.310026 57:0.599538 111:0.375072 114:0.252843 126:0.225122 128:0.114985 129:0.175352 151:0.402315 152:0.246762 153:0.212435 154:0.194024 156:0.883284 157:0.428956 211:0.592185 214:0.291695 226:0.382302 228:0.128407 229:0.177132 251:0.487471 252:0.300393 253:0.219089 254:0.266932 256:0.872603 257:0.22835 311:0.179153 314:0.145847 326:0.303415 328:0.112936 329:0.157486 351:0.843057 352:0.695634 353:0.585935 354:0.485149 356:0.226142 357:0.912247 411:0.214668 414:0.60853 426:0.54833 428:0.440063 429:0.474507 451:0.378156 452:0.277296 453:0.232094 454:0.219272 456:0.861163 457:0.343289 
0.1 11:0.25 14:0.364619 26:0.491154 28:0.177585 29:0.499663 51:0.876243 52:0.807587 53:0.738726 54:0.593947 56:0.397098 57:0.553716 111:0.496841 114:0.147826 126:0.519576 128:0.332722 129:0.159859 151:0.660119 152:0.683722 153:0.739313 154:0.352191 156:0.319815 157:0.852137 211:0.0880572 214:0.270763 226:0.621993 228:0.0566038 229:0.339722 251:0.884442 252:0.73233 253:0.596529 254:0.570518 256:0.377641 257:0.678835 311:0.365364 314:0.434841 326:0.542494 328:0.062115 329:0.166667 351:0.40415 352:0.277872 353:0.227604 354:0.202209 356:0.653228 357:0.742846 411:0.221627 414:0.52387 426:0.596661 428:0.572555 429:0.586676 451:0.920143 452:0.817808 453:0.735267 454:0.574732 456:0.438157 457:0.285066 
0.04345319564072091 11:0.724838 14:0.13977 26:0.536647 28:0.269085 29:0.16116 51:0.643278 52:0.650613 53:0.728055 54:0.31652 56:0.319921 57:0.852137 111:0.0482481 114:0.237458 126:0.641109 128:0.0464832 129:0.359155 151:0.8604 152:0.724741 153:0.623381 154:0.570518 156:0.388394 157:0.681556 211:0.356632 214:0.434841 226:0.505155 228:0.0634172 229:0.155981 251:0.410853 252:0.285995 253:0.241711 254:0.211554 256:0.642184 257:0.746796 311:0.209012 314:0.536799 326:0.557585 328:0.510267 329:0.570621 351:0.920908 352:0.800127 353:0.70995 354:0.511043 356:0.427717 357:0.296833 411:0.131692 414:0.376194 426:0.100176 428:0.129338 429:0.148878 451:0.073769 452:0.0684575 453:0.0646721 454:0.0436831 456:0.935993 457:0.0412098 
0.01288839572052827 11:0.487013 14:0.394328 26:0.547599 28:0.0227396 29:0.164531 51:0.369797 52:0.228987 53:0.210671 54:0.168138 56:0.656992 57:0.748941 111:0.163125 114:0.501003 126:0.545677 128:0.588379 129:0.566197 151:0.910733 152:0.814983 153:0.787889 154:0.534661 156:0.420706 157:0.298806 211:0.105669 214:0.380149 226:0.0360825 228:0.0791405 229:0.108394 251:0.0840094 252:0.0689354 253:0.0663155 254:0.0406375 256:0.932727 257:0.0423301 311:0.0863192 314:0.148548 326:0.764098 328:0.258214 329:0.550847 351:0.835077 352:0.782535 353:0.649256 354:0.558644 356:0.500472 357:0.438001 411:0.148287 414:0.273074 426:0.165202 428:0.0825447 429:0.135282 451:0.106177 452:0.0905546 453:0.0540949 454:0.102355 456:0.888064 457:0.137618 
0.007808985187087767 11:0.253247 14:0.496286 26:0.563606 28:0.495398 29:0.550236 51:0.906446 52:0.788732 53:0.77969 54:0.509037 56:0.420844 57:0.298806 111:0.0666284 114:0.345819 126:0.0848287 128:0.0727829 129:0.112676 151:0.0817257 152:0.0682211 153:0.0693005 154:0.0406375 156:0.951533 157:0.0504428 211:0.0737479 214:0.148548 226:0.744845 228:0.263627 229:0.515532 251:0.848927 252:0.80541 253:0.689495 254:0.584462 256:0.484563 257:0.436505 311:0.134636 314:0.270763 326:0.167593 328:0.0318275 329:0.101695 351:0.114737 352:0.0885969 353:0.0522323 354:0.0910129 356:0.885984 357:0.148035 411:0.0471092 414:0.31063 426:0.286467 428:0.191377 429:0.202583 451:0.784602 452:0.916378 453:0.849199 454:0.608137 456:0.419604 457:0.230246 
0.03933881486533064 11:0.349838 14:0.201215 26:0.367313 28:0.116405 29:0.215779 51:0.585635 52:0.424807 53:0.372117 54:0.333333 56:0.540567 57:0.899114 111:0.130385 114:0.767224 126:0.195759 128:0.431804 129:0.91831 151:0.387408 152:0.414292 153:0.425194 154:0.241434 156:0.511705 157:0.2603 211:0.24546 214:0.203241 226:0.295533 228:0.150943 229:0.181758 251:0.701821 252:0.485384 253:0.393244 254:0.380876 256:0.320767 257:0.963107 311:0.257329 314:0.328157 326:0.5695 328:0.152464 329:0.254237 351:0.452031 352:0.340822 353:0.272542 354:0.256664 356:0.845984 357:0.363983 411:0.936831 414:0.217059 426:0.297891 428:0.222397 429:0.196465 451:0.312981 452:0.247617 453:0.207313 454:0.195717 456:0.394249 457:0.374669 
0.02658461370204023 11:0.206981 14:0.765024 26:0.20219 28:0.356795 29:0.88739 51:0.356906 52:0.367106 53:0.394148 54:0.199664 56:0.511873 57:0.2603 111:0.212522 114:0.170569 126:0.331158 128:0.156575 129:0.190845 151:0.682743 152:0.480354 153:0.410946 154:0.380876 156:0.330696 157:0.963419 211:0.247111 214:0.328157 226:0.534364 228:0.15566 229:0.237938 251:0.459528 252:0.350785 253:0.289433 254:0.268526 256:0.841079 257:0.361165 311:0.934311 314:0.211344 326:0.28753 328:0.168378 329:0.165254 351:0.31956 352:0.242264 353:0.200175 354:0.174029 356:0.382992 357:0.387257 411:0.272484 414:0.320815 426:0.364675 428:0.197161 429:0.277362 451:0.429902 452:0.339905 453:0.274705 454:0.282655 456:0.850959 457:0.462004 
0.04030332031081574 11:0.470779 14:0.688049 26:0.615838 28:0.0860855 29:0.482131 51:0.226335 52:0.236938 53:0.265749 54:0.115595 56:0.529024 57:0.756257 111:0.333716 114:0.604013 126:0.202284 128:0.288073 129:0.645775 151:0.463522 152:0.473661 153:0.60136 154:0.134263 156:0.792944 157:0.309973 211:0.364887 214:0.513167 226:0.158076 228:0.872642 229:0.296761 251:0.115919 252:0.104276 253:0.0923458 254:0.0717131 256:0.746831 257:0.239612 311:0.115092 314:0.749494 326:0.101668 328:0.157598 329:0.572034 351:0.101968 352:0.112548 353:0.111468 354:0.0567403 356:0.839055 357:0.0724914 411:0.0647752 414:0.101846 426:0.195958 428:0.111987 429:0.208022 451:0.782811 452:0.946274 453:0.874282 454:0.631692 456:0.349412 457:0.420038 
0.02829568394205179 11:0.303571 14:0.688049 26:0.561078 28:0.198159 29:0.374916 51:0.510313 52:0.351658 53:0.313941 54:0.269021 56:0.763193 57:0.510974 111:0.201034 114:0.33311 126:0.325449 128:0.2 129:0.259155 151:0.63013 152:0.392271 153:0.353951 154:0.288446 156:0.847346 157:0.474394 211:0.181068 214:0.788656 226:0.18299 228:0.378407 229:0.842036 251:0.406346 252:0.419721 253:0.402541 254:0.249004 256:0.614235 257:0.272621 311:0.117264 314:0.145172 326:0.288324 328:0.0734086 329:0.129944 351:0.820358 352:0.768334 353:0.407062 354:0.8492 356:0.181102 357:0.430752 411:0.596895 414:0.375557 426:0.391037 428:0.317035 429:0.698165 451:0.621128 452:0.512998 453:0.430644 454:0.403854 456:0.405071 457:0.808318 
0.05652847586576381 11:0.306818 14:0.326806 26:0.336142 28:0.151597 29:0.256237 51:0.611786 52:0.343935 53:0.318417 54:0.249264 56:0.847625 57:0.474394 111:0.145319 114:0.750502 126:0.224307 128:0.422018 129:0.894366 151:0.3953 152:0.415371 153:0.420661 154:0.249004 156:0.628421 157:0.278783 211:0.105118 214:0.145172 226:0.230241 228:0.0749476 229:0.121613 251:0.833964 252:0.790794 253:0.43229 254:0.888446 256:0.155021 257:0.429126 311:0.589577 314:0.379473 326:0.371724 328:0.26078 329:0.686441 351:0.624756 352:0.501908 353:0.415816 354:0.359101 356:0.394016 357:0.824876 411:0.26606 414:0.385742 426:0.335677 428:0.233964 429:0.298436 451:0.40752 452:0.323007 453:0.269568 454:0.256531 456:0.931664 457:0.280151 
0.09084424357963188 11:0.228084 14:0.748143 26:0.231676 28:0.348132 29:0.864464 51:0.365193 52:0.368242 53:0.389329 54:0.20765 56:0.628628 57:0.278783 111:0.066054 114:0.113043 126:0.269168 128:0.0678899 129:0.126761 151:0.811294 152:0.782599 153:0.451749 154:0.888446 156:0.162545 157:0.433962 211:0.58393 214:0.379473 226:0.320447 228:0.266247 229:0.642432 251:0.635118 252:0.516579 253:0.441587 254:0.375697 256:0.374716 257:0.830291 311:0.254072 314:0.390277 326:0.321684 328:0.179671 329:0.271186 351:0.413194 352:0.316024 353:0.260286 354:0.228104 356:0.930394 357:0.291873 411:0.169165 414:0.192234 426:0.623023 428:0.210305 429:0.248131 451:0.972605 452:0.917028 453:0.661831 454:0.874946 456:0.297774 457:0.442344 
0.07856071760698499 11:0.116071 14:0.104659 26:0.278012 28:0.0346508 29:0.129467 51:0.802026 52:0.754657 53:0.422375 54:0.882303 56:0.162599 57:0.433962 111:0.565767 114:0.345151 126:0.354812 128:0.291131 129:0.68169 151:0.617853 152:0.511226 153:0.461464 154:0.375697 156:0.385427 157:0.831729 211:0.243808 214:0.390277 226:0.266323 228:0.183438 229:0.2538 251:0.420047 252:0.325262 253:0.276418 254:0.238645 256:0.928177 257:0.287767 311:0.155809 314:0.18501 326:0.581414 328:0.156571 329:0.218927 351:0.972868 352:0.897202 353:0.639043 354:0.777989 356:0.284724 357:0.455551 411:0.262848 414:0.40993 426:0.297891 428:0.267087 429:0.304555 451:0.447628 452:0.354853 453:0.307041 454:0.266381 456:0.775201 457:0.395085 
0.05415589224297208 11:0.82224 14:0.33896 26:0.36647 28:0.232269 29:0.660823 51:0.598895 52:0.469105 53:0.432702 54:0.34132 56:0.385554 57:0.831729 111:0.210798 114:0.355853 126:0.303426 128:0.194495 129:0.267606 151:0.408629 152:0.321891 153:0.28886 154:0.238645 156:0.946917 157:0.293801 211:0.144194 214:0.18501 226:0.547251 228:0.159853 229:0.204891 251:0.989003 252:0.923429 253:0.678649 254:0.813944 256:0.261943 257:0.454369 311:0.250814 314:0.415935 326:0.28753 328:0.212012 329:0.277542 351:0.452917 352:0.347181 353:0.296469 354:0.236862 356:0.771024 357:0.40786 411:0.231263 414:0.826225 426:0.264499 428:0.430074 429:0.739633 451:0.437422 452:0.418544 453:0.384104 454:0.283084 456:0.62616 457:0.296408 
0.003816726013803952 11:0.099026 14:0.254558 26:0.171862 28:0.139686 29:0.596089 51:0.606262 52:0.728078 53:0.814114 54:0.354771 56:0.128628 57:0.301502 111:0.479035 114:0.31505 126:0.383361 128:0.242202 129:0.701408 151:0.513679 152:0.384931 153:0.357837 154:0.27012 156:0.582591 157:0.661918 211:0.512383 214:0.653612 226:0.180412 228:0.189203 229:0.26768 251:0.46097 252:0.291012 253:0.254106 254:0.204781 256:0.779006 257:0.543301 311:0.215527 314:0.604997 326:0.283558 328:0.151437 329:0.276836 351:0.325235 352:0.242476 353:0.196965 354:0.178599 356:0.880945 357:0.241892 411:0.229122 414:0.451941 426:0.499121 428:0.228181 429:0.530931 451:0.390331 452:0.29636 453:0.250831 454:0.230407 456:0.88961 457:0.320983 
0.0005451917800223632 11:0.699675 14:0.308575 26:0.395956 28:0.188955 29:0.679703 51:0.489503 52:0.336211 53:0.322547 54:0.229929 56:0.582784 57:0.661918 111:0.491097 114:0.616722 126:0.22186 128:0.201223 129:0.282394 151:0.448439 152:0.287997 153:0.265544 154:0.204781 156:0.795582 157:0.54717 211:0.204733 214:0.604997 226:0.225086 228:0.154612 229:0.259088 251:0.330629 252:0.249564 253:0.209173 254:0.186853 256:0.877153 257:0.236893 311:0.216612 314:0.4605 326:0.46942 328:0.174025 329:0.512712 351:0.39617 352:0.289953 353:0.242194 354:0.204874 356:0.887559 357:0.333079 411:0.208779 414:0.221515 426:0.262742 428:0.187171 429:0.184908 451:0.446016 452:0.358969 453:0.282563 454:0.309208 456:0.598949 457:0.885822 
0.02532452283777869 11:0.162338 14:0.100608 26:0.191238 28:0.110449 29:0.0997977 51:0.404788 52:0.337574 53:0.283305 54:0.28037 56:0.0936675 57:0.830574 111:0.430213 114:0.21204 126:0.71044 128:0.138838 129:0.202817 151:0.740617 152:0.525043 153:0.41386 154:0.459761 156:0.649522 157:0.564497 211:0.638415 214:0.333558 226:0.222509 228:0.171384 229:0.210178 251:0.409591 252:0.315663 253:0.26991 254:0.229482 256:0.79688 257:0.482718 311:0.188925 314:0.268737 326:0.574265 328:0.143224 329:0.237994 351:0.727789 352:0.811361 353:0.70499 354:0.5377 356:0.72315 357:0.362839 411:0.234475 414:0.39529 426:0.246924 428:0.249211 429:0.280082 451:0.353268 452:0.285962 453:0.253853 454:0.205567 456:0.778912 457:0.19811 
0.1 11:0.149351 14:0.126941 26:0.639427 28:0.0536004 29:0.132165 51:0.849171 52:0.545888 53:0.490534 54:0.412778 56:0.550792 57:0.45283 111:0.315336 114:0.090301 126:0.74062 128:0.0740061 129:0.114085 151:0.846896 152:0.668394 153:0.561528 154:0.542629 156:0.357402 157:0.626492 211:0.10732 214:0.652937 226:0.229381 228:0.292453 229:0.916061 251:0.361276 252:0.364092 253:0.37744 254:0.179681 256:0.59636 257:0.226408 311:0.337134 314:0.125591 326:0.868944 328:0.0780287 329:0.125 351:0.820004 352:0.721068 353:0.626204 354:0.478294 356:0.296378 357:0.495231 411:0.116167 414:0.65436 426:0.188049 428:0.255521 429:0.71448 451:0.690421 452:0.865685 453:0.735872 454:0.668522 456:0.21645 457:0.414745 
0.1 11:0.468344 14:0.0817016 26:0.764954 28:0.040065 29:0.11733 51:0.839411 52:0.634484 53:0.539071 54:0.517444 56:0.35752 57:0.626492 111:0.0683515 114:0.616054 126:0.268352 128:0.321713 129:0.973239 151:0.351456 152:0.36032 153:0.39443 154:0.179681 156:0.610287 157:0.232961 211:0.328013 214:0.125591 226:0.858247 228:0.0796646 229:0.116986 251:0.833604 252:0.742147 253:0.665014 254:0.500398 256:0.273968 257:0.494757 311:0.102063 314:0.675219 326:0.188245 328:0.200719 329:0.70339 351:0.693385 352:0.846969 353:0.710534 354:0.59444 356:0.20189 357:0.427699 411:0.156317 414:0.1655 426:0.731986 428:0.15878 429:0.424201 451:0.814145 452:0.546144 453:0.367483 454:0.558887 456:0.284787 457:0.72741 
0.1 11:0.119318 14:0.612424 26:0.277169 28:0.259339 29:0.939987 51:0.319153 52:0.310313 53:0.361446 54:0.13451 56:0.610488 57:0.232961 111:0.298679 114:0.0936455 126:0.865416 128:0.0733945 129:0.121831 151:0.810944 152:0.734456 153:0.694948 154:0.500398 156:0.283218 157:0.499037 211:0.0897083 214:0.675219 226:0.121993 228:0.204927 229:0.658295 251:0.704886 252:0.871728 253:0.754571 254:0.621912 256:0.176471 257:0.426019 311:0.14278 314:0.156651 326:0.679905 328:0.106263 329:0.401836 351:0.815925 352:0.534337 353:0.354829 354:0.496954 356:0.271496 357:0.743228 411:0.20182 414:0.569064 426:0.447276 428:0.185594 429:0.274643 451:0.367234 452:0.440858 453:0.436386 454:0.253105 456:0.82684 457:0.240076 
0.1 11:0.444805 14:0.0850777 26:0.89385 28:0.0395236 29:0.124747 51:0.801657 52:0.703998 53:0.680895 54:0.472888 56:0.283311 57:0.499037 111:0.0499713 114:0.638127 126:0.166395 128:0.219572 129:0.698592 151:0.685724 152:0.862694 153:0.788536 154:0.621912 156:0.184306 157:0.430882 211:0.130985 214:0.156651 226:0.65378 228:0.108491 229:0.376074 251:0.829457 252:0.549956 253:0.376821 254:0.51992 256:0.248294 257:0.747184 311:0.188925 314:0.58474 326:0.422558 328:0.132444 329:0.246469 351:0.373293 352:0.431327 353:0.42136 354:0.225057 356:0.823622 357:0.251431 411:0.146146 414:0.563335 426:0.543937 428:0.877497 429:0.917063 451:0.389973 452:0.515381 453:0.548202 454:0.24197 456:0.282931 457:0.212854 
0.03358630030625658 11:0.142045 14:0.997299 26:0.111205 28:0.289659 29:0.5118 51:0.178453 52:0.184234 53:0.198279 54:0.100462 56:0.40996 57:0.155564 111:0.140724 114:0.503679 126:0.707178 128:0.33945 129:0.870423 151:0.612417 152:0.569516 153:0.484132 154:0.455378 156:0.47148 157:0.461302 211:0.177766 214:0.837947 226:0.16323 228:0.259958 229:0.384666 251:0.472147 252:0.307592 253:0.284165 254:0.196414 256:0.693858 257:0.220971 311:0.107492 314:0.145847 326:0.274027 328:0.154004 329:0.225282 351:0.900869 352:0.841034 353:0.61745 354:0.705255 356:0.208504 357:0.395651 411:0.149893 414:0.187778 426:0.326011 428:0.233438 429:0.271924 451:0.963832 452:0.896664 453:0.747658 454:0.713062 456:0.278912 457:0.431002 
0.009647946586569417 11:0.221591 14:0.395679 26:0.426285 28:0.0324851 29:0.293324 51:0.473665 52:0.305089 53:0.256454 54:0.253047 56:0.929749 57:0.410089 111:0.445721 114:0.280936 126:0.326264 128:0.323547 129:0.0619718 151:0.498597 152:0.512953 153:0.532707 154:0.291235 156:0.35938 157:1 211:0.102367 214:0.579338 226:0.507732 228:0.206499 229:0.242564 251:0.481702 252:0.267016 253:0.249458 254:0.166932 256:0.855054 257:0.383301 311:0.371336 314:0.70898 326:0.378078 328:0.103696 329:0.418079 351:0.680085 352:0.58139 353:0.573388 354:0.296268 356:0.668031 357:0.562381 411:0.264454 414:0.280713 426:0.719684 428:0.245005 429:0.263086 451:0.777081 452:0.850953 453:0.786642 454:0.567452 456:0.533395 457:0.404537 
0.1 11:0.652597 14:0.274139 26:0.336984 28:0.260964 29:0.0674309 51:0.473665 52:0.470922 53:0.508434 54:0.252207 56:0.359499 57:1 111:0.0631821 114:0.543144 126:0.532626 128:0.221407 129:0.255634 151:0.468608 152:0.264249 153:0.260687 154:0.166932 156:0.872733 157:0.388525 211:0.362686 214:0.70898 226:0.32732 228:0.10587 229:0.391276 251:0.691365 252:0.598386 253:0.608925 254:0.30996 256:0.657459 257:0.563107 311:0.252443 314:0.278866 326:0.668785 328:0.190452 329:0.234463 351:0.779216 352:0.832556 353:0.759556 354:0.50457 356:0.524724 357:0.417398 426:0.0817223 451:0.691853 452:0.683709 453:0.276519 454:0.959743 456:0.0627706 457:0.147448 
0.09862101800362441 11:0.0641234 14:0.154625 26:0.348778 28:0.0189496 29:0.0788941 51:0.898158 52:0.701499 53:0.53494 54:0.64649 56:0.314644 57:0.339623 111:0.351522 114:0.359197 126:0.186786 128:0.291743 129:0.376761 151:0.643108 152:0.828368 153:0.852655 154:0.479681 156:0.307616 157:0.412014 211:0.119978 214:0.412559 226:0.290378 228:0.363732 229:0.550562 251:0.399495 252:0.499564 253:0.578556 254:0.168526 256:0.858629 257:0.253592 311:0.2557 314:0.457124 326:0.424146 328:0.569302 329:0.394774 351:0.783472 352:0.737813 353:0.5089 354:0.661462 356:0.649134 357:0.485692 411:0.134368 414:0.261617 426:0.146749 428:0.17245 429:0.288239 451:0.499731 452:0.207756 453:0.20006 454:0.127195 456:0.519171 457:0.101701 
0.03239171861477012 11:0.519481 14:0.35314 26:0.192923 28:0.23281 29:0.368847 51:0.625414 52:0.802817 53:0.848537 54:0.45103 56:0.307718 57:0.412014 111:0.0815623 114:0.377926 126:0.326264 128:0.404893 129:0.583803 151:0.388636 152:0.494387 153:0.604598 154:0.168526 156:0.87636 157:0.259915 211:0.24546 214:0.457124 226:0.377148 228:0.581237 229:0.369465 251:0.796467 252:0.75938 253:0.54044 254:0.692032 256:0.637959 257:0.485049 311:0.120521 314:0.258609 326:0.150913 328:0.11961 329:0.260593 351:0.504522 352:0.203264 353:0.193172 354:0.1131 356:0.510236 357:0.111789 411:0.120985 414:0.192871 426:0.572056 428:0.383281 429:0.459551 451:0.630439 452:0.700823 453:0.699607 454:0.394004 456:0.784168 457:0.330813 
0.05402197556481072 11:0.137987 14:0.372046 26:0.336984 28:0.332972 29:0.567094 51:0.358195 52:0.451386 53:0.584854 54:0.122741 56:0.876649 57:0.259915 111:0.212522 114:0.422074 126:0.408646 128:0.658716 129:0.390845 151:0.774816 152:0.751511 153:0.564767 154:0.692032 156:0.652489 157:0.489411 211:0.10842 214:0.258609 226:0.0816151 228:0.122117 229:0.243886 251:0.51289 252:0.209206 253:0.205144 254:0.118327 256:0.494638 257:0.104466 311:0.106949 314:0.185685 326:0.535346 328:0.325462 329:0.438559 351:0.633978 352:0.685672 353:0.675518 354:0.350343 356:0.780157 357:0.342999 411:0.0578158 414:0.0814768 426:0.144112 428:0.0983176 429:0.120326 451:0.579588 452:0.774697 453:0.848595 454:0.328908 456:0.26376 457:0.308129 
0.1 11:0.212662 14:0.399055 26:0.224094 28:0.155929 29:0.426837 51:0.571639 52:0.393912 53:0.362478 54:0.287936 56:0.784631 57:0.259915 111:0.354394 114:0.430769 126:0.512235 128:0.2263 129:0.656338 151:0.693792 152:0.861615 153:0.895078 154:0.488845 156:0.56149 157:0.38506 211:0.0528343 214:0.10871 226:0.176976 228:0.112159 229:0.143424 251:0.832342 252:0.809773 253:0.494267 254:0.843426 256:0.124797 257:0.342524 311:0.161781 314:0.577313 326:0.610802 328:0.207906 329:0.675141 351:0.657918 352:0.750954 353:0.631164 354:0.525514 356:0.47811 357:0.484548 411:0.236617 414:0.366645 426:0.49297 428:0.177708 429:0.225697 451:0.654969 452:0.511049 453:0.344817 454:0.521627 456:0.509586 457:0.775803 
0.1 11:0.523539 14:0.425388 26:0.529065 28:0.174878 29:0.636548 51:0.678637 52:0.837801 53:0.893632 54:0.460698 56:0.561675 57:0.38506 111:0.0114877 114:0.0769231 126:0.218597 128:0.111315 129:0.15 151:0.809716 152:0.801382 153:0.516516 154:0.843426 156:0.131883 157:0.348094 211:0.150248 214:0.577313 226:0.579038 228:0.212264 229:0.631857 251:0.66883 252:0.772906 253:0.670282 254:0.549801 256:0.461488 257:0.483883 311:0.224213 314:0.37002 326:0.46386 328:0.124743 329:0.195621 351:0.658273 352:0.5 353:0.332944 354:0.463823 356:0.500472 357:0.792064 411:0.428266 414:0.280713 426:0.564148 428:0.201893 429:0.505099 451:0.649597 452:0.660312 453:0.56029 454:0.511349 456:0.760977 457:0.39811 
0.1 11:0.038961 14:0.0681972 26:0.225779 28:0.0730915 29:0.151719 51:0.800368 52:0.774421 53:0.491222 54:0.834805 56:0.131926 57:0.348094 111:0.113153 114:0.541137 126:0.600326 128:0.228135 129:0.670423 151:0.650649 152:0.764896 153:0.700453 154:0.549801 156:0.473459 157:0.488256 211:0.213539 214:0.37002 226:0.420103 228:0.127358 229:0.18308 251:0.669191 252:0.514616 253:0.353579 254:0.485259 256:0.484563 257:0.796893 311:0.418567 314:0.278866 326:0.528197 328:0.148357 329:0.485876 351:0.652953 352:0.646036 353:0.540998 354:0.454684 356:0.756535 357:0.410912 411:0.262313 414:0.188415 426:0.420914 428:0.17613 429:0.201224 451:0.50564 452:0.417894 453:0.335751 454:0.350321 456:0.348176 457:0.824197 
0.1 11:0.18263 14:0.536799 26:0.620051 28:0.176502 29:0.650034 51:0.633333 52:0.736029 53:0.686747 54:0.525011 56:0.473615 57:0.488256 111:0.179207 114:0.335786 126:0.449429 128:0.129052 129:0.192254 151:0.651 152:0.509283 153:0.369495 154:0.485259 156:0.496868 157:0.798614 211:0.410567 214:0.278866 226:0.489691 228:0.151468 229:0.454726 251:0.663782 252:0.664921 253:0.574527 254:0.475697 256:0.748781 257:0.408932 311:0.250271 314:0.180959 326:0.398729 328:0.123203 329:0.170198 351:0.510374 352:0.40886 353:0.32419 354:0.3115 356:0.336063 357:0.8409 411:0.444325 414:0.22979 426:0.327768 428:0.190326 429:0.35826 451:0.758281 452:0.833406 453:0.788154 454:0.530621 456:0.324366 457:0.695274 
0.1 11:0.275974 14:0.329507 26:0.464195 28:0.0887926 29:0.192178 51:0.633702 52:0.46706 53:0.33494 54:0.456915 56:0.497032 57:0.798614 111:0.384836 114:0.245485 126:0.515498 128:0.157187 129:0.48169 151:0.645738 152:0.658031 153:0.600389 154:0.475697 156:0.764919 157:0.413939 211:0.239956 214:0.180959 226:0.349656 228:0.125786 229:0.159286 251:0.518839 252:0.420812 253:0.344283 254:0.325896 256:0.314917 257:0.846602 311:0.434853 314:0.224848 326:0.314535 328:0.137064 329:0.333333 351:0.760596 352:0.815388 353:0.761015 354:0.47182 356:0.311811 357:0.710797 411:0.228051 414:0.190961 426:0.393673 428:0.202944 429:0.201224 451:0.659445 452:0.498484 453:0.388637 454:0.43469 456:0.233766 457:1 
0.1 11:0.370942 14:0.207968 26:0.656276 28:0.139686 29:0.245448 51:0.770902 52:0.556792 53:0.480207 54:0.445565 56:0.371372 57:0.883712 111:0.691557 114:0.232776 126:0.739804 128:0.212232 129:0.247183 151:0.637496 152:0.507556 153:0.439119 154:0.396414 156:0.461259 157:0.693107 211:0.280132 214:0.376097 226:0.344502 228:0.178197 229:0.278916 251:0.494502 252:0.380672 253:0.315153 254:0.29004 256:0.867078 257:0.388738 311:0.267644 314:0.284267 326:0.75139 328:0.169918 329:0.268362 351:0.789502 352:0.583934 353:0.456084 354:0.453922 356:0.59748 357:0.561999 411:0.269272 414:0.256525 426:0.900703 428:0.241851 429:0.288919 451:0.835094 452:0.72162 453:0.502267 454:0.714775 456:0.447743 457:0.559168 
0.1 11:1 14:0.225523 26:0.764111 28:0.162426 29:0.244774 51:0.619521 52:0.465243 53:0.40895 54:0.363178 56:0.461412 57:0.693107 111:0.248708 114:0.341806 126:0.377651 128:0.188379 129:0.294366 151:0.481059 152:0.376727 153:0.329339 154:0.29004 156:0.884932 157:0.393916 211:0.257567 214:0.284267 226:0.7311 228:0.17348 229:0.251157 251:0.802596 252:0.601003 253:0.484351 254:0.4749 256:0.58466 257:0.562718 311:0.257329 314:0.253207 326:0.832407 328:0.187372 329:0.261299 351:0.836673 352:0.706019 353:0.484972 354:0.635567 356:0.43748 357:0.573445 411:0.195396 414:0.68746 426:0.336555 428:0.341746 429:0.461591 451:0.86034 452:0.719887 453:0.596253 454:0.578158 456:0.410637 457:0.442344 
0.1 11:0.374188 14:0.335584 26:0.390059 28:0.14131 29:0.289953 51:0.455249 52:0.327578 53:0.292255 54:0.250946 56:0.885224 57:0.393916 111:0.225158 114:0.250836 126:0.744698 128:0.182875 129:0.264789 151:0.780779 152:0.594775 153:0.506153 154:0.4749 156:0.598417 157:0.566423 211:0.247111 214:0.253207 226:0.818729 228:0.1913 229:0.244547 251:0.85055 252:0.726658 253:0.515029 254:0.66494 256:0.419565 257:0.574369 311:0.18241 314:0.710331 326:0.322478 328:0.284908 329:0.440678 351:0.861678 352:0.704324 353:0.575722 354:0.51409 356:0.399685 357:0.455551 411:0.162741 414:0.224698 426:0.338313 428:0.230284 429:0.288919 451:0.839391 452:0.882366 453:0.866123 454:0.516916 456:0.31107 457:0.438941 
0.1 11:0.340909 14:0.243754 26:0.769166 28:0.136437 29:0.261632 51:0.769982 52:0.55702 53:0.480207 54:0.445986 56:0.598615 57:0.566423 111:0.214245 114:0.220067 126:0.827896 128:0.20367 129:0.257746 151:0.827429 152:0.719128 153:0.538212 154:0.66494 156:0.430926 157:0.577975 211:0.171161 214:0.710331 226:0.267182 228:0.290881 229:0.412426 251:0.875969 252:0.724913 253:0.611404 254:0.537849 256:0.380565 257:0.454369 311:0.149294 314:0.219446 326:0.324067 328:0.176078 329:0.261299 351:0.840929 352:0.86329 353:0.8363 354:0.459634 356:0.298268 357:0.452118 411:0.284797 414:0.401018 426:0.388401 428:0.26919 429:0.331747 451:0.615577 452:0.426993 453:0.367785 454:0.322912 456:0.829314 457:0.375047 
0.1 11:0.325487 14:0.212694 26:0.855097 28:0.154846 29:0.254889 51:0.818969 52:0.687869 53:0.514286 54:0.64649 56:0.431069 57:0.577975 111:0.13498 114:0.67291 126:0.304241 128:0.319878 129:0.43662 151:0.852157 152:0.717401 153:0.638925 154:0.537849 156:0.391362 157:0.458991 211:0.137589 214:0.219446 226:0.2689 228:0.179769 229:0.244547 251:0.854877 252:0.888525 253:0.888131 254:0.480876 256:0.275918 257:0.450874 311:0.273073 314:0.406482 326:0.369341 328:0.214066 329:0.305791 351:0.619259 352:0.417762 353:0.355121 354:0.287129 356:0.826142 357:0.387638 411:0.31424 414:0.280713 426:0.824253 428:0.251314 429:0.309313 451:0.827037 452:0.636049 453:0.504684 454:0.542184 456:0.452999 457:0.753119 
0.01248534224152476 11:0.0527597 14:0.621877 26:0.0471778 28:0.708175 29:0.973028 51:0.143646 52:0.183553 53:0.243029 54:0.0445565 56:0.458773 57:0.090104 111:0.0321654 114:0.349164 126:0.19168 128:0.426911 129:0.276761 151:0.700807 152:0.698187 153:0.831282 154:0.265737 156:0.639301 157:0.425491 211:0.197028 214:0.336935 226:0.411512 228:0.0712788 229:0.238599 251:0.743285 252:0.711387 253:0.583204 254:0.549402 256:0.656484 257:0.335534 314:0.0128292 326:0.130262 328:0.00308008 329:0.0204802 351:0.722114 352:0.764307 353:0.286256 354:0.999619 356:0.00440945 357:0.199161 411:0.336724 414:0.193507 426:0.702109 428:0.103049 429:0.148878 451:0.23402 452:0.170494 453:0.129042 454:0.154176 456:0.815708 457:0.358412 
0.05002601021471187 11:0.441558 14:0.189061 26:0.78433 28:0.0476448 29:0.218476 51:0.709761 52:0.637438 53:0.540448 54:0.521227 56:0.551781 57:0.474394 111:0.181505 114:0.620736 126:0.643556 128:0.511315 129:0.540845 151:0.604525 152:0.760147 153:0.853951 154:0.352191 156:0.585889 157:0.349634 211:0.320308 214:0.2316 226:0.296392 228:0.0780922 229:0.143424 251:0.364521 252:0.326134 253:0.175705 254:0.369721 256:0.862853 257:0.340583 311:0.489685 314:0.872384 326:0.166005 328:0.457392 329:0.728814 351:0.324526 352:0.32217 353:0.312226 354:0.171363 356:0.419213 357:0.618466 411:0.266595 414:0.116486 426:0.688928 428:0.120925 429:0.232495 451:0.895255 452:0.936525 453:0.647023 454:0.934475 456:0.205009 457:0.504348 
0.0480530916103464 11:0.279221 14:0.617151 26:0.664701 28:0.427179 29:0.525961 51:0.584899 52:0.731031 53:0.849914 54:0.31652 56:0.586082 57:0.349634 111:0.290638 114:0.198662 126:0.331974 128:0.0715596 129:0.15 151:0.354612 152:0.322755 153:0.183614 154:0.369721 156:0.880646 157:0.346169 211:0.482664 214:0.872384 226:0.0979381 228:0.466981 229:0.682089 251:0.329908 252:0.331588 253:0.331577 254:0.179283 256:0.400715 257:0.620194 311:0.254615 314:0.104659 326:0.640985 328:0.0693018 329:0.202684 351:0.896258 352:0.916278 353:0.624745 354:0.830922 356:0.190236 357:0.518123 411:0.114026 414:0.0961171 426:0.314587 428:0.14511 429:0.0734194 451:0.331603 452:0.32474 453:0.270777 454:0.258244 456:0.171305 457:0.759546 
0.06572607599030569 11:0.433442 14:0.191087 26:0.342881 28:0.0378993 29:0.151719 51:0.322468 52:0.270786 53:0.137349 54:0.335015 56:0.880937 57:0.346169 111:0.46008 114:0.833445 126:0.143556 128:0.525382 129:0.723944 151:0.32094 152:0.328152 153:0.346503 154:0.179283 156:0.411803 157:0.623412 211:0.244359 214:0.104659 226:0.611684 228:0.0707547 229:0.189689 251:0.911123 252:0.943063 253:0.663465 254:0.869323 256:0.164446 257:0.518058 311:0.0998914 314:0.083052 326:0.302621 328:0.0929158 329:0.0374294 351:0.338003 352:0.317719 353:0.261453 354:0.229627 356:0.155906 357:0.775658 411:0.234475 414:0.418205 426:0.55536 428:0.472135 429:0.452753 451:0.812534 452:0.788778 453:0.576307 454:0.742612 456:0.550093 457:0.420416 
0.1 11:0.186688 14:0.163403 26:0.351306 28:0.0817542 29:0.188132 51:0.895764 52:0.810768 53:0.511532 54:0.877259 56:0.248681 57:0.534078 111:0.165997 114:0.20602 126:0.428222 128:0.155352 129:0.262676 151:0.916696 152:0.768782 153:0.653821 154:0.614343 156:0.262117 157:0.616481 211:0.310402 214:0.395003 226:0.396907 228:0.198113 229:0.311302 251:0.570398 252:0.437827 253:0.363805 254:0.331873 256:0.833604 257:0.461748 311:0.168838 314:0.254558 326:0.351072 328:0.202772 329:0.295904 351:0.876751 352:0.860958 353:0.821126 354:0.475248 356:0.338268 357:0.483022 411:0.30621 414:0.437301 426:0.406854 428:0.263407 429:0.348063 451:0.502954 452:0.394064 453:0.32185 454:0.322912 456:0.87384 457:0.350851 
0.1 11:0.257305 14:0.198515 26:0.442291 28:0.112074 29:0.259609 51:0.912707 52:0.740118 53:0.637177 54:0.593106 56:0.262203 57:0.616481 111:0.280299 114:0.360535 126:0.427406 128:0.211621 129:0.328873 151:0.554893 152:0.43329 153:0.380181 154:0.331873 156:0.850973 157:0.466307 211:0.157402 214:0.254558 226:0.29811 228:0.207023 229:0.276933 251:0.891293 252:0.886126 253:0.872017 254:0.497211 256:0.317192 257:0.48233 311:0.294788 314:0.44497 326:0.386021 328:0.208419 329:0.32274 351:0.507714 352:0.385545 353:0.310767 354:0.287129 356:0.871496 357:0.36322 411:0.182013 414:0.257798 426:0.36819 428:0.257624 429:0.32223 451:0.87556 452:0.879983 453:0.850408 454:0.534475 456:0.35034 457:0.469565 
0.1 11:0.30276 14:0.516543 26:0.31845 28:0.13752 29:0.289278 51:0.422099 52:0.258519 53:0.238898 54:0.188314 56:0.837401 57:0.312283 111:0.213096 114:0.185284 126:0.928222 128:0.161468 129:0.208451 151:0.605051 152:0.483161 153:0.411917 154:0.384861 156:0.399275 157:0.67501 211:0.124381 214:0.164754 226:0.243986 228:0.102725 229:0.197621 251:0.819542 252:0.777487 253:0.607375 254:0.639044 256:0.124472 257:0.619029 311:0.251357 314:0.23025 326:0.448769 328:0.139117 329:0.214689 351:0.747828 352:0.525646 353:0.406186 354:0.414318 356:0.474961 357:0.850057 411:0.251071 414:0.207511 426:0.538664 428:0.202419 429:0.24881 451:0.876992 452:0.645364 453:0.54246 454:0.507066 456:0.295609 457:0.803781 
0.1 11:0.323864 14:0.177583 26:0.958719 28:0.117488 29:0.207687 51:0.585451 52:0.439573 53:0.380034 54:0.350988 56:0.399406 57:0.67501 111:0.0861574 114:0.132441 126:0.282219 128:0.100306 129:0.207746 151:0.797264 152:0.76943 153:0.634715 154:0.639044 156:0.131553 157:0.622256 211:0.241057 214:0.23025 226:0.40378 228:0.142034 229:0.200925 251:0.760231 252:0.541012 253:0.43136 254:0.433466 256:0.458239 257:0.855922 311:0.238871 314:0.201215 326:0.505163 328:0.148871 329:0.219633 351:0.87817 352:0.631412 353:0.523782 354:0.450876 356:0.28252 357:0.820298 411:0.267666 414:0.326544 426:0.363796 428:0.191377 429:0.280082 451:0.38872 452:0.306976 453:0.248111 454:0.255246 456:0.876005 457:0.310019 
0.1 11:0.144481 14:0.12424 26:0.291491 28:0.063346 29:0.207013 51:0.787293 52:0.7408 53:0.616867 54:0.619168 56:0.131596 57:0.622256 111:0.207926 114:0.197324 126:0.433931 128:0.146177 129:0.211268 151:0.739565 152:0.535406 153:0.450777 154:0.433466 156:0.470162 157:0.857143 211:0.228398 214:0.201215 226:0.464777 228:0.151992 229:0.205552 251:0.892735 252:0.649869 253:0.556244 254:0.471713 256:0.259669 257:0.825631 311:0.2557 314:0.327481 326:0.347101 328:0.13809 329:0.252119 351:0.394574 352:0.300339 353:0.239568 354:0.226961 356:0.873701 357:0.322014 411:0.224839 414:0.325907 426:0.467487 428:0.692955 429:0.315432 451:0.718532 452:0.642114 453:0.505289 454:0.553319 456:0.759122 457:0.444612 
0.1 11:0.316558 14:0.189737 26:0.448189 28:0.103952 29:0.210384 51:0.726703 52:0.494548 53:0.421343 54:0.40227 56:0.470317 57:0.857143 111:0.194716 114:0.168562 126:0.491843 128:0.157798 129:0.216197 151:0.868467 152:0.643135 153:0.581282 154:0.471713 156:0.268711 157:0.827108 211:0.24546 214:0.327481 226:0.293814 228:0.140985 229:0.235955 251:0.401118 252:0.309119 253:0.254416 254:0.23745 256:0.869678 257:0.318447 311:0.212269 314:0.326806 326:0.440826 328:0.627823 329:0.288842 351:0.721227 352:0.628232 353:0.48789 354:0.492003 356:0.754646 357:0.457841 411:0.270343 414:0.328453 426:0.36819 428:0.192955 429:0.282801 451:0.395345 452:0.311958 453:0.252342 454:0.259101 456:0.872294 457:0.316068 
0.05084375307613511 11:0.29789 14:0.160702 26:0.508003 28:0.114239 29:0.215105 51:0.862063 52:0.607905 53:0.560069 54:0.442623 56:0.268799 57:0.827108 111:0.212522 114:0.293645 126:0.329527 128:0.144954 129:0.248592 151:0.390214 152:0.305915 153:0.265868 154:0.23745 156:0.88757 157:0.32422 211:0.201431 214:0.326806 226:0.395189 228:0.640985 229:0.270324 251:0.733189 252:0.646597 253:0.518128 254:0.514741 256:0.746831 257:0.456699 311:0.258415 314:0.329507 326:0.351072 328:0.13963 329:0.254944 351:0.401135 352:0.305214 353:0.243653 354:0.230388 356:0.869921 357:0.328119 411:0.167024 414:0.191598 426:0.344464 428:0.210831 429:0.25153 451:0.921038 452:0.886265 453:0.789665 454:0.632976 456:0.264688 457:0.623062 
0.03422817503214373 11:0.0925325 14:0.179608 26:0.180286 28:0.0920411 29:0.37087 51:0.648435 52:0.860518 53:0.958692 54:0.423287 56:0.122361 57:0.350789 111:0.145893 114:0.656187 126:0.207993 128:0.198777 129:0.3 151:0.303578 152:0.229275 153:0.211788 154:0.16255 156:0.912628 157:0.175202 211:0.0555861 214:0.0938555 226:0.16323 228:0.0555556 229:0.0892267 251:0.821525 252:0.82788 253:0.398203 254:1 256:0.0867728 257:0.335922 311:0.218241 314:0.305199 326:0.285941 328:0.114476 329:0.209746 351:0.30094 352:0.230394 353:0.182375 354:0.175933 356:0.926299 357:0.230828 411:0.141863 414:0.572247 426:0.212654 428:0.364879 429:0.92862 451:0.639391 452:0.733752 453:0.577214 454:0.632548 456:0.401979 457:0.324386 
0.03702734336286099 11:0.228896 14:0.652937 26:0.214827 28:0.150514 29:0.295347 51:0.268877 52:0.172422 53:0.167298 54:0.116435 56:0.912929 57:0.175202 111:0.0143596 114:0.0622074 126:0.205546 128:0.0452599 129:0.0922535 151:0.799193 152:0.819301 153:0.416127 154:1 156:0.093307 157:0.341548 211:0.207485 214:0.305199 226:0.227663 228:0.116876 229:0.196299 251:0.305931 252:0.237129 253:0.193678 254:0.184064 256:0.923952 257:0.225631 311:0.128122 314:0.588116 326:0.210485 328:0.307495 329:0.925847 351:0.642844 352:0.717889 353:0.557339 354:0.562452 356:0.390866 357:0.336513 411:0.214668 414:0.363463 426:0.224956 428:0.218191 429:0.25017 451:0.290779 452:0.237218 453:0.20822 454:0.173876 456:0.871985 457:0.155388 
0.02734150809247132 11:0.0430195 14:0.0533423 26:0.2123 28:0.0146183 29:0.0964262 51:0.789319 52:0.793276 53:0.384509 54:1 56:0.0933377 57:0.341548 111:0.172889 114:0.271572 126:0.266721 128:0.11682 129:0.206338 151:0.297615 152:0.234672 153:0.202396 154:0.184064 156:0.942631 157:0.232191 211:0.116125 214:0.588116 226:0.146048 228:0.313941 229:0.86649 251:0.653506 252:0.738874 253:0.591881 254:0.588446 256:0.371466 257:0.333204 311:0.201954 314:0.366644 326:0.221604 328:0.164271 329:0.221045 351:0.29757 352:0.23209 353:0.20105 354:0.154608 356:0.869606 357:0.165967 411:0.18576 414:0.642266 426:0.728471 428:0.550473 429:0.734194 451:0.692927 452:0.605936 453:0.494711 454:0.496788 456:0.380952 457:0.496786 
0.02977773584001195 11:0.267045 14:0.264686 26:0.275484 28:0.0779643 29:0.205664 51:0.262615 52:0.178101 53:0.157315 54:0.139134 56:0.942942 57:0.232191 111:0.0775416 114:0.551839 126:0.189233 128:0.346789 129:0.920423 151:0.635742 152:0.731218 153:0.618523 154:0.588446 156:0.38213 157:0.338853 211:0.190974 214:0.366644 226:0.158076 228:0.167715 229:0.206874 251:0.302506 252:0.238874 253:0.213511 254:0.161753 256:0.865453 257:0.159612 311:0.172638 314:0.66239 326:0.676728 328:0.488706 329:0.72387 351:0.695868 352:0.592836 353:0.477677 354:0.441736 356:0.369449 357:0.510492 411:0.195396 414:0.273711 426:0.90949 428:0.240273 429:0.618627 451:0.659803 452:0.69974 453:0.63705 454:0.480514 456:0.329314 457:0.417013 
0.05874810922469853 11:0.253247 14:0.128292 26:0.392586 28:0.0757986 29:0.167903 51:0.830571 52:0.512494 53:0.392771 54:0.470366 56:0.225594 57:0.845976 111:0.16772 114:0.260201 126:0.353997 128:0.116208 129:0.198592 151:0.352333 152:0.244819 153:0.212759 154:0.19004 156:0.924497 157:0.301887 211:0.181618 214:0.241729 226:0.78866 228:0.158281 229:0.475876 251:0.675681 252:0.591841 253:0.562132 254:0.358167 256:0.486188 257:0.653592 311:0.218784 314:0.180284 326:1 328:0.12269 329:0.174435 351:0.580067 352:0.426876 353:0.329151 354:0.337395 356:0.349606 357:0.533384 411:0.174518 414:0.876512 426:0.174868 428:0.591483 429:0.632223 451:0.242972 452:0.251083 453:0.232699 454:0.166595 456:0.722944 457:0.158034 
0.0214957414679645 11:0.228896 14:0.201215 26:0.825611 28:0.120736 29:0.490897 51:0.640331 52:0.547478 53:0.566609 54:0.322825 56:0.498681 57:0.656527 111:0.173464 114:0.147826 126:1 128:0.126606 129:0.171127 151:0.573658 152:0.434801 153:0.365285 154:0.352988 156:0.338938 157:0.537543 211:0.149697 214:0.910871 226:0.109107 228:0.539832 229:0.578321 251:0.254372 252:0.252836 253:0.238612 254:0.15498 256:0.708807 257:0.16233 311:0.228556 314:0.301823 326:0.48054 328:0.126283 329:0.216808 351:0.364781 352:0.276388 353:0.220018 354:0.209444 356:0.900157 357:0.356353 411:0.21788 414:0.285805 426:0.29174 428:0.718191 429:0.2862 451:0.559355 452:0.404246 453:0.320036 454:0.34561 456:0.650278 457:0.805671 
0.006661262200608074 11:0.149351 14:0.349764 26:0.131424 28:0.0568489 29:0.142953 51:0.218048 52:0.13562 53:0.172117 54:0.0424548 56:0.993074 57:0.0677705 111:0.00631821 114:0.414716 126:0.24062 128:0.0984709 129:0.517606 151:0.719397 152:0.828152 153:0.807966 154:0.534263 156:0.492582 157:0.200616 211:0.334618 214:0.264011 226:0.140034 228:0.102201 229:0.126239 251:0.276906 252:0.22055 253:0.241711 254:0.0920319 256:0.853429 257:0.151456 311:0.362106 314:0.346388 326:0.350278 328:0.0780287 329:0.336864 351:0.546551 352:0.371132 353:0.297928 354:0.277989 356:0.790551 357:0.463182 411:0.276231 414:0.389561 426:0.413005 428:0.14511 429:0.167233 451:0.56419 452:0.425477 453:0.283469 454:0.4394 456:0.849722 457:0.462382 
0.03515838755396544 11:0.253247 14:0.515868 26:0.52738 28:0.134272 29:0.291976 51:0.477348 52:0.560881 53:0.648881 54:0.247163 56:0.830475 57:0.310743 111:0.185526 114:0.314381 126:0.268352 128:0.160856 129:0.230282 151:0.353911 152:0.279145 153:0.248705 154:0.209163 156:0.962413 157:0.32345 211:0.165658 214:0.176907 226:0.769759 228:0.134172 229:0.175149 251:0.853074 252:0.79712 253:0.461109 254:0.862948 256:0.281768 257:0.455534 311:0.264929 314:0.211344 326:0.349484 328:0.147331 329:0.204096 351:0.67707 352:0.498516 353:0.392472 354:0.383473 356:0.36 357:0.888211 411:0.264454 414:0.319542 426:0.834798 428:0.221346 429:0.274643 451:0.629902 452:0.435009 453:0.348746 454:0.365739 456:0.769635 457:0.483554 
0.1 11:0.284903 14:0.3079 26:0.277169 28:0.116946 29:0.228591 51:0.321731 52:0.224898 53:0.20654 54:0.165616 56:0.962731 57:0.32345 111:0.129236 114:0.144482 126:0.781403 128:0.137003 129:0.183803 151:0.829884 152:0.78886 153:0.481865 154:0.862948 156:0.291131 157:0.460146 211:0.254816 214:0.211344 226:0.296392 228:0.150419 229:0.191011 251:0.6883 252:0.513089 253:0.416796 254:0.401195 256:0.339617 257:0.894757 311:0.252443 314:0.320054 326:0.772836 328:0.167351 329:0.246469 351:0.633446 352:0.425604 353:0.336738 354:0.325209 356:0.765354 357:0.497138 411:0.25803 414:0.381286 426:0.320738 428:0.23817 429:0.292998 451:0.441898 452:0.32344 453:0.275612 454:0.248822 456:0.912801 457:0.27448 
0.1 11:0.375812 14:0.209993 26:0.395114 28:0.147807 29:0.242077 51:0.781952 52:0.528851 53:0.461618 54:0.416562 56:0.417876 57:0.783982 111:0.109707 114:0.191973 126:0.323817 128:0.177982 129:0.244366 151:0.949316 152:0.954879 153:0.822863 154:0.749801 156:0.283548 157:0.490566 211:0.193726 214:0.582714 226:0.237113 228:0.409329 229:0.801718 251:0.66234 252:0.743237 253:0.728231 254:0.421116 256:0.379266 257:0.415922 311:0.283931 314:0.47738 326:0.33201 328:0.25308 329:0.332627 351:0.520482 352:0.40017 353:0.344324 354:0.269612 356:0.806299 357:0.339565 411:0.345824 414:0.287078 426:0.456942 428:0.258149 429:0.305914 451:0.717457 452:0.582972 453:0.474464 454:0.480086 456:0.491651 457:0.865028 
0.1 11:0.17776 14:0.184335 26:0.334457 28:0.132106 29:0.242077 51:0.946961 52:0.935938 53:0.816867 54:0.736024 56:0.283641 57:0.490566 111:0.15853 114:0.546488 126:0.275693 128:0.458104 129:0.851408 151:0.644335 152:0.735535 153:0.76101 154:0.421116 156:0.390043 157:0.42087 211:0.274078 214:0.47738 226:0.277491 228:0.258386 229:0.311302 251:0.529115 252:0.411867 253:0.365665 254:0.282072 256:0.80013 257:0.336311 311:0.334962 314:0.285618 326:0.431295 328:0.203285 329:0.278955 351:0.720163 352:0.570369 353:0.458127 354:0.426885 356:0.482205 357:0.882106 411:0.23394 414:0.366645 426:0.351494 428:0.276025 429:0.331067 451:0.791764 452:0.761915 453:0.742823 454:0.453533 456:0.625541 457:0.409074 
0.03196396556364801 11:0.144481 14:0.515868 26:0.266217 28:0.452084 29:1 51:0.342541 52:0.346433 53:0.388985 54:0.167718 56:0.393799 57:0.200231 111:0.110856 114:0.248161 126:0.539152 128:0.131498 129:0.182394 151:0.750088 152:0.706822 153:0.665479 154:0.485657 156:0.673261 157:0.372353 211:0.18437 214:0.288994 226:0.188144 228:0.102201 229:0.172505 251:0.248603 252:0.193717 253:0.157732 254:0.150996 256:0.949301 257:0.171262 311:0.190554 314:0.234301 326:0.849881 328:0.126283 329:0.411017 351:0.60986 352:0.403349 353:0.293259 354:0.341965 356:0.691969 357:0.411293 411:0.135439 414:1 426:0.104569 428:0.352787 429:0.520734 451:0.216652 452:0.212305 453:0.200967 454:0.134904 456:0.42517 457:0.113422 
0.1 11:0.230519 14:0.218096 26:0.433024 28:0.10287 29:0.262306 51:0.759853 52:0.774875 53:0.793804 54:0.466162 56:0.635554 57:0.512129 111:0.0350373 114:0.105017 126:0.252855 128:0.137003 129:0.179577 151:0.849702 152:0.830095 153:0.556347 154:0.84741 156:0.172437 157:0.395841 211:0.126032 214:0.159352 226:0.465636 228:0.131551 229:0.183741 251:0.85037 252:0.913831 253:0.828014 254:0.604382 256:0.21677 257:0.486214 311:0.245385 314:0.329507 326:0.754567 328:0.174538 329:0.454096 351:0.494591 352:0.380882 353:0.305515 354:0.285605 356:0.810079 357:0.395269 411:0.278908 414:0.384468 426:0.367311 428:0.229758 429:0.307954 451:0.430439 452:0.338821 453:0.27803 454:0.275803 456:0.918986 457:0.312287 
0.03580706622052346 11:0.0194805 14:0.495611 26:0.389217 28:0.0546833 29:0.584626 51:0.858564 52:0.733757 53:0.821343 54:0.356452 56:0.340699 57:0.574509 111:0.530729 114:0.853512 126:0.110114 128:0.866055 129:0.798592 151:0.242897 152:0.188472 153:0.223122 154:0.0733068 156:0.305638 157:0.351174 211:0.110072 214:0.239703 226:0.241409 228:0.0414046 229:0.148711 251:0.165675 252:0.188918 253:0.220638 254:0.0613546 256:0.951576 257:0.135534 311:1 314:0.228224 326:0.110405 328:0.0559548 329:0.0176554 352:0.00296736 353:0.0032098 354:0.00114242 356:0.174173 357:0.131629 411:0.0406852 414:0.0401018 426:0.202988 428:0.0809674 429:0.14208 451:0.766338 452:0.813475 453:0.647023 454:0.691221 456:0.15739 457:0.470321 
0.04171780116221014 11:0.772727 14:0.852127 26:0.113732 28:0.741202 29:0.772758 51:0.205157 52:0.129487 53:0.179346 54:0.0222783 56:0.305739 57:0.351174 111:0.0712234 114:0.206689 126:0.279772 128:0.0287462 129:0.155634 151:0.161172 152:0.18696 153:0.23057 154:0.0613546 156:0.970656 157:0.142857 211:1 214:0.228224 226:0.0378007 228:0.0571279 229:0.0165235 252:0.0030541 253:0.00340874 254:0.00119522 256:0.147871 257:0.12466 311:0.0255157 314:0.0236327 326:0.201747 328:0.0302875 329:0.108757 351:0.768576 352:0.795888 353:0.624745 354:0.614623 356:0.141732 357:0.483785 411:0.267131 414:0.382559 426:0.176626 428:0.110936 429:0.336506 451:0.65282 452:0.77708 453:0.841342 454:0.343897 456:0.25201 457:0.287335 
0.04263141142089294 11:0.123377 14:0.19919 26:0.288964 29:0.157114 51:0.119337 52:0.127896 53:0.187263 54:0.00966793 56:0.970976 57:0.142857 111:1 114:0.195318 126:0.08646 128:0.0470948 129:0.0147887 152:0.00302245 153:0.00356218 154:0.00119522 156:0.155292 157:0.132075 211:0.0121079 214:0.0236327 226:0.136598 228:0.0309224 229:0.101785 251:0.781323 252:0.819154 253:0.663465 254:0.643028 256:0.114397 257:0.483107 311:0.255157 314:0.386901 326:0.177919 328:0.0595483 329:0.310734 351:0.656145 352:0.76028 353:0.812372 354:0.305788 356:0.23811 357:0.299122 411:0.0567452 414:0.0362826 426:0.311072 428:0.0678233 429:0.0700204 451:0.833662 452:0.683276 453:0.565125 454:0.549893 456:0.0751391 457:0.233648 
0.01993172295082287 11:0.149351 14:0.194463 26:0.136479 28:0.0514348 29:0.123399 51:0.261878 52:0.137892 53:0.149398 54:0.074401 56:0.921834 57:0.413169 111:0.317059 114:0.367893 126:0.143556 128:0.0672783 129:0.126056 151:0.819888 152:0.917098 153:0.830311 154:0.670916 156:0.515331 157:0.597228 211:0.124931 214:0.438893 226:0.0919244 228:0.0843816 229:0.291474 251:0.282134 252:0.183464 253:0.101023 254:0.205179 256:0.977576 257:0.0613592 311:0.564061 314:0.254558 326:0.644162 328:0.423511 329:0.0918079 351:0.841816 352:0.828953 353:0.524949 354:0.804265 356:0.111496 357:0.485311 411:0.160064 414:0.478039 426:0.142355 428:0.177182 429:0.204623 451:0.304029 452:0.161828 453:0.143246 454:0.116916 456:0.857452 457:0.14518 
0.02748162733515479 11:0.145292 14:0.398379 26:0.142376 28:0.0443963 29:0.302765 51:0.238306 52:0.122217 53:0.054389 54:0.161412 56:0.997361 57:0.0693107 111:0.538771 114:0.221405 126:0.634584 128:0.485015 129:0.0887324 151:0.832515 152:0.844344 153:0.582578 154:0.841434 156:0.0896802 157:0.489026 211:0.134838 214:0.488184 226:0.0773196 228:0.126834 229:0.162591 251:0.315846 252:0.162958 253:0.146886 254:0.108765 256:0.850179 257:0.149126 311:0.509229 314:0.149223 326:0.637014 328:0.0949692 329:0.372881 351:0.808654 352:0.770242 353:0.562299 354:0.650038 356:0.273701 357:0.614651 411:0.137045 414:0.110757 426:0.369947 428:0.15142 429:0.114208 451:0.640107 452:0.4987 453:0.297371 454:0.564454 456:0.126778 457:0.887335 
0.1 11:0.784091 14:0.214045 26:0.655434 28:0.403898 29:0.0930546 51:0.824309 52:0.819627 53:0.561446 54:0.832703 56:0.0897098 57:0.489026 111:0.0970706 114:0.452843 126:0.12398 128:0.12844 129:0.170423 151:0.307261 152:0.161269 153:0.153497 154:0.108765 156:0.867788 157:0.156334 211:0.502477 214:0.149223 226:0.607388 228:0.0969602 229:0.348976 251:0.822066 252:0.792757 253:0.597149 254:0.68008 256:0.250569 257:0.616311 311:0.123236 314:0.098582 326:0.352661 328:0.099076 329:0.0798023 351:0.643554 352:0.487919 353:0.287132 354:0.501904 356:0.110551 357:0.904617 411:0.153105 414:0.183323 426:0.641476 428:0.175079 429:0.454113 451:0.862131 452:0.766898 453:0.514053 454:0.78758 456:0.316017 457:0.551229 
0.1 11:0.159903 14:0.44767 26:0.128054 28:0.0882512 29:0.171274 51:0.272744 52:0.100863 53:0.105336 54:0.0596889 56:0.868074 57:0.156334 111:0.480758 114:0.117057 126:0.627243 128:0.093578 129:0.369014 151:0.799719 152:0.784542 153:0.624028 154:0.68008 156:0.259479 157:0.619561 211:0.111172 214:0.098582 226:0.299828 228:0.101153 229:0.0746861 251:0.654228 252:0.502182 253:0.304927 254:0.5251 256:0.0822229 257:0.911456 311:0.139522 314:0.175557 326:0.598094 328:0.122177 329:0.43291 351:0.863451 352:0.750318 353:0.496352 354:0.700305 356:0.303307 357:0.565433 411:0.182013 414:0.162954 426:0.31283 428:0.146688 429:0.182189 451:0.859445 452:0.781846 453:0.59595 454:0.701071 456:0.358071 457:0.789414 
0.01170827463711715 11:0.570617 14:0.463876 26:0.192081 28:0.165674 29:0.706676 51:0.695212 52:0.768969 53:0.88537 54:0.343422 56:0.328826 57:0.469773 111:0.12981 114:0.283612 126:0.176998 128:0.129052 129:0.177465 151:0.221677 152:0.178972 153:0.165155 154:0.127092 156:0.972964 157:0.122449 211:0.1541 214:0.259284 226:0.454467 228:0.11478 229:0.155321 251:0.689562 252:0.541012 253:0.345212 254:0.544223 256:0.850829 257:0.363883 311:0.17481 314:0.336259 326:0.177919 328:0.143737 329:0.187853 351:0.231069 352:0.183128 353:0.162825 354:0.116527 356:0.831811 357:0.1095 411:0.108137 414:0.0700191 426:0.324253 428:0.0925342 429:0.0910945 451:0.574217 452:0.338172 453:0.249924 454:0.314347 456:0.147805 457:0.31569 
0.007297001007266551 11:0.188312 14:0.218771 26:0.497894 28:0.0757986 29:0.163857 51:0.654512 52:0.494548 53:0.325645 54:0.519126 56:0.868734 57:0.369272 111:0.126939 114:0.302341 126:0.155791 128:0.151682 129:0.184507 151:0.228516 152:0.186528 153:0.180699 154:0.121912 156:0.843719 157:0.109742 211:0.0814529 214:0.055368 226:0.255155 228:0.0424528 229:0.0522141 251:0.587885 252:0.340532 253:0.256275 254:0.29243 256:0.104322 257:0.324272 311:0.179696 314:0.533423 326:0.378078 328:0.11653 329:0.215395 351:0.427203 352:0.403985 353:0.27546 354:0.366337 356:0.880945 357:0.199542 411:0.210921 414:0.290261 426:0.44464 428:0.15878 429:0.216859 451:0.265175 452:0.212088 453:0.170142 454:0.178158 456:0.952999 457:0.189792 
0.01079793967492194 11:0.0592532 14:0.26131 26:0.394271 28:0.0471034 29:0.15644 51:0.782873 52:0.8796 53:0.987608 54:0.423287 56:0.44723 57:0.283404 111:0.112579 114:0.546488 126:0.226754 128:0.138838 129:0.209859 151:0.237987 152:0.161701 153:0.151231 154:0.112351 156:0.950874 157:0.103966 211:0.111723 214:0.509115 226:0.363402 228:0.152516 229:0.555188 251:0.777177 252:0.766798 253:0.669662 254:0.539442 256:0.688008 257:0.39534 311:0.298046 314:0.884537 326:0.178713 328:0.62269 329:0.620763 351:0.394396 352:0.262399 353:0.200759 354:0.209444 356:0.672756 357:0.297215 411:0.0744111 414:0.111394 426:0.252197 428:0.128286 429:0.161795 451:0.717099 452:0.84662 453:0.908129 454:0.386724 456:0.308905 457:0.237429 
0.03554372911652963 11:0.181818 14:0.542201 26:0.234204 28:0.0974553 29:0.209036 51:0.2 52:0.101318 53:0.102926 54:0.063472 56:0.951187 57:0.103966 111:0.0729466 114:0.473579 126:0.395595 128:0.15841 129:0.588732 151:0.756051 152:0.758851 153:0.699806 154:0.539442 156:0.703264 157:0.400462 211:0.288387 214:0.884537 226:0.111684 228:0.635744 229:0.580965 251:0.400937 252:0.27007 253:0.213201 254:0.219124 256:0.662333 257:0.293204 311:0.0597177 314:0.0992573 326:0.246227 328:0.0764887 329:0.129237 351:0.719808 352:0.828317 353:0.87686 354:0.343869 356:0.296063 357:0.24876 411:0.132227 414:0.107575 426:0.596661 428:0.128812 429:0.14276 451:0.848165 452:0.80221 453:0.622242 454:0.704069 456:0.194496 457:0.785633 
0.03826079129116816 11:0.222403 14:0.604321 26:0.218197 28:0.537629 29:0.908968 51:0.380479 52:0.380282 53:0.40241 54:0.213955 56:0.490106 57:0.442819 111:0.570936 114:0.210033 126:0.309135 128:0.163303 129:0.201408 151:0.559277 152:0.517919 153:0.49579 154:0.345817 156:0.489944 157:0.783211 211:0.237755 214:0.322755 226:0.280928 228:0.13522 229:0.228024 251:0.381467 252:0.294066 253:0.241711 254:0.226295 256:0.881053 257:0.299806 311:0.17861 314:0.421337 326:0.218427 328:0.957906 329:0.480226 351:0.413549 352:0.317931 353:0.266706 354:0.223153 356:0.245039 357:0.439145 411:0.139722 414:0.170592 426:0.326011 428:0.187171 429:0.246091 451:0.92641 452:0.912478 453:0.66304 454:0.86424 456:0.220161 457:0.515312 
0.1 11:0.351461 14:0.318704 26:0.653749 28:0.139686 29:0.269724 51:0.50221 52:0.357565 53:0.313941 54:0.27995 56:0.855871 57:0.42241 111:0.214245 114:0.195987 126:0.401305 128:0.180428 129:0.239437 151:0.830761 152:0.758204 153:0.641839 154:0.609562 156:0.345203 157:0.843281 211:0.279031 214:0.259284 226:0.864261 228:0.186583 229:0.237938 251:0.70777 252:0.553229 253:0.449954 254:0.431873 256:0.446539 257:0.710291 311:0.192182 314:0.850101 326:0.240667 328:0.410164 329:0.894774 351:0.438908 352:0.447859 353:0.416107 354:0.261615 356:0.468031 357:0.30599 411:0.330835 414:0.390197 426:0.469244 428:0.24816 429:0.3569 451:0.555774 452:0.433925 453:0.354186 454:0.355889 456:0.84261 457:0.448771 
0.1 11:0.325487 14:0.188386 26:0.41449 28:0.134272 29:0.237357 51:0.822468 52:0.728987 53:0.624441 54:0.588062 56:0.345317 57:0.843281 111:0.247559 114:0.226087 126:0.871126 128:0.198165 129:0.250704 151:0.68853 152:0.547496 153:0.470207 154:0.431873 156:0.458292 157:0.712745 211:0.181068 214:0.850101 226:0.178694 228:0.418763 229:0.837409 251:0.446187 252:0.460951 253:0.441896 254:0.273705 256:0.451089 257:0.302136 311:0.319761 314:0.395003 326:0.442415 328:0.193532 329:0.331921 351:0.560028 352:0.424544 353:0.34199 354:0.316451 356:0.839685 357:0.462037 411:0.326552 414:0.285805 426:0.605448 428:0.252892 429:0.32155 451:0.89239 452:0.696274 453:0.551224 454:0.595289 456:0.38992 457:0.844234 
0.1 11:0.372565 14:0.218771 26:0.899747 28:0.149973 29:0.248146 51:0.673112 52:0.507269 53:0.441997 54:0.400588 56:0.458443 57:0.712745 111:0.145319 114:0.811371 126:0.220228 128:0.469113 129:0.889437 151:0.434058 152:0.456174 153:0.461788 154:0.273705 156:0.462908 157:0.308048 211:0.310402 214:0.395003 226:0.396907 228:0.197589 229:0.310641 251:0.569317 252:0.436955 253:0.363186 254:0.331076 256:0.834579 257:0.460971 311:0.315418 314:0.284267 326:0.565528 328:0.198152 329:0.295198 351:0.893421 352:0.681221 353:0.532244 354:0.529322 356:0.378583 357:0.861122 411:0.326552 414:0.285805 426:0.605448 428:0.252892 429:0.32155 451:0.89239 452:0.696274 453:0.551224 454:0.595289 456:0.38992 457:0.844234 
0.1 11:0.228084 14:0.809588 26:0.227464 28:0.389821 29:0.859744 51:0.405893 52:0.411177 53:0.433046 54:0.233712 56:0.463061 57:0.308048 111:0.280299 114:0.360535 126:0.427406 128:0.211009 129:0.328169 151:0.553841 152:0.432427 153:0.379534 154:0.331076 156:0.851962 157:0.465537 211:0.305999 214:0.284267 226:0.530069 228:0.202306 229:0.276272 251:0.908239 252:0.701134 253:0.565231 254:0.553785 256:0.358791 257:0.867184 311:0.315418 314:0.284267 326:0.565528 328:0.198152 329:0.295198 351:0.893421 352:0.681221 353:0.532244 354:0.529322 356:0.378583 357:0.861122 411:0.204497 414:0.364099 426:0.313708 428:0.276551 429:0.57036 451:0.776723 452:0.873267 453:0.825325 454:0.556745 456:0.299629 457:0.466541 
0.05533509798316378 11:0.208604 14:0.20054 26:0.255265 28:0.16026 29:0.231288 51:0.805157 52:0.753521 53:0.810327 54:0.406473 56:0.39215 57:0.3866 111:0.138426 114:0.183278 126:0.968189 128:0.112538 129:0.148592 151:0.444405 152:0.329447 153:0.278497 154:0.265339 156:0.584899 157:0.339238 211:0.174463 214:0.26266 226:0.252577 228:0.0838574 229:0.155321 251:0.222643 252:0.173211 253:0.138519 254:0.138247 256:0.915827 257:0.159612 311:0.137351 314:0.0945307 326:0.173948 328:0.0939425 329:0.0614407 351:0.366732 352:0.302035 353:0.227604 354:0.245621 356:0.115276 357:0.943915 411:0.34636 414:0.311903 426:0.553603 428:0.743954 429:0.595513 451:0.427216 452:0.438475 453:0.430946 454:0.256103 456:0.529066 457:0.765595 
0.04366544438035857 11:0.218344 14:0.175557 26:1 28:0.0741743 29:0.150371 51:0.416759 52:0.277828 53:0.23821 54:0.224884 56:0.585092 57:0.339238 111:0.138426 114:0.229431 126:0.290375 128:0.0782875 129:0.162676 151:0.216591 152:0.171416 153:0.144754 154:0.138247 156:0.934388 157:0.166731 211:0.125482 214:0.0945307 226:0.106529 228:0.0959119 229:0.0575017 251:0.372814 252:0.310864 253:0.241711 254:0.256972 256:0.0870978 257:0.951456 311:0.335505 314:0.311951 326:0.518666 328:0.677618 329:0.579802 351:0.432701 352:0.428995 353:0.416107 354:0.227723 356:0.520315 357:0.781763 411:0.116167 414:0.0916614 426:0.130931 428:0.147213 429:0.0707002 451:0.300627 452:0.286612 453:0.215171 454:0.26167 456:0.0556586 457:0.804915 
0.04199643751024654 11:0.218344 14:0.222147 26:0.299916 28:0.0438549 29:0.163857 51:0.177532 52:0.11154 53:0.0960413 54:0.0907945 56:0.934697 57:0.166731 111:0.0873061 114:0.0628763 126:0.151713 128:0.0923547 129:0.0584507 151:0.36268 152:0.307642 153:0.252591 154:0.256972 156:0.0936367 157:0.951868 211:0.326362 214:0.311951 226:0.479381 228:0.691824 229:0.542631 251:0.439877 252:0.441536 253:0.441896 254:0.238247 256:0.505037 257:0.786408 311:0.102063 314:0.0783255 326:0.136616 328:0.0949692 329:0.0346045 351:0.307324 352:0.280415 353:0.207762 354:0.232673 356:0.0381102 357:0.821442 411:0.18469 414:0.241884 426:0.615114 428:0.152997 429:0.316791 451:0.624888 452:0.479636 453:0.415533 454:0.359315 456:0.844156 457:0.310775 
0.05449285064084709 11:0.146104 14:0.0540176 26:0.156698 28:0.0563075 29:0.0640593 51:0.330939 52:0.254884 53:0.210671 54:0.216057 56:0.0936675 57:0.951868 111:0.296956 114:0.278261 126:0.50571 128:0.787768 129:0.575352 151:0.42792 152:0.43696 153:0.461788 154:0.238247 156:0.517639 157:0.788217 211:0.0897083 214:0.0783255 226:0.0661512 228:0.0969602 229:0.032386 251:0.312421 252:0.288613 253:0.220638 254:0.243426 256:0.00747481 257:0.826796 311:0.171553 314:0.237677 326:0.574265 328:0.100616 329:0.290254 351:0.62848 352:0.469267 353:0.401226 354:0.319497 356:0.84126 357:0.322778 411:0.195931 414:0.339911 426:0.235501 428:0.143007 429:0.205303 451:0.203581 452:0.167244 453:0.132668 454:0.142612 456:0.941868 457:0.141399 
0.06615369569776378 11:0.44237 14:0.271438 26:0.522325 28:0.6719 29:0.559002 51:0.399448 52:0.390959 53:0.433046 54:0.196301 56:0.51781 57:0.788217 111:0.0499713 114:0.0468227 126:0.113377 128:0.093578 129:0.0316901 151:0.303928 152:0.285622 153:0.23057 154:0.243426 156:0.0128586 157:0.828263 211:0.160154 214:0.237677 226:0.539519 228:0.102725 229:0.271646 251:0.638904 252:0.482984 253:0.426092 254:0.334263 256:0.836204 257:0.319223 311:0.182953 314:0.341661 326:0.231136 328:0.0908624 329:0.174435 351:0.211208 352:0.163629 353:0.1281 354:0.126809 356:0.940787 357:0.15185 411:0.171842 414:0.154679 426:0.823374 428:0.148265 429:0.208022 451:0.723187 452:0.688258 453:0.634935 454:0.460814 456:0.399814 457:0.615879 
0.05242931545620719 11:0.453734 14:0.334234 26:0.207245 28:0.00703844 29:0.171949 51:0.0810313 54:0.00168138 56:0.989446 57:0.245283 111:0.348076 114:0.207358 126:0.187602 128:0.0299694 129:0.326761 151:0.637846 152:0.823834 153:1 154:0.29004 156:0.353445 157:0.243743 211:0.3071 214:0.577313 226:0.248282 228:0.305556 229:0.207535 251:0.300343 252:0.234729 253:0.200186 254:0.171315 256:0.955476 257:0.0524272 311:0.0461455 314:0.480081 328:1 329:0.550847 351:0.0196843 352:0.0578635 353:0.0755763 354:0.0053313 356:0.103937 411:0.210385 414:0.0235519 426:0.346221 428:0.0320715 429:0.129164 451:0.85658 452:0.82604 453:0.556361 454:0.84454 457:0.437429 
0.02940129117255382 11:0.107143 14:0.0546928 26:0.217355 28:0.0427721 29:0.0896831 51:0.78674 52:0.652204 53:0.324269 54:0.812526 56:0.0814644 57:0.866384 111:0.142447 114:0.438796 126:0.353181 128:0.147401 129:0.455634 151:0.404069 152:0.271589 153:0.238342 154:0.207968 156:0.844708 157:0.616481 211:0.16896 214:0.187711 226:0.332474 228:0.112683 229:0.146728 251:0.683072 252:0.678229 253:0.637434 254:0.419124 256:0.541436 257:0.641942 311:0.201412 314:0.276165 326:0.262113 328:0.0954825 329:0.184322 351:0.259443 352:0.199449 353:0.156405 354:0.154227 356:0.915906 357:0.23884 411:0.190043 414:0.520687 426:0.188049 428:0.799159 429:0.641061 451:0.263384 452:0.25065 453:0.233303 454:0.164882 456:0.778293 457:0.152741 
0.00856275901084684 11:0.224026 14:0.433491 26:0.364785 28:0.105035 29:0.44437 51:0.374401 52:0.216947 53:0.195525 54:0.164355 56:0.844987 57:0.616481 111:0.132682 114:0.155184 126:0.366232 128:0.111927 129:0.153521 151:0.664504 152:0.6712 153:0.666127 154:0.419124 156:0.554566 157:0.644975 211:0.190424 214:0.276165 226:0.20189 228:0.0974843 229:0.172505 251:0.263746 252:0.205279 253:0.166099 254:0.161355 256:0.913227 257:0.233786 311:0.176982 314:0.533423 326:0.188245 328:0.73152 329:0.627119 351:0.270438 352:0.245231 353:0.22527 354:0.146611 356:0.774173 357:0.163296 411:0.12152 414:0.161044 426:0.397188 428:0.172976 429:0.211421 451:0.844047 452:0.914645 453:0.785736 454:0.694647 456:0.358998 457:0.334216 
0.1 11:0.0657468 14:0.0742741 26:0.232519 28:0.0373579 29:0.124747 51:0.889319 52:0.911858 53:0.601721 54:0.954182 56:0.12467 57:0.364652 111:0.196439 114:0.249498 126:0.303426 128:0.121713 129:0.216901 151:0.37215 152:0.294473 153:0.254534 154:0.230279 156:0.804484 157:0.443974 211:0.116676 214:0.191087 226:0.361684 228:0.120021 229:0.354263 251:0.835046 252:0.892234 253:0.615432 254:0.838247 256:0.371141 257:0.433398 311:0.162866 314:0.499662 326:0.386021 328:0.147331 329:0.276836 351:0.855826 352:0.808605 353:0.809454 354:0.39642 356:0.449134 357:0.581076 411:0.229122 414:0.343094 426:0.275923 428:0.195058 429:0.25085 451:0.305461 452:0.245667 453:0.202478 454:0.198715 456:0.951763 457:0.197732 
0.1 11:0.300325 14:0.242404 26:0.313395 28:0.0822956 29:0.215779 51:0.340884 52:0.241027 53:0.212737 54:0.187894 56:0.804749 57:0.443974 111:0.078116 114:0.158528 126:0.393964 128:0.120489 129:0.374648 151:0.812347 152:0.882988 153:0.643135 154:0.838247 156:0.3818 157:0.438198 211:0.151348 214:0.499662 226:0.335911 228:0.150419 229:0.259088 251:0.87002 252:0.832243 253:0.859622 254:0.414741 256:0.431589 257:0.582136 311:0.216612 314:0.345037 326:0.267673 328:0.141684 329:0.221751 351:0.312112 352:0.240356 353:0.195506 354:0.176695 356:0.950866 357:0.208699 411:0.153105 414:0.164227 426:0.614236 428:0.192955 429:0.221618 451:0.921755 452:0.809359 453:0.627078 454:0.711349 456:0.342301 457:0.460113 
0.1 11:0.133117 14:0.150574 26:0.406908 28:0.0812128 29:0.366824 51:0.803131 52:0.860291 53:0.625818 54:0.82934 56:0.381926 57:0.438198 111:0.114302 114:0.464214 126:0.369494 128:0.155963 129:0.273239 151:0.84637 152:0.823618 153:0.898316 154:0.414741 156:0.443126 157:0.585676 211:0.205834 214:0.345037 226:0.207904 228:0.144654 229:0.207535 251:0.317289 252:0.247382 253:0.207623 254:0.184861 256:0.949301 257:0.203107 311:0.139522 314:0.1553 326:0.573471 328:0.13963 329:0.191384 351:0.922504 352:0.791861 353:0.605486 354:0.632521 356:0.330079 357:0.473483 411:0.183084 414:0.252069 426:0.288225 428:0.180862 429:0.234534 451:0.604476 452:0.703856 453:0.699003 454:0.400857 456:0.742424 457:0.327788 
0.03353005001285776 11:0.263799 14:0.205267 26:0.866891 28:0.129399 29:0.476062 51:0.623941 52:0.553158 53:0.552151 54:0.350988 56:0.406992 57:0.6469 111:0.124641 114:0.907692 126:0.170473 128:0.319266 129:0.473239 151:0.271484 152:0.262306 153:0.25421 154:0.171315 156:0.724036 157:0.193685 211:0.152449 214:0.60027 226:0.378007 228:0.370545 229:0.941176 251:0.487651 252:0.449825 253:0.424543 254:0.275697 256:0.308092 257:0.44233 311:0.165038 314:0.174207 326:0.29865 328:0.120637 329:0.194915 351:0.87551 352:0.863501 353:0.758389 354:0.561691 356:0.258583 357:0.794735 411:0.218951 414:0.39147 426:0.22935 428:0.256572 429:0.522094 451:0.320501 452:0.275347 453:0.24932 454:0.191006 456:0.817254 457:0.175425 
0.03555593941868013 11:0.198864 14:0.90682 26:0.176074 28:0.257174 29:0.461227 51:0.235175 52:0.207179 53:0.212392 54:0.125683 56:0.724274 57:0.193685 111:0.115451 114:0.56388 126:0.409462 128:0.412844 129:1 151:0.474395 152:0.445164 153:0.443653 154:0.275697 156:0.317837 157:0.447054 211:0.15355 214:0.174207 226:0.241409 228:0.123166 229:0.182419 251:0.890031 252:0.888743 253:0.805392 254:0.587649 256:0.234969 257:0.799612 311:0.206298 314:0.396354 326:0.225576 328:0.201745 329:0.503531 351:0.327008 352:0.269394 353:0.240735 354:0.16984 356:0.813858 357:0.186188 411:0.171306 414:0.232973 426:0.640598 428:0.202944 429:0.506458 451:0.914056 452:0.820624 453:0.569356 454:0.815418 456:0.40569 457:0.510397 
0.03321181772949707 11:0.185877 14:0.559757 26:0.422915 28:0.340011 29:0.96561 51:0.44825 52:0.399591 53:0.413769 54:0.235813 56:0.317942 57:0.447054 111:0.1166 114:0.141806 126:0.279772 128:0.124159 129:0.191549 151:0.865837 152:0.879534 153:0.841645 154:0.587649 156:0.243653 157:0.801309 211:0.195377 214:0.396354 226:0.162371 228:0.205975 229:0.471249 251:0.332432 252:0.277269 253:0.255655 254:0.177689 256:0.80793 257:0.180194 311:0.15798 314:0.228224 326:0.597299 328:0.149384 329:0.487288 351:0.914879 352:0.802883 353:0.549752 354:0.725057 356:0.394646 357:0.524227 411:0.232869 414:0.471674 426:0.448155 428:0.211882 429:0.288919 451:0.436885 452:0.420061 453:0.407978 454:0.252248 456:0.880025 457:0.404159 
0.08396738520339833 11:0.1875 14:0.133693 26:0.288964 28:0.0844613 29:0.191504 51:0.8593 52:0.856656 53:0.836833 54:0.564943 56:0.243734 57:0.801309 111:0.160253 114:0.361873 126:0.204731 128:0.220795 129:0.499296 151:0.323395 152:0.274396 153:0.267163 154:0.177689 156:0.824926 157:0.187139 211:0.146395 214:0.228224 226:0.564433 228:0.152516 229:0.456048 251:0.930052 252:0.826353 253:0.583824 254:0.758566 256:0.375366 257:0.524272 311:0.220413 314:0.481431 326:0.423352 328:0.158111 329:0.261299 351:0.442277 352:0.410979 353:0.393931 354:0.224296 356:0.877795 357:0.417016 411:0.214668 414:0.179504 426:0.811072 428:0.166667 429:0.203943 451:0.795703 452:0.713821 453:0.507102 454:0.692505 456:0.299629 457:0.691115 
0.05561021345311148 11:0.249188 14:0.355841 26:0.211457 28:0.170005 29:0.486177 51:0.289687 52:0.2199 53:0.226162 54:0.132409 56:0.825198 57:0.187139 111:0.109133 114:0.195318 126:0.58646 128:0.15841 129:0.483099 151:0.90477 152:0.817789 153:0.610104 154:0.758566 156:0.386086 157:0.528302 211:0.209686 214:0.481431 226:0.376289 228:0.161426 229:0.244547 251:0.449612 252:0.422993 253:0.418345 254:0.234661 256:0.873903 257:0.415146 311:0.201954 314:0.171506 326:0.75139 328:0.113963 329:0.173023 351:0.797659 352:0.698389 353:0.489641 354:0.615765 356:0.286614 357:0.706601 411:0.130621 414:0.274984 426:0.192443 428:0.20347 429:0.474507 451:0.576723 452:0.793111 453:0.797824 454:0.437259 456:0.170996 457:0.308507 
0.08261206763947267 11:0.131494 14:0.133018 26:0.310025 28:0.093124 29:0.188132 51:0.912339 52:0.86915 53:0.531842 54:0.960488 56:0.21471 57:0.474008 111:0.151637 114:0.802007 126:0.185155 128:0.996942 129:0.576761 151:0.363206 152:0.348877 153:0.336464 154:0.22988 156:0.42664 157:0.284559 211:0.244909 214:0.705604 226:0.256873 228:0.271488 229:0.391276 251:0.457004 252:0.370201 253:0.327859 254:0.254582 256:0.812155 257:0.316117 311:0.165581 314:0.271438 326:0.331215 328:0.186858 329:0.251412 351:0.968789 352:0.807758 353:0.526992 354:0.763519 356:0.427087 357:0.454407 411:0.251071 414:0.413749 426:0.719684 428:0.347003 429:0.723997 451:0.757744 452:0.715555 453:0.649139 454:0.494647 456:0.40167 457:0.620038 
0.05695999401129952 11:0.237013 14:0.800135 26:0.191238 28:0.857066 29:0.560351 51:0.331492 52:0.298274 53:0.299828 54:0.187474 56:0.426781 57:0.284559 111:0.211947 114:0.668227 126:0.294454 128:0.297248 129:0.414085 151:0.444581 152:0.366364 153:0.342617 154:0.254582 156:0.829212 157:0.32191 211:0.1541 214:0.271438 226:0.276632 228:0.190776 229:0.235294 251:0.984857 252:0.83137 253:0.559653 254:0.798805 256:0.40884 257:0.453204 311:0.238871 314:0.419986 326:0.668785 328:0.290041 329:0.713277 351:0.760064 352:0.700085 353:0.626787 354:0.439832 356:0.390551 357:0.634872 411:0.273019 414:0.234246 426:0.72935 428:0.215563 429:0.263086 451:0.870188 452:0.585355 453:0.459958 454:0.505353 456:0.370439 457:0.722873 
0.1 11:0.32224 14:0.665091 26:0.304128 28:0.237683 29:0.404585 51:0.416943 52:0.316674 53:0.306368 54:0.213535 56:0.829485 57:0.32191 111:0.117174 114:0.238127 126:0.313214 128:0.203058 129:0.247887 151:0.958085 152:0.822755 153:0.584845 154:0.798805 156:0.420046 157:0.457836 211:0.228398 214:0.419986 226:0.641753 228:0.296122 229:0.667548 251:0.77267 252:0.72055 253:0.665634 254:0.460159 256:0.371141 257:0.636893 311:0.261129 314:0.229575 326:0.677522 328:0.161704 329:0.234463 351:0.871431 352:0.5727 353:0.44412 354:0.449353 356:0.35874 357:0.738649 411:0.162741 414:0.195417 426:0.367311 428:0.221872 429:0.268525 451:1 452:0.846837 453:0.594137 454:0.83212 456:0.272109 457:0.486578 
0.1 11:0.188312 14:0.230925 26:0.323505 28:0.154304 29:0.245448 51:0.956169 52:0.79691 53:0.563855 54:0.787726 56:0.420185 57:0.457836 111:0.194716 114:0.385284 126:0.659869 128:0.325994 129:0.708451 151:0.751666 152:0.713083 153:0.695596 154:0.460159 156:0.3818 157:0.639969 211:0.250963 214:0.229575 226:0.651203 228:0.165094 229:0.219432 251:0.885884 252:0.589442 253:0.471645 254:0.47012 256:0.338317 257:0.742524 311:0.149294 314:0.188386 326:0.350278 328:0.167864 329:0.240113 351:1 352:0.828529 353:0.57368 354:0.739909 356:0.258583 357:0.500191 411:0.281585 414:0.390197 426:0.372583 428:0.228707 429:0.310673 451:0.433303 452:0.340338 453:0.276519 454:0.280942 456:0.900742 457:0.311531 
0.04001721575945727 11:0.121753 14:0.363943 26:0.330244 28:0.0449377 29:0.240054 51:0.588029 52:0.647433 53:0.727022 54:0.311896 56:0.828166 57:0.278783 111:0.10741 114:0.199331 126:0.283034 128:0.0678899 129:0.132394 151:0.385303 152:0.235535 153:0.171308 154:0.223904 156:0.960765 157:0.301117 211:0.152449 214:0.136394 226:0.345361 228:0.0801887 229:0.193655 251:0.662881 252:0.537522 253:0.490239 254:0.351394 256:0.453364 257:0.965049 311:0.164495 314:0.343011 326:0.567911 328:0.229466 329:0.149718 351:0.543004 352:0.398898 353:0.355996 354:0.252094 356:0.79874 357:0.620374 411:0.294968 414:0.413749 426:0.601054 428:0.146688 429:0.17879 451:0.694718 452:0.536612 453:0.333031 454:0.588865 456:0.531849 457:0.69603 
0.1 11:0.174513 14:0.191762 26:0.292334 28:0.0346508 29:0.134862 51:0.354696 52:0.17901 53:0.124269 54:0.181169 56:0.961082 57:0.301117 111:0.115451 114:0.104348 126:0.378467 128:0.0740061 129:0.203521 151:0.644861 152:0.531952 153:0.512306 154:0.351394 156:0.465216 157:0.965345 211:0.152999 214:0.343011 226:0.532646 228:0.234277 229:0.140119 251:0.55201 252:0.410558 253:0.37806 254:0.263745 256:0.79233 257:0.622136 311:0.283388 314:0.419986 326:0.561557 328:0.0944559 329:0.146893 351:0.697641 352:0.525011 353:0.321564 354:0.52361 356:0.52315 357:0.71156 411:0.289615 414:0.322724 426:0.318981 428:0.133018 429:0.170632 451:0.794808 452:0.828206 453:0.775461 454:0.53833 456:0.540816 457:0.556522 
0.04198340341859976 11:0.103084 14:0.101283 26:0.57877 28:0.284245 29:0.24882 51:0.784715 52:0.725352 53:0.815146 54:0.348466 56:0.222625 57:0.433577 111:0.0901781 114:0.341137 126:0.143556 128:0.0623853 129:0.128873 151:0.214662 152:0.102332 153:0.0900259 154:0.0780876 156:0.993736 157:0.105121 211:0.0627408 214:0.0607698 226:0.113402 228:0.256813 229:0.218771 251:0.411574 252:0.334642 253:0.308646 254:0.214343 257:0.913786 311:0.0960912 314:0.940581 326:0.0754567 328:0.62423 329:0.400424 351:0.193297 352:0.115091 353:0.112927 354:0.0594059 356:0.659843 357:0.079359 411:0.201285 414:0.119669 426:0.297891 428:0.116193 429:0.124405 451:0.340197 452:0.290728 453:0.229677 454:0.249251 456:0.30334 457:0.760681 
0.04036612850810376 11:0.150162 14:0.334909 26:0.148273 28:0.029778 29:0.13149 51:0.175506 52:0.038846 53:0.0378657 54:0.0273224 56:0.994063 57:0.105121 111:0.0218265 114:0.0294314 126:0.158238 128:0.280122 129:0.230282 151:0.400386 152:0.331174 153:0.322539 154:0.214343 156:0.0052753 157:0.914517 211:0.0836544 214:0.940581 228:0.637317 229:0.374752 251:0.196503 252:0.118455 253:0.119926 254:0.0621514 256:0.649009 257:0.0714563 311:0.188382 314:0.108035 326:0.28753 328:0.0646817 329:0.0903955 351:0.346515 352:0.284443 353:0.221768 354:0.22163 356:0.290394 357:0.776803 411:0.116702 414:0.0700191 426:0.644991 428:0.0788644 429:0.0883753 451:0.785497 452:0.454289 453:0.31097 454:0.457388 456:0.209338 457:0.596975 
0.1 11:0.290584 14:0.18366 26:0.283067 28:0.0774228 29:0.174646 51:0.398711 52:0.29691 53:0.261274 54:0.23203 56:0.698879 57:0.717366 111:0.0861574 114:0.151839 126:0.50571 128:0.138226 129:0.199296 151:0.797439 152:0.831606 153:0.897668 154:0.430279 156:0.312232 157:0.396226 211:0.273528 214:0.232275 226:0.408076 228:0.164046 229:0.218771 251:0.767081 252:0.570681 253:0.4608 254:0.449801 256:0.337992 257:0.947184 311:0.616178 314:0.19919 326:0.275616 328:0.183778 329:0.158192 351:0.52332 352:0.435354 353:0.337905 354:0.341203 356:0.23874 357:0.839756 411:0.188972 414:0.230426 426:0.363796 428:0.212934 429:0.274643 451:0.845658 452:0.887132 453:0.714717 454:0.740899 456:0.49598 457:0.463138 
0.1 11:0.144481 14:0.143822 26:0.522325 28:0.0969139 29:0.198921 51:0.787477 52:0.806224 53:0.896386 54:0.398907 56:0.312335 57:0.396226 111:0.241815 114:0.199331 126:0.43801 128:0.171865 129:0.230282 151:0.746229 152:0.564767 153:0.481541 154:0.449801 156:0.34817 157:0.947632 211:0.610897 214:0.19919 226:0.216495 228:0.187631 229:0.14805 251:0.531999 252:0.44808 253:0.358847 254:0.356972 256:0.214495 257:0.845437 311:0.175896 314:0.225523 326:0.347101 328:0.159138 329:0.246469 351:0.847136 352:0.867953 353:0.690108 354:0.658797 356:0.486614 357:0.476536 411:0.253212 414:0.281349 426:0.640598 428:0.242902 429:0.304555 451:0.857654 452:0.719671 453:0.524328 454:0.679657 456:0.634818 457:0.486957 
0.06742326580801897 11:0.491883 14:0.10871 26:0.277169 28:0.0330265 29:0.108564 51:0.566851 52:0.24398 53:0.204819 54:0.203026 56:0.581464 57:0.793993 111:0.368754 114:0.411371 126:0.575041 128:0.127829 129:0.477465 151:0.625044 152:0.436097 153:0.38763 154:0.327888 156:0.577316 157:0.705044 211:0.127683 214:0.588791 226:0.491409 228:0.324423 229:0.889623 251:0.433748 252:0.368892 253:0.336845 254:0.240637 256:0.421514 257:0.622524 311:0.115635 314:0.0756246 326:0.18745 328:0.0528747 329:0.0607345 351:0.579181 352:0.357143 353:0.228188 354:0.343869 356:0.286614 357:0.719573 411:0.278373 414:0.381286 426:0.731986 428:0.165615 429:0.340585 451:0.460877 452:0.382582 453:0.387126 454:0.207709 456:0.880025 457:0.230624 
0.04498704378525922 11:0.232955 14:0.478055 26:0.187026 28:0.936654 29:0.705327 51:0.334622 52:0.328941 53:0.342169 54:0.192518 56:0.312005 57:0.286869 111:0.226307 114:0.359197 126:0.33279 128:0.196942 129:0.280986 151:0.439144 152:0.34456 153:0.306023 154:0.259363 156:0.933729 157:0.330766 211:0.247661 214:0.428089 226:0.253436 228:0.213312 229:0.270985 251:0.444925 252:0.345768 253:0.300899 254:0.244622 256:0.880728 257:0.28 311:0.224756 314:0.280891 326:0.361398 328:0.209446 329:0.260593 351:0.902642 352:0.805214 353:0.487598 354:0.810358 356:0.36252 357:0.540252 411:0.284797 414:0.251432 426:0.536907 428:0.247634 429:0.303875 451:0.938406 452:0.707972 453:0.566939 454:0.596146 456:0.352505 457:0.790926 
0.1 11:0.342532 14:0.35314 26:0.343724 28:0.14889 29:0.277141 51:0.411234 52:0.29373 53:0.26747 54:0.218579 56:0.934037 57:0.330766 111:0.214819 114:0.393311 126:0.291191 128:0.229358 129:0.285915 151:0.432831 152:0.342185 153:0.314443 154:0.244622 156:0.89878 157:0.286099 211:0.214089 214:0.280891 226:0.309278 228:0.213836 229:0.243886 251:0.917613 252:0.828752 253:0.517818 254:0.847809 256:0.342216 257:0.540583 311:0.273073 314:0.247806 326:0.503574 328:0.193018 329:0.276836 351:0.938996 352:0.692666 353:0.547418 354:0.530084 356:0.340472 357:0.807325 411:0.267666 414:0.357734 426:0.392794 428:0.248686 429:0.32155 451:0.681647 452:0.667894 453:0.615896 454:0.447537 456:0.769017 457:0.43327 
0.05539997250317291 11:0.438312 14:0.993248 26:0.0176917 28:0.186248 29:0.402562 51:0.200737 52:0.158337 53:0.230637 54:0.0130307 56:0.399736 57:0.127455 114:0.985284 128:0.287462 129:0.828169 151:0.0475272 152:0.173575 153:0.21794 154:0.0521912 156:0.257501 211:0.115025 214:0.537475 226:0.235395 228:0.131027 229:0.630535 251:0.237606 252:0.151832 253:0.139139 254:0.0984064 256:0.863503 257:0.394563 311:0.617807 314:0.0871033 326:0.335981 328:0.048768 329:0.065678 351:0.364958 352:0.260492 353:0.18646 354:0.224676 356:0.320945 357:0.84586 411:0.467345 414:0.138765 426:0.283831 428:0.0977918 429:0.125765 451:0.523903 452:0.727253 453:0.838018 454:0.250107 456:0.701608 457:0.291115 
0.05643612689128384 11:0.0227273 14:0.985145 28:0.22902 29:0.801079 52:0.113812 53:0.173838 56:0.257586 111:0.0763929 114:0.501672 126:0.274062 128:0.133333 129:0.669014 151:0.231147 152:0.150259 153:0.145402 154:0.0984064 156:0.881306 157:0.399692 211:0.612548 214:0.0871033 226:0.281787 228:0.0497904 229:0.0614673 251:0.371011 252:0.268106 253:0.198017 254:0.23506 256:0.299318 257:0.85165 311:0.458198 314:0.128292 326:0.274821 328:0.0467146 329:0.0918079 351:0.528462 352:0.71153 353:0.809163 354:0.222391 356:0.696063 357:0.302938 411:0.125803 414:0.752387 426:0.0826011 428:0.192955 429:0.263766 451:0.145031 452:0.092721 453:0.0927773 454:0.0518201 456:0.812307 
0.03129815171476695 11:0.130682 14:0.496962 26:0.283067 28:0.0925826 29:0.648685 51:0.192818 52:0.0892776 53:0.0967298 54:0.04876 56:0.881596 57:0.399692 111:0.595635 114:0.0555184 126:0.318108 128:0.0385321 129:0.0626761 151:0.360926 152:0.265328 153:0.20693 154:0.23506 156:0.308935 157:0.852907 211:0.450743 214:0.128292 226:0.215636 228:0.0476939 229:0.085922 251:0.537227 252:0.73233 253:0.859312 254:0.232669 256:0.686383 257:0.299029 311:0.111835 314:0.779203 326:0.0929309 328:0.13963 329:0.235169 351:0.153219 352:0.0907164 353:0.0895827 354:0.0460777 356:0.808819 357:0.00915681 411:0.0653105 414:0.208148 426:0.443761 428:0.100946 429:0.128484 451:0.710474 452:0.885615 453:0.837111 454:0.564454 456:0.55102 457:0.189792 
0.07005462660338137 11:0.864448 14:0.0465901 26:0.328559 28:0.0086627 29:0.0681052 51:0.329098 52:0.210359 53:0.162134 54:0.192938 56:0.309037 57:0.852907 111:0.426766 114:0.0963211 126:0.255302 128:0.0360856 129:0.0887324 151:0.522624 152:0.724741 153:0.897992 154:0.232669 156:0.701616 157:0.304967 211:0.0996147 214:0.779203 226:0.0189003 228:0.142558 229:0.220093 251:0.15576 252:0.0933682 253:0.0951348 254:0.0482072 256:0.80273 311:0.0504886 314:0.201891 326:0.41938 328:0.0497947 329:0.0946328 351:0.713247 352:0.866469 353:0.808287 354:0.501904 356:0.542677 357:0.200687 411:0.0315846 414:0.0490134 426:0.130931 428:0.0856993 429:0.10741 451:0.560967 452:0.787262 453:0.862496 454:0.334047 456:0.0714286 457:0.181853 
0.04754018649019821 11:0.155032 14:0.458474 26:0.261163 28:0.0671359 29:0.319622 51:0.157459 52:0.0620173 53:0.0643718 54:0.037831 56:0.962401 57:0.0685406 111:0.63297 114:0.574582 126:0.0701468 128:0.90948 129:0.898592 151:0.350228 152:0.431131 153:0.462759 154:0.226295 156:0.328717 157:0.105891 211:0.140892 214:0.465226 226:0.291237 228:0.118973 229:0.432254 251:0.235443 252:0.15685 253:0.138519 254:0.108367 256:0.956451 257:0.158835 311:0.0814332 314:0.0310601 326:0.16521 328:0.0241273 329:0.0310734 351:0.582905 352:0.291861 353:0.211263 354:0.248667 356:0.0992126 357:0.44525 411:0.175054 414:0.266709 426:0.190685 428:0.136698 429:0.17879 451:0.158639 452:0.133882 453:0.110003 454:0.108779 456:1 457:0.0914934 
0.04211726977166727 11:0.917208 14:0.57056 26:0.0724516 28:0.779643 29:0.86851 51:0.317864 52:0.384825 53:0.434079 54:0.183691 56:0.328826 57:0.105891 111:0.103389 114:0.4301 126:0.32708 128:0.119266 129:0.457746 151:0.229042 152:0.155225 153:0.144754 154:0.108367 156:0.975602 157:0.165961 211:0.0687947 214:0.0310601 226:0.097079 228:0.0246331 229:0.0290813 251:0.592573 252:0.300393 253:0.224357 254:0.260159 256:0.0705232 257:0.443883 311:0.161781 314:0.264011 326:0.190627 328:0.0847023 329:0.146893 351:0.166696 352:0.130988 353:0.106215 354:0.0967251 356:1 357:0.101488 411:0.0888651 414:0.115213 426:0.275923 428:0.128286 429:0.150918 451:0.841719 452:0.845537 453:0.78906 454:0.553319 456:0.355906 457:0.39017 
0.05904460666934404 11:0.168831 14:0.424713 26:0.337826 28:0.0801299 29:0.446392 51:0.190608 52:0.0945025 53:0.0960413 54:0.0592686 56:0.975923 57:0.165961 111:0.0281447 126:0.142741 128:0.00917431 129:0.028169 151:0.576464 152:0.29728 153:0.234456 154:0.260159 156:0.0768216 157:0.448595 211:0.150248 214:0.264011 226:0.12457 228:0.086478 229:0.137475 251:0.169461 252:0.134817 253:0.112798 254:0.101195 256:1 257:0.0939806 311:0.0743757 314:0.103309 326:0.267673 328:0.0764887 329:0.117938 351:0.843235 352:0.827257 353:0.761891 354:0.492003 356:0.343937 357:0.4029 411:0.0926124 414:0.0922979 426:0.20826 428:0.117771 429:0.139361 451:0.796956 452:0.80286 453:0.721366 454:0.564882 456:0.153989 457:0.2862 
0.03908592073166579 11:0.221591 14:0.193788 26:0.236731 28:0.0308609 29:0.159137 51:0.173112 52:0.109041 53:0.0936317 54:0.0891131 56:0.827836 57:0.182903 111:0.411832 114:0.72107 126:0.528548 128:0.47156 129:0.684507 151:0.673448 152:0.49266 153:0.534003 154:0.252191 156:0.512694 157:0.51829 211:0.525041 214:0.171506 226:0.196735 228:0.103249 229:0.116986 251:0.515233 252:0.340969 253:0.273629 254:0.270916 256:0.407215 257:0.992621 311:0.323561 314:0.214045 326:0.739476 328:0.103696 329:0.264831 351:0.662529 352:0.589657 353:0.485848 354:0.425362 356:0.743622 357:0.52728 411:0.130086 414:0.960535 426:0.111599 428:0.319138 429:0.649898 451:0.194808 452:0.19844 453:0.18767 454:0.126338 456:0.588126 457:0.25293 
0.03146679858492322 11:0.604708 14:0.718433 26:0.545914 28:0.391987 29:0.66352 51:0.657274 52:0.449568 53:0.509811 54:0.211013 56:0.512863 57:0.51829 111:0.504308 114:0.13913 126:0.237357 128:0.100917 129:0.121831 151:0.501228 152:0.337435 153:0.285946 154:0.270916 156:0.418398 157:0.992684 211:0.314254 214:0.214045 226:0.718213 228:0.10587 229:0.247852 251:0.673517 252:0.606894 253:0.515959 254:0.44502 256:0.735457 257:0.527379 311:0.116178 314:1 326:0.119142 328:0.262834 329:0.636299 351:0.202518 352:0.19415 353:0.181208 354:0.112338 356:0.580472 357:0.264403 411:0.297645 414:0.129217 426:0.523726 428:0.513144 429:0.17743 451:0.97171 452:0.990901 453:0.767301 454:0.87152 456:0.288806 457:0.424953 
0.02309343906708526 11:0.73539 14:0.130993 26:0.245156 28:0.0638874 29:0.124747 51:0.476427 52:0.286234 53:0.246127 54:0.230769 56:0.418536 57:0.992684 111:0.284319 114:0.181271 126:0.732463 128:0.103976 129:0.261268 151:0.655209 152:0.600604 153:0.539184 154:0.44502 156:0.751401 157:0.531382 211:0.104018 214:1 226:0.0472509 228:0.268344 229:0.595506 251:0.205877 252:0.199825 253:0.192439 254:0.11753 256:0.567111 257:0.259806 311:0.286102 314:0.118163 326:0.49166 328:0.452259 329:0.14548 351:0.971981 352:0.969479 353:0.740881 354:0.774943 356:0.275591 357:0.438001 411:0.37045 414:0.31063 426:0.378735 428:0.152997 429:0.293678 451:0.307252 452:0.212088 453:0.171955 454:0.175589 456:0.919604 457:0.429112 
0.02980370379920167 11:0.602273 14:0.21472 26:0.489469 28:0.0319437 29:0.248146 51:0.419705 52:0.567242 53:0.674699 54:0.227406 56:0.318931 57:0.684636 111:0.235497 114:0.228763 126:0.241436 128:0.0819572 129:0.130282 151:0.260961 152:0.149396 153:0.135687 154:0.108765 156:0.940323 157:0.299576 211:0.377545 214:0.224173 226:0.142612 228:0.0639413 229:0.142102 251:0.197765 252:0.135253 253:0.10722 254:0.109163 256:0.931752 257:0.310291 311:0.18241 314:0.773126 326:0.133439 328:0.149384 329:0.281073 351:0.185849 352:0.124629 353:0.114386 354:0.0746382 356:0.88378 357:0.0820298 411:0.184154 414:0.0719287 426:0.433216 428:0.107781 429:0.120326 451:0.806088 452:0.905113 453:0.731037 454:0.753319 456:0.105751 457:0.590926 
0.009725957540606922 11:0.25974 14:0.311951 26:0.248526 28:0.114239 29:0.218476 51:0.319521 52:0.193776 53:0.181756 54:0.138293 56:0.951847 57:0.203697 111:0.131534 114:0.165886 126:0.78956 128:0.129664 129:0.180282 151:0.847247 152:0.688687 153:0.520725 154:0.630279 156:0.413452 157:0.431652 211:0.171712 214:0.700878 226:0.152921 228:0.628407 229:0.709187 251:0.399856 252:0.316972 253:0.300899 254:0.192032 256:0.733507 257:0.200388 311:0.12215 314:0.15395 326:0.297061 328:0.13809 329:0.206921 351:0.833304 352:0.871768 353:0.729209 354:0.614623 356:0.234016 357:0.431133 411:0.290685 414:0.252069 426:0.384886 428:0.253417 429:0.256968 451:0.654073 452:0.541161 453:0.433061 454:0.456103 456:0.383117 457:0.953497 
0.04073829497297296 11:0.0162338 14:0.0465901 26:0.170177 28:0.0487277 29:0.113958 51:0.682136 52:0.746706 53:0.461618 54:0.819672 56:0.0906992 57:0.275703 111:0.624354 114:0.156522 126:0.610114 128:0.106422 129:0.147183 151:0.613644 152:0.441926 153:0.441386 154:0.27251 156:0.590175 157:0.791683 211:0.314805 214:0.234301 226:0.19244 228:0.0854298 229:0.126239 251:0.288624 252:0.178447 253:0.145026 254:0.139442 256:0.909327 257:0.526602 311:0.394137 314:0.172856 326:0.562351 328:0.0795688 329:0.117232 351:0.391559 352:0.258584 353:0.199883 354:0.203732 356:0.688504 357:0.815338 411:0.327623 414:0.454488 426:0.318981 428:0.430599 429:0.348742 451:0.437601 452:0.566724 453:0.618616 454:0.243683 456:0.846011 457:0.185255 
0.02644153238882464 11:0.905032 14:0.148548 26:0.63016 28:0.0687602 29:0.149022 51:0.594475 52:0.396184 53:0.41136 54:0.232451 56:0.590369 57:0.791683 111:0.284894 114:0.201338 126:0.233279 128:0.0801223 129:0.13169 151:0.280779 152:0.176598 153:0.151554 154:0.139442 156:0.927794 157:0.530612 211:0.385801 214:0.172856 226:0.526632 228:0.0812369 229:0.109716 251:0.398053 252:0.266143 253:0.212271 254:0.213147 256:0.678583 257:0.820583 311:0.316504 314:0.463201 326:0.306593 328:0.371663 329:0.323446 351:0.442986 352:0.554472 353:0.597315 354:0.216679 356:0.84315 357:0.196108 411:0.149358 414:0.806493 426:0.118629 428:0.242376 429:0.335826 451:0.219517 452:0.157929 453:0.151103 454:0.0980728 456:0.710575 457:0.0616257 
0.04772187774914319 11:0.123377 14:0.900068 26:0.310868 28:0.278289 29:0.832097 51:0.27698 52:0.235575 53:0.254045 54:0.127364 56:0.359828 57:0.312668 111:0.0649052 114:0.997324 126:0.0774878 128:0.317431 129:0.477465 151:0.161522 152:0.191926 153:0.196891 154:0.111952 156:0.44972 157:0.103581 211:0.0902587 214:0.0844024 226:0.0695876 228:0.103774 229:0.0363516 251:0.323959 252:0.298647 253:0.229005 254:0.250996 256:0.00454989 257:0.779029 311:0.211183 314:0.232275 326:0.329627 328:0.110883 329:0.163136 351:0.465331 352:0.304366 353:0.243362 354:0.229246 356:0.725984 357:0.682945 411:0.162741 414:0.893062 426:0.15993 428:0.318086 429:0.651258 451:0.20949 452:0.22747 453:0.212753 454:0.14818 456:0.754793 457:0.131569 
0.04265716478824926 11:0.114448 14:0.997299 26:0.0800337 28:0.25555 29:0.465273 51:0.119705 52:0.133121 53:0.151463 54:0.0630517 56:0.449868 57:0.103581 111:0.0505457 114:0.0528428 126:0.116639 128:0.101529 129:0.0359155 151:0.315153 152:0.295553 153:0.239313 154:0.250996 156:0.0098912 157:0.780901 211:0.20033 214:0.232275 226:0.274914 228:0.113208 229:0.152677 251:0.473048 252:0.313264 253:0.258444 254:0.239841 256:0.717257 257:0.685825 311:0.149294 314:0.928427 326:0.162828 328:0.261807 329:0.637712 351:0.21706 352:0.222552 353:0.205427 354:0.131759 356:0.750236 357:0.141931 411:0.146146 414:0.236155 426:0.243409 428:0.187171 429:0.217539 451:0.783169 452:0.739168 453:0.752795 454:0.394433 456:0.48021 457:0.296408 
0.1 11:0.126623 14:0.100608 26:0.64027 28:0.0622631 29:0.324343 51:0.711418 52:0.639709 53:0.634423 54:0.410677 56:0.390172 57:0.740855 111:0.12579 114:0.400669 126:0.445351 128:0.130275 129:0.471127 151:0.381445 152:0.368739 153:0.332254 154:0.271713 156:0.846686 157:0.544089 211:0.521739 214:0.146523 226:0.715636 228:0.0896226 229:0.123596 251:0.704886 252:0.50938 253:0.440347 254:0.364143 256:0.350991 257:0.705243 311:0.397937 314:0.0972316 326:0.355838 328:0.100616 329:0.0649718 351:0.564107 352:0.4805 353:0.261453 354:0.522087 356:0.0885039 357:0.780618 411:0.16167 414:0.435391 426:0.434974 428:0.201367 429:0.203263 451:0.538406 452:0.556326 453:0.446661 454:0.466809 456:0.307359 457:0.781474 
0.1 11:0.200487 14:0.395003 26:0.459983 28:0.0898755 29:0.459204 51:0.350645 52:0.319173 53:0.295353 54:0.23161 56:0.846966 57:0.544089 111:0.500862 114:0.114381 126:0.730016 128:0.0850153 129:0.128873 151:0.685724 152:0.504102 153:0.460168 154:0.364143 156:0.361358 157:0.70774 211:0.389653 214:0.0972316 226:0.303265 228:0.102725 229:0.0608063 251:0.573463 252:0.494546 253:0.277657 254:0.546215 256:0.0594735 257:0.785243 311:0.148208 314:0.442944 326:0.411438 328:0.147844 329:0.172316 351:0.542827 352:0.544298 353:0.431281 354:0.41508 356:0.294488 357:0.797787 411:0.171842 414:0.190961 426:0.443761 428:0.221872 429:0.24949 451:0.946464 452:0.701256 453:0.600484 454:0.535332 456:0.317563 457:0.513422 
