svm_type c_svc
kernel_type rbf
gamma 1
nr_class 2
total_sv 1310
rho -0.948174
label 1 0
probA -159.772
probB 150.148
nr_sv 863 447
SV
0.05245012880762596 10:0.309764 11:0.147005 12:0.254717 13:0.164017 14:0.448276 15:0.278049 16:0.22509 18:0.246366 20:0.764183 21:0.471698 22:0.267892 23:0.129918 24:0.325301 25:0.359771 26:0.256234 28:0.121104 29:0.153117 56:0.810497 110:0.215488 111:0.076225 112:0.428856 113:0.575867 114:0.078125 115:0.217544 116:0.378752 118:0.700383 120:0.278879 121:0.601351 122:0.138721 123:0.575094 124:0.740662 125:0.563255 126:0.246193 128:0.0786919 129:0.0994764 156:0.254871 210:0.569936 211:0.405182 212:0.225931 213:0.188077 214:0.394531 215:0.255469 216:0.337044 218:0.303254 220:0.6473 221:0.601858 222:0.168489 223:0.276296 224:0.199032 225:0.721131 226:0.503546 228:0.108081 229:0.136126 256:0.626207 310:0.147106 311:0.135061 312:0.115533 313:0.0993612 314:0.715736 315:0.234875 316:0.0991683 318:0.145101 320:0.82638 321:0.125344 322:0.111254 323:0.124718 324:0.389091 325:0.128044 326:0.3744 328:0.187656 329:0.249191 356:0.753115 410:0.350482 411:0.114664 412:0.317073 413:0.432931 414:0.112587 415:0.296797 416:0.589538 418:0.567666 420:0.451613 421:0.348444 422:0.199357 423:0.783192 424:0.440899 425:0.579733 426:0.777207 428:0.118965 429:0.155987 456:0.313163 510:0.319936 511:0.663837 512:0.236842 513:0.120149 514:0.418722 515:0.207258 516:0.131079 518:0.137676 520:0.713103 521:0.226501 522:0.260142 523:0.120956 524:0.123288 525:0.193339 526:0.295416 528:0.199902 529:0.600647 556:0.665627 610:0.213826 611:0.442438 612:0.891516 613:0.69403 614:0.241176 615:0.230374 616:0.200119 618:0.412306 620:0.137931 621:0.421671 622:0.230921 623:0.627825 624:0.245296 625:0.459836 626:0.431877 628:0.0848516 629:0.0927062 656:0.357795 710:0.226688 711:0.436872 712:0.473965 713:0.486152 714:0.370999 715:0.394337 716:0.519449 718:0.241458 720:0.458125 721:0.417102 722:0.84456 723:0.266713 724:0.296875 725:0.250203 726:0.214462 728:0.0916189 729:0.164942 756:0.553371 810:0.27078 811:0.111425 812:0.57967 813:0.530191 814:0.0910891 815:0.243989 816:0.211653 818:0.684062 820:0.154661 821:0.39826 822:0.439974 823:0.726093 824:0.487909 825:0.719643 826:0.438489 828:0.091954 829:0.109905 856:0.221886 910:0.254816 911:0.11086 912:0.450512 913:0.672059 914:0.0819779 915:0.542759 916:0.203218 918:0.793966 920:0.135881 921:0.312292 922:0.247382 923:0.354508 924:0.553343 925:0.642557 926:0.553913 928:0.0966908 929:0.126836 956:0.186642 
0.05305167585201583 10:0.215488 11:0.076225 12:0.434636 13:0.575867 14:0.0787248 15:0.216028 16:0.378752 18:0.689365 20:0.278879 21:0.59973 22:0.135259 23:0.559762 24:0.739192 25:0.571545 26:0.250215 28:0.0786919 29:0.102981 56:0.254871 110:0.549663 111:0.444646 112:0.198138 113:0.17341 114:0.394531 115:0.266667 116:0.341537 118:0.278161 120:0.6473 121:0.594595 122:0.129293 123:0.281509 124:0.183228 125:0.71394 126:0.467005 128:0.109351 129:0.136126 156:0.611251 210:0.147106 211:0.135061 212:0.115533 213:0.0993612 214:0.724609 215:0.232886 216:0.0927644 218:0.143491 220:0.82365 221:0.12077 222:0.111254 223:0.118519 224:0.36973 225:0.128044 226:0.368794 228:0.175758 229:0.237565 256:0.771732 310:0.350482 311:0.114664 312:0.317073 313:0.432931 314:0.112944 315:0.296797 316:0.611004 318:0.580404 320:0.450875 321:0.354683 322:0.199357 323:0.837716 324:0.442182 325:0.579733 326:0.7256 328:0.118965 329:0.155987 356:0.278033 410:0.319936 411:0.672547 412:0.236842 413:0.114265 414:0.418722 415:0.209964 416:0.136 418:0.136064 420:0.694892 421:0.234777 422:0.259807 423:0.117232 424:0.124003 425:0.18696 426:0.298201 428:0.202091 429:0.600647 456:0.665627 510:0.213826 511:0.44086 512:0.82285 513:0.69403 514:0.265655 515:0.214236 516:0.198695 518:0.431532 520:0.189655 521:0.421671 522:0.226014 523:0.629395 524:0.253785 525:0.455727 526:0.427844 528:0.123584 529:0.138511 556:0.385839 610:0.226688 611:0.431151 612:0.493741 613:0.497761 614:0.371242 615:0.413059 616:0.520311 618:0.236209 620:0.444607 621:0.417102 622:0.863816 623:0.256356 624:0.291289 625:0.252459 626:0.22365 628:0.0916189 629:0.137014 656:0.534247 710:0.324759 711:0.110056 712:0.591455 713:0.534985 714:0.0862182 715:0.23826 716:0.213645 718:0.721336 720:0.171797 721:0.413185 722:0.426813 723:0.720752 724:0.488636 725:0.691308 726:0.48069 728:0.0843311 729:0.128719 756:0.278714 810:0.27078 811:0.11086 812:0.453297 813:0.671576 814:0.0831683 815:0.555163 816:0.197979 818:0.760931 820:0.120763 821:0.307229 822:0.24934 823:0.354508 824:0.553343 825:0.679464 826:0.549209 828:0.0872518 829:0.103799 856:0.122559 910:0.556918 911:0.195701 912:0.257338 913:0.263235 914:0.215355 915:0.428276 916:0.183552 918:0.513613 920:0.276008 921:0.482392 922:0.242147 923:0.27459 924:0.618065 925:0.342304 926:0.253043 928:0.143226 929:0.190921 956:0.7603 
0.05293224831808317 10:0.549663 11:0.444646 12:0.200809 13:0.17341 14:0.394925 15:0.264808 16:0.341537 18:0.267789 20:0.6473 21:0.592992 22:0.126067 23:0.270973 24:0.178597 25:0.724448 26:0.474635 28:0.109351 29:0.140921 56:0.611251 110:0.106902 111:0.148215 112:0.0837766 113:0.0830925 114:0.724609 115:0.244211 116:0.104442 118:0.112644 120:0.82365 121:0.10473 122:0.0693603 123:0.120755 124:0.357294 125:0.10556 126:0.322335 128:0.177823 129:0.237565 156:0.7533 210:0.350482 211:0.114664 212:0.317073 213:0.432931 214:0.10612 215:0.294284 216:0.587508 218:0.573964 220:0.442242 221:0.341739 222:0.199357 223:0.821481 224:0.42018 225:0.579733 226:0.714736 228:0.106061 229:0.143325 256:0.305216 310:0.319936 311:0.672547 312:0.236842 313:0.114265 314:0.420051 315:0.209964 316:0.139475 318:0.139117 320:0.694482 321:0.238981 322:0.259807 323:0.129226 324:0.124364 325:0.18696 326:0.2784 328:0.202091 329:0.600647 356:0.648525 410:0.213826 411:0.455347 412:0.82285 413:0.660043 414:0.265655 415:0.217082 416:0.206154 418:0.426481 420:0.184812 421:0.437077 422:0.225723 423:0.627825 424:0.255257 425:0.440691 426:0.431877 428:0.124938 429:0.138511 456:0.385839 510:0.226688 511:0.429542 512:0.455712 513:0.497761 514:0.391524 515:0.387997 516:0.516607 518:0.247224 520:0.477931 521:0.417102 522:0.84546 523:0.259494 524:0.30137 525:0.250203 526:0.221562 528:0.129985 529:0.180583 556:0.554585 610:0.324759 611:0.101016 612:0.616134 613:0.547761 614:0.0862745 615:0.247249 616:0.215054 618:0.683168 620:0.151137 621:0.413185 622:0.439474 623:0.716808 624:0.479443 625:0.697541 626:0.501285 628:0.0843311 629:0.0988412 656:0.247228 710:0.324759 711:0.109497 712:0.468625 713:0.674927 714:0.0783801 715:0.542127 716:0.19988 718:0.8041 720:0.137437 721:0.324413 722:0.239637 723:0.341922 724:0.553977 725:0.654752 726:0.584224 728:0.079646 729:0.122898 756:0.186642 810:0.56641 811:0.195701 812:0.258929 813:0.26215 814:0.218482 815:0.437765 816:0.178359 818:0.492243 820:0.260593 821:0.478581 822:0.244063 823:0.27459 824:0.618065 825:0.360714 826:0.245167 828:0.134274 829:0.168928 856:0.741414 910:0.247811 911:0.151584 912:0.56041 913:0.652206 914:0.14769 915:0.355862 916:0.24553 918:0.732892 920:0.18896 921:0.348173 922:0.287958 923:0.387978 924:0.680654 925:0.666106 926:0.35913 928:0.143226 929:0.181575 956:0.336767 
0.05375272936669907 10:0.106902 11:0.148215 12:0.0849057 13:0.0830925 14:0.724789 15:0.242509 16:0.104442 18:0.102525 20:0.82365 21:0.104447 22:0.0676297 23:0.112843 24:0.35365 25:0.107114 26:0.327601 28:0.177823 29:0.245935 56:0.7533 110:0.319865 111:0.125832 112:0.292553 113:0.422688 114:0.10612 115:0.305263 116:0.584634 118:0.558621 120:0.442242 121:0.32973 122:0.161616 123:0.836981 124:0.408739 125:0.568896 126:0.693739 128:0.107307 129:0.143325 156:0.297926 210:0.319936 211:0.672547 212:0.236842 213:0.114265 214:0.421224 215:0.208186 216:0.131725 218:0.137574 220:0.689679 221:0.230259 222:0.259807 223:0.122963 224:0.118176 225:0.18696 226:0.274232 228:0.190404 229:0.592932 256:0.669028 310:0.213826 311:0.455347 312:0.82285 313:0.660043 314:0.266497 315:0.217082 316:0.212412 318:0.436051 320:0.183715 321:0.444904 322:0.225723 323:0.672427 324:0.256 325:0.440691 326:0.4032 328:0.124938 329:0.138511 356:0.354426 410:0.226688 411:0.444322 412:0.455712 413:0.473385 414:0.391524 415:0.394306 416:0.536 418:0.244331 420:0.465726 421:0.432341 422:0.844373 423:0.256356 424:0.303118 425:0.241948 426:0.22365 428:0.131409 429:0.180583 456:0.554585 510:0.324759 511:0.098472 512:0.568678 513:0.547761 514:0.11575 515:0.230286 516:0.213523 518:0.715026 520:0.202069 521:0.413185 522:0.430135 523:0.718003 524:0.496035 525:0.691308 526:0.496604 528:0.123092 529:0.144337 556:0.2801 610:0.324759 611:0.100451 612:0.488178 613:0.691045 614:0.0784314 615:0.570066 616:0.201314 618:0.760255 620:0.115921 621:0.324413 622:0.249342 623:0.332627 624:0.543554 625:0.660656 626:0.609254 628:0.079646 629:0.0927062 656:0.151011 710:0.60209 711:0.193296 712:0.279706 713:0.269679 714:0.21228 715:0.427486 716:0.180132 718:0.514806 720:0.27917 721:0.491514 722:0.234456 723:0.260446 724:0.618608 725:0.364744 726:0.299918 728:0.126497 729:0.184994 756:0.7603 810:0.263925 811:0.151584 812:0.563874 813:0.651694 814:0.149835 815:0.363508 816:0.24019 818:0.702398 820:0.173729 821:0.343373 822:0.290237 823:0.387978 824:0.680654 825:0.704464 826:0.352373 828:0.134274 829:0.15943 856:0.284512 910:0.33275 911:0.152149 912:0.625939 913:0.668382 914:0.250488 915:0.274483 916:0.501192 918:0.476821 920:0.211607 921:0.343522 922:0.278796 923:0.689891 924:0.448791 925:0.569386 926:0.257391 928:0.210962 929:0.594793 956:0.38764 
0.05578122249963991 10:0.319865 11:0.125832 12:0.296496 13:0.422688 14:0.106701 15:0.303136 16:0.584634 18:0.547819 20:0.442242 21:0.328841 22:0.157584 23:0.817372 24:0.405386 25:0.577269 26:0.705073 28:0.107307 29:0.148374 56:0.297926 110:0.287879 111:0.738052 112:0.209441 113:0.0982659 114:0.421224 115:0.219649 116:0.142257 118:0.106513 120:0.689679 121:0.216216 122:0.224916 123:0.125283 124:0.100775 125:0.165995 126:0.220812 128:0.192642 129:0.592932 156:0.653048 210:0.213826 211:0.455347 212:0.82285 213:0.660043 214:0.263672 215:0.215243 216:0.202226 218:0.431213 220:0.170882 221:0.428666 222:0.225723 223:0.658519 224:0.243262 225:0.440691 226:0.397163 228:0.112121 229:0.125654 256:0.380232 310:0.226688 311:0.444322 312:0.455712 313:0.473385 314:0.392766 315:0.394306 316:0.555342 318:0.249813 320:0.465007 321:0.440083 322:0.844373 323:0.277235 324:0.304 325:0.241948 326:0.2088 328:0.131409 329:0.180583 356:0.531803 410:0.324759 411:0.12183 412:0.568678 413:0.520937 414:0.11575 415:0.233452 416:0.221538 418:0.706657 420:0.196909 421:0.428281 422:0.429582 423:0.716808 424:0.498912 425:0.6685 426:0.501285 428:0.12444 429:0.144337 456:0.2801 510:0.324759 511:0.0979061 512:0.450578 513:0.691045 514:0.108159 515:0.537334 516:0.199881 518:0.795707 520:0.168966 521:0.324413 522:0.244044 523:0.335443 524:0.562365 525:0.654752 526:0.603565 528:0.118661 529:0.138511 556:0.188085 610:0.60209 611:0.185102 612:0.291377 613:0.276119 614:0.212418 615:0.448276 616:0.181601 618:0.490806 620:0.261189 621:0.491514 622:0.244079 623:0.25 624:0.606969 625:0.368033 626:0.312768 628:0.126497 629:0.158146 656:0.750489 710:0.318328 711:0.149721 712:0.576101 713:0.655248 714:0.14435 715:0.354972 716:0.24237 718:0.741078 720:0.191124 721:0.359661 722:0.279793 723:0.376045 724:0.681108 725:0.677498 726:0.400164 728:0.126497 729:0.175938 756:0.336767 810:0.347044 811:0.152149 812:0.629808 813:0.667894 814:0.254125 815:0.280057 816:0.495244 818:0.456982 820:0.196328 821:0.338688 822:0.281003 823:0.689891 824:0.448791 825:0.601786 826:0.249561 828:0.202717 829:0.579376 856:0.339394 910:0.185639 911:0.129525 912:0.341297 913:0.579412 914:0.213403 915:0.235172 916:0.261025 918:0.723326 920:0.604388 921:0.542857 922:0.248691 923:0.623634 924:0.619488 925:0.304458 926:0.237391 928:0.163909 929:0.408545 956:0.52809 
0.05389146207431324 10:0.287879 11:0.738052 12:0.212264 13:0.0982659 14:0.421601 15:0.218118 16:0.142257 18:0.096404 20:0.689679 21:0.215633 22:0.219304 23:0.117298 24:0.0956768 25:0.168438 26:0.22442 28:0.192642 29:0.613821 56:0.653048 110:0.176768 111:0.499698 112:0.816489 113:0.653902 114:0.263672 115:0.226667 116:0.210684 118:0.410728 120:0.170882 121:0.418243 122:0.189226 123:0.670943 124:0.22833 125:0.426269 126:0.352792 128:0.113439 129:0.125654 156:0.37115 210:0.226688 211:0.444322 212:0.455712 213:0.473385 214:0.393229 215:0.390967 216:0.533704 218:0.247041 220:0.456596 221:0.424021 222:0.844373 223:0.268889 224:0.288874 225:0.241948 226:0.205674 228:0.118687 229:0.168194 256:0.554411 310:0.324759 311:0.12183 312:0.568678 313:0.520937 314:0.116117 315:0.233452 316:0.228407 318:0.722513 320:0.195828 321:0.43595 322:0.429582 323:0.767092 324:0.500364 325:0.6685 326:0.468 328:0.12444 329:0.144337 356:0.243279 410:0.324759 411:0.121279 412:0.450578 413:0.657204 414:0.108159 415:0.546619 416:0.207385 418:0.786394 420:0.164651 421:0.336265 422:0.24373 423:0.332627 424:0.565627 425:0.63315 426:0.609254 428:0.11996 429:0.138511 456:0.188085 510:0.60209 511:0.182796 512:0.268935 513:0.276119 514:0.237824 515:0.421493 516:0.180308 518:0.513694 520:0.305517 521:0.491514 522:0.238892 523:0.253165 524:0.627974 525:0.364744 526:0.309847 528:0.162974 529:0.200647 556:0.761385 610:0.318328 611:0.141084 612:0.600139 613:0.670896 614:0.144444 615:0.37124 616:0.243728 618:0.701556 620:0.170946 621:0.359661 622:0.290132 623:0.367232 624:0.668293 625:0.683607 626:0.417309 628:0.126497 629:0.148603 656:0.307893 710:0.396302 711:0.150279 712:0.640187 713:0.671283 714:0.247551 715:0.273481 716:0.499102 718:0.476841 720:0.21403 721:0.355091 722:0.270725 723:0.683844 724:0.449574 725:0.584078 726:0.304026 728:0.19469 729:0.576326 756:0.38764 810:0.203085 811:0.129525 812:0.343407 813:0.578792 814:0.216502 815:0.239745 816:0.255648 818:0.69323 820:0.588277 821:0.539491 822:0.25066 823:0.623634 824:0.619488 825:0.320536 826:0.22935 828:0.155172 829:0.390095 856:0.490909 910:0.202277 911:0.20871 912:0.200683 913:0.206618 914:0.33637 915:0.175862 916:0.169249 918:0.456954 920:0.512385 921:0.198671 922:0.207461 923:0.228825 924:0.226885 925:0.464256 926:0.258261 928:0.197001 929:0.466622 956:0.856742 
0.05170004609345556 10:0.64899 11:0.105263 12:0.289757 13:0.328757 14:0.163956 15:0.857143 16:0.611645 18:0.348125 20:0.230349 21:0.348383 22:0.110309 23:0.175947 24:0.378455 25:0.434178 26:0.0773861 28:0.102197 29:0.405149 56:0.126964 110:0.385522 111:0.0653358 112:0.68484 113:0.793353 114:0.477865 115:0.24 116:0.32533 118:0.249808 120:0.518797 121:0.260135 122:0.129966 123:0.680755 124:0.217054 125:0.510878 126:0.410321 128:0.0878896 129:0.179319 156:0.156505 210:0.488746 211:0.0738699 212:0.22914 213:0.10291 214:0.0345052 215:0.992943 216:0.0649351 218:0.141272 220:0.0218729 221:0.230259 222:0.128617 223:0.082963 224:0.0656531 225:0.299293 226:0.0977147 228:0.0782828 229:0.0013089 256:0.0640695 310:0.699357 311:0.691841 312:0.183569 313:0.354862 314:0.156091 315:0.36726 316:0.440819 318:0.504114 320:0.385599 321:0.328512 322:0.423151 323:0.380917 324:0.512 325:0.435978 326:0.5048 328:0.192633 329:0.295793 356:0.496393 410:0.401125 411:0.120176 412:0.144416 413:0.249113 414:0.185958 415:0.145907 416:0.177846 418:0.560351 420:0.78293 421:0.31935 422:0.122186 423:0.309322 424:0.443075 425:0.230951 426:0.562982 428:0.102539 429:0.231715 456:0.82408 510:0.995981 511:0.192417 512:0.223363 513:0.186567 514:0.106262 515:0.265876 516:0.153025 518:0.219837 520:0.283448 521:0.154047 522:0.2698 523:0.226442 524:0.12473 525:0.362307 526:0.303056 528:0.0881339 529:0.0938511 556:0.441048 610:0.950965 611:0.234199 612:0.181502 613:0.190299 614:0.11634 615:0.619956 616:0.0782557 618:0.234795 620:0.159941 621:0.16188 622:0.188158 623:0.126412 624:0.110801 625:0.415574 626:0.27335 628:0.0468506 629:0.0381731 656:0.475212 710:0.439711 711:0.177095 712:0.350467 713:0.511662 714:0.178315 715:0.235497 716:0.414722 718:0.426727 720:0.500358 721:0.545039 722:0.157383 723:0.455432 724:0.490767 725:0.363119 726:0.470008 728:0.0687142 729:0.291074 756:0.741573 810:0.642674 811:0.17138 812:0.635302 813:0.489691 814:0.306271 815:0.386846 816:0.43698 818:0.417489 820:0.298023 821:0.690763 822:0.201187 823:0.491803 824:0.349929 825:0.672321 826:0.250439 828:0.258098 829:0.296472 856:0.178451 910:0.892294 911:0.378394 912:0.125597 913:0.136765 914:0.132075 915:0.243448 916:0.068534 918:0.159676 920:0.418259 921:0.114286 922:0.173429 923:0.139344 924:0.0981508 925:0.299411 926:0.22 928:0.0718718 929:0.0921228 956:0.713795 
0.05138057344439838 10:0.385522 11:0.0653358 12:0.69407 13:0.793353 14:0.478204 15:0.238328 16:0.32533 18:0.23948 20:0.518797 21:0.259434 22:0.126724 23:0.663697 24:0.212615 25:0.518397 26:0.417025 28:0.0878896 29:0.185637 56:0.156505 110:0.464646 111:0.0810647 112:0.201463 113:0.0867052 114:0.0345052 115:1 116:0.077431 118:0.110345 120:0.0218729 121:0.216216 122:0.0875421 123:0.0845283 124:0.0472163 125:0.281225 126:0.0313029 128:0.0792029 129:0.0013089 156:0.0625393 210:0.699357 211:0.691841 212:0.183569 213:0.354862 214:0.150391 215:0.36415 216:0.423006 218:0.498521 220:0.37594 221:0.316523 222:0.423151 223:0.371111 224:0.486524 225:0.435978 226:0.497242 228:0.180808 229:0.284686 256:0.519639 310:0.401125 311:0.120176 312:0.144416 313:0.249113 314:0.186548 315:0.145907 316:0.182981 318:0.572924 320:0.782638 321:0.325069 322:0.122186 323:0.333584 324:0.444364 325:0.230951 326:0.5256 328:0.102539 329:0.231715 356:0.815082 410:0.995981 411:0.213341 412:0.223363 413:0.177431 414:0.106262 415:0.269751 416:0.158769 418:0.217264 420:0.27621 421:0.159675 422:0.269453 423:0.223164 424:0.125453 425:0.350353 426:0.305913 428:0.0890991 429:0.0938511 456:0.441048 510:0.950965 511:0.232032 512:0.167522 513:0.190299 514:0.144845 515:0.584787 516:0.0776987 518:0.245744 520:0.210345 521:0.16188 522:0.18416 523:0.130098 524:0.114636 525:0.41186 526:0.270798 528:0.0876416 529:0.0867314 556:0.498129 610:0.439711 611:0.168736 612:0.36509 613:0.523881 614:0.178431 615:0.244314 616:0.415771 618:0.408769 620:0.487894 621:0.545039 622:0.165789 623:0.44774 624:0.481533 625:0.366393 626:0.490146 628:0.0687142 629:0.269939 656:0.73092 710:0.673633 711:0.169274 712:0.645527 713:0.494898 714:0.299151 715:0.377762 716:0.440455 718:0.43432 720:0.317108 721:0.698433 722:0.192358 723:0.481894 724:0.350852 725:0.648253 726:0.304848 728:0.24987 729:0.306598 756:0.238452 810:0.894602 811:0.378394 812:0.126374 813:0.135493 814:0.133993 815:0.248232 816:0.0636147 818:0.153032 820:0.402542 821:0.107764 822:0.174802 823:0.139344 824:0.0981508 825:0.315179 826:0.211775 828:0.0621735 829:0.068521 856:0.691246 910:0.192644 911:0.0644796 912:0.471672 913:0.704412 914:0.584906 915:0.146207 916:0.696663 918:0.449595 920:0.336164 921:0.489037 922:0.137435 923:0.346995 924:0.211949 925:0.157275 926:0.144348 928:0.410031 929:0.553405 956:0.614856 
0.05143697074833597 10:0.464646 11:0.0810647 12:0.204178 13:0.0867052 14:0.0351334 15:0.993031 16:0.077431 18:0.10023 20:0.0218729 21:0.215633 22:0.0853578 23:0.0772086 24:0.0418143 25:0.285364 26:0.0318143 28:0.0792029 29:0.00135501 56:0.0625393 110:0.685185 111:0.759226 112:0.154255 113:0.343208 114:0.150391 115:0.374737 116:0.42497 118:0.48046 120:0.37594 121:0.304054 122:0.39596 123:0.378113 124:0.476392 125:0.421434 126:0.460237 128:0.182933 129:0.284686 156:0.507228 210:0.401125 211:0.120176 212:0.144416 213:0.249113 214:0.181641 215:0.144672 216:0.173779 218:0.566568 220:0.779221 221:0.313205 222:0.122186 223:0.324444 224:0.422253 225:0.230951 226:0.51773 228:0.0893939 229:0.219895 256:0.832582 310:0.995981 311:0.213341 312:0.223363 313:0.177431 314:0.106599 315:0.269751 316:0.163148 318:0.222139 320:0.275236 321:0.162534 322:0.269453 323:0.241923 324:0.125818 325:0.350353 326:0.2856 328:0.0890991 329:0.0938511 356:0.412459 410:0.950965 411:0.251929 412:0.167522 413:0.180979 414:0.144845 415:0.595018 416:0.0806154 418:0.242868 420:0.204973 421:0.167794 422:0.183923 423:0.126412 424:0.115301 425:0.398272 426:0.27335 428:0.0886013 429:0.0867314 456:0.498129 510:0.439711 511:0.166384 512:0.33697 513:0.523881 514:0.204934 515:0.227495 516:0.412811 518:0.427831 520:0.518621 521:0.545039 522:0.162267 523:0.45007 524:0.498198 525:0.363119 526:0.485569 528:0.108321 529:0.306796 556:0.74267 610:0.673633 611:0.160835 612:0.672462 613:0.506716 614:0.299346 615:0.395451 616:0.441458 618:0.415842 620:0.300073 621:0.698433 622:0.201316 623:0.474576 624:0.344251 625:0.654098 626:0.317909 628:0.24987 629:0.286299 656:0.205153 710:0.909968 711:0.373743 712:0.150868 713:0.144315 714:0.128674 715:0.242403 716:0.064632 718:0.149582 720:0.423049 721:0.129896 722:0.166451 723:0.122563 724:0.0994318 725:0.323314 726:0.268694 728:0.054659 729:0.0892626 756:0.713795 810:0.20994 811:0.0644796 812:0.474588 813:0.703976 814:0.593399 815:0.148515 816:0.69025 818:0.430889 820:0.320621 821:0.485274 822:0.138522 823:0.346995 824:0.211949 825:0.164286 826:0.135325 828:0.403866 829:0.537313 856:0.584512 910:0.360771 911:0.0424208 912:0.592491 913:0.605882 914:0.174366 915:0.369655 916:0.527414 918:0.685063 920:0.0736023 921:0.587375 922:0.185864 923:0.461749 924:0.744666 925:0.465938 926:0.255652 928:0.128749 929:0.102804 956:0.135144 
0.05216907804748436 10:0.685185 11:0.759226 12:0.156334 13:0.343208 14:0.150943 15:0.372125 16:0.42497 18:0.469778 20:0.37594 21:0.303235 22:0.38608 23:0.365999 24:0.473423 25:0.427637 26:0.467756 28:0.182933 29:0.294715 56:0.507228 110:0.372896 111:0.131881 112:0.113697 113:0.235549 114:0.181641 115:0.156491 116:0.183073 118:0.550958 120:0.779221 121:0.300676 122:0.0808081 123:0.330566 124:0.410853 125:0.21112 126:0.482234 128:0.0904446 129:0.219895 156:0.812696 210:0.995981 211:0.213341 212:0.223363 213:0.177431 214:0.0996094 215:0.267466 216:0.154607 218:0.219675 220:0.263841 221:0.156603 222:0.269453 223:0.234074 224:0.119558 225:0.350353 226:0.281324 228:0.0757576 229:0.0804974 256:0.437218 310:0.950965 311:0.251929 312:0.167522 313:0.180979 314:0.145305 315:0.595018 316:0.0818938 318:0.248317 320:0.203903 321:0.170799 322:0.183923 323:0.138993 324:0.115636 325:0.398272 326:0.2552 328:0.0886013 329:0.0867314 356:0.472459 410:0.439711 411:0.187982 412:0.33697 413:0.498226 414:0.204934 415:0.230605 416:0.428308 418:0.422824 420:0.505376 421:0.564953 422:0.162058 423:0.44774 424:0.501088 425:0.351139 426:0.490146 428:0.109507 429:0.306796 456:0.74267 510:0.673633 511:0.158461 512:0.620668 513:0.506716 514:0.321948 515:0.371249 516:0.438316 518:0.435233 520:0.342069 521:0.698433 522:0.197038 523:0.476793 524:0.356164 525:0.648253 526:0.314941 528:0.279665 529:0.32233 556:0.239863 610:0.909968 611:0.367381 612:0.157163 613:0.147761 614:0.128758 615:0.251651 616:0.0663082 618:0.150636 620:0.408657 621:0.129896 622:0.175 623:0.110169 624:0.097561 625:0.32623 626:0.280206 628:0.054659 629:0.0572597 656:0.701892 710:0.267685 711:0.0636872 712:0.489319 713:0.706997 714:0.583279 715:0.145028 716:0.695392 718:0.448747 720:0.340014 721:0.498042 722:0.130829 723:0.334262 724:0.213068 725:0.186028 726:0.197206 728:0.395107 729:0.536223 756:0.614856 810:0.374464 811:0.0424208 812:0.596154 813:0.605302 814:0.176898 815:0.377652 816:0.521403 818:0.656559 820:0.0586158 821:0.584337 822:0.187335 823:0.461749 824:0.744666 825:0.491964 826:0.247803 828:0.119645 829:0.0793758 856:0.0670034 910:0.0796848 911:0.0695701 912:0.536519 913:0.324265 914:0.635003 915:0.249655 916:0.538737 918:0.231788 920:0.116773 921:0.261794 922:0.113874 923:0.202869 924:0.199147 925:0.429773 926:0.217391 928:0.544467 929:0.933912 956:0.231273 
0.0514914279372251 10:0.372896 11:0.131881 12:0.115229 13:0.235549 14:0.182173 15:0.155401 16:0.183073 18:0.540168 20:0.779221 21:0.299865 22:0.0787919 23:0.319228 24:0.407512 25:0.214227 26:0.490112 28:0.0904446 29:0.227642 56:0.812696 110:0.995791 111:0.23412 112:0.195479 113:0.162572 114:0.0996094 115:0.278596 116:0.164466 118:0.191571 120:0.263841 121:0.141216 122:0.235017 123:0.238491 124:0.102185 125:0.333602 126:0.228426 128:0.0766479 129:0.0804974 156:0.426776 210:0.950965 211:0.251929 212:0.167522 213:0.180979 214:0.139323 215:0.589979 216:0.0760668 218:0.245562 220:0.191388 221:0.164565 222:0.183923 223:0.132593 224:0.109883 225:0.398272 226:0.251379 228:0.0752525 229:0.0732984 256:0.496137 310:0.439711 311:0.187982 312:0.33697 313:0.498226 314:0.205584 315:0.230605 316:0.443378 318:0.432311 320:0.504711 321:0.575069 322:0.162058 323:0.480841 324:0.502545 325:0.351139 326:0.4576 328:0.109507 329:0.306796 356:0.729508 410:0.673633 411:0.180265 412:0.620668 413:0.481902 414:0.321948 415:0.377224 416:0.454769 418:0.430139 420:0.333333 421:0.723951 422:0.196785 423:0.474576 424:0.358231 425:0.626866 426:0.317909 428:0.282728 429:0.32233 456:0.239863 510:0.909968 511:0.365591 512:0.145058 513:0.147761 514:0.156863 515:0.234473 516:0.0658363 518:0.157661 520:0.444138 521:0.129896 522:0.171281 523:0.113924 524:0.100937 525:0.323314 526:0.277589 528:0.0950271 529:0.104854 556:0.71491 610:0.267685 611:0.0541761 612:0.509736 613:0.723881 614:0.58366 615:0.148202 616:0.695938 618:0.429279 620:0.323551 621:0.498042 622:0.138816 623:0.324859 624:0.209059 625:0.187705 626:0.205656 628:0.395107 629:0.528289 656:0.5985 710:0.422026 711:0.0418994 712:0.607477 713:0.609329 714:0.17113 715:0.368785 716:0.525434 718:0.691724 720:0.0744452 721:0.594648 722:0.178756 723:0.451253 724:0.745028 725:0.484159 726:0.302383 728:0.111921 729:0.0996119 756:0.135144 810:0.0994002 811:0.0695701 812:0.539835 813:0.32327 814:0.644224 815:0.254597 816:0.532699 818:0.222144 820:0.101695 821:0.256359 822:0.114776 823:0.202869 824:0.199147 825:0.453571 826:0.209139 828:0.539707 829:0.924016 856:0.170707 910:0.274081 911:0.125 912:0.0382253 913:0.0338235 914:0.312947 915:0.0351724 916:0.0184744 918:0.0750552 920:0.417551 921:0.0265781 922:0.0811518 923:0.0737705 924:0.130156 925:0.0740118 926:0.118261 928:0.098759 929:0.126836 956:0.928527 
0.05061350368968696 10:0.995791 11:0.23412 12:0.198113 13:0.162572 14:0.100195 15:0.276655 16:0.164466 18:0.181331 20:0.263841 21:0.140836 22:0.229153 23:0.228656 24:0.0970943 25:0.338512 26:0.232158 28:0.0766479 29:0.0833333 56:0.426776 110:0.948653 111:0.276467 112:0.137633 113:0.166185 114:0.139323 115:0.599298 116:0.0882353 118:0.218391 120:0.191388 121:0.149324 122:0.145455 123:0.135094 124:0.0923185 125:0.382756 126:0.196277 128:0.0761369 129:0.0732984 156:0.484287 210:0.439711 211:0.187982 212:0.33697 213:0.498226 214:0.201172 215:0.228652 216:0.425479 218:0.427515 220:0.496924 221:0.554081 222:0.162058 223:0.46963 224:0.47754 225:0.351139 226:0.450749 228:0.0964646 229:0.295812 256:0.748551 310:0.673633 311:0.180265 312:0.620668 313:0.481902 314:0.32297 315:0.377224 316:0.470889 318:0.439791 320:0.332436 321:0.736915 322:0.196785 323:0.509391 324:0.359273 325:0.626866 326:0.2968 328:0.282728 329:0.32233 356:0.200984 410:0.909968 411:0.382029 412:0.145058 413:0.140525 414:0.156863 415:0.237722 416:0.0683077 418:0.155816 420:0.432796 421:0.134641 422:0.171061 423:0.110169 424:0.101523 425:0.312647 426:0.280206 428:0.0960677 429:0.104854 456:0.71491 510:0.267685 511:0.0514997 512:0.470475 513:0.723881 514:0.59709 515:0.136078 516:0.690985 518:0.449297 520:0.364138 521:0.498042 522:0.135866 523:0.327707 524:0.216294 525:0.186028 526:0.203735 528:0.417036 529:0.552104 556:0.616032 610:0.422026 611:0.032167 612:0.632823 613:0.623881 614:0.171242 615:0.385913 616:0.526284 618:0.655587 620:0.0513573 621:0.594648 622:0.1875 623:0.443503 624:0.73101 625:0.488525 626:0.315338 628:0.111921 629:0.0681663 656:0.097195 710:0.163987 711:0.0687151 712:0.552737 713:0.330175 714:0.633573 715:0.248619 716:0.536804 718:0.223994 720:0.11811 721:0.274804 722:0.107513 723:0.187326 724:0.200284 725:0.449228 726:0.266228 728:0.530453 729:0.904916 756:0.231273 810:0.289632 811:0.125 812:0.0384615 813:0.0324006 814:0.317492 815:0.0346535 816:0.0136742 818:0.0719323 820:0.401836 821:0.019411 822:0.0817942 823:0.0737705 824:0.130156 825:0.0758929 826:0.108963 828:0.0893417 829:0.103799 856:0.922896 910:0.537653 911:0.196267 912:0.617747 913:0.502941 914:0.365647 915:0.193793 916:0.145411 918:0.423105 920:0.394904 921:0.540199 922:0.164921 923:0.464481 924:0.482219 925:0.469302 926:0.471304 928:0.0946225 929:0.395194 956:0.61985 
0.05175800279811688 10:0.117003 11:0.15487 12:0.0795148 13:0.0700867 14:0.941444 15:0.10662 16:0.155462 18:0.0581484 20:0.512645 21:0.097035 22:0.0525279 23:0.0593912 24:0.0722892 25:0.106296 26:0.0937231 28:0.276444 29:0.429539 56:0.641106 110:0.441919 111:0.203267 112:0.204787 113:0.206647 114:0.375651 115:0.418246 116:0.165666 118:0.225287 120:0.905673 121:0.252703 122:0.167003 123:0.243019 124:0.293869 125:0.736503 126:0.43401 128:0.151252 129:0.176047 156:0.551854 210:0.516077 211:0.556229 212:0.219512 213:0.355571 214:0.522135 215:0.180663 216:0.238714 218:0.409763 220:0.174299 221:0.256802 222:0.17492 223:0.300741 224:0.875605 225:0.261587 226:0.241923 228:0.199495 229:0.618455 256:0.224726 310:0.296624 311:0.0882029 312:0.358151 313:0.363378 314:0.0704315 315:0.187189 316:0.427383 318:0.652954 320:0.114401 321:0.241047 322:0.953055 323:0.253944 324:0.382545 325:0.263158 326:0.2584 328:0.0836237 329:0.105502 356:0.109836 410:0.364148 411:0.0871003 412:0.560976 413:0.887864 414:0.0904491 415:0.463345 416:0.225846 418:0.585223 420:0.134409 421:0.330176 422:0.24373 423:0.368644 424:0.300218 425:0.578947 426:0.33162 428:0.112992 429:0.125566 456:0.146288 510:0.583601 511:0.18223 512:0.17009 513:0.164925 514:0.222011 515:0.479414 516:0.0759193 518:0.176166 520:0.304138 521:0.168407 522:0.182872 523:0.132911 524:0.128335 525:0.326564 526:0.45416 528:0.12063 529:0.170227 556:0.796631 610:0.639068 611:0.160271 612:0.182197 613:0.181343 614:0.479739 615:0.218635 616:0.166069 618:0.174682 620:0.217902 621:0.174282 622:0.176974 623:0.153249 624:0.142857 625:0.544262 626:0.256213 628:0.755336 629:0.604635 656:0.652968 710:0.545016 711:0.0994413 712:0.639519 713:0.71793 714:0.0692358 715:0.243785 716:0.208857 718:0.78208 720:0.138869 721:0.407963 722:0.36399 723:0.575209 724:0.412642 725:0.530463 726:0.321282 728:0.0723581 729:0.11837 756:0.230961 810:0.252785 811:0.181561 812:0.166896 813:0.413844 814:0.229043 815:0.113861 816:0.0749108 818:0.169958 820:0.288136 821:0.125167 822:0.166887 823:0.344262 824:0.1266 825:0.175893 826:0.370826 828:0.0909091 829:0.144505 856:0.894613 910:0.0989492 911:0.171946 912:0.0853242 913:0.0867647 914:0.296682 915:0.0703448 916:0.0655542 918:0.127299 920:0.460014 921:0.0717608 922:0.127618 923:0.128415 924:0.118065 925:0.0857864 926:0.152174 928:0.147363 929:0.180908 956:0.900437 
0.05145520624469421 10:0.441919 11:0.203267 12:0.207547 13:0.206647 14:0.376057 15:0.415331 16:0.165666 18:0.214996 20:0.905673 21:0.252022 22:0.162837 23:0.233111 24:0.289865 25:0.747343 26:0.441101 28:0.151252 29:0.182249 56:0.551854 110:0.493266 111:0.610405 112:0.191489 113:0.343931 114:0.522135 115:0.192281 116:0.246098 118:0.388506 120:0.174299 121:0.243243 122:0.136027 123:0.306415 124:0.87315 125:0.242546 126:0.186125 128:0.20184 129:0.618455 156:0.219359 210:0.296624 211:0.0882029 212:0.358151 213:0.363378 214:0.0625 215:0.185603 216:0.410019 218:0.64571 220:0.100478 221:0.23225 222:0.953055 223:0.245926 224:0.363511 225:0.263158 226:0.254531 228:0.070202 229:0.0922775 256:0.140052 310:0.364148 311:0.0871003 312:0.560976 313:0.887864 314:0.090736 315:0.463345 316:0.232885 318:0.598355 320:0.133244 321:0.336088 322:0.24373 323:0.396694 324:0.301091 325:0.578947 326:0.3096 328:0.112992 329:0.125566 356:0.102623 410:0.583601 411:0.203418 412:0.17009 413:0.156849 414:0.222011 415:0.487544 416:0.0787692 418:0.174104 420:0.296371 421:0.17456 422:0.182637 423:0.129237 424:0.129079 425:0.315789 426:0.45844 428:0.121951 429:0.170227 456:0.796631 510:0.639068 511:0.157895 512:0.168164 513:0.181343 514:0.496521 515:0.20307 516:0.164887 518:0.182828 520:0.264828 521:0.174282 522:0.173213 523:0.156821 524:0.147801 525:0.539399 526:0.25382 528:0.757755 529:0.624595 556:0.668122 610:0.545016 611:0.0902935 612:0.666203 613:0.735075 614:0.069281 615:0.253118 616:0.210275 618:0.739745 620:0.117388 621:0.407963 622:0.375658 623:0.569209 624:0.404878 625:0.535246 626:0.335047 628:0.0723581 629:0.0879346 656:0.197326 710:0.307878 711:0.17933 712:0.190254 713:0.419825 714:0.22273 715:0.111188 716:0.0760024 718:0.167806 720:0.307087 721:0.146867 722:0.158679 723:0.331476 724:0.127841 725:0.196588 726:0.41742 728:0.08329 729:0.161708 756:0.90231 810:0.118252 811:0.171946 812:0.0858516 813:0.0854197 814:0.30099 815:0.0707214 816:0.0606421 818:0.122003 820:0.444209 821:0.0649264 822:0.128628 823:0.128415 824:0.118065 825:0.0883929 826:0.143234 828:0.138454 829:0.158752 856:0.892593 910:0.418564 911:0.149887 912:0.173379 913:0.219118 914:0.202993 915:0.168276 916:0.156734 918:0.398087 920:0.733192 921:0.200664 922:0.17801 923:0.267077 924:0.772404 925:0.263246 926:0.366957 928:0.120476 929:0.162216 956:0.75593 
0.05066866244350009 10:0.493266 11:0.610405 12:0.19407 13:0.343931 14:0.522446 15:0.190941 16:0.246098 18:0.377965 20:0.174299 21:0.242588 22:0.132633 23:0.295471 24:0.872431 25:0.246116 26:0.189166 28:0.20184 29:0.640244 56:0.219359 110:0.263468 111:0.0967937 112:0.335106 113:0.351879 114:0.0625 115:0.197193 116:0.412365 118:0.63295 120:0.100478 121:0.218243 122:0.950842 123:0.250566 124:0.350951 125:0.244158 126:0.199662 128:0.0710271 129:0.0922775 156:0.136706 210:0.364148 211:0.0871003 212:0.560976 213:0.887864 214:0.0833333 215:0.459421 216:0.222016 218:0.591716 220:0.119617 221:0.323822 222:0.24373 223:0.386667 224:0.286109 225:0.578947 226:0.304965 228:0.1 229:0.112565 256:0.132968 310:0.583601 311:0.203418 312:0.17009 313:0.156849 314:0.222716 315:0.487544 316:0.0799744 318:0.17801 320:0.295424 321:0.177686 322:0.182637 323:0.141998 324:0.129455 325:0.315789 326:0.428 328:0.121951 329:0.170227 356:0.78623 410:0.639068 411:0.179713 412:0.168164 413:0.172463 414:0.496521 415:0.205694 416:0.171077 418:0.180688 420:0.258065 421:0.18065 422:0.17299 423:0.153249 424:0.148658 425:0.521603 426:0.256213 428:0.766053 429:0.624595 456:0.668122 510:0.545016 511:0.0877193 512:0.614891 513:0.735075 514:0.0993042 515:0.235869 516:0.208778 518:0.774241 520:0.170345 521:0.407963 522:0.367675 523:0.571027 524:0.41889 525:0.530463 526:0.331919 528:0.111768 529:0.133981 556:0.232377 610:0.307878 611:0.170993 612:0.198192 613:0.429851 614:0.222876 615:0.112252 616:0.0776583 618:0.16761 620:0.289802 621:0.146867 622:0.167105 623:0.322034 624:0.125436 625:0.198361 626:0.435304 628:0.08329 629:0.133606 656:0.898891 710:0.181672 711:0.169832 712:0.111482 713:0.0947522 714:0.293926 715:0.0690608 716:0.0616397 718:0.116173 720:0.465283 721:0.0881201 722:0.121114 723:0.111421 724:0.119318 725:0.116978 726:0.204601 728:0.130661 729:0.175291 756:0.900437 810:0.43102 811:0.149887 812:0.174451 813:0.217968 814:0.205941 815:0.171146 816:0.151605 818:0.381523 820:0.716808 821:0.194779 822:0.17942 823:0.267077 824:0.772404 825:0.276786 826:0.360281 828:0.111285 829:0.139756 856:0.7367 910:0.223292 911:0.0723982 912:0.753584 913:0.777941 914:0.0670137 915:0.288276 916:0.225268 918:0.743194 920:0.120311 921:0.338206 922:0.252618 923:0.539617 924:0.463016 925:0.480235 926:0.254783 928:0.0873837 929:0.119493 956:0.155431 
0.05050227291120089 10:0.263468 11:0.0967937 12:0.339623 13:0.351879 14:0.06311 15:0.195819 16:0.412365 18:0.622035 20:0.100478 21:0.217655 22:0.927118 23:0.240535 24:0.347271 25:0.247751 26:0.202923 28:0.0710271 29:0.0955285 56:0.136706 110:0.334175 111:0.0955838 112:0.545213 113:0.885838 114:0.0833333 115:0.469474 116:0.229892 118:0.577011 120:0.119617 121:0.311486 122:0.208081 123:0.393962 124:0.272023 125:0.56809 126:0.253807 128:0.101175 129:0.112565 156:0.129793 210:0.583601 211:0.203418 212:0.17009 213:0.156849 214:0.21875 215:0.483416 216:0.0742115 218:0.176036 220:0.284347 221:0.171201 222:0.182637 223:0.135556 224:0.123013 225:0.315789 226:0.421592 228:0.109091 229:0.157723 256:0.80425 310:0.639068 311:0.179713 312:0.168164 313:0.172463 314:0.498096 315:0.205694 316:0.175944 318:0.184742 320:0.257066 321:0.183884 322:0.17299 323:0.167543 324:0.149091 325:0.521603 326:0.2392 328:0.766053 329:0.624595 356:0.651148 410:0.545016 411:0.111356 412:0.614891 413:0.699077 414:0.0993042 415:0.239146 416:0.216615 418:0.765179 420:0.165995 421:0.422869 422:0.367203 423:0.569209 424:0.42132 425:0.512962 426:0.335047 428:0.112992 429:0.133981 456:0.232377 510:0.307878 511:0.168647 512:0.182927 513:0.429851 514:0.247944 515:0.101884 516:0.0771056 518:0.175426 520:0.332414 521:0.146867 522:0.163554 523:0.324895 524:0.129776 525:0.196588 526:0.431239 528:0.122107 529:0.177346 556:0.903306 610:0.181672 611:0.1614 612:0.116134 613:0.0970149 614:0.294118 615:0.0674982 616:0.0633214 618:0.119519 620:0.451944 621:0.0881201 622:0.128947 623:0.0988701 624:0.117073 625:0.118033 626:0.213368 628:0.130661 629:0.147921 656:0.896934 710:0.47508 711:0.148045 712:0.197597 713:0.225948 714:0.199869 715:0.167127 716:0.153202 718:0.395596 720:0.741589 721:0.214752 722:0.170984 723:0.252786 724:0.772727 725:0.288383 726:0.40756 728:0.103592 729:0.15718 756:0.75593 810:0.239931 811:0.0723982 812:0.758242 813:0.777614 814:0.0679868 815:0.294201 816:0.219976 818:0.712271 820:0.105226 821:0.333333 822:0.254617 823:0.539617 824:0.463016 825:0.507143 826:0.246924 828:0.0778474 829:0.0963365 856:0.0888889 910:0.457968 911:0.149887 912:0.195222 913:0.229412 914:0.539362 915:0.350345 916:0.455304 918:0.239882 920:0.382873 921:0.226578 922:0.187827 923:0.403689 924:0.20697 925:0.512195 926:0.306957 928:0.640641 929:0.885848 956:0.315543 
0.05042691772091137 10:0.334175 11:0.0955838 12:0.552561 13:0.885838 14:0.0839297 15:0.466202 16:0.229892 18:0.566182 20:0.119617 21:0.310647 22:0.202889 23:0.381589 24:0.267895 25:0.576451 26:0.257954 28:0.101175 29:0.116531 56:0.129793 110:0.563973 111:0.22323 112:0.140293 113:0.141618 114:0.21875 115:0.493333 116:0.0864346 118:0.14636 120:0.284347 121:0.156081 122:0.144108 123:0.138113 124:0.105708 125:0.298147 126:0.379019 128:0.110373 129:0.157723 156:0.785041 210:0.639068 211:0.179713 212:0.168164 213:0.172463 214:0.501302 215:0.203952 216:0.166976 218:0.182692 220:0.245386 221:0.177173 222:0.17299 223:0.160741 224:0.141672 225:0.521603 226:0.235619 228:0.762626 229:0.617147 256:0.671603 310:0.545016 311:0.111356 312:0.614891 313:0.699077 314:0.0996193 315:0.239146 316:0.223289 318:0.782349 320:0.164872 321:0.430441 322:0.367203 323:0.610068 324:0.422545 325:0.512962 326:0.3128 328:0.112992 329:0.133981 356:0.193115 410:0.307878 411:0.190187 412:0.182927 413:0.408801 414:0.247944 415:0.102491 416:0.08 418:0.173372 420:0.323925 421:0.152233 422:0.163344 423:0.322034 424:0.130529 425:0.190102 426:0.435304 428:0.123444 429:0.177346 456:0.903306 510:0.181672 511:0.159027 512:0.107189 513:0.0970149 514:0.316888 515:0.0593161 516:0.0628707 518:0.125093 520:0.484828 521:0.0881201 522:0.126207 523:0.102672 524:0.121125 525:0.116978 526:0.211375 528:0.166913 529:0.190939 556:0.901435 610:0.47508 611:0.139391 612:0.205841 613:0.231343 614:0.2 615:0.17168 616:0.154719 618:0.379774 620:0.735143 621:0.214752 622:0.179605 623:0.242232 624:0.758188 625:0.290984 626:0.425021 628:0.103592 629:0.128834 656:0.745923 710:0.29582 711:0.0715084 712:0.76502 713:0.779883 714:0.0633573 715:0.287293 716:0.222023 718:0.751708 720:0.121689 721:0.349869 722:0.244819 723:0.530641 724:0.463778 725:0.497969 726:0.301561 728:0.0702759 729:0.115783 756:0.155431 810:0.46958 811:0.149887 812:0.196429 813:0.228277 814:0.547195 815:0.35785 816:0.449465 818:0.229901 820:0.367232 821:0.220884 822:0.189314 823:0.403689 824:0.20697 825:0.541071 826:0.299649 828:0.636886 829:0.87517 856:0.261616 910:0.102452 911:0.137443 912:0.135154 913:0.174265 914:0.533507 915:0.147586 916:0.340286 918:0.200147 920:0.618542 921:0.171429 922:0.145288 923:0.215164 924:0.184922 925:0.171573 926:0.142609 928:0.670114 929:0.94526 956:0.464107 
0.05159823789222449 10:0.282828 11:0.142771 12:0.196092 13:0.310694 14:0.687703 15:0.491289 16:0.522209 18:0.280796 20:0.397129 21:0.419811 22:0.131976 23:0.394952 24:0.402551 25:0.287817 26:0.294067 28:0.592744 29:0.848916 56:0.316782 110:0.272727 111:0.108288 112:0.319149 113:0.343208 114:0.141276 115:0.179649 116:0.370348 118:0.407663 120:0.362953 121:0.249324 122:0.403367 123:0.867925 124:0.774489 125:0.329573 126:0.184433 128:0.132856 129:0.288613 156:0.466373 210:0.472669 211:0.0964719 212:0.679718 213:0.625976 214:0.114583 215:0.249824 216:0.286951 218:0.623521 220:0.228982 221:0.499668 222:0.210289 223:0.765185 224:0.52868 225:0.383346 226:0.389283 228:0.116667 229:0.331152 256:0.235029 310:0.549839 311:0.106395 312:0.456354 313:0.43577 314:0.144036 315:0.279715 316:0.4389 318:0.82199 320:0.194482 321:0.392562 322:0.2 323:0.641623 324:0.613818 325:0.370778 326:0.2616 328:0.125436 329:0.286084 356:0.426885 410:0.502412 411:0.33462 412:0.281772 413:0.108588 414:0.479443 415:0.107473 416:0.0763077 418:0.125091 420:0.648522 421:0.124493 422:0.132476 423:0.0939266 424:0.097897 425:0.227808 426:0.407883 428:0.147835 429:0.357282 456:0.908921 510:0.96865 511:0.379174 512:0.198331 513:0.270149 514:0.118912 515:0.438939 516:0.106168 518:0.211695 520:0.284138 521:0.261097 522:0.214424 523:0.164557 524:0.144917 525:0.519903 526:0.327674 528:0.103397 529:0.107443 556:0.405802 610:0.330386 611:0.0457111 612:0.623088 613:0.659701 614:0.195425 615:0.410125 616:0.252091 618:0.619519 620:0.264857 621:0.513055 622:0.173026 623:0.685028 624:0.55122 625:0.372131 626:0.379606 628:0.191567 629:0.340832 656:0.436725 710:0.87299 711:0.145251 712:0.306409 713:0.313411 714:0.085565 715:0.698204 716:0.0969479 718:0.223994 720:0.23622 721:0.292428 722:0.183938 723:0.160864 724:0.166193 725:0.562145 726:0.351684 728:0.328475 729:0.0795602 756:0.449126 810:0.0814053 811:0.131787 812:0.0762363 813:0.0552283 814:0.234323 815:0.0381895 816:0.491082 818:0.0846262 820:0.400424 821:0.0669344 822:0.0963061 823:0.0867486 824:0.0590327 825:0.0642857 826:0.246046 828:0.0903866 829:0.398915 856:0.93367 910:0.774081 911:0.215498 912:0.154949 913:0.309559 914:0.447625 915:0.208966 916:0.448153 918:0.309787 920:0.372258 921:0.160797 922:0.172775 923:0.177596 924:0.190612 925:0.47603 926:0.44 928:0.150465 929:0.631509 956:0.616105 
0.05130012812181681 10:0.272727 11:0.108288 12:0.32345 13:0.343208 14:0.141835 15:0.178397 16:0.370348 18:0.397093 20:0.362953 21:0.248652 22:0.393303 23:0.84781 24:0.77321 25:0.334424 26:0.187446 28:0.132856 29:0.29878 56:0.466373 110:0.447811 111:0.105868 112:0.668218 113:0.61922 114:0.114583 115:0.261053 116:0.292917 118:0.609962 120:0.228982 121:0.490541 122:0.173064 123:0.779623 124:0.51938 125:0.367446 126:0.344332 128:0.118038 129:0.331152 156:0.229415 210:0.549839 211:0.106395 212:0.456354 213:0.43577 214:0.138021 215:0.277347 216:0.42115 218:0.81287 220:0.181818 221:0.378235 222:0.2 223:0.628148 224:0.583276 225:0.370778 226:0.257683 228:0.112626 229:0.274869 256:0.451384 310:0.502412 311:0.33462 312:0.281772 313:0.108588 314:0.480964 315:0.107473 316:0.0774152 318:0.127898 320:0.648048 321:0.126722 322:0.132476 323:0.104433 324:0.0981818 325:0.227808 326:0.3808 328:0.147835 329:0.357282 356:0.904262 410:0.96865 411:0.395259 412:0.198331 413:0.25692 414:0.118912 415:0.446263 416:0.110154 418:0.209217 420:0.276882 421:0.270636 422:0.214148 423:0.161017 424:0.145758 425:0.502749 426:0.330763 428:0.10453 429:0.107443 456:0.405802 510:0.330386 511:0.0430108 512:0.575096 513:0.659701 514:0.221379 515:0.385206 516:0.250297 518:0.648409 520:0.308966 521:0.513055 522:0.16935 523:0.686357 524:0.570296 525:0.368806 526:0.376061 528:0.22452 529:0.37411 556:0.461323 610:0.87299 611:0.136569 612:0.319193 613:0.320896 614:0.0856209 615:0.735877 616:0.0985663 618:0.219943 620:0.217168 621:0.292428 622:0.192763 623:0.149011 624:0.163066 625:0.567213 626:0.366752 628:0.328475 629:0.0470348 656:0.42531 710:0.147106 711:0.130168 712:0.102136 713:0.0648688 714:0.227956 715:0.0372928 716:0.494913 718:0.0759301 720:0.420902 721:0.0900783 722:0.0893782 723:0.0689415 724:0.0603693 725:0.0950447 726:0.30074 728:0.0827694 729:0.404269 756:0.938514 810:0.77892 811:0.215498 812:0.155907 813:0.308542 814:0.454125 815:0.212871 816:0.442331 818:0.296897 820:0.356638 821:0.154618 822:0.174142 823:0.177596 824:0.190612 825:0.502679 826:0.434095 828:0.141588 829:0.616689 856:0.585859 910:0.403678 911:0.0678733 912:0.655973 913:0.638971 914:0.185426 915:0.321379 916:0.375447 918:0.623252 920:0.112527 921:0.624585 922:0.179974 923:0.534836 924:0.567568 925:0.448276 926:0.386957 928:0.0625646 929:0.192256 956:0.398252 
0.05105879434097595 10:0.447811 11:0.105868 12:0.677224 13:0.61922 14:0.115159 15:0.259233 16:0.292917 18:0.599082 20:0.228982 21:0.489218 22:0.168746 23:0.76095 24:0.516655 25:0.372854 26:0.349957 28:0.118038 29:0.342818 56:0.229415 110:0.52862 111:0.116757 112:0.436835 113:0.425578 114:0.138021 115:0.288421 116:0.423169 118:0.80613 120:0.181818 121:0.366892 122:0.16229 123:0.64 124:0.575053 125:0.354553 126:0.203046 128:0.11395 129:0.274869 156:0.440603 210:0.502412 211:0.33462 212:0.281772 213:0.108588 214:0.483724 215:0.106563 216:0.0717378 218:0.126479 220:0.642515 221:0.122097 222:0.132476 223:0.0985185 224:0.0932965 225:0.227808 226:0.375099 228:0.135354 229:0.346859 256:0.920155 310:0.96865 311:0.395259 312:0.198331 313:0.25692 314:0.119289 315:0.446263 316:0.112604 318:0.213912 320:0.275908 321:0.275482 322:0.214148 323:0.175808 324:0.146182 325:0.502749 326:0.3088 328:0.10453 329:0.107443 356:0.37541 410:0.330386 411:0.067806 412:0.575096 413:0.627395 414:0.221379 415:0.391459 416:0.259692 418:0.640819 420:0.301075 421:0.5318 422:0.169132 423:0.685028 424:0.573604 425:0.356638 426:0.379606 428:0.226979 429:0.37411 456:0.461323 510:0.87299 511:0.134126 512:0.294608 513:0.320896 514:0.115117 515:0.695045 516:0.0978648 518:0.2302 520:0.264138 521:0.292428 522:0.188667 523:0.152602 524:0.168709 525:0.562145 526:0.363328 528:0.354013 529:0.0951456 556:0.450405 610:0.147106 611:0.121332 612:0.106398 613:0.0664179 614:0.228105 615:0.0337491 616:0.495818 618:0.0820368 620:0.406456 621:0.0900783 622:0.0967105 623:0.055791 624:0.0592334 625:0.0959016 626:0.313625 628:0.0827694 629:0.38923 656:0.936725 710:0.801447 711:0.212849 712:0.179573 713:0.315598 714:0.44546 715:0.207873 716:0.445841 718:0.30448 720:0.376521 721:0.175587 722:0.165803 723:0.16156 724:0.191761 725:0.493907 726:0.476582 728:0.133784 729:0.611902 756:0.616105 810:0.416452 811:0.0678733 812:0.660027 813:0.638439 814:0.188119 815:0.328147 816:0.369798 818:0.59732 820:0.0974576 821:0.621821 822:0.181398 823:0.534836 824:0.567568 825:0.473214 826:0.380492 828:0.0527691 829:0.170285 856:0.350842 910:0.657618 911:0.108032 912:0.201365 913:0.144118 914:0.0429408 915:0.922759 916:0.0941597 918:0.182487 920:0.0516631 921:0.227907 922:0.168848 923:0.148907 924:0.103129 925:0.501262 926:0.11913 928:0.0775595 929:0.0360481 956:0.160737 
0.05068668477725351 10:0.52862 11:0.116757 12:0.442722 13:0.425578 14:0.138582 15:0.286411 16:0.423169 18:0.79495 20:0.181818 21:0.365903 22:0.15824 23:0.623608 24:0.572644 25:0.359771 26:0.206363 28:0.11395 29:0.284553 56:0.440603 110:0.478956 111:0.367211 112:0.255984 113:0.0924855 114:0.483724 115:0.118596 116:0.0840336 118:0.0950192 120:0.642515 121:0.106081 122:0.0915825 123:0.100377 124:0.0754052 125:0.207897 126:0.329103 128:0.136944 129:0.346859 156:0.898177 210:0.96865 211:0.395259 212:0.198331 213:0.25692 214:0.11263 215:0.442484 216:0.105751 218:0.211538 220:0.264525 221:0.265428 222:0.214148 223:0.168889 224:0.138908 225:0.502749 226:0.304177 228:0.0914141 229:0.0942408 256:0.400837 310:0.330386 311:0.067806 312:0.575096 313:0.627395 314:0.222081 315:0.391459 316:0.268074 318:0.655198 320:0.300135 321:0.541322 322:0.169132 323:0.733283 324:0.575273 325:0.356638 326:0.3544 328:0.226979 329:0.37411 356:0.43377 410:0.87299 411:0.15656 412:0.294608 413:0.305181 414:0.115117 415:0.707473 416:0.101538 418:0.227505 420:0.257392 421:0.303112 422:0.188424 423:0.149011 424:0.169688 425:0.543598 426:0.366752 428:0.357889 429:0.0951456 456:0.450405 510:0.147106 511:0.118846 512:0.0982028 513:0.0664179 514:0.253004 515:0.0272156 516:0.492289 518:0.0858623 520:0.442069 521:0.0900783 522:0.0946555 523:0.059775 524:0.0612833 525:0.0950447 526:0.310696 528:0.121615 529:0.420065 556:0.939488 610:0.801447 611:0.204853 612:0.187065 613:0.323134 614:0.445752 615:0.214967 616:0.446834 618:0.294908 620:0.360968 621:0.175587 622:0.174342 623:0.149718 624:0.188153 625:0.498361 626:0.497001 628:0.133784 629:0.608044 656:0.599804 710:0.461415 711:0.0670391 712:0.669559 713:0.642128 714:0.182234 715:0.320442 716:0.372831 718:0.627942 720:0.113815 721:0.631201 722:0.172927 723:0.525766 724:0.568182 725:0.4671 726:0.426459 728:0.0452889 729:0.186287 756:0.398252 810:0.664953 811:0.108032 812:0.20261 813:0.142857 814:0.0435644 815:0.944837 816:0.0891795 818:0.174894 820:0.0367232 821:0.222222 822:0.170185 823:0.148907 824:0.103129 825:0.529464 826:0.109842 828:0.0679206 829:0.0115332 856:0.0946128 910:0.136602 911:0.141968 912:0.062116 913:0.0441176 914:0.363045 915:0.04 916:0.0292014 918:0.0831494 920:0.381458 921:0.0458472 922:0.0975131 923:0.0744536 924:0.0547653 925:0.058873 926:0.191304 928:0.101861 929:0.263017 956:0.98814 
0.05070920689955829 10:0.478956 11:0.367211 12:0.259434 13:0.0924855 14:0.48406 15:0.11777 16:0.0840336 18:0.0849273 20:0.642515 21:0.105795 22:0.0892974 23:0.0927988 24:0.070163 25:0.210957 26:0.33448 28:0.136944 29:0.359079 56:0.898177 110:0.967172 111:0.433757 112:0.169548 113:0.243497 114:0.11263 115:0.452632 116:0.117047 118:0.183142 120:0.264525 121:0.252027 122:0.177104 123:0.172075 124:0.121917 125:0.489927 126:0.252961 128:0.0924885 129:0.0942408 156:0.391263 210:0.330386 211:0.067806 212:0.575096 213:0.627395 214:0.218099 215:0.388144 216:0.25603 218:0.647929 220:0.289132 221:0.521566 222:0.169132 223:0.718519 224:0.546648 225:0.356638 226:0.349094 228:0.215657 229:0.363874 256:0.458146 310:0.87299 311:0.15656 312:0.294608 313:0.305181 314:0.115482 315:0.707473 316:0.103647 318:0.23261 320:0.256393 321:0.30854 322:0.188424 323:0.163035 324:0.170182 325:0.543598 326:0.3424 328:0.357889 329:0.0951456 356:0.422295 410:0.147106 411:0.141676 412:0.0982028 413:0.0631654 414:0.253004 415:0.0263345 416:0.510769 418:0.0848574 420:0.43078 421:0.0933694 422:0.0945338 423:0.055791 424:0.0616389 425:0.0919089 426:0.313625 428:0.122947 429:0.420065 456:0.939488 510:0.801447 511:0.202603 512:0.172657 513:0.323134 514:0.463631 515:0.199581 516:0.443654 518:0.30866 520:0.39931 521:0.175587 522:0.170637 523:0.153305 524:0.194665 525:0.493907 526:0.49236 528:0.169867 529:0.627832 556:0.61728 610:0.461415 611:0.0575621 612:0.697497 613:0.657463 614:0.182353 615:0.334556 616:0.373955 618:0.596181 620:0.0917095 621:0.631201 622:0.181579 623:0.519068 624:0.557491 625:0.471311 626:0.44473 628:0.0452889 629:0.159509 656:0.372146 710:0.694534 711:0.106704 712:0.224967 713:0.151603 714:0.0391901 715:0.922652 716:0.0903651 718:0.173121 720:0.0522548 721:0.241514 722:0.161917 723:0.132312 724:0.104403 725:0.518278 726:0.173377 728:0.0603852 729:0.0349288 756:0.160737 810:0.155099 811:0.141968 812:0.0625 813:0.0427099 814:0.368317 815:0.039604 816:0.0243757 818:0.0796897 820:0.365819 821:0.038822 822:0.098285 823:0.0744536 824:0.0547653 825:0.0598214 826:0.182777 828:0.0924765 829:0.242198 856:0.987205 910:0.542907 911:0.299774 912:0.496928 913:0.533824 914:0.172414 915:0.286207 916:0.294398 918:0.632818 920:0.357396 921:0.362126 922:0.181283 923:0.455601 924:0.514225 925:0.373423 926:0.494783 928:0.0853154 929:0.11482 956:0.651685 
0.05132365376811985 10:0.967172 11:0.433757 12:0.171833 13:0.243497 14:0.113208 15:0.449477 16:0.117047 18:0.172915 20:0.264525 21:0.251348 22:0.172685 23:0.163326 24:0.116938 25:0.497138 26:0.257094 28:0.0924885 29:0.097561 56:0.391263 110:0.298822 111:0.0744102 112:0.55984 113:0.620665 114:0.218099 115:0.398596 116:0.262905 118:0.635249 120:0.289132 121:0.512838 122:0.129966 123:0.732075 124:0.537703 125:0.340048 126:0.301184 128:0.218191 129:0.363874 156:0.447203 210:0.87299 211:0.15656 212:0.294608 213:0.305181 214:0.108724 215:0.701482 216:0.0970934 218:0.23003 220:0.244703 221:0.297279 222:0.188424 223:0.156296 224:0.161714 225:0.543598 226:0.337273 228:0.348485 229:0.0818063 256:0.446877 310:0.147106 311:0.141676 312:0.0982028 313:0.0631654 314:0.253807 315:0.0263345 316:0.529111 318:0.0867614 320:0.430013 321:0.0950413 322:0.0945338 323:0.0638618 324:0.0618182 325:0.0919089 326:0.2928 328:0.122947 329:0.420065 356:0.936393 410:0.801447 411:0.223264 412:0.172657 413:0.30731 414:0.463631 415:0.202135 416:0.460308 418:0.305048 420:0.389113 421:0.182003 422:0.170418 423:0.149718 424:0.195794 425:0.477612 426:0.497001 428:0.171727 429:0.627832 456:0.61728 510:0.461415 511:0.0548953 512:0.643774 513:0.657463 514:0.208729 515:0.313329 516:0.371293 518:0.623982 520:0.146207 521:0.631201 522:0.177721 523:0.521097 524:0.576784 525:0.4671 526:0.440577 528:0.0861645 529:0.201942 556:0.399563 610:0.694534 611:0.0976298 612:0.234353 613:0.155224 614:0.0392157 615:0.974321 616:0.0919952 618:0.17256 620:0.0286134 621:0.241514 622:0.170395 623:0.120056 624:0.102439 625:0.522951 626:0.180805 628:0.0603852 656:0.12394 710:0.216238 711:0.140223 712:0.088785 713:0.0524781 714:0.360549 715:0.038674 716:0.0251346 718:0.070615 720:0.385827 721:0.0626632 722:0.0913212 723:0.0564067 724:0.056108 725:0.0909829 726:0.241578 728:0.0848516 729:0.254851 756:0.98814 810:0.552699 811:0.299774 812:0.5 813:0.533137 814:0.174917 815:0.292079 816:0.288942 818:0.606488 820:0.341808 821:0.35743 822:0.182718 823:0.455601 824:0.514225 825:0.39375 826:0.489455 828:0.0757576 829:0.0915875 856:0.624242 910:0.471979 911:0.0723982 912:0.554266 913:0.650735 914:0.0468445 915:0.376552 916:0.18534 918:0.654893 920:0.103326 921:0.640532 922:0.190445 923:0.564891 924:0.633713 925:0.478553 926:0.416522 928:0.0604964 929:0.0847797 956:0.255618 
0.0680027792155181 10:0.369529 11:0.495463 12:0.387466 13:0.257225 14:0.264151 15:0.282927 16:0.493998 18:0.491966 20:0.622693 21:0.419137 22:0.32239 23:0.426132 24:0.408221 25:0.229763 26:0.44454 28:0.163516 29:0.189024 56:0.657762 110:0.259259 111:0.243799 112:0.37633 113:0.679191 114:0.402995 115:0.206316 116:0.183673 118:0.597701 120:0.278879 121:0.424324 122:0.182492 123:0.449811 124:0.372093 125:0.442385 126:0.478003 128:0.144609 129:0.167539 156:0.698931 210:0.303055 211:0.555127 212:0.522465 213:0.508872 214:0.287109 215:0.695131 216:0.679035 218:0.295858 220:0.274094 221:0.64499 222:0.259164 223:0.456296 224:0.278507 225:0.388845 226:0.245863 228:0.403535 229:0.374346 256:0.387959 310:0.335209 311:0.184123 312:0.508344 313:0.441448 314:0.213832 315:0.415658 316:0.223289 318:0.637996 320:0.368102 321:0.543388 322:0.780064 323:0.386927 324:0.388364 325:0.46033 326:0.464 328:0.194624 329:0.286084 356:0.415082 410:0.410772 411:0.188534 412:0.690629 413:0.534422 414:0.26692 415:0.418505 416:0.207385 418:0.492319 420:0.293011 421:0.541272 422:0.326045 423:0.332627 424:0.366933 425:0.469756 426:0.664096 428:0.183673 429:0.194822 456:0.569557 510:0.466238 511:0.247878 512:0.28113 513:0.448507 514:0.238457 515:0.278437 516:0.319098 518:0.395263 520:0.452414 521:0.308747 522:0.733419 523:0.327004 524:0.300649 525:0.507717 526:0.467742 528:0.1871 529:0.274434 556:0.677168 610:0.326367 611:0.196953 612:0.337274 613:0.263433 614:0.253595 615:0.27953 616:0.179211 618:0.286421 620:0.710932 621:0.389687 622:0.348684 623:0.360876 624:0.226481 625:0.557377 626:0.413882 628:0.169703 629:0.179959 656:0.84377 710:0.241961 711:0.148603 712:0.683578 713:0.602041 714:0.416068 715:0.260359 716:0.676242 718:0.305239 720:0.295634 721:0.578329 722:0.547927 723:0.417131 724:0.455256 725:0.488221 726:0.352506 728:0.170744 729:0.514877 756:0.379526 810:0.396744 811:0.261878 812:0.333104 813:0.469072 814:0.221122 815:0.310467 816:0.465517 818:0.661495 820:0.464689 821:0.472557 822:0.643799 823:0.359973 824:0.49431 825:0.580357 826:0.52109 828:0.187043 829:0.202849 856:0.419865 910:0.34063 911:0.231335 912:0.324232 913:0.376471 914:0.474301 915:0.311034 916:0.400477 918:0.606328 920:0.320594 921:0.410631 922:0.378927 923:0.409153 924:0.468706 925:0.305299 926:0.26087 928:0.239917 929:0.305073 956:0.68789 
0.06311262119127653 10:0.259259 11:0.243799 12:0.381402 13:0.679191 14:0.403383 15:0.204878 16:0.183673 18:0.58684 20:0.278879 21:0.423181 22:0.177938 23:0.436526 24:0.368533 25:0.448896 26:0.485813 28:0.144609 29:0.173442 56:0.698931 110:0.270202 111:0.609195 112:0.505319 113:0.5 114:0.287109 115:0.70386 116:0.673469 118:0.270498 120:0.274094 121:0.638514 122:0.224242 123:0.464906 124:0.264271 125:0.373086 126:0.190355 128:0.408278 129:0.374346 156:0.378693 210:0.335209 211:0.184123 212:0.508344 213:0.441448 214:0.209635 215:0.412138 216:0.21274 218:0.630917 220:0.358168 221:0.523557 222:0.780064 223:0.377037 224:0.369039 225:0.46033 226:0.457053 228:0.182828 229:0.274869 256:0.439794 310:0.410772 311:0.188534 312:0.690629 313:0.534422 314:0.267766 315:0.418505 316:0.213692 318:0.503366 320:0.292059 321:0.550964 322:0.326045 323:0.358377 324:0.368 325:0.469756 326:0.62 328:0.183673 329:0.194822 356:0.547541 410:0.466238 411:0.267365 412:0.28113 413:0.426544 414:0.238457 415:0.282562 416:0.331077 418:0.390636 420:0.44086 421:0.320027 422:0.732476 423:0.324153 424:0.302393 425:0.490966 426:0.472151 428:0.189149 429:0.274434 456:0.677168 510:0.326367 511:0.19468 512:0.311297 513:0.263433 514:0.277672 515:0.260991 516:0.177936 518:0.299778 520:0.728276 521:0.389687 522:0.341275 523:0.363572 524:0.234319 525:0.552396 526:0.410017 528:0.20384 529:0.221359 556:0.850593 610:0.241961 611:0.139955 612:0.7121 613:0.616418 614:0.41634 615:0.270726 616:0.676822 618:0.295615 620:0.278063 621:0.578329 622:0.5625 623:0.408898 624:0.44669 625:0.492623 626:0.367609 628:0.170744 629:0.505794 656:0.352577 710:0.442926 711:0.258659 712:0.351802 713:0.47449 714:0.214892 715:0.303177 716:0.46918 718:0.697039 720:0.486042 721:0.48564 722:0.626943 723:0.347493 724:0.495028 725:0.564582 726:0.557929 728:0.179073 729:0.217335 756:0.462235 810:0.354756 811:0.231335 812:0.326236 813:0.375552 814:0.481188 815:0.317539 816:0.394768 818:0.5811 820:0.305085 821:0.406292 822:0.381926 823:0.409153 824:0.468706 825:0.321429 826:0.253076 828:0.231975 829:0.284939 856:0.6633 910:0.263573 911:0.222285 912:0.277133 913:0.289706 914:0.727391 915:0.276552 916:0.216925 918:0.307579 920:0.4954 921:0.251827 922:0.282068 923:0.256148 924:0.254623 925:0.256518 926:0.227826 928:0.256463 929:0.378505 956:0.681024 
0.06254040600837454 10:0.303872 11:0.202057 12:0.497305 13:0.431358 14:0.21015 15:0.419512 16:0.220888 18:0.606733 20:0.358168 21:0.513477 22:0.750492 23:0.371938 24:0.352941 25:0.452984 26:0.423904 28:0.184977 29:0.284553 56:0.42929 110:0.382997 111:0.206897 112:0.679521 113:0.526012 114:0.264974 115:0.425263 116:0.211885 118:0.479693 120:0.28093 121:0.522297 122:0.294276 123:0.355472 124:0.336857 125:0.456084 126:0.582064 128:0.173735 129:0.182592 156:0.556254 210:0.466238 211:0.267365 212:0.28113 213:0.426544 214:0.235677 215:0.280169 216:0.327767 218:0.39497 220:0.431306 221:0.313869 222:0.732476 223:0.34 224:0.288182 225:0.490966 226:0.4342 228:0.177273 229:0.263089 256:0.68094 310:0.326367 311:0.215546 312:0.311297 313:0.250532 314:0.278553 315:0.264769 316:0.190019 318:0.302917 320:0.709287 321:0.411157 322:0.340836 323:0.38843 324:0.236364 325:0.534171 326:0.3864 328:0.206073 329:0.221359 356:0.842951 410:0.241961 411:0.159868 412:0.657253 413:0.586231 414:0.435168 415:0.256228 416:0.697231 418:0.305779 420:0.313172 421:0.599459 422:0.549839 423:0.408898 424:0.46483 425:0.472113 426:0.367609 428:0.207068 429:0.530744 456:0.380848 510:0.442926 511:0.24901 512:0.338254 513:0.485821 514:0.240354 515:0.295883 516:0.466785 518:0.69134 520:0.504828 521:0.48564 522:0.629105 523:0.341069 524:0.502523 525:0.564582 526:0.576401 528:0.212703 529:0.23301 556:0.463506 610:0.403537 611:0.220655 612:0.359527 613:0.391045 614:0.472549 615:0.323551 616:0.399044 618:0.579915 620:0.30741 621:0.421018 622:0.381579 623:0.389124 624:0.460627 625:0.331967 626:0.32048 628:0.223842 629:0.27471 656:0.674821 710:0.332797 711:0.219553 712:0.299065 713:0.295918 714:0.726323 715:0.275552 716:0.213645 718:0.302202 720:0.501074 721:0.265013 722:0.273964 723:0.241643 724:0.255682 725:0.281885 726:0.276089 728:0.2405 729:0.366753 756:0.681024 810:0.200514 811:0.317308 812:0.333791 813:0.282769 814:0.190099 815:0.314003 816:0.374554 818:0.275035 820:0.590395 821:0.242972 822:0.887203 823:0.584699 824:0.230441 825:0.383036 826:0.518453 828:0.15674 829:0.35346 856:0.348822 910:0.390543 911:0.0865385 912:0.653925 913:0.716176 914:0.080026 915:0.205517 916:0.164482 918:0.362767 920:0.0835103 921:0.276412 922:0.882853 923:0.373634 924:0.248222 925:0.322119 926:0.148696 928:0.0894519 929:0.279706 956:0.176966 
0.05176749051686024 10:0.382997 11:0.206897 12:0.688679 13:0.526012 14:0.265452 15:0.4223 16:0.211885 18:0.469013 20:0.28093 21:0.520889 22:0.286934 23:0.343727 24:0.333097 25:0.462796 26:0.591574 28:0.173735 29:0.189024 56:0.556254 110:0.441077 111:0.293406 112:0.255319 113:0.416185 114:0.235677 115:0.291228 116:0.332533 118:0.37318 120:0.431306 121:0.301351 122:0.719865 123:0.346415 124:0.274137 125:0.47784 126:0.392555 128:0.179356 129:0.263089 156:0.664676 210:0.326367 211:0.215546 212:0.311297 213:0.250532 214:0.276042 215:0.262526 216:0.180581 218:0.299556 220:0.704716 221:0.396151 222:0.340836 223:0.378519 224:0.224603 225:0.534171 226:0.380615 228:0.194444 229:0.209424 256:0.859948 310:0.241961 311:0.159868 312:0.657253 313:0.586231 314:0.436548 315:0.256228 316:0.722969 318:0.31264 320:0.312248 321:0.610193 322:0.549839 323:0.439519 324:0.466182 325:0.472113 326:0.3432 328:0.207068 329:0.530744 356:0.34918 410:0.442926 411:0.268467 412:0.338254 413:0.46203 414:0.240354 415:0.300356 416:0.484308 418:0.683248 420:0.491935 421:0.503383 422:0.628296 423:0.338277 424:0.505439 425:0.545954 426:0.581834 428:0.215032 429:0.23301 456:0.463506 510:0.403537 511:0.218449 512:0.331836 513:0.391045 514:0.489564 515:0.302861 516:0.396204 518:0.606958 520:0.348966 521:0.421018 522:0.373471 523:0.391702 524:0.476568 525:0.329001 526:0.317487 528:0.255047 529:0.311327 556:0.689021 610:0.332797 611:0.211625 612:0.311544 613:0.302985 614:0.726797 615:0.286867 616:0.215054 618:0.292786 620:0.488628 621:0.265013 622:0.284211 623:0.230932 624:0.250871 625:0.284426 626:0.287918 628:0.2405 629:0.349693 656:0.667645 710:0.258842 711:0.313408 712:0.35247 713:0.290087 714:0.184193 715:0.30663 716:0.377618 718:0.280942 720:0.613457 721:0.261749 722:0.865933 723:0.576602 724:0.231534 725:0.385053 726:0.555464 728:0.148881 729:0.360931 756:0.39638 810:0.403599 811:0.0865385 812:0.657967 813:0.715758 814:0.0811881 815:0.209335 816:0.159334 818:0.347673 820:0.0685028 821:0.271084 822:0.889842 823:0.373634 824:0.248222 825:0.339286 826:0.139719 828:0.0799373 829:0.259159 856:0.112121 910:0.0472855 911:0.133484 912:0.0484642 913:0.0544118 914:0.502277 915:0.0434483 916:0.0542312 918:0.0978661 920:0.7523 921:0.0471761 922:0.0896597 923:0.111339 924:0.0896159 925:0.0479394 926:0.0982609 928:0.138056 929:0.18024 956:0.817104 
0.0503421196728143 10:0.441077 11:0.293406 12:0.25876 13:0.416185 14:0.236174 15:0.289199 16:0.332533 18:0.362663 20:0.431306 21:0.300539 22:0.701904 23:0.334818 24:0.270021 25:0.484873 26:0.398968 28:0.179356 29:0.272358 56:0.664676 110:0.294613 111:0.23654 112:0.286569 113:0.236994 114:0.276042 115:0.273684 116:0.189676 118:0.27433 120:0.704716 121:0.385135 122:0.309764 123:0.38566 124:0.209302 125:0.52216 126:0.335025 128:0.19673 129:0.209424 156:0.839409 210:0.241961 211:0.159868 212:0.657253 213:0.586231 214:0.438151 215:0.254058 216:0.695733 218:0.309172 220:0.301435 221:0.587923 222:0.549839 223:0.428889 224:0.442985 225:0.472113 226:0.338061 228:0.195455 229:0.522251 256:0.37508 310:0.442926 311:0.268467 312:0.338254 313:0.46203 314:0.241117 315:0.300356 316:0.501599 318:0.698579 320:0.491252 321:0.512397 322:0.628296 323:0.364388 324:0.506909 325:0.545954 326:0.5432 328:0.215032 329:0.23301 356:0.436066 410:0.403537 411:0.238699 412:0.331836 413:0.371895 414:0.489564 415:0.307473 416:0.411077 418:0.599854 420:0.340054 421:0.436401 422:0.37299 423:0.389124 424:0.479333 425:0.318146 426:0.32048 428:0.25784 429:0.311327 456:0.689021 510:0.332797 511:0.209394 512:0.287548 513:0.302985 514:0.73561 515:0.267969 516:0.213523 518:0.30644 520:0.51931 521:0.265013 522:0.278171 523:0.234177 524:0.259553 525:0.281885 526:0.285229 528:0.270803 529:0.382524 556:0.682158 610:0.258842 611:0.306433 612:0.367177 613:0.297015 614:0.184314 615:0.319883 616:0.378734 618:0.272984 620:0.603815 621:0.261749 622:0.885526 623:0.570621 624:0.227178 625:0.388525 626:0.579263 628:0.148881 629:0.343558 656:0.370189 710:0.449357 711:0.0854749 712:0.667557 713:0.718659 714:0.0764206 715:0.20442 716:0.160981 718:0.35915 720:0.0844667 721:0.289164 722:0.868523 723:0.361421 724:0.24929 725:0.345248 726:0.201315 728:0.0723581 729:0.271022 756:0.176966 810:0.0676949 811:0.133484 812:0.0487637 813:0.0530191 814:0.509571 815:0.04314 816:0.049346 818:0.0937941 820:0.735876 821:0.0401606 822:0.0903694 823:0.111339 824:0.0896159 825:0.0482143 826:0.0887522 828:0.129049 829:0.158073 856:0.802694 910:0.0464098 911:0.122172 912:0.0580205 913:0.0683824 914:0.584906 915:0.0524138 916:0.264601 918:0.101545 920:0.578202 921:0.0677741 922:0.0883508 923:0.110656 924:0.0917496 925:0.0622372 926:0.0921739 928:0.310238 929:0.730307 956:0.831461 
0.05139924820078617 10:0.377946 11:0.151845 12:0.321429 13:0.406069 14:0.111256 15:0.186063 16:0.121849 18:0.397093 20:0.168148 21:0.311321 22:0.217991 23:0.43801 24:0.149539 25:0.765331 26:0.856406 28:0.0771589 29:0.0894309 56:0.450974 110:0.467172 111:0.313975 112:0.410904 113:0.538295 114:0.10612 115:0.195088 116:0.159664 118:0.572414 120:0.333561 121:0.372973 122:0.546128 123:0.395472 124:0.622269 125:0.592264 126:0.664975 128:0.0955544 129:0.27945 156:0.296669 210:0.224277 211:0.0611907 212:0.74647 213:0.619588 214:0.0950521 215:0.132675 216:0.148423 218:0.578402 220:0.159262 221:0.457863 222:0.270096 223:0.741481 224:0.268832 225:0.335428 226:0.15918 228:0.0611111 229:0.0706806 256:0.625563 310:0.641479 311:0.694598 312:0.323492 313:0.156139 314:0.0977157 315:0.691815 316:0.120921 318:0.342558 320:0.361373 321:0.747245 322:0.254662 323:0.143501 324:0.128 325:0.487824 326:0.1904 328:0.0816327 329:0.0711974 356:0.476066 410:0.172026 411:0.245865 412:0.376123 413:0.635202 414:0.409235 415:0.454804 416:0.452923 418:0.833943 420:0.436828 421:0.432341 422:0.162701 423:0.254237 424:0.374909 425:0.464258 426:0.175664 428:0.134893 429:0.534628 456:0.430131 510:0.21865 511:0.245048 512:0.514763 513:0.695522 514:0.13346 515:0.116539 516:0.146501 518:0.741673 520:0.533793 521:0.306136 522:0.158403 523:0.577356 524:0.562365 525:0.297319 526:0.174873 528:0.0960118 529:0.280259 556:0.651279 610:0.241961 611:0.123025 612:0.105702 613:0.0813433 614:0.314379 615:0.0462216 616:0.0328554 618:0.247525 620:0.698459 621:0.0828982 622:0.102632 623:0.271186 624:0.0752613 625:0.112295 626:0.355613 628:0.0671525 629:0.0974778 656:0.927919 710:0.48955 711:0.646927 712:0.551402 713:0.186589 714:0.456564 715:0.272099 716:0.691801 718:0.15262 720:0.32713 721:0.325065 722:0.134067 723:0.156685 724:0.129261 725:0.590577 726:0.532457 728:0.451327 729:0.188875 756:0.533708 810:0.440446 811:0.477941 812:0.617445 813:0.648012 814:0.0541254 815:0.298444 816:0.365042 818:0.59591 820:0.108051 821:0.244311 822:0.184697 823:0.708333 824:0.558321 825:0.527679 826:0.383128 828:0.0574713 829:0.068521 856:0.273401 910:0.203152 911:0.114253 912:0.0668942 913:0.0882353 914:0.603123 915:0.062069 916:0.353397 918:0.357616 920:0.40552 921:0.0784053 922:0.091623 923:0.126366 924:0.359886 925:0.0723297 926:0.0808696 928:0.18666 929:0.654206 956:0.764357 
0.05170985151353556 10:0.467172 11:0.313975 12:0.416442 13:0.538295 14:0.106701 15:0.193728 16:0.159664 18:0.561591 20:0.333561 21:0.371968 22:0.532502 23:0.383073 24:0.620128 25:0.600981 26:0.675838 28:0.0955544 29:0.289295 56:0.296669 110:0.18771 111:0.0671506 112:0.737367 113:0.612717 114:0.0950521 115:0.144561 116:0.158463 118:0.563218 120:0.159262 121:0.447973 122:0.23569 123:0.755472 124:0.254405 125:0.318292 126:0.0972927 128:0.0618293 129:0.0706806 156:0.610622 210:0.641479 211:0.694598 212:0.323492 213:0.156139 214:0.0904948 215:0.685956 216:0.113791 218:0.338757 220:0.351333 221:0.719973 222:0.254662 223:0.137037 224:0.121631 225:0.487824 226:0.187549 228:0.0681818 229:0.0575916 256:0.499678 310:0.172026 311:0.245865 312:0.376123 313:0.635202 314:0.410533 315:0.454804 316:0.46897 318:0.852655 320:0.43607 321:0.440083 322:0.162701 323:0.274981 324:0.376 325:0.464258 326:0.164 328:0.134893 329:0.534628 356:0.400984 410:0.21865 411:0.264609 412:0.514763 413:0.661462 414:0.13346 415:0.117438 416:0.152 418:0.732992 420:0.520161 421:0.317321 422:0.158199 423:0.575565 424:0.565627 425:0.28751 426:0.176521 428:0.0970632 429:0.280259 456:0.651279 510:0.241961 511:0.120543 512:0.097561 513:0.0813433 514:0.336496 515:0.0390789 516:0.0326216 518:0.259067 520:0.716552 521:0.0828982 522:0.100451 523:0.274262 524:0.0778659 525:0.111292 526:0.352292 528:0.106844 529:0.143042 556:0.931067 610:0.48955 611:0.643341 612:0.574409 613:0.191045 614:0.456863 615:0.283199 616:0.692354 618:0.153465 620:0.310345 621:0.325065 622:0.142105 623:0.144774 624:0.126829 625:0.595902 626:0.55527 628:0.451327 629:0.162236 656:0.513699 710:0.483923 711:0.472067 712:0.628171 713:0.651603 714:0.0496408 715:0.291436 716:0.368043 718:0.626424 720:0.124553 721:0.263055 722:0.176166 723:0.702646 724:0.558949 725:0.516653 726:0.428924 728:0.049974 729:0.0892626 756:0.326467 810:0.220223 811:0.114253 812:0.0673077 813:0.0868925 814:0.611881 815:0.0622348 816:0.3478 818:0.342736 820:0.389831 821:0.0716198 822:0.0923483 823:0.126366 824:0.359886 825:0.0741071 826:0.0711775 828:0.178161 829:0.639756 856:0.745791 910:0.0735552 911:0.73586 912:0.0778157 913:0.0860294 914:0.411841 915:0.0613793 916:0.0530393 918:0.111111 920:0.566171 921:0.0757475 922:0.0975131 923:0.480874 924:0.0789474 925:0.0958789 926:0.232174 928:0.105481 929:0.138852 956:0.852684 
0.05174497873160137 10:0.18771 11:0.0671506 12:0.747305 13:0.612717 14:0.0956409 15:0.143554 16:0.158463 18:0.55241 20:0.159262 21:0.446765 22:0.22981 23:0.737194 24:0.250177 25:0.322976 26:0.0988822 28:0.0618293 29:0.0731707 56:0.610622 110:0.624579 111:0.76225 112:0.299202 113:0.140896 114:0.0904948 115:0.694737 116:0.12485 118:0.314943 120:0.351333 121:0.714865 122:0.219529 123:0.139623 124:0.104299 125:0.474617 126:0.12775 128:0.0689831 129:0.0575916 156:0.487744 210:0.172026 211:0.245865 212:0.376123 213:0.635202 214:0.411458 215:0.450953 216:0.450216 218:0.843195 220:0.427204 221:0.424021 222:0.162701 223:0.266667 224:0.357291 225:0.464258 226:0.161545 228:0.122222 229:0.526178 256:0.42595 310:0.21865 311:0.264609 312:0.514763 313:0.661462 314:0.133883 315:0.117438 316:0.15611 318:0.749439 320:0.519515 321:0.323003 322:0.158199 323:0.616829 324:0.567273 325:0.28751 326:0.1648 328:0.0970632 329:0.280259 356:0.633443 410:0.241961 411:0.14333 412:0.097561 413:0.0773598 414:0.336496 415:0.0384342 416:0.0338462 418:0.256035 420:0.698253 421:0.0859269 422:0.100322 423:0.271186 424:0.0783176 425:0.10762 426:0.355613 428:0.108014 429:0.143042 456:0.931067 510:0.48955 511:0.642332 512:0.530167 513:0.191045 514:0.474383 515:0.26448 516:0.687426 518:0.160622 520:0.351724 521:0.325065 522:0.139086 523:0.148383 524:0.131218 525:0.590577 526:0.550085 528:0.470212 529:0.204531 556:0.534934 610:0.483923 611:0.466704 612:0.654381 613:0.667164 614:0.0496732 615:0.303742 616:0.369176 618:0.594767 620:0.102715 621:0.263055 622:0.184868 623:0.698446 624:0.548432 625:0.521311 626:0.447301 628:0.049974 629:0.0572597 656:0.29713 710:0.277331 711:0.112849 712:0.0934579 713:0.0962099 714:0.601568 715:0.0607735 716:0.350688 718:0.353834 720:0.410165 721:0.0946475 722:0.0854922 723:0.109331 724:0.360795 725:0.103981 726:0.137223 728:0.170224 729:0.633894 756:0.764357 810:0.0934019 811:0.73586 812:0.0782967 813:0.0846834 814:0.417822 815:0.0615276 816:0.048157 818:0.106488 820:0.550141 821:0.0689424 822:0.098285 823:0.480874 824:0.0789474 825:0.0991071 826:0.224077 828:0.0961338 829:0.116011 856:0.841077 910:0.722417 911:0.139706 912:0.191809 913:0.2125 914:0.107352 915:0.633103 916:0.122765 918:0.539367 920:0.592357 921:0.208638 922:0.192408 923:0.426913 924:0.487198 925:0.392767 926:0.6 928:0.0853154 929:0.0987984 956:0.493758 
0.05164509654633546 10:0.624579 11:0.76225 12:0.303235 13:0.140896 14:0.0910865 15:0.689895 16:0.12485 18:0.304514 20:0.351333 21:0.712938 22:0.214051 23:0.131403 24:0.0992204 25:0.481603 26:0.129837 28:0.0689831 29:0.0596206 56:0.487744 110:0.132997 111:0.269812 112:0.353723 113:0.628613 114:0.411458 115:0.461053 116:0.451381 118:0.837548 120:0.427204 121:0.413514 122:0.123232 123:0.271698 124:0.344609 125:0.450443 126:0.0998308 128:0.123659 129:0.526178 156:0.415776 210:0.21865 211:0.264609 212:0.514763 213:0.661462 214:0.127604 215:0.116443 216:0.147805 218:0.741124 220:0.511962 221:0.311214 222:0.158199 223:0.603704 224:0.539046 225:0.28751 226:0.162333 228:0.0838384 229:0.268979 256:0.654218 310:0.241961 311:0.14333 312:0.097561 313:0.0773598 314:0.337563 315:0.0384342 316:0.0332694 318:0.26178 320:0.697847 321:0.0874656 322:0.100322 323:0.293013 324:0.0785455 325:0.10762 326:0.332 328:0.108014 329:0.143042 356:0.927541 410:0.48955 411:0.651599 412:0.530167 413:0.181689 414:0.474383 415:0.268327 416:0.713231 418:0.158742 420:0.342742 421:0.336942 422:0.138907 423:0.144774 424:0.13198 425:0.571092 426:0.55527 428:0.475361 429:0.204531 456:0.534934 510:0.483923 511:0.465195 512:0.603979 513:0.667164 514:0.0803289 515:0.28402 516:0.366548 518:0.622502 520:0.156552 521:0.263055 522:0.18094 523:0.699719 524:0.567412 525:0.516653 526:0.443124 528:0.0905958 529:0.104854 556:0.327823 610:0.277331 611:0.103837 612:0.0973574 613:0.0985075 614:0.601961 615:0.0586941 616:0.351852 618:0.340877 620:0.395451 621:0.0946475 622:0.0927632 623:0.0967514 624:0.354007 625:0.104918 626:0.143102 628:0.170224 629:0.63122 656:0.754729 710:0.15836 711:0.726816 712:0.104139 713:0.0940233 714:0.409536 715:0.0600829 716:0.0490724 718:0.0994685 720:0.572656 721:0.0920366 722:0.0913212 723:0.470752 724:0.0802557 725:0.126726 726:0.280197 728:0.0884956 729:0.134541 756:0.852684 810:0.728363 811:0.139706 812:0.192995 813:0.21134 814:0.108911 815:0.647808 816:0.117717 818:0.516925 820:0.576271 821:0.202811 822:0.193931 823:0.426913 824:0.487198 825:0.414286 826:0.595782 828:0.0757576 829:0.0753053 856:0.453872 910:0.52014 911:0.113122 912:0.332423 913:0.419853 914:0.0709174 915:0.837931 916:0.132896 918:0.240618 920:0.428875 921:0.251827 922:0.184555 923:0.5 924:0.35064 925:0.644239 926:0.353913 928:0.0858325 929:0.0714286 956:0.325218 
0.05133348340056552 10:0.132997 11:0.269812 12:0.358491 13:0.628613 14:0.411841 15:0.45784 16:0.451381 18:0.82632 20:0.427204 21:0.412399 22:0.120158 23:0.261321 24:0.340893 25:0.457073 26:0.101462 28:0.123659 29:0.544715 56:0.415776 110:0.181818 111:0.290381 112:0.49734 113:0.655347 114:0.127604 115:0.128421 116:0.157863 118:0.731801 120:0.511962 121:0.298649 122:0.118519 123:0.615094 124:0.529951 125:0.269138 126:0.100677 128:0.0848237 129:0.268979 156:0.638592 210:0.241961 211:0.14333 212:0.097561 213:0.0773598 214:0.336589 215:0.0381087 216:0.0290662 218:0.258876 220:0.693096 221:0.0842734 222:0.100322 223:0.284444 224:0.0746372 225:0.10762 226:0.327029 228:0.0949495 229:0.130236 256:0.943014 310:0.48955 311:0.651599 312:0.530167 313:0.181689 314:0.475888 315:0.268327 316:0.739603 318:0.162304 320:0.341857 321:0.342975 322:0.138907 323:0.158527 324:0.132364 325:0.571092 326:0.5184 328:0.475361 329:0.204531 356:0.511148 410:0.483923 411:0.479052 412:0.603979 413:0.634493 414:0.0803289 415:0.288256 416:0.380308 418:0.615216 420:0.152554 421:0.272666 422:0.180707 423:0.698446 424:0.570703 425:0.499607 426:0.447301 428:0.0915879 429:0.104854 456:0.327823 510:0.277331 511:0.101302 512:0.0898588 513:0.0985075 514:0.614801 515:0.0509421 516:0.349348 518:0.356773 520:0.431724 521:0.0946475 522:0.090792 523:0.100563 524:0.366258 525:0.103981 526:0.141766 528:0.204333 529:0.649838 556:0.76544 610:0.15836 611:0.724041 612:0.108484 613:0.0962687 614:0.409804 615:0.0579604 616:0.0507766 618:0.10396 620:0.561996 621:0.0920366 622:0.0986842 623:0.463277 624:0.0787456 625:0.127869 626:0.292202 628:0.0884956 629:0.104976 656:0.847032 710:0.754019 711:0.137989 712:0.215621 713:0.219388 714:0.103854 715:0.632597 716:0.11909 718:0.541382 720:0.599141 721:0.222585 722:0.185233 723:0.415738 724:0.487926 725:0.413485 726:0.627773 728:0.0681936 729:0.0957309 756:0.493758 810:0.53042 811:0.113122 812:0.334478 813:0.418999 814:0.0719472 815:0.85785 816:0.127824 818:0.230606 820:0.413136 821:0.246319 822:0.186016 823:0.5 824:0.35064 825:0.68125 826:0.3471 828:0.07628 829:0.0474898 856:0.272054 910:0.0402802 911:0.0769231 912:0.201365 913:0.183824 914:0.383214 915:0.14069 916:0.584029 918:0.195732 920:0.547063 921:0.669767 922:0.115838 923:0.393443 924:0.173542 925:0.176619 926:0.251304 928:0.288521 929:0.950601 956:0.288702 
0.05122762059844988 10:0.316498 11:0.184513 12:0.445418 13:0.259393 14:0.0975927 15:0.489199 16:0.17587 18:0.233359 20:0.114833 21:0.458221 22:0.391333 23:0.230883 24:0.175762 25:1 26:0.394669 28:0.0843127 29:0.106369 56:0.135449 110:0.307239 111:0.0834846 112:0.215426 113:0.255058 114:0.417969 115:0.178947 116:1 118:0.206897 120:0.299385 121:0.317568 122:0.33468 123:0.280755 124:0.217054 125:0.410959 126:0.0769882 128:0.120593 129:0.33966 156:0.0989943 210:0.155145 211:0.0363837 212:0.218228 213:0.285309 214:0.0820313 215:0.13832 216:0.217687 218:0.471893 220:0.138756 221:0.276709 222:0.15627 223:0.34 224:1 225:0.227023 226:0.166273 228:0.0954545 229:0.118455 256:0.114617 310:0.745981 311:0.144983 312:0.225931 313:0.2044 314:0.42132 315:0.804982 316:0.165707 318:0.510845 320:0.144684 321:0.259642 322:0.194855 323:0.199098 324:0.425455 325:0.502749 326:0.2784 328:0.166252 329:0.523625 356:0.215738 410:0.278939 411:0.307607 412:0.372272 413:0.315117 414:0.145478 415:0.167972 416:0.308923 418:0.834674 420:0.374328 421:0.392422 422:0.19164 423:0.590395 424:0.773024 425:0.245876 426:0.209083 428:0.12444 429:0.326861 456:0.492202 510:1 511:0.196378 512:0.21887 513:0.247761 514:0.132195 515:0.327983 516:0.131673 518:0.250185 520:0.191724 521:0.210183 522:0.251127 523:0.198312 524:0.178082 525:0.533712 526:0.29202 528:0.117676 529:0.131392 556:0.287898 610:0.482315 611:0.145598 612:0.125174 613:0.110448 614:0.692157 615:0.121056 616:0.0913978 618:0.123762 620:0.559061 621:0.107702 622:0.130921 623:0.0988701 624:0.110801 625:0.268852 626:0.203085 628:0.161895 629:0.235174 656:0.824853 710:0.599678 711:0.102793 712:0.58478 713:0.5707 714:0.180927 715:0.216851 716:0.248953 718:0.690964 720:0.284896 721:0.415796 722:0.203368 723:0.493036 724:0.709517 725:0.411048 726:0.470008 728:0.0786049 729:0.257439 756:0.376717 810:0.502999 811:0.1069 812:0.373626 813:0.499264 814:0.132013 815:0.302687 816:0.252081 818:0.777856 820:0.310734 821:0.382865 822:0.212401 823:0.632514 824:0.460882 825:0.366964 826:0.253076 828:0.0903866 829:0.107191 856:0.460943 910:0.190018 911:0.329186 912:0.0703072 913:0.0801471 914:0.622642 915:0.077931 916:0.0804529 918:0.118469 920:0.666667 921:0.0697674 922:0.110602 923:0.126366 924:0.110953 925:0.0866274 926:0.122609 928:0.170114 929:0.236983 956:0.790262 
0.05166048158547397 10:0.307239 11:0.0834846 12:0.218329 13:0.255058 14:0.418347 15:0.1777 16:1 18:0.196634 20:0.299385 21:0.316712 22:0.32633 23:0.27023 24:0.212615 25:0.417007 26:0.0782459 28:0.120593 29:0.351626 56:0.0989943 110:0.11532 111:0.0399274 112:0.19016 113:0.272399 114:0.0820313 115:0.150175 116:0.22569 118:0.452874 120:0.138756 121:0.263514 122:0.116498 123:0.346415 124:1 125:0.207091 126:0.104907 128:0.0965764 129:0.118455 156:0.111879 210:0.745981 211:0.144983 212:0.225931 213:0.2044 214:0.422526 215:0.798165 216:0.157081 218:0.505178 220:0.131237 221:0.250166 222:0.194855 223:0.191852 224:0.404285 225:0.502749 226:0.274232 228:0.15404 229:0.515052 256:0.244044 310:0.278939 311:0.307607 312:0.372272 313:0.315117 314:0.145939 315:0.167972 316:0.319258 318:0.853403 320:0.373486 321:0.399449 322:0.19164 323:0.632607 324:0.775273 325:0.245876 326:0.1952 328:0.12444 329:0.326861 356:0.46623 410:1 411:0.2172 412:0.21887 413:0.235628 414:0.132195 415:0.333096 416:0.136615 418:0.247257 420:0.186828 421:0.217862 422:0.250804 423:0.194915 424:0.179115 425:0.516104 426:0.294773 428:0.118965 429:0.131392 456:0.287898 510:0.482315 511:0.143181 512:0.115533 513:0.110448 514:0.702087 515:0.110258 516:0.0907473 518:0.129534 520:0.585517 521:0.107702 522:0.128139 523:0.102672 524:0.114636 525:0.26645 526:0.201188 528:0.196455 529:0.273786 556:0.832502 610:0.599678 611:0.0936795 612:0.609179 613:0.584328 614:0.181046 615:0.224505 616:0.250299 618:0.65488 620:0.267058 621:0.415796 622:0.2125 623:0.485876 624:0.696167 625:0.414754 626:0.490146 628:0.0786049 629:0.234492 656:0.349641 710:0.542605 711:0.105587 712:0.391188 713:0.504373 714:0.126715 715:0.29558 716:0.254339 718:0.822323 720:0.329993 721:0.398172 722:0.203368 723:0.625348 724:0.461648 725:0.370431 726:0.307313 728:0.0827694 729:0.126132 756:0.500312 810:0.207369 811:0.329186 812:0.0707418 813:0.0787923 814:0.631683 815:0.0785007 816:0.0755054 818:0.11354 820:0.650424 821:0.0629183 822:0.111478 823:0.126366 824:0.110953 825:0.0892857 826:0.113357 828:0.161442 829:0.215739 856:0.773737 910:0.527145 911:0.254525 912:0.309898 913:0.448529 914:0.455433 915:0.258621 916:0.144219 918:0.630611 920:0.507431 921:0.191362 922:0.181937 923:0.453552 924:0.468706 925:0.393608 926:0.173043 928:0.258532 929:0.307744 956:0.747191 
0.05086991583978839 10:0.11532 11:0.0399274 12:0.192722 13:0.272399 14:0.0826285 15:0.149129 16:0.22569 18:0.442234 20:0.138756 21:0.262803 22:0.113592 23:0.334818 24:1 25:0.210139 26:0.106621 28:0.0965764 29:0.122629 56:0.111879 110:0.734007 111:0.159105 112:0.198138 113:0.190029 114:0.422526 115:0.806316 116:0.166867 118:0.487356 120:0.131237 121:0.236486 122:0.156902 123:0.195472 124:0.39253 125:0.489927 126:0.220812 128:0.155851 129:0.515052 156:0.238215 210:0.278939 211:0.307607 212:0.372272 213:0.315117 214:0.139974 215:0.166549 216:0.305504 218:0.843935 220:0.363636 221:0.384871 222:0.19164 223:0.619259 224:0.736697 225:0.245876 226:0.192277 228:0.111616 229:0.316099 256:0.490019 310:1 311:0.2172 312:0.21887 313:0.235628 314:0.132614 315:0.333096 316:0.140115 318:0.252805 320:0.185734 321:0.221763 322:0.250804 323:0.211871 324:0.179636 325:0.516104 326:0.2752 328:0.118965 329:0.131392 356:0.251475 410:0.482315 411:0.16538 412:0.115533 413:0.105039 414:0.702087 415:0.111032 416:0.0941538 418:0.128018 420:0.570565 421:0.111637 422:0.127974 423:0.0988701 424:0.115301 425:0.257659 426:0.203085 428:0.198606 429:0.273786 456:0.832502 510:0.599678 511:0.0911149 512:0.562259 513:0.584328 514:0.207464 515:0.208653 516:0.248517 518:0.685418 520:0.311034 521:0.415796 522:0.207985 523:0.488045 524:0.72026 525:0.411048 526:0.485569 528:0.117676 529:0.273139 556:0.378041 610:0.542605 611:0.0965011 612:0.40751 613:0.516418 614:0.126797 615:0.308144 616:0.255675 618:0.777228 620:0.31328 621:0.398172 622:0.2125 623:0.620056 624:0.452962 625:0.37377 626:0.32048 628:0.0827694 629:0.0961145 656:0.4788 710:0.265273 711:0.32514 712:0.0967957 713:0.0881924 714:0.621163 715:0.0766575 716:0.0766008 718:0.107062 720:0.674302 721:0.0861619 722:0.104275 723:0.109331 724:0.112216 725:0.11779 726:0.176664 728:0.153566 729:0.229625 756:0.790262 810:0.537275 811:0.254525 812:0.311813 813:0.447717 814:0.462046 815:0.263791 816:0.13912 818:0.604372 820:0.491525 821:0.185408 822:0.183377 823:0.453552 824:0.468706 825:0.415179 826:0.164323 828:0.250784 829:0.287653 856:0.727273 910:0.498249 911:0.0859729 912:0.607509 913:0.761029 914:0.0566038 915:0.284828 916:0.348033 918:0.554084 920:0.104742 921:0.408638 922:0.666885 923:0.514344 924:0.452347 925:0.463415 926:0.354783 928:0.0713547 929:0.102804 956:0.231898 
0.04980679782395479 10:0.734007 11:0.159105 12:0.200809 13:0.190029 14:0.422902 15:0.800697 16:0.166867 18:0.476664 20:0.131237 21:0.235849 22:0.152988 23:0.18634 24:0.389086 25:0.497138 26:0.22442 28:0.155851 29:0.533198 56:0.238215 110:0.244949 111:0.337568 112:0.349734 113:0.302746 114:0.139974 115:0.178246 116:0.310924 118:0.838314 120:0.363636 121:0.373649 122:0.153535 123:0.630943 124:0.731501 125:0.22643 126:0.132826 128:0.112928 129:0.316099 156:0.478316 210:1 211:0.2172 212:0.21887 213:0.235628 214:0.126302 215:0.330275 216:0.132344 218:0.25 220:0.172932 221:0.21367 222:0.250804 223:0.204444 224:0.170698 225:0.516104 226:0.27108 228:0.106061 229:0.118455 256:0.279137 310:0.482315 311:0.16538 312:0.115533 313:0.105039 314:0.704315 315:0.111032 316:0.0959693 318:0.13089 320:0.569987 321:0.113636 322:0.127974 323:0.109692 324:0.115636 325:0.257659 326:0.1896 328:0.198606 329:0.273786 356:0.823934 410:0.599678 411:0.114664 412:0.562259 413:0.555713 414:0.207464 415:0.211388 416:0.257846 418:0.677396 420:0.303091 421:0.430988 422:0.207717 423:0.485876 424:0.724438 425:0.397486 426:0.490146 428:0.118965 429:0.273139 456:0.378041 510:0.542605 511:0.0939445 512:0.376123 513:0.516418 514:0.154965 515:0.288207 516:0.253855 518:0.813472 520:0.354483 521:0.398172 522:0.207985 523:0.62166 524:0.468637 525:0.370431 526:0.317487 528:0.121615 529:0.141748 556:0.50156 610:0.265273 611:0.318284 612:0.100834 613:0.0902985 614:0.621569 615:0.0755686 616:0.0782557 618:0.111033 620:0.666178 621:0.0861619 622:0.111842 623:0.0967514 624:0.110105 625:0.118852 626:0.184233 628:0.153566 629:0.205181 656:0.7818 710:0.574759 711:0.251397 712:0.331108 713:0.453353 714:0.453298 715:0.257597 716:0.140634 718:0.635535 720:0.513243 721:0.205614 722:0.17487 723:0.442897 724:0.46946 725:0.414297 726:0.224322 728:0.242582 729:0.298189 756:0.747191 810:0.508997 811:0.0859729 812:0.611264 813:0.760677 814:0.0574257 815:0.290665 816:0.342449 818:0.53103 820:0.0896893 821:0.404284 822:0.672164 823:0.514344 824:0.452347 825:0.489286 826:0.347979 828:0.061651 829:0.0793758 856:0.17138 910:0.356392 911:0.317308 912:0.324232 913:0.375 914:0.601171 915:0.234483 916:0.484505 918:0.562178 920:0.226469 921:0.313621 922:0.155105 923:0.557377 924:0.576814 925:0.27418 926:0.195652 928:0.692865 929:0.687583 956:0.431336 
0.04747997442668456 10:0.244949 11:0.337568 12:0.354447 13:0.302746 14:0.140534 15:0.177003 16:0.310924 18:0.827085 20:0.363636 21:0.372642 22:0.149705 23:0.614699 24:0.729979 25:0.229763 26:0.134996 28:0.112928 29:0.327236 56:0.478316 110:1 111:0.238355 112:0.190824 113:0.221821 114:0.126302 115:0.341053 116:0.142857 118:0.222989 120:0.172932 121:0.199324 122:0.215488 123:0.208302 124:0.154334 125:0.503626 126:0.217428 128:0.107307 129:0.118455 156:0.27247 210:0.482315 211:0.16538 212:0.115533 213:0.105039 214:0.712891 215:0.110092 216:0.0896722 218:0.129438 220:0.563226 221:0.109489 222:0.127974 223:0.103704 224:0.109883 225:0.257659 226:0.186761 228:0.186869 229:0.262435 256:0.841275 310:0.599678 311:0.114664 312:0.562259 313:0.555713 314:0.208122 315:0.211388 316:0.266155 318:0.692595 320:0.302153 321:0.438705 322:0.207717 323:0.521412 324:0.726545 325:0.397486 326:0.4576 328:0.118965 329:0.273139 356:0.34623 410:0.542605 411:0.11742 412:0.376123 413:0.491128 414:0.154965 415:0.292527 416:0.263385 418:0.80395 420:0.34543 421:0.41272 422:0.207717 423:0.620056 424:0.471356 425:0.358209 426:0.32048 428:0.122947 429:0.141748 456:0.50156 510:0.265273 511:0.316355 512:0.093068 513:0.0902985 514:0.633776 515:0.0669923 516:0.0776987 518:0.11621 520:0.686207 521:0.0861619 522:0.109466 523:0.100563 524:0.113915 525:0.11779 526:0.182513 528:0.188577 529:0.245307 556:0.791329 610:0.574759 611:0.243792 612:0.344924 613:0.464179 614:0.453595 615:0.267792 616:0.142174 618:0.603253 620:0.501101 621:0.205614 622:0.183553 623:0.435028 624:0.460627 625:0.418033 626:0.233933 628:0.242582 629:0.277437 656:0.736791 710:0.548232 711:0.0849162 712:0.622163 713:0.76312 714:0.0529066 715:0.28384 716:0.345302 718:0.556568 720:0.105941 721:0.41906 722:0.654793 723:0.504875 724:0.453125 725:0.481722 726:0.396056 728:0.0541385 729:0.0996119 756:0.231898 810:0.37018 811:0.317308 812:0.326236 813:0.37408 814:0.609901 815:0.239038 816:0.478597 818:0.538787 820:0.211158 821:0.308568 822:0.156332 823:0.557377 824:0.576814 825:0.288393 826:0.18717 828:0.689655 829:0.673677 856:0.386532 910:0.0656743 911:0.147624 912:0.0662116 913:0.0720588 914:0.607027 915:0.062069 916:0.0882002 918:0.109639 920:0.542109 921:0.061794 922:0.104058 923:0.114754 924:0.105263 925:0.0672834 926:0.113913 928:0.337642 929:0.403872 956:0.814919 
0.04705395127104307 10:1 11:0.238355 12:0.193396 13:0.221821 14:0.126871 15:0.338676 16:0.142857 18:0.212701 20:0.172932 21:0.198787 22:0.210112 23:0.198961 24:0.149539 25:0.511038 26:0.22098 28:0.107307 29:0.122629 56:0.27247 110:0.457912 111:0.181488 112:0.0837766 113:0.0888728 114:0.712891 115:0.122105 116:0.101441 118:0.0980843 120:0.563226 121:0.0932432 122:0.0868687 123:0.10566 124:0.0923185 125:0.238517 126:0.126904 128:0.189065 129:0.262435 156:0.821182 210:0.599678 211:0.114664 212:0.562259 213:0.555713 214:0.203776 215:0.209598 216:0.254174 218:0.684911 220:0.291183 221:0.422694 222:0.207717 223:0.50963 224:0.690394 225:0.397486 226:0.450749 228:0.106061 229:0.26178 256:0.372183 310:0.542605 311:0.11742 312:0.376123 313:0.491128 314:0.155457 315:0.292527 316:0.271913 318:0.82199 320:0.344549 321:0.42011 322:0.207717 323:0.664162 324:0.472727 325:0.358209 326:0.2992 328:0.122947 329:0.141748 356:0.476066 410:0.265273 411:0.334068 412:0.093068 413:0.0858765 414:0.633776 415:0.0669039 416:0.0806154 418:0.11485 420:0.668683 421:0.0893099 422:0.109325 423:0.0967514 424:0.114576 425:0.113904 426:0.184233 428:0.190642 429:0.245307 456:0.791329 510:0.574759 511:0.241653 512:0.318357 513:0.464179 514:0.471221 515:0.249826 516:0.141163 518:0.631384 520:0.531034 521:0.205614 522:0.179652 523:0.437412 524:0.476568 525:0.414297 526:0.231749 528:0.272772 529:0.313916 556:0.748284 610:0.548232 611:0.0756208 612:0.648122 613:0.781343 614:0.0529412 615:0.295671 616:0.346476 618:0.529703 620:0.083639 621:0.41906 622:0.671053 623:0.497881 624:0.444599 625:0.486066 626:0.413025 628:0.0541385 629:0.0681663 656:0.198304 710:0.418006 711:0.313408 712:0.345127 713:0.380466 714:0.599608 715:0.233425 716:0.482346 718:0.56492 720:0.229062 721:0.325718 722:0.148316 723:0.548747 724:0.577415 725:0.298944 726:0.245686 728:0.679854 729:0.666235 756:0.431336 810:0.0856898 811:0.147624 812:0.0666209 813:0.0706922 814:0.615842 815:0.0622348 816:0.0832342 818:0.105078 820:0.52613 821:0.0548862 822:0.104881 823:0.114754 824:0.105263 825:0.06875 826:0.104569 828:0.330721 829:0.385346 856:0.800337 910:0.396673 911:0.0961538 912:0.376109 913:0.663971 914:0.104099 915:0.286207 916:0.218713 918:0.833701 920:0.163482 921:0.360133 922:0.242147 923:0.596995 924:0.652916 925:0.372582 926:0.326957 928:0.113754 929:0.22964 956:0.294944 
0.03925207499731485 10:0.44697 11:0.1585 12:0.590296 13:0.708815 14:0.295381 15:0.485714 16:0.30072 18:0.467483 20:0.380725 21:0.343666 22:0.243598 23:0.479584 24:0.508859 25:0.546198 26:0.312984 28:0.149719 29:0.227642 56:0.442489 110:0.571549 111:0.15245 112:0.650266 113:0.643786 114:0.28776 115:0.430877 116:0.193277 118:0.634483 120:0.16473 121:0.418919 122:0.241077 123:0.599245 124:0.372093 125:0.434327 126:0.290186 128:0.139499 129:0.140052 156:0.390006 210:0.335209 211:0.14774 212:0.210526 213:0.415898 214:0.674479 215:0.172195 216:0.373531 218:0.338757 220:0.488722 221:0.199071 222:0.18135 223:0.264444 224:0.364202 225:0.197958 226:0.357762 228:0.658586 229:0.774869 256:0.624276 310:0.243569 311:0.151599 312:0.162388 313:0.195884 314:0.568528 315:0.123843 316:0.110685 318:0.440539 320:0.510767 321:0.157025 322:0.154341 323:0.328325 324:0.442182 325:0.152396 326:0.2376 328:0.536088 329:0.289968 356:0.885246 410:0.509646 411:0.113561 412:0.525032 413:0.630944 414:0.352941 415:0.315302 416:0.323077 418:0.746159 420:0.340054 421:0.483762 422:0.385209 423:0.442797 424:0.548949 425:0.468971 426:0.361611 428:0.131906 429:0.198058 456:0.413911 510:0.383441 511:0.0871534 512:0.54172 513:0.586567 514:0.12334 515:0.438939 516:0.412218 518:0.656551 520:0.437931 521:0.503916 522:0.312299 523:0.632208 524:0.584715 525:0.564582 526:0.526316 528:0.123584 529:0.133981 556:0.328447 610:0.390675 611:0.268623 612:0.146732 613:0.126866 614:0.277124 615:0.225238 616:0.188172 618:0.243989 620:0.744681 621:0.201697 622:0.142105 623:0.120763 624:0.130314 625:0.258197 626:0.176521 628:0.427382 629:0.207226 656:0.703196 710:0.333601 711:0.0726257 712:0.26235 713:0.588192 714:0.387982 715:0.232735 716:0.243567 718:0.820046 720:0.45383 721:0.238251 722:0.180699 723:0.574513 724:0.737926 725:0.281885 726:0.359901 728:0.0838105 729:0.130013 756:0.451623 810:0.45844 811:0.158371 812:0.675137 813:0.610457 814:0.124092 815:0.296322 816:0.370987 818:0.712976 820:0.424435 821:0.461178 822:0.33905 823:0.431011 824:0.49431 825:0.51875 826:0.426186 828:0.0611285 829:0.07327 856:0.290236 910:0.511384 911:0.0808824 912:0.54198 913:0.753676 914:0.0572544 915:0.318621 916:0.221692 918:0.564386 920:0.36235 921:0.50299 922:0.193063 923:0.626366 924:0.45377 925:0.540791 926:0.529565 928:0.07394 929:0.193591 956:0.19226 
0.03862107523417563 10:0.571549 11:0.15245 12:0.65903 13:0.643786 14:0.288224 15:0.427875 16:0.193277 18:0.623565 20:0.16473 21:0.41779 22:0.235062 23:0.583519 24:0.368533 25:0.44072 26:0.294927 28:0.139499 29:0.144986 56:0.390006 110:0.303872 111:0.162129 112:0.182181 113:0.405347 114:0.674479 115:0.18386 116:0.376951 118:0.314943 120:0.488722 121:0.184459 122:0.142761 123:0.269434 124:0.351656 125:0.177276 126:0.310491 128:0.666326 129:0.774869 156:0.609365 210:0.243569 211:0.151599 212:0.162388 213:0.195884 214:0.573568 215:0.122795 216:0.103896 218:0.435651 220:0.503076 221:0.151294 222:0.154341 223:0.319259 224:0.42018 225:0.152396 226:0.234043 228:0.529293 229:0.278796 256:0.901481 310:0.509646 311:0.113561 312:0.525032 313:0.630944 314:0.354061 315:0.315302 316:0.333973 318:0.762902 320:0.339166 321:0.492424 322:0.385209 323:0.475582 324:0.550545 325:0.468971 326:0.3376 328:0.131906 329:0.198058 356:0.383934 410:0.383441 411:0.110805 412:0.54172 413:0.557842 414:0.12334 415:0.446263 416:0.427692 418:0.648866 420:0.426747 421:0.522327 422:0.311897 423:0.63065 424:0.588107 425:0.545954 426:0.531277 428:0.124938 429:0.133981 456:0.328447 510:0.390675 511:0.266553 512:0.13543 513:0.126866 514:0.300443 515:0.209351 516:0.186833 518:0.255366 520:0.76 521:0.201697 522:0.139086 523:0.124473 524:0.134823 525:0.25589 526:0.174873 528:0.447563 529:0.247249 556:0.716157 610:0.333601 611:0.0632054 612:0.273296 613:0.602239 614:0.388235 615:0.241379 616:0.244922 618:0.775106 620:0.440205 621:0.238251 622:0.189474 623:0.568503 624:0.724042 625:0.284426 626:0.375321 628:0.0838105 629:0.100204 656:0.427919 710:0.500804 711:0.156425 712:0.684246 713:0.614431 714:0.118877 715:0.289365 716:0.374028 718:0.752468 720:0.44524 721:0.474543 722:0.32772 723:0.419916 724:0.495028 725:0.50853 726:0.469187 728:0.0536179 729:0.0937904 756:0.342072 810:0.521851 811:0.0808824 812:0.54533 813:0.753314 814:0.0580858 815:0.325318 816:0.216409 818:0.540903 820:0.346751 821:0.499331 822:0.194591 823:0.626366 824:0.45377 825:0.571429 826:0.524605 828:0.0642633 829:0.171642 856:0.12862 910:0.155867 911:0.284502 912:0.404096 913:0.496324 914:0.0585556 915:0.802069 916:0.476162 918:0.665931 920:0.0658174 921:0.626578 922:0.168194 923:0.352459 924:0.50569 925:0.456686 926:0.113043 928:0.0780765 929:0.176235 956:0.190699 
0.03684338601571065 10:0.303872 11:0.162129 12:0.184636 13:0.405347 14:0.674691 15:0.182578 16:0.376951 18:0.304514 20:0.488722 21:0.183962 22:0.139199 23:0.259094 24:0.34798 25:0.179886 26:0.315563 28:0.666326 29:0.802168 56:0.609365 110:0.207912 111:0.166364 112:0.132314 113:0.181358 114:0.573568 115:0.134737 116:0.115246 118:0.415326 120:0.503076 121:0.135811 122:0.114478 123:0.325283 124:0.408739 125:0.13054 126:0.177665 128:0.535514 129:0.278796 156:0.87995 210:0.509646 211:0.113561 212:0.525032 213:0.630944 214:0.353516 215:0.312632 216:0.319728 218:0.754438 220:0.328776 221:0.474453 222:0.385209 223:0.464444 224:0.523151 225:0.468971 226:0.332545 228:0.119192 229:0.185864 256:0.409208 310:0.383441 311:0.110805 312:0.54172 313:0.557842 314:0.123731 315:0.446263 316:0.442738 318:0.663426 320:0.425976 321:0.53168 322:0.311897 323:0.675432 324:0.589818 325:0.545954 326:0.496 328:0.124938 329:0.133981 356:0.294098 410:0.390675 411:0.285557 412:0.13543 413:0.120653 414:0.300443 415:0.2121 416:0.193846 418:0.252377 420:0.740591 421:0.209066 422:0.138907 423:0.120763 424:0.135606 425:0.247447 426:0.176521 428:0.452464 429:0.247249 456:0.716157 510:0.333601 511:0.0605546 512:0.252246 513:0.602239 514:0.40797 515:0.224703 516:0.243179 518:0.811251 520:0.473793 521:0.238251 522:0.185448 523:0.570323 524:0.749099 525:0.281885 526:0.371817 528:0.1226 529:0.145631 556:0.452901 610:0.500804 611:0.147856 612:0.712796 613:0.629104 614:0.118954 615:0.301541 616:0.375149 618:0.712164 620:0.431401 621:0.474543 622:0.338816 623:0.411723 624:0.485714 625:0.513115 626:0.489289 628:0.0536179 629:0.0620314 656:0.313438 710:0.560289 711:0.0798883 712:0.558077 713:0.755831 714:0.0535598 715:0.31768 716:0.218432 718:0.567198 720:0.3665 721:0.511749 722:0.185881 723:0.619081 724:0.454545 725:0.556458 726:0.561216 728:0.0567413 729:0.187581 756:0.19226 810:0.17395 811:0.284502 812:0.406593 813:0.495582 814:0.0594059 815:0.821075 816:0.470273 818:0.638223 820:0.0508475 821:0.623829 822:0.169525 823:0.352459 824:0.50569 825:0.482143 826:0.103691 828:0.0684431 829:0.154003 856:0.126936 910:0.1331 911:0.0147059 912:0.182935 913:0.266912 914:0.144437 915:0.126897 916:0.18236 918:0.571008 920:0.214437 921:0.222591 922:0.196335 923:0.609973 924:0.989331 925:0.220353 926:0.0834783 928:0.0682523 929:0.0921228 956:0.165106 
