svm_type c_svc
kernel_type rbf
gamma 1
nr_class 2
total_sv 373
rho -0.95961
label 1 0
probA -26.67
probB 24.0423
nr_sv 247 126
SV
0.04388053662770736 11:0.0713053 18:0.454768 26:0.194219 51:0.76117 54:0.645543 55:0.329587 56:0.265773 57:0.438519 111:0.127981 118:0.213878 126:0.590062 151:0.63494 154:0.452106 155:0.186832 156:0.547642 157:0.595926 211:0.0807018 218:0.609099 226:0.498586 251:0.742067 254:0.821842 255:0.315671 256:0.530231 257:0.285926 311:0.157895 318:0.0623028 326:0.167121 351:0.116099 354:0.0444444 355:0.268734 356:1 357:0.121481 411:0.108377 418:0.466418 426:0.573432 451:0.799478 454:0.726884 455:0.409302 456:0.57626 457:0.374669 511:0.393673 518:0.118453 526:0.429725 551:0.418634 554:0.148398 555:0.471905 556:0.849277 557:0.213085 611:0.112478 618:0.241094 626:0.25 651:0.561024 654:0.34133 655:0.712663 656:0.697513 657:0.359426 711:0.0466174 718:0.683448 726:0.168627 751:0.918552 754:0.906514 755:0.0932963 756:0.109554 757:0.435181 811:0.0517339 818:0.43402 826:0.164686 851:0.812297 854:0.673858 855:0.235794 856:0.072293 857:0.652829 911:0.487861 918:0.155606 926:0.290323 951:0.370773 954:0.249154 955:0.650783 956:0.336111 957:0.657299 
0.03964720233100869 11:0.128235 18:0.263244 26:0.600723 51:0.68197 54:0.491339 55:0.182262 56:0.532854 57:0.595926 111:0.0709715 118:0.590204 126:0.469388 151:0.751545 154:0.821842 155:0.282556 156:0.530231 157:0.285926 211:0.157895 218:0.0665543 226:0.173421 251:0.1131 254:0.0314669 255:0.263434 256:1 257:0.121481 311:0.109942 318:0.430599 326:0.666667 351:0.781374 354:0.759184 355:0.400248 356:0.579814 357:0.387407 411:0.393673 418:0.0811567 426:0.417492 451:0.416717 454:0.135274 455:0.490439 456:0.880983 457:0.186011 511:0.112478 518:0.221595 526:0.253635 551:0.550309 554:0.340219 555:0.733217 556:0.681636 557:0.337719 611:0.0480375 618:0.742336 626:0.13961 651:0.887205 654:0.901936 655:0.105607 656:0.122128 657:0.447131 711:0.0517339 718:0.43402 726:0.152157 751:0.836907 754:0.673858 755:0.243382 756:0.072293 757:0.624651 811:0.496305 818:0.155606 826:0.290323 851:0.404048 854:0.249154 855:0.650783 856:0.336943 857:0.657713 911:0.137572 918:0.0884821 926:0.164686 951:0.183108 954:0.0630288 955:0.163535 956:0.936111 957:0.0478188 
0.0379535851656055 11:0.0718804 18:0.638957 26:0.477868 51:0.781146 54:0.828897 55:0.278524 56:0.514874 57:0.285926 111:0.14776 118:0.0644898 126:0.163265 151:0.114545 154:0.0314669 155:0.231778 156:1 157:0.121481 211:0.109942 218:0.459983 226:0.6918 251:0.761188 254:0.760759 255:0.395901 256:0.5717 257:0.387407 311:0.394737 318:0.10489 326:0.495005 351:0.383587 354:0.132426 355:0.478164 356:0.876398 357:0.202593 411:0.112478 418:0.20056 426:0.237624 451:0.562387 454:0.330051 455:0.762016 456:0.707084 457:0.314934 511:0.0480375 518:0.709106 526:0.14378 551:0.851253 554:0.901771 555:0.108652 556:0.119348 557:0.415936 611:0.0533099 618:0.471417 626:0.122565 651:0.805512 654:0.670455 655:0.275495 656:0.0853006 657:0.641803 711:0.496305 718:0.155606 726:0.268235 751:0.41629 754:0.249154 755:0.639411 756:0.336943 757:0.629438 811:0.151791 818:0.0884821 826:0.164686 851:0.199542 854:0.0630288 855:0.163535 856:0.956051 857:0.0663411 911:0.327746 918:0.414188 926:0.5382 951:0.394954 954:0.159475 955:0.438926 956:0.755247 957:0.189597 
0.03820975648361558 11:0.147786 18:0.114099 26:0.166215 51:0.239355 54:0.107309 55:0.227462 56:1 57:0.121481 111:0.100058 118:0.445714 126:0.651287 151:0.770911 154:0.760759 155:0.360544 156:0.5717 157:0.387407 211:0.394737 218:0.112047 226:0.513666 251:0.373678 254:0.12124 255:0.474381 256:0.874011 257:0.202593 311:0.114035 318:0.205836 326:0.297003 351:0.534976 354:0.338776 355:0.738958 356:0.707143 357:0.328889 411:0.0480375 418:0.764925 426:0.125413 451:0.895318 454:0.900257 455:0.11292 456:0.123803 457:0.395841 511:0.0533099 518:0.445608 526:0.126817 551:0.775881 554:0.669899 555:0.283441 556:0.083359 557:0.589547 611:0.511424 618:0.169014 626:0.242695 651:0.384646 654:0.247896 655:0.72378 656:0.346868 657:0.646721 711:0.151791 718:0.0884821 726:0.152157 751:0.205587 754:0.0630288 755:0.174424 756:0.956051 757:0.0498604 811:0.338829 818:0.414188 826:0.5382 851:0.430399 854:0.159475 855:0.438926 856:0.769427 857:0.203907 911:0.136994 918:0.0839054 926:0.264856 951:0.113895 954:0.0693739 955:0.397987 956:0.951543 957:0.143037 
0.03835297644773111 11:0.100633 18:0.494703 26:0.663053 51:0.797617 54:0.773131 55:0.356951 56:0.557699 57:0.387407 111:0.383362 118:0.108571 126:0.483585 151:0.378451 154:0.12124 155:0.436832 156:0.874011 157:0.202593 211:0.114035 218:0.219882 226:0.3082 251:0.521155 254:0.331791 255:0.737066 256:0.701488 257:0.328889 311:0.0497076 318:0.682965 326:0.173479 351:0.880977 354:0.942857 355:0.115633 356:0.139441 357:0.408148 411:0.0533099 418:0.459888 426:0.108086 451:0.811935 454:0.664812 455:0.294574 456:0.086471 457:0.575425 511:0.511424 518:0.151491 526:0.246365 551:0.387577 554:0.246627 555:0.744654 556:0.338973 557:0.593933 611:0.156415 618:0.096106 626:0.122565 651:0.173819 654:0.0627104 655:0.197438 656:0.958766 657:0.0512295 711:0.338829 718:0.414188 726:0.497255 751:0.443439 754:0.159475 755:0.437233 756:0.769427 757:0.184683 811:0.151222 818:0.0839054 826:0.264856 851:0.124117 854:0.0693739 855:0.397987 856:0.971975 857:0.15873 911:0.503468 918:0.270786 926:0.240238 951:0.694761 954:0.489002 955:0.117002 956:0.211728 957:0.922819 
0.03758937193555026 11:0.380679 18:0.158109 26:0.492322 51:0.463816 54:0.189269 55:0.433667 56:0.869892 57:0.202593 111:0.10413 118:0.213061 126:0.290151 151:0.527812 154:0.331791 155:0.692177 156:0.701488 157:0.328889 211:0.0497076 218:0.72957 226:0.180019 251:0.858218 254:0.948172 255:0.109223 256:0.122824 257:0.408148 311:0.0549708 318:0.425079 326:0.154405 351:0.79432 354:0.693424 355:0.290074 356:0.103106 357:0.584074 411:0.511424 418:0.119403 426:0.230198 451:0.382359 454:0.235017 455:0.773902 456:0.351627 457:0.579962 511:0.156415 518:0.0805802 526:0.126817 551:0.193062 554:0.0611298 555:0.203133 556:0.936942 557:0.0628655 611:0.349151 618:0.449876 626:0.479708 651:0.411811 654:0.15867 655:0.494925 656:0.774315 657:0.189754 711:0.151222 718:0.0839054 726:0.244706 751:0.127877 754:0.0693739 755:0.398164 756:0.971975 757:0.140407 811:0.511654 818:0.270786 826:0.240238 851:0.757113 854:0.489002 855:0.117002 856:0.208599 857:0.915344 911:0.171098 918:0.225019 926:0.836163 951:0.490976 954:0.243232 955:0.134228 956:0.48642 957:0.739513 
0.03934709713288903 11:0.163887 18:0.603097 26:0.525745 51:0.659015 54:0.2594 55:0.674811 56:0.551161 57:0.2 111:0.351367 118:0.0685714 126:0.220053 151:0.119077 154:0.0610828 155:0.176142 156:0.905033 157:0.526667 211:0.301754 218:0.0665543 226:0.169651 251:0.151546 254:0.0402591 255:0.408398 256:0.871478 257:0.494444 311:0.436257 318:0.0725552 326:0.347866 351:0.287534 354:0.0553288 355:0.440447 356:0.82236 357:0.32 411:0.482132 418:0.11194 426:0.367987 451:0.418525 454:0.328767 455:0.705168 456:0.735801 457:0.470321 511:0.115993 518:0.163578 526:0.427302 551:0.39466 554:0.192664 555:0.0591745 556:0.171332 557:1 611:0.0743995 618:0.0637945 626:0.368506 651:0.191339 654:0.0787037 655:0.784437 656:0.561851 657:0.288115 711:0.0579875 718:0.128146 726:0.0698039 751:0.182963 754:0.156514 755:0.0324509 756:0.016242 757:0.818907 811:0.102899 818:0.182304 826:0.283531 851:0.650181 854:0.33291 855:0.10783 856:0.359554 857:0.964998 911:0.0289017 918:0.12357 926:0.0628183 951:0.213948 954:0.23308 955:0.001566 956:0.0574074 957:0.776846 
0.03972891363410978 11:0.349051 18:0.118174 26:0.224029 51:0.24321 54:0.134347 55:0.171512 56:0.901929 57:0.526667 111:0.290867 118:0.0644898 126:0.159716 151:0.153482 154:0.0402591 155:0.372692 156:0.871478 157:0.494444 211:0.436257 218:0.0775063 226:0.36098 251:0.280106 254:0.0425729 255:0.436391 256:0.81893 257:0.32 311:0.483041 318:0.130915 326:0.440509 351:0.385467 354:0.337415 355:0.684367 356:0.735093 357:0.481111 411:0.115993 418:0.133396 426:0.415017 451:0.390195 454:0.180223 455:0.0614987 456:0.177728 457:1 511:0.0743995 518:0.0491539 526:0.371567 551:0.209226 554:0.0771501 555:0.807061 556:0.549062 557:0.274123 611:0.059754 618:0.139188 626:0.0373377 651:0.151181 654:0.155724 655:0.0367327 656:0.0299024 657:0.841393 711:0.102899 718:0.182304 726:0.261961 751:0.66988 754:0.33291 755:0.121264 756:0.359554 757:0.930594 811:0.0449119 818:0.12357 826:0.0628183 851:0.233149 854:0.23308 855:0.001566 856:0.0493631 857:0.773708 911:0.208671 918:0.10984 926:0.0950764 951:0.180831 954:0.118866 955:0.627517 956:0.72716 957:0.426594 
0.03972660214824875 11:0.289247 18:0.114099 26:0.162602 51:0.272472 54:0.115336 55:0.369167 56:0.867277 57:0.494444 111:0.424666 118:0.075102 126:0.33984 151:0.283684 154:0.0425729 155:0.399903 156:0.81893 157:0.32 211:0.483041 218:0.139848 226:0.457116 251:0.375509 254:0.330403 255:0.682079 256:0.729978 257:0.481111 311:0.117544 318:0.149054 326:0.49228 351:0.356024 354:0.180045 355:0.0662531 356:0.191925 357:1 411:0.0743995 418:0.000932836 426:0.358086 451:0.185051 454:0.0629281 455:0.83876 456:0.56956 457:0.249149 511:0.059754 518:0.122482 526:0.0420032 551:0.172176 554:0.1543 555:0.0377921 556:0.0292218 557:0.767544 611:0.106034 618:0.198012 626:0.236201 651:0.638386 654:0.331229 655:0.137264 656:0.369216 657:0.956148 711:0.0449119 718:0.12357 726:0.0580392 751:0.240212 754:0.23308 755:0.0198548 756:0.0493631 757:0.743119 811:0.221717 818:0.10984 826:0.0950764 851:0.197059 854:0.118866 855:0.627517 856:0.740446 857:0.433862 911:0.36474 918:0.412662 926:0.911715 951:0.548274 954:0.423435 955:0.278076 956:0.373765 957:0.628356 
0.03891362128930681 11:0.421507 18:0.124694 26:0.34598 51:0.383214 54:0.117448 55:0.396531 56:0.813011 57:0.32 111:0.471204 118:0.13551 126:0.430346 151:0.380305 154:0.330403 155:0.638727 156:0.729978 157:0.481111 211:0.117544 218:0.159225 226:0.510839 251:0.346827 254:0.169829 255:0.0594851 256:0.176322 257:1 311:0.0760234 318:0.0370662 326:0.429609 351:0.142827 354:0.0557823 355:0.812655 356:0.573292 357:0.264444 411:0.059754 418:0.0858209 426:0.0214521 451:0.144063 454:0.141267 455:0.0392765 456:0.0303127 457:0.759546 511:0.106034 518:0.179694 526:0.239903 551:0.621685 554:0.330101 555:0.141223 556:0.360812 557:0.869883 611:0.04628 618:0.134217 626:0.0251623 651:0.208465 654:0.231902 655:0.0224746 656:0.0626377 657:0.763525 711:0.221717 718:0.10984 726:0.0878431 751:0.20303 754:0.118866 755:0.617208 756:0.740446 757:0.410052 811:0.375213 818:0.412662 826:0.911715 851:0.597479 854:0.423435 855:0.278076 856:0.375796 857:0.62963 911:0.513295 918:0.106789 926:0.236842 951:0.244086 954:0.111675 955:0.765548 956:0.651543 957:0.480705 
0.03926825569388454 11:0.46751 18:0.185004 26:0.438121 51:0.465393 54:0.380228 55:0.636697 56:0.721151 57:0.481111 111:0.107621 118:0.154286 126:0.480923 151:0.351257 154:0.169829 155:0.0335277 156:0.176322 157:1 211:0.0760234 218:0.0395956 226:0.445806 251:0.139138 254:0.0430356 255:0.811297 256:0.565052 257:0.264444 311:0.0614035 318:0.108833 326:0.0590372 351:0.10023 354:0.138776 355:0.0449132 356:0.0484472 357:0.764444 411:0.106034 418:0.152052 426:0.223597 451:0.64135 454:0.319777 455:0.14677 456:0.374282 457:0.865406 511:0.04628 518:0.117647 526:0.0298869 551:0.225027 554:0.230607 555:0.0231228 556:0.0612119 557:0.698099 611:0.228471 618:0.119304 626:0.0560065 651:0.17126 654:0.118266 655:0.698647 656:0.745672 657:0.421311 711:0.375213 718:0.412662 726:0.842353 751:0.615581 754:0.423435 755:0.283732 756:0.375796 757:0.601915 811:0.521319 818:0.106789 826:0.236842 851:0.265992 854:0.111675 855:0.765548 856:0.66242 857:0.486365 911:0.221387 918:0.311976 926:0.36163 951:0.593306 954:0.612098 955:0.0695749 956:0.208025 957:0.920721 
0.04000177889401294 11:0.108108 18:0.203749 26:0.489612 51:0.440687 54:0.233629 55:0.0280968 56:0.149395 57:1 111:0.0663176 118:0.0383673 126:0.419698 151:0.140915 154:0.0430356 155:0.764334 156:0.565052 157:0.264444 211:0.0614035 218:0.116259 226:0.061263 251:0.0976404 254:0.127719 255:0.0379905 256:0.0300728 257:0.764444 311:0.107602 318:0.164826 326:0.281562 351:0.617039 354:0.327891 355:0.148139 356:0.38323 357:0.868148 411:0.04628 418:0.0802239 426:0.00907591 451:0.202532 454:0.21875 455:0.024031 456:0.0634971 457:0.687713 511:0.228471 518:0.103143 526:0.0605816 551:0.190701 554:0.116779 555:0.718797 556:0.728699 557:0.392909 611:0.386643 618:0.448219 626:0.836851 651:0.584055 654:0.421296 655:0.32117 656:0.385269 657:0.618443 711:0.521319 718:0.106789 726:0.218824 751:0.274051 754:0.111675 755:0.748933 756:0.66242 757:0.461508 811:0.234224 818:0.311976 826:0.36163 851:0.646553 854:0.612098 855:0.0695749 856:0.204777 857:0.913309 911:0.471676 918:0.175439 926:0.664686 951:0.444717 954:0.196277 955:0.185906 956:0.426235 957:0.982383 
0.03549047916632612 11:0.0523289 18:0.216789 26:0.222222 51:0.586298 54:0.465568 55:0.0388468 56:0.0706113 57:0.714444 111:0.0942408 118:0.640816 126:0.450754 151:0.700247 154:0.607589 155:0.15622 156:0.573599 157:0.377407 211:0.0497076 218:0.449031 226:0.459001 251:0.921888 254:0.896807 255:0.2012 256:0.410256 257:0.34037 311:0.392982 318:0.0528391 326:0.190736 351:0.0444769 354:0.0390023 355:0.132754 356:0.93354 357:0.147778 411:0.106034 418:0.415112 426:0.69967 451:0.846092 454:0.630565 455:0.332817 456:0.511806 457:0.39206 511:0.151728 518:0.0781628 526:0.274637 551:0.128587 554:0.0733558 555:0.467429 556:0.854199 557:0.0983187 611:0.135325 618:0.124275 626:0.102273 651:0.324606 654:0.0993266 655:0.692847 656:0.838527 657:0.0741803 711:0.339966 718:0.555301 726:0.579608 751:0.787921 754:0.653553 755:0.204099 756:0.294904 757:0.619067 811:0.385446 818:0.221968 826:0.429542 851:0.395074 854:0.238579 855:0.480089 856:0.581529 857:0.831095 911:0.557803 918:0.325706 926:0.198642 951:0.65481 954:0.368443 955:0.196421 956:0.635802 957:0.26594 
0.03950420826352907 11:0.0948821 18:0.689487 26:0.458898 51:0.737515 54:0.633291 55:0.151478 56:0.55966 57:0.377407 111:0.0401396 118:0.435102 126:0.432121 151:0.933663 154:0.896807 155:0.171283 156:0.410256 157:0.34037 211:0.392982 218:0.0564448 226:0.197926 251:0.0433279 254:0.0259139 255:0.126468 256:0.932257 257:0.147778 311:0.107602 318:0.387224 326:0.805631 351:0.829818 354:0.657143 355:0.326799 356:0.517081 357:0.404444 411:0.151728 418:0.0345149 426:0.259076 451:0.0958409 454:0.0590753 455:0.485788 456:0.886088 457:0.0672968 511:0.135325 518:0.107977 526:0.106624 551:0.332183 554:0.0978078 555:0.712829 556:0.81944 557:0.0833333 611:0.350322 618:0.603148 626:0.564935 651:0.756496 654:0.650253 655:0.231029 656:0.305319 657:0.636066 711:0.385446 718:0.221968 726:0.396863 751:0.407043 754:0.238579 755:0.476516 756:0.581529 757:0.799362 811:0.565094 818:0.325706 826:0.198642 851:0.713576 854:0.368443 855:0.196421 856:0.646178 857:0.277981 911:0.0705202 918:0.192982 926:0.204584 951:0.402663 954:0.341371 955:0.280537 956:0.095679 957:0.776846 
0.03757072004839093 11:0.0414031 18:0.484108 26:0.439928 51:0.936043 54:0.897338 55:0.166626 56:0.390977 57:0.34037 111:0.381617 118:0.0546939 126:0.186335 151:0.0438813 154:0.0259139 155:0.0986395 156:0.932257 157:0.147778 211:0.107602 218:0.413648 226:0.836004 251:0.808381 254:0.65664 255:0.32192 256:0.507756 257:0.404444 311:0.153216 318:0.0654574 326:0.320618 351:0.0501148 354:0.0517007 355:0.473697 356:0.881366 357:0.0862963 411:0.135325 418:0.0690299 426:0.0874587 451:0.321077 454:0.0839041 455:0.740827 456:0.850032 457:0.0517958 511:0.350322 518:0.573731 526:0.567044 551:0.730657 554:0.649663 555:0.237693 556:0.29837 557:0.58443 611:0.397188 618:0.241094 626:0.375812 651:0.375394 654:0.237374 655:0.539391 656:0.588606 657:0.821311 711:0.565094 718:0.325706 726:0.183529 751:0.735196 754:0.368443 755:0.205807 756:0.646178 757:0.25728 811:0.0858442 818:0.192982 826:0.204584 851:0.438801 854:0.341371 855:0.280537 856:0.0888535 857:0.773708 911:0.0450867 918:0.681922 926:0.393888 951:0.776415 954:0.682318 955:0.155034 956:0.309877 957:0.265101 
0.04036176190619803 11:0.378953 18:0.104319 26:0.189702 51:0.179254 54:0.102239 55:0.0935744 56:0.930042 57:0.147778 111:0.0977312 118:0.400816 126:0.787045 151:0.818706 154:0.65664 155:0.28863 156:0.507756 157:0.404444 211:0.153216 218:0.0699242 226:0.332705 251:0.0488202 254:0.0388709 255:0.469883 256:0.879076 257:0.0862963 311:0.136842 318:0.0946372 326:0.131698 351:0.284193 354:0.0780045 355:0.71861 356:0.846273 357:0.0711111 411:0.350322 418:0.608209 426:0.557756 451:0.761905 454:0.644264 455:0.247028 456:0.309509 457:0.570132 511:0.397188 518:0.221595 526:0.378837 551:0.379041 554:0.236088 555:0.554948 556:0.575208 557:0.749635 611:0.582308 618:0.35377 626:0.155032 651:0.70374 654:0.366582 655:0.232963 656:0.652502 657:0.264344 711:0.0858442 718:0.192982 726:0.18902 751:0.452095 754:0.341371 755:0.28608 756:0.0888535 757:0.743119 811:0.06083 818:0.681922 826:0.393888 851:0.846095 854:0.682318 855:0.155034 856:0.309873 857:0.277167 911:0.0364162 918:0.414188 926:0.186757 951:0.825302 954:0.721235 955:0.287696 956:0.341667 957:0.23448 
0.04896953261111248 11:0.0983324 18:0.449878 26:0.801265 51:0.838269 54:0.678074 55:0.284632 56:0.491664 57:0.404444 111:0.143106 118:0.0677551 126:0.313221 151:0.0494438 154:0.0388709 155:0.432459 156:0.879076 157:0.0862963 211:0.136842 218:0.101095 226:0.136664 251:0.276851 254:0.0657103 255:0.716571 256:0.843305 257:0.0711111 311:0.351462 318:0.550473 326:0.64941 351:0.742326 354:0.671655 355:0.244417 356:0.320186 357:0.578889 411:0.397188 418:0.20056 426:0.365512 451:0.372915 454:0.224315 455:0.576744 456:0.596682 457:0.741021 511:0.582308 518:0.331185 526:0.159128 551:0.681983 554:0.365514 555:0.239682 556:0.63765 557:0.252924 611:0.0884593 618:0.209611 626:0.160714 651:0.420472 654:0.339646 655:0.323828 656:0.101668 657:0.763525 711:0.06083 718:0.681922 726:0.363922 751:0.871729 754:0.682318 755:0.166311 756:0.309873 757:0.256482 811:0.0523024 818:0.414188 826:0.186757 851:0.89937 854:0.721235 855:0.287696 856:0.342675 857:0.247456 911:0.556647 918:0.864989 926:0.271647 951:0.603645 954:0.346024 955:0.238479 956:0.335494 957:0.573826 
0.04212225592606323 11:0.143186 18:0.117359 26:0.31888 51:0.183985 54:0.114068 55:0.429269 56:0.875123 57:0.0862963 111:0.126818 118:0.0979592 126:0.12866 151:0.280387 154:0.0657103 155:0.672255 156:0.843305 157:0.0711111 211:0.351462 218:0.588037 226:0.673893 251:0.723149 254:0.671448 255:0.23894 256:0.307059 257:0.578889 311:0.398246 318:0.205836 326:0.437784 351:0.338066 354:0.226757 355:0.561042 356:0.599689 357:0.746296 411:0.582308 418:0.327425 426:0.141089 451:0.708057 454:0.355736 455:0.249096 456:0.661455 457:0.227221 511:0.0884593 518:0.190975 526:0.164782 551:0.420632 554:0.338533 555:0.333168 556:0.099354 557:0.698099 611:0.0626831 618:0.740679 626:0.341721 651:0.840354 654:0.678872 655:0.188255 656:0.320113 657:0.263525 711:0.0523024 718:0.414188 726:0.172549 751:0.926618 754:0.721235 755:0.292912 756:0.342675 757:0.227363 811:0.563957 818:0.864989 826:0.271647 851:0.657819 854:0.346024 855:0.238479 856:0.336306 857:0.57672 911:0.393642 918:0.144928 926:0.226655 951:0.306291 954:0.144247 955:0.166667 956:0.872222 957:0.388003 
0.04143266412517953 11:1 26:0.0749774 56:0.465839 57:0.102963 111:0.069808 118:0.45551 126:0.537711 151:0.696333 154:0.434058 155:0.379981 156:0.786958 157:0.26963 211:0.14269 218:0.122157 226:0.215834 251:0.194467 254:0.100879 255:0.139965 256:0.583096 257:0.712593 311:0.222807 318:0.51183 326:0.700272 351:0.723742 354:0.618594 355:0.338462 356:0.525776 357:0.61963 411:0.0445226 418:0.179104 426:0.316007 451:0.653004 454:0.317637 455:0.128165 456:0.0772176 457:0.296786 511:0.23843 518:0.618856 526:0.373183 551:0.86215 554:0.644604 555:0.226504 556:0.430329 557:0.626462 611:0.311072 618:0.223695 626:0.137987 651:0.375984 654:0.165825 655:0.645723 656:0.821845 657:0.509016 711:0.0306993 718:0.195271 726:0.136471 751:0.306118 754:0.296108 756:0.027707 757:0.774631 811:0.212052 818:0.376049 826:0.643463 851:0.826809 854:0.534264 855:0.357718 856:0.480573 857:0.636142 911:0.368208 918:0.334096 926:0.487267 951:0.572981 954:0.550761 955:0.144295 956:0.692901 957:0.719379 
0.0655856645735203 11:0.0707303 18:0.504482 26:0.547425 51:0.734186 54:0.474863 55:0.376496 56:0.779993 57:0.26963 111:0.132635 118:0.118367 126:0.203194 151:0.196951 154:0.100879 155:0.111759 156:0.583096 157:0.712593 211:0.222807 218:0.546757 226:0.726673 251:0.705045 254:0.617307 255:0.333667 256:0.516619 257:0.61963 311:0.0461988 318:0.187697 326:0.383288 351:0.62915 354:0.325624 355:0.130273 356:0.0940994 357:0.311111 411:0.23843 418:0.660448 426:0.359736 451:0.907374 454:0.639127 455:0.235401 456:0.446394 457:0.613611 511:0.311072 518:0.204674 526:0.142165 551:0.379586 554:0.164418 555:0.664346 556:0.803137 557:0.471126 611:0.0316344 618:0.212096 626:0.106331 651:0.274409 654:0.294613 656:0.0412339 657:0.795902 711:0.212052 718:0.376049 726:0.59451 751:0.851859 754:0.534264 755:0.359735 756:0.480573 757:0.608297 811:0.378624 818:0.334096 826:0.487267 851:0.624403 854:0.550761 855:0.144295 856:0.705096 857:0.717949 911:0.178035 918:0.469108 926:0.487267 951:0.785527 954:0.591371 955:0.5 956:0.416975 957:0.523909 
0.06376016503518633 11:0.132835 18:0.167889 26:0.206865 51:0.309445 54:0.17068 55:0.106768 56:0.569467 57:0.712593 111:0.212333 118:0.529796 126:0.684117 151:0.71405 154:0.617307 155:0.300049 156:0.516619 157:0.61963 211:0.0461988 218:0.200505 226:0.397738 251:0.612897 254:0.318371 255:0.123969 256:0.0766065 257:0.311111 311:0.239766 318:0.594637 326:0.431426 351:0.893506 354:0.666213 355:0.233251 356:0.453416 357:0.621481 411:0.311072 418:0.18097 426:0.123762 451:0.373518 454:0.151541 455:0.690439 456:0.833121 457:0.45293 511:0.0316344 518:0.193392 526:0.110662 551:0.28587 554:0.293423 556:0.0402953 557:0.726974 611:0.218512 618:0.408451 626:0.580357 651:0.820472 654:0.531566 655:0.407202 656:0.488826 657:0.625 711:0.378624 718:0.334096 726:0.450196 751:0.643321 754:0.550761 755:0.156063 756:0.705096 757:0.688472 811:0.191586 818:0.469108 826:0.487267 851:0.856024 854:0.591371 855:0.5 856:0.420382 857:0.528287 911:0.516185 918:0.4836 926:0.533107 951:0.563869 954:0.312183 955:0.337136 956:0.344753 957:0.848993 
0.08362326242068767 11:0.211616 18:0.578647 26:0.696477 51:0.749255 54:0.642163 55:0.296115 56:0.500817 57:0.61963 111:0.0366492 118:0.194286 126:0.374445 151:0.620725 154:0.318371 155:0.0962099 156:0.0766065 157:0.311111 211:0.239766 218:0.635215 226:0.447691 251:0.870423 254:0.665895 255:0.227693 256:0.442862 257:0.621481 311:0.312281 318:0.189274 326:0.171662 351:0.338693 354:0.14966 355:0.670223 356:0.829814 357:0.464074 411:0.0316344 418:0.16791 426:0.0915842 451:0.269841 454:0.282534 456:0.0417996 457:0.71758 511:0.218512 518:0.384367 526:0.582391 551:0.789684 554:0.530776 555:0.418946 556:0.477699 557:0.574561 611:0.390158 618:0.362883 626:0.431006 651:0.611811 654:0.54798 655:0.176655 656:0.710733 657:0.707377 711:0.191586 718:0.469108 726:0.450196 751:0.881959 754:0.591371 755:0.495517 756:0.420382 757:0.502593 811:0.524161 818:0.4836 826:0.533107 851:0.614474 854:0.312183 855:0.337136 856:0.34586 857:0.843712 911:0.0647399 918:0.423341 926:0.659593 951:0.763974 954:0.543993 955:0.307606 956:0.408951 957:0.663171 
0.06414074431712197 11:0.0379528 18:0.243684 26:0.38121 51:0.669879 54:0.369244 55:0.0911312 56:0.0464204 57:0.311111 111:0.229203 118:0.61551 126:0.421473 151:0.881541 154:0.665895 155:0.197036 156:0.442862 157:0.621481 211:0.312281 218:0.20219 226:0.178134 251:0.329943 254:0.138825 255:0.667833 256:0.826527 257:0.464074 311:0.0333333 318:0.178233 326:0.13624 351:0.230946 354:0.288435 355:0.00719603 356:0.0596273 357:0.723333 411:0.218512 418:0.388993 426:0.573432 451:0.827205 454:0.523545 455:0.435401 456:0.495533 457:0.559924 511:0.390158 518:0.340048 526:0.433764 551:0.597167 554:0.547218 555:0.18175 556:0.694556 557:0.648026 611:0.197422 618:0.509528 626:0.431006 651:0.850591 654:0.588384 655:0.560899 656:0.429336 657:0.516393 711:0.524161 718:0.4836 726:0.492549 751:0.633091 754:0.312183 755:0.340094 756:0.34586 757:0.811727 811:0.0801592 818:0.423341 826:0.659593 851:0.832538 854:0.543993 855:0.307606 856:0.412102 857:0.663411 911:0.346821 918:0.116705 926:0.544143 951:0.303662 954:0.16286 955:0.221029 956:0.660185 957:0.736577 
0.05708669092723726 11:0.228292 18:0.664222 26:0.429088 51:0.891712 54:0.686523 55:0.192524 56:0.424649 57:0.621481 111:0.301338 118:0.195918 126:0.167702 151:0.334157 154:0.138825 155:0.624879 156:0.826527 157:0.464074 211:0.0333333 218:0.190396 226:0.141376 251:0.22498 254:0.280426 256:0.0414688 257:0.723333 311:0.219883 318:0.365142 326:0.666667 351:0.81019 354:0.543764 355:0.42531 356:0.501242 357:0.568889 411:0.390158 418:0.337687 426:0.421617 451:0.614225 454:0.54024 455:0.188889 456:0.720485 457:0.635917 511:0.197422 518:0.482675 526:0.433764 551:0.817472 554:0.58769 555:0.577076 556:0.419563 557:0.477705 611:0.540129 618:0.525269 626:0.474838 651:0.601575 654:0.310606 655:0.384969 656:0.355681 657:0.834016 711:0.0801592 718:0.423341 726:0.609412 751:0.857761 754:0.543993 755:0.311913 756:0.412102 757:0.635022 811:0.35759 818:0.116705 826:0.544143 851:0.330915 854:0.16286 855:0.221029 856:0.671338 857:0.734636 911:0.180347 918:0.388253 926:0.560272 951:0.814263 954:0.505922 955:0.717673 956:0.439198 957:0.246225 
0.1 11:0.177688 18:0.884271 26:0.544715 51:0.842299 54:0.581327 55:0.308576 56:0.341615 57:0.414074 111:0.17801 118:0.383673 126:0.356699 151:0.783272 154:0.511337 155:0.309281 156:0.298512 157:0.442963 211:0.207602 218:0.381634 226:0.444863 251:0.955452 254:0.546969 255:0.335666 256:0.432415 257:0.47 311:0.247368 318:0.276025 326:0.303361 351:0.486949 354:0.2839 355:0.49603 356:0.885714 357:0.295185 411:0.229643 418:0.505597 426:0.566832 451:0.876633 454:0.412671 455:0.349354 456:0.563816 457:0.511531 511:0.185706 518:0.620467 526:0.296446 551:0.796222 554:0.570405 555:0.330681 556:0.297139 557:0.55519 611:0.261863 618:0.268434 626:0.291396 651:0.423425 654:0.276936 655:0.477284 656:0.832861 657:0.354098 711:0.176805 718:0.7254 726:0.303529 751:0.901436 754:0.668782 755:0.32152 756:0.307325 757:0.597926 811:0.259807 818:0.286041 826:0.559423 851:0.549551 854:0.322335 855:0.300447 856:0.835669 857:0.570615 911:0.164162 918:0.706331 926:0.61545 951:0.762748 954:0.554569 955:0.219239 956:0.288272 957:0.629195 
0.1 11:0.177688 18:0.432763 26:0.363144 51:0.80813 54:0.545416 55:0.305399 56:0.27558 57:0.442963 111:0.197208 118:0.369796 126:0.418811 151:0.967656 154:0.546969 155:0.301992 156:0.432415 157:0.47 211:0.247368 218:0.294861 226:0.314797 251:0.474369 254:0.275798 255:0.492377 256:0.883507 257:0.295185 311:0.230994 318:0.463722 326:0.659401 351:0.861558 354:0.426304 355:0.34268 356:0.567702 357:0.521481 411:0.185706 418:0.662313 426:0.281353 451:0.834438 454:0.563784 455:0.343669 456:0.308232 457:0.539887 511:0.261863 518:0.248187 526:0.29483 551:0.423356 554:0.275717 555:0.491049 556:0.813903 557:0.332968 611:0.182191 618:0.787904 626:0.279221 651:0.870079 654:0.665404 655:0.363944 656:0.317595 657:0.614344 711:0.259807 718:0.286041 726:0.516863 751:0.566201 754:0.322335 755:0.305081 756:0.835669 757:0.544077 811:0.177942 818:0.706331 826:0.61545 851:0.831201 854:0.554569 855:0.219239 856:0.28758 857:0.630444 911:0.200578 918:0.512586 926:0.63073 951:0.723848 954:0.631557 955:0.21566 956:0.387346 957:0.815436 
0.0945968438241358 11:0.256469 18:0.387938 26:0.583559 51:0.664272 54:0.616815 55:0.231615 56:0.800588 57:0.312963 111:0.0756254 118:0.517551 126:0.233363 151:0.918006 154:0.67839 155:0.414237 156:0.290598 157:0.562593 211:0.250292 218:0.58214 226:0.770971 251:0.749593 254:0.633503 255:0.312672 256:0.298829 257:0.588889 311:0.0707602 318:0.620662 326:0.366939 351:0.786803 354:0.75737 355:0.365261 356:0.513043 357:0.312222 411:0.086116 418:0.505597 426:0.169967 451:0.790235 454:0.623716 455:0.982946 456:0.370453 457:0.323629 511:0.0790861 518:0.556809 526:0.227787 551:0.517436 554:0.387015 555:0.920686 556:0.353122 557:0.434211 611:0.0878735 618:0.647887 626:0.607955 651:0.859843 654:0.662458 655:0.219188 656:0.545798 657:0.445082 711:0.322911 718:0.60717 726:0.341961 751:0.469211 754:0.29357 755:0.207301 756:0.815287 757:0.591943 811:0.385446 818:0.244851 826:0.179117 851:0.850296 854:0.859983 855:0.16443 856:0.153185 857:0.556777 911:0.067052 918:0.446224 926:0.245331 951:0.670054 954:0.790186 955:0.412304 956:0.3 957:0.485319 
0.1 11:0.0764807 18:0.566422 26:0.237579 51:0.922726 54:0.69793 55:0.410946 56:0.267408 57:0.562593 111:0.239674 118:0.564082 126:0.725821 151:0.759168 154:0.633503 155:0.27964 156:0.298829 157:0.588889 211:0.0707602 218:0.663016 226:0.380773 251:0.766477 254:0.758908 255:0.36066 256:0.50364 257:0.312222 311:0.0877193 318:0.463722 326:0.222525 351:0.771769 354:0.649887 355:0.951117 356:0.379503 357:0.337407 411:0.0790861 418:0.588619 426:0.211221 451:0.52602 454:0.377568 455:0.956848 456:0.366305 457:0.414745 511:0.0878735 518:0.617244 526:0.609855 551:0.826008 554:0.661889 555:0.22551 556:0.533374 557:0.414108 611:0.332748 618:0.659486 626:0.318994 651:0.437598 654:0.292088 655:0.234654 656:0.819641 657:0.608197 711:0.385446 718:0.244851 726:0.16549 751:0.876057 754:0.859983 755:0.175278 756:0.153185 757:0.530515 811:0.0824332 818:0.446224 826:0.245331 851:0.730189 854:0.790186 855:0.412304 856:0.299682 857:0.490842 911:0.589017 918:0.749809 926:0.540747 951:0.539338 954:0.489425 955:0.233557 956:0.601235 957:0.473993 
0.08553249456520541 11:0.238643 18:0.612877 26:0.738934 51:0.787629 54:0.65695 55:0.275592 56:0.275907 57:0.588889 111:0.061082 118:0.642449 126:0.358474 151:0.776267 154:0.758908 155:0.326288 156:0.50364 157:0.312222 211:0.0877193 218:0.495366 226:0.230914 251:0.751831 254:0.649236 255:0.950762 256:0.367521 257:0.337407 311:0.0807018 318:0.533912 326:0.267938 351:0.497181 354:0.389116 355:0.926055 356:0.375466 357:0.426667 411:0.0878735 418:0.658582 426:0.601485 451:0.86739 454:0.656678 455:0.234367 456:0.553287 457:0.393951 511:0.332748 518:0.628525 526:0.322294 551:0.436433 554:0.290894 555:0.241422 556:0.800984 557:0.559576 611:0.397188 618:0.265949 626:0.136364 651:0.844685 654:0.85564 655:0.198405 656:0.16525 657:0.545082 711:0.0824332 718:0.446224 726:0.226667 751:0.752312 754:0.790186 755:0.411827 756:0.299682 757:0.465895 811:0.595793 818:0.749809 826:0.540747 851:0.587741 854:0.489425 855:0.233557 856:0.61051 857:0.479853 911:0.106358 918:0.337147 926:0.636672 951:0.759769 954:0.409052 955:0.143624 956:0.560802 957:0.41401 
0.08404813233266914 11:0.0621047 18:0.691117 26:0.36495 51:0.802173 54:0.771441 55:0.322502 56:0.487414 57:0.312222 111:0.0779523 118:0.48 126:0.217391 151:0.761434 154:0.649236 155:0.899903 156:0.367521 157:0.337407 211:0.0807018 218:0.570345 226:0.27804 251:0.484337 254:0.383156 255:0.925519 256:0.363406 257:0.426667 311:0.0894737 318:0.59306 326:0.697548 351:0.851952 354:0.684807 355:0.232258 356:0.557453 357:0.406296 411:0.332748 418:0.671642 426:0.307756 451:0.436407 454:0.279966 455:0.250904 456:0.830887 457:0.544423 511:0.397188 518:0.24577 526:0.140549 551:0.812023 554:0.855396 555:0.204127 556:0.161489 557:0.503289 611:0.0849443 618:0.484673 626:0.199675 651:0.720866 654:0.786195 655:0.466167 656:0.310041 657:0.478689 711:0.595793 718:0.749809 726:0.499608 751:0.605548 754:0.489425 755:0.241247 756:0.61051 757:0.455126 811:0.121092 818:0.337147 826:0.636672 851:0.827955 854:0.409052 855:0.143624 856:0.56879 857:0.421652 911:0.333526 918:0.403509 926:0.763158 951:0.750482 954:0.514382 955:0.157271 956:0.379938 957:0.603188 
0.05605509598848662 11:0.0787809 18:0.528932 26:0.221319 51:0.789557 54:0.671314 55:0.89934 56:0.346845 57:0.337407 111:0.0709715 118:0.552653 126:0.261757 151:0.490523 154:0.383156 155:0.875364 156:0.363406 157:0.426667 211:0.0894737 218:0.63353 226:0.723845 251:0.829943 254:0.684868 255:0.226693 256:0.548908 257:0.406296 311:0.333918 318:0.604101 326:0.374205 351:0.404051 354:0.285714 355:0.248139 356:0.82764 357:0.553704 411:0.397188 418:0.228545 426:0.122112 451:0.851919 454:0.853168 455:0.212145 456:0.167518 457:0.4862 511:0.0849443 518:0.458501 526:0.203554 551:0.697784 554:0.785835 555:0.479612 556:0.302984 557:0.444079 611:0.613943 618:0.814416 626:0.482143 651:0.574016 654:0.486953 655:0.273079 656:0.617249 657:0.467623 711:0.121092 718:0.337147 726:0.588235 751:0.85304 754:0.409052 755:0.155423 756:0.56879 757:0.398085 811:0.344514 818:0.403509 826:0.763158 851:0.817835 854:0.514382 855:0.157271 856:0.382166 857:0.60521 911:0.0849711 918:0.130435 926:0.271647 951:0.255476 954:0.129019 955:0.741387 956:0.616667 957:0.174497 
0.05354570225575894 11:0.0718804 18:0.601467 26:0.266486 51:0.559138 54:0.42839 55:0.874664 56:0.342596 57:0.426667 111:0.0796975 118:0.613878 126:0.681455 151:0.840544 154:0.684868 155:0.196064 156:0.548908 157:0.406296 211:0.333918 218:0.645324 226:0.388313 251:0.393613 254:0.277649 255:0.242689 256:0.824311 257:0.553704 311:0.398246 318:0.229495 326:0.169846 351:0.835874 354:0.892971 355:0.210918 356:0.181988 357:0.496667 411:0.0849443 418:0.474813 426:0.186469 451:0.725537 454:0.782534 455:0.49845 456:0.314295 457:0.424953 511:0.613943 518:0.77921 526:0.484653 551:0.562296 554:0.486088 555:0.280955 556:0.603199 557:0.434211 611:0.12478 618:0.366197 626:0.573864 651:0.821654 654:0.406987 655:0.17593 656:0.576015 657:0.409016 711:0.344514 718:0.403509 726:0.705098 751:0.842613 754:0.514382 755:0.168446 756:0.382166 757:0.577982 811:0.100057 818:0.130435 826:0.271647 851:0.278404 854:0.129019 855:0.741387 856:0.626433 857:0.189255 911:0.316763 918:0.439359 926:0.893039 951:0.714561 954:0.469543 955:0.180984 956:0.310494 957:0.464346 
0.03874929671764651 11:0.220817 18:0.536267 26:0.382114 51:0.882425 54:0.791719 55:0.38407 56:0.304675 57:0.532593 111:0.0331588 118:0.253061 126:0.10559 151:0.434075 154:0.473855 155:0.0787172 156:0.0883191 157:0.647037 211:0.215205 218:0.722831 226:0.439208 251:0.843165 254:0.681629 255:0.364159 256:0.377968 257:0.451852 311:0.207018 318:0.254732 326:0.410536 351:0.455836 354:0.227664 355:0.45732 356:0.912112 357:0.233333 411:0.410662 418:0.391791 426:0.628713 451:0.675507 454:0.391695 455:0.399225 456:0.746969 457:0.443478 511:0.379028 518:0.460919 526:0.147011 551:0.555939 554:0.272766 555:0.690701 556:0.310366 557:0.625731 611:0.282953 618:0.06628 626:0.153409 651:0.201969 654:0.0824916 655:0.971967 656:0.671073 657:0.278279 711:0.171688 718:0.078566 726:0.389804 751:0.451898 754:0.248308 755:0.28117 756:0.934713 757:0.353809 811:0.473565 818:0.533944 826:0.331919 851:0.43861 854:0.247462 855:0.298434 856:0.384076 857:1 911:0.0797688 918:0.0724638 926:0.546689 951:0.372525 954:0.115482 955:0.367562 956:0.862346 957:0.34396 
0.04034253647647239 11:0.0345026 18:0.302363 26:0.107498 51:0.511127 54:0.511196 55:0.0735402 56:0.0585159 57:0.647037 111:0.20477 118:0.700408 126:0.413487 151:0.853935 154:0.681629 155:0.329689 156:0.377968 157:0.451852 211:0.207018 218:0.272115 226:0.426013 251:0.44406 254:0.218417 255:0.453387 256:0.910415 257:0.233333 311:0.411696 318:0.367508 326:0.72752 351:0.652537 354:0.404082 355:0.390571 356:0.745963 357:0.454815 411:0.379028 418:0.477612 426:0.128713 451:0.568616 454:0.261558 455:0.717829 456:0.321953 457:0.612854 511:0.282953 518:0.0515713 526:0.157512 551:0.219034 554:0.0809444 555:1 556:0.655798 557:0.265351 611:0.176919 618:0.0853355 626:0.368506 651:0.420276 654:0.247054 655:0.31827 656:0.937677 657:0.363525 711:0.473565 718:0.533944 726:0.306667 751:0.451898 754:0.247462 755:0.30316 756:0.384076 757:0.964898 811:0.0949403 818:0.0724638 826:0.546689 851:0.405958 854:0.115482 855:0.367562 856:0.879936 857:0.353683 911:0.353179 918:0.328757 926:0.368421 951:0.57631 954:0.267343 955:0.495749 956:0.674691 957:0.538171 
0.06596248204735929 11:0.0977573 18:0.784841 26:0.282746 51:0.803224 54:0.6109 55:0.361104 56:0.199412 57:0.535556 111:0.325771 118:0.563265 126:0.357587 151:0.871034 154:0.785747 155:0.326531 156:0.389047 157:0.5 211:0.19883 218:0.570345 226:0.599434 251:0.619203 254:0.367422 255:0.872032 256:0.396328 257:0.367778 311:0.222807 318:0.193218 326:0.46049 351:0.406557 354:0.211791 355:0.580149 356:0.838509 357:0.279259 411:0.543058 418:0.759328 426:0.294554 451:0.700824 454:0.594178 455:0.334367 456:0.650925 457:0.355388 511:0.170475 518:0.273973 526:0.177706 551:0.517072 554:0.280776 555:0.441571 556:0.78099 557:0.19883 611:0.394845 618:0.589892 626:0.467532 651:0.63937 654:0.454966 655:0.714838 656:0.586402 657:0.336885 711:0.0437749 718:0.40122 726:0.203137 751:0.800905 754:0.833756 755:0.179334 756:0.164331 757:0.289589 811:0.1444 818:0.249428 826:0.617148 851:0.604163 854:0.521997 855:0.702013 856:0.494268 857:0.459096 911:0.196532 918:0.273837 926:0.460102 951:0.554757 954:0.453469 955:0.242729 956:0.510494 957:0.790688 
0.03651469817773434 11:0.150661 18:0.521597 26:0.495935 51:0.939898 54:0.629489 55:0.561691 56:0.300425 57:0.423704 111:0.159977 118:0.118367 126:0.505768 151:0.265554 154:0.211939 155:0.16861 156:0.964229 157:0.155185 211:0.142105 218:0.342881 226:0.347785 251:0.549227 254:0.423415 255:0.844539 256:0.6195 257:0.294815 311:0.15614 318:0.145899 326:0.167121 351:0.412612 354:0.124717 355:0.412159 356:0.756832 357:0.123333 411:0.137668 418:0.597015 426:0.825908 451:0.668877 454:0.535959 455:0.153488 456:0.495533 457:0.396975 511:0.340949 518:0.146656 526:0.0589661 551:0.219579 554:0.243255 555:0.0643958 556:0.0396801 557:0.673611 611:0.0685413 618:0.492958 626:0.252435 651:0.893504 654:0.461279 655:0.0753987 656:0.202077 657:0.443852 711:0.187607 718:0.192982 726:0.310588 751:0.355302 754:0.200085 755:0.121264 756:0.579618 757:0.747906 811:0.325753 818:0.509535 826:0.782683 851:0.683407 854:0.51819 855:0.175391 856:0.569745 857:0.444444 911:0.198844 918:0.488177 926:0.662139 951:0.508323 954:0.312183 955:0.747204 956:0.593827 957:0.301594 
0.03611392171614187 11:0.159862 18:0.167889 26:0.514905 51:0.367794 54:0.272074 55:0.163938 56:0.96306 57:0.155185 111:0.132054 118:0.332245 126:0.327418 151:0.556242 154:0.423415 155:0.796647 156:0.6195 157:0.294815 211:0.15614 218:0.155855 226:0.173421 251:0.401953 254:0.113373 255:0.407898 256:0.752137 257:0.123333 311:0.139181 318:0.541009 326:0.944596 351:0.645646 354:0.556916 355:0.154591 356:0.501242 357:0.409259 411:0.340949 418:0.113806 426:0.0387789 451:0.196504 454:0.231592 455:0.0669251 456:0.0411615 457:0.662382 511:0.0685413 518:0.466559 526:0.256058 551:0.857065 554:0.460371 555:0.0775733 556:0.197478 557:0.413012 611:0.193322 618:0.209611 626:0.286526 651:0.323622 654:0.199074 655:0.137264 656:0.586717 657:0.768443 711:0.325753 718:0.509535 726:0.723137 751:0.704112 754:0.51819 755:0.185739 756:0.569745 757:0.420423 811:0.212052 818:0.488177 826:0.662139 851:0.553943 854:0.312183 855:0.747204 856:0.602866 857:0.312576 911:0.308671 918:0.125095 926:0.337861 951:0.25863 954:0.330795 955:0.115884 956:0.869753 957:0.297819 
0.03747659695225912 11:0.13226 18:0.381418 26:0.333333 51:0.615034 54:0.465146 55:0.795505 56:0.607061 57:0.294815 111:0.146015 118:0.15102 126:0.163265 151:0.407087 154:0.113373 155:0.372206 156:0.752137 157:0.123333 211:0.139181 218:0.577928 226:0.980207 251:0.628967 254:0.554373 255:0.148463 256:0.491611 257:0.409259 311:0.342105 318:0.132492 326:0.0781108 351:0.15473 354:0.234467 355:0.071464 356:0.0590062 357:0.669259 411:0.0685413 418:0.484142 426:0.240099 451:0.901748 454:0.452055 455:0.0806202 456:0.20485 457:0.392817 511:0.193322 518:0.190975 526:0.289984 551:0.331275 554:0.197723 555:0.141223 556:0.573362 557:0.702485 611:0.335677 618:0.553438 626:0.713474 651:0.672638 654:0.515572 655:0.210246 656:0.576959 657:0.431967 711:0.212052 718:0.488177 726:0.611765 751:0.570726 754:0.312183 755:0.731426 756:0.602866 757:0.291185 811:0.320068 818:0.125095 826:0.337861 851:0.281841 854:0.330795 855:0.115884 856:0.88758 857:0.308913 911:0.479191 918:0.125095 926:0.141766 951:0.224987 954:0.128596 955:0.78434 956:0.430864 957:0.599832 
0.04246375971251822 11:0.146061 18:0.200489 26:0.166215 51:0.488172 54:0.182087 55:0.368678 56:0.744034 57:0.123333 111:0.129145 118:0.56 126:0.922804 151:0.637 154:0.554373 155:0.120019 156:0.491611 157:0.409259 211:0.342105 218:0.141533 226:0.0810556 251:0.150732 254:0.225359 255:0.0647338 256:0.0408357 257:0.669259 311:0.0701754 318:0.445584 326:0.299728 351:0.887659 354:0.468027 355:0.0846154 356:0.218323 357:0.405185 411:0.193322 418:0.165112 426:0.274752 451:0.320072 454:0.18536 455:0.14677 456:0.594767 457:0.69225 511:0.335677 518:0.525383 526:0.714863 551:0.653287 554:0.514755 555:0.21631 556:0.563827 557:0.402412 611:0.218512 618:0.53024 626:0.598214 651:0.539173 654:0.310606 655:0.827936 656:0.609695 657:0.29918 711:0.320068 718:0.125095 726:0.312157 751:0.29038 754:0.330795 755:0.12895 756:0.88758 757:0.287595 811:0.487777 818:0.125095 826:0.141766 851:0.245179 854:0.128596 855:0.78434 856:0.434713 857:0.601954 911:0.228902 918:0.398932 926:0.649406 951:0.789907 954:0.861252 955:0.23736 956:0.206481 957:0.489513 
0.07287721877417755 11:0.303048 18:0.502037 26:0.582656 51:0.850009 54:0.564005 55:0.350599 56:0.386728 57:0.772963 111:0.193717 118:0.454694 126:0.436557 151:0.871652 154:0.602499 155:0.341108 156:0.302311 157:0.531111 211:0.219883 218:0.320977 226:0.305372 251:0.454028 254:0.298936 255:0.956261 256:0.502374 257:0.326296 311:0.180117 318:0.838328 326:0.386013 351:0.838797 354:0.558277 355:0.370223 356:0.385404 357:0.486667 411:0.212068 418:0.341418 426:0.237624 451:0.557364 454:0.375856 455:0.319897 456:0.269943 457:0.797353 511:0.193907 518:0.388396 526:0.297254 551:0.724119 554:0.423272 555:0.263053 556:0.343894 557:0.442251 611:0.292326 618:0.264292 626:0.325487 651:0.424213 654:0.255892 655:0.386177 656:0.895499 657:0.316393 711:0.212052 718:0.313501 726:0.272941 751:0.527641 754:0.313029 755:0.816823 756:0.491401 757:0.347028 811:0.280841 818:0.261632 826:0.332767 851:0.480237 854:0.250846 855:0.392394 856:0.826115 857:0.323565 911:0.132948 918:0.405034 926:0.34635 951:0.8041 954:0.876481 955:0.228412 956:0.278086 957:0.502517 
0.0748200076511551 11:0.193214 18:0.503667 26:0.444444 51:0.883301 54:0.628644 55:0.337405 56:0.279503 57:0.531111 111:0.209424 118:0.31102 126:0.287489 151:0.459827 154:0.298936 155:0.905248 156:0.502374 157:0.326296 211:0.180117 218:0.895535 226:0.400566 251:0.817128 254:0.555761 255:0.365659 256:0.373536 257:0.486667 311:0.21345 318:0.324921 326:0.297003 351:0.529756 354:0.387302 355:0.314392 356:0.281677 357:0.801481 411:0.193907 418:0.393657 426:0.282178 451:0.754671 454:0.414384 455:0.273385 456:0.356733 457:0.423062 511:0.292326 518:0.244158 526:0.328756 551:0.424083 554:0.254637 555:0.397315 556:0.875115 557:0.299342 611:0.218512 618:0.340514 626:0.247565 651:0.496063 654:0.311448 655:0.924601 656:0.499528 657:0.356557 711:0.280841 718:0.261632 726:0.307451 751:0.494787 754:0.250846 755:0.392827 756:0.826115 757:0.301955 811:0.147243 818:0.405034 826:0.34635 851:0.876265 854:0.876481 855:0.228412 856:0.27707 857:0.50753 911:0.183237 918:0.44775 926:0.438031 951:0.820221 954:0.590525 955:0.317226 956:0.290741 957:0.592282 
0.06573685807913071 11:0.208741 18:0.360228 26:0.292683 51:0.53303 54:0.3515 55:0.904715 56:0.486107 57:0.326296 111:0.169866 118:0.867755 126:0.377107 151:0.827565 154:0.555761 155:0.331147 156:0.373536 157:0.486667 211:0.21345 218:0.347094 226:0.3082 251:0.51607 254:0.381305 255:0.309423 256:0.267806 257:0.801481 311:0.195322 318:0.369085 326:0.346049 351:0.734809 354:0.428118 355:0.269727 356:0.366149 357:0.434815 411:0.292326 418:0.226679 426:0.314356 451:0.422745 454:0.243151 455:0.41292 456:0.907786 457:0.275236 511:0.218512 518:0.318292 526:0.251212 551:0.490374 554:0.310287 555:0.951268 556:0.488157 557:0.335161 611:0.289397 618:0.284176 626:0.283279 651:0.463189 654:0.249579 655:0.444659 656:0.830343 657:0.310246 711:0.147243 718:0.405034 726:0.32 751:0.902813 754:0.876481 755:0.236336 756:0.27707 757:0.48225 811:0.196703 818:0.44775 826:0.438031 851:0.893832 854:0.590525 855:0.317226 856:0.290127 857:0.594628 911:0.298266 918:0.276888 926:0.437182 951:0.458735 954:0.290609 955:0.321477 956:0.841975 957:0.428691 
0.05813189370484886 11:0.169638 18:0.916055 26:0.383921 51:0.845803 54:0.585974 55:0.327388 56:0.353057 57:0.486667 111:0.203025 118:0.336327 126:0.290151 151:0.522662 154:0.381305 155:0.276482 156:0.267806 157:0.801481 211:0.195322 218:0.394271 226:0.359095 251:0.715826 254:0.422952 255:0.264434 256:0.353909 257:0.434815 311:0.293567 318:0.227918 326:0.381471 351:0.389852 354:0.246712 355:0.403722 356:0.902484 357:0.29 411:0.218512 418:0.3125 426:0.235149 451:0.496082 454:0.299658 455:0.98863 456:0.506382 457:0.312287 511:0.289397 518:0.263497 526:0.286753 551:0.460044 554:0.248314 555:0.457484 556:0.811443 557:0.29386 611:0.151728 618:0.439934 626:0.296266 651:0.871457 654:0.872054 655:0.267521 656:0.287693 657:0.495492 711:0.196703 718:0.44775 726:0.404706 751:0.920913 754:0.590525 755:0.321093 756:0.290127 757:0.567611 811:0.309835 818:0.276888 826:0.437182 851:0.499905 854:0.290609 855:0.321477 856:0.858917 857:0.435897 911:0.137572 918:0.636156 926:0.339559 951:0.770633 954:0.466159 955:0.336242 956:0.351543 957:0.450923 
0.0448242948467692 11:0.202415 18:0.385493 26:0.295393 51:0.586473 54:0.4267 55:0.272416 56:0.243871 57:0.801481 111:0.184991 118:0.382041 126:0.338066 151:0.724969 154:0.422952 155:0.23275 156:0.353909 157:0.434815 211:0.293567 218:0.243471 226:0.395853 251:0.37978 254:0.237853 255:0.3994 256:0.900601 257:0.29 311:0.219883 318:0.300473 326:0.294278 351:0.466068 354:0.306576 355:0.956576 356:0.511801 357:0.326296 411:0.289397 418:0.249067 426:0.271452 451:0.462528 454:0.236729 455:0.475452 456:0.841736 457:0.269565 511:0.151728 518:0.414988 526:0.299677 551:0.836724 554:0.871838 555:0.275236 556:0.281144 557:0.459064 611:0.202695 618:0.48633 626:0.383929 651:0.889567 654:0.587542 655:0.363461 656:0.300598 657:0.583197 711:0.309835 718:0.276888 726:0.403922 751:0.51505 754:0.290609 755:0.325149 756:0.858917 757:0.412046 811:0.151791 818:0.636156 826:0.339559 851:0.839794 854:0.466159 855:0.336242 856:0.352866 857:0.457468 911:0.271676 918:0.243326 926:0.37691 951:0.405993 954:0.257191 955:0.338255 956:0.874074 957:0.319211 
0.03981831888605546 11:0.191489 18:0.305623 26:0.950316 51:0.591905 54:0.313899 55:0.333985 56:0.656751 57:0.405185 111:0.183246 118:0.109388 126:0.222715 151:0.129378 154:0.0930125 155:0.394801 156:0.940487 157:0.195556 211:0.0929825 218:0.589722 226:0.269557 251:0.840521 254:0.877834 255:0.295176 256:0.165559 257:0.406667 311:0.200585 318:0.2847 326:0.550409 351:0.803717 354:0.453515 355:0.230273 356:0.474534 357:0.677778 411:0.102519 418:0.882463 426:0.382013 451:0.826 454:0.827483 455:0.189406 456:0.207403 457:0.446503 511:0.112478 518:0.778405 526:0.367528 551:0.835634 554:0.685919 555:0.275236 556:0.296524 557:0.443713 611:0.183363 618:0.186413 626:0.310877 651:0.406496 654:0.181818 655:0.557516 656:0.819956 657:0.468033 711:0.0812962 718:0.574371 726:0.160784 751:0.638599 754:0.419628 755:0.527754 756:0.155096 757:0.292381 811:0.176805 818:0.116705 826:0.208829 851:0.226275 854:0.110829 855:0.379418 856:0.918471 857:0.128205 911:0.0306358 918:0.316552 926:0.206282 951:0.702821 954:1 955:0.103356 956:0.132716 957:0.292785 
0.03459002025952301 11:0.182864 18:0.158924 26:0.226739 51:0.251971 54:0.163498 55:0.3914 56:0.938542 57:0.195556 111:0.0831879 118:0.571429 126:0.253771 151:0.851257 154:0.877834 155:0.262634 156:0.165559 157:0.406667 211:0.200585 218:0.304128 226:0.571159 251:0.782954 254:0.448866 255:0.224694 256:0.464387 257:0.677778 311:0.104094 318:0.782334 326:0.455949 351:0.808937 354:0.86576 355:0.189082 356:0.220807 357:0.457778 411:0.112478 418:0.845149 426:0.35396 451:0.878039 454:0.681079 455:0.286047 456:0.307594 457:0.424575 511:0.183363 518:0.168413 526:0.314216 551:0.407737 554:0.180438 555:0.573595 556:0.801292 557:0.434576 611:0.0837727 618:0.623861 626:0.131494 651:0.607087 654:0.417508 655:0.59739 656:0.167139 657:0.30041 711:0.176805 718:0.116705 726:0.192941 751:0.23313 754:0.110829 755:0.380444 756:0.918471 757:0.110491 811:0.0466174 818:0.316552 826:0.206282 851:0.765897 854:1 855:0.103356 856:0.12707 857:0.304029 911:0.190173 918:0.135011 926:0.269949 951:0.201682 954:0.133672 955:0.178971 956:0.927778 957:0.173658 
0.03909008412895241 11:0.0839563 18:0.620212 26:0.258356 51:0.865954 54:0.880017 55:0.25849 56:0.13828 57:0.406667 111:0.190227 118:0.294694 126:0.537711 151:0.792954 154:0.448866 155:0.194121 156:0.464387 157:0.677778 211:0.104094 218:0.83572 226:0.473139 251:0.788039 254:0.869505 255:0.183204 256:0.205761 257:0.457778 311:0.114035 318:0.750789 326:0.425068 351:0.863019 354:0.710658 355:0.281886 356:0.318323 357:0.436296 411:0.183363 418:0.138993 426:0.299505 451:0.404661 454:0.167808 455:0.596124 456:0.831206 457:0.415123 511:0.0837727 518:0.593876 526:0.135703 551:0.592808 554:0.416526 555:0.61462 556:0.163334 557:0.285088 611:0.182191 618:0.126761 626:0.164773 651:0.201378 654:0.110269 655:0.430643 656:0.921624 657:0.113525 711:0.0466174 718:0.316552 726:0.190588 751:0.789101 754:1 755:0.116994 756:0.12707 757:0.282808 811:0.203525 818:0.135011 826:0.269949 851:0.219782 854:0.133672 855:0.178971 856:0.947452 857:0.188441 911:0.0942197 918:0.252479 926:0.189304 951:0.539513 954:0.563029 955:0.8 956:0.403086 957:0.289849 
0.06038761565718749 11:0.171938 18:0.751426 26:0.498645 51:0.727528 54:0.403042 55:0.363548 56:0.44459 57:0.68963 111:0.171611 118:0.207347 126:0.479148 151:0.33766 154:0.198519 155:0.645773 156:0.611269 157:0.344074 211:0.185965 218:0.444819 226:0.599434 251:0.727624 254:0.366497 255:0.52112 256:0.340931 257:0.647037 311:0.206433 318:0.182965 326:0.254314 351:0.369806 354:0.348299 355:0.44665 356:0.801553 357:0.573704 411:0.148213 418:0.466418 426:0.64604 451:0.875427 454:0.443065 455:0.693798 456:0.269943 457:0.453308 511:0.185706 518:0.119259 526:0.168821 551:0.233927 554:0.108769 555:0.412481 556:0.890188 557:0.130117 611:0.105448 618:0.289147 626:0.176136 651:0.804331 654:0.636364 655:0.11334 656:0.190746 657:0.47418 711:0.175668 718:0.519451 726:0.236078 751:0.607909 754:0.288071 755:0.242101 756:0.374522 757:0.757479 811:0.0767482 818:0.416476 826:0.194397 851:0.824136 854:0.560491 855:0.396644 856:0.295223 857:0.441188 911:0.180347 918:0.315789 926:0.387946 951:0.742071 954:0.467005 955:0.174497 956:0.256481 957:0.842282 
0.0408088344471754 11:0.171363 18:0.256724 26:0.487805 51:0.429122 54:0.259823 55:0.643782 56:0.598562 57:0.344074 111:0.175684 118:0.43102 126:0.56433 151:0.736918 154:0.366497 155:0.482264 156:0.340931 157:0.647037 211:0.206433 218:0.195451 226:0.263902 251:0.360252 254:0.341509 255:0.442639 256:0.797721 257:0.573704 311:0.149708 318:0.430599 326:0.746594 351:0.860305 354:0.458503 355:0.673449 356:0.281677 357:0.464444 411:0.185706 418:0.0820896 426:0.15099 451:0.212377 454:0.0950342 455:0.428682 456:0.923421 457:0.100189 511:0.105448 518:0.268332 526:0.180129 551:0.774791 554:0.63575 555:0.116609 556:0.186404 557:0.440058 611:0.181019 618:0.564209 626:0.209416 651:0.576378 654:0.286616 655:0.274045 656:0.38401 657:0.778279 711:0.0767482 718:0.416476 726:0.179608 751:0.849105 754:0.560491 755:0.396883 756:0.295223 757:0.417232 811:0.19386 818:0.315789 826:0.387946 851:0.808669 854:0.467005 855:0.174497 856:0.254777 857:0.8372 911:0.184971 918:0.142639 926:0.360781 951:0.256352 954:0.140017 955:0.175168 956:0.910802 957:0.249581 
0.02961423248771171 11:0.175388 18:0.480033 26:0.574526 51:0.768705 54:0.413181 55:0.479355 56:0.319385 57:0.647037 111:0.196044 118:0.189388 126:0.248447 151:0.364854 154:0.341509 155:0.405977 156:0.797721 157:0.573704 211:0.149708 218:0.459983 226:0.774741 251:0.83808 254:0.453957 255:0.671082 256:0.267806 257:0.464444 311:0.187135 318:0.105678 326:0.201635 351:0.171226 354:0.0897959 355:0.418859 356:0.917702 357:0.118519 411:0.105448 418:0.254664 426:0.162541 451:0.810729 454:0.630137 455:0.121189 456:0.193363 457:0.420794 511:0.181019 518:0.535858 526:0.213247 551:0.564475 554:0.285413 555:0.281949 556:0.375269 557:0.711257 611:0.0790861 618:0.452361 626:0.150974 651:0.817717 654:0.55766 655:0.449251 656:0.305634 657:0.428689 711:0.19386 718:0.315789 726:0.358431 751:0.833169 754:0.467005 755:0.184885 756:0.254777 757:0.805345 811:0.198408 818:0.142639 826:0.360781 851:0.279358 854:0.140017 855:0.175168 856:0.929936 857:0.262108 911:0.163006 918:0.279939 926:0.824278 951:0.561065 954:0.318528 955:0.452796 956:0.512037 957:0.635906 
0.03758113925255675 11:0.266245 18:0.771801 26:0.462511 51:0.720343 54:0.458809 55:0.132177 56:0.277215 57:0.457407 111:0.253054 118:0.636735 126:0.447205 151:0.92707 154:0.64137 155:0.354713 156:0.140867 157:0.497407 211:0.0520468 218:0.129739 226:0.31574 251:0.414972 254:0.417399 255:0.0312422 256:0.0959164 257:0.785185 318:0.81388 326:0.239782 351:0.802046 354:0.605896 355:0.225558 356:0.265528 357:0.245185 411:0.108377 418:0.0261194 426:0.272277 451:0.285312 454:0.202483 455:0.320155 456:0.970006 457:0.290737 511:0.461043 518:0.197421 526:0.0589661 551:0.708318 554:0.57968 555:0.835157 556:0.440787 557:0.330409 611:0.12478 618:0.213753 626:0.0892857 651:0.193898 654:0.0681818 655:0.135089 656:0.930123 657:0.366803 711:0.346219 718:0.523265 726:0.13098 751:0.812316 754:0.650592 755:0.314688 756:0.534713 757:0.547667 811:0.118249 818:0.0480549 826:0.135823 851:0.194577 854:0.156091 855:0.224161 856:1 857:0.01628 911:0.558382 918:0.475973 926:0.652801 951:0.736114 954:0.831641 955:0.288814 956:0.129321 957:0.45344 
0.03529521278405758 11:0.251869 18:0.685412 26:0.455285 51:0.930436 54:0.664132 55:0.351087 56:0.112782 57:0.497407 111:0.0424666 118:0.125714 126:0.297249 151:0.420272 154:0.417399 155:0.00607386 156:0.0959164 157:0.785185 218:0.869419 226:0.248822 251:0.781326 254:0.60435 255:0.219945 256:0.251345 257:0.245185 311:0.109942 318:0.0583596 326:0.33515 351:0.247024 354:0.203628 355:0.31464 356:0.963043 357:0.305185 411:0.461043 418:0.172575 426:0.0387789 451:0.737191 454:0.573202 455:0.867959 456:0.457243 457:0.307372 511:0.12478 518:0.195004 526:0.0936995 551:0.211587 554:0.0666105 555:0.138986 556:0.908951 557:0.344298 611:0.356766 618:0.568351 626:0.100649 651:0.780906 654:0.647306 655:0.356211 656:0.542336 657:0.562705 711:0.118249 718:0.0480549 726:0.12549 751:0.200472 754:0.156091 755:0.23228 756:1 757:0.000797766 811:0.565662 818:0.475973 826:0.652801 851:0.802177 854:0.831641 855:0.288814 856:0.123567 857:0.45991 911:0.113873 918:0.0739893 926:0.121392 951:0.211319 954:0.0537225 955:0.225727 956:0.857716 957:0.0910235 
0.04025297661817572 11:0.296722 18:0.669112 26:0.508582 51:0.719117 54:0.695817 55:0.16687 56:0.753187 57:0.204444 111:0.344386 118:0.56898 126:0.372671 151:0.460857 154:0.360019 155:0.213314 156:0.805318 157:0.421852 211:0.203509 218:0.158382 226:0.263902 251:0.356998 254:0.145303 255:0.24069 256:0.921811 257:0.192593 311:0.173684 318:0.165615 326:0.180745 351:0.357068 354:0.301587 355:0.620347 356:0.595963 357:0.438148 411:0.0919742 418:0.735075 426:0.429868 451:0.899337 454:0.778682 455:0.284238 456:0.360562 457:0.280151 511:0.123609 518:0.189363 526:0.123586 551:0.296404 554:0.219646 555:0.318996 556:0.165488 557:0.843933 611:0.103105 618:0.86164 626:0.541396 651:0.862008 654:0.521465 655:0.200338 656:0.374567 657:0.366803 711:0.142695 718:0.176964 726:0.192941 751:0.434586 754:0.321066 755:0.593296 756:0.609873 757:0.773036 811:0.11029 818:0.434783 826:0.542445 851:0.681115 854:0.506768 855:0.691051 856:0.548089 857:0.227106 911:0.527168 918:0.384439 926:0.460102 951:0.509374 954:0.212775 955:0.29217 956:0.789198 957:0.480705 
0.04341729744931744 11:0.342151 18:0.617767 26:0.379404 51:0.533906 54:0.407267 55:0.208893 56:0.798954 57:0.421852 111:0.193136 118:0.153469 126:0.248447 151:0.361557 154:0.145303 155:0.20967 156:0.921811 157:0.192593 211:0.173684 218:0.176917 226:0.187559 251:0.347844 254:0.293845 255:0.617596 256:0.588161 257:0.438148 311:0.0935673 318:0.657729 326:0.508629 351:0.885153 354:0.814059 355:0.280149 356:0.369876 357:0.294815 411:0.123609 418:0.163246 426:0.104785 451:0.281495 454:0.20762 455:0.331525 456:0.171666 457:0.838563 511:0.103105 518:0.825141 526:0.543619 551:0.828006 554:0.520658 555:0.206116 556:0.366041 557:0.344298 611:0.147042 618:0.192212 626:0.164773 651:0.402953 654:0.319444 655:0.67158 656:0.616619 657:0.794262 711:0.11029 718:0.434783 726:0.501176 751:0.701751 754:0.506768 755:0.677839 756:0.548089 757:0.207419 811:0.534963 818:0.384439 826:0.460102 851:0.555089 854:0.212775 855:0.29217 856:0.804459 857:0.486365 911:0.143353 918:0.26087 926:0.224109 951:0.417557 954:0.2022 955:0.605145 956:0.625309 957:0.478188 
0.03250028010096645 11:0.192639 18:0.202934 26:0.252936 51:0.449448 54:0.211238 55:0.205228 56:0.919255 57:0.192593 111:0.163467 118:0.171429 126:0.176575 151:0.352287 154:0.293845 155:0.576045 156:0.588161 157:0.438148 211:0.0935673 218:0.702612 226:0.527804 251:0.862286 254:0.816752 255:0.274931 256:0.357708 257:0.294815 311:0.125146 318:0.17429 326:0.150772 351:0.243057 354:0.20907 355:0.325558 356:0.186025 357:0.841852 411:0.103105 418:0.899254 426:0.533828 451:0.8696 454:0.513271 455:0.214212 456:0.379706 457:0.321739 511:0.147042 518:0.174053 526:0.168821 551:0.404468 554:0.318297 555:0.69095 556:0.602584 557:0.725512 611:0.11365 618:0.472245 626:0.483766 651:0.670276 654:0.504209 655:0.767279 656:0.555556 657:0.213115 711:0.534963 718:0.384439 726:0.425098 751:0.571906 754:0.212775 755:0.297182 756:0.804459 757:0.461508 811:0.157476 818:0.26087 826:0.224109 851:0.455032 854:0.2022 855:0.605145 856:0.63535 857:0.483923 911:0.186705 918:0.217391 926:0.438031 951:0.468372 954:0.217428 955:0.351007 956:0.780864 957:0.543205 
0.03469188404007798 11:0.163312 18:0.220864 26:0.179765 51:0.441563 54:0.346853 55:0.573662 56:0.574698 57:0.438148 111:0.0837696 118:0.680816 126:0.496894 151:0.8733 154:0.816752 155:0.242954 156:0.357708 157:0.294815 211:0.125146 218:0.186184 226:0.156456 251:0.236778 254:0.199445 255:0.32067 256:0.170307 257:0.841852 311:0.104678 318:0.79653 326:0.62307 351:0.854249 354:0.53288 355:0.212903 356:0.388509 357:0.335556 411:0.147042 418:0.145522 426:0.15099 451:0.401045 454:0.307791 455:0.718088 456:0.62508 457:0.716068 511:0.11365 518:0.446414 526:0.486268 551:0.651108 554:0.503373 555:0.789408 556:0.54291 557:0.207237 611:0.55126 618:0.417564 626:0.405032 651:0.540354 654:0.2117 655:0.336394 656:0.808939 657:0.47418 711:0.157476 718:0.26087 726:0.207059 751:0.468818 754:0.2022 755:0.595858 756:0.63535 757:0.459114 811:0.200114 818:0.217391 826:0.438031 851:0.510407 854:0.217428 855:0.351007 856:0.79586 857:0.547009 911:0.163006 918:0.167048 926:0.595925 951:0.369897 954:0.174704 955:0.395302 956:0.817593 957:0.211409 
0.03810296203908396 11:0.0845313 18:0.729421 26:0.505872 51:0.884703 54:0.82425 55:0.2387 56:0.336711 57:0.294815 111:0.115183 118:0.180408 126:0.147294 151:0.239802 154:0.199445 155:0.287415 156:0.170307 157:0.841852 211:0.104678 218:0.850885 226:0.64656 251:0.832181 254:0.529847 255:0.207198 256:0.376701 257:0.335556 311:0.148538 318:0.159306 326:0.201635 351:0.3673 354:0.315193 355:0.696774 356:0.627329 357:0.721852 411:0.11365 418:0.460821 426:0.475248 451:0.6739 454:0.495719 455:0.820413 456:0.563178 457:0.179962 511:0.55126 518:0.393231 526:0.407916 551:0.531239 554:0.210371 555:0.346096 556:0.790526 557:0.440058 611:0.162273 618:0.283347 626:0.179383 651:0.437205 654:0.201178 655:0.67448 656:0.6418 657:0.471721 711:0.200114 718:0.217391 726:0.404706 751:0.525871 754:0.217428 755:0.35333 756:0.79586 757:0.520941 811:0.176805 818:0.167048 826:0.595925 851:0.403093 854:0.174704 855:0.395302 856:0.833758 857:0.225071 911:0.0780347 918:0.529367 926:0.460951 951:0.837743 954:0.916667 955:0.161298 956:0.199074 957:0.424916 
0.04464262118303349 11:0.115584 18:0.229829 26:0.149955 51:0.345891 54:0.260668 55:0.283411 56:0.143184 57:0.841852 111:0.0948226 118:0.82449 126:0.608696 151:0.84281 154:0.529847 155:0.177114 156:0.376701 157:0.335556 211:0.148538 218:0.170177 226:0.209237 251:0.357811 254:0.307728 255:0.694576 256:0.620133 257:0.721852 311:0.115205 318:0.425868 326:0.558583 351:0.650867 354:0.514286 355:0.795037 356:0.567081 357:0.196667 411:0.55126 418:0.399254 426:0.395215 451:0.54129 454:0.198202 455:0.35969 456:0.820038 457:0.420794 511:0.162273 518:0.262691 526:0.18336 551:0.43607 554:0.199831 555:0.693933 556:0.627192 557:0.437865 611:0.20621 618:0.236123 626:0.383929 651:0.494291 654:0.21633 655:0.399952 656:0.800441 657:0.535246 711:0.176805 718:0.167048 726:0.550588 751:0.415306 754:0.174704 755:0.395602 756:0.833758 757:0.205425 811:0.0932348 818:0.529367 826:0.460951 851:0.912927 854:0.916667 855:0.161298 856:0.195541 857:0.432234 911:0.0953757 918:0.838291 926:0.259762 951:0.681269 954:0.611252 955:0.277629 956:0.224074 957:0.637164 
0.07886125523007742 11:0.13226 18:0.219234 26:0.127371 51:0.383564 54:0.231517 55:0.912045 56:0.374305 57:0.153333 111:0.150669 118:0.675102 126:0.612245 151:0.761228 154:0.571957 155:0.411565 156:0.427984 157:0.444444 211:0.482456 218:0.287279 226:0.467484 251:0.441619 254:0.207311 255:0.459135 256:0.818297 257:0.325556 311:0.239766 318:0.402208 326:0.497729 351:0.508457 354:0.289796 355:0.295782 356:0.732609 357:0.646667 411:0.224956 418:0.632463 426:0.511551 451:0.623669 454:0.504709 455:0.377519 456:0.53478 457:0.624575 511:0.388987 518:0.399678 526:0.310985 551:0.684708 554:0.507589 555:0.508454 556:0.239311 557:0.759503 611:0.137668 618:0.282519 626:0.171266 651:0.472638 654:0.318182 655:0.191397 656:0.151715 657:0.802049 711:0.12166 718:0.459191 726:0.374118 751:0.919732 754:0.666244 755:0.314688 756:0.285987 757:0.555245 811:0.116543 818:0.349352 826:0.286927 851:0.869964 854:0.782572 855:0.157047 856:0.181847 857:0.650387 911:0.158382 918:0.215866 926:0.212224 951:0.313825 954:0.208968 955:0.819911 956:0.504012 957:0.403104 
0.06971329974801983 11:0.150661 18:0.723716 26:0.623306 51:0.789381 54:0.60076 55:0.408258 56:0.409284 57:0.444444 111:0.470622 118:0.278367 126:0.440106 151:0.44726 154:0.207311 155:0.422012 156:0.818297 157:0.325556 211:0.239766 218:0.429655 226:0.516494 251:0.495321 254:0.281814 255:0.290677 256:0.727445 257:0.646667 311:0.226316 318:0.570978 326:0.598547 351:0.598664 354:0.52381 355:0.369727 356:0.539441 357:0.632222 411:0.388987 418:0.406716 426:0.296205 451:0.711071 454:0.5 455:0.528424 456:0.248245 457:0.751229 511:0.137668 518:0.261886 526:0.175283 551:0.468761 554:0.317032 555:0.196917 556:0.148262 557:0.732456 611:0.125366 618:0.498757 626:0.352273 651:0.888386 654:0.662879 655:0.356211 656:0.296506 657:0.570492 711:0.116543 718:0.349352 726:0.265098 751:0.896321 754:0.782572 755:0.168232 756:0.181847 757:0.622258 811:0.172257 818:0.215866 826:0.212224 851:0.34199 854:0.208968 855:0.819911 856:0.510191 857:0.41107 911:0.590751 918:0.507246 926:0.314092 951:0.463115 954:0.305415 955:0.217897 956:0.504012 957:0.773909 
0.07049068593962868 11:0.33525 18:0.282804 26:0.553749 51:0.451025 54:0.26616 55:0.113364 56:0.497548 57:0.716296 111:0.150669 118:0.0636735 126:0.171251 151:0.112691 154:0.0342434 155:0.151118 156:0.990187 157:0.0566667 211:0.294737 218:0.438079 226:0.435438 251:0.827705 254:0.470615 255:0.470382 256:0.521684 257:0.690741 311:0.125731 318:0.449527 326:0.281562 351:0.633118 354:0.322902 355:0.273697 356:0.32764 357:0.325556 411:0.0984183 418:0.550373 426:0.148515 451:0.862367 454:0.842894 455:0.350646 456:0.235482 457:0.2431 511:0.177504 518:0.222401 526:0.286753 551:0.484562 554:0.26054 555:0.286673 556:0.665026 557:0.640351 611:0.16403 618:0.40348 626:0.180195 651:0.700394 654:0.571549 655:0.314403 656:0.303431 657:0.795082 711:0.223991 718:0.704043 726:0.298824 751:0.926421 754:0.589679 755:0.371904 756:0.446497 757:0.641404 811:0.270608 818:0.440885 826:0.352292 851:0.928585 854:0.465313 855:0.528859 856:0.496497 857:0.537241 911:0.255491 918:0.476735 926:0.375212 951:0.700368 954:0.429357 955:0.656376 956:0.493827 957:0.51552 
0.09528636084516398 11:0.150661 18:0.113284 26:0.174345 51:0.237778 54:0.109844 55:0.146347 56:0.989866 57:0.0566667 111:0.283886 118:0.42449 126:0.409938 151:0.838278 154:0.470615 155:0.432945 156:0.521684 157:0.690741 211:0.125731 218:0.480202 226:0.292177 251:0.616762 254:0.315595 255:0.268433 256:0.314657 257:0.325556 311:0.1 318:0.501577 326:0.19891 351:0.846732 354:0.882086 355:0.343921 356:0.248137 357:0.258519 411:0.177504 418:0.201493 426:0.271452 451:0.489652 454:0.249144 455:0.297933 456:0.689853 457:0.627977 511:0.16403 518:0.379533 526:0.184168 551:0.678896 554:0.570826 555:0.323471 556:0.296524 557:0.726243 611:0.230814 618:0.764706 626:0.274351 651:0.895079 654:0.5867 655:0.420976 656:0.455146 657:0.659016 711:0.270608 718:0.440885 726:0.32549 751:0.956718 754:0.465313 755:0.523057 756:0.496497 757:0.511368 811:0.267766 818:0.476735 826:0.375212 851:0.763223 854:0.429357 855:0.656376 856:0.499682 857:0.520147 911:0.148555 918:0.46987 926:0.249576 951:0.71789 954:0.402707 955:0.274049 956:0.412346 957:0.341862 
0.1 11:0.282346 18:0.473513 26:0.417344 51:0.854915 54:0.508238 55:0.429758 56:0.506048 57:0.690741 111:0.115765 118:0.465306 126:0.275067 151:0.624639 154:0.315595 155:0.236638 156:0.314657 157:0.325556 211:0.1 218:0.535805 226:0.206409 251:0.824858 254:0.886164 255:0.339165 256:0.233618 257:0.258519 311:0.178947 318:0.206625 326:0.334242 351:0.459386 354:0.253061 355:0.2933 356:0.690373 357:0.635556 411:0.16403 418:0.383396 426:0.166667 451:0.704641 454:0.564212 455:0.336176 456:0.307594 457:0.716824 511:0.230814 518:0.730862 526:0.277868 551:0.858518 554:0.586003 555:0.433118 556:0.444786 557:0.604898 611:0.278852 618:0.478873 626:0.301948 651:0.925394 654:0.462963 655:0.592073 656:0.504564 657:0.52541 711:0.267766 718:0.476735 726:0.346667 751:0.786347 754:0.429357 755:0.644748 756:0.499682 757:0.494615 811:0.162592 818:0.46987 826:0.249576 851:0.782318 854:0.402707 855:0.274049 856:0.415605 857:0.351648 911:0.155491 918:0.20061 926:1 951:0.348344 954:0.219966 955:0.14519 956:0.592901 957:0.290268 
0.05554656846515686 11:0.116159 18:0.514262 26:0.280036 51:0.673208 54:0.366709 55:0.232348 56:0.292252 57:0.325556 111:0.0901687 118:0.519184 126:0.194321 151:0.835393 154:0.886164 155:0.305394 156:0.233618 157:0.258519 211:0.178947 218:0.220725 226:0.346843 251:0.447518 254:0.244331 255:0.288178 256:0.684394 257:0.635556 311:0.165497 318:0.36041 326:0.218892 351:0.682815 354:0.586848 355:0.330025 356:0.318323 357:0.722593 411:0.230814 418:0.790112 426:0.262376 451:0.903355 454:0.579623 455:0.450129 456:0.461391 457:0.591304 511:0.278852 518:0.452861 526:0.305331 551:0.886487 554:0.462057 555:0.60915 556:0.493079 557:0.485746 611:0.275923 618:0.517813 626:0.323864 651:0.754921 654:0.427189 655:0.729821 656:0.507712 657:0.508197 711:0.162592 718:0.46987 726:0.230588 751:0.80602 754:0.402707 755:0.279889 756:0.415605 757:0.329477 811:0.169414 818:0.20061 826:1 851:0.379607 854:0.219966 855:0.14519 856:0.601911 857:0.301587 911:0.155491 918:0.0900076 926:0.294567 951:0.120729 954:0.0850254 955:0.123714 956:0.920062 957:0.102349 
0.04653986206348633 11:0.0908568 18:0.568052 26:0.197832 51:0.852462 54:0.887621 55:0.30149 56:0.208565 57:0.258519 111:0.168703 118:0.213878 126:0.326531 151:0.453234 154:0.244331 155:0.255831 156:0.684394 157:0.635556 211:0.165497 218:0.385004 226:0.227144 251:0.665175 254:0.584914 255:0.325169 256:0.30516 257:0.722593 311:0.232164 318:0.704259 326:0.324251 351:0.88933 354:0.603175 355:0.439454 356:0.468012 357:0.59963 411:0.278852 418:0.468284 426:0.290429 451:0.934298 454:0.453767 455:0.633075 456:0.511487 457:0.468053 511:0.275923 518:0.490733 526:0.327141 551:0.729205 554:0.426223 555:0.75087 556:0.496155 557:0.470395 611:0.167545 618:0.510356 626:0.203734 651:0.774606 654:0.400673 655:0.31682 656:0.424614 657:0.338525 711:0.169414 718:0.20061 726:0.923922 751:0.391108 754:0.219966 755:0.156917 756:0.601911 757:0.280415 811:0.169414 818:0.0900076 826:0.294567 851:0.131564 854:0.0850254 855:0.123714 856:0.93949 857:0.119251 911:0.104046 918:0.183066 926:0.150255 951:0.26669 954:0.211083 955:0.0711409 956:0.133025 957:0.957634 
0.04608261142069185 11:0.168488 18:0.263244 26:0.33243 51:0.527422 54:0.301648 55:0.251649 56:0.674076 57:0.635556 111:0.155323 118:0.373061 126:0.213842 151:0.673671 154:0.584914 155:0.291788 156:0.30516 157:0.722593 211:0.232164 218:0.752317 226:0.336475 251:0.866355 254:0.601573 255:0.435391 256:0.45774 257:0.59963 311:0.280117 318:0.432177 326:0.355132 351:0.921487 354:0.469841 355:0.615136 356:0.51677 357:0.478889 411:0.275923 418:0.512127 426:0.312706 451:0.760297 454:0.41738 455:0.780362 456:0.514678 457:0.452174 511:0.167545 518:0.483481 526:0.207593 551:0.747367 554:0.399663 555:0.325957 556:0.414949 557:0.319079 611:0.174575 618:0.217896 626:0.921266 651:0.359449 654:0.218855 655:0.177622 656:0.60875 657:0.288115 711:0.169414 718:0.0900076 726:0.272157 751:0.13555 754:0.0850254 755:0.136422 756:0.93949 757:0.101715 811:0.118818 818:0.183066 826:0.150255 851:0.290624 854:0.211083 855:0.0711409 856:0.127389 857:0.949125 911:0.315029 918:0.234172 926:0.518676 951:0.331873 954:0.191201 955:0.642953 956:0.529938 957:0.779362 
0.05447608207357418 11:0.121909 18:0.514262 26:0.306233 51:0.887156 54:0.888466 55:0.274127 56:0.251716 57:0.562963 111:0.17103 118:0.292245 126:0.242236 151:0.432839 154:0.330865 155:0.222303 156:0.213992 157:0.78037 211:0.140351 218:0.782645 226:0.329877 251:0.837673 254:0.496529 255:0.344914 256:0.320038 257:0.391481 311:0.259064 318:0.20347 326:0.284287 351:0.339528 354:0.189569 355:0.410174 356:0.832609 357:0.222963 411:0.305214 418:0.362873 426:0.322607 451:0.669279 454:0.353596 455:0.355039 456:0.52776 457:0.748204 511:0.287639 518:0.271555 526:0.326333 551:0.454958 554:0.278246 555:0.334908 556:0.82713 557:0.524488 611:0.304628 618:0.401823 626:0.528409 651:0.656496 654:0.401094 655:0.315611 656:0.459868 657:0.879508 711:0.241615 718:0.209764 726:0.260392 751:0.392288 754:0.203046 755:0.450043 756:0.83535 757:0.236139 811:0.120523 818:0.499619 826:0.322581 851:0.925912 854:0.797377 855:0.284787 856:0.286306 857:0.456654 911:0.239306 918:0.206712 926:0.319185 951:0.340284 954:0.208545 955:0.306711 956:0.902469 957:0.247903 
0.04365046813455693 11:0.170788 18:0.341483 26:0.246612 51:0.510075 54:0.380651 55:0.217933 56:0.188297 57:0.78037 111:0.130308 118:0.758367 126:0.310559 151:0.848372 154:0.496529 155:0.310982 156:0.320038 157:0.391481 211:0.259064 218:0.217355 226:0.295005 251:0.330757 254:0.179547 255:0.405899 256:0.829376 257:0.222963 311:0.306433 318:0.34306 326:0.390554 351:0.646064 354:0.363719 355:0.348139 356:0.532609 357:0.753333 411:0.287639 418:0.258396 426:0.311881 451:0.456902 454:0.267123 455:0.348062 456:0.858009 457:0.508129 511:0.304628 518:0.377921 526:0.530695 551:0.638394 554:0.400084 555:0.324714 556:0.4494 557:0.801535 611:0.248975 618:0.227838 626:0.234578 651:0.36063 654:0.20202 655:0.509425 656:0.839471 657:0.242623 711:0.120523 718:0.499619 726:0.298039 751:0.953964 754:0.797377 755:0.290137 756:0.286306 757:0.432389 811:0.251848 818:0.206712 826:0.319185 851:0.370823 854:0.208545 855:0.306711 856:0.921338 857:0.26048 911:0.263006 918:0.405034 926:0.524618 951:0.741195 954:0.480964 955:0.280313 956:0.341049 957:0.869128 
0.05245749155850229 11:0.130535 18:0.806846 26:0.31617 51:0.863501 54:0.531897 55:0.30711 56:0.29781 57:0.391481 111:0.2484 118:0.210612 126:0.277728 151:0.334981 154:0.179547 155:0.370262 156:0.829376 157:0.222963 211:0.306433 218:0.36647 226:0.405278 251:0.629373 254:0.357242 255:0.343414 256:0.523583 257:0.753333 311:0.288889 318:0.254732 326:0.378747 351:0.42535 354:0.272109 355:0.341439 356:0.854037 357:0.518148 411:0.304628 418:0.38153 426:0.520627 451:0.659835 454:0.390839 455:0.337468 456:0.466177 457:0.794707 511:0.248975 518:0.208703 526:0.238288 551:0.36542 554:0.200675 555:0.524117 556:0.820363 557:0.233553 611:0.124194 618:0.542668 626:0.273539 651:0.922638 654:0.79335 655:0.32842 656:0.296821 657:0.444262 711:0.251848 718:0.206712 726:0.294902 751:0.382058 754:0.208545 755:0.311059 756:0.921338 757:0.240128 811:0.275156 818:0.405034 826:0.524618 851:0.807714 854:0.480964 855:0.280313 856:0.342038 857:0.863248 911:0.132948 918:0.602593 926:0.309847 951:0.855966 954:0.696277 955:0.279642 956:0.452778 957:0.415268 
0.03944454253111906 11:0.185164 18:0.91361 26:0.382114 51:0.821623 54:0.51373 55:0.335206 56:0.442628 57:0.460741 111:0.237347 118:0.174694 126:0.277728 151:0.363618 154:0.197594 155:0.49587 156:0.857233 157:0.205185 211:0.136257 218:0.41786 226:0.995287 251:0.459317 254:0.317908 255:0.44089 256:0.62868 257:0.331481 311:0.140936 351:0.0154521 354:0.185034 355:0.785608 356:0.359938 411:0.0615114 418:0.0923507 426:0.178218 451:0.178019 454:0.14726 455:0.0901809 456:0.140077 457:0.743667 511:0.0896309 518:0.645447 526:0.496769 551:0.748638 554:0.408516 555:0.216062 556:0.284835 557:0.739401 611:0.0492091 618:0.209611 626:0.0284091 651:0.194291 654:0.159512 655:0.0357661 656:0.00881335 657:0.711066 711:0.151222 718:0.197559 726:1 751:0.353335 754:0.247885 755:0.0971392 756:0.343949 757:0.369366 811:0.0415009 818:0.838291 826:0.398132 851:0.755203 854:0.423858 855:0.206935 856:0.371656 857:0.295075 911:0.119653 918:0.057971 926:0.133277 951:0.0660592 954:0.0317259 955:0.159508 956:0.878395 957:0.00461409 
0.03959683945883057 11:0.236343 18:0.224124 26:0.282746 51:0.4512 54:0.258978 55:0.493037 56:0.852566 57:0.205185 111:0.126236 118:0.404898 126:0.937001 151:0.465183 154:0.317908 155:0.404276 156:0.62868 157:0.331481 211:0.140936 251:0.0150529 254:0.174919 255:0.784054 256:0.347578 311:0.0631579 318:0.114353 326:0.231608 351:0.135519 354:0.145125 355:0.0937965 356:0.15528 357:0.748889 411:0.0896309 418:0.691231 426:0.485974 451:0.781796 454:0.399401 455:0.224548 456:0.295469 457:0.730435 511:0.0492091 518:0.190975 526:0.0331179 551:0.211951 554:0.158094 555:0.0367976 556:0.00861273 557:0.651316 611:0.155829 618:0.214582 626:1 651:0.321654 654:0.246633 655:0.109957 656:0.353793 657:0.379508 711:0.0415009 718:0.838291 726:0.367843 751:0.778084 754:0.423858 755:0.215841 756:0.371656 757:0.274033 811:0.134167 818:0.057971 826:0.133277 851:0.0719878 854:0.0317259 855:0.159508 856:0.896497 857:0.02442 911:0.0953757 918:0.35164 926:0.71562 951:0.727878 954:0.685279 955:0.177181 956:0.634568 957:0.430789 
0.03958625886526374 11:0.126509 18:0.453953 26:0.95393 51:0.537585 54:0.368821 55:0.400928 56:0.616541 57:0.331481 111:0.13089 151:0.0152452 154:0.174919 155:0.737852 156:0.347578 211:0.0631579 218:0.122157 226:0.240339 251:0.132018 254:0.134197 255:0.0872282 256:0.138968 257:0.748889 311:0.0912281 318:0.620662 326:0.570391 351:0.762999 354:0.412245 355:0.222829 356:0.306522 357:0.735926 411:0.0492091 418:0.165112 426:0.0123762 451:0.188065 454:0.14512 455:0.0382429 456:0.00893427 457:0.639319 511:0.155829 518:0.19581 526:1 551:0.329459 554:0.245363 555:0.113128 556:0.34574 557:0.355629 611:0.0427651 618:0.910522 626:0.345779 651:0.746654 654:0.421717 655:0.244321 656:0.381177 657:0.281557 711:0.134167 718:0.057971 726:0.123137 751:0.0741688 754:0.0317259 755:0.170581 756:0.896497 757:0.00877543 811:0.11029 818:0.35164 826:0.71562 851:0.793202 854:0.685279 855:0.177181 856:0.644904 857:0.437932 911:0.134682 918:0.0625477 926:0.188455 951:0.0795514 954:0.0532995 955:0.0914989 956:0.930864 957:0.0708893 
0.03933284653078822 11:0.13111 18:0.0497148 51:0.154897 54:0.238276 55:0.736379 56:0.32625 111:0.0535195 118:0.118367 126:0.226264 151:0.133704 154:0.134197 155:0.0604956 156:0.138968 157:0.748889 211:0.0912281 218:0.663016 226:0.591894 251:0.743287 254:0.406756 255:0.217196 256:0.293131 257:0.735926 311:0.0508772 318:0.175868 326:0.0490463 351:0.145959 354:0.142857 355:0.0439206 356:0.0276398 357:0.646667 411:0.155829 418:0.170709 426:1 451:0.318063 454:0.233733 455:0.117571 456:0.358647 457:0.333459 511:0.0427651 518:0.872683 526:0.34895 551:0.721576 554:0.420742 555:0.251367 556:0.372501 557:0.268275 611:0.138254 618:0.062966 626:0.0925325 651:0.0423228 654:0.0315657 655:0.193088 656:0.899906 657:0.00901639 711:0.11029 718:0.35164 726:0.661176 751:0.817234 754:0.685279 755:0.187447 756:0.644904 757:0.414041 811:0.148948 818:0.0625477 826:0.188455 851:0.0866909 854:0.0532995 855:0.0914989 856:0.950637 857:0.0887261 911:0.122543 918:0.81312 926:0.639219 951:0.64675 954:0.447547 955:0.378076 956:0.523457 957:0.342701 
0.03608530011131695 11:0.120759 18:0.440098 26:0.217706 51:0.83494 54:0.730883 55:0.239922 56:0.295521 57:0.812593 111:0.101803 118:0.477551 126:0.312334 151:0.689534 154:0.771865 155:0.131195 156:0.235834 157:0.732222 211:0.367836 218:0.490312 226:0.359095 251:0.872254 254:0.601573 255:0.448388 256:0.672998 257:0.422963 311:0.14152 318:0.201104 326:0.200727 351:0.399248 354:0.320635 355:0.250868 356:0.39472 357:0.831852 411:0.107206 418:0.760261 426:0.424092 451:0.653607 454:0.389983 455:0.78708 456:0.317805 457:0.341777 511:0.156415 518:0.0958904 526:0.133279 551:0.237559 554:0.0826307 555:0.198409 556:0.923408 557:0.33443 611:0.101933 618:0.723281 626:0.603084 651:0.770079 654:0.60101 655:0.252779 656:0.464274 657:0.487295 711:0.322911 718:0.0900076 726:0.0886275 751:0.129451 754:0.0917936 755:0.719257 756:0.504777 757:0.0646191 811:0.338829 818:0.115942 826:0.12309 851:0.223983 854:0.104484 855:0.785682 856:0.642675 857:0.0956451 911:0.136994 918:0.0930587 926:0.344652 951:0.185386 954:0.073181 955:0.172931 956:0.870988 957:0.116191 
0.03520290004076928 11:0.102358 18:0.526487 26:0.317977 51:0.728404 54:0.78327 55:0.126313 56:0.210853 57:0.732222 111:0.356603 118:0.475102 126:0.338066 151:0.883395 154:0.601573 155:0.411565 156:0.672998 157:0.422963 211:0.14152 218:0.214827 226:0.208294 251:0.388934 254:0.313281 255:0.245439 256:0.383033 257:0.831852 311:0.108772 318:0.679022 326:0.502271 351:0.629777 354:0.402268 355:0.763027 356:0.328261 357:0.355185 411:0.156415 418:0.0550373 426:0.114686 451:0.216395 454:0.0684932 455:0.206202 456:0.957881 457:0.311531 511:0.101933 518:0.690572 526:0.605008 551:0.743189 554:0.600337 555:0.26007 556:0.453707 557:0.451754 611:0.332748 618:0.097763 626:0.0568182 651:0.0976378 654:0.09133 655:0.814161 656:0.512748 657:0.0663934 711:0.338829 718:0.115942 726:0.113725 751:0.230769 754:0.104484 755:0.768147 756:0.642675 757:0.07858 811:0.151222 818:0.0930587 826:0.344652 851:0.202024 854:0.073181 855:0.172931 856:0.888854 857:0.132682 911:0.186127 918:0.224256 926:0.250424 951:0.342562 954:0.231387 955:0.110067 956:0.348765 957:0.850252 
0.03632222375917727 11:0.354227 18:0.524042 26:0.344173 51:0.893289 54:0.627799 55:0.408258 56:0.662308 57:0.422963 111:0.131472 118:0.208163 126:0.196096 151:0.393902 154:0.313281 155:0.214286 156:0.383033 157:0.831852 211:0.108772 218:0.725358 226:0.521206 251:0.613507 254:0.396576 255:0.76131 256:0.31529 257:0.355185 311:0.157895 318:0.0828076 326:0.161671 351:0.175402 354:0.061678 355:0.205211 356:0.951242 357:0.325556 411:0.101933 418:0.74347 426:0.596535 451:0.775769 454:0.594178 455:0.270284 456:0.470645 457:0.432892 511:0.332748 518:0.0821918 526:0.0613893 551:0.122775 554:0.0897976 555:0.837643 556:0.501077 557:0.0763889 611:0.349151 618:0.125932 626:0.0827922 651:0.199016 654:0.103956 655:0.869502 656:0.64904 657:0.0807377 711:0.151222 718:0.0930587 726:0.318431 751:0.208145 754:0.073181 755:0.18339 756:0.888854 757:0.114878 811:0.199545 818:0.224256 826:0.250424 851:0.373305 854:0.231387 855:0.110067 856:0.35 857:0.844933 911:0.0387283 918:0.205187 926:0.144312 951:0.447871 954:0.227157 955:0.124609 956:0.127469 957:0.186661 
0.04821899379441242 11:0.188614 18:0.172779 26:0.234869 51:0.275101 54:0.17406 55:0.488639 56:0.90389 57:0.16 111:0.0645724 118:0.501224 126:0.22449 151:0.769056 154:1 155:0.124393 156:0.161127 157:0.36037 211:0.108187 218:0.876158 226:0.449576 251:0.731489 254:0.519667 255:0.342664 256:0.311808 257:0.508148 311:0.0754386 318:0.656151 326:0.206176 351:0.752349 354:0.902948 355:0.34268 356:0.188199 357:0.483333 411:0.202109 418:0.222948 426:0.290429 451:0.508338 454:0.269692 455:0.883204 456:0.575622 457:0.412854 511:0.141769 518:0.590653 526:0.315024 551:0.854704 554:0.599916 555:0.408503 556:0.468779 557:0.596126 611:0.155829 618:0.622204 626:0.574675 651:0.76437 654:0.508418 655:0.187772 656:0.239849 657:0.813525 711:0.183627 718:0.292143 726:0.649412 751:0.791658 754:0.289763 755:0.183177 756:0.59172 757:0.541683 811:0.127345 818:0.606407 826:0.597623 851:0.796257 854:0.803299 855:0.191723 856:0.497771 857:0.425315 911:0.191329 918:0.138825 926:0.260611 951:0.213422 954:0.138748 955:0.205369 956:0.944753 957:0.160235 
0.06380946965884989 11:0.0655549 18:0.550122 26:0.228546 51:0.79604 54:0.99155 55:0.119472 56:0.133704 57:0.36037 111:0.098313 118:0.84898 126:0.423248 151:0.740832 154:0.519667 155:0.308795 156:0.311808 157:0.508148 211:0.0754386 218:0.700927 226:0.213949 251:0.732913 254:0.90745 255:0.337916 256:0.172523 257:0.483333 311:0.203509 318:0.224763 326:0.355132 351:0.478806 354:0.27483 355:0.855335 356:0.579193 357:0.424815 411:0.141769 418:0.627799 426:0.30033 451:0.899136 454:0.59375 455:0.424548 456:0.48628 457:0.582231 511:0.155829 518:0.592264 526:0.576737 551:0.737922 554:0.507589 555:0.193187 556:0.234389 557:0.74269 611:0.189221 618:0.317316 626:0.637175 651:0.760236 654:0.2883 655:0.207347 656:0.598678 657:0.556557 711:0.127345 718:0.606407 726:0.552157 751:0.820382 754:0.803299 755:0.201324 756:0.497771 757:0.401675 811:0.204662 818:0.138825 826:0.260611 851:0.232576 854:0.138748 855:0.205369 856:0.964968 857:0.175417 911:0.0468208 918:0.466056 926:0.226655 951:0.797967 954:0.953892 955:0.136689 956:0.162037 957:0.317953 
0.05515107778191973 11:0.0989074 18:0.897311 26:0.430894 51:0.772034 54:0.553021 55:0.304911 56:0.28931 57:0.508148 111:0.0657359 118:0.679184 126:0.20142 151:0.742274 154:0.90745 155:0.304179 156:0.172523 157:0.483333 211:0.203509 218:0.240101 226:0.36852 251:0.466436 254:0.266543 255:0.854286 256:0.571067 257:0.424815 311:0.143275 318:0.567035 326:0.366031 351:0.884945 354:0.618141 355:0.414888 356:0.492236 357:0.590741 411:0.155829 418:0.629664 426:0.567657 451:0.769942 454:0.5 455:0.200775 456:0.24314 457:0.733837 511:0.189221 518:0.295729 526:0.638934 551:0.734108 554:0.287099 555:0.213327 556:0.585051 557:0.513523 611:0.131224 618:0.658658 626:0.536526 651:0.788976 654:0.799242 655:0.227888 656:0.505823 657:0.412705 711:0.204662 718:0.138825 726:0.240784 751:0.239622 754:0.138748 755:0.214347 756:0.964968 757:0.156761 811:0.0625355 818:0.466056 826:0.226655 851:0.869582 854:0.953892 855:0.136689 856:0.157325 857:0.328449 911:0.213873 918:0.180778 926:0.308149 951:0.276152 954:0.182741 955:0.187472 956:0.798457 957:0.404362 
0.04176980917858068 11:0.066705 18:0.727791 26:0.205059 51:0.773261 54:0.907055 55:0.300269 56:0.145472 57:0.483333 111:0.193136 118:0.232653 126:0.346939 151:0.472394 154:0.266543 155:0.806122 156:0.571067 157:0.424815 211:0.143275 218:0.605729 226:0.37983 251:0.862083 254:0.616844 255:0.410647 256:0.482431 257:0.590741 311:0.15731 318:0.568612 326:0.660309 351:0.750679 354:0.518821 355:0.2 356:0.25559 357:0.739259 411:0.189221 418:0.286381 426:0.631188 451:0.765722 454:0.276113 455:0.221705 456:0.606892 457:0.496786 511:0.131224 518:0.62772 526:0.538772 551:0.760625 554:0.798904 555:0.23446 556:0.494309 557:0.385234 611:0.210896 618:0.150787 626:0.214286 651:0.207874 654:0.138047 655:0.242629 656:0.967579 657:0.161066 711:0.0625355 718:0.466056 726:0.209412 751:0.895928 754:0.953892 755:0.148804 756:0.157325 757:0.306741 811:0.226833 818:0.180778 826:0.308149 851:0.300936 854:0.182741 855:0.187472 856:0.814013 857:0.412291 911:0.0947977 918:0.722349 926:0.402377 951:0.715963 954:0.828257 955:0.257271 956:0.402778 957:0.39807 
0.05075163274790441 11:0.192639 18:0.281989 26:0.353207 51:0.543718 54:0.321926 55:0.805033 56:0.557045 57:0.424815 111:0.133217 118:0.586939 126:0.357587 151:0.873094 154:0.616844 155:0.374879 156:0.482431 157:0.590741 211:0.15731 218:0.607414 226:0.685203 251:0.731286 254:0.515502 255:0.194201 256:0.241216 257:0.739259 311:0.190643 318:0.278391 326:0.730245 351:0.746294 354:0.281633 355:0.220099 356:0.609627 357:0.507037 411:0.131224 418:0.670709 426:0.528878 451:0.795057 454:0.795805 455:0.243669 456:0.512763 457:0.364083 511:0.210896 518:0.133763 526:0.218094 551:0.224482 554:0.136594 555:0.249627 556:0.945555 557:0.160819 611:0.0644405 618:0.506214 626:0.181818 651:0.864567 654:0.949074 655:0.168439 656:0.169342 657:0.315164 711:0.226833 718:0.180778 726:0.284706 751:0.310053 754:0.182741 755:0.197267 756:0.814013 757:0.388911 811:0.109721 818:0.722349 826:0.402377 851:0.780218 854:0.828257 855:0.257271 856:0.405732 857:0.406186 911:0.131214 918:0.537757 926:0.37691 951:0.749956 954:0.378596 955:0.47472 956:0.460185 957:0.558725 
0.04662181976731235 11:0.13341 18:0.635697 26:0.364047 51:0.884528 54:0.641741 55:0.371366 56:0.465512 57:0.590741 111:0.147179 118:0.588571 126:0.645075 151:0.740626 154:0.515502 155:0.16448 156:0.241216 157:0.739259 211:0.190643 218:0.297388 226:0.757776 251:0.727014 254:0.273484 255:0.214446 256:0.602089 257:0.507037 311:0.132749 318:0.603312 326:0.61762 351:0.77678 354:0.8322 355:0.241191 356:0.518012 357:0.377037 411:0.210896 418:0.0988806 426:0.20132 451:0.201929 454:0.123288 455:0.259432 456:0.980855 457:0.131947 511:0.0644405 518:0.479452 526:0.185784 551:0.830367 554:0.948988 555:0.173297 556:0.165488 557:0.298246 611:0.233743 618:0.196355 626:0.25974 651:0.278346 654:0.181818 655:0.223296 656:0.818382 657:0.39959 711:0.109721 718:0.722349 726:0.371765 751:0.803856 754:0.828257 755:0.263877 756:0.405732 757:0.382928 811:0.145537 818:0.537757 826:0.37691 851:0.817262 854:0.378596 855:0.47472 856:0.464968 857:0.562068 911:0.188439 918:0.138063 926:0.250424 951:0.212721 954:0.134518 955:0.213423 956:0.951852 957:0.149329 
0.0427533195368255 11:0.224267 18:0.380603 26:0.717254 51:0.785527 54:0.52218 55:0.286098 56:0.366133 57:0.725556 111:0.234439 118:0.352653 126:0.567879 151:0.775443 154:0.652938 155:0.318513 156:0.385882 157:0.743333 211:0.205848 218:0.593934 226:0.503299 251:0.80655 254:0.838963 255:0.47938 256:0.374169 257:0.52 311:0.19883 318:0.254732 326:0.249773 351:0.425559 354:0.297959 355:0.722084 356:0.486646 357:0.674815 411:0.221441 418:0.271455 426:0.377888 451:0.478401 454:0.306507 455:0.277261 456:0.480217 457:0.864272 511:0.150557 518:0.557615 526:0.234249 551:0.857247 554:0.544688 555:0.318001 556:0.366041 557:0.401316 611:0.237258 618:0.242751 626:0.401786 651:0.352362 654:0.229377 655:0.218705 656:0.717973 657:0.614344 711:0.201251 718:0.619375 726:0.8 751:0.612434 754:0.34687 755:0.327925 756:0.429936 757:0.599122 811:0.15577 818:0.111365 826:0.169779 851:0.191331 854:0.120135 855:0.589709 856:0.736306 857:0.147741 911:0.13237 918:0.221968 926:0.418506 951:0.378307 954:0.230964 955:0.747427 956:0.342901 957:0.407718 
0.05172639876413762 11:0.233468 18:0.401793 26:0.578139 51:0.801472 54:0.674694 55:0.314684 56:0.365806 57:0.743333 111:0.195462 118:0.57551 126:0.473824 151:0.816852 154:0.838963 155:0.441691 156:0.374169 157:0.52 211:0.19883 218:0.272115 226:0.259189 251:0.414565 254:0.290143 255:0.72007 256:0.476733 257:0.674815 311:0.222807 318:0.265773 326:0.451408 351:0.447693 354:0.313832 355:0.273449 356:0.486335 357:0.867037 411:0.150557 418:0.589552 426:0.217822 451:0.901949 454:0.537671 455:0.330491 456:0.379706 457:0.380718 511:0.237258 518:0.223207 526:0.404685 551:0.357792 554:0.228078 555:0.225012 556:0.70163 557:0.565058 611:0.207381 618:0.672742 626:0.793019 651:0.580906 654:0.345118 655:0.371194 656:0.438779 657:0.615574 711:0.15577 718:0.111365 726:0.156863 751:0.197128 754:0.120135 755:0.581127 756:0.736306 757:0.129637 811:0.146674 818:0.221968 826:0.418506 851:0.412259 854:0.230964 855:0.747427 856:0.343949 857:0.415547 911:0.133526 918:0.772693 926:0.283531 951:0.769406 954:0.562183 955:0.280313 956:0.273457 957:0.793624 
0.04576985330996392 11:0.19494 18:0.624287 26:0.482385 51:0.836692 54:0.844529 55:0.438554 56:0.35371 57:0.52 111:0.188482 118:0.263673 126:0.244011 151:0.41986 154:0.290143 155:0.675656 156:0.476733 157:0.674815 211:0.222807 218:0.283909 226:0.468426 251:0.436127 254:0.30634 255:0.268183 256:0.476417 257:0.867037 311:0.152047 318:0.5347 326:0.275204 351:0.887868 354:0.55873 355:0.324566 356:0.388509 357:0.393333 411:0.237258 418:0.202425 426:0.391914 451:0.349407 454:0.216182 455:0.23385 456:0.727824 457:0.550095 511:0.207381 518:0.641418 526:0.794023 551:0.568652 554:0.344013 555:0.3819 556:0.428791 557:0.566155 611:0.160516 618:0.120961 626:0.127435 651:0.165354 654:0.119529 655:0.657806 656:0.74158 657:0.133197 711:0.146674 718:0.221968 726:0.386667 751:0.424749 754:0.230964 755:0.73164 756:0.343949 757:0.392102 811:0.147811 818:0.772693 826:0.283531 851:0.838457 854:0.562183 855:0.280313 856:0.272293 857:0.789988 911:0.177457 918:0.147216 926:0.205433 951:0.22744 954:0.126904 955:0.365996 956:0.817593 957:0.124581 
0.04057178840899756 11:0.127085 18:0.886716 26:0.31617 51:0.792711 54:0.607943 55:0.251405 56:0.286368 57:0.327037 111:0.310064 118:0.0734694 126:0.175688 151:0.180264 154:0.0314669 155:0.175899 156:0.914213 157:0.0544444 211:0.253216 218:0.474305 226:0.381715 251:0.269528 254:0.167978 255:0.28118 256:0.930674 257:0.221852 311:0.177778 318:0.152997 326:0.0799273 351:0.0622259 354:0.149206 357:0.734815 411:0.108377 418:0.104478 426:0.159241 451:0.167772 455:0.1677 456:0.988832 457:0.0465028 511:0.182191 518:0.0999194 526:0.121163 551:0.0114421 555:0.146196 556:1 557:0.0105994 611:0.197422 618:0.235294 626:0.86039 651:0.562008 654:0.377525 655:0.267279 656:0.257161 657:0.610656 711:0.0665151 718:0.501144 726:0.252549 751:0.779854 754:0.436971 755:0.304441 756:0.765605 757:0.326286 811:0.152928 818:0.623951 826:0.713073 851:0.704984 854:0.489425 855:0.382774 856:0.274204 857:0.692715 911:0.0699422 918:0.240275 926:0.242784 951:0.591729 954:0.847716 955:0.0196868 957:0.30495 
0.05746102445107899 11:0.263945 18:0.441728 26:0.65673 51:0.720694 54:0.458386 55:0.283899 56:0.423341 57:0.708148 111:0.250727 118:0.661224 126:0.364685 151:0.789864 154:0.649236 155:0.412536 156:0.455524 157:0.641111 211:0.277193 218:0.298231 226:0.335533 251:0.489422 254:0.309579 255:0.449138 256:0.795505 257:0.338148 311:0.252047 318:0.399054 326:0.792007 351:0.839424 354:0.802721 355:0.390323 356:0.464907 357:0.486667 411:0.15993 418:0.435634 426:0.542904 451:0.91963 454:0.843322 455:0.30155 456:0.312699 457:0.412098 511:0.251904 518:0.267526 526:0.310985 551:0.562841 554:0.319983 555:0.340627 556:0.828976 557:0.345029 611:0.111892 618:0.464789 626:0.256494 651:0.889173 654:0.955387 655:0.261479 656:0.255272 657:0.431557 711:0.18249 718:0.169336 726:0.17098 751:0.30002 754:0.182318 755:0.834543 756:0.449045 757:0.223773 811:0.242183 818:0.209764 826:0.298812 851:0.379798 854:0.208545 855:0.486577 856:0.837898 857:0.283272 911:0.134104 918:0.450038 926:0.318336 951:0.861574 954:0.786379 955:0.304027 956:0.43858 957:0.419463 
0.05782091539145792 11:0.249569 18:0.709861 26:0.371274 51:0.813738 54:0.671314 55:0.409235 56:0.437725 57:0.641111 111:0.266434 118:0.28898 126:0.315883 151:0.495674 154:0.309579 155:0.412293 156:0.795505 157:0.338148 211:0.252047 218:0.426285 226:0.821866 251:0.817738 254:0.805183 255:0.385904 256:0.454574 257:0.486667 311:0.161404 318:0.404574 326:0.633061 351:0.906243 354:0.88254 355:0.296774 356:0.323292 357:0.424074 411:0.251904 418:0.253731 426:0.296205 451:0.576251 454:0.309503 455:0.354005 456:0.859923 457:0.322495 511:0.111892 518:0.439162 526:0.260097 551:0.853069 554:0.955312 555:0.26902 556:0.249462 557:0.402047 611:0.188049 618:0.183927 626:0.142045 651:0.268307 654:0.181397 655:0.944659 656:0.457664 657:0.229918 711:0.242183 718:0.209764 726:0.276078 751:0.391304 754:0.208545 755:0.482707 756:0.837898 757:0.262465 811:0.14838 818:0.450038 826:0.318336 851:0.938896 854:0.786379 855:0.304027 856:0.442675 857:0.426943 911:0.212139 918:0.649886 926:0.679117 951:0.655336 954:0.426819 955:0.551902 956:0.402778 957:0.617869 
0.04276846674128634 11:0.189189 18:0.358598 26:0.431798 51:0.765201 54:0.490072 55:0.509162 56:0.281465 57:0.781852 111:0.0575916 118:0.166531 126:0.110027 151:0.406675 154:0.256826 155:0.0670554 156:0.169041 157:0.351481 211:0.308187 218:0.179444 226:0.60886 251:0.616965 254:0.289681 255:0.767058 256:0.714783 257:0.304815 311:0.738012 318:0.195584 326:0.368756 351:0.367091 354:0.343311 355:0.629777 356:0.26118 357:0.735926 411:0.149971 418:0.262127 426:0.276403 451:0.181836 454:0.0817637 455:0.182687 456:0.932036 457:0.301701 511:0.168131 518:0.412571 526:0.404685 551:0.373229 554:0.259275 555:0.182248 556:0.659489 557:0.650219 611:0.143527 618:0.0969345 626:0.286526 651:0.249213 654:0.180135 655:0.327936 656:0.937677 657:0.289754 711:0.129051 718:0.211289 726:0.305882 751:0.606925 754:0.354484 755:0.581981 756:0.642994 757:0.469884 811:0.181353 818:0.253242 826:0.264007 851:0.694673 854:0.546954 855:0.130649 856:0.351592 857:0.820513 911:0.12659 918:0.43402 926:0.220713 951:0.641493 954:0.483926 955:0.667338 956:0.532099 957:0.488674 
0.03741345285446607 11:0.0586544 18:0.215974 26:0.112014 51:0.487822 54:0.313054 55:0.0618129 56:0.141876 57:0.351481 111:0.297266 118:0.173878 126:0.573203 151:0.624845 154:0.289681 155:0.721331 156:0.714783 157:0.304815 211:0.738012 218:0.20893 226:0.382658 251:0.357608 254:0.336418 255:0.627093 256:0.246914 257:0.735926 311:0.151462 318:0.257886 326:0.339691 351:0.139486 354:0.075737 355:0.18263 356:0.926087 357:0.315926 411:0.168131 418:0.421642 426:0.391914 451:0.366486 454:0.24786 455:0.189406 456:0.68411 457:0.638185 511:0.143527 518:0.081386 526:0.289984 551:0.262623 554:0.178752 555:0.337394 556:0.916333 557:0.275585 611:0.132982 618:0.229495 626:0.281656 651:0.575394 654:0.352694 655:0.658772 656:0.649355 657:0.482787 711:0.181353 718:0.253242 726:0.243922 751:0.715719 754:0.546954 755:0.14304 756:0.351592 757:0.788991 811:0.140989 818:0.43402 826:0.220713 851:0.699064 854:0.483926 855:0.667338 856:0.539172 857:0.494098 911:0.0919075 918:0.558352 926:0.483022 951:0.849483 954:0.817682 955:0.279866 956:0.199074 957:0.496644 
0.04695962522544017 11:0.295572 18:0.223309 26:0.583559 51:0.673384 54:0.34305 55:0.719765 56:0.705459 57:0.304815 111:0.72484 118:0.202449 126:0.360248 151:0.362176 154:0.336418 155:0.585277 156:0.246914 157:0.735926 211:0.151462 218:0.275484 226:0.352498 251:0.135883 254:0.0633966 255:0.176706 256:0.92466 257:0.315926 311:0.169591 318:0.392744 326:0.466848 351:0.331384 354:0.251701 355:0.189082 356:0.684783 357:0.645556 411:0.143527 418:0.0382463 426:0.274752 451:0.244123 454:0.166096 455:0.350646 456:0.950542 457:0.250662 511:0.132982 518:0.210314 526:0.285137 551:0.563567 554:0.351602 555:0.677772 556:0.634574 557:0.447734 611:0.186878 618:0.275062 626:0.217532 651:0.684252 654:0.544192 655:0.161914 656:0.361347 657:0.810656 711:0.140989 718:0.43402 726:0.203922 751:0.720244 754:0.483926 755:0.655209 756:0.539172 757:0.469087 811:0.106879 818:0.558352 826:0.483022 851:0.925721 854:0.817682 855:0.279866 856:0.195541 857:0.501832 911:0.109249 918:0.470633 926:0.193548 951:0.446469 954:0.505499 955:0.125951 956:0.301543 957:0.813758 
0.0402755409645084 11:0.718229 18:0.251834 26:0.366757 51:0.449974 54:0.38572 55:0.582946 56:0.222295 57:0.735926 111:0.141361 118:0.266939 126:0.331854 151:0.137618 154:0.0633966 155:0.147473 156:0.92466 157:0.315926 211:0.169591 218:0.419545 226:0.484449 251:0.322823 254:0.242943 255:0.183204 256:0.678696 257:0.645556 311:0.145029 318:0.068612 326:0.337875 351:0.204218 354:0.165079 355:0.343921 356:0.944099 357:0.265926 411:0.132982 418:0.1875 426:0.269802 451:0.577054 454:0.34161 455:0.704393 456:0.658264 457:0.428733 511:0.186878 518:0.254633 526:0.221325 551:0.664003 554:0.543423 555:0.166584 556:0.353122 557:0.740132 611:0.145284 618:0.471417 626:0.176136 651:0.68878 654:0.481481 655:0.741663 656:0.546742 657:0.481967 711:0.106879 718:0.558352 726:0.446275 751:0.953767 754:0.817682 755:0.28544 756:0.195541 757:0.476665 811:0.123934 818:0.470633 826:0.193548 851:0.486538 854:0.505499 855:0.125951 856:0.301274 857:0.809524 911:0.584393 918:0.229596 926:0.219864 951:0.351673 954:0.259306 955:0.176063 956:0.400926 957:0.861158 
0.0598753232730256 11:0.171938 18:0.347188 26:0.237579 51:0.578412 54:0.386988 55:0.248473 56:0.387708 57:0.715556 111:0.170448 118:0.217959 126:0.209406 151:0.420478 154:0.258214 155:0.951409 156:0.446344 157:0.257037 211:0.184211 218:0.878686 226:0.568332 251:0.764036 254:0.455345 255:0.337916 256:0.357392 257:0.407407 311:0.69883 318:0.234227 326:0.501362 351:0.393402 354:0.264399 355:0.319107 356:0.799689 357:0.463704 411:0.223199 418:0.386194 426:0.326733 451:0.875226 454:0.766695 455:0.343411 456:0.353861 457:0.601134 511:0.236087 518:0.759871 526:0.638934 551:0.613149 554:0.39629 555:0.331179 556:0.604429 557:0.508041 611:0.206796 618:0.222867 626:0.194805 651:0.375197 654:0.190657 655:0.705413 656:0.759836 657:0.212705 711:0.16714 718:0.580473 726:0.307451 751:0.962424 754:0.863367 755:0.284372 756:0.316242 757:0.505784 811:0.278567 818:0.336384 826:0.376061 851:0.591369 854:0.358714 855:0.23557 856:0.412739 857:0.90639 911:0.147399 918:0.423341 926:0.297114 951:0.778518 954:0.432741 955:0.412081 956:0.62037 957:0.368289 
0.05822566346178528 11:0.170213 18:0.267319 26:0.213189 51:0.499562 54:0.314322 55:0.951136 56:0.428245 57:0.257037 111:0.173938 118:0.851429 126:0.535049 151:0.773795 154:0.455345 155:0.304179 156:0.357392 157:0.407407 211:0.69883 218:0.250211 226:0.520264 251:0.383238 254:0.2559 255:0.314171 256:0.795821 257:0.463704 311:0.224561 318:0.362776 326:0.395095 351:0.860096 354:0.801361 355:0.336973 356:0.363354 357:0.609259 411:0.236087 418:0.823694 426:0.631188 451:0.631907 454:0.386986 455:0.344186 456:0.626994 457:0.491115 511:0.206796 518:0.203868 526:0.198708 551:0.378859 554:0.189292 555:0.725758 556:0.742541 557:0.206871 611:0.172232 618:0.630489 626:0.283279 651:0.931102 654:0.859007 655:0.321895 656:0.326409 657:0.519672 711:0.278567 718:0.336384 726:0.347451 751:0.609286 754:0.358714 755:0.243168 756:0.412739 757:0.873155 811:0.161455 818:0.423341 826:0.297114 851:0.848386 854:0.432741 855:0.412081 856:0.630255 857:0.377289 911:0.162428 918:0.302822 926:0.629032 951:0.605923 954:0.340102 955:0.176957 956:0.481173 957:0.392617 
0.05825376262186338 11:0.173663 18:0.899756 26:0.544715 51:0.80007 54:0.494297 55:0.300269 56:0.336384 57:0.407407 111:0.685864 118:0.242449 126:0.489796 151:0.388133 154:0.2559 155:0.281098 156:0.795821 157:0.463704 211:0.224561 218:0.387532 226:0.409991 251:0.837876 254:0.803795 255:0.332167 256:0.35106 257:0.609259 311:0.237427 318:0.73265 326:0.730245 351:0.607225 354:0.399093 355:0.337717 356:0.629193 357:0.501481 411:0.206796 418:0.180037 426:0.181518 451:0.372714 454:0.176798 455:0.754264 456:0.770262 457:0.179584 511:0.172232 518:0.600322 526:0.286753 551:0.891754 554:0.858769 555:0.331179 556:0.318979 557:0.480629 611:0.287053 618:0.365369 626:0.324675 651:0.577756 654:0.356902 655:0.275254 656:0.421782 657:0.897131 711:0.161455 718:0.423341 726:0.27451 751:0.87409 754:0.432741 755:0.411614 756:0.630255 757:0.354607 811:0.176236 818:0.302822 826:0.629032 851:0.660302 854:0.340102 855:0.176957 856:0.486624 857:0.400895 911:0.230636 918:0.221968 926:0.301358 951:0.361311 954:0.221658 955:0.27651 956:0.871605 957:0.47693 
