svm_type c_svc
kernel_type rbf
gamma 1
nr_class 2
total_sv 983
rho -0.972094
label 1 0
probA -8.00542
probB 5.90948
nr_sv 650 333
SV
0.1 11:0.363331 18:0.327258 26:0.327087 51:0.496674 54:0.418029 55:0.837897 56:0.577869 57:0.44697 111:0.30967 118:0.336323 126:0.512777 151:0.768591 154:0.447357 155:0.410519 156:0.571518 157:0.789204 211:0.297373 218:0.46087 226:0.622545 251:0.876845 254:0.601437 255:0.252049 256:0.348684 257:0.747833 311:0.307562 318:0.398782 326:0.499186 351:0.888869 354:0.722319 355:0.55881 356:0.383895 357:0.606118 411:0.239278 418:0.420091 426:0.259812 451:0.967419 454:0.699875 455:0.426278 456:0.4548 457:0.505665 511:0.0897291 518:0.362752 526:0.509721 551:0.770901 554:0.653096 555:0.392277 556:0.263125 557:0.822008 611:0.259594 618:0.540666 626:0.349958 651:0.766643 654:0.498304 655:0.33238 656:0.404916 657:0.810863 711:0.278689 718:0.463981 726:0.526613 751:0.913522 754:0.597576 755:0.425702 756:0.391054 757:0.683333 811:0.261555 818:0.535211 826:0.375 851:0.83932 854:0.434393 855:0.541725 856:0.506917 857:0.697999 911:0.224035 918:0.574116 926:0.462662 951:0.815555 954:0.642153 955:0.383099 956:0.520497 957:0.549641 
0.1 11:0.30967 18:0.356577 26:0.512777 51:0.776261 54:0.443606 55:0.432859 56:0.574401 57:0.787081 111:0.297373 118:0.475336 126:0.63799 151:0.834287 154:0.601691 155:0.252049 156:0.349122 157:0.747833 211:0.314142 218:0.397101 226:0.474808 251:0.928767 254:0.736264 255:0.515938 256:0.381579 257:0.589046 311:0.239278 318:0.420091 326:0.269544 351:0.941282 354:0.734961 355:0.439065 356:0.456929 357:0.505665 411:0.0897291 418:0.351598 426:0.473312 451:0.810255 454:0.607306 455:0.382022 456:0.263125 457:0.804003 511:0.259594 518:0.522064 526:0.349958 551:0.752094 554:0.498304 555:0.328232 556:0.409444 557:0.812741 611:0.27991 618:0.463981 626:0.573119 651:0.88184 654:0.606446 655:0.432046 656:0.408909 657:0.687982 711:0.244771 718:0.529822 726:0.379032 751:0.864777 754:0.443794 755:0.535092 756:0.48754 757:0.73373 811:0.224035 818:0.597027 826:0.462662 851:0.801121 854:0.636919 855:0.38042 856:0.515217 857:0.549641 911:0.121805 918:0.173062 926:0.150974 951:0.314841 954:0.167625 955:0.385915 956:0.954658 957:0.134013 
0.1 11:0.297373 18:0.503962 26:0.63799 51:0.842612 54:0.596646 55:0.280394 56:0.350883 57:0.745215 111:0.314142 118:0.409567 126:0.49063 151:0.883689 154:0.736575 155:0.515938 156:0.382058 157:0.589046 211:0.246506 218:0.417391 226:0.233988 251:0.981782 254:0.748521 255:0.400501 256:0.454887 257:0.48424 311:0.0897291 318:0.351598 326:0.491042 351:0.788365 354:0.637751 355:0.393481 356:0.264357 357:0.804003 411:0.259594 418:0.513699 426:0.324961 451:0.789893 454:0.455791 455:0.319651 456:0.409444 457:0.79494 511:0.27991 518:0.448018 526:0.573119 551:0.865105 554:0.606446 555:0.426654 556:0.413482 557:0.689575 611:0.24605 618:0.529822 626:0.418428 651:0.834786 654:0.450382 655:0.539819 656:0.50169 657:0.736903 711:0.205766 718:0.591015 726:0.466129 751:0.82542 754:0.651483 755:0.367619 756:0.496166 757:0.577778 811:0.121805 818:0.179969 826:0.150974 851:0.309269 854:0.166259 855:0.383217 856:0.944974 857:0.134013 911:0.249592 918:0.34161 926:0.129058 951:0.576882 954:0.350863 955:0.979108 956:0.365528 957:0.472254 
0.1 11:0.314142 18:0.434231 26:0.49063 51:0.892507 54:0.730398 55:0.534283 56:0.383985 57:0.58453 111:0.246506 118:0.430493 126:0.250426 151:0.934131 154:0.748837 155:0.400501 156:0.455458 157:0.48424 211:0.098379 218:0.352174 226:0.466268 251:0.827109 254:0.654269 255:0.356557 256:0.261591 257:0.795508 311:0.259594 318:0.513699 326:0.337134 351:0.768552 354:0.47864 355:0.329239 356:0.411361 357:0.79494 411:0.27991 418:0.438356 426:0.532182 451:0.912255 454:0.561644 455:0.415501 456:0.413482 457:0.674471 511:0.24605 518:0.511593 526:0.418428 551:0.818943 554:0.450382 555:0.533082 556:0.5073 557:0.73861 611:0.207111 618:0.591015 626:0.509721 651:0.796793 654:0.661154 655:0.374821 656:0.509985 657:0.585516 711:0.0994912 718:0.178156 726:0.156452 751:0.31865 754:0.168826 755:0.370523 756:0.942812 757:0.140873 811:0.249592 818:0.355243 826:0.129058 851:0.566673 854:0.348003 855:0.972261 856:0.36182 857:0.472254 911:0.26373 918:0.255079 926:0.388799 951:0.7137 954:0.468776 955:0.292723 956:0.852174 957:0.408456 
0.1 11:0.246506 18:0.456418 26:0.250426 51:0.943452 54:0.742558 55:0.42322 56:0.457755 57:0.478469 111:0.098379 118:0.363229 126:0.482112 151:0.786965 154:0.654545 155:0.356557 156:0.26192 157:0.795508 211:0.266629 218:0.506522 226:0.304868 251:0.807069 254:0.5 255:0.294627 256:0.409148 257:0.786052 311:0.27991 318:0.438356 326:0.552117 351:0.887608 354:0.589799 355:0.427964 356:0.415418 357:0.674471 411:0.24605 418:0.503044 426:0.38854 451:0.862273 454:0.408883 455:0.519147 456:0.5073 457:0.722432 511:0.207111 518:0.570681 526:0.509721 551:0.781672 554:0.661154 555:0.370144 556:0.515688 557:0.586873 611:0.101016 618:0.178156 626:0.185123 651:0.307598 654:0.171332 655:0.377682 656:0.939478 657:0.161402 711:0.232335 718:0.351665 726:0.134677 751:0.58386 754:0.355203 755:0.982091 756:0.336741 757:0.496429 811:0.26373 818:0.265258 826:0.388799 851:0.701069 854:0.464955 855:0.290676 856:0.843529 857:0.408456 911:0.294182 918:0.206922 926:0.37013 951:0.480378 954:0.256779 955:0.731221 956:0.827019 957:0.373726 
0.07396059043163054 11:0.098379 18:0.385103 26:0.482112 51:0.794818 54:0.649057 55:0.380942 56:0.263241 57:0.793461 111:0.266629 118:0.522422 126:0.321124 151:0.767897 154:0.500211 155:0.294627 156:0.409661 157:0.786052 211:0.286752 218:0.434783 226:0.530316 251:0.927491 254:0.607777 255:0.3898 256:0.413221 257:0.660362 311:0.24605 318:0.503044 326:0.403094 351:0.838977 354:0.429381 355:0.534719 356:0.509675 357:0.722432 411:0.207111 418:0.563166 426:0.473312 451:0.821918 454:0.615193 455:0.360468 456:0.515688 457:0.574018 511:0.101016 518:0.172027 526:0.185123 551:0.301761 554:0.171332 555:0.372969 556:0.949984 557:0.161776 611:0.233634 618:0.351665 626:0.162299 651:0.563611 654:0.360475 655:0.98021 656:0.356682 657:0.506549 711:0.247032 718:0.262587 726:0.392742 751:0.722333 754:0.475136 755:0.274443 756:0.83738 757:0.429365 811:0.294182 818:0.21518 826:0.37013 851:0.471877 854:0.254686 855:0.726107 856:0.818629 857:0.373726 911:0.0918978 918:0.403311 926:0.373377 951:0.9604 954:0.772391 955:0.147183 956:0.295031 957:0.540581 
0.04663359412468057 11:0.266629 18:0.553883 26:0.321124 51:0.77556 54:0.496017 55:0.321358 56:0.411728 57:0.783892 111:0.286752 118:0.44843 126:0.545997 151:0.882475 154:0.608034 155:0.3898 156:0.413739 157:0.660362 211:0.253214 218:0.496377 226:0.374039 251:0.878302 254:0.45224 255:0.492714 256:0.507832 257:0.710402 311:0.207111 318:0.563166 326:0.491042 351:0.799712 354:0.646033 355:0.37128 356:0.518102 357:0.574018 411:0.101016 418:0.157534 426:0.1719 451:0.302295 454:0.135741 455:0.363219 456:0.949984 457:0.158233 511:0.233634 518:0.339566 526:0.162299 551:0.552915 554:0.360475 555:0.967977 556:0.360671 557:0.507722 611:0.248307 618:0.262587 626:0.432798 651:0.697281 654:0.482188 655:0.283023 656:0.838095 657:0.441448 711:0.278689 718:0.213013 726:0.374194 751:0.486189 754:0.259507 755:0.726525 756:0.811502 757:0.392857 811:0.0918978 818:0.419405 826:0.373377 851:0.943403 854:0.766096 855:0.146154 856:0.292038 857:0.540581 911:0.138119 918:0.300226 926:0.538149 951:0.571887 954:0.262942 955:0.330751 956:0.841615 957:0.480181 
0.04291537013818424 11:0.286752 18:0.475436 26:0.545997 51:0.891282 54:0.602935 55:0.412924 56:0.415826 57:0.656699 111:0.253214 118:0.511958 126:0.390119 151:0.835673 154:0.452431 155:0.492714 156:0.508469 157:0.710402 211:0.214645 218:0.553623 226:0.466268 251:0.838586 254:0.662299 255:0.335155 256:0.516291 257:0.555556 311:0.101016 318:0.157534 326:0.178339 351:0.294128 354:0.142546 355:0.374114 356:0.954432 357:0.158233 411:0.233634 418:0.328006 426:0.150706 451:0.574232 454:0.32088 455:0.942674 456:0.360671 457:0.496601 511:0.248307 518:0.253553 526:0.432798 551:0.684049 554:0.482188 555:0.279491 556:0.847468 557:0.442471 611:0.27991 618:0.213013 626:0.413356 651:0.469327 654:0.263359 655:0.728422 656:0.81321 657:0.406009 711:0.0684002 718:0.415182 726:0.377419 751:0.972017 754:0.783953 755:0.124395 756:0.264217 757:0.568254 811:0.138119 818:0.312207 826:0.538149 851:0.561766 854:0.260799 855:0.328438 856:0.833077 857:0.480181 911:0.114736 918:0.395034 926:0.564123 951:0.832144 954:0.817584 955:0.29554 956:0.304969 957:0.548886 
0.04918806873413883 11:0.253214 18:0.542789 26:0.390119 51:0.844013 54:0.448637 55:0.511939 56:0.511034 57:0.707337 111:0.214645 118:0.571001 126:0.482112 151:0.797885 154:0.662579 155:0.335155 156:0.516939 157:0.555556 211:0.109558 218:0.167391 226:0.138343 251:0.3272 254:0.174134 255:0.337887 256:0.954261 257:0.121749 311:0.233634 318:0.328006 326:0.156352 351:0.558718 354:0.336966 355:0.970949 356:0.36236 357:0.496601 411:0.248307 418:0.240487 426:0.401884 451:0.716216 454:0.440017 455:0.272185 456:0.847468 457:0.432779 511:0.27991 518:0.205684 526:0.413356 551:0.460421 554:0.263359 555:0.719331 556:0.822305 557:0.40695 611:0.0699774 618:0.415182 626:0.416737 651:0.938306 654:0.795589 655:0.135193 656:0.286943 657:0.576271 711:0.11645 718:0.309063 726:0.541129 751:0.578805 754:0.265775 755:0.31365 756:0.826518 757:0.504762 811:0.114736 818:0.410798 826:0.564123 851:0.817417 854:0.810921 855:0.293473 856:0.301875 857:0.548886 911:0.117455 918:0.266366 926:0.604708 951:0.485373 954:0.381676 955:0.197418 956:0.223602 957:0.796904 
0.02965639944629659 11:0.124092 18:0.196513 26:0.139693 51:0.685749 54:0.213417 55:0.480175 56:0.753783 57:0.278309 111:0.448295 118:0.672646 126:0.218058 151:0.756284 154:0.652008 155:0.519581 156:0.417189 157:0.507486 211:0.09782 218:0.497826 226:0.309991 251:0.75205 254:0.480558 255:0.279372 256:0.31297 257:0.765563 311:0.143905 318:0.086758 326:0.242671 351:0.20335 354:0.0780296 355:0.453 356:0.945069 357:0.159366 411:0.0863431 418:0.534247 426:0.568289 451:0.954461 454:0.624325 455:0.265077 456:0.362224 457:0.519637 511:0.120767 518:0.119671 526:0.117498 551:0.291674 554:0.130195 555:0.609607 556:0.724759 557:0.207336 611:0.132619 618:0.623548 626:0.53508 651:0.629488 654:0.446141 655:0.412732 656:0.697696 657:0.522342 711:0.0763143 718:0.432223 726:0.166935 751:0.784257 754:0.638529 755:0.335915 756:0.271885 757:0.492063 811:0.153344 818:0.252739 826:0.526786 851:0.68197 854:0.47555 855:0.209324 856:0.550569 857:0.628539 911:0.100054 918:0.589917 926:0.416396 951:0.795219 954:0.807724 955:0.303286 956:0.53913 957:0.312571 
0.004597081261184284 11:0.448295 18:0.713154 26:0.218058 51:0.763831 54:0.646541 55:0.537788 56:0.419294 57:0.501994 111:0.09782 118:0.513453 126:0.326235 151:0.715549 154:0.480761 155:0.279372 156:0.313363 157:0.765563 211:0.15204 218:0.1 226:0.205807 251:0.23538 254:0.111581 255:0.413934 256:0.944862 257:0.122931 311:0.0863431 318:0.534247 326:0.589577 351:0.928674 354:0.655623 355:0.273028 356:0.36392 357:0.519637 411:0.120767 418:0.104262 426:0.109105 451:0.291374 454:0.0954753 455:0.593671 456:0.724759 457:0.202795 511:0.132619 518:0.602094 526:0.53508 551:0.617541 554:0.446141 555:0.407582 556:0.705499 557:0.523552 611:0.0778781 618:0.432223 626:0.196112 651:0.757058 654:0.648007 655:0.343586 656:0.294316 657:0.502311 711:0.132278 718:0.250194 726:0.529839 751:0.702654 754:0.486001 755:0.189981 756:0.532907 757:0.660714 811:0.100054 818:0.613459 826:0.416396 851:0.781146 854:0.801141 855:0.301166 856:0.533661 857:0.312571 911:0.171833 918:0.105342 926:0.136364 951:0.243667 954:0.105998 955:0.254225 956:1 957:0.14496 
0.02094965353569984 11:0.0905534 18:0.903328 26:0.336457 51:0.811975 54:0.653669 55:0.222563 56:0.219105 57:0.557815 111:0.098938 118:0.600897 126:0.189949 151:0.6788 154:0.500211 155:0.0983607 156:0.137704 157:0.742711 211:0.370039 218:0.701449 226:0.340734 251:0.847513 254:0.52874 255:0.14367 256:0.493108 257:0.624901 311:0.137133 318:0.557078 326:0.361564 351:0.716679 354:0.456408 355:0.60085 356:0.769351 357:0.341767 411:0.0699774 418:0.451294 426:0.16876 451:0.845613 454:0.689083 455:0.464802 456:0.478099 457:0.259063 511:0.111738 518:0.167539 526:0.127642 551:0.271157 554:0.172604 555:0.830939 556:0.506368 557:0.154054 611:0.140519 618:0.42835 626:0.155537 651:0.491983 654:0.401612 655:0.612065 656:0.672811 657:0.164099 711:0.187111 718:0.145624 726:0.302419 751:0.246615 754:0.152946 755:0.175218 756:0.96869 757:0.170635 811:0.0837412 818:1 826:0.166396 851:0.718241 854:0.518337 855:0.22634 856:0.230864 857:0.281238 911:0.128331 918:0.0917983 926:0.0178571 951:0.120407 954:0.0940838 955:0.742723 956:0.213354 957:0.0785202 
0.01913055884350954 11:0.098938 18:0.637084 26:0.189949 51:0.685574 54:0.496017 55:0.13253 56:0.138398 57:0.740032 111:0.370039 118:0.723468 126:0.356899 151:0.806379 154:0.528964 155:0.14367 156:0.493726 157:0.624901 211:0.145333 218:0.547826 226:0.330487 251:0.7546 254:0.478445 255:0.556466 256:0.768484 257:0.313239 311:0.0699774 318:0.451294 326:0.175081 351:0.822767 354:0.723627 355:0.478744 356:0.480337 357:0.259063 411:0.111738 418:0.152968 426:0.118524 451:0.26916 454:0.136986 455:0.809218 456:0.506368 457:0.15068 511:0.140519 518:0.413613 526:0.155537 551:0.482647 554:0.401612 555:0.604427 556:0.680336 557:0.164479 611:0.188488 618:0.145624 626:0.338123 651:0.238062 654:0.155216 655:0.185265 656:0.964363 657:0.190293 711:0.0599209 718:0.98993 726:0.171774 751:0.740025 754:0.529879 755:0.207648 756:0.200639 757:0.295635 811:0.128331 818:0.0954617 826:0.0178571 851:0.118276 854:0.093317 855:0.737529 856:0.21119 857:0.0785202 911:0.119086 918:0.927013 926:0.287338 951:0.689797 954:0.536154 955:0.289202 956:0.41087 957:0.359003 
0.01610477780736868 11:0.370039 18:0.767036 26:0.356899 51:0.814426 54:0.524528 55:0.176123 56:0.496217 57:0.620813 111:0.145333 118:0.565022 126:0.346678 151:0.717975 154:0.478647 155:0.556466 156:0.769448 157:0.313239 211:0.078815 218:0.447101 226:0.134927 251:0.861906 254:0.737532 255:0.438752 256:0.478383 257:0.22695 311:0.111738 318:0.152968 326:0.122964 351:0.261888 354:0.143854 355:0.833491 356:0.508739 357:0.15068 411:0.140519 418:0.403349 426:0.144427 451:0.498149 454:0.361146 455:0.588626 456:0.680336 457:0.160876 511:0.188488 518:0.140613 526:0.338123 551:0.233544 554:0.155216 555:0.182953 556:0.975148 557:0.190734 611:0.0615124 618:0.98993 626:0.201183 651:0.71436 654:0.537744 655:0.217215 656:0.225806 657:0.311633 711:0.106275 718:0.0945004 726:0.0241935 751:0.121863 754:0.0940242 755:0.738383 756:0.180192 757:0.0825397 811:0.119086 818:0.964006 826:0.287338 851:0.677589 854:0.531785 855:0.287179 856:0.406702 857:0.359003 911:0.121805 918:0.329571 926:0.107143 951:0.477702 954:0.347576 955:0.414319 956:0.148137 957:0.691959 
0.02192333252848275 11:0.145333 18:0.599049 26:0.346678 51:0.72514 54:0.474633 55:0.573275 56:0.773329 57:0.305423 111:0.078815 118:0.461136 126:0.151618 151:0.820073 154:0.737844 155:0.438752 156:0.478984 157:0.22695 211:0.120179 218:0.163043 226:0.0802733 251:0.294589 254:0.175402 255:0.780738 256:0.506892 257:0.113869 311:0.140519 318:0.403349 326:0.149837 351:0.48469 354:0.37925 355:0.606282 356:0.683521 357:0.160876 411:0.188488 418:0.125571 426:0.313972 451:0.228434 454:0.119967 455:0.17817 456:0.975148 457:0.186556 511:0.0615124 518:0.955871 526:0.201183 551:0.700804 554:0.537744 555:0.214504 556:0.228332 557:0.312355 611:0.107788 618:0.0945004 626:0.046492 651:0.117637 654:0.0954198 655:0.740105 656:0.206144 657:0.104777 711:0.0966648 718:0.954299 726:0.291935 751:0.69814 754:0.543669 755:0.270813 756:0.383387 757:0.377381 811:0.121805 818:0.342723 826:0.107143 851:0.469248 854:0.344743 855:0.411422 856:0.146634 857:0.691959 911:0.116911 918:0.151994 926:0.0633117 951:0.274884 954:0.155711 955:0.976291 956:0.474224 957:0.0947527 
0.02295861993066161 11:0.0637228 18:0.461173 26:0.364566 51:0.851716 54:0.803354 55:0.325739 56:0.251892 57:0.700558 111:0.0078256 118:0.22272 126:0.177172 151:0.685214 154:0.865962 155:0.199454 156:0.0677541 157:0.239165 211:0.100615 218:0.297826 226:0.459436 251:0.725815 254:0.614117 255:0.479964 256:0.302945 257:0.828999 311:0.0417607 318:0.108828 326:0.238599 351:0.261888 354:0.168701 355:0.148087 356:0.0324594 357:0.837613 411:0.162528 418:0.451294 426:0.55416 451:0.823769 454:0.553342 455:0.486586 456:0.6968 457:0.356118 511:0.035553 518:0.078534 526:0.101437 551:0.0851428 554:0.0737913 555:0.841535 556:0.383349 557:0.030888 611:0.194695 618:0.505809 626:0.773457 651:0.749041 654:0.480916 655:0.417978 656:0.526882 657:0.412943 711:0.989259 726:0.0604839 755:0.00943853 756:0.467412 757:0.13254 811:0.0989668 818:0.484351 826:0.478896 851:0.734186 854:0.459658 855:0.394639 856:0.78297 857:0.295961 911:0.157694 918:0.155004 926:0.17289 951:0.31502 954:0.167625 955:0.138263 956:0.590994 957:0.747452 
0.02121667491616083 11:0.0078256 18:0.236133 26:0.177172 51:0.692052 54:0.8587 55:0.229792 56:0.0680958 57:0.230463 111:0.100615 118:0.307175 126:0.475298 151:0.690588 154:0.614376 155:0.479964 156:0.303325 157:0.828999 211:0.0508664 218:0.121014 226:0.201537 251:0.294589 254:0.199493 255:0.119991 256:0.0288221 257:0.830575 311:0.162528 318:0.451294 326:0.574919 351:0.801513 354:0.581081 355:0.501181 356:0.700062 357:0.356118 411:0.035553 418:0.0624049 426:0.0941915 451:0.0677527 454:0.0402657 455:0.819537 456:0.383349 457:0.0302115 511:0.194695 518:0.488407 526:0.773457 551:0.734826 554:0.480916 555:0.412762 556:0.532774 557:0.4139 611:0.989278 626:0.0845309 655:0.0219361 656:0.482335 657:0.153313 711:0.075749 718:0.479473 726:0.482258 751:0.756454 754:0.469703 755:0.382381 756:0.774441 757:0.311111 811:0.157694 818:0.161189 826:0.17289 851:0.309445 854:0.166259 855:0.137296 856:0.584998 857:0.747452 911:0.232191 918:0.534236 926:0.612825 951:0.762754 954:0.62613 955:0.320188 956:0.525776 957:0.652699 
0.02108952702144256 11:0.100615 18:0.325674 26:0.475298 51:0.697479 54:0.609224 55:0.499671 56:0.304855 57:0.827352 111:0.0508664 118:0.124813 126:0.218058 151:0.280291 154:0.199577 155:0.119991 156:0.0288582 157:0.830575 211:0.170486 218:0.447101 226:0.554227 251:0.840408 254:0.599324 255:0.460383 256:0.698935 257:0.328211 311:0.035553 318:0.0624049 326:0.0977199 351:0.0659222 354:0.0422842 355:0.844119 356:0.385144 357:0.0302115 411:0.194695 418:0.479452 426:0.71821 451:0.771196 454:0.438771 455:0.401972 456:0.532774 457:0.404834 511:0.989278 526:0.0845309 555:0.0216623 556:0.487729 557:0.153668 611:0.0773138 618:0.479473 626:0.526627 651:0.73022 654:0.476675 655:0.389366 656:0.777573 657:0.326656 711:0.1368 718:0.159566 726:0.178226 751:0.31883 754:0.168826 755:0.115198 756:0.56869 757:0.785714 811:0.232191 818:0.555556 826:0.612825 851:0.749255 854:0.621027 855:0.317949 856:0.520443 857:0.652699 911:0.0679717 918:0.224981 926:0.329545 951:0.681948 954:0.360723 955:0.123239 956:0.0940994 957:0.338241 
0.09564017166367672 11:0.221912 18:0.237718 26:0.25724 51:0.505602 54:0.526625 55:0.556846 56:0.76198 57:0.273923 111:0.244271 118:0.353513 126:0.621806 151:0.812446 154:0.435941 155:0.242031 156:0.431932 157:0.775414 211:0.23924 218:0.337681 226:0.707942 251:0.734742 254:0.433643 255:0.483151 256:0.361842 257:0.688731 311:0.234763 318:0.319635 326:0.925896 351:0.572226 354:0.367916 355:0.468588 356:0.455993 357:0.484517 411:0.150113 418:0.228311 426:0.177394 451:0.378749 454:0.228726 455:0.818849 456:0.399503 457:0.475831 511:0.152935 518:0.365744 526:0.287405 551:0.796717 554:0.888041 555:0.253826 556:0.296987 557:0.44749 611:0.242664 618:0.265686 626:0.284024 651:0.459219 654:0.298558 655:0.358131 656:0.883257 657:0.320878 711:0.246467 718:0.288149 726:0.294355 751:0.588554 754:0.327622 755:0.303969 756:0.853994 757:0.369048 811:0.23491 818:0.631455 826:0.818182 851:0.659541 854:0.391606 855:0.267366 856:0.54688 857:0.437901 911:0.200109 918:0.816403 926:0.476461 951:0.857474 954:0.566968 955:0.33216 956:0.374534 957:0.443186 
0.1 11:0.244271 18:0.374802 26:0.621806 51:0.820553 54:0.432285 55:0.270756 56:0.434111 57:0.773126 111:0.23924 118:0.348281 126:0.723169 151:0.699081 154:0.433827 155:0.483151 156:0.362296 157:0.688731 211:0.242035 218:0.321739 226:0.922289 251:0.60849 254:0.392646 255:0.428962 256:0.453947 257:0.462175 311:0.150113 318:0.228311 326:0.184039 351:0.368516 354:0.240192 355:0.84341 356:0.401373 357:0.475831 411:0.152935 418:0.354642 426:0.266876 451:0.838208 454:0.837277 455:0.247191 456:0.296987 457:0.437689 511:0.242664 518:0.256545 526:0.284024 551:0.450504 554:0.298558 555:0.353661 556:0.893135 557:0.321622 611:0.247743 618:0.288149 626:0.32967 651:0.568142 654:0.332485 655:0.312113 656:0.854071 657:0.382897 711:0.217072 718:0.625097 726:0.819355 751:0.679545 754:0.399916 755:0.250242 756:0.529073 757:0.460317 811:0.200109 818:0.848983 826:0.476461 851:0.842299 854:0.562347 855:0.329837 856:0.370735 857:0.443186 911:0.200109 918:0.399549 926:0.313312 951:0.82269 954:0.532046 955:0.329108 956:0.311801 957:0.472631 
0.1 11:0.23924 18:0.369255 26:0.723169 51:0.706057 54:0.430189 55:0.502738 56:0.364124 57:0.685407 111:0.242035 118:0.331839 126:0.936968 151:0.578956 154:0.392812 155:0.428962 156:0.454517 157:0.462175 211:0.158189 218:0.234783 226:0.144321 251:0.402441 254:0.268808 255:0.790301 256:0.399123 257:0.453113 311:0.152935 318:0.354642 326:0.276873 351:0.815562 354:0.87925 355:0.254606 356:0.298377 357:0.437689 411:0.242664 418:0.243531 426:0.263736 451:0.463347 454:0.260274 455:0.344416 456:0.893135 457:0.314577 511:0.247743 518:0.278235 526:0.32967 551:0.55736 554:0.332485 555:0.308218 556:0.863622 557:0.383784 611:0.218397 618:0.625097 626:0.879966 651:0.655978 654:0.405852 655:0.25918 656:0.541628 657:0.471495 711:0.180893 718:0.840434 726:0.479839 751:0.867846 754:0.57501 755:0.315102 756:0.346006 757:0.465873 811:0.200109 818:0.415493 826:0.313312 851:0.80813 854:0.52771 855:0.326807 856:0.308638 857:0.472631 911:0.218053 918:0.386757 926:0.37013 951:0.98234 954:0.563681 955:0.322066 956:0.443168 957:0.500189 
0.09121946816533076 11:0.242035 18:0.351823 26:0.936968 51:0.584734 54:0.389518 55:0.450602 56:0.45681 57:0.45614 111:0.158189 118:0.242152 126:0.160988 151:0.382909 154:0.268922 155:0.790301 156:0.399624 157:0.453113 211:0.160984 218:0.355072 226:0.241674 251:0.854618 254:0.888419 255:0.222678 256:0.295739 257:0.413318 311:0.242664 318:0.243531 326:0.273616 351:0.450829 354:0.273322 355:0.354747 356:0.897316 357:0.314577 411:0.247743 418:0.265601 426:0.306122 451:0.579045 454:0.293483 455:0.300161 456:0.863622 457:0.375378 511:0.218397 518:0.60359 526:0.879966 551:0.643529 554:0.405852 555:0.255945 556:0.547686 557:0.472587 611:0.18228 618:0.840434 626:0.524091 651:0.837748 654:0.583545 655:0.323081 656:0.365591 657:0.476888 711:0.180893 718:0.411309 726:0.317742 751:0.832641 754:0.53949 755:0.311955 756:0.28147 757:0.496825 811:0.218053 818:0.402191 826:0.37013 851:0.964955 854:0.559087 855:0.319814 856:0.438672 857:0.500189 911:0.25503 918:0.309255 926:0.258117 951:0.560471 954:0.322925 955:0.469249 956:0.885714 957:0.322008 
0.1 11:0.158189 18:0.256735 26:0.160988 51:0.38673 54:0.266667 55:0.798248 56:0.401639 57:0.44697 111:0.160984 118:0.366218 126:0.258092 151:0.813139 154:0.888795 155:0.222678 156:0.29611 157:0.413318 211:0.24986 218:0.249275 226:0.238258 251:0.485699 254:0.30093 255:0.319217 256:0.89693 257:0.28487 311:0.247743 318:0.265601 326:0.31759 351:0.563401 354:0.308195 355:0.309164 356:0.867665 357:0.375378 411:0.218397 418:0.596651 426:0.817111 451:0.672344 454:0.365297 455:0.249255 456:0.547686 457:0.462236 511:0.18228 518:0.811518 526:0.524091 551:0.82185 554:0.583545 555:0.319049 556:0.36968 557:0.477992 611:0.18228 618:0.411309 626:0.354184 651:0.803764 654:0.547498 655:0.319981 656:0.303533 657:0.506934 711:0.199548 718:0.398141 726:0.374194 751:0.994223 754:0.571667 755:0.304695 756:0.416613 757:0.525794 811:0.25503 818:0.321596 826:0.258117 851:0.550552 854:0.320293 855:0.465967 856:0.876729 857:0.322008 911:0.239804 918:0.488337 926:0.576299 951:0.880485 954:0.451931 955:0.324178 956:0.567702 957:0.552661 
0.02665506960802284 11:0.09782 18:0.798732 26:0.357751 51:0.773634 54:0.419287 55:0.262651 56:0.477301 57:0.42185 111:0.324203 118:0.524664 126:0.273424 151:0.769457 154:0.323044 155:0.236566 156:0.262861 157:0.706462 211:0.153158 218:0.863768 226:0.128096 251:0.592822 254:0.314455 255:0.0837887 256:0.203321 257:0.263199 311:0.329007 318:0.147641 326:0.0708469 351:0.300252 354:0.243679 355:0.0829003 356:0.107678 357:0.729985 411:0.582393 418:0.042618 426:0.0510204 451:0.0864495 454:0.0356995 455:0.763357 456:0.519727 457:0.130665 511:0.404628 518:0.149589 526:0.0912933 551:0.234057 554:0.188719 555:0.0289616 556:0.200683 557:0.934363 611:0.0496614 618:0.0178156 651:0.0230045 654:0.0360475 655:0.702194 656:0.360369 711:0.139627 718:0.0797831 726:0.141935 751:0.118975 754:0.0810698 755:0.0738141 756:0.92492 757:0.186905 811:0.475802 818:0.553208 826:0.698052 851:0.792711 854:0.497963 855:0.415385 856:0.260068 857:0.442431 911:0.0826536 918:0.0511663 926:0.0340909 951:0.176953 954:0.058751 955:0.749765 956:0.412422 
0.02603067513767501 11:0.324203 18:0.55626 26:0.273424 51:0.777136 54:0.320335 55:0.265498 56:0.264187 57:0.703349 111:0.153158 118:0.890882 126:0.144804 151:0.564049 154:0.314588 155:0.0837887 156:0.203576 157:0.263199 211:0.335383 218:0.157971 226:0.0256191 251:0.333394 254:0.272189 255:0.0571494 256:0.104323 257:0.718282 311:0.582393 318:0.042618 326:0.0529316 351:0.0841138 354:0.0374891 355:0.786254 356:0.52216 357:0.130665 411:0.404628 418:0.134703 426:0.0847724 451:0.228989 454:0.15276 455:0.0282045 456:0.200683 457:0.913897 511:0.0496614 518:0.0172027 551:0.022568 554:0.0360475 555:0.693431 556:0.364399 611:0.141084 618:0.0797831 626:0.169907 651:0.114848 654:0.0822731 655:0.08536 656:0.922273 657:0.206086 711:0.467496 718:0.547637 726:0.7 751:0.816754 754:0.508985 755:0.403921 756:0.23099 757:0.465079 811:0.0826536 818:0.0532081 826:0.0340909 851:0.173822 854:0.0582722 855:0.744522 856:0.408239 911:0.0842849 918:0.506396 926:0.351461 951:0.874242 954:0.843468 955:0.259624 956:0.307143 957:0.676104 
0.02616634988664933 11:0.153158 18:0.944532 26:0.144804 51:0.569678 54:0.31195 55:0.11851 56:0.204603 57:0.254785 111:0.335383 118:0.16293 126:0.0425894 151:0.317213 154:0.272304 155:0.0571494 156:0.104454 157:0.718282 211:0.586361 218:0.057971 226:0.00683177 251:0.114775 254:0.0722739 255:0.7352 256:0.520363 257:0.0929866 311:0.404628 318:0.134703 326:0.0879479 351:0.222803 354:0.160418 355:0.0290505 356:0.201623 357:0.913897 411:0.0496614 454:0.00332088 455:0.675304 456:0.364399 511:0.141084 518:0.0770381 526:0.169907 551:0.112669 554:0.0822731 555:0.0842948 556:0.932588 557:0.206564 611:0.468397 618:0.547637 626:0.754861 651:0.788428 654:0.516539 655:0.410587 656:0.254992 657:0.476117 711:0.0587903 718:0.0526723 726:0.0403226 751:0.179094 754:0.0580861 755:0.745644 756:0.384984 811:0.0842849 818:0.526604 826:0.351461 851:0.85877 854:0.836593 855:0.257809 856:0.304027 857:0.676104 911:0.218597 918:0.573363 926:0.539773 951:0.838387 954:0.693098 955:0.189202 956:0.162112 957:0.578709 
0.02564684282658026 11:0.335383 18:0.172742 26:0.0425894 51:0.320378 54:0.270021 55:0.0928806 56:0.104981 57:0.715311 111:0.586361 118:0.0597907 126:0.0238501 151:0.109204 154:0.0723044 155:0.7352 156:0.521016 157:0.0929866 211:0.410285 218:0.145652 226:0.0435525 251:0.255056 254:0.191462 255:0.00523679 256:0.198622 257:0.910165 311:0.0496614 354:0.00348736 355:0.69556 356:0.366105 411:0.141084 418:0.0608828 426:0.157771 451:0.0975565 454:0.0485679 455:0.0820913 456:0.932588 457:0.202039 511:0.468397 518:0.528796 526:0.754861 551:0.773466 554:0.516539 555:0.405463 556:0.257844 557:0.47722 611:0.0603837 618:0.0526723 626:0.0633981 651:0.172883 654:0.0589483 655:0.747258 656:0.403072 657:0.0246533 711:0.0604862 718:0.521301 726:0.355645 751:0.884817 754:0.856247 755:0.240319 756:0.276677 757:0.710714 811:0.218597 818:0.596244 826:0.539773 851:0.82355 854:0.687449 855:0.187879 856:0.160467 857:0.578709 911:0.160957 918:0.674191 926:0.252435 951:0.88102 954:0.649959 955:0.475352 956:0.364596 957:0.373726 
0.02148629529822933 11:0.193404 18:0.166403 26:0.155877 51:0.279062 54:0.158491 55:0.524863 56:0.815889 57:0.113238 111:0.164338 118:0.588191 126:0.225724 151:0.689548 154:0.367442 155:0.359062 156:0.719887 157:0.332939 211:0.192845 218:0.505797 226:0.532024 251:0.818364 254:0.554945 255:0.195811 256:0.526942 257:0.583924 311:0.121332 318:0.237443 326:0.165309 351:0.446146 354:0.44769 355:0.146434 356:0.143258 357:0.778323 411:0.134876 418:0.353881 426:0.563579 451:0.967419 454:0.73433 455:0.294886 456:0.27959 457:0.574396 511:0.115124 518:0.354525 526:0.307692 551:0.719097 554:0.508058 555:0.210266 556:0.17521 557:0.43166 611:0.193567 618:0.55151 626:0.890955 651:0.703555 654:0.499576 655:0.22556 656:0.460522 657:0.50077 711:0.197852 718:0.163439 726:0.201613 751:0.285611 754:0.171333 755:0.346321 756:0.930351 757:0.165079 811:0.209897 818:0.526604 826:0.6875 851:0.526196 854:0.407905 855:0.651515 856:0.570243 857:0.400906 911:0.225122 918:0.174567 926:0.199675 951:0.310738 954:0.178718 955:0.290845 956:0.935093 957:0.16459 
0.03499755511601194 11:0.164338 18:0.623613 26:0.225724 51:0.696429 54:0.364361 55:0.383352 56:0.723518 57:0.325359 111:0.192845 118:0.521674 126:0.5477 151:0.778644 154:0.55518 155:0.195811 156:0.527604 157:0.583924 211:0.129681 218:0.243478 226:0.12468 251:0.480962 254:0.469992 255:0.118397 256:0.140038 257:0.768716 311:0.134876 318:0.353881 326:0.584691 351:0.941282 354:0.771142 355:0.303732 356:0.280899 357:0.574396 411:0.115124 418:0.343227 426:0.285714 451:0.754165 454:0.465338 455:0.20477 456:0.17521 457:0.422205 511:0.193567 518:0.532536 526:0.890955 551:0.690203 554:0.499576 555:0.222745 556:0.465673 557:0.501931 611:0.19921 618:0.163439 626:0.23246 651:0.275706 654:0.173876 655:0.353839 656:0.927496 657:0.1849 711:0.191068 718:0.521301 726:0.689516 751:0.542156 754:0.416632 755:0.64908 756:0.553355 757:0.421429 811:0.225122 818:0.181534 826:0.199675 851:0.305239 854:0.177262 855:0.288811 856:0.925607 857:0.16459 911:0.203915 918:0.407073 926:0.548701 951:0.90635 954:0.716105 955:0.250469 956:0.303106 957:0.713099 
0.02909832825191334 11:0.192845 18:0.55309 26:0.5477 51:0.786415 54:0.550524 55:0.226287 56:0.530265 57:0.579346 111:0.129681 118:0.251121 126:0.141397 151:0.457618 154:0.47019 155:0.118397 156:0.140213 157:0.768716 211:0.143097 218:0.354348 226:0.564475 251:0.981782 254:0.783601 255:0.270036 256:0.278195 257:0.55595 311:0.115124 318:0.343227 326:0.296417 351:0.73379 354:0.488666 355:0.210912 356:0.17603 357:0.422205 411:0.193567 418:0.524353 426:0.827316 451:0.72288 454:0.457036 455:0.216923 456:0.465673 457:0.490937 511:0.19921 518:0.157816 526:0.23246 551:0.270474 554:0.173876 555:0.349423 556:0.937869 557:0.185328 611:0.192438 618:0.521301 626:0.743872 651:0.523353 654:0.422816 655:0.652122 656:0.564977 657:0.433744 711:0.206897 718:0.179706 726:0.204839 751:0.314497 754:0.180109 755:0.272507 756:0.922684 757:0.173016 811:0.203915 818:0.423318 826:0.548701 851:0.89031 854:0.710269 855:0.248718 856:0.300031 857:0.713099 911:0.25938 918:0.292701 926:0.276786 951:0.608812 954:0.352095 955:0.355869 956:0.869255 957:0.411854 
0.0130978149674709 11:0.129681 18:0.266244 26:0.141397 51:0.462185 54:0.466247 55:0.151807 56:0.140921 57:0.766348 111:0.143097 118:0.365471 126:0.580068 151:0.934131 154:0.783932 155:0.270036 156:0.278545 157:0.55595 211:0.123533 218:0.344203 226:0.262169 251:0.771907 254:0.509721 255:0.180556 256:0.172932 257:0.397163 311:0.193567 318:0.524353 326:0.858306 351:0.70335 354:0.479948 355:0.223429 356:0.467853 357:0.490937 411:0.19921 418:0.143075 426:0.215856 451:0.268419 454:0.138232 455:0.340289 456:0.937869 457:0.181269 511:0.192438 518:0.503366 526:0.743872 551:0.513421 554:0.422816 555:0.643984 556:0.571295 557:0.434749 611:0.208239 618:0.179706 626:0.235841 651:0.30359 654:0.182782 655:0.281116 656:0.920123 657:0.192604 711:0.18485 718:0.419055 726:0.551613 751:0.917314 754:0.726703 755:0.230881 756:0.272524 757:0.749603 811:0.25938 818:0.304382 826:0.276786 851:0.598037 854:0.349226 855:0.35338 856:0.860437 857:0.411854 911:0.265905 918:0.282167 926:0.270292 951:0.506778 954:0.324979 955:0.484507 956:0.868634 957:0.460551 
0.01462768890249897 11:0.143097 18:0.38748 26:0.580068 51:0.943452 54:0.777358 55:0.2977 56:0.27995 57:0.551037 111:0.123533 118:0.355007 126:0.278535 151:0.734443 154:0.509937 155:0.180556 156:0.173149 157:0.397163 211:0.20123 218:0.516667 226:0.851409 251:0.741119 254:0.501268 255:0.192623 256:0.465852 257:0.468873 311:0.19921 318:0.143075 326:0.223941 351:0.261167 354:0.145161 355:0.350496 356:0.94226 357:0.181269 411:0.192438 418:0.494673 426:0.690738 451:0.53147 454:0.381901 455:0.62715 456:0.571295 457:0.425227 511:0.208239 518:0.173523 526:0.235841 551:0.297829 554:0.182782 555:0.277608 556:0.930413 557:0.19305 611:0.18623 618:0.419055 626:0.599324 651:0.8855 654:0.737489 655:0.240105 656:0.294931 657:0.752311 711:0.24251 718:0.301317 726:0.281452 751:0.616176 754:0.356456 755:0.339545 756:0.854952 757:0.432937 811:0.265905 818:0.293427 826:0.270292 851:0.49781 854:0.322331 855:0.481119 856:0.859822 857:0.460551 911:0.224035 918:0.364936 926:0.357955 951:0.77096 954:0.453574 955:0.437089 956:0.277329 957:0.822197 
0.01294845583097166 11:0.123533 18:0.376387 26:0.278535 51:0.741772 54:0.50566 55:0.21161 56:0.174023 57:0.390351 111:0.20123 118:0.532885 126:0.866269 151:0.705148 154:0.50148 155:0.192623 156:0.466437 157:0.468873 211:0.206819 218:0.153623 226:0.186166 251:0.29386 254:0.176669 255:0.315118 256:0.942043 257:0.145784 311:0.192438 318:0.494673 326:0.716612 351:0.517111 354:0.401046 355:0.645961 356:0.57397 357:0.425227 411:0.208239 418:0.159056 426:0.218995 451:0.298038 454:0.146949 455:0.270351 456:0.930413 457:0.188822 511:0.18623 518:0.404637 526:0.599324 551:0.868696 554:0.737489 555:0.237109 556:0.298229 557:0.754054 611:0.243792 618:0.301317 626:0.316145 651:0.594807 654:0.361747 655:0.347163 656:0.854992 657:0.444915 711:0.249293 718:0.290473 726:0.275 751:0.512908 754:0.328876 755:0.472168 756:0.854313 757:0.484127 811:0.224035 818:0.379499 826:0.357955 851:0.757316 854:0.449878 855:0.434033 856:0.274516 857:0.822197 911:0.185427 918:0.282919 926:0.185065 951:0.460043 954:0.332786 955:0.203756 956:0.226087 957:0.86108 
0.0011476490022252 11:0.20123 18:0.564976 26:0.866269 51:0.712185 54:0.497275 55:0.22322 56:0.468789 57:0.462919 111:0.206819 118:0.158445 126:0.202726 151:0.279598 154:0.176744 155:0.315118 156:0.943225 157:0.145784 211:0.200112 218:0.488406 226:0.702818 251:0.552742 254:0.424768 255:0.599954 256:0.572368 257:0.400315 311:0.208239 318:0.159056 326:0.227199 351:0.289986 354:0.154316 355:0.27846 356:0.934769 357:0.188822 411:0.18623 418:0.394216 426:0.556515 451:0.916142 454:0.689913 455:0.23091 456:0.298229 457:0.737538 511:0.243792 518:0.29095 526:0.316145 551:0.583519 554:0.361747 555:0.34283 556:0.864554 557:0.445946 611:0.250564 618:0.290473 626:0.309383 651:0.49512 654:0.333757 655:0.477825 656:0.854378 657:0.494607 711:0.205766 718:0.375678 726:0.362097 751:0.780285 754:0.459674 755:0.423282 756:0.246006 757:0.864286 811:0.185427 818:0.29421 826:0.185065 851:0.451901 854:0.330073 855:0.202331 856:0.223793 857:0.86108 911:0.239804 918:0.40933 926:0.551136 951:0.880664 954:0.426869 955:0.286854 956:0.401553 957:0.693469 
0.1 11:0.104528 18:0.506339 26:0.322828 51:0.880077 54:0.904403 55:0.249726 56:0.31715 57:0.557018 111:0.136389 118:0.589686 126:0.207836 151:0.800659 154:0.575053 155:0.438525 156:0.252196 157:0.688337 211:0.379542 218:0.211594 226:0.16567 251:0.459464 254:0.26585 255:0.607468 256:0.718672 257:0.241135 311:0.0682844 318:0.812024 326:0.211726 351:0.837716 354:0.792502 355:0.359707 356:0.207241 357:0.333082 411:0.393905 418:0.200152 426:0.288854 451:0.505368 454:0.213782 455:0.163265 456:0.804598 457:0.252266 511:0.136005 518:0.786836 526:0.354184 551:0.654129 554:0.401612 555:0.292442 556:0.714508 557:0.372587 611:0.0699774 618:0.526723 626:0.311919 651:0.792611 654:0.941476 655:0.277062 656:0.211674 657:0.407935 711:0.150367 718:0.484121 726:0.433871 751:0.809171 754:0.475972 755:0.345353 756:0.661981 757:0.398413 811:0.210984 818:0.190923 826:0.194805 851:0.329245 854:0.178484 855:0.317949 856:0.954504 857:0.350698 911:0.162588 918:0.325809 926:0.700487 951:0.826258 954:0.677896 955:0.347653 956:0.401553 957:0.470366 
0.03075549486250503 11:0.136389 18:0.625198 26:0.207836 51:0.808648 54:0.570231 55:0.459803 56:0.253468 57:0.685008 111:0.379542 118:0.218236 126:0.182283 151:0.437164 154:0.265962 155:0.607468 156:0.719573 157:0.241135 211:0.0771381 218:0.79058 226:0.173356 251:0.877027 254:0.804311 255:0.323998 256:0.204261 257:0.304177 311:0.393905 318:0.200152 326:0.299674 351:0.491715 354:0.224499 355:0.168162 356:0.808365 357:0.252266 411:0.136005 418:0.783105 426:0.328885 451:0.683821 454:0.361146 455:0.284797 456:0.714508 457:0.364426 511:0.0699774 518:0.508601 526:0.311919 551:0.777569 554:0.941476 555:0.273605 556:0.214042 557:0.40888 611:0.151806 618:0.484121 626:0.475909 651:0.781108 654:0.483036 655:0.352885 656:0.669432 657:0.411402 711:0.192199 718:0.189001 726:0.2 751:0.339231 754:0.181362 755:0.302759 756:0.952716 757:0.368651 811:0.162588 818:0.338811 826:0.700487 851:0.811635 854:0.672372 855:0.345221 856:0.397479 857:0.470366 911:0.203915 918:0.157261 926:0.155032 951:0.308063 954:0.147083 955:0.278169 956:0.845652 957:0.124198 
0.1 11:0.113471 18:0.389857 26:0.220613 51:0.869223 54:0.910273 55:0.176342 56:0.214376 57:0.459729 111:0.541084 118:0.204783 126:0.235094 151:0.412203 154:0.221987 155:0.374772 156:0.852572 157:0.381403 211:0.172722 218:0.410145 226:0.227156 251:0.912735 254:0.55579 255:0.248862 256:0.394737 257:0.542159 311:0.212754 318:0.169711 326:0.262215 351:0.302053 354:0.176548 355:0.49693 356:0.921036 357:0.245091 411:0.54684 418:0.329528 426:0.463108 451:0.823954 454:0.436281 455:0.231828 456:0.301025 457:0.429003 511:0.0784424 518:0.347794 526:0.228233 551:0.843221 554:0.880831 555:0.140805 556:0.185772 557:0.362548 611:0.185666 618:0.317583 626:0.267117 651:0.695887 654:0.697201 655:0.207201 656:0.411674 657:0.821263 711:0.140192 718:0.642912 726:0.476613 751:0.859361 754:0.842457 755:0.223863 756:0.260383 757:0.530159 811:0.156063 818:0.529734 826:0.206981 851:0.762923 854:0.830888 855:0.456643 856:0.277283 857:0.642884 911:0.214247 918:0.492099 926:0.508117 951:0.721192 954:0.518077 955:0.308216 956:0.345031 957:0.707059 
0.1 11:0.267188 18:0.305071 26:0.300681 51:0.825455 54:0.813417 55:0.172399 56:0.163304 57:0.520335 111:0.125769 118:0.535127 126:0.460818 151:0.807939 154:0.655391 155:0.295765 156:0.52478 157:0.645784 211:0.0726663 218:0.468841 226:0.561059 251:0.973948 254:0.639899 255:0.38775 256:0.453321 257:0.562648 311:0.341422 318:0.405632 326:0.535016 351:0.817363 354:0.527899 355:0.579594 356:0.65231 357:0.398792 411:0.351016 418:0.31583 426:0.255887 451:0.444465 454:0.230801 455:0.75235 456:0.736875 457:0.276435 511:0.272009 518:0.258788 526:0.28825 551:0.653274 554:0.486005 555:0.779138 556:0.46443 557:0.264479 611:0.519187 618:0.255616 626:0.240913 651:0.577379 654:0.441052 655:0.484263 656:0.770814 657:0.523498 711:0.219898 718:0.351665 726:0.187097 751:0.847626 754:0.684914 755:0.664327 756:0.511502 757:0.509524 811:0.315933 818:0.228482 826:0.363636 851:0.54477 854:0.340668 855:0.489277 856:0.809407 857:0.541714 911:0.31267 918:0.388262 926:0.672078 951:0.825722 954:0.460148 955:0.569953 956:0.41118 957:0.552661 
0.03298509940022066 11:0.125769 18:0.567353 26:0.460818 51:0.816001 54:0.649895 55:0.322453 56:0.527427 57:0.641946 111:0.0726663 118:0.483558 126:0.576661 151:0.926677 154:0.640169 155:0.38775 156:0.45389 157:0.562648 211:0.34768 218:0.403623 226:0.512383 251:0.85644 254:0.54776 255:0.535974 256:0.651003 257:0.372734 311:0.351016 318:0.31583 326:0.265472 351:0.432457 354:0.242371 355:0.774917 356:0.740325 357:0.276435 411:0.272009 418:0.245814 426:0.267661 451:0.682895 454:0.443753 455:0.758771 456:0.46443 457:0.258686 511:0.519187 518:0.246821 526:0.240913 551:0.566422 554:0.441052 555:0.47822 556:0.779435 557:0.52471 611:0.221219 618:0.351665 626:0.217244 651:0.818229 654:0.695081 655:0.667144 656:0.524731 657:0.51926 711:0.3013 718:0.226181 726:0.367742 751:0.561293 754:0.347681 755:0.480639 756:0.801917 757:0.569444 811:0.31267 818:0.403756 826:0.672078 851:0.811109 854:0.456398 855:0.565967 856:0.407009 857:0.552661 911:0.358347 918:0.188111 926:0.250812 951:0.426686 954:0.213229 955:0.442958 956:0.898137 957:0.543601 
0.02986011763121575 11:0.0726663 18:0.512678 26:0.576661 51:0.935924 54:0.634801 55:0.410953 56:0.456179 57:0.557815 111:0.34768 118:0.416293 126:0.528109 151:0.814873 154:0.547992 155:0.535974 156:0.651819 157:0.372734 211:0.357183 218:0.318116 226:0.229718 251:0.467116 254:0.270921 255:0.724271 256:0.739348 257:0.245075 311:0.272009 318:0.245814 326:0.277687 351:0.664445 354:0.465998 355:0.78153 356:0.466604 357:0.258686 411:0.519187 418:0.233638 426:0.223705 451:0.588856 454:0.399751 455:0.465719 456:0.779435 457:0.513218 511:0.221219 518:0.339566 526:0.217244 551:0.802701 554:0.695081 555:0.658818 556:0.5306 557:0.520463 611:0.302483 618:0.226181 626:0.406593 651:0.541826 654:0.352841 655:0.486171 656:0.803994 657:0.577427 711:0.297908 718:0.39969 726:0.674194 751:0.83571 754:0.46636 755:0.560261 756:0.383706 757:0.580952 811:0.358347 818:0.195618 826:0.250812 851:0.419134 854:0.211491 855:0.43986 856:0.889026 857:0.543601 911:0.287113 918:0.346125 926:0.61039 951:0.752765 954:0.418242 955:0.309624 956:0.549379 957:0.690072 
0.01212620869020553 11:0.34768 18:0.441363 26:0.528109 51:0.823004 54:0.543396 55:0.55356 56:0.655107 57:0.36563 111:0.357183 118:0.328102 126:0.246167 151:0.444444 154:0.271036 155:0.724271 156:0.740276 157:0.245075 211:0.278927 218:0.251449 226:0.242528 251:0.701767 254:0.487743 255:0.730647 256:0.464599 257:0.226556 311:0.519187 318:0.233638 326:0.232085 351:0.572947 354:0.419791 355:0.479688 356:0.783084 357:0.513218 411:0.221219 418:0.328006 426:0.201727 451:0.844687 454:0.648402 455:0.641596 456:0.5306 457:0.509063 511:0.302483 518:0.218399 526:0.406593 551:0.531544 554:0.352841 555:0.480104 556:0.812985 557:0.578764 611:0.299097 618:0.39969 626:0.727811 651:0.806727 654:0.473282 655:0.564616 656:0.401843 657:0.588598 711:0.345393 718:0.193648 726:0.255645 751:0.431847 754:0.215211 755:0.429332 756:0.884665 757:0.571429 811:0.287113 818:0.359937 826:0.61039 851:0.739443 854:0.414833 855:0.307459 856:0.543806 857:0.690072 911:0.251767 918:0.377728 926:0.291396 951:0.596325 954:0.249795 955:0.224648 956:0.50559 957:0.464326 
0.01819914970134705 11:0.357183 18:0.347861 26:0.246167 51:0.44888 54:0.268763 55:0.734721 56:0.74401 57:0.236443 111:0.278927 118:0.259342 126:0.258944 151:0.667707 154:0.487949 155:0.730647 156:0.465182 157:0.226556 211:0.523756 218:0.239855 226:0.194705 251:0.609218 254:0.442942 255:0.439663 256:0.782268 257:0.49212 311:0.221219 318:0.328006 326:0.209283 351:0.821866 354:0.680907 355:0.660841 356:0.533084 357:0.509063 411:0.302483 418:0.204718 426:0.377551 451:0.551092 454:0.313408 455:0.467553 456:0.812985 457:0.566088 511:0.299097 518:0.385939 526:0.727811 551:0.791417 554:0.473282 555:0.55757 556:0.406337 557:0.589961 611:0.346501 618:0.193648 626:0.289096 651:0.41687 654:0.218405 655:0.435622 656:0.883564 657:0.579353 711:0.27134 718:0.356313 726:0.612903 751:0.76187 754:0.423736 755:0.291868 756:0.525879 757:0.725397 811:0.251767 818:0.392801 826:0.291396 851:0.585772 854:0.247759 855:0.223077 856:0.500461 857:0.464326 911:0.223491 918:0.191874 926:0.326299 951:0.407064 954:0.230074 955:0.434507 956:0.966149 957:0.135145 
0.02236308055988486 11:0.278927 18:0.27496 26:0.258944 51:0.67437 54:0.483857 55:0.740854 56:0.467528 57:0.217703 111:0.523756 118:0.247384 126:0.211244 151:0.57965 154:0.443129 155:0.439663 156:0.78325 157:0.49212 211:0.228619 218:0.32971 226:0.170794 251:0.860995 254:0.696112 255:0.614299 256:0.531328 257:0.487786 311:0.302483 318:0.204718 326:0.391694 351:0.536203 354:0.329119 355:0.481578 356:0.816792 357:0.566088 411:0.299097 418:0.37519 426:0.675824 451:0.832469 454:0.431299 455:0.542995 456:0.406337 457:0.577039 511:0.346501 518:0.186986 526:0.289096 551:0.408959 554:0.218405 555:0.430186 556:0.893445 557:0.580695 611:0.272573 618:0.356313 626:0.663567 651:0.735448 654:0.430025 655:0.300191 656:0.538556 657:0.728814 711:0.234596 718:0.388846 726:0.295968 751:0.603539 754:0.252403 755:0.204259 756:0.480831 757:0.488095 811:0.223491 818:0.199531 826:0.326299 851:0.39986 854:0.228199 855:0.431469 856:0.956348 857:0.135145 911:0.23491 918:0.569601 926:0.343344 951:0.67071 954:0.346343 955:0.757277 956:0.531366 957:0.261608 
0.04047778783932456 11:0.523756 18:0.262282 26:0.211244 51:0.585434 54:0.439413 55:0.460898 56:0.787201 57:0.486443 111:0.228619 118:0.34006 126:0.187394 151:0.819206 154:0.696406 155:0.614299 156:0.531995 157:0.487786 211:0.309111 218:0.212319 226:0.362084 251:0.572053 254:0.35503 255:0.441485 256:0.816103 257:0.547281 311:0.299097 318:0.37519 326:0.70114 351:0.809978 354:0.452921 355:0.559282 356:0.40824 357:0.577039 411:0.346501 418:0.172755 426:0.268446 451:0.418364 454:0.181818 455:0.418941 456:0.893445 457:0.567976 511:0.272573 518:0.344054 526:0.663567 551:0.721491 554:0.430025 555:0.296445 556:0.544579 557:0.730502 611:0.235892 618:0.388846 626:0.331361 651:0.582607 654:0.256149 655:0.213877 656:0.495238 657:0.498459 711:0.205201 718:0.197521 726:0.330645 751:0.411988 754:0.232344 755:0.42062 756:0.954633 757:0.142063 811:0.23491 818:0.592332 826:0.343344 851:0.65884 854:0.343521 855:0.751981 856:0.525976 857:0.261608 911:0.195215 918:0.289691 926:0.231331 951:0.762397 954:0.785127 955:0.371127 956:0.301553 957:0.531144 
0.04840697465564696 11:0.228619 18:0.360539 26:0.187394 51:0.827381 54:0.690566 55:0.628916 56:0.534678 57:0.482057 111:0.309111 118:0.218984 126:0.378194 151:0.544288 154:0.35518 155:0.441485 156:0.817127 157:0.547281 211:0.305757 218:0.374638 226:0.686593 251:0.848971 254:0.475063 255:0.516393 256:0.406015 257:0.558708 311:0.346501 318:0.172755 326:0.278502 351:0.407061 354:0.190933 355:0.431507 356:0.897628 357:0.567976 411:0.272573 418:0.332572 426:0.61617 451:0.756757 454:0.388958 455:0.288695 456:0.544579 457:0.714502 511:0.235892 518:0.375467 526:0.331361 551:0.571551 554:0.256149 555:0.211208 556:0.500777 557:0.499614 611:0.206546 618:0.197521 626:0.367709 651:0.3977 654:0.235793 655:0.427039 656:0.950845 657:0.162558 711:0.217072 718:0.586367 726:0.347581 751:0.678823 754:0.350606 755:0.753388 756:0.507348 757:0.275 811:0.195215 818:0.301252 826:0.231331 851:0.748905 854:0.778729 855:0.368531 856:0.298494 857:0.531144 911:0.191952 918:0.420617 926:0.287338 951:0.91741 954:0.831553 955:0.374178 956:0.318323 957:0.626274 
0.1 11:0.309111 18:0.232171 26:0.378194 51:0.54972 54:0.352201 55:0.462651 56:0.821248 57:0.542265 111:0.305757 118:0.386398 126:0.701874 151:0.807766 154:0.475264 155:0.516393 156:0.406524 157:0.558708 211:0.352711 218:0.181884 226:0.243382 251:0.441428 254:0.221048 255:0.393215 256:0.897243 257:0.549251 311:0.272573 318:0.332572 326:0.639251 351:0.736311 354:0.408457 355:0.297355 356:0.547129 357:0.714502 411:0.235892 418:0.364536 426:0.307692 451:0.594409 454:0.218763 455:0.205687 456:0.500777 457:0.488671 511:0.206546 518:0.190726 526:0.367709 551:0.390152 554:0.235793 555:0.421709 556:0.961479 557:0.162934 611:0.218397 618:0.586367 626:0.385461 651:0.655281 654:0.35581 655:0.754888 656:0.520737 657:0.291602 711:0.175806 718:0.298218 726:0.23629 751:0.771619 754:0.796908 755:0.355276 756:0.270927 757:0.558333 811:0.191952 818:0.437402 826:0.287338 851:0.901174 854:0.824776 855:0.371562 856:0.315094 857:0.626274 911:0.240892 918:0.495109 926:0.330357 951:0.898323 954:0.771569 955:0.404695 956:0.339441 957:0.563986 
0.0295286587823802 11:0.10844 18:0.559429 26:0.309199 51:0.761905 54:0.834801 55:0.161446 56:0.348991 57:0.632376 111:0.137507 118:0.241405 126:0.173765 151:0.630439 154:0.2926 155:0.810565 156:0.395546 157:0.379433 211:0.0916713 218:0.281884 226:0.0905209 251:0.520678 254:0.382925 255:0.643443 256:0.171992 257:0.230496 311:0.119639 318:0.228311 326:0.118893 351:0.245317 354:0.158675 355:0.906471 356:0.47191 357:0.166918 411:0.211061 418:0.190259 426:0.353218 451:0.373565 454:0.251557 455:0.302912 456:0.939733 457:0.352341 511:0.130361 518:0.566193 526:0.513948 551:0.836895 554:0.843936 555:0.42477 556:0.256912 557:0.53861 611:0.129233 618:0.30519 626:0.530854 651:0.568142 654:0.398219 655:0.643062 656:0.467896 657:0.423344 711:0.580554 718:0.756778 726:0.270161 751:0.708251 754:0.378604 755:0.348742 756:0.364217 757:0.288889 811:0.222403 818:0.212833 826:0.305195 851:0.407394 854:0.229829 855:0.282751 856:0.927144 857:0.322763 911:0.199021 918:0.512415 926:0.477273 951:0.892972 954:0.794988 955:0.285211 956:0.540373 957:0.485089 
0.02259580505055035 11:0.137507 18:0.255943 26:0.173765 51:0.63673 54:0.290147 55:0.817744 56:0.397541 57:0.372408 111:0.0916713 118:0.290732 126:0.107325 151:0.495406 154:0.383087 155:0.643443 156:0.172208 157:0.230496 211:0.128004 218:0.234783 226:0.0760034 251:0.277828 254:0.189772 255:0.851093 256:0.469925 257:0.130812 311:0.211061 318:0.190259 326:0.36645 351:0.363473 354:0.264167 355:0.311998 356:0.944132 357:0.352341 411:0.130361 418:0.5586 426:0.477237 451:0.88171 454:0.794105 455:0.413667 456:0.256912 457:0.526813 511:0.129233 518:0.29469 526:0.530854 551:0.55736 554:0.398219 555:0.635036 556:0.473128 557:0.424324 611:0.581264 618:0.756778 626:0.304311 651:0.683688 654:0.384224 655:0.356223 656:0.383103 657:0.305085 711:0.20407 718:0.210689 726:0.309677 751:0.419751 754:0.234016 755:0.266215 756:0.924281 757:0.339286 811:0.199021 818:0.532864 826:0.477273 851:0.877168 854:0.788509 855:0.283217 856:0.534891 857:0.485089 911:0.18869 918:0.31377 926:0.185065 951:0.626293 954:0.253492 955:0.272066 956:0.877329 957:0.198188 
0.02708341497706602 11:0.0916713 18:0.308241 26:0.107325 51:0.50035 54:0.379874 55:0.656955 56:0.173077 57:0.221691 111:0.128004 118:0.242152 126:0.092845 151:0.264344 154:0.189852 155:0.851093 156:0.470514 157:0.130812 211:0.218558 218:0.198551 226:0.335611 251:0.39734 254:0.292054 255:0.278005 256:0.943922 257:0.324271 311:0.130361 318:0.5586 326:0.495114 351:0.857889 354:0.833915 355:0.426075 356:0.258115 357:0.526813 411:0.129233 418:0.282344 426:0.492936 451:0.579045 454:0.357825 455:0.618436 456:0.473128 457:0.41503 511:0.581264 518:0.73074 526:0.304311 551:0.670713 554:0.384224 555:0.351778 556:0.387387 557:0.305792 611:0.205418 618:0.210689 626:0.345731 651:0.405193 654:0.237489 655:0.274917 656:0.921659 657:0.354006 711:0.179763 718:0.527498 726:0.480645 751:0.903773 754:0.806937 755:0.266699 756:0.516613 757:0.509921 811:0.18869 818:0.326291 826:0.185065 851:0.615209 854:0.251426 855:0.270163 856:0.868429 857:0.198188 911:0.219141 918:0.610986 926:0.503247 951:0.933286 954:0.64544 955:0.31385 956:0.435404 957:0.589279 
0.04144884363531014 11:0.128004 18:0.256735 26:0.092845 51:0.266982 54:0.18826 55:0.856736 56:0.472888 57:0.120813 111:0.218558 118:0.204783 126:0.351789 151:0.378055 154:0.292178 155:0.278005 156:0.945107 157:0.324271 211:0.138625 218:0.549275 226:0.470538 251:0.897431 254:0.844463 255:0.387978 256:0.255326 257:0.506304 311:0.129233 318:0.282344 326:0.511401 351:0.563401 354:0.375763 355:0.636986 356:0.475343 357:0.41503 411:0.581264 418:0.726027 426:0.282575 451:0.701777 454:0.344126 455:0.342582 456:0.387387 457:0.299094 511:0.205418 518:0.203441 526:0.345731 551:0.397504 554:0.237489 555:0.271486 556:0.931966 557:0.354826 611:0.181151 618:0.527498 626:0.524937 651:0.872429 654:0.818914 655:0.275393 656:0.529647 657:0.519646 711:0.169022 718:0.323005 726:0.190323 751:0.633869 754:0.256164 755:0.253146 756:0.863259 757:0.208333 811:0.219141 818:0.635368 826:0.503247 851:0.916769 854:0.640179 855:0.311655 856:0.430987 857:0.589279 911:0.190865 918:0.774266 926:0.611201 951:0.783981 954:0.695563 955:0.4223 956:0.341304 957:0.483956 
0.1 11:0.218558 18:0.217116 26:0.351789 51:0.381828 54:0.289727 55:0.305367 56:0.949874 57:0.316587 111:0.138625 118:0.566517 126:0.486371 151:0.853874 154:0.84482 155:0.387978 156:0.255646 157:0.506304 211:0.137507 218:0.286232 226:0.487617 251:0.599563 254:0.400254 255:0.591302 256:0.473371 257:0.389677 311:0.581264 318:0.726027 326:0.29316 351:0.682817 354:0.361378 355:0.352858 356:0.389201 357:0.299094 411:0.205418 418:0.189498 426:0.321036 451:0.405961 454:0.200498 455:0.264389 456:0.931966 457:0.347054 511:0.181151 518:0.509349 526:0.524937 551:0.855873 554:0.818914 555:0.271957 556:0.53557 557:0.520849 611:0.170429 618:0.323005 626:0.220626 651:0.611886 654:0.259966 655:0.262041 656:0.86298 657:0.226888 711:0.200678 718:0.62897 726:0.506452 751:0.944575 754:0.654827 755:0.296225 756:0.408626 757:0.619444 811:0.190865 818:0.805164 826:0.611201 851:0.770107 854:0.689894 855:0.419347 856:0.337842 857:0.483956 911:0.179445 918:0.471031 926:0.412338 951:0.918302 954:0.842235 955:0.320892 956:0.318323 957:0.447339 
0.1 11:0.138625 18:0.600634 26:0.486371 51:0.862395 54:0.837736 55:0.411172 56:0.256936 57:0.500797 111:0.137507 118:0.295217 126:0.503407 151:0.570463 154:0.400423 155:0.591302 156:0.473965 157:0.389677 211:0.585243 218:0.708696 226:0.258753 251:0.72035 254:0.386306 255:0.317395 256:0.386905 257:0.268716 311:0.205418 318:0.189498 326:0.333062 351:0.394993 354:0.210549 355:0.272319 356:0.93633 357:0.347054 411:0.181151 418:0.500761 426:0.487441 451:0.902258 454:0.769614 455:0.264848 456:0.53557 457:0.509441 511:0.170429 518:0.311892 526:0.220626 551:0.600274 554:0.259966 555:0.258771 556:0.872631 557:0.227413 611:0.202032 618:0.62897 626:0.551986 651:0.911816 654:0.664546 655:0.304483 656:0.425806 657:0.625963 711:0.171283 718:0.797057 726:0.61371 751:0.793465 754:0.705809 755:0.408035 756:0.311821 757:0.50873 811:0.179445 818:0.489828 826:0.412338 851:0.90205 854:0.835371 855:0.318648 856:0.315094 857:0.447339 911:0.186514 918:0.571106 926:0.530844 951:0.784695 954:0.460148 955:0.585211 956:0.536335 957:0.566251 
0.1 11:0.137507 18:0.312995 26:0.503407 51:0.576155 54:0.397065 55:0.606791 56:0.476356 57:0.382775 111:0.585243 118:0.730942 126:0.275128 151:0.685387 154:0.386469 155:0.317395 156:0.38739 157:0.268716 211:0.212968 218:0.197826 226:0.300598 251:0.429222 254:0.240068 255:0.239754 256:0.93609 257:0.318755 311:0.181151 318:0.500761 326:0.5057 351:0.877882 354:0.808195 355:0.272792 356:0.538077 357:0.509441 411:0.170429 418:0.299848 426:0.204867 451:0.625509 454:0.222499 455:0.252006 456:0.872631 457:0.222432 511:0.202032 518:0.60733 526:0.551986 551:0.894512 554:0.664546 555:0.300683 556:0.430568 557:0.627413 611:0.172686 618:0.797057 626:0.664413 651:0.765946 654:0.716285 655:0.41464 656:0.332719 657:0.51849 711:0.159412 718:0.484895 726:0.416129 751:0.92941 754:0.854994 755:0.303485 756:0.288179 757:0.470238 811:0.186514 818:0.593897 826:0.530844 851:0.770808 854:0.456398 855:0.581119 856:0.530895 857:0.566251 911:0.158782 918:0.444695 926:0.439123 951:0.879058 954:0.784306 955:0.206338 956:0.367081 957:0.571536 
0.1 11:0.30967 18:0.427892 26:0.829642 51:0.750875 54:0.498952 55:0.357722 56:0.570933 57:0.582536 111:0.198435 118:0.328849 126:0.236797 151:0.622465 154:0.460888 155:0.287341 156:0.287641 157:0.861308 211:0.30967 218:0.318841 226:0.390265 251:0.581709 254:0.376585 255:0.332878 256:0.878133 257:0.430654 311:0.303047 318:0.316591 326:0.418567 351:0.545749 354:0.351351 355:0.368918 356:0.878589 357:0.454305 411:0.134876 418:0.543379 426:0.325746 451:0.965939 454:0.829805 455:0.357945 456:0.380864 457:0.529456 511:0.863431 518:0.254301 526:0.350803 551:0.456146 554:0.2905 555:0.344008 556:0.53557 557:0.503089 611:0.190745 618:0.879163 626:0.350803 651:0.845765 654:0.585242 655:0.348593 656:0.407066 657:0.540062 711:0.189373 718:0.340046 726:0.233871 751:0.642715 754:0.452152 755:0.316796 756:0.26262 757:0.885714 811:0.208265 818:0.343505 826:0.228896 851:0.623795 854:0.442543 855:0.331469 856:0.290501 857:0.842582 911:0.208265 918:0.854026 926:0.310065 951:0.86568 954:0.568611 955:0.357277 956:0.41646 957:0.505096 
0.1 11:0.198435 18:0.348653 26:0.236797 51:0.628676 54:0.457023 55:0.314348 56:0.289092 57:0.860048 111:0.30967 118:0.328849 126:0.406303 151:0.553475 154:0.376744 155:0.332878 156:0.879235 157:0.430654 211:0.30967 218:0.318841 226:0.390265 251:0.581709 254:0.376585 255:0.332878 256:0.878133 257:0.430654 311:0.134876 318:0.543379 326:0.337948 351:0.939841 354:0.871404 355:0.368682 356:0.382647 357:0.529456 411:0.863431 418:0.241248 426:0.325746 451:0.469456 454:0.252387 455:0.335015 456:0.53557 457:0.492069 511:0.190745 518:0.848915 526:0.350803 551:0.829714 554:0.585242 555:0.344243 556:0.411619 557:0.541313 611:0.190745 618:0.340046 626:0.266272 651:0.620425 654:0.458863 655:0.32475 656:0.285407 657:0.884438 711:0.189373 718:0.340046 726:0.233871 751:0.642715 754:0.452152 755:0.316796 756:0.26262 757:0.885714 811:0.208265 818:0.888106 826:0.310065 851:0.850359 854:0.563977 855:0.354779 856:0.412235 857:0.505096 911:0.262099 918:0.255831 926:0.228896 951:0.422761 954:0.283073 955:0.846948 956:0.385714 957:0.317478 
0.1 11:0.30967 18:0.348653 26:0.406303 51:0.558999 54:0.373585 55:0.35816 56:0.88367 57:0.424242 111:0.30967 118:0.328849 126:0.406303 151:0.553475 154:0.376744 155:0.332878 156:0.879235 157:0.430654 211:0.143097 218:0.534783 226:0.305722 251:0.980324 254:0.880811 255:0.33265 256:0.380326 257:0.509062 311:0.863431 318:0.241248 326:0.337948 351:0.456772 354:0.265039 355:0.345064 356:0.538077 357:0.492069 411:0.190745 418:0.846271 426:0.325746 451:0.873936 454:0.540888 455:0.335244 456:0.411619 457:0.529456 511:0.190745 518:0.328347 526:0.266272 551:0.608651 554:0.458863 555:0.320697 556:0.288599 557:0.886486 611:0.190745 618:0.340046 626:0.266272 651:0.620425 654:0.458863 655:0.32475 656:0.285407 657:0.884438 711:0.189373 718:0.879163 726:0.314516 751:0.876151 754:0.576682 755:0.340997 756:0.389137 757:0.530952 811:0.262099 818:0.266041 826:0.228896 851:0.415279 854:0.280766 855:0.841026 856:0.381801 857:0.317478 911:0.316476 918:0.405568 926:0.793831 951:0.759543 954:0.487264 955:0.380282 956:0.571118 957:0.579841 
0.1 11:0.30967 18:0.348653 26:0.406303 51:0.558999 54:0.373585 55:0.35816 56:0.88367 57:0.424242 111:0.143097 118:0.55157 126:0.321976 151:0.932744 154:0.881184 155:0.33265 156:0.380803 157:0.509062 211:0.864729 218:0.247101 226:0.305722 251:0.491711 254:0.292899 255:0.309882 256:0.536341 257:0.470055 311:0.190745 318:0.846271 326:0.337948 351:0.850324 354:0.568003 355:0.3453 356:0.413546 357:0.529456 411:0.190745 418:0.316591 426:0.247253 451:0.63458 454:0.417186 455:0.312314 456:0.288599 457:0.867069 511:0.190745 518:0.328347 526:0.266272 551:0.608651 554:0.458863 555:0.320697 556:0.288599 557:0.886486 611:0.190745 618:0.879163 626:0.350803 651:0.845765 654:0.585242 655:0.348593 656:0.407066 657:0.540062 711:0.245336 718:0.263362 726:0.233871 751:0.427875 754:0.286252 755:0.845837 756:0.357508 757:0.33373 811:0.316476 818:0.421753 826:0.793831 851:0.746101 854:0.483293 855:0.377622 856:0.565324 857:0.579841 911:0.154432 918:0.554552 926:0.310065 951:0.954335 954:0.85456 955:0.380516 956:0.385714 957:0.505096 
0.1 11:0.143097 18:0.584786 26:0.321976 51:0.942052 54:0.873795 55:0.357941 56:0.382724 57:0.503589 111:0.864729 118:0.254858 126:0.321976 151:0.467845 154:0.293023 155:0.309882 156:0.537014 157:0.470055 211:0.198435 218:0.823188 226:0.305722 251:0.88978 254:0.586644 255:0.310109 256:0.411341 257:0.509062 311:0.190745 318:0.316591 326:0.256515 351:0.617435 354:0.438099 355:0.321682 356:0.28995 357:0.867069 411:0.190745 418:0.316591 426:0.247253 451:0.63458 454:0.417186 455:0.312314 456:0.288599 457:0.867069 511:0.190745 518:0.848915 526:0.350803 551:0.829714 554:0.585242 555:0.344243 556:0.411619 557:0.541313 611:0.246614 618:0.263362 626:0.266272 651:0.413036 654:0.2905 655:0.84597 656:0.376651 657:0.348613 711:0.301865 718:0.417506 726:0.795161 751:0.768731 754:0.493941 755:0.364714 756:0.548243 757:0.609524 811:0.154432 818:0.576682 826:0.310065 851:0.937445 854:0.847596 855:0.377855 856:0.381801 857:0.505096 911:0.316476 918:0.330324 926:0.390422 951:0.564039 954:0.364421 955:0.380751 956:0.879193 957:0.429974 
0.1 11:0.864729 18:0.270206 26:0.321976 51:0.472514 54:0.290566 55:0.336035 56:0.539723 57:0.464115 111:0.198435 118:0.849028 126:0.321976 151:0.846594 154:0.586892 155:0.310109 156:0.411857 157:0.509062 211:0.198435 218:0.318841 226:0.220325 251:0.654218 254:0.460693 255:0.287341 256:0.287281 257:0.861308 311:0.190745 318:0.316591 326:0.256515 351:0.617435 354:0.438099 355:0.321682 356:0.28995 357:0.867069 411:0.190745 418:0.846271 426:0.325746 451:0.873936 454:0.540888 455:0.335244 456:0.411619 457:0.529456 511:0.246614 518:0.254301 526:0.266272 551:0.405197 554:0.2905 555:0.835413 556:0.380864 557:0.349421 611:0.303047 618:0.417506 626:0.854607 651:0.74207 654:0.501272 655:0.37196 656:0.560061 657:0.616333 711:0.133409 718:0.570875 726:0.314516 751:0.965878 754:0.86753 755:0.364956 756:0.357508 757:0.530952 811:0.316476 818:0.343505 826:0.390422 851:0.554056 854:0.361451 855:0.378089 856:0.870274 857:0.429974 911:0.208265 918:0.554552 926:0.310065 951:0.971994 954:0.65037 955:0.42723 956:0.41646 957:0.505096 
0.1 11:0.198435 18:0.900158 26:0.321976 51:0.855042 54:0.581971 55:0.336254 56:0.413934 57:0.503589 111:0.198435 118:0.328849 126:0.236797 151:0.622465 154:0.460888 155:0.287341 156:0.287641 157:0.861308 211:0.198435 218:0.318841 226:0.220325 251:0.654218 254:0.460693 255:0.287341 256:0.287281 257:0.861308 311:0.190745 318:0.846271 326:0.337948 351:0.850324 354:0.568003 355:0.3453 356:0.413546 357:0.529456 411:0.246614 418:0.241248 426:0.247253 451:0.414291 454:0.252387 455:0.813575 456:0.380864 457:0.341767 511:0.303047 518:0.403141 526:0.854607 551:0.727988 554:0.501272 555:0.367318 556:0.566325 557:0.617761 611:0.134876 618:0.570875 626:0.350803 651:0.932381 654:0.880407 655:0.372198 656:0.376651 657:0.540062 711:0.301865 718:0.340046 726:0.394355 751:0.570861 754:0.368993 755:0.365198 756:0.865176 757:0.451984 811:0.208265 818:0.576682 826:0.310065 851:0.954792 854:0.645069 855:0.424242 856:0.412235 857:0.505096 911:0.208265 918:0.405568 926:0.310065 951:0.900999 954:0.895234 955:0.310798 956:0.324224 957:0.505096 
0.1 11:0.198435 18:0.348653 26:0.236797 51:0.628676 54:0.457023 55:0.314348 56:0.289092 57:0.860048 111:0.198435 118:0.328849 126:0.236797 151:0.622465 154:0.460888 155:0.287341 156:0.287641 157:0.861308 211:0.198435 218:0.823188 226:0.305722 251:0.88978 254:0.586644 255:0.310109 256:0.411341 257:0.509062 311:0.246614 318:0.241248 326:0.256515 351:0.403098 354:0.265039 355:0.837978 356:0.382647 357:0.341767 411:0.303047 418:0.392694 426:0.793564 451:0.763791 454:0.458697 455:0.357716 456:0.566325 457:0.60423 511:0.134876 518:0.551234 526:0.350803 551:0.914686 554:0.880407 555:0.367554 556:0.380864 557:0.541313 611:0.303047 618:0.340046 626:0.434489 651:0.551063 654:0.37447 655:0.372437 656:0.864823 657:0.463405 711:0.189373 718:0.570875 726:0.314516 751:0.983752 754:0.659841 755:0.413117 756:0.389137 757:0.530952 811:0.208265 818:0.421753 826:0.310065 851:0.885053 854:0.887938 855:0.308625 856:0.320935 857:0.505096 911:0.856444 918:0.255831 926:0.310065 951:0.475919 954:0.283073 955:0.357042 956:0.540373 957:0.467724 
0.04613720681007868 11:0.0866406 18:0.68225 26:0.354344 51:0.91334 54:0.638155 55:0.350712 56:0.286885 57:0.620415 111:0.16825 118:0.63154 126:0.480409 151:0.967239 154:0.768288 155:0.211066 156:0.34724 157:0.41647 211:0.38569 218:0.136957 226:0.238258 251:0.308982 254:0.161877 255:0.38092 256:0.912907 257:0.408589 311:0.106095 318:0.582192 326:0.751629 351:0.829251 354:0.561029 355:0.207605 356:0.502185 357:0.413142 411:0.164786 418:0.101218 426:0.191523 451:0.249352 454:0.0946451 455:0.127723 456:0.929481 457:0.25642 511:0.427765 518:0.459985 526:0.388842 551:0.808514 554:0.675148 555:0.505298 556:0.586518 557:0.373745 611:0.339729 618:0.214562 626:0.591716 651:0.707738 654:0.24894 655:0.280401 656:0.717051 657:0.284284 711:0.075749 718:0.494965 726:0.200806 751:0.801408 754:0.564145 755:0.424492 756:0.246965 757:0.409921 811:0.11093 818:0.216745 826:0.170455 851:0.475732 854:0.256724 855:0.204429 856:0.0894559 857:0.87769 911:0.105492 918:0.303988 926:0.0787338 951:0.389226 954:0.248973 955:0.103521 956:0.0993789 957:0.718762 
0.02469768930965504 11:0.16825 18:0.669572 26:0.480409 51:0.976891 54:0.761845 55:0.240964 56:0.348991 57:0.409888 111:0.38569 118:0.141256 126:0.254685 151:0.293985 154:0.161945 155:0.38092 156:0.914053 157:0.408589 211:0.114589 218:0.571739 226:0.739539 251:0.868464 254:0.579882 255:0.177368 256:0.500313 257:0.387707 311:0.164786 318:0.101218 326:0.198697 351:0.242615 354:0.0993897 355:0.131554 356:0.933833 357:0.25642 411:0.427765 418:0.450533 426:0.361068 451:0.850981 454:0.628892 455:0.492089 456:0.586518 457:0.365559 511:0.339729 518:0.20718 526:0.591716 551:0.694307 554:0.24894 555:0.276901 556:0.72507 557:0.284942 611:0.0773138 618:0.494965 626:0.231615 651:0.773614 654:0.572519 655:0.430854 656:0.270353 657:0.422573 711:0.0881854 718:0.214562 726:0.175806 751:0.490161 754:0.261596 755:0.184898 756:0.0536741 757:0.922619 811:0.105492 818:0.316119 826:0.0787338 851:0.382337 854:0.246944 855:0.102797 856:0.0983707 857:0.718762 911:0.420881 918:0.428894 926:0.55763 951:0.962183 954:0.782662 955:0.438263 956:0.354969 957:0.423934 
0.01708917874310879 11:0.38569 18:0.149762 26:0.254685 51:0.296919 54:0.160587 55:0.404381 56:0.918663 57:0.401914 111:0.114589 118:0.589686 126:0.754685 151:0.826313 154:0.580127 155:0.177368 156:0.500941 157:0.387707 211:0.172722 218:0.113768 226:0.159693 251:0.275096 254:0.132291 255:0.104053 256:0.933584 257:0.224192 311:0.427765 318:0.450533 326:0.374593 351:0.82799 354:0.660418 355:0.506849 356:0.589263 357:0.365559 411:0.339729 418:0.193303 426:0.549451 451:0.727323 454:0.211706 455:0.269663 456:0.72507 457:0.278701 511:0.0773138 518:0.477936 526:0.231615 551:0.758933 554:0.572519 555:0.425477 556:0.273377 557:0.423552 611:0.0897291 618:0.214562 626:0.20541 651:0.473161 654:0.265479 655:0.194802 656:0.0844854 657:0.920262 711:0.0825325 718:0.312936 726:0.0846774 751:0.393934 754:0.251567 755:0.0793804 756:0.0629393 757:0.755556 811:0.420881 818:0.446009 826:0.55763 851:0.945155 854:0.776284 855:0.435198 856:0.351368 857:0.423934 911:0.357803 918:0.123401 926:0.129058 951:0.238138 954:0.12613 955:0.207042 956:0.960248 957:0.14043 
0.02406644754093763 11:0.114589 18:0.625198 26:0.754685 51:0.834559 54:0.575262 55:0.208543 56:0.503468 57:0.380781 111:0.172722 118:0.117339 126:0.17632 151:0.261744 154:0.132347 155:0.104053 156:0.934755 157:0.224192 211:0.433203 218:0.446377 226:0.34415 251:0.867189 254:0.676247 255:0.465847 256:0.587719 257:0.338061 311:0.339729 318:0.193303 326:0.570033 351:0.707673 354:0.222319 355:0.277752 356:0.728464 357:0.278701 411:0.0773138 418:0.468798 426:0.215071 451:0.797297 454:0.528435 455:0.414355 456:0.273377 457:0.414275 511:0.0897291 518:0.20718 526:0.20541 551:0.464182 554:0.265479 555:0.192371 556:0.0854303 557:0.922394 611:0.0840858 618:0.312936 626:0.10989 651:0.380272 654:0.255301 655:0.0908441 656:0.0933948 657:0.758089 711:0.410401 718:0.441518 726:0.560484 751:0.973822 754:0.7944 755:0.424492 756:0.325879 757:0.445635 811:0.357803 818:0.128326 826:0.129058 851:0.233923 854:0.125102 855:0.205594 856:0.950507 857:0.14043 911:0.145188 918:0.464259 926:0.551948 951:0.82822 954:0.546426 955:0.415493 956:0.713665 957:0.303511 
0.01537373555139552 11:0.172722 18:0.124406 26:0.17632 51:0.264356 54:0.131237 55:0.138007 56:0.93947 57:0.215311 111:0.433203 118:0.460389 126:0.360307 151:0.8251 154:0.676533 155:0.465847 156:0.588457 157:0.338061 211:0.346003 218:0.201449 226:0.549103 251:0.745491 254:0.251479 255:0.244991 256:0.727444 257:0.247439 311:0.0773138 318:0.468798 326:0.223127 351:0.775756 354:0.554926 355:0.426783 356:0.274657 357:0.414275 411:0.0897291 418:0.193303 426:0.190738 451:0.478156 454:0.227895 455:0.187342 456:0.0854303 457:0.90219 511:0.0840858 518:0.302169 526:0.10989 551:0.373055 554:0.255301 555:0.0897104 556:0.0944393 557:0.759846 611:0.4114 618:0.441518 626:0.608622 651:0.940049 654:0.806192 655:0.430854 656:0.346237 657:0.457242 711:0.344828 718:0.127033 726:0.134677 751:0.241018 754:0.126619 755:0.186108 756:0.948562 757:0.147619 811:0.145188 818:0.482786 826:0.551948 851:0.813562 854:0.541972 855:0.412587 856:0.706425 857:0.303511 911:0.178358 918:0.308503 926:0.416396 951:0.289511 954:0.170912 955:0.337324 956:0.943478 957:0.145715 
0.02103754770141394 11:0.433203 18:0.488114 26:0.360307 51:0.833333 54:0.67086 55:0.48609 56:0.591425 57:0.330542 111:0.346003 118:0.207773 126:0.564736 151:0.709308 154:0.251586 155:0.244991 156:0.728356 157:0.247439 211:0.0860816 218:0.463768 226:0.185312 251:0.814356 254:0.573964 255:0.388661 256:0.27193 257:0.388889 311:0.0897291 318:0.193303 326:0.197883 351:0.465238 354:0.23932 355:0.192962 356:0.0858302 357:0.90219 411:0.0840858 418:0.289954 426:0.102041 451:0.379489 454:0.217933 455:0.0873653 456:0.0944393 457:0.743202 511:0.4114 518:0.426328 526:0.608622 551:0.922209 554:0.806192 555:0.425477 556:0.350109 557:0.458301 611:0.345937 618:0.127033 626:0.162299 651:0.232659 654:0.128499 655:0.195994 656:0.945008 657:0.167951 711:0.123799 718:0.477924 726:0.554839 751:0.838238 754:0.554116 755:0.401016 756:0.694888 757:0.319048 811:0.178358 818:0.320814 826:0.416396 851:0.284388 854:0.169519 855:0.334965 856:0.933907 857:0.145715 911:0.204459 918:0.407825 926:0.568994 951:0.843382 954:0.751849 955:0.275352 956:0.485093 957:0.599094 
0.0124426689720504 11:0.346003 18:0.220285 26:0.564736 51:0.716387 54:0.249476 55:0.273604 56:0.73203 57:0.238836 111:0.0860816 118:0.478326 126:0.201874 151:0.774831 154:0.574207 155:0.388661 156:0.272271 157:0.388889 211:0.098379 218:0.201449 226:0.158839 251:0.500273 254:0.267963 255:0.163251 256:0.0823935 257:0.897951 311:0.0840858 318:0.289954 326:0.105863 351:0.369236 354:0.228858 355:0.0899858 356:0.0948814 357:0.743202 411:0.4114 418:0.416286 426:0.565149 451:0.974084 454:0.757161 455:0.414355 456:0.350109 457:0.448263 511:0.345937 518:0.122663 526:0.162299 551:0.228244 554:0.128499 555:0.193548 556:0.955576 557:0.16834 611:0.125282 618:0.477924 626:0.602705 651:0.809167 654:0.562341 655:0.407725 656:0.701075 657:0.334361 711:0.158282 718:0.317583 726:0.420161 751:0.293013 754:0.172169 755:0.320426 756:0.93131 757:0.153175 811:0.204459 818:0.4241 826:0.568994 851:0.828456 854:0.745721 855:0.273427 856:0.480172 857:0.599094 911:0.145188 918:0.13845 926:0.181006 951:0.348198 954:0.297453 955:0.801643 956:0.704348 957:0.393356 
0.01176335512285748 11:0.0860816 18:0.507132 26:0.201874 51:0.782563 54:0.569392 55:0.411829 56:0.273644 57:0.381978 111:0.098379 118:0.207773 126:0.175468 151:0.475992 154:0.268076 155:0.163251 156:0.0824969 157:0.897951 211:0.0927893 218:0.293478 226:0.0623399 251:0.40317 254:0.257819 255:0.06398 256:0.0914787 257:0.732072 311:0.4114 318:0.416286 326:0.586319 351:0.947767 354:0.795118 355:0.426783 356:0.351748 357:0.448263 411:0.345937 418:0.107306 426:0.150706 451:0.222695 454:0.0938149 455:0.188489 456:0.955576 457:0.164653 511:0.125282 518:0.461481 526:0.602705 551:0.793811 554:0.562341 555:0.402637 556:0.708916 557:0.335135 611:0.159707 618:0.317583 626:0.461538 651:0.282851 654:0.174724 655:0.328326 656:0.928418 657:0.173344 711:0.185415 718:0.41983 726:0.571774 751:0.853584 754:0.763059 755:0.256534 756:0.459744 757:0.629762 811:0.145188 818:0.143975 826:0.181006 851:0.342036 854:0.295029 855:0.796037 856:0.697203 857:0.393356 911:0.125068 918:0.6614 926:0.377435 951:0.95594 954:0.619967 955:0.230047 956:0.385093 957:0.577199 
0.02356068541119733 11:0.098379 18:0.220285 26:0.175468 51:0.480742 54:0.265828 55:0.194962 56:0.082913 57:0.897129 111:0.0927893 118:0.302691 126:0.0792164 151:0.383602 154:0.257928 155:0.06398 156:0.0915935 157:0.732072 211:0.416993 218:0.413768 226:0.566183 251:0.98834 254:0.806847 255:0.388661 256:0.349311 257:0.42435 311:0.345937 318:0.107306 326:0.156352 351:0.216679 354:0.0985179 355:0.194143 356:0.96005 357:0.164653 411:0.125282 418:0.452055 426:0.559655 451:0.835061 454:0.518472 455:0.392112 456:0.708916 457:0.327795 511:0.159707 518:0.306657 526:0.461538 551:0.277483 554:0.174724 555:0.324229 556:0.938801 557:0.173745 611:0.186795 618:0.41983 626:0.620456 651:0.82398 654:0.774385 655:0.265379 656:0.474962 657:0.635978 711:0.123799 718:0.142525 726:0.18629 751:0.35241 754:0.300878 755:0.799129 756:0.685304 757:0.413492 811:0.125068 818:0.687793 826:0.377435 851:0.939022 854:0.614914 855:0.228438 856:0.381187 857:0.577199 911:0.142469 918:0.510158 926:0.19724 951:0.84035 954:0.777732 955:0.261033 956:0.478882 957:0.609664 
0.02453732701852355 11:0.0927893 18:0.320919 26:0.0792164 51:0.38743 54:0.255765 55:0.0994524 56:0.0920555 57:0.729266 111:0.416993 118:0.426756 126:0.581772 151:0.940371 154:0.807188 155:0.388661 156:0.349749 157:0.42435 211:0.352152 218:0.119565 226:0.115286 251:0.248861 254:0.131445 255:0.16439 256:0.9599 257:0.128448 311:0.125282 318:0.452055 326:0.580619 351:0.8125 354:0.544464 355:0.403873 356:0.712235 357:0.327795 411:0.159707 418:0.294521 426:0.428571 451:0.276009 454:0.139062 455:0.315753 456:0.938801 457:0.16994 511:0.186795 518:0.405385 526:0.620456 551:0.808343 554:0.774385 555:0.262067 556:0.480273 557:0.637452 611:0.125282 618:0.142525 626:0.216399 651:0.340188 654:0.305344 655:0.799952 656:0.691859 657:0.42604 711:0.102883 718:0.680868 726:0.381452 751:0.967503 754:0.628918 755:0.209826 756:0.356869 757:0.606746 811:0.142469 818:0.530516 826:0.19724 851:0.825477 854:0.771394 855:0.259207 856:0.474024 857:0.609664 911:0.216422 918:0.474793 926:0.353084 951:0.901712 954:0.832375 955:0.257746 956:0.5 957:0.604379 
0.01773202514773789 11:0.226942 18:0.575277 26:0.435264 51:0.832808 54:0.623061 55:0.487185 56:0.515448 57:0.342105 111:0.250978 118:0.0911809 126:0.145656 151:0.280465 154:0.148837 155:0.13388 156:0.98808 157:0.140268 211:0.186696 218:0.100725 226:0.273271 251:0.362361 254:0.234996 255:0.363843 256:0.934837 257:0.231284 311:0.262415 318:0.109589 326:0.11645 351:0.144272 354:0.136007 355:0.104157 356:0.142322 357:0.824773 411:0.121896 418:0.0449011 426:0.246468 451:0.154943 454:0.0967206 455:0.0779638 456:0.97608 457:0.0804381 511:0.226862 518:0.169783 526:0.584954 551:0.51325 554:0.263783 555:0.529786 556:0.679093 557:0.397683 611:0.257901 618:0.270333 626:0.682164 651:0.538341 654:0.272689 655:0.665951 656:0.340092 657:0.688752 711:0.0910119 718:0.159566 726:0.237903 751:0.49991 754:0.291684 755:0.891094 756:0.316613 757:0.816667 811:0.238173 818:0.43036 826:0.208604 851:0.42369 854:0.347596 855:0.332867 856:0.372887 857:0.780294 911:0.208265 918:0.334086 926:0.299513 951:0.755084 954:0.578472 955:0.54554 956:0.614596 957:0.703284 
0.02304391364358345 11:0.250978 18:0.0966719 26:0.145656 51:0.283263 54:0.147589 55:0.166703 56:0.993064 57:0.130383 111:0.186696 118:0.103886 126:0.289608 151:0.344774 154:0.235095 155:0.363843 156:0.93601 157:0.231284 211:0.269424 218:0.121739 226:0.0734415 251:0.175624 254:0.167794 255:0.0776412 256:0.139098 257:0.817179 311:0.121896 318:0.0449011 326:0.2557 351:0.150756 354:0.101569 355:0.0803023 356:0.980649 357:0.0804381 411:0.226862 418:0.155251 426:0.543171 451:0.531285 454:0.226235 455:0.515937 456:0.679093 457:0.388973 511:0.257901 518:0.261032 526:0.682164 551:0.528124 554:0.272689 555:0.657641 556:0.343896 557:0.690347 611:0.0925508 618:0.159566 626:0.270499 651:0.482572 654:0.296014 655:0.890558 656:0.337327 657:0.817411 711:0.220464 718:0.426026 726:0.21371 751:0.436541 754:0.354785 755:0.318248 756:0.348243 757:0.820238 811:0.208265 818:0.347418 826:0.299513 851:0.741721 854:0.573757 855:0.541725 856:0.608362 857:0.703284 911:0.487765 918:0.369451 926:0.305195 951:0.705316 954:0.463435 955:0.368075 956:0.492547 957:0.81125 
0.1 11:0.160984 18:0.686212 26:0.303237 51:0.83841 54:0.503983 55:0.357284 56:0.373581 57:0.429825 111:0.312465 118:0.423767 126:0.82368 151:0.75195 154:0.499366 155:0.321494 156:0.563676 157:0.615839 211:0.182225 218:0.815217 226:0.328779 251:0.885043 254:0.589603 255:0.303279 256:0.380013 257:0.521671 311:0.174379 318:0.8379 326:0.359935 351:0.845641 354:0.571055 355:0.338214 356:0.382335 357:0.541541 411:0.152935 418:0.640791 426:0.308477 451:0.85635 454:0.463678 455:0.357258 456:0.371855 457:0.459592 511:0.334086 518:0.4181 526:0.430262 551:0.683365 554:0.465225 555:0.348246 556:0.527804 557:0.872587 611:0.18228 618:0.60031 626:0.372781 651:0.940572 654:0.655216 655:0.405341 656:0.385868 657:0.543143 711:0.279819 718:0.289698 726:0.290323 751:0.519047 754:0.286252 755:0.424976 756:0.823003 757:0.326984 811:0.323002 818:0.308294 826:0.385552 851:0.521815 854:0.319071 855:0.361772 856:0.861359 857:0.415251 911:0.231104 918:0.230248 926:0.206169 951:0.433107 954:0.273213 955:0.785915 956:0.612112 957:0.305398 
0.1 11:0.312465 18:0.449287 26:0.82368 51:0.759454 54:0.495178 55:0.347207 56:0.56652 57:0.611643 111:0.182225 118:0.840807 126:0.344974 151:0.842087 154:0.589852 155:0.303279 156:0.380489 157:0.521671 211:0.182225 218:0.815217 226:0.328779 251:0.885043 254:0.589603 255:0.303279 256:0.380013 257:0.521671 311:0.152935 318:0.640791 326:0.320033 351:0.833213 354:0.486922 355:0.367974 356:0.373596 357:0.459592 411:0.334086 418:0.407915 426:0.399529 451:0.715476 454:0.423412 455:0.339142 456:0.527804 457:0.853474 511:0.18228 518:0.579656 526:0.372781 551:0.922722 554:0.655216 555:0.400283 556:0.390183 557:0.544402 611:0.281038 618:0.289698 626:0.325444 651:0.501046 654:0.2905 655:0.43133 656:0.82427 657:0.342065 711:0.308649 718:0.30519 726:0.389516 751:0.537642 754:0.325533 755:0.348258 756:0.855911 757:0.436508 811:0.231104 818:0.239437 826:0.206169 851:0.425442 854:0.270986 855:0.78042 856:0.605902 857:0.305398 911:0.200109 918:0.583145 926:0.331169 951:0.962719 954:0.636401 955:0.413146 956:0.395031 957:0.508116 
0.1 11:0.182225 18:0.891442 26:0.344974 51:0.85049 54:0.584906 55:0.329682 56:0.382409 57:0.516348 111:0.182225 118:0.840807 126:0.344974 151:0.842087 154:0.589852 155:0.303279 156:0.380489 157:0.521671 211:0.160984 218:0.627536 226:0.286934 251:0.872472 254:0.50803 255:0.331967 256:0.371241 257:0.43617 311:0.334086 318:0.407915 326:0.414495 351:0.696146 354:0.444638 355:0.349315 356:0.530275 357:0.853474 411:0.18228 418:0.572298 426:0.346154 451:0.974639 454:0.609381 455:0.389819 456:0.390183 457:0.532477 511:0.281038 518:0.279731 526:0.325444 551:0.491537 554:0.2905 555:0.425948 556:0.833489 557:0.342857 611:0.309819 618:0.30519 626:0.429417 651:0.518996 654:0.330365 655:0.355746 656:0.855914 657:0.448382 711:0.213115 718:0.237026 726:0.21129 751:0.438346 754:0.276222 755:0.782914 756:0.590415 757:0.321032 811:0.200109 818:0.606416 826:0.331169 851:0.945681 854:0.631214 855:0.410256 856:0.391024 857:0.508116 911:0.231104 918:0.230248 926:0.206169 951:0.433107 954:0.273213 955:0.785915 956:0.612112 957:0.305398 
0.1 11:0.182225 18:0.891442 26:0.344974 51:0.85049 54:0.584906 55:0.329682 56:0.382409 57:0.516348 111:0.160984 118:0.647235 126:0.303237 151:0.830127 154:0.508245 155:0.331967 156:0.371706 157:0.43617 211:0.340414 218:0.405797 226:0.385995 251:0.733831 254:0.467033 255:0.31398 256:0.528509 257:0.847124 311:0.18228 318:0.572298 326:0.359121 351:0.948307 354:0.63993 355:0.401512 356:0.39201 357:0.532477 411:0.281038 418:0.267123 426:0.302198 451:0.507775 454:0.252387 455:0.414813 456:0.833489 457:0.335347 511:0.309819 518:0.29469 526:0.429417 551:0.509147 554:0.330365 555:0.351307 556:0.865486 557:0.449421 611:0.214447 618:0.237026 626:0.242604 651:0.423144 654:0.280322 655:0.783977 656:0.600614 657:0.336287 711:0.180893 718:0.60031 726:0.335484 751:0.974364 754:0.645633 755:0.398596 756:0.367093 757:0.534127 811:0.231104 818:0.239437 826:0.206169 851:0.425442 854:0.270986 855:0.78042 856:0.605902 857:0.305398 911:0.346384 918:0.420617 926:0.386364 951:0.712986 954:0.452342 955:0.361268 956:0.532609 957:0.828992 
0.1 11:0.160984 18:0.686212 26:0.303237 51:0.83841 54:0.503983 55:0.357284 56:0.373581 57:0.429825 111:0.340414 118:0.418535 126:0.402044 151:0.698215 154:0.46723 155:0.31398 156:0.529172 157:0.847124 211:0.19005 218:0.562319 226:0.327925 251:0.988887 254:0.656382 255:0.364299 256:0.389724 257:0.512214 311:0.281038 318:0.267123 326:0.313518 351:0.494056 354:0.265039 355:0.427256 356:0.837391 357:0.335347 411:0.309819 418:0.282344 426:0.398744 451:0.526842 454:0.291407 455:0.342123 456:0.865486 457:0.439577 511:0.214447 518:0.228871 526:0.242604 551:0.415114 554:0.280322 555:0.774194 556:0.607331 557:0.337066 611:0.18228 618:0.60031 626:0.372781 651:0.940572 654:0.655216 655:0.405341 656:0.385868 657:0.543143 711:0.213115 718:0.237026 726:0.21129 751:0.438346 754:0.276222 755:0.782914 756:0.590415 757:0.321032 811:0.346384 818:0.437402 826:0.386364 851:0.700368 854:0.448655 855:0.358741 856:0.527206 857:0.828992 911:0.223491 918:0.355907 926:0.252435 951:0.597039 954:0.416598 955:0.297418 956:0.281677 957:0.838052 
0.1 11:0.340414 18:0.44374 26:0.402044 51:0.705182 54:0.463312 55:0.339978 56:0.531841 57:0.845694 111:0.19005 118:0.57997 126:0.344123 151:0.940891 154:0.65666 155:0.364299 156:0.390213 157:0.512214 211:0.28787 218:0.271739 226:0.280102 251:0.529422 254:0.292899 255:0.389117 256:0.836779 257:0.306541 311:0.309819 318:0.282344 326:0.413681 351:0.512608 354:0.306016 355:0.352385 356:0.869538 357:0.439577 411:0.214447 418:0.215373 426:0.225275 451:0.425028 454:0.242424 455:0.753956 456:0.607331 457:0.329683 511:0.18228 518:0.579656 526:0.372781 551:0.922722 554:0.655216 555:0.400283 556:0.390183 557:0.544402 611:0.214447 618:0.237026 626:0.242604 651:0.423144 654:0.280322 655:0.783977 656:0.600614 657:0.336287 711:0.332956 718:0.432998 726:0.390323 751:0.72161 754:0.45842 755:0.345111 756:0.508626 757:0.871429 811:0.223491 818:0.37011 826:0.252435 851:0.586473 854:0.413203 855:0.295338 856:0.27882 857:0.838052 911:0.200109 918:0.583145 926:0.331169 951:0.962719 954:0.636401 955:0.413146 956:0.395031 957:0.508116 
0.1 11:0.19005 18:0.614897 26:0.344123 51:0.95028 54:0.651153 55:0.38839 56:0.392182 57:0.506778 111:0.28787 118:0.280269 126:0.296422 151:0.503727 154:0.293023 155:0.389117 156:0.837829 157:0.306541 211:0.316378 218:0.286232 226:0.385141 251:0.548187 254:0.332629 255:0.31694 256:0.869048 257:0.415288 311:0.214447 318:0.215373 326:0.233713 351:0.413545 354:0.254577 355:0.776571 356:0.610175 357:0.329683 411:0.18228 418:0.572298 426:0.346154 451:0.974639 454:0.609381 455:0.389819 456:0.390183 457:0.532477 511:0.214447 518:0.228871 526:0.242604 551:0.415114 554:0.280322 555:0.774194 556:0.607331 557:0.337066 611:0.334086 618:0.432998 626:0.430262 651:0.696584 654:0.465225 655:0.352647 656:0.521966 657:0.87057 711:0.205201 718:0.366383 726:0.257258 751:0.604261 754:0.422064 755:0.279284 756:0.250479 757:0.880952 811:0.200109 818:0.606416 826:0.331169 851:0.945681 854:0.631214 855:0.410256 856:0.391024 857:0.508116 911:0.214791 918:0.465011 926:0.386364 951:0.899215 954:0.612983 955:0.359859 956:0.315528 957:0.562476 
0.1 11:0.28787 18:0.297147 26:0.296422 51:0.508754 54:0.290566 55:0.412267 56:0.842055 57:0.298644 111:0.316378 118:0.295217 126:0.401193 151:0.521581 154:0.33277 155:0.31694 156:0.870138 157:0.415288 211:0.221912 218:0.222464 226:0.196413 251:0.447987 254:0.282756 255:0.725865 256:0.608709 257:0.30063 311:0.18228 318:0.572298 326:0.359121 351:0.948307 354:0.63993 355:0.401512 356:0.39201 357:0.532477 411:0.214447 418:0.215373 426:0.225275 451:0.425028 454:0.242424 455:0.753956 456:0.607331 457:0.329683 511:0.334086 518:0.4181 526:0.430262 551:0.683365 554:0.465225 555:0.348246 556:0.527804 557:0.872587 611:0.206546 618:0.366383 626:0.290786 651:0.583304 654:0.428329 655:0.287792 656:0.273733 657:0.879815 711:0.180893 718:0.60031 726:0.335484 751:0.974364 754:0.645633 755:0.398596 756:0.367093 757:0.534127 811:0.214791 818:0.483568 826:0.386364 851:0.883301 854:0.607987 855:0.357343 856:0.312327 857:0.562476 911:0.318651 918:0.463506 926:0.510552 951:0.865323 954:0.550123 955:0.372535 956:0.417391 957:0.808985 
0.1 11:0.316378 18:0.312995 26:0.401193 51:0.526786 54:0.329979 55:0.342826 56:0.874527 57:0.408692 111:0.221912 118:0.229447 126:0.212947 151:0.426244 154:0.282875 155:0.725865 156:0.609473 157:0.30063 211:0.19005 218:0.562319 226:0.327925 251:0.988887 254:0.656382 255:0.364299 256:0.389724 257:0.512214 311:0.214447 318:0.215373 326:0.233713 351:0.413545 354:0.254577 355:0.776571 356:0.610175 357:0.329683 411:0.334086 418:0.407915 426:0.399529 451:0.715476 454:0.423412 455:0.339142 456:0.527804 457:0.853474 511:0.206546 518:0.353777 526:0.290786 551:0.572235 554:0.428329 555:0.284201 556:0.276794 557:0.881853 611:0.18228 618:0.60031 626:0.372781 651:0.940572 654:0.655216 655:0.405341 656:0.385868 657:0.543143 711:0.196156 718:0.478699 726:0.390323 751:0.910092 754:0.621814 755:0.343659 756:0.285304 757:0.59127 811:0.318651 818:0.482003 826:0.510552 851:0.850009 854:0.54564 855:0.36993 856:0.413157 857:0.808985 911:0.214791 918:0.465011 926:0.386364 951:0.899215 954:0.612983 955:0.359859 956:0.315528 957:0.562476 
0.01986126854315034 11:0.144774 18:0.27813 26:0.155877 51:0.418242 54:0.32327 55:0.171084 56:0.15826 57:0.79386 111:0.23924 118:0.210015 126:0.275128 151:0.412203 154:0.229175 155:0.224044 156:0.922522 157:0.316391 211:0.0911124 218:0.539855 226:0.181896 251:0.744034 254:0.404057 255:0.219035 256:0.254073 257:0.290386 311:0.132619 318:0.26484 326:0.166124 351:0.45317 354:0.266347 355:0.955598 356:0.395443 357:0.248867 411:0.229684 418:0.177321 426:0.274725 451:0.327656 454:0.173931 455:0.246274 456:0.961479 457:0.260196 511:0.510158 518:0.370232 526:0.60355 551:0.698752 554:0.396947 555:0.709913 556:0.430258 557:0.550193 611:0.160271 618:0.149497 626:0.170752 651:0.262287 654:0.180237 655:0.70124 656:0.646083 657:0.205701 711:0.506501 718:0.394268 726:0.370161 751:0.802491 754:0.655662 755:0.28364 756:0.565815 757:0.390873 811:0.131049 818:0.371674 826:0.180195 851:0.70212 854:0.447025 855:0.613986 856:0.213956 857:0.326161 911:0.134856 918:0.674191 926:0.181818 951:0.69158 954:0.561627 955:0.615728 956:0.250932 957:0.608532 
0.01278238461333496 11:0.23924 18:0.222662 26:0.275128 51:0.416317 54:0.227254 55:0.25345 56:0.927175 57:0.308612 111:0.0911124 118:0.556801 126:0.198467 151:0.707922 154:0.404228 155:0.219035 156:0.254391 157:0.290386 211:0.140861 218:0.269565 226:0.125534 251:0.488067 254:0.294167 255:0.898452 256:0.39317 257:0.216312 311:0.229684 318:0.177321 326:0.285016 351:0.318804 354:0.18265 355:0.253661 356:0.96598 357:0.260196 411:0.510158 418:0.359209 426:0.56044 451:0.732136 454:0.356579 455:0.691355 456:0.430258 457:0.538142 511:0.160271 518:0.144353 526:0.170752 551:0.257309 554:0.180237 555:0.692489 556:0.653308 557:0.206178 611:0.507336 618:0.394268 626:0.409129 651:0.77466 654:0.665394 655:0.292084 656:0.576959 657:0.404083 711:0.109101 718:0.367932 726:0.185484 751:0.723416 754:0.456749 755:0.610116 756:0.183067 757:0.342857 811:0.134856 818:0.701095 826:0.181818 851:0.679341 854:0.55705 855:0.611422 856:0.248386 857:0.608532 911:0.18869 918:0.258089 926:0.181818 951:0.437745 954:0.301972 955:0.219484 956:0.52795 957:0.801435 
0.0277753182280924 11:0.0911124 18:0.590333 26:0.198467 51:0.714986 54:0.400839 55:0.248631 56:0.255675 57:0.282297 111:0.140861 118:0.278027 126:0.142249 151:0.464379 154:0.294292 155:0.898452 156:0.393664 157:0.216312 211:0.237004 218:0.186232 226:0.250213 251:0.352159 254:0.213018 255:0.221767 256:0.965852 257:0.228132 311:0.510158 318:0.359209 326:0.581433 351:0.712356 354:0.374455 355:0.712093 356:0.432272 357:0.538142 411:0.160271 418:0.129376 426:0.158556 451:0.254165 454:0.144458 455:0.674387 456:0.653308 457:0.201662 511:0.507336 518:0.380703 526:0.409129 551:0.759959 554:0.665394 555:0.288439 556:0.583411 557:0.405019 611:0.110609 618:0.367932 626:0.215554 651:0.698327 654:0.463528 655:0.613734 656:0.208909 657:0.357473 711:0.113058 718:0.694036 726:0.187097 751:0.699946 754:0.569578 755:0.607454 756:0.21885 757:0.639683 811:0.18869 818:0.268388 826:0.181818 851:0.429998 854:0.299511 855:0.217949 856:0.522595 857:0.801435 911:0.140837 918:0.844244 926:0.410714 951:0.815555 954:0.54848 955:0.258685 956:0.36646 957:0.369573 
0.0242950428618956 11:0.140861 18:0.29477 26:0.142249 51:0.469013 54:0.291824 55:0.9023 56:0.395649 57:0.207337 111:0.237004 118:0.192078 126:0.26661 151:0.335067 154:0.213108 155:0.221767 156:0.967064 157:0.228132 211:0.514813 218:0.35942 226:0.561059 251:0.750228 254:0.398986 255:0.663707 256:0.430138 257:0.518125 311:0.160271 318:0.129376 326:0.164495 351:0.247298 354:0.1517 355:0.694615 356:0.656367 357:0.201662 411:0.507336 418:0.369863 426:0.379906 451:0.798408 454:0.619344 455:0.280899 456:0.583411 457:0.396148 511:0.110609 518:0.355273 526:0.215554 551:0.685074 554:0.463528 555:0.606075 556:0.211246 557:0.358301 611:0.11456 618:0.694036 626:0.217244 651:0.675671 654:0.578032 655:0.611111 656:0.243318 657:0.645609 711:0.169022 718:0.265686 726:0.187097 751:0.44304 754:0.305474 755:0.198935 756:0.503834 757:0.84246 811:0.140837 818:0.877934 826:0.410714 851:0.801121 854:0.54401 855:0.256876 856:0.362742 857:0.369573 911:0.144644 918:0.353649 926:0.237825 951:0.834641 954:0.843878 955:0.227934 956:0.248447 957:0.388826 
0.04824940849925494 11:0.237004 18:0.203645 26:0.26661 51:0.33841 54:0.211321 55:0.25126 56:0.971942 57:0.219298 111:0.514813 118:0.370703 126:0.576661 151:0.713815 154:0.399154 155:0.663707 156:0.430678 157:0.518125 211:0.16825 218:0.14058 226:0.123826 251:0.279832 254:0.183009 255:0.646858 256:0.655075 257:0.167061 311:0.507336 318:0.369863 326:0.394137 351:0.776837 354:0.650392 355:0.289325 356:0.586142 357:0.396148 411:0.110609 418:0.343988 426:0.200157 451:0.717327 454:0.421752 455:0.590232 456:0.211246 457:0.350453 511:0.11456 518:0.670157 526:0.217244 551:0.662848 554:0.578032 555:0.603485 556:0.246039 557:0.647104 611:0.170429 618:0.265686 626:0.217244 651:0.427675 654:0.310008 655:0.208631 656:0.517358 657:0.84245 711:0.119276 718:0.869094 726:0.414516 751:0.82542 754:0.556206 755:0.239351 756:0.3377 757:0.388492 811:0.144644 818:0.367762 826:0.237825 851:0.81987 854:0.837001 855:0.22634 856:0.245927 857:0.388826 911:0.230016 918:0.543266 926:0.73539 951:0.737246 954:0.41249 955:0.291549 956:0.447205 957:0.660627 
0.1 11:0.514813 18:0.393027 26:0.576661 51:0.720938 54:0.395807 55:0.676451 56:0.43285 57:0.512759 111:0.16825 118:0.144993 126:0.140545 151:0.266251 154:0.183087 155:0.646858 156:0.655897 157:0.167061 211:0.512018 218:0.369565 226:0.364646 251:0.815449 254:0.666526 255:0.256148 256:0.584586 257:0.369976 311:0.110609 318:0.343988 326:0.207655 351:0.697947 354:0.442895 355:0.607936 356:0.212235 357:0.350453 411:0.11456 418:0.664384 426:0.201727 451:0.693262 454:0.533831 455:0.587709 456:0.246039 457:0.632931 511:0.170429 518:0.256545 526:0.217244 551:0.419559 554:0.310008 555:0.206028 556:0.523144 557:0.844402 611:0.120767 618:0.869094 626:0.455621 651:0.796793 654:0.564461 655:0.24845 656:0.357604 657:0.401772 711:0.123233 718:0.364059 726:0.242742 751:0.844737 754:0.856665 755:0.207648 756:0.216294 757:0.40873 811:0.230016 818:0.564945 826:0.73539 851:0.724198 854:0.409128 855:0.28951 856:0.442668 857:0.660627 911:0.193583 918:0.543266 926:0.244318 951:0.859615 954:0.440016 955:0.403991 956:0.63323 957:0.387316 
0.1 11:0.16825 18:0.153724 26:0.140545 51:0.268908 54:0.181551 55:0.660241 56:0.659206 57:0.157496 111:0.512018 118:0.381166 126:0.38075 151:0.775871 154:0.666808 155:0.256148 156:0.58532 157:0.369976 211:0.119061 218:0.344928 226:0.169086 251:0.735653 254:0.465342 255:0.563297 256:0.209273 257:0.322301 311:0.11456 318:0.664384 326:0.209283 351:0.674532 354:0.560593 355:0.605338 356:0.247191 357:0.632931 411:0.170429 418:0.243531 426:0.201727 451:0.429841 454:0.271482 455:0.200642 456:0.523144 457:0.825906 511:0.120767 518:0.839192 526:0.455621 551:0.781672 554:0.564461 555:0.24535 556:0.361603 557:0.402703 611:0.124718 618:0.364059 626:0.275571 651:0.815441 654:0.869381 655:0.217215 656:0.24086 657:0.421418 711:0.211984 718:0.559256 726:0.737097 751:0.746164 754:0.417885 755:0.273233 756:0.420767 757:0.694444 811:0.193583 818:0.564945 826:0.244318 851:0.844402 854:0.43643 855:0.401166 856:0.626806 857:0.387316 911:0.169114 918:0.231001 926:0.172078 951:0.508562 954:0.430156 955:0.784038 956:0.454348 957:0.357871 
0.0150951024462906 11:0.122415 18:0.740887 26:0.279387 51:0.704307 54:0.274214 55:0.1954 56:0.552648 57:0.710526 111:0.0911124 118:0.185351 126:0.543441 151:0.427284 154:0.30148 155:0.130464 156:0.110728 157:0.813239 211:0.514254 218:0.180435 226:0.467976 251:0.568774 254:0.200761 255:0.30806 256:0.493108 257:0.576044 311:0.112867 318:0.380518 326:0.614007 351:0.615274 354:0.245859 355:0.458432 356:0.680712 357:0.386707 411:0.110045 418:0.194825 426:0.394035 451:0.496113 454:0.191366 455:0.0639762 456:0.171171 457:0.916541 511:0.0919865 518:0.368736 526:0.415892 551:0.56437 554:0.38592 555:0.633859 556:0.775707 557:0.316602 611:0.121896 618:0.233153 626:0.204565 651:0.370861 654:0.265903 655:0.546257 656:0.869432 657:0.156009 711:0.0915772 718:0.667699 726:0.604032 751:0.877415 754:0.625575 755:0.276621 756:0.423642 757:0.415873 811:0.163132 818:0.143975 826:0.13961 851:0.278255 854:0.143439 855:0.515152 856:0.810636 857:0.220083 911:0.109299 918:0.564334 926:0.61039 951:0.74563 954:0.824569 955:0.199296 956:0.466149 957:0.457154 
0.02674101353244008 11:0.0911124 18:0.196513 26:0.543441 51:0.431548 54:0.298952 55:0.163417 56:0.111286 57:0.811404 111:0.514254 118:0.186099 126:0.483816 151:0.541168 154:0.200846 155:0.30806 156:0.493726 157:0.576044 211:0.121297 218:0.37971 226:0.595218 251:0.652031 254:0.274303 255:0.419171 256:0.679511 257:0.360126 311:0.110045 318:0.194825 326:0.408795 351:0.482709 354:0.200959 355:0.0658951 356:0.171973 357:0.916541 411:0.0919865 418:0.357686 426:0.386185 451:0.586635 454:0.345787 455:0.61729 456:0.775707 457:0.309668 511:0.121896 518:0.225131 526:0.204565 551:0.363823 554:0.265903 555:0.53944 556:0.879155 557:0.156371 611:0.0931151 618:0.667699 626:0.654269 651:0.846985 654:0.63486 655:0.285169 656:0.440246 657:0.428351 711:0.142453 718:0.142525 726:0.145161 751:0.286694 754:0.145424 755:0.507502 756:0.803195 757:0.231349 811:0.109299 818:0.586854 826:0.61039 851:0.732434 854:0.817848 855:0.197902 856:0.46142 857:0.457154 911:0.0842849 918:0.376975 926:0.0827922 951:0.575455 954:0.551767 955:0.0767606 956:0.0714286 957:0.730087 
0.0283410959927138 11:0.514254 18:0.197306 26:0.483816 51:0.546569 54:0.199161 55:0.334283 56:0.496217 57:0.571372 111:0.121297 118:0.391629 126:0.610733 151:0.620385 154:0.274419 155:0.419171 156:0.680364 157:0.360126 211:0.118502 218:0.202899 226:0.380017 251:0.517945 254:0.230769 255:0.0407559 256:0.16886 257:0.912924 311:0.0919865 318:0.357686 326:0.400651 351:0.570785 354:0.363121 355:0.635805 356:0.779338 357:0.309668 411:0.121896 418:0.211568 426:0.189953 451:0.369493 454:0.228311 455:0.525338 456:0.879155 457:0.152946 511:0.0931151 518:0.644727 526:0.654269 551:0.830911 554:0.63486 555:0.281611 556:0.445169 557:0.429344 611:0.143905 618:0.142525 626:0.173288 651:0.276751 654:0.147583 655:0.512637 656:0.805223 657:0.24923 711:0.0864895 718:0.580945 726:0.612903 751:0.754649 754:0.837025 755:0.178122 756:0.440256 757:0.480556 811:0.0842849 818:0.392019 826:0.0827922 851:0.565271 854:0.54727 855:0.0762238 856:0.070704 857:0.730087 911:0.516041 918:0.551543 926:0.164773 951:0.780771 954:0.670912 955:0.128169 956:0.463354 957:0.663647 
0.03526870145518091 11:0.121297 18:0.415214 26:0.610733 51:0.626576 54:0.272117 55:0.441183 56:0.683796 57:0.352871 111:0.118502 118:0.209268 126:0.396082 151:0.492806 154:0.230867 155:0.0407559 156:0.169072 157:0.912924 211:0.100615 218:0.357971 226:0.371477 251:0.607032 254:0.387997 255:0.590164 256:0.778509 257:0.279748 311:0.121896 318:0.211568 326:0.197068 351:0.35951 354:0.239756 355:0.541096 356:0.883271 357:0.152946 411:0.0931151 418:0.638508 426:0.607535 451:0.875231 454:0.589456 455:0.274249 456:0.445169 457:0.41994 511:0.143905 518:0.137622 526:0.173288 551:0.271499 554:0.147583 555:0.50624 556:0.814228 557:0.249807 611:0.0880361 618:0.580945 626:0.663567 651:0.728477 654:0.849449 655:0.188126 656:0.456221 657:0.49114 711:0.0604862 718:0.388071 726:0.0887097 751:0.582416 754:0.559549 755:0.0517909 756:0.0341853 757:0.76746 811:0.516041 818:0.573552 826:0.164773 851:0.766953 854:0.665444 855:0.127273 856:0.458654 857:0.663647 911:0.135943 918:0.631302 926:0.418831 951:0.791295 954:0.640099 955:0.430047 956:0.338509 957:0.635334 
0.02133037967358813 11:0.365567 18:0.570523 26:0.337308 51:0.66369 54:0.366876 55:0.220372 56:0.558008 57:0.787081 111:0.229178 118:0.201794 126:0.472743 151:0.436297 154:0.27611 155:0.053051 156:0.263488 157:0.999606 211:0.0374511 218:0.221739 226:0.101623 251:0.689925 254:0.862637 255:0.53643 256:0.220865 257:0.326635 311:0.0609481 318:0.152968 326:0.0806189 351:0.320965 354:0.386225 355:0.0396788 356:0.0402622 357:0.77719 411:0.139955 418:0.122527 426:0.133438 451:0.424287 454:0.109589 455:0.352442 456:0.836285 457:0.126888 511:0.286682 518:0.23261 526:0.649197 551:0.41802 554:0.377439 555:0.141276 556:0.480584 557:0.735135 611:0.0942438 618:0.0836561 626:0.0600169 651:0.139944 654:0.114928 655:0.772055 656:0.419048 657:0.0924499 711:0.131148 718:0.127808 726:0.272581 751:0.305831 754:0.21145 755:0.537996 756:0.735463 757:0.318254 811:0.159869 818:0.0938967 826:0.112013 851:0.181356 854:0.091687 855:0.288112 856:0.980941 857:0.0921102 911:0.289831 918:0.296464 926:0.362825 951:0.455227 954:0.244864 955:0.215728 956:0.515217 957:0.835787 
0.02013018056089014 11:0.229178 18:0.213946 26:0.472743 51:0.440651 54:0.273795 55:0.0889376 56:0.264817 57:1 111:0.0374511 118:0.2287 126:0.118399 151:0.65644 154:0.863002 155:0.53643 156:0.221142 157:0.326635 211:0.0698714 218:0.163043 226:0.0358668 251:0.354345 254:0.410397 255:0.0154827 256:0.0366541 257:0.767533 311:0.139955 318:0.122527 326:0.138436 351:0.412824 354:0.115083 355:0.363014 356:0.8402 357:0.126888 411:0.286682 418:0.219178 426:0.602826 451:0.428175 454:0.337484 455:0.137583 456:0.480584 457:0.719033 511:0.0942438 518:0.0807779 526:0.0600169 551:0.137288 554:0.114928 555:0.762421 556:0.423734 557:0.0926641 611:0.132619 618:0.127808 626:0.306847 651:0.295225 654:0.214589 655:0.54268 656:0.740092 657:0.33359 711:0.139062 718:0.0929512 726:0.117742 751:0.186857 754:0.0923527 755:0.271781 756:0.980192 757:0.0968254 811:0.289831 818:0.308294 826:0.362825 851:0.44717 854:0.242869 855:0.214219 856:0.509991 857:0.835787 911:0.0989668 918:0.27389 926:0.135552 951:0.694435 954:0.273624 955:0.149061 956:0.261491 957:0.469234 
0.01832555563114541 11:0.0374511 18:0.242472 26:0.118399 51:0.66299 54:0.855765 55:0.553998 56:0.222257 57:0.318979 111:0.0698714 118:0.168161 126:0.0528109 151:0.337147 154:0.410571 155:0.0154827 156:0.0367001 157:0.767533 211:0.148127 218:0.134058 226:0.0964987 251:0.447258 254:0.147506 255:0.327186 256:0.839599 257:0.0890465 311:0.286682 318:0.219178 326:0.625407 351:0.416607 354:0.354403 355:0.14171 356:0.482834 357:0.719033 411:0.0942438 418:0.064688 426:0.05573 451:0.124213 454:0.0805313 455:0.74249 456:0.423734 457:0.0906344 511:0.132619 518:0.123411 526:0.306847 551:0.289622 554:0.214589 555:0.535908 556:0.748369 557:0.334363 611:0.140519 618:0.0929512 626:0.144548 651:0.180376 654:0.0937235 655:0.280401 656:0.975422 657:0.118644 711:0.274166 718:0.30519 726:0.366935 751:0.460733 754:0.247388 755:0.195063 756:0.490735 757:0.878571 811:0.0989668 818:0.28482 826:0.135552 851:0.682145 854:0.271394 855:0.148019 856:0.258838 857:0.469234 911:0.177814 918:0.237773 926:0.603896 951:0.708527 954:0.518488 955:0.478404 956:0.66118 957:0.495659 
