svm_type c_svc
kernel_type rbf
gamma 0.1
nr_class 2
total_sv 599
rho -1.1449
label 1 0
probA -8.27677
probB 6.7444
nr_sv 321 278
SV
0.1 10:0.186301 11:0.146462 12:0.154372 13:0.226075 15:0.149466 17:0.30858 18:0.216088 19:0.367232 20:0.267936 21:0.180859 22:0.138852 23:0.23779 24:0.219853 25:0.155979 26:0.163315 27:0.377463 55:0.954189 110:0.337925 111:0.22655 112:0.217896 113:0.262829 115:0.175832 117:0.534009 118:0.331794 119:0.40671 120:0.290492 121:0.22262 122:0.219124 123:0.240618 124:0.230513 125:0.31178 126:0.801287 127:0.877857 155:0.318671 210:0.485741 211:0.185412 212:0.493161 213:0.330421 215:0.389006 217:0.416064 218:0.593014 219:0.413079 220:0.542025 221:0.351034 222:0.25411 223:0.451773 224:0.453975 225:0.509922 226:0.688091 227:0.493947 255:0.366218 310:0.275281 311:0.103563 312:0.74715 313:0.492454 315:0.605356 317:0.150178 318:0.636816 319:0.256844 320:0.150275 321:0.723188 322:0.427491 323:0.367376 324:0.361925 325:0.347571 326:0.179293 327:0.1968 355:0.206615 410:0.465778 411:0.126949 412:0.511066 413:0.581144 415:0.325532 417:0.195636 418:0.426905 419:0.373746 420:0.419558 421:0.621223 422:0.744311 423:0.399431 424:0.517434 425:0.484668 426:0.19104 427:0.251864 455:0.227685 510:0.293907 511:0.243612 512:0.362173 513:0.650546 515:0.437589 517:0.141818 518:0.744699 519:0.203187 520:0.371141 521:0.606602 522:0.58166 523:0.433547 524:0.611886 525:0.424242 526:0.289792 527:0.145746 555:0.30371 610:0.285449 611:0.147643 612:0.285714 613:0.246951 615:0.425562 617:0.683591 618:0.426656 619:0.661719 620:0.596554 621:0.164374 622:0.382174 623:0.377399 624:0.173881 625:0.297569 626:0.302485 627:0.769424 655:0.363308 710:0.205693 711:0.122636 712:0.449363 713:0.360294 715:0.197163 717:0.470412 718:0.428259 719:0.427108 720:0.376167 721:0.365887 722:0.316754 723:0.411805 724:0.737976 725:0.599149 726:0.582155 727:0.246189 755:0.522962 810:0.204348 811:0.11493 812:0.147017 813:0.311369 815:0.149823 817:0.427774 818:0.319149 819:0.327817 820:0.46126 821:0.15059 822:0.389644 823:0.490134 824:0.520567 825:0.40084 826:0.257589 827:0.511433 855:0.765829 910:0.408971 911:0.0811268 912:0.648443 913:0.868211 915:0.450596 917:0.137336 918:0.429914 919:0.168232 920:0.301242 921:0.384455 922:0.235636 923:0.643928 924:0.424628 925:0.288235 926:0.214224 927:0.143825 955:0.161905 1900:0.875 2000:1 
0.1 10:0.336073 11:0.22655 12:0.217896 13:0.262829 15:0.189324 17:0.535689 18:0.339905 19:0.414851 20:0.324305 21:0.235749 22:0.220294 23:0.261809 24:0.230513 25:0.319757 26:0.801287 27:0.877857 55:0.326556 110:0.520661 111:0.182666 112:0.471311 113:0.339112 115:0.372648 117:0.416064 118:0.604311 119:0.414075 120:0.54623 121:0.326414 122:0.288845 123:0.511405 124:0.478348 125:0.527901 126:0.630732 127:0.48227 155:0.381066 210:0.331187 211:0.103563 212:0.802016 213:0.492454 215:0.605356 217:0.141823 218:0.623883 219:0.264073 220:0.119788 221:0.688276 222:0.429452 223:0.367376 224:0.361925 225:0.327869 226:0.201323 227:0.224374 255:0.196083 310:0.42603 311:0.126949 312:0.511066 313:0.597299 315:0.323467 317:0.191459 318:0.455224 319:0.359903 320:0.418568 321:0.61087 322:0.737457 323:0.400709 324:0.517434 325:0.4933 326:0.194444 327:0.2432 355:0.227685 410:0.291556 411:0.258352 412:0.362173 413:0.644513 415:0.437589 417:0.154182 418:0.682737 419:0.213211 420:0.407729 421:0.649963 422:0.58166 423:0.433547 424:0.58159 425:0.417376 426:0.306002 427:0.159901 455:0.311282 510:0.30914 511:0.147643 512:0.285714 513:0.25273 515:0.429787 517:0.666182 518:0.458863 519:0.65498 520:0.596554 521:0.164374 522:0.38755 523:0.377399 524:0.173881 525:0.294613 526:0.295848 527:0.767481 555:0.345167 610:0.206673 611:0.116979 612:0.449363 613:0.379573 615:0.195225 617:0.479765 618:0.444795 619:0.430469 620:0.376167 621:0.365887 622:0.295071 623:0.390903 624:0.762289 625:0.584241 626:0.517566 627:0.283208 655:0.46866 710:0.151515 711:0.116905 712:0.138162 713:0.300735 715:0.148227 717:0.453184 718:0.304443 719:0.327817 720:0.465901 721:0.158184 722:0.382853 723:0.435827 724:0.514716 725:0.393191 726:0.243816 727:0.511433 755:0.886992 810:0.404348 811:0.0811268 812:0.665483 813:0.868211 815:0.454417 817:0.127704 818:0.417173 819:0.162333 820:0.280956 821:0.384455 822:0.236246 823:0.678769 824:0.423404 825:0.288235 826:0.214224 827:0.133384 855:0.192859 910:0.246262 911:0.12507 912:0.175087 913:0.406951 915:0.152768 917:0.31815 918:0.192639 919:0.510955 920:0.251553 921:0.251908 922:0.151065 923:0.206897 924:0.181175 925:0.273109 926:0.228968 927:0.30497 955:0.833333 1900:0.875 2000:1 
0.1 10:0.517808 11:0.182666 12:0.471311 13:0.339112 15:0.382918 17:0.418169 18:0.619085 19:0.422115 20:0.60981 21:0.33779 22:0.290387 23:0.556445 24:0.478348 25:0.531196 26:0.630732 27:0.48227 55:0.390495 110:0.366391 111:0.10203 112:0.764344 113:0.480583 115:0.59479 117:0.141823 118:0.633564 119:0.266776 120:0.127869 121:0.67645 122:0.458831 123:0.423841 124:0.390406 125:0.34101 126:0.216412 127:0.21907 155:0.214918 210:0.479301 211:0.126949 212:0.548596 213:0.597299 215:0.323467 217:0.183792 218:0.445979 219:0.370033 220:0.345467 221:0.581379 222:0.738356 223:0.400709 224:0.517434 225:0.477998 226:0.218336 227:0.271186 255:0.218849 310:0.242509 311:0.258352 312:0.362173 313:0.662431 315:0.434813 317:0.15089 318:0.728027 319:0.205314 320:0.406766 321:0.63913 322:0.570447 323:0.434752 324:0.58159 325:0.427136 326:0.308923 327:0.1544 355:0.311282 410:0.306667 411:0.164254 412:0.285714 413:0.250386 415:0.429787 417:0.678545 418:0.420684 419:0.687291 420:0.655363 421:0.176124 422:0.38755 423:0.377399 424:0.165272 425:0.286201 426:0.311919 427:0.771334 455:0.352288 510:0.232975 511:0.116979 512:0.449363 513:0.388456 515:0.197163 517:0.464727 518:0.478372 519:0.419124 520:0.376167 521:0.365887 522:0.301205 523:0.390903 524:0.762289 525:0.582492 526:0.512976 527:0.277169 555:0.445259 610:0.151993 611:0.1113 612:0.138162 613:0.317835 615:0.14677 617:0.46284 618:0.310726 619:0.332031 620:0.465901 621:0.158184 622:0.363268 623:0.415778 624:0.534116 625:0.381391 626:0.189374 627:0.573935 655:0.833655 710:0.362718 711:0.0825215 712:0.627767 713:0.866176 715:0.453901 717:0.131086 718:0.398398 719:0.162333 720:0.28715 721:0.389959 722:0.227749 723:0.599863 724:0.416368 725:0.279149 726:0.199647 727:0.133384 755:0.223371 810:0.243478 811:0.12507 812:0.179688 813:0.406951 815:0.154064 817:0.310537 818:0.18693 819:0.507486 820:0.234613 821:0.251908 822:0.151456 823:0.218627 824:0.179433 825:0.273109 826:0.228968 827:0.296494 855:0.778285 910:0.247142 911:0.983662 912:0.0622837 913:0.0275163 915:0.138753 917:0.225673 918:0.0524667 919:0.245696 920:0.157609 921:0.0936849 922:0.108457 923:0.0547226 924:0.0283086 925:0.202521 926:0.190807 927:0.232681 955:0.243333 1900:1 2000:1 
0.1 10:0.432877 11:0.224355 12:0.459016 13:0.441054 15:0.799288 17:0.346071 18:0.541798 19:0.388216 20:0.257687 21:0.454609 22:0.326435 23:0.470777 24:0.43571 25:0.406412 26:0.299276 27:0.347518 55:0.410338 110:0.395776 111:0.231487 112:0.405055 113:0.48613 115:0.552822 117:0.373372 118:0.388761 119:0.351064 120:0.40459 121:0.415891 122:0.671315 123:0.413539 124:0.346436 125:0.61736 126:0.465809 127:0.390071 155:0.472866 210:0.469181 211:0.223831 212:0.381569 213:0.46386 215:0.42988 217:0.395803 218:0.484159 219:0.474338 220:0.475182 221:0.384138 222:0.330822 223:0.417021 224:0.555091 225:0.376186 226:0.432892 227:0.45117 255:0.705508 310:0.307116 311:0.160356 312:0.51442 313:0.488483 315:0.371388 317:0.317438 318:0.60199 319:0.334138 320:0.415421 321:0.692029 322:0.285223 323:0.634752 324:0.495119 325:0.553601 326:0.436869 327:0.3504 355:0.300634 410:0.238222 411:0.124722 412:0.809524 413:0.525502 415:0.707801 417:0.323636 418:0.3507 419:0.190635 420:0.18612 421:0.676492 422:0.18407 423:0.264392 424:0.31311 425:0.334753 426:0.180896 427:0.20464 455:0.221568 510:0.339606 511:0.285633 512:0.267606 513:0.304212 515:0.19078 517:0.585455 518:0.829517 519:0.309163 520:0.368988 521:0.308116 522:0.274431 523:0.297797 524:0.757887 525:0.272727 526:0.262976 527:0.696714 555:0.274393 610:0.151993 611:0.244179 612:0.180416 613:0.195884 615:0.153792 617:0.284032 618:0.238959 619:0.264844 620:0.236181 621:0.162311 622:0.942606 623:0.228856 624:0.415994 625:0.227158 626:0.538132 627:0.303258 655:0.0916104 710:0.488522 711:0.257307 712:0.336016 713:0.344853 715:0.213475 717:0.631461 718:0.577567 719:0.57762 720:0.326633 721:0.331499 722:0.185864 723:0.31709 724:0.36827 725:0.605957 726:0.469965 727:0.621189 755:0.340466 810:0.413913 811:0.28338 812:0.522017 813:0.647357 815:0.201413 817:0.23238 818:0.774316 819:0.352246 820:0.209269 821:0.442054 822:0.350162 823:0.549329 824:0.357447 825:0.457143 826:0.518647 827:0.310213 855:0.376791 910:0.366755 911:0.063662 912:0.714187 913:0.5105 915:0.210932 917:0.173913 918:0.640564 919:0.244131 920:0.404503 921:0.383067 922:0.772757 923:0.395052 924:0.384289 925:0.321849 926:0.400694 927:0.167169 955:0.224048 1900:0.75 2000:1 
0.1 10:0.393607 11:0.231487 12:0.405055 13:0.48613 15:0.560142 17:0.375631 18:0.398265 19:0.359968 20:0.451684 21:0.425757 22:0.6749 23:0.44996 24:0.346436 25:0.618718 26:0.465809 27:0.390071 55:0.484566 110:0.504132 111:0.220516 112:0.365437 113:0.455617 115:0.414616 117:0.395803 118:0.501155 119:0.474632 120:0.48 121:0.360773 122:0.363214 123:0.47535 124:0.57495 125:0.390611 126:0.413516 127:0.440504 155:0.712407 210:0.362466 211:0.160356 212:0.552196 213:0.488483 215:0.371388 217:0.311867 218:0.589764 219:0.343543 220:0.342819 221:0.658621 222:0.287671 223:0.634752 224:0.495119 225:0.540121 226:0.490548 227:0.379338 255:0.297674 310:0.18633 311:0.124722 312:0.809524 313:0.540111 315:0.703312 317:0.316726 318:0.373964 319:0.183575 320:0.185681 321:0.665217 322:0.162199 323:0.265957 324:0.31311 325:0.345896 326:0.184343 327:0.1976 355:0.221568 410:0.336889 411:0.299555 412:0.267606 413:0.301391 415:0.19078 417:0.597818 418:0.760498 419:0.324415 420:0.405363 421:0.33014 422:0.274431 423:0.297797 424:0.720363 425:0.264055 426:0.279797 427:0.70174 455:0.282284 510:0.180108 511:0.244179 512:0.180416 513:0.200468 515:0.155319 517:0.271273 518:0.256997 519:0.250199 520:0.236181 521:0.162311 522:0.943106 523:0.228856 524:0.415994 525:0.223906 526:0.533737 527:0.297388 555:0.0870362 610:0.492122 611:0.250426 612:0.336016 613:0.363567 615:0.211376 617:0.637969 618:0.606467 619:0.579688 620:0.326633 621:0.331499 622:0.160027 623:0.292822 624:0.384446 625:0.590947 626:0.40874 627:0.694236 655:0.28568 710:0.372819 711:0.288252 712:0.492287 713:0.641912 715:0.2 717:0.243446 718:0.740714 719:0.352246 720:0.21608 721:0.447043 722:0.342932 723:0.487303 724:0.349605 725:0.450213 726:0.509717 727:0.310213 755:0.436403 810:0.362609 811:0.063662 812:0.732955 813:0.5105 815:0.212721 817:0.164689 818:0.621581 819:0.238771 820:0.377263 821:0.383067 822:0.774757 823:0.416732 824:0.382979 825:0.321849 826:0.400694 827:0.157012 855:0.247042 910:0.297274 911:0.493521 912:0.416609 913:0.118755 915:0.152067 917:0.78882 918:0.100235 919:0.417058 920:0.254658 921:0.104788 922:0.187863 923:0.272114 924:0.0764331 925:0.242017 926:0.455334 927:0.847892 955:0.276667 1900:0.625 2000:1 
0.1 10:0.50137 11:0.220516 12:0.365437 13:0.455617 15:0.424199 17:0.397981 18:0.513407 19:0.48184 20:0.535871 21:0.371569 22:0.365154 23:0.517214 24:0.57495 25:0.39688 26:0.413516 27:0.440504 55:0.730034 110:0.397612 111:0.157981 112:0.527322 113:0.477115 115:0.354559 117:0.311867 118:0.601232 119:0.345336 120:0.348852 121:0.645669 122:0.321381 123:0.701251 124:0.517655 125:0.558902 126:0.462591 127:0.37037 155:0.314129 210:0.24379 211:0.124722 212:0.86897 213:0.540111 215:0.703312 217:0.311143 218:0.366369 219:0.188742 220:0.14957 221:0.633103 222:0.165068 223:0.265957 224:0.31311 225:0.326143 226:0.206994 227:0.225182 255:0.21224 310:0.290262 311:0.299555 312:0.267606 313:0.30977 315:0.18957 317:0.585053 318:0.810945 319:0.312399 320:0.404406 321:0.324638 322:0.254983 323:0.299291 324:0.720363 325:0.276382 326:0.282828 327:0.6776 355:0.282284 410:0.178667 411:0.258909 412:0.180416 413:0.198609 415:0.155319 417:0.283636 418:0.235614 419:0.262542 420:0.259464 421:0.173913 422:0.943106 423:0.228856 424:0.395397 425:0.214651 426:0.544379 427:0.309031 455:0.0969642 510:0.508961 511:0.250426 512:0.336016 513:0.372075 515:0.213475 517:0.621091 518:0.652248 519:0.571315 520:0.326633 521:0.331499 522:0.167336 523:0.292822 524:0.384446 525:0.589226 526:0.403114 527:0.69166 555:0.271415 610:0.375348 611:0.28109 612:0.492287 613:0.671494 615:0.198034 617:0.256806 618:0.783123 619:0.35625 620:0.21608 621:0.447043 622:0.32208 623:0.469083 624:0.365371 625:0.437552 626:0.447301 627:0.353383 655:0.381871 710:0.318641 711:0.0647564 712:0.691482 713:0.502941 715:0.211348 717:0.170787 718:0.594319 719:0.238771 720:0.382627 721:0.388583 722:0.772251 723:0.371997 724:0.375449 725:0.313191 726:0.389576 727:0.157012 755:0.286126 810:0.293913 811:0.493521 812:0.427557 813:0.118755 815:0.153357 817:0.786462 818:0.0972644 819:0.412924 820:0.237509 821:0.104788 822:0.18835 823:0.287293 824:0.0744681 825:0.242017 826:0.455334 827:0.846037 855:0.292921 910:0.296394 911:0.16507 912:0.1391 913:0.305576 915:0.19131 917:0.614217 918:0.767424 919:0.395149 920:0.295031 921:0.212353 922:0.129116 923:0.283358 924:0.547771 925:0.219328 926:0.61752 927:0.748494 955:0.311429 1900:0.625 2000:1 
0.07591708260503839 10:0.277626 11:0.122874 12:0.827869 13:0.522191 15:0.700356 17:0.313627 18:0.399054 19:0.20339 20:0.175695 21:0.625616 22:0.203605 23:0.346677 24:0.343771 25:0.34662 26:0.221239 27:0.219858 55:0.236404 110:0.381084 111:0.295118 112:0.275956 113:0.321082 115:0.167873 117:0.583936 118:0.795227 119:0.323241 120:0.339672 121:0.282749 122:0.292165 123:0.353201 124:0.732845 125:0.265722 126:0.315366 127:0.692671 155:0.294765 210:0.182153 211:0.258909 212:0.193665 213:0.20413 215:0.154334 217:0.271346 218:0.246141 219:0.259934 220:0.211118 221:0.162759 222:0.941781 223:0.230496 224:0.395397 225:0.204487 226:0.613422 227:0.326877 255:0.077601 310:0.467228 311:0.265033 312:0.336016 313:0.378872 315:0.212121 317:0.619929 318:0.637645 319:0.577295 320:0.357986 321:0.349275 322:0.145017 323:0.294326 324:0.365411 325:0.59129 326:0.419192 327:0.6728 355:0.279338 410:0.392889 411:0.2951 412:0.492287 413:0.680835 415:0.2 417:0.256727 418:0.772162 419:0.360368 420:0.237382 421:0.478998 422:0.327979 423:0.469083 424:0.34728 425:0.42845 426:0.454776 427:0.358741 455:0.369733 510:0.34319 511:0.0596252 512:0.691482 513:0.539782 515:0.211348 517:0.173818 518:0.671756 519:0.228685 520:0.382627 521:0.388583 522:0.767068 523:0.34968 524:0.391783 525:0.299663 526:0.324394 527:0.178602 555:0.219652 610:0.247451 611:0.492902 612:0.403085 613:0.115091 615:0.150281 617:0.84106 618:0.0804416 619:0.416406 620:0.244078 621:0.112792 622:0.153275 623:0.23312 624:0.0726339 625:0.222967 626:0.384747 627:0.940685 655:0.284474 710:0.245179 711:0.167908 712:0.134138 713:0.294853 715:0.191489 717:0.648689 718:0.712309 719:0.390859 720:0.281407 721:0.219395 722:0.119764 723:0.269732 724:0.541278 725:0.209362 726:0.610424 727:0.745427 755:0.374369 810:0.0973913 811:0.11493 812:0.0348011 813:0.0115858 817:1 818:0.0258359 819:0.474389 820:0.479363 821:0.00693963 822:0.0627832 823:0.0165746 824:0.0070922 825:0.121008 826:0.210755 827:0.567073 855:0.129334 910:0.612137 911:0.179718 912:0.305882 913:0.602462 915:0.142256 917:0.536232 918:0.471417 919:0.589202 920:0.388199 921:0.369188 922:0.189154 923:0.35907 924:0.402689 925:0.50084 926:0.587164 927:0.555723 955:0.29 1900:0.625 2000:1 
0.1 10:0.369863 11:0.0877674 12:0.377049 13:0.927184 15:0.149466 17:0.438356 18:0.350158 19:0.440678 20:0.541728 21:0.347643 22:0.195594 23:0.428343 24:0.26449 25:0.221837 26:0.186645 27:0.559496 55:0.163645 110:0.343434 111:0.0954471 112:0.375683 113:0.36061 115:0.153401 117:0.121563 118:0.240955 119:0.117021 120:0.082623 121:0.147459 122:0.972112 123:0.210449 124:0.163891 125:0.332152 126:0.391794 127:0.161545 155:0.297155 210:0.540938 211:0.101893 212:0.439165 213:0.899126 215:0.262861 217:0.361071 218:0.562145 219:0.447848 220:0.159497 221:0.251724 222:0.369863 223:0.377305 224:0.539749 225:0.35893 226:0.228733 227:0.337369 255:0.231579 310:0.2397 311:0.0835189 312:0.566734 313:0.925338 315:0.273432 317:0.242705 318:0.567164 319:0.334944 320:0.165224 321:0.354348 322:0.156701 323:0.429787 324:0.291492 325:0.497487 326:0.274411 327:0.3016 355:0.449705 410:0.133333 411:0.0963252 412:0.58216 413:0.441267 415:0.312057 417:0.186909 418:0.253499 419:0.369565 420:0.166404 421:0.94031 422:0.134538 423:0.367448 424:0.402371 425:0.374787 426:0.303466 427:0.404308 455:0.473267 510:0.137097 511:0.417944 512:0.0610329 513:0.0772231 515:0.0574468 517:0.722909 518:0.0831213 519:0.92749 520:0.501077 521:0.0618982 522:0.0756359 523:0.0732054 524:0.0997799 525:0.18771 526:0.102941 527:0.593092 555:0.176134 610:0.381835 611:0.132879 612:0.663984 613:0.510671 615:0.313904 617:0.384106 618:0.380915 619:0.647656 620:0.390524 621:0.590784 622:0.16813 623:0.444208 624:0.348496 625:0.434199 626:0.466153 627:0.453634 655:0.261813 710:0.434343 711:0.85788 712:0.711603 713:0.514706 715:0.207092 717:0.161798 718:0.19228 719:0.166273 720:0.121321 721:0.47249 722:0.162958 723:0.356898 724:0.135678 725:0.502128 726:0.202297 727:0.161585 755:0.208704 810:0.381739 811:0.0969014 812:0.534801 813:0.631427 815:0.20212 817:0.281926 818:0.604863 819:0.347518 820:0.341057 821:0.312283 822:0.724272 823:0.61247 824:0.321277 825:0.52521 826:0.452732 827:0.23628 855:0.279219 910:0.300792 911:0.0591549 912:0.694118 913:0.740043 915:0.244569 917:0.123533 918:0.62177 919:0.261346 920:0.13354 921:0.52533 922:0.196256 923:0.502249 924:0.639066 925:0.368908 926:0.355594 927:0.176958 955:0.349524 1900:0.75 2000:1 
0.01207626809000889 10:0.341553 11:0.0954471 12:0.375683 13:0.36061 15:0.16726 17:0.12473 18:0.246845 19:0.129136 20:0.0922401 21:0.161858 22:0.977303 23:0.228983 24:0.163891 25:0.339688 26:0.391794 27:0.161545 55:0.304508 110:0.575758 111:0.100384 112:0.420082 113:0.835645 115:0.243126 117:0.361071 118:0.575058 119:0.448445 120:0.167213 121:0.223336 122:0.401062 123:0.434143 124:0.560293 125:0.372896 126:0.239743 127:0.329393 155:0.249582 210:0.296228 211:0.0835189 212:0.608351 213:0.925338 215:0.273432 217:0.23589 218:0.555646 219:0.344371 220:0.132363 221:0.337241 222:0.159589 223:0.429787 224:0.291492 225:0.482312 226:0.308129 227:0.330105 255:0.458752 310:0.0758427 311:0.0963252 312:0.58216 313:0.453535 315:0.310078 317:0.182918 318:0.270315 319:0.355878 320:0.166011 321:0.924638 322:0.11134 323:0.368794 324:0.402371 325:0.38526 326:0.306397 327:0.3904 355:0.473267 410:0.136 411:0.429287 412:0.0610329 413:0.076507 415:0.0574468 417:0.735273 418:0.0762053 419:0.973244 420:0.550473 421:0.0663228 422:0.0756359 423:0.0732054 424:0.0948396 425:0.178024 426:0.123415 427:0.599834 455:0.185093 510:0.40233 511:0.132879 512:0.663984 513:0.522621 515:0.317021 517:0.370182 518:0.409669 519:0.640637 520:0.390524 521:0.590784 522:0.175368 523:0.444208 524:0.348496 525:0.431818 526:0.461073 527:0.449031 555:0.24874 610:0.437442 611:0.845542 612:0.711603 613:0.539634 615:0.205056 617:0.1766 618:0.189274 619:0.171875 620:0.121321 621:0.47249 622:0.136394 623:0.334044 624:0.146735 625:0.488684 626:0.1491 627:0.190476 655:0.153568 710:0.338843 711:0.0985673 712:0.504359 713:0.625735 715:0.200709 717:0.296629 718:0.578296 719:0.347518 720:0.346734 721:0.318432 722:0.721204 723:0.54221 724:0.312994 725:0.519149 726:0.44258 727:0.23628 755:0.323395 810:0.297391 811:0.0591549 812:0.712358 813:0.740043 815:0.246643 817:0.113747 818:0.603343 819:0.256107 820:0.124547 821:0.52533 822:0.196764 823:0.529597 824:0.638298 825:0.368908 826:0.355594 827:0.166921 855:0.356446 910:0.376429 911:0.363944 912:0.0802768 913:0.117306 915:0.0875964 917:0.58109 918:0.428348 919:0.917058 920:0.561335 921:0.0770298 922:0.118141 923:0.138681 924:0.222222 925:0.113445 926:0.282741 927:0.535392 955:0.252143 1900:0.75 2000:1 
0.1 10:0.371689 11:0.107515 12:0.803962 13:0.582524 15:0.241281 17:0.128335 18:0.568612 19:0.135593 20:0.133236 21:0.471499 22:0.599466 23:0.6245 24:0.459027 25:0.603986 26:0.287208 27:0.165485 55:0.132533 110:0.53168 111:0.114098 112:0.504781 113:0.526352 115:0.431983 117:0.148336 118:0.724403 119:0.162029 120:0.145574 121:0.316392 122:0.711819 123:0.520971 124:0.608927 125:0.270151 126:0.465809 127:0.20331 155:0.219699 210:0.556578 211:0.11971 212:0.585313 213:0.736299 215:0.248767 217:0.144718 218:0.824533 219:0.157285 220:0.14229 221:0.422069 222:0.19589 223:0.336879 224:0.564156 225:0.48145 226:0.351607 227:0.20904 255:0.183843 310:0.123596 311:0.0657016 312:0.692153 313:0.943606 315:0.225511 317:0.10605 318:0.359867 319:0.100644 320:0.131393 321:0.703623 322:0.178694 323:0.478014 324:0.266388 325:0.338358 326:0.175926 327:0.1192 355:0.228591 410:0.176 411:0.178174 412:0.136821 413:0.193972 415:0.124823 417:0.420364 418:0.174961 419:0.892977 420:0.709779 421:0.179808 422:0.125837 423:0.428571 424:0.175035 425:0.172061 426:0.565511 427:0.449876 455:0.490711 510:0.625448 511:0.314026 512:0.480215 513:0.802652 515:0.51844 517:0.318545 518:0.298558 519:0.389641 520:0.221106 521:0.255846 522:0.407631 523:0.282161 524:0.219369 525:0.37963 526:0.179066 527:0.695872 555:0.215529 610:0.251158 611:0.103918 612:0.216633 613:0.247713 615:0.180478 617:0.490066 618:0.227129 619:0.221875 620:0.160086 621:0.173315 622:0.963538 623:0.344705 624:0.154806 625:0.213747 626:0.14653 627:0.489557 655:0.087271 710:0.144169 711:0.182235 712:0.0892019 713:0.106618 715:0.093617 717:0.707116 718:0.132556 719:0.873916 720:0.770998 721:0.0983494 722:0.124346 723:0.157172 724:0.132089 725:0.105532 726:0.20053 727:0.534299 755:0.38038 810:0.382609 811:0.114366 812:0.556108 813:0.51412 815:0.438869 817:0.46127 818:0.557751 819:0.587864 820:0.506155 821:0.339348 822:0.399353 823:0.771113 824:0.601418 825:0.259664 826:0.222029 827:0.247713 855:0.251194 910:0.40985 911:0.0771831 912:0.761246 913:0.822592 915:0.220042 917:0.328502 918:0.386061 919:0.256651 920:0.142081 921:0.314365 922:0.65397 923:0.373313 924:0.246285 925:0.330252 926:0.223764 927:0.167922 955:0.127619 1900:0.625 2000:1 
0.1 10:0.328767 11:0.0575974 12:0.744536 13:0.428571 15:0.184342 17:0.162942 18:0.39511 19:0.100081 20:0.0841874 21:0.350457 22:0.254339 23:0.346677 24:0.189873 25:0.388215 26:0.248592 27:0.256107 55:0.810632 110:0.471993 111:0.0685683 112:0.610656 113:0.697642 115:0.321274 117:0.0991317 118:0.624326 119:0.202946 120:0.220984 121:0.559055 122:0.517928 123:0.540103 124:0.464357 125:0.578388 126:0.250201 127:0.261623 155:0.253168 210:0.446182 211:0.33686 212:0.683225 213:0.868944 215:0.210712 217:0.124457 218:0.377742 219:0.323675 220:0.230973 221:0.457931 222:0.167808 223:0.626241 224:0.320781 225:0.272649 226:0.137051 227:0.333333 255:0.381395 310:0.134831 311:0.0896437 312:0.197183 313:0.0714853 315:0.0570825 317:0.448399 318:0.434494 319:0.697262 320:0.52321 321:0.0710145 322:0.0824742 323:0.0432624 324:0.0857741 325:0.0326633 326:0.0698653 327:0.2952 355:0.669008 410:0.413333 411:0.0545657 412:0.521127 413:0.675425 415:0.265957 417:0.113455 418:0.751944 419:0.248328 420:0.12776 421:0.358143 422:0.13253 423:0.550107 424:0.708508 425:0.37138 426:0.207101 427:0.256835 455:0.211146 510:0.557348 511:0.207269 512:0.745137 513:0.656786 515:0.385106 517:0.273455 518:0.475827 519:0.487649 520:0.135678 521:0.566713 522:0.131191 523:0.347548 524:0.292737 525:0.386364 526:0.32699 527:0.400168 555:0.200641 610:0.0787766 611:0.31289 612:0.45674 613:0.185213 615:0.0688202 617:0.790287 618:0.289432 619:0.7625 620:0.735104 621:0.293673 622:0.0621202 623:0.0838664 624:0.0946442 625:0.108131 626:0.0865467 627:0.772765 655:0.295323 710:0.710744 711:0.112894 712:0.422535 713:0.330147 715:0.421277 717:0.268914 718:0.686089 719:0.367218 720:0.24336 721:0.586657 722:0.246073 723:0.339053 724:0.377602 725:0.431489 726:0.374558 727:0.255335 755:0.549651 810:0.30087 811:0.0461972 812:0.785511 813:0.67777 815:0.268551 817:0.0788555 818:0.638298 819:0.187549 820:0.0868936 821:0.600972 822:0.477023 823:0.574586 824:0.465248 825:0.444538 826:0.245447 827:0.0685976 855:0.185385 910:0.343008 911:0.0529577 912:0.307958 913:0.611151 915:0.174492 917:0.226363 918:0.939702 919:0.27856 920:0.153727 921:0.244275 922:0.193673 923:0.625937 924:0.552017 925:0.356303 926:0.316565 927:0.268825 955:0.226429 1900:0.625 2000:1 
0.1 10:0.469406 11:0.0685683 12:0.610656 13:0.697642 15:0.332384 17:0.102379 18:0.63959 19:0.213882 20:0.246706 21:0.566502 22:0.520694 23:0.58767 24:0.464357 25:0.580589 26:0.250201 27:0.261623 55:0.259432 110:0.481175 111:0.331871 112:0.651639 113:0.809293 115:0.18958 117:0.124457 118:0.400308 119:0.325696 120:0.238033 121:0.437366 122:0.205179 123:0.692421 124:0.351099 125:0.284322 126:0.161706 127:0.325453 155:0.395888 210:0.193192 211:0.0896437 212:0.211663 213:0.0714853 215:0.0570825 217:0.445007 218:0.42567 219:0.716887 220:0.433488 221:0.0675862 222:0.0856164 223:0.0432624 224:0.0857741 225:0.00345125 226:0.0784499 227:0.323648 255:0.695716 310:0.370787 311:0.0545657 312:0.521127 313:0.694202 315:0.264271 317:0.111032 318:0.801824 319:0.23913 320:0.127459 321:0.352174 322:0.109278 323:0.551064 324:0.708508 325:0.38191 326:0.210438 327:0.248 355:0.211146 410:0.552889 411:0.222717 412:0.745137 413:0.650696 415:0.385106 417:0.285818 418:0.436236 419:0.511706 420:0.149054 421:0.607222 422:0.131191 423:0.347548 424:0.278243 425:0.379046 426:0.34235 427:0.410108 455:0.209334 510:0.109319 511:0.31289 512:0.45674 513:0.189548 515:0.0695035 517:0.771636 518:0.311281 519:0.757769 520:0.735104 521:0.293673 522:0.0702811 523:0.0838664 524:0.0946442 525:0.104377 526:0.0778547 527:0.770851 555:0.280577 610:0.716404 611:0.107325 612:0.422535 613:0.348323 615:0.417135 617:0.281825 618:0.723975 619:0.371094 620:0.24336 621:0.586657 622:0.222147 623:0.315565 624:0.393984 625:0.419111 626:0.316195 627:0.293233 655:0.495419 710:0.253444 711:0.0469914 712:0.741113 713:0.672794 715:0.267376 717:0.0786517 718:0.610342 719:0.187549 720:0.0947595 721:0.604539 722:0.471204 723:0.509266 724:0.458722 725:0.437447 726:0.231449 727:0.0685976 755:0.214715 810:0.33913 811:0.0529577 812:0.316051 813:0.611151 815:0.175972 817:0.217725 818:0.911854 819:0.273444 820:0.143374 821:0.244275 822:0.194175 823:0.659826 824:0.551064 825:0.356303 826:0.316565 827:0.259909 855:0.249118 910:0.193492 911:0.153803 912:0.099654 913:0.127444 915:0.0833917 917:0.749482 918:0.380579 919:0.691706 920:0.600155 921:0.092297 922:0.127824 923:0.318591 924:0.202406 925:0.117647 926:0.381613 927:0.822289 955:0.141667 1900:0.625 2000:1 
0.1 10:0.478539 11:0.331871 12:0.651639 13:0.809293 15:0.202847 17:0.127614 18:0.410095 19:0.334948 20:0.265739 21:0.446868 22:0.206275 23:0.753403 24:0.351099 25:0.292894 26:0.161706 27:0.325453 55:0.405683 110:0.22865 111:0.088316 112:0.204235 113:0.113037 115:0.0318379 117:0.445007 118:0.445727 119:0.714403 120:0.438689 121:0.0322119 122:0.125498 123:0.0875644 124:0.126582 125:0.00797166 126:0.111826 127:0.315997 155:0.702845 210:0.425023 211:0.0545657 212:0.559395 213:0.694202 215:0.264271 217:0.102026 218:0.78554 219:0.245861 220:0.100596 221:0.335172 222:0.112329 223:0.551064 224:0.708508 225:0.363244 226:0.236295 227:0.276029 255:0.200979 310:0.51779 311:0.222717 312:0.745137 313:0.668785 315:0.382664 317:0.279715 318:0.465174 319:0.492754 320:0.148702 321:0.597101 322:0.107904 323:0.348936 324:0.278243 325:0.389447 326:0.345118 327:0.396 355:0.209334 410:0.108444 411:0.326281 412:0.45674 413:0.18779 415:0.0695035 417:0.784 418:0.285381 419:0.795151 420:0.807571 421:0.314665 422:0.0702811 423:0.0838664 424:0.0899582 425:0.0936968 426:0.0989011 427:0.774648 455:0.288401 510:0.725806 511:0.107325 512:0.422535 513:0.356474 515:0.421277 517:0.269091 518:0.778626 519:0.358566 520:0.24336 521:0.586657 522:0.228916 523:0.315565 524:0.393984 525:0.416667 526:0.309689 527:0.287279 555:0.470683 610:0.254866 611:0.0420216 612:0.741113 613:0.703506 615:0.264747 617:0.0949227 618:0.641956 619:0.192969 620:0.0947595 621:0.604539 622:0.454423 623:0.491827 624:0.476889 625:0.424979 626:0.177378 627:0.0885547 655:0.159595 710:0.293848 711:0.0538682 712:0.297787 713:0.605147 715:0.174468 717:0.227715 718:0.872542 719:0.273444 720:0.150754 721:0.251032 722:0.185209 723:0.583391 724:0.545585 725:0.348085 726:0.303887 727:0.259909 755:0.288531 810:0.191304 811:0.153803 812:0.102273 813:0.127444 815:0.0840989 817:0.746685 818:0.369301 819:0.689519 820:0.559739 821:0.092297 822:0.128155 823:0.336227 824:0.200709 825:0.117647 826:0.381613 827:0.820122 855:0.175213 910:0.191733 911:0.0907042 912:0.503806 913:0.21651 915:0.344779 917:0.485162 918:0.543461 919:0.441315 920:0.309006 921:0.412908 922:0.3796 923:0.213643 924:0.571125 925:0.323529 926:0.202949 927:0.26506 955:0.653333 1900:0.75 2000:1 
0.1 10:0.227397 11:0.088316 12:0.204235 13:0.113037 15:0.0476868 17:0.447008 18:0.456625 19:0.718321 20:0.489751 21:0.0485574 22:0.126168 23:0.0952762 24:0.126582 25:0.0225303 26:0.111826 27:0.315997 55:0.720235 110:0.460055 111:0.0537575 112:0.534153 113:0.656727 115:0.244573 117:0.102026 118:0.786759 119:0.248773 120:0.108852 121:0.30995 122:0.151394 123:0.614422 124:0.721519 125:0.377325 126:0.246179 127:0.269504 155:0.219699 210:0.569457 211:0.222717 212:0.799856 213:0.668785 215:0.382664 217:0.273517 218:0.455727 219:0.506623 220:0.118465 221:0.568276 222:0.110959 223:0.348936 224:0.278243 225:0.371009 226:0.387524 227:0.425343 255:0.199021 310:0.0496255 311:0.326281 312:0.45674 313:0.19301 315:0.0690627 317:0.76726 318:0.304312 319:0.7657 320:0.805665 321:0.30942 322:0.0453608 323:0.0858156 324:0.0899582 325:0.108878 326:0.102694 327:0.748 355:0.288401 410:0.72 411:0.124722 412:0.422535 413:0.353168 415:0.421277 417:0.281455 418:0.713841 419:0.376254 420:0.26735 421:0.628592 422:0.228916 423:0.315565 424:0.374477 425:0.40971 426:0.325444 427:0.299089 455:0.476439 510:0.27957 511:0.0420216 512:0.741113 513:0.719969 515:0.267376 517:0.0843636 518:0.690416 519:0.176892 520:0.0947595 521:0.604539 522:0.45917 523:0.491827 524:0.476889 525:0.422559 526:0.16955 527:0.0808762 555:0.151626 610:0.295644 611:0.0488359 612:0.297787 613:0.633384 615:0.172753 617:0.241354 618:0.925868 619:0.278125 620:0.150754 621:0.251032 622:0.159352 623:0.568586 624:0.565664 625:0.336966 626:0.247644 627:0.298246 655:0.233607 710:0.137741 711:0.156447 712:0.0959088 713:0.113971 715:0.0822695 717:0.795506 718:0.352513 719:0.689519 720:0.563532 721:0.100413 722:0.118455 723:0.30199 724:0.190955 725:0.106383 726:0.370141 727:0.820122 755:0.202933 810:0.189565 811:0.0907042 812:0.517045 813:0.21651 815:0.347703 817:0.479414 818:0.527356 819:0.437352 820:0.288197 821:0.412908 822:0.380583 823:0.22573 824:0.570213 825:0.323529 826:0.202949 827:0.256098 855:0.621341 910:0.60774 911:0.15493 912:0.623529 913:0.338161 915:0.428171 917:0.337474 918:0.239624 919:0.257433 920:0.176242 921:0.457321 922:0.212395 923:0.325337 924:0.184006 925:0.532773 926:0.937554 927:0.238705 955:0.161429 1900:0.75 2000:1 
0.1 10:0.457534 11:0.0537575 12:0.534153 13:0.656727 15:0.25694 17:0.105263 18:0.805994 19:0.25908 20:0.121523 21:0.321605 22:0.152203 23:0.668535 24:0.721519 25:0.383882 26:0.246179 27:0.269504 55:0.225135 110:0.604224 111:0.219419 112:0.762295 113:0.634535 115:0.366136 117:0.273517 118:0.474211 119:0.506547 120:0.126557 121:0.551897 122:0.150066 123:0.404709 124:0.31046 125:0.385297 126:0.374899 127:0.415288 155:0.217786 210:0.109476 211:0.326281 212:0.490281 213:0.19301 215:0.0690627 217:0.769175 218:0.298132 219:0.787252 220:0.671079 221:0.294483 222:0.0486301 223:0.0858156 224:0.0899582 225:0.0819672 226:0.115312 227:0.780468 255:0.284455 310:0.69382 311:0.124722 312:0.422535 313:0.362986 315:0.418605 317:0.275445 318:0.761194 319:0.362319 320:0.266719 321:0.618116 322:0.208247 323:0.317021 324:0.374477 325:0.419598 326:0.328283 327:0.2888 355:0.476439 410:0.277333 411:0.0606904 412:0.741113 413:0.713292 415:0.267376 417:0.0967273 418:0.63297 419:0.185619 420:0.104101 421:0.647752 422:0.45917 423:0.491827 424:0.453278 425:0.415673 426:0.188504 427:0.096106 455:0.160852 510:0.318996 511:0.0488359 512:0.297787 513:0.648206 515:0.174468 517:0.229091 518:0.995759 519:0.263745 520:0.150754 521:0.251032 522:0.166667 523:0.568586 524:0.565664 525:0.334175 526:0.240484 527:0.292334 555:0.221942 610:0.138091 611:0.150483 612:0.0959088 613:0.124238 615:0.0814607 617:0.799117 618:0.362776 619:0.690625 620:0.563532 621:0.100413 622:0.0904794 623:0.277186 624:0.203228 625:0.0989103 626:0.311911 627:0.912281 655:0.147782 710:0.135904 711:0.0922636 712:0.487592 713:0.204412 715:0.346809 717:0.508614 718:0.504006 719:0.437352 720:0.294329 721:0.418157 722:0.373691 723:0.205903 724:0.564968 725:0.314894 726:0.188163 727:0.256098 755:0.719644 810:0.60087 811:0.15493 812:0.639915 813:0.338161 815:0.431802 817:0.330077 818:0.232523 819:0.252167 820:0.164374 821:0.457321 822:0.212945 823:0.343331 824:0.18227 825:0.532773 826:0.937554 827:0.229421 855:0.192443 910:0.513632 911:0.091831 912:0.208997 913:0.273715 915:0.19061 917:0.188406 918:0.645262 919:0.203443 920:0.170807 921:0.306037 922:0.634603 923:0.308096 924:0.866242 925:0.237815 926:0.338248 927:0.421687 955:0.224286 1900:0.75 2000:1 
0.1 10:0.600913 11:0.219419 12:0.762295 13:0.634535 15:0.376512 17:0.276136 18:0.485804 19:0.513317 20:0.141288 21:0.559465 22:0.150868 23:0.440352 24:0.31046 25:0.391681 26:0.374899 27:0.415288 55:0.223175 110:0.145087 111:0.321448 112:0.468579 113:0.21914 115:0.0441389 117:0.769175 118:0.324865 119:0.783961 120:0.674098 121:0.267717 122:0.0896414 123:0.131714 124:0.13058 125:0.088574 126:0.143202 127:0.762017 155:0.301219 210:0.74241 211:0.124722 212:0.453564 213:0.362986 215:0.418605 217:0.269175 218:0.745735 219:0.372517 220:0.217737 221:0.588276 222:0.210959 223:0.317021 224:0.374477 225:0.402071 226:0.36862 227:0.317191 255:0.487638 310:0.227528 311:0.0606904 312:0.741113 313:0.733122 315:0.26568 317:0.0946619 318:0.674959 319:0.178744 320:0.103855 321:0.636957 322:0.444674 323:0.492908 324:0.453278 325:0.425461 326:0.191919 327:0.0928 355:0.160852 410:0.316444 411:0.0673719 412:0.297787 413:0.642195 415:0.174468 417:0.241455 418:0.912908 419:0.276756 420:0.165615 421:0.268976 422:0.166667 423:0.568586 424:0.537657 425:0.326235 426:0.257819 427:0.30406 455:0.230403 510:0.166667 511:0.150483 512:0.0959088 513:0.127145 515:0.0822695 517:0.780364 518:0.390161 519:0.684462 520:0.563532 521:0.100413 522:0.0983936 523:0.277186 524:0.203228 525:0.0951178 526:0.305363 527:0.911542 555:0.140403 610:0.136237 611:0.0868825 612:0.487592 613:0.217988 615:0.343399 617:0.517292 618:0.526814 619:0.440625 620:0.294329 621:0.418157 622:0.353815 623:0.177683 624:0.585473 625:0.304275 626:0.13539 627:0.294069 655:0.665863 710:0.570248 711:0.157593 712:0.603622 713:0.327941 715:0.431206 717:0.348315 718:0.221413 719:0.252167 720:0.171572 721:0.462173 722:0.204188 723:0.308167 724:0.17229 725:0.526809 726:0.936396 727:0.229421 755:0.22289 810:0.507826 811:0.091831 812:0.214489 813:0.273715 815:0.192226 817:0.179344 818:0.62614 819:0.197794 820:0.159305 821:0.306037 822:0.636246 823:0.325178 824:0.865957 825:0.237815 826:0.338248 827:0.414634 855:0.247249 910:0.301671 911:0.096338 912:0.856747 913:0.354091 915:0.56342 917:0.438923 918:0.297572 919:0.320031 920:0.17236 921:0.554476 922:0.163331 923:0.201649 924:0.142958 925:0.220168 926:0.193408 927:0.704066 955:0.0802381 1900:0.625 2000:1 
0.01084257871272654 10:0.287671 11:0.0778936 12:0.373634 13:0.207351 15:0.942349 17:0.0591204 18:0.231861 19:0.191283 20:0.357247 21:0.56791 22:0.184246 23:0.232186 24:0.313791 25:0.333622 26:0.13033 27:0.0827423 55:0.172709 110:0.327824 111:0.0888645 112:0.226093 113:0.42025 115:0.30246 117:0.238784 118:0.78214 119:0.301964 120:0.562623 121:0.291339 122:0.239044 123:0.721118 124:0.5503 125:0.376439 126:0.511665 127:0.498818 155:0.437724 210:0.170193 211:0.154788 212:0.530598 213:0.675139 215:0.112051 217:0.545586 218:0.49472 219:0.531457 220:0.538054 221:0.393103 222:0.189726 223:0.374468 224:0.346583 225:0.264021 226:0.574669 227:0.433414 255:0.711138 310:0.100187 311:0.534521 312:0.093226 313:0.0524226 315:0.103594 317:0.766548 318:0.184909 319:0.801127 320:0.653029 321:0.0449275 322:0.421306 323:0.0432624 324:0.144351 325:0.038526 326:0.128788 327:0.716 355:0.279112 410:0.435556 411:0.140869 412:0.665325 413:0.735703 415:0.490071 417:0.242182 418:0.479782 419:0.34699 420:0.529968 421:0.661754 422:0.463186 423:0.343284 424:0.330544 425:0.370528 426:0.230769 427:0.209611 455:0.285682 510:0.316308 511:0.223737 512:0.287056 513:0.294852 515:0.910638 517:0.409455 518:0.349449 519:0.326693 520:0.252692 521:0.401651 522:0.271084 523:0.199716 524:0.292003 525:0.299663 526:0.17128 527:0.428812 555:0.248053 610:0.528267 611:0.555366 612:0.374916 613:0.339177 615:0.547753 617:0.289919 618:0.537855 619:0.388281 620:0.305097 621:0.326685 622:0.417961 623:0.318408 624:0.702128 625:0.526404 626:0.299057 627:0.348371 655:0.385728 710:0.509642 711:0.307736 712:0.450704 713:0.435294 715:0.507092 717:0.262172 718:0.415149 719:0.274232 720:0.221106 721:0.643054 722:0.276178 723:0.308854 724:0.262024 725:0.719149 726:0.702297 727:0.26372 755:0.365953 810:0.326957 811:0.116056 812:0.408381 813:0.524258 815:0.257951 817:0.427076 818:0.744681 819:0.297872 820:0.332368 821:0.429563 822:0.21877 823:0.617206 824:0.775177 825:0.418487 826:0.242845 827:0.323933 855:0.211335 910:0.362357 911:0.12 912:0.251903 913:0.353367 915:0.219341 917:0.221532 918:0.605325 919:0.250391 920:0.228261 921:0.340042 922:0.872821 923:0.611694 924:0.474876 925:0.414286 926:0.290546 927:0.1875 955:0.192381 1900:0.75 2000:1 
0.02547621752171549 10:0.379909 11:0.170049 12:0.53347 13:0.533287 15:0.614235 17:0.36049 18:0.402208 19:0.280065 20:0.213031 21:0.629838 22:0.542724 23:0.42514 24:0.303797 25:0.658579 26:0.468222 27:0.286052 55:0.279765 110:0.555556 111:0.207351 112:0.568306 113:0.477115 115:0.554269 117:0.279305 118:0.56505 119:0.404255 120:0.174426 121:0.483894 122:0.315405 123:0.547461 124:0.413058 125:0.480957 126:0.440869 127:0.186761 155:0.493426 210:0.354186 211:0.13029 212:0.650828 213:0.682288 215:0.496829 217:0.222865 218:0.50528 219:0.451987 220:0.287889 221:0.497931 222:0.415753 223:0.55461 224:0.37099 225:0.512511 226:0.518904 227:0.28975 255:0.222032 310:0.200375 311:0.149777 312:0.195842 313:0.163622 315:0.262156 317:0.775801 318:0.151741 319:0.818841 320:0.612903 321:0.18913 322:0.0769759 323:0.148227 324:0.238494 325:0.149079 326:0.217172 327:0.7248 355:0.294064 410:0.398222 411:0.331292 412:0.309188 413:0.576507 415:0.21773 417:0.438545 418:0.553655 419:0.333612 420:0.218454 421:0.381724 422:0.304552 423:0.331912 424:0.398187 425:0.460818 426:0.827557 427:0.5029 455:0.227232 510:0.0448029 511:0.0993754 512:0.00804829 513:0.140406 517:0.535273 518:0.0169635 519:1 520:0.54056 521:0.00343879 522:0.0187416 523:0.0241649 524:0.0484226 525:0.0791246 526:0.0103806 527:0.508003 555:0.183234 610:0.526413 611:0.0357751 612:0.355466 613:0.455793 615:0.524579 617:0.071376 618:0.548107 619:0.176563 620:0.267767 621:0.322558 622:0.749494 623:0.528785 624:0.669846 625:0.401509 626:0.232219 627:0.0768588 655:0.0460463 710:0.528007 711:0.034957 712:0.13548 713:0.192647 715:0.485106 717:0.0367041 718:0.17043 719:0.035461 720:0.0157933 721:0.101788 722:0.963351 723:0.251887 724:0.164393 725:0.233191 726:0.0768551 727:0.0419207 810:0.0982609 811:0.166761 812:0.269886 813:0.156408 815:0.240283 817:0.157013 818:0.382979 819:0.530339 820:0.237509 821:0.328938 822:0.0427184 823:0.11839 824:0.274468 825:0.0529412 826:0.0910668 827:0.11128 855:0.923604 910:0.51715 911:0.0309859 912:0.469896 913:0.821868 915:0.692362 917:0.0448585 918:0.286609 919:0.0516432 920:0.0559006 921:0.206801 922:0.145255 923:0.688906 924:0.221515 925:0.486555 926:0.351258 927:0.146837 955:0.0230952 1900:0.625 2000:1 
0.1 10:0.447489 11:0.233132 12:0.335383 13:0.380028 15:0.32669 17:0.288392 18:0.429022 19:0.341404 20:0.639092 21:0.372977 22:0.286382 23:0.410729 24:0.596269 25:0.850087 26:0.586484 27:0.335697 55:0.276825 110:0.452709 111:0.24136 112:0.403005 113:0.398752 115:0.571635 117:0.259768 118:0.397229 119:0.276596 120:0.224918 121:0.639943 122:0.628818 123:0.372333 124:0.336442 125:0.777679 126:0.399839 127:0.309693 155:0.307435 210:0.396504 211:0.242762 212:0.632829 213:0.388403 215:0.720226 217:0.361795 218:0.334687 219:0.332781 220:0.244871 221:0.390345 222:0.271233 223:0.282979 224:0.269874 225:0.580673 226:0.587902 227:0.603713 255:0.281028 310:0.47191 311:0.215479 312:0.759222 313:0.661636 315:0.357294 317:0.282562 318:0.391376 319:0.275362 320:0.261998 321:0.658696 322:0.281787 323:0.350355 324:0.306137 325:0.406198 326:0.513468 327:0.3064 355:0.284323 410:0.603556 411:0.259465 412:0.498994 413:0.549459 415:0.600709 417:0.32 418:0.354588 419:0.322742 420:0.298896 421:0.414149 422:0.311245 423:0.322672 424:0.298466 425:0.609881 426:0.647506 427:0.369511 455:0.29633 510:0.523297 511:0.214651 512:0.244802 513:0.285491 515:0.293617 517:0.373091 518:0.279898 519:0.41992 520:0.326633 521:0.261348 522:0.23494 523:0.228856 524:0.261189 525:0.287037 526:0.205882 527:0.37321 555:0.770499 610:0.298424 611:0.269733 612:0.293763 613:0.31936 615:0.305478 617:0.52833 618:0.304416 619:0.875 620:0.475951 621:0.287483 622:0.288994 623:0.273632 624:0.311079 625:0.284158 626:0.274207 627:0.500418 655:0.416827 710:0.425161 711:0.287679 712:0.384306 713:0.3875 715:0.404255 717:0.383521 718:0.372178 719:0.575256 720:0.350323 721:0.411967 722:0.362565 723:0.362388 724:0.339555 725:0.827234 726:0.458481 727:0.354421 755:0.443857 810:0.56087 811:0.220282 812:0.351563 813:0.351919 815:0.346996 817:0.261689 818:0.348024 819:0.288416 820:0.230992 821:0.315753 822:0.878964 823:0.345699 824:0.278014 825:0.605882 826:0.368604 827:0.275152 855:0.277143 910:0.5708 911:0.210704 912:0.428374 913:0.351919 915:0.719692 917:0.243616 918:0.36805 919:0.266041 920:0.243789 921:0.803609 922:0.299548 923:0.347826 924:0.31281 925:0.428571 926:0.353859 927:0.254518 955:0.295238 1900:0.75 2000:1 
0.1 10:0.668493 11:0.146462 12:0.931694 13:0.477809 15:0.308185 17:0.184571 18:0.337539 19:0.171106 20:0.139092 21:0.408867 22:0.260347 23:0.356285 24:0.249167 25:0.344021 26:0.251006 27:0.226162 55:0.152376 110:0.512397 111:0.173889 112:0.469945 113:0.346741 115:0.252533 117:0.210564 118:0.458045 119:0.207856 120:0.163279 121:0.264853 122:0.893094 123:0.298013 124:0.26449 125:0.547387 126:0.555109 127:0.269504 155:0.159216 210:0.540018 211:0.21882 212:0.347012 213:0.462272 215:0.520789 217:0.28437 218:0.57108 219:0.264901 220:0.21178 221:0.537931 222:0.233562 223:0.289362 224:0.29219 225:0.623814 226:0.836484 227:0.468119 255:0.203672 310:0.256554 311:0.165367 312:0.674715 313:0.347101 315:0.816772 317:0.194306 318:0.281095 319:0.164251 320:0.176239 321:0.536957 322:0.19244 323:0.229078 324:0.203626 325:0.357621 326:0.639731 327:0.2168 355:0.168328 410:0.226667 411:0.146993 412:0.610999 413:0.391808 415:0.304255 417:0.194182 418:0.342924 419:0.178094 420:0.200315 421:0.886514 422:0.626506 423:0.50462 424:0.42887 425:0.354344 426:0.540997 427:0.212925 455:0.1971 510:0.71147 511:0.207269 512:0.336687 513:0.326053 515:0.641844 517:0.218182 518:0.328244 519:0.207968 520:0.205312 521:0.677442 522:0.246319 523:0.26226 524:0.260455 525:0.683502 526:0.487889 527:0.276327 555:0.200183 610:0.0982391 611:0.13799 612:0.104628 613:0.167683 615:0.172753 617:0.273731 618:0.143533 619:0.332813 620:0.245513 621:0.143741 622:0.0864281 623:0.160625 624:0.169479 625:0.130763 626:0.0865467 627:0.241437 655:1 710:0.226814 711:0.127794 712:0.32998 713:0.500735 715:0.252482 717:0.202247 718:0.413693 719:0.262411 720:0.510409 721:0.488996 722:0.240838 723:0.809883 724:0.602297 725:0.429787 726:0.437279 727:0.193598 755:0.481606 810:0.252174 811:0.127887 812:0.852273 813:0.414917 815:0.326502 817:0.151431 818:0.327508 819:0.141844 820:0.136133 821:0.821652 822:0.247249 823:0.352802 824:0.268794 825:0.552101 826:0.471813 827:0.141006 855:0.201785 910:0.508355 911:0.183099 912:0.279585 913:0.286025 915:0.438683 917:0.247067 918:0.298356 919:0.247261 920:0.21118 921:0.276891 922:0.847644 923:0.265367 924:0.217976 925:0.389916 926:0.815265 927:0.27259 955:0.158571 1900:0.625 2000:1 
0.1 10:0.509589 11:0.173889 12:0.469945 13:0.346741 15:0.264769 17:0.21341 18:0.469243 19:0.218725 20:0.182284 21:0.27727 22:0.897864 23:0.324259 24:0.26449 25:0.55026 26:0.555109 27:0.269504 55:0.163155 110:0.574839 111:0.215579 112:0.33265 113:0.45423 115:0.507959 117:0.28437 118:0.583526 119:0.267594 120:0.219016 121:0.520401 122:0.268924 123:0.342899 124:0.323784 125:0.644818 126:0.757039 127:0.457053 155:0.222328 210:0.312787 211:0.165367 212:0.724262 213:0.347101 215:0.816772 217:0.186686 218:0.275386 219:0.168874 220:0.141628 221:0.511034 222:0.195205 223:0.229078 224:0.203626 225:0.338223 226:0.718336 227:0.244552 255:0.154712 310:0.174157 311:0.146993 312:0.610999 313:0.402701 315:0.302326 317:0.190036 318:0.365672 319:0.171498 320:0.199843 321:0.871739 322:0.616495 323:0.505674 324:0.42887 325:0.365159 326:0.542929 327:0.2056 355:0.1971 410:0.705778 411:0.222717 412:0.336687 413:0.323029 415:0.641844 417:0.230545 418:0.300933 419:0.218227 420:0.225552 421:0.725866 422:0.246319 423:0.26226 424:0.247559 425:0.679727 426:0.499577 427:0.288318 455:0.208881 510:0.128136 511:0.13799 512:0.104628 513:0.171607 515:0.174468 517:0.261091 518:0.154368 519:0.319522 520:0.245513 521:0.143741 522:0.0943775 523:0.160625 524:0.169479 525:0.127104 526:0.0778547 527:0.235046 555:0.950069 610:0.227989 611:0.12209 612:0.32998 613:0.525152 615:0.25 617:0.216336 618:0.429022 619:0.267188 620:0.510409 621:0.488996 622:0.216745 623:0.803127 624:0.623624 625:0.417435 626:0.377035 627:0.225564 655:0.427194 710:0.20202 711:0.130086 712:0.804158 713:0.405882 715:0.325532 717:0.156554 718:0.312454 719:0.141844 720:0.143575 721:0.823246 722:0.238874 723:0.316404 724:0.259871 725:0.546383 726:0.462014 727:0.141006 755:0.23371 810:0.502609 811:0.183099 812:0.286932 813:0.286025 815:0.442403 817:0.23866 818:0.289514 819:0.241923 820:0.196959 821:0.276891 822:0.849838 823:0.280189 824:0.216312 825:0.389916 826:0.815265 827:0.26372 855:0.189952 910:0.617414 911:0.215775 912:0.5391 913:0.475018 915:0.335669 917:0.232574 918:0.339076 919:0.244131 920:0.225932 921:0.363636 922:0.285345 923:0.331334 924:0.268931 925:0.841176 926:0.633998 927:0.262801 955:0.377619 1900:0.625 2000:1 
0.05193641428374209 10:0.571689 11:0.215579 12:0.33265 13:0.45423 15:0.516014 17:0.28695 18:0.597792 19:0.277643 20:0.24451 21:0.528501 22:0.27036 23:0.373098 24:0.323784 25:0.645581 26:0.757039 27:0.457053 55:0.227829 110:0.348026 111:0.162918 112:0.690574 113:0.353675 115:0.811867 117:0.186686 118:0.30331 119:0.172668 120:0.149508 121:0.492484 122:0.23174 123:0.280353 124:0.239174 125:0.351639 126:0.656476 127:0.238771 155:0.174516 210:0.231831 211:0.146993 212:0.655868 213:0.402701 215:0.302326 217:0.182344 218:0.358245 219:0.176325 220:0.161482 221:0.829655 222:0.617808 223:0.505674 224:0.42887 225:0.345988 226:0.609641 227:0.233253 255:0.185802 310:0.678839 311:0.222717 312:0.336687 313:0.33201 315:0.637773 317:0.225623 318:0.320896 319:0.210145 320:0.22502 321:0.713768 322:0.226117 323:0.26383 324:0.247559 325:0.685092 326:0.501684 327:0.2784 355:0.208881 410:0.127111 411:0.154788 412:0.104628 413:0.170015 415:0.174468 417:0.273455 418:0.141524 419:0.335284 420:0.269716 421:0.154016 422:0.0943775 423:0.160625 424:0.161088 425:0.116695 426:0.0989011 427:0.247722 455:0.950612 510:0.253584 511:0.12209 512:0.32998 513:0.537441 515:0.252482 517:0.204364 518:0.461408 519:0.25259 520:0.510409 521:0.488996 522:0.223561 523:0.803127 524:0.623624 525:0.414983 526:0.371107 527:0.21904 555:0.405863 610:0.202966 611:0.124361 612:0.804158 613:0.426829 615:0.322331 617:0.17145 618:0.319401 619:0.147656 620:0.143575 621:0.823246 622:0.21472 623:0.292111 624:0.273661 625:0.532272 626:0.401028 627:0.16792 655:0.17864 710:0.466483 711:0.186246 712:0.270288 713:0.275 715:0.441844 717:0.250187 718:0.276038 719:0.241923 720:0.203877 721:0.283356 722:0.848168 723:0.25326 724:0.206748 725:0.382128 726:0.811837 727:0.26372 755:0.220005 810:0.610435 811:0.215775 812:0.553267 813:0.475018 815:0.338516 817:0.224006 818:0.329027 819:0.238771 820:0.210717 821:0.363636 822:0.286084 823:0.349645 824:0.267376 825:0.841176 826:0.633998 827:0.253811 855:0.380942 910:0.312225 911:0.189296 912:0.227682 913:0.259232 915:0.583041 917:0.418219 918:0.54581 919:0.618153 920:0.346273 921:0.254684 922:0.216914 923:0.277361 924:0.527955 925:0.298319 926:0.621856 927:0.677711 955:0.350238 1900:0.75 2000:1 
0.1 10:0.36347 11:0.233681 12:0.377732 13:0.638696 15:0.508897 17:0.464311 18:0.641167 19:0.415658 20:0.510981 21:0.474314 22:0.323765 23:0.621297 24:0.453698 25:0.419411 26:0.540628 27:0.483058 55:0.358648 110:0.402204 111:0.255623 112:0.440574 113:0.409154 115:0.407381 117:0.329957 118:0.605851 119:0.360065 120:0.263607 121:0.437366 122:0.766268 123:0.378219 124:0.367755 125:0.612932 126:0.452936 127:0.367218 155:0.365049 210:0.551978 211:0.27784 212:0.546436 213:0.648133 215:0.551797 217:0.3589 218:0.511779 219:0.390728 220:0.282594 221:0.473103 222:0.335616 223:0.442553 224:0.352162 225:0.379638 226:0.637996 227:0.411622 255:0.38776 310:0.331461 311:0.253898 312:0.639839 313:0.726767 315:0.368569 317:0.340925 318:0.432007 319:0.360709 320:0.329662 321:0.463043 322:0.479725 323:0.593617 324:0.487448 325:0.369347 326:0.360269 327:0.3512 355:0.374037 410:0.614222 411:0.386414 412:0.413146 413:0.648377 415:0.422695 417:0.277818 418:0.481337 419:0.297659 420:0.266562 421:0.354458 422:0.467202 423:0.326226 424:0.662483 425:0.568995 426:0.262891 427:0.304888 455:0.309923 510:0.607527 511:0.203294 512:0.27163 513:0.320593 515:0.421986 517:0.509091 518:0.462256 519:0.505976 520:0.379756 521:0.295048 522:0.340696 523:0.275053 524:0.674982 525:0.303872 526:0.441176 527:0.400168 555:0.572377 610:0.377201 611:0.186826 612:0.300469 613:0.447409 615:0.765449 617:0.479765 618:0.330442 619:0.314844 620:0.496052 621:0.357634 622:0.349764 623:0.448472 624:0.59281 625:0.309304 626:0.443873 627:0.308271 655:0.425265 710:0.328742 711:0.216046 712:0.560698 713:0.451471 715:0.58156 717:0.456929 718:0.479243 719:0.512214 720:0.283561 721:0.602476 722:0.526832 723:0.426905 724:0.421393 725:0.345532 726:0.524735 727:0.300305 755:0.373648 810:0.470435 811:0.340282 812:0.299006 813:0.309196 815:0.282686 817:0.418702 818:0.383739 819:0.428684 820:0.272991 821:0.467037 822:0.633657 823:0.566693 824:0.489362 825:0.356303 826:0.443192 827:0.376524 855:0.553457 910:0.309587 911:0.185915 912:0.650519 913:0.423606 915:0.307638 917:0.26501 918:0.584182 919:0.282473 920:0.23913 921:0.62873 922:0.448677 923:0.392054 924:0.501769 925:0.62437 926:0.609714 927:0.354669 955:0.355238 1900:0.5 2000:1 
0.1 10:0.4 11:0.255623 12:0.440574 13:0.409154 15:0.417082 17:0.332372 18:0.620662 19:0.368846 20:0.29429 21:0.446868 22:0.77036 23:0.411529 24:0.367755 25:0.614385 26:0.452936 27:0.367218 55:0.374081 110:0.586777 111:0.273725 112:0.521858 113:0.616505 115:0.539797 117:0.3589 118:0.527329 119:0.39198 120:0.28918 121:0.453114 122:0.367862 123:0.50184 124:0.381079 125:0.394154 126:0.588093 127:0.401891 155:0.402104 210:0.386385 211:0.253898 212:0.686825 213:0.726767 215:0.368569 217:0.335745 218:0.423233 219:0.370861 220:0.270682 221:0.44069 222:0.481507 223:0.593617 224:0.487448 225:0.350302 226:0.404537 227:0.380145 255:0.376989 310:0.582397 311:0.386414 312:0.413146 313:0.666402 315:0.420014 317:0.271886 318:0.513267 319:0.286634 320:0.265932 321:0.348551 322:0.452921 323:0.32766 324:0.662483 325:0.576214 326:0.265993 327:0.2944 355:0.309923 410:0.602667 411:0.21882 412:0.27163 413:0.31762 415:0.421986 417:0.521455 418:0.423795 419:0.530936 420:0.417192 421:0.316139 422:0.340696 423:0.275053 424:0.641562 425:0.295571 426:0.453931 427:0.410108 455:0.577028 510:0.397849 511:0.186826 512:0.300469 513:0.457878 515:0.77305 517:0.464727 518:0.355386 519:0.301195 520:0.496052 521:0.357634 522:0.355422 523:0.448472 524:0.59281 525:0.306397 526:0.438581 527:0.302443 555:0.404031 610:0.330862 611:0.20954 612:0.560698 613:0.474085 615:0.575843 617:0.466519 618:0.5 619:0.514844 620:0.283561 621:0.602476 622:0.511816 623:0.406539 624:0.438738 625:0.334451 626:0.461868 627:0.342523 655:0.318949 710:0.432507 711:0.346132 712:0.28169 713:0.298529 715:0.28156 717:0.443446 718:0.366351 719:0.428684 720:0.279253 721:0.471802 722:0.629581 723:0.502402 724:0.48313 725:0.348085 726:0.432862 727:0.376524 755:0.641019 810:0.306087 811:0.185915 812:0.667614 813:0.423606 815:0.310247 817:0.256804 818:0.566869 819:0.277384 820:0.223027 821:0.62873 822:0.449838 823:0.413575 824:0.500709 825:0.62437 826:0.609714 827:0.346799 855:0.361428 910:0.223395 911:0.184225 912:0.19308 913:0.175235 915:0.15487 917:0.834369 918:0.182459 919:0.679969 920:0.555901 921:0.48508 922:0.174306 923:0.182909 924:0.164897 925:0.180672 926:0.335646 927:0.641566 955:0.371429 1900:0.5 2000:1 
0.1 10:0.583562 11:0.273725 12:0.521858 13:0.616505 15:0.547331 17:0.361211 18:0.540221 19:0.400323 20:0.32284 21:0.46235 22:0.369826 23:0.546037 24:0.381079 25:0.400347 26:0.588093 27:0.401891 55:0.412053 110:0.421488 111:0.250137 112:0.655055 113:0.68516 115:0.351664 117:0.335745 118:0.443418 119:0.37234 120:0.277377 121:0.41947 122:0.509296 123:0.658572 124:0.510326 125:0.364039 126:0.389381 127:0.371158 155:0.391585 210:0.632935 211:0.386414 212:0.443485 213:0.666402 215:0.420014 217:0.265557 218:0.502843 219:0.294702 220:0.217075 221:0.331724 222:0.454795 223:0.32766 224:0.662483 225:0.563417 226:0.298677 227:0.322841 255:0.307711 310:0.570225 311:0.21882 312:0.27163 313:0.32645 315:0.419309 317:0.51032 318:0.451907 319:0.511272 320:0.416208 321:0.31087 322:0.323024 323:0.276596 324:0.641562 325:0.30737 326:0.456229 327:0.396 355:0.577028 410:0.394667 411:0.202673 412:0.300469 413:0.453632 415:0.77305 417:0.477091 418:0.325816 419:0.316054 420:0.544953 421:0.383198 422:0.355422 423:0.448472 424:0.563459 425:0.298126 426:0.451395 427:0.314002 455:0.410512 510:0.353047 511:0.20954 512:0.560698 513:0.485179 515:0.58156 517:0.451636 518:0.537744 519:0.505179 520:0.283561 521:0.602476 522:0.516064 523:0.406539 524:0.438738 525:0.33165 526:0.456747 527:0.336984 555:0.303023 610:0.435589 611:0.338444 612:0.28169 613:0.315549 615:0.278792 617:0.453274 618:0.37776 619:0.432031 620:0.279253 621:0.471802 622:0.617826 623:0.484719 624:0.501834 625:0.336966 626:0.372751 627:0.426065 655:0.58703 710:0.258953 711:0.189112 712:0.629779 713:0.414706 715:0.30922 717:0.269663 718:0.541879 719:0.277384 720:0.22972 721:0.63205 722:0.443717 723:0.369252 724:0.494616 725:0.619574 726:0.602473 727:0.346799 755:0.41861 810:0.22087 811:0.184225 812:0.198153 813:0.175235 815:0.156184 817:0.832519 818:0.177052 819:0.677699 820:0.518465 821:0.48508 822:0.174757 823:0.19337 824:0.163121 825:0.180672 826:0.335646 827:0.637195 855:0.375545 910:0.281442 911:0.175211 912:0.382007 913:0.459088 915:0.210932 917:0.478951 918:0.407987 919:0.286385 920:0.25 921:0.295628 922:0.233054 923:0.601949 924:0.2477 925:0.385714 926:0.998265 927:0.375753 955:0.243095 1900:0.625 2000:1 
0.1 10:0.419178 11:0.250137 12:0.655055 13:0.68516 15:0.362278 17:0.33814 18:0.454259 19:0.380952 20:0.309663 21:0.429275 22:0.512016 23:0.716573 24:0.510326 25:0.370884 26:0.389381 27:0.371158 55:0.401274 110:0.667585 111:0.380691 112:0.42418 113:0.632455 115:0.404486 117:0.265557 118:0.518861 119:0.297054 120:0.224262 121:0.306371 122:0.4834 123:0.382634 124:0.677548 125:0.582817 126:0.299276 127:0.315209 155:0.32393 210:0.620975 211:0.21882 212:0.291577 213:0.32645 215:0.419309 217:0.507959 218:0.442729 219:0.525662 220:0.343481 221:0.295862 222:0.325342 223:0.276596 224:0.641562 225:0.286454 226:0.512287 227:0.425343 255:0.596328 310:0.351124 311:0.202673 312:0.300469 313:0.466243 315:0.768147 317:0.466904 318:0.34743 319:0.304348 320:0.543666 321:0.376812 322:0.338144 323:0.449645 324:0.563459 325:0.309883 326:0.453704 327:0.3032 355:0.410512 410:0.350222 411:0.224944 412:0.560698 413:0.48068 415:0.58156 417:0.464 418:0.493002 419:0.5301 420:0.311514 421:0.645542 422:0.516064 423:0.406539 424:0.417015 425:0.32368 426:0.469146 427:0.34797 455:0.310603 510:0.454301 511:0.338444 512:0.28169 513:0.322933 515:0.28156 517:0.438545 518:0.406277 519:0.420717 520:0.279253 521:0.471802 522:0.621151 523:0.484719 524:0.501834 525:0.334175 526:0.366782 527:0.42123 555:0.557719 610:0.260426 611:0.182851 612:0.629779 613:0.435976 615:0.30618 617:0.282561 618:0.567823 619:0.282031 620:0.22972 621:0.63205 622:0.426063 623:0.346837 624:0.513573 625:0.604359 626:0.537275 627:0.393484 655:0.364031 710:0.168962 711:0.187393 712:0.186452 713:0.1625 715:0.15461 717:0.88764 718:0.168245 719:0.677699 720:0.522613 721:0.489684 722:0.165576 723:0.177763 724:0.152907 725:0.170213 726:0.323322 727:0.637195 755:0.43496 810:0.278261 811:0.175211 812:0.392045 813:0.459088 815:0.212721 817:0.473133 818:0.395897 819:0.281324 820:0.233164 821:0.295628 822:0.233657 823:0.63457 824:0.246099 825:0.385714 826:0.998265 827:0.36814 855:0.26365 910:0.190853 911:0.0692958 912:0.902422 913:0.56336 915:0.250175 917:0.129055 918:0.676586 919:0.118153 920:0.106366 921:0.609993 922:0.228535 923:0.333583 924:0.28804 925:0.310924 926:0.465742 927:0.113705 955:0.105476 1900:0.5 2000:1 
0.011578154993906 10:0.663927 11:0.380691 12:0.42418 13:0.632455 15:0.414235 17:0.268205 18:0.531546 19:0.306699 20:0.250366 21:0.318086 22:0.485981 23:0.416333 24:0.677548 25:0.584922 26:0.299276 27:0.315209 55:0.331945 110:0.655647 111:0.215579 112:0.280055 113:0.335645 115:0.403763 117:0.507959 118:0.461894 119:0.525368 120:0.349508 121:0.269148 122:0.357902 123:0.329654 124:0.657562 125:0.298494 126:0.481094 127:0.415288 155:0.605785 210:0.405704 211:0.202673 212:0.322534 213:0.466243 215:0.768147 217:0.463821 218:0.340374 219:0.312914 220:0.450695 221:0.358621 222:0.340411 223:0.449645 224:0.563459 225:0.289042 226:0.509452 227:0.331719 255:0.416401 310:0.304307 311:0.224944 312:0.560698 313:0.494043 315:0.577872 317:0.454093 318:0.525705 319:0.510467 320:0.310779 321:0.634783 322:0.503093 323:0.407801 324:0.417015 325:0.335008 326:0.47138 327:0.336 355:0.310603 410:0.450667 411:0.351336 412:0.28169 413:0.319938 415:0.28156 417:0.450909 418:0.372473 419:0.441472 420:0.306782 421:0.505527 422:0.621151 423:0.484719 424:0.476987 425:0.326235 426:0.381234 427:0.43082 455:0.562528 510:0.284946 511:0.182851 512:0.629779 513:0.446178 515:0.30922 517:0.269818 518:0.610687 519:0.267729 520:0.22972 521:0.63205 522:0.431058 523:0.346837 524:0.513573 525:0.602694 526:0.532872 527:0.388374 555:0.345854 610:0.169601 611:0.181147 612:0.186452 613:0.174543 615:0.15309 617:0.889625 618:0.163249 619:0.678906 620:0.522613 621:0.489684 622:0.139095 623:0.148543 624:0.164343 625:0.161777 626:0.266495 627:0.711779 655:0.380424 710:0.229568 711:0.178223 712:0.369551 713:0.450735 715:0.211348 717:0.501873 718:0.378004 719:0.281324 720:0.23977 721:0.301926 722:0.225131 723:0.561428 724:0.236899 725:0.377872 726:0.998233 727:0.36814 755:0.305362 810:0.188696 811:0.0692958 812:0.926136 813:0.56336 815:0.252297 817:0.11933 818:0.656535 819:0.111899 820:0.0992035 821:0.609993 822:0.229126 823:0.352013 824:0.286525 825:0.310924 826:0.465742 827:0.102896 855:0.143658 910:0.117854 911:0.11831 912:0.0913495 913:0.08979 915:0.122635 917:0.338164 918:0.082224 919:0.424883 920:0.312112 921:0.0999306 922:0.0813428 923:0.0629685 924:0.103326 925:0.105882 926:0.114484 927:0.26506 955:0.692143 1900:0.625 2000:1 
0.1 10:0.541553 11:0.289084 12:0.273907 13:0.613037 15:0.145196 17:0.571738 18:0.551262 19:0.397902 20:0.311127 21:0.242083 22:0.580107 23:0.496397 24:0.552965 25:0.394281 26:0.462591 27:0.70134 55:0.231014 110:0.461892 111:0.472298 112:0.245902 113:0.467406 115:0.184515 117:0.639653 118:0.329484 119:0.56383 120:0.385574 121:0.211167 122:0.0956175 123:0.364974 124:0.458361 125:0.309123 126:0.521319 127:0.785658 155:0.480038 210:0.310028 211:0.0796214 212:0.638589 213:0.428912 215:0.823115 217:0.10275 218:0.338749 219:0.0471854 220:0.0436797 221:0.307586 222:0.230137 223:0.343262 224:0.386332 225:0.635893 226:0.465028 227:0.160613 255:0.260465 310:0.378277 311:0.151448 312:0.598927 313:0.873709 315:0.522199 317:0.214947 318:0.397181 319:0.192432 320:0.20535 321:0.40942 322:0.307904 323:0.498582 324:0.479777 325:0.427973 326:0.31229 327:0.3016 355:0.187358 410:0.329778 411:0.138085 412:0.461435 413:0.452859 415:0.421986 417:0.669091 418:0.423795 419:0.535117 420:0.542587 421:0.331614 422:0.476573 423:0.299218 424:0.456067 425:0.418228 426:0.363483 427:0.613919 455:0.49411 510:0.28853 511:0.157297 512:0.501006 513:0.797972 515:0.3 517:0.309818 518:0.362171 519:0.260558 520:0.361091 521:0.306052 522:0.627175 523:0.424307 524:0.385913 525:0.424242 526:0.434256 527:0.413648 555:0.447091 610:0.173309 611:0.300965 612:0.395708 613:0.289634 615:0.175562 617:0.509934 618:0.171136 619:0.44375 620:0.250538 621:0.200825 622:0.238352 623:0.167733 624:0.265591 625:0.196144 626:0.0342759 627:0.471178 655:0.871745 710:0.128558 711:0.347851 712:0.562039 713:0.514706 715:0.22766 717:0.583521 718:0.26657 719:0.733649 720:0.685571 721:0.365199 722:0.391361 723:0.264242 724:0.144293 725:0.267234 726:0.311837 727:0.415396 755:0.562154 810:0.323478 811:0.0839437 812:0.728693 813:0.846488 815:0.284099 817:0.281926 818:0.343465 819:0.256107 820:0.236061 821:0.303956 822:0.397411 823:0.494081 824:0.460284 825:0.35042 826:0.262793 827:0.200457 855:0.373677 910:0.618294 911:0.258028 912:0.811765 913:0.517741 915:0.479327 917:0.21118 918:0.338293 919:0.445227 920:0.129658 921:0.485774 922:0.32989 923:0.437031 924:0.472753 925:0.301681 926:0.33131 927:0.228916 955:0.330476 1900:0.75 2000:1 
0.1 10:0.459361 11:0.472298 12:0.245902 13:0.467406 15:0.197865 17:0.640952 18:0.337539 19:0.569814 20:0.430454 21:0.22449 22:0.0961282 23:0.397118 24:0.458361 25:0.317158 26:0.521319 27:0.785658 55:0.491916 110:0.345271 111:0.0784421 112:0.60929 113:0.425104 115:0.818379 117:0.10275 118:0.363356 119:0.0523732 120:0.052459 121:0.281317 122:0.265604 123:0.398823 124:0.413724 125:0.657219 126:0.440869 127:0.156816 155:0.277791 210:0.432383 211:0.151448 212:0.642909 213:0.873709 215:0.522199 217:0.20767 218:0.389115 219:0.197848 220:0.166115 221:0.389655 222:0.310274 223:0.498582 224:0.479777 225:0.410699 226:0.350662 227:0.330105 255:0.175275 310:0.282772 311:0.138085 312:0.461435 313:0.465449 315:0.419309 317:0.654804 318:0.451907 319:0.515298 320:0.541306 321:0.326087 322:0.462543 323:0.300709 324:0.456067 325:0.427973 326:0.366162 327:0.5928 355:0.49411 410:0.286222 411:0.173719 412:0.501006 413:0.790572 415:0.3 417:0.322182 418:0.332037 419:0.273411 420:0.396688 421:0.327929 422:0.627175 423:0.424307 424:0.366806 425:0.417376 426:0.447168 427:0.423364 455:0.453104 510:0.200717 511:0.300965 512:0.395708 513:0.296412 515:0.177305 517:0.494545 518:0.184054 519:0.432669 520:0.250538 521:0.200825 522:0.24498 523:0.167733 524:0.265591 525:0.192761 526:0.0250865 527:0.466723 555:0.828218 610:0.128823 611:0.340148 612:0.562039 613:0.539634 615:0.225421 617:0.590876 618:0.269716 619:0.734375 620:0.685571 621:0.365199 622:0.372046 623:0.238095 624:0.155539 625:0.257334 626:0.255356 627:0.468672 655:0.507956 710:0.277319 711:0.0853868 712:0.687458 713:0.844118 715:0.282979 717:0.296629 718:0.327749 719:0.256107 720:0.242642 721:0.310179 722:0.390707 723:0.439259 724:0.453697 725:0.342128 726:0.249117 727:0.200457 755:0.432796 810:0.611304 811:0.258028 812:0.833097 813:0.517741 815:0.483392 817:0.202373 818:0.328267 819:0.441292 820:0.120927 821:0.485774 822:0.330744 823:0.460931 824:0.471631 825:0.301681 826:0.33131 827:0.219512 855:0.339838 910:0.297274 911:0.266479 912:0.391696 913:0.278783 915:0.912404 917:0.235335 918:0.249021 919:0.0970266 920:0.0690994 921:0.498265 922:0.44093 923:0.16042 924:0.375088 925:0.37479 926:0.125759 927:0.197289 955:0.246429 1900:0.75 2000:1 
0.008868562107253833 10:0.343379 11:0.0784421 12:0.60929 13:0.425104 15:0.821352 17:0.105984 18:0.37224 19:0.0653753 20:0.0585652 21:0.293455 22:0.267023 23:0.433947 24:0.413724 25:0.657712 26:0.440869 27:0.156816 55:0.284664 110:0.467401 111:0.149205 112:0.613388 113:0.813454 115:0.509407 117:0.20767 118:0.411085 119:0.201309 120:0.17377 121:0.3665 122:0.343293 123:0.559971 124:0.502998 125:0.426041 126:0.343524 127:0.322301 155:0.194597 210:0.338546 211:0.138085 212:0.49532 213:0.465449 215:0.419309 217:0.654848 218:0.442729 219:0.529801 220:0.448709 221:0.310345 222:0.464384 223:0.300709 224:0.456067 225:0.410699 226:0.411153 227:0.62389 255:0.506732 310:0.236891 311:0.173719 312:0.501006 313:0.81255 315:0.298097 317:0.315302 318:0.354063 319:0.263285 320:0.395751 321:0.322464 322:0.617182 323:0.425532 324:0.366806 325:0.427136 326:0.449495 327:0.4088 355:0.453104 410:0.199111 411:0.314588 412:0.395708 413:0.293663 415:0.177305 417:0.506909 418:0.16874 419:0.454013 420:0.275237 421:0.215181 422:0.24498 423:0.167733 424:0.252441 425:0.183135 426:0.0473373 427:0.475559 455:0.830086 510:0.157706 511:0.340148 512:0.562039 513:0.552262 515:0.22766 517:0.574545 518:0.290076 519:0.729084 520:0.685571 521:0.365199 522:0.37751 523:0.238095 524:0.155539 525:0.254209 526:0.24827 527:0.464195 555:0.482593 610:0.278962 611:0.0800681 612:0.687458 613:0.881098 615:0.280197 617:0.309051 618:0.335962 619:0.260937 620:0.242642 621:0.310179 622:0.371371 623:0.419332 624:0.471753 625:0.331098 626:0.194516 627:0.233083 655:0.378255 710:0.581267 711:0.262464 712:0.78605 713:0.510294 715:0.482979 717:0.211236 718:0.313183 719:0.441292 720:0.1285 721:0.490371 722:0.323298 723:0.410432 724:0.465183 725:0.292766 726:0.318905 727:0.219512 755:0.393604 810:0.293913 811:0.266479 812:0.401989 813:0.278783 815:0.920141 817:0.226797 818:0.241641 819:0.0906225 820:0.0644461 821:0.498265 822:0.442071 823:0.169692 824:0.373759 825:0.37479 826:0.125759 827:0.1875 855:0.266556 910:0.416887 911:0.125634 912:0.27128 913:0.365677 915:0.319552 917:0.866805 918:0.262334 919:0.510955 920:0.531056 921:0.319917 922:0.193673 923:0.362819 924:0.285209 925:0.236975 926:0.398959 927:0.615964 955:0.280476 1900:0.875 2000:1 
0.1 10:0.56347 11:0.215579 12:0.548497 13:0.73509 15:0.307473 17:0.511896 18:0.419558 19:0.330912 20:0.275988 21:0.361013 22:0.299733 23:0.464371 24:0.329114 25:0.62825 26:0.603379 27:0.391647 55:0.273885 110:0.345271 111:0.191991 112:0.382514 113:0.653953 115:0.268452 117:0.348046 118:0.692841 119:0.58838 120:0.518689 121:0.327845 122:0.299469 123:0.689478 124:0.58561 125:0.325952 126:0.301689 127:0.365642 155:0.34449 210:0.25759 211:0.184855 212:0.292297 213:0.370135 215:0.260747 217:0.337192 218:0.49147 219:0.523179 220:0.296492 221:0.321379 222:0.210959 223:0.348936 224:0.804045 225:0.262295 226:0.256144 227:0.351897 255:0.555447 310:0.305243 311:0.196548 312:0.627096 313:0.586974 315:0.762509 317:0.236299 318:0.539801 319:0.23752 320:0.241542 321:0.642754 322:0.267354 323:0.342553 324:0.327755 325:0.38526 326:0.270202 327:0.2472 355:0.282284 410:0.936 411:0.305122 412:0.279678 413:0.355487 415:0.441135 417:0.338182 418:0.33437 419:0.343645 420:0.321767 421:0.305085 422:0.317269 423:0.285714 424:0.267782 425:0.475298 426:0.330516 427:0.439105 455:0.265066 510:0.233871 511:0.134015 512:0.325285 513:0.421217 515:0.273759 517:0.176727 518:0.366412 519:0.214343 520:0.245513 521:0.440165 522:0.220214 523:0.380952 524:0.372707 525:0.301347 526:0.16263 527:0.16428 555:0.640861 610:0.151993 611:0.181715 612:0.140174 613:0.208841 615:0.232444 617:0.320088 618:0.180599 619:0.390625 620:0.297918 621:0.170564 622:0.126266 623:0.201137 624:0.206163 625:0.17435 626:0.13539 627:0.282373 655:0.954436 710:0.541781 711:0.310602 712:0.435278 713:0.441912 715:0.458156 717:0.298876 718:0.424618 719:0.310481 720:0.302225 721:0.491059 722:0.379581 723:0.411119 724:0.36827 725:0.817872 726:0.578622 727:0.31936 755:0.405145 810:0.389565 811:0.139718 812:0.596591 813:0.847212 815:0.320141 817:0.220516 818:0.524316 819:0.275808 820:0.255612 821:0.421929 822:0.365049 823:0.627466 824:0.425532 825:0.44958 826:0.377277 827:0.254573 855:0.339215 910:0.310466 911:0.148732 912:0.90173 913:0.57929 915:0.377015 917:0.234645 918:0.415818 919:0.217527 920:0.185559 921:0.536433 922:0.338928 923:0.42054 924:0.313517 925:0.439496 926:0.359931 927:0.207078 955:0.235 1900:0.75 2000:1 
0.1 10:0.343379 11:0.191991 12:0.382514 13:0.653953 15:0.280427 17:0.350397 18:0.709779 19:0.594027 20:0.579063 21:0.339198 22:0.301068 23:0.7502 24:0.58561 25:0.333622 26:0.301689 27:0.365642 55:0.353013 110:0.292929 111:0.182117 112:0.280738 113:0.373786 115:0.240955 117:0.337192 118:0.508083 119:0.522913 120:0.302951 121:0.295634 122:0.247012 123:0.404709 124:0.812791 125:0.273694 126:0.263073 127:0.343578 155:0.565862 210:0.360626 211:0.196548 212:0.673146 213:0.586974 215:0.762509 217:0.229378 218:0.528838 219:0.244205 220:0.196559 221:0.611724 222:0.269863 223:0.342553 224:0.327755 225:0.366695 226:0.303403 227:0.275222 255:0.277846 310:0.921348 311:0.305122 312:0.279678 313:0.365369 315:0.438337 317:0.330961 318:0.356551 319:0.330918 320:0.321007 321:0.3 322:0.298969 323:0.287234 324:0.267782 325:0.484087 326:0.333333 327:0.424 355:0.265066 410:0.232 411:0.150891 412:0.325285 413:0.417311 415:0.273759 417:0.189091 418:0.335925 419:0.224916 420:0.269716 421:0.471629 422:0.220214 423:0.380952 424:0.354254 425:0.293015 426:0.181741 427:0.178128 455:0.644767 510:0.180108 511:0.181715 512:0.140174 513:0.213729 515:0.234752 517:0.306909 518:0.194232 519:0.378486 520:0.297918 521:0.170564 522:0.133869 523:0.201137 524:0.206163 525:0.170875 526:0.127163 527:0.276327 555:0.90678 610:0.545876 611:0.303237 612:0.435278 613:0.464177 615:0.453652 617:0.311258 618:0.440852 619:0.314844 620:0.302225 621:0.491059 622:0.359892 623:0.390192 624:0.384446 625:0.799665 626:0.514139 627:0.363409 655:0.35053 710:0.347107 711:0.14212 712:0.56271 713:0.844853 715:0.319149 717:0.230712 718:0.501092 719:0.275808 720:0.262024 721:0.427098 722:0.357984 723:0.555251 724:0.418521 725:0.442553 726:0.365724 727:0.254573 755:0.392883 810:0.306957 811:0.148732 812:0.925426 813:0.57929 815:0.380212 817:0.226099 818:0.403495 819:0.211978 820:0.173063 821:0.536433 822:0.339806 823:0.443567 824:0.312057 825:0.439496 826:0.359931 827:0.197409 855:0.256591 910:0.519789 911:0.266479 912:0.420069 913:0.451122 915:0.413455 917:0.276743 918:0.543461 919:0.323944 920:0.320652 921:0.463567 922:0.358941 923:0.471514 924:0.664544 925:0.736134 926:0.526453 927:0.306476 955:0.345238 1900:0.75 2000:1 
0.1 10:0.291324 11:0.182117 12:0.280738 13:0.373786 15:0.253381 17:0.339582 18:0.520505 19:0.529459 20:0.338214 21:0.30753 22:0.248331 23:0.440352 24:0.812791 25:0.282496 26:0.263073 27:0.343578 55:0.579863 110:0.395776 111:0.193637 112:0.642077 113:0.563107 115:0.756151 117:0.229378 118:0.543495 119:0.247136 120:0.203934 121:0.596994 122:0.304117 123:0.398087 124:0.357761 125:0.380868 126:0.303298 127:0.268716 155:0.294765 210:0.965961 211:0.305122 212:0.300216 213:0.365369 215:0.438337 217:0.325615 218:0.34931 219:0.340232 220:0.263402 221:0.285517 222:0.30137 223:0.287234 224:0.267782 225:0.468507 226:0.374291 227:0.453592 255:0.259241 310:0.179775 311:0.150891 312:0.325285 313:0.428912 315:0.272023 317:0.185053 318:0.358209 319:0.216586 320:0.269079 321:0.463768 322:0.199313 323:0.38227 324:0.354254 325:0.304858 326:0.185185 327:0.172 355:0.644767 410:0.178667 411:0.197661 412:0.140174 413:0.211747 415:0.234752 417:0.319273 418:0.178072 419:0.397157 420:0.327287 421:0.182756 422:0.133869 423:0.201137 424:0.195955 425:0.160988 426:0.147084 427:0.288318 455:0.907793 510:0.560932 511:0.303237 512:0.435278 513:0.475039 515:0.458156 517:0.298182 518:0.474131 519:0.301195 520:0.302225 521:0.491059 522:0.365462 523:0.390192 524:0.384446 525:0.798822 526:0.509516 527:0.358045 555:0.333028 610:0.349398 611:0.136286 612:0.56271 613:0.88186 615:0.316011 617:0.244297 618:0.523659 619:0.280469 620:0.262024 621:0.427098 622:0.33761 623:0.539446 624:0.435803 625:0.430008 626:0.307626 627:0.292398 655:0.338235 710:0.259871 711:0.151289 712:0.873239 713:0.572794 715:0.379433 717:0.236704 718:0.385288 719:0.211978 720:0.180187 721:0.540578 722:0.332461 723:0.395333 724:0.303661 725:0.43234 726:0.348057 727:0.197409 755:0.297187 810:0.513913 811:0.266479 812:0.431108 813:0.451122 815:0.416961 817:0.268667 818:0.527356 819:0.319149 820:0.299059 821:0.463567 822:0.359871 823:0.497238 824:0.66383 825:0.736134 826:0.526453 827:0.298018 855:0.352709 910:0.644679 911:0.232113 912:0.524567 913:0.768284 915:0.392432 917:0.287095 918:0.503524 919:0.327856 920:0.30823 921:0.394171 922:0.371207 923:0.541229 924:0.397735 925:0.494118 926:0.405898 927:0.34262 955:0.33381 1900:0.625 2000:1 
0.1 10:0.393607 11:0.193637 12:0.642077 13:0.563107 15:0.760142 17:0.232156 18:0.556782 19:0.257466 20:0.227672 21:0.6038 22:0.305741 23:0.433147 24:0.357761 25:0.387348 26:0.303298 27:0.268716 55:0.302058 110:1 111:0.300603 112:0.288251 113:0.369626 115:0.4233 117:0.325615 118:0.373364 119:0.342062 120:0.270164 121:0.258411 122:0.334661 123:0.340692 124:0.300466 125:0.485385 126:0.363636 127:0.442868 155:0.276596 210:0.237351 211:0.150891 212:0.349172 213:0.428912 215:0.272023 217:0.177279 218:0.350934 219:0.222682 220:0.219722 221:0.441379 222:0.202055 223:0.38227 224:0.354254 225:0.283865 226:0.20794 227:0.199354 255:0.669523 310:0.123596 311:0.197661 312:0.140174 313:0.217633 315:0.233263 317:0.312456 318:0.189884 319:0.382448 320:0.326515 321:0.17971 322:0.110653 323:0.202837 324:0.195955 325:0.175042 326:0.150673 327:0.2784 355:0.907793 410:0.556444 411:0.316815 412:0.435278 413:0.470634 415:0.458156 417:0.310545 418:0.434681 419:0.316054 420:0.332019 421:0.526161 422:0.365462 423:0.390192 424:0.365411 425:0.796422 426:0.52071 427:0.368683 455:0.340281 510:0.370968 511:0.136286 512:0.56271 513:0.902496 515:0.319149 517:0.232 518:0.563189 519:0.266135 520:0.262024 521:0.427098 522:0.343373 523:0.539446 524:0.435803 525:0.427609 526:0.301038 527:0.286436 555:0.321347 610:0.261353 611:0.145372 612:0.873239 613:0.599848 615:0.375702 617:0.250184 618:0.398265 619:0.217188 620:0.180187 621:0.540578 622:0.311276 623:0.373845 624:0.318415 625:0.41995 626:0.290488 627:0.229741 655:0.242285 710:0.478421 711:0.27106 712:0.406439 713:0.442647 715:0.416312 717:0.282397 718:0.504006 719:0.319149 720:0.305097 721:0.468363 722:0.352749 723:0.442004 724:0.659727 725:0.732766 726:0.517668 727:0.298018 755:0.408512 810:0.637391 811:0.232113 812:0.538352 813:0.768284 815:0.39576 817:0.279135 818:0.488602 819:0.323089 820:0.287473 821:0.394171 822:0.372168 823:0.570639 824:0.396454 825:0.494118 826:0.405898 827:0.334604 855:0.342744 910:0.853122 911:0.333521 912:0.3391 913:0.394642 915:0.488437 917:0.36784 918:0.413469 919:0.397496 920:0.362578 921:0.32755 922:0.38541 923:0.381559 924:0.328379 925:0.563025 926:0.453599 927:0.44503 955:0.330952 1900:0.5 2000:1 
0.1 10:0.289498 11:0.172244 12:0.839481 13:0.569348 15:0.367972 17:0.237203 18:0.493691 19:0.256659 20:0.211567 21:0.576355 22:0.286382 23:0.53723 24:0.512325 25:0.384749 26:0.448914 27:0.263199 55:0.312347 110:0.320478 111:0.179375 112:0.35041 113:0.420943 115:0.434153 117:0.317656 118:0.584296 119:0.344517 120:0.220328 121:0.303508 122:0.648074 123:0.467255 124:0.390406 125:0.534987 126:0.566372 127:0.631206 155:0.57399 210:0.25943 211:0.153675 212:0.802016 213:0.5695 215:0.413672 217:0.221418 218:0.435418 219:0.188742 220:0.14957 221:0.724828 222:0.20137 223:0.285106 224:0.336123 225:0.596204 226:0.505671 227:0.464084 255:0.168666 310:0.458801 311:0.128619 312:0.676727 313:0.772041 315:0.236082 317:0.437011 318:0.55058 319:0.21256 320:0.202203 321:0.428986 322:0.182131 323:0.314184 324:0.267782 325:0.288107 326:0.367845 327:0.2464 355:0.540553 410:0.341333 411:0.131403 412:0.604963 413:0.440495 415:0.507801 417:0.196364 418:0.730171 419:0.182274 420:0.192429 421:0.750184 422:0.208166 423:0.303483 424:0.487448 425:0.30494 426:0.474218 427:0.292461 455:0.372678 510:0.239247 511:0.101079 512:0.33937 513:0.675507 515:0.607801 517:0.158545 518:0.770144 519:0.180876 520:0.178751 521:0.627923 522:0.208166 523:0.333333 524:0.684519 525:0.383838 526:0.224048 527:0.16765 555:0.344251 610:0.250232 611:0.324248 612:0.788732 613:0.483232 615:0.503511 617:0.28624 618:0.548896 619:0.288281 620:0.371141 621:0.530949 622:0.267387 623:0.529495 624:0.325752 625:0.389774 626:0.308483 627:0.378446 655:0.324494 710:0.235078 711:0.196562 712:0.308518 713:0.322059 715:0.292199 717:0.301124 718:0.514931 719:0.337273 720:0.446518 721:0.539202 722:0.268325 723:0.319835 724:0.312276 725:0.370213 726:0.572438 727:0.270579 755:0.870882 810:0.338261 811:0.216338 812:0.196023 813:0.20782 815:0.202827 817:0.645499 818:0.210486 819:0.465721 820:0.713251 821:0.185982 822:0.216181 823:0.229676 824:0.190071 825:0.231933 826:0.468343 827:0.810976 855:0.506955 910:0.340369 911:0.525634 912:0.337024 913:0.704562 915:0.230554 917:0.574879 918:0.698512 919:0.329421 920:0.275621 921:0.278973 922:0.250484 923:0.557721 924:0.329087 925:0.40084 926:0.372073 927:0.578313 955:0.280476 1900:0.75 2000:1 
0.1 10:0.318721 11:0.179375 12:0.35041 13:0.420943 15:0.443416 17:0.320115 18:0.59858 19:0.353511 20:0.245974 21:0.315271 22:0.651535 23:0.508407 24:0.390406 25:0.538128 26:0.566372 27:0.631206 55:0.588192 110:0.294766 111:0.151399 112:0.764344 113:0.54785 115:0.397974 117:0.221418 118:0.454965 119:0.192308 120:0.157377 121:0.714388 122:0.237716 123:0.338484 124:0.365756 125:0.616475 126:0.475463 127:0.453113 155:0.188142 210:0.5115 211:0.128619 212:0.726422 213:0.772041 215:0.236082 217:0.43343 218:0.539399 219:0.218543 220:0.163468 221:0.408276 222:0.184932 223:0.314184 224:0.267782 225:0.266609 226:0.413043 227:0.274415 255:0.556916 310:0.294944 311:0.131403 312:0.604963 313:0.45274 315:0.504581 317:0.192171 318:0.778607 319:0.175523 320:0.191975 321:0.737681 322:0.186942 323:0.304965 324:0.487448 325:0.316583 326:0.476431 327:0.2824 355:0.372678 410:0.237333 411:0.118597 412:0.33937 413:0.669243 415:0.607801 417:0.170909 418:0.706065 419:0.189799 420:0.196372 421:0.672808 422:0.208166 423:0.333333 424:0.650628 425:0.376491 426:0.241758 427:0.181442 455:0.351382 510:0.27509 511:0.324248 512:0.788732 513:0.49454 515:0.508511 517:0.273455 518:0.590331 519:0.274104 520:0.371141 521:0.530949 522:0.273762 523:0.529495 524:0.325752 525:0.387205 526:0.301903 527:0.37321 555:0.308291 610:0.23633 611:0.190233 612:0.308518 613:0.339939 615:0.289326 617:0.313466 618:0.538644 619:0.341406 620:0.446518 621:0.539202 622:0.245105 623:0.295665 624:0.327219 625:0.358759 626:0.508141 627:0.309942 655:0.817502 710:0.292929 711:0.220057 712:0.18444 713:0.195588 715:0.201418 717:0.686891 718:0.200291 719:0.465721 720:0.715721 721:0.19326 722:0.207461 723:0.209334 724:0.180187 725:0.222128 726:0.458481 727:0.810976 755:0.58716 810:0.336522 811:0.525634 812:0.345881 813:0.704562 815:0.232509 817:0.570133 818:0.677812 819:0.324665 820:0.25706 821:0.278973 822:0.251133 823:0.588003 824:0.32766 825:0.40084 826:0.372073 827:0.573171 855:0.296242 910:0.225154 911:0.167324 912:0.2 913:0.299059 915:0.151367 917:0.52795 918:0.280345 919:0.844288 920:0.413043 921:0.192922 922:0.18399 923:0.772114 924:0.253362 925:0.196639 926:0.230703 927:0.509789 955:0.395238 1900:0.875 2000:1 
0.1 10:0.347945 11:0.134942 12:0.407104 13:0.725381 15:0.437722 17:0.186013 18:0.780757 19:0.239709 20:0.240117 21:0.358902 22:0.286382 23:0.666934 24:0.674883 25:0.478336 26:0.296862 27:0.241135 55:0.264331 110:0.713499 111:0.186506 112:0.606557 113:0.801664 115:0.31259 117:0.219247 118:0.573518 119:0.238953 120:0.203279 121:0.343593 122:0.304781 123:0.467255 124:0.368421 125:0.500443 126:0.316975 127:0.301812 155:0.246474 210:0.25667 211:0.506682 212:0.184305 213:0.25973 215:0.162791 217:0.503618 218:0.237206 219:0.892384 220:0.418266 221:0.184828 222:0.15 223:0.455319 224:0.228033 225:0.169974 226:0.253308 227:0.603713 255:0.468299 310:0.34176 311:0.165367 312:0.296445 313:0.239873 315:0.958421 317:0.127402 318:0.267828 319:0.120773 320:0.154209 321:0.371739 322:0.18488 323:0.195745 324:0.183403 325:0.341709 326:0.175926 327:0.1488 355:0.179882 410:0.267556 411:0.245546 412:0.152918 413:0.166924 415:0.151064 417:0.859636 418:0.163297 419:0.642977 420:0.466877 421:0.15549 422:0.16332 423:0.142146 424:0.150628 425:0.154174 426:0.256974 427:0.802817 455:0.483009 510:0.28853 511:0.143101 512:0.393025 513:0.726209 515:0.278014 517:0.269818 518:0.814249 519:0.455777 520:0.277818 521:0.53989 522:0.263052 523:0.40796 524:0.603815 525:0.359428 526:0.488754 527:0.284751 555:0.251031 610:0.485635 611:0.175468 612:0.296445 613:0.488567 615:0.267556 617:0.487123 618:0.615142 619:0.336719 620:0.272075 621:0.279917 622:0.774477 623:0.316986 624:0.563463 625:0.317687 626:0.24593 627:0.608187 655:0.224928 710:0.365473 711:0.154728 712:0.296445 713:0.216176 715:0.964539 717:0.113109 718:0.252731 719:0.130812 720:0.140704 721:0.35282 722:0.223822 723:0.221688 724:0.180905 725:0.35234 726:0.214664 727:0.121951 755:0.234912 810:0.295652 811:0.19662 812:0.747869 813:0.362056 815:0.248763 817:0.434054 818:0.294833 819:0.520095 820:0.921072 821:0.33449 822:0.238835 823:0.353591 824:0.253191 825:0.310084 826:0.464007 827:0.507622 855:0.306622 910:0.465259 911:0.210704 912:0.314187 913:0.37147 915:0.292221 917:0.478951 918:0.755677 919:0.362285 920:0.319876 921:0.338654 922:0.289219 923:0.386057 924:0.527247 925:0.562185 926:0.673894 927:0.567018 955:0.250476 1900:0.75 2000:1 
0.001035187548887328 10:0.290411 11:0.499177 12:0.178279 13:0.277393 15:0.154448 17:0.505407 18:0.273659 19:0.889427 20:0.472914 21:0.168191 22:0.188919 23:0.560448 24:0.262492 25:0.189775 26:0.26066 27:0.589441 55:0.492651 110:0.431589 111:0.162918 112:0.305328 113:0.260055 115:0.957308 117:0.118669 118:0.290993 119:0.128478 120:0.131148 121:0.329277 122:0.224436 123:0.245769 124:0.219853 125:0.33481 126:0.213194 127:0.171789 155:0.186708 210:0.274149 211:0.245546 212:0.164147 213:0.171565 215:0.150106 217:0.844428 218:0.170593 219:0.636589 220:0.385175 221:0.145517 222:0.143836 223:0.143972 224:0.150628 225:0.143227 226:0.29206 227:0.80791 255:0.494737 310:0.236891 311:0.1598 312:0.393025 313:0.739476 315:0.276251 317:0.276157 318:0.79602 319:0.460548 320:0.304485 321:0.568841 322:0.243299 323:0.40922 324:0.573919 325:0.362647 326:0.502525 327:0.2864 355:0.259175 410:0.498667 411:0.191537 412:0.296445 413:0.495363 415:0.270213 417:0.484364 418:0.606532 419:0.339465 420:0.298896 421:0.299926 422:0.776439 423:0.316986 424:0.535565 425:0.306644 426:0.256128 427:0.611433 455:0.222247 510:0.388889 511:0.148779 512:0.296445 513:0.235569 515:0.964539 517:0.117818 518:0.273961 519:0.119522 520:0.140704 521:0.35282 522:0.206158 523:0.19403 524:0.192957 525:0.338384 526:0.153114 527:0.139848 555:0.170866 610:0.249305 611:0.19364 612:0.705567 613:0.371189 615:0.245084 617:0.469463 618:0.285489 619:0.522656 620:0.921752 621:0.34044 622:0.205942 623:0.292822 624:0.25752 625:0.290863 626:0.393316 627:0.569758 655:0.300386 710:0.421488 711:0.214327 712:0.303823 713:0.361765 715:0.293617 717:0.501873 718:0.701384 719:0.357762 720:0.304379 721:0.344567 722:0.282068 723:0.363761 724:0.520459 725:0.556596 726:0.667845 727:0.561738 755:0.312816 810:0.353913 811:0.198873 812:0.24929 813:0.201303 815:0.814134 817:0.578507 818:0.228723 819:0.665091 820:0.354815 821:0.265788 822:0.212945 823:0.222573 824:0.185816 825:0.285714 826:0.269731 827:0.53125 855:0.266556 910:0.299033 911:0.143662 912:0.329412 913:0.559739 915:0.245971 917:0.324362 918:0.718872 919:0.370892 920:0.680901 921:0.333796 922:0.258231 923:0.444528 924:0.757254 925:0.321849 926:0.299219 927:0.455572 955:0.379524 1900:0.75 2000:1 
0.03460076093380074 10:0.429224 11:0.162918 12:0.305328 13:0.260055 15:0.958007 17:0.121846 18:0.298107 19:0.140436 20:0.146413 21:0.340605 22:0.225634 23:0.267414 24:0.219853 25:0.342288 26:0.213194 27:0.171789 55:0.191328 110:0.309458 111:0.241909 112:0.159153 113:0.200416 115:0.127352 117:0.844428 118:0.204003 119:0.635025 120:0.39082 121:0.113099 122:0.181939 123:0.192053 124:0.188541 125:0.151461 126:0.293644 127:0.78881 155:0.506574 210:0.293468 211:0.1598 212:0.421886 213:0.739476 215:0.276251 217:0.269899 218:0.779854 219:0.47351 220:0.249504 221:0.541379 222:0.24589 223:0.40922 224:0.573919 225:0.343399 226:0.564272 227:0.31477 255:0.252876 310:0.460674 311:0.191537 312:0.296445 313:0.509134 315:0.268499 317:0.474021 318:0.646766 319:0.326892 320:0.29819 321:0.294928 322:0.770447 323:0.31844 324:0.535565 325:0.318258 326:0.259259 327:0.5904 355:0.222247 410:0.385778 411:0.165367 412:0.296445 413:0.233385 415:0.964539 417:0.130182 418:0.251166 419:0.125418 420:0.154574 421:0.37804 422:0.206158 423:0.19403 424:0.183403 425:0.330494 426:0.172443 427:0.154101 455:0.179882 510:0.274194 511:0.19364 512:0.705567 513:0.379875 515:0.247518 517:0.454545 518:0.30704 519:0.513147 520:0.921752 521:0.34044 522:0.212851 523:0.292822 524:0.25752 525:0.287879 526:0.387543 527:0.566133 555:0.285387 610:0.424467 611:0.207836 612:0.303823 613:0.381098 615:0.29073 617:0.51067 618:0.740536 619:0.361719 620:0.304379 621:0.344567 622:0.259284 623:0.341151 624:0.539985 625:0.54233 626:0.600686 627:0.629073 655:0.257956 710:0.309458 711:0.202292 712:0.234742 713:0.188971 715:0.814894 717:0.614981 718:0.217771 719:0.665091 720:0.360373 721:0.272352 722:0.204188 723:0.203157 724:0.175879 725:0.276596 726:0.256184 727:0.53125 755:0.308728 810:0.295652 811:0.143662 812:0.338068 813:0.559739 815:0.248057 817:0.316818 818:0.697568 819:0.36643 820:0.635047 821:0.333796 822:0.2589 823:0.468824 824:0.756738 825:0.321849 826:0.299219 827:0.448933 855:0.382603 910:0.286719 911:0.0940845 912:0.756401 913:0.842143 915:0.285214 917:0.164941 918:0.5278 919:0.187011 920:0.180901 921:0.55864 922:0.292447 923:0.47901 924:0.350318 925:0.376471 926:0.300954 927:0.173946 955:0.215476 1900:0.75 2000:1 
0.1 10:0.497717 11:0.855184 12:0.263661 13:0.210125 15:0.26121 17:0.412401 18:0.268139 19:0.457627 20:0.356515 21:0.228712 22:0.244993 23:0.260208 24:0.251832 25:0.363951 26:0.347546 27:0.438928 55:0.350073 110:0.500459 111:0.201317 112:0.39959 113:0.347434 115:0.895803 117:0.194645 118:0.337952 119:0.206219 120:0.188852 121:0.428776 122:0.309429 123:0.311994 124:0.317788 125:0.444641 126:0.267096 127:0.282112 155:0.317954 210:0.556578 211:0.315145 212:0.488841 213:0.498014 215:0.478506 217:0.337916 218:0.473599 219:0.366722 220:0.313038 221:0.517931 222:0.343836 223:0.400709 224:0.355649 225:0.771355 226:0.542533 227:0.368846 255:0.350306 310:0.504682 311:0.315145 312:0.455399 313:0.498014 315:0.478506 317:0.34306 318:0.483416 319:0.356683 320:0.380016 321:0.544203 322:0.341581 323:0.400709 324:0.355649 325:0.778057 326:0.483165 327:0.34 355:0.349343 410:0.540444 411:0.315145 412:0.455399 413:0.484544 415:0.48156 417:0.350545 418:0.453344 419:0.370401 420:0.380915 421:0.553427 422:0.358768 423:0.399431 424:0.355649 425:0.774276 426:0.480981 427:0.352113 455:0.349343 510:0.456093 511:0.865417 512:0.255533 513:0.179407 515:0.270213 517:0.410909 518:0.24173 519:0.432669 520:0.346734 521:0.243466 522:0.225569 523:0.187633 524:0.228173 525:0.359428 526:0.297578 527:0.425442 555:0.319285 610:0.34569 611:0.188529 612:0.389001 613:0.553354 615:0.337079 617:0.278882 618:0.851735 619:0.365625 620:0.346734 621:0.448418 622:0.35314 623:0.469794 624:0.59281 625:0.445096 626:0.304199 627:0.3467 655:0.336307 710:0.434343 711:0.194842 712:0.389001 713:0.308824 715:0.904255 717:0.19176 718:0.29716 719:0.205674 720:0.203877 721:0.448418 722:0.307592 723:0.283459 724:0.286432 725:0.457872 726:0.273852 727:0.228659 755:0.366915 810:0.472174 811:0.303662 812:0.412642 813:0.391745 815:0.341343 817:0.392184 818:0.387538 819:0.440504 820:0.341057 821:0.443442 822:0.379935 823:0.393844 824:0.365957 825:0.547899 826:0.89072 827:0.455793 855:0.357899 910:0.564644 911:0.303662 912:0.470588 913:0.463432 915:0.477926 917:0.329883 918:0.476899 919:0.366197 920:0.365683 921:0.512144 922:0.378954 923:0.447526 924:0.367304 925:0.798319 926:0.545533 927:0.3125 955:0.351429 1900:0.375 2000:1 
0.1 10:0.497717 11:0.201317 12:0.39959 13:0.347434 15:0.897509 17:0.197549 18:0.346215 19:0.217111 20:0.210835 21:0.438424 22:0.311081 23:0.339472 24:0.317788 25:0.44974 26:0.267096 27:0.282112 55:0.325821 110:0.591368 111:0.310477 112:0.467213 113:0.485437 115:0.464544 117:0.337916 118:0.491147 119:0.368249 120:0.319344 121:0.499642 122:0.37583 123:0.458425 124:0.38441 125:0.79628 126:0.506838 127:0.360126 155:0.365527 210:0.556578 211:0.315145 212:0.488841 213:0.498014 215:0.478506 217:0.337916 218:0.473599 219:0.366722 220:0.313038 221:0.517931 222:0.343836 223:0.400709 224:0.355649 225:0.771355 226:0.542533 227:0.368846 255:0.350306 310:0.504682 311:0.315145 312:0.455399 313:0.498014 315:0.478506 317:0.34306 318:0.483416 319:0.356683 320:0.380016 321:0.544203 322:0.341581 323:0.400709 324:0.355649 325:0.778057 326:0.483165 327:0.34 355:0.349343 410:0.452444 411:0.86804 412:0.255533 413:0.177743 415:0.270213 417:0.423273 418:0.221617 419:0.454013 420:0.380915 421:0.26087 422:0.225569 423:0.187633 424:0.216876 425:0.351789 426:0.313609 427:0.434963 455:0.326688 510:0.367384 511:0.188529 512:0.389001 513:0.566303 515:0.340426 517:0.266182 518:0.916031 519:0.352988 520:0.346734 521:0.448418 522:0.358768 523:0.469794 524:0.59281 525:0.442761 526:0.297578 527:0.341196 555:0.319514 610:0.437442 611:0.188529 612:0.389001 613:0.32622 615:0.895365 617:0.206034 618:0.302839 619:0.210938 620:0.203877 621:0.448418 622:0.285618 623:0.257996 624:0.300807 625:0.445096 626:0.218509 627:0.263993 655:0.312199 710:0.434343 711:0.308883 712:0.389001 713:0.382353 715:0.340426 717:0.414981 718:0.369993 719:0.440504 720:0.346734 721:0.448418 722:0.373037 723:0.352093 724:0.35822 725:0.542128 726:0.888693 727:0.455793 755:0.414523 810:0.558261 811:0.303662 812:0.482955 813:0.463432 815:0.481979 817:0.322401 818:0.462766 819:0.361702 820:0.341057 821:0.512144 822:0.379935 823:0.471981 824:0.365957 825:0.798319 826:0.545533 827:0.304116 855:0.358107 910:0.302551 911:0.191549 912:0.5391 913:0.463432 915:0.477926 917:0.26156 918:0.476899 919:0.288732 920:0.288043 921:0.857044 922:0.314396 923:0.447526 924:0.437367 925:0.547899 926:0.45967 927:0.237952 955:0.351429 1900:0.5 2000:1 
0.1 10:0.383562 11:0.202962 12:0.297814 13:0.323162 15:0.293238 17:0.333814 18:0.31388 19:0.451977 20:0.210835 21:0.318086 22:0.252336 23:0.317854 24:0.262492 25:1 26:0.347546 27:0.263987 55:0.308182 110:0.455464 111:0.14701 112:0.548497 113:0.590153 115:0.281476 117:0.201158 118:0.692071 119:0.206219 120:0.248525 121:0.394417 122:0.677291 123:0.50699 124:0.459027 125:0.532329 126:0.513274 127:0.347518 155:0.234999 210:0.403864 211:0.178174 212:0.269978 213:0.593328 215:0.21494 217:0.58466 218:0.680747 219:0.590232 220:0.575778 221:0.393103 222:0.177397 223:0.246099 224:0.259414 225:0.283003 226:0.489603 227:0.671509 255:0.422032 310:0.273408 311:0.203786 312:0.152918 313:0.174742 315:0.162086 317:0.701068 318:0.164179 319:0.839775 320:0.612116 321:0.155797 322:0.13677 323:0.139716 324:0.155509 325:0.146566 326:0.18266 327:0.788 355:0.232442 410:0.197333 411:0.123051 412:0.560027 413:0.869397 415:0.200709 417:0.455273 418:0.481337 419:0.373746 420:0.227918 421:0.296979 422:0.200134 423:0.579957 424:0.439331 425:0.31431 426:0.166526 427:0.601491 455:0.258722 510:0.331541 511:0.186258 512:0.139504 513:0.156786 515:0.146809 517:0.739636 518:0.150975 519:0.67251 520:0.471644 521:0.137552 522:0.147925 523:0.118692 524:0.139398 525:0.143939 526:0.287197 527:0.94861 555:0.189418 610:0.389249 611:0.15389 612:0.633803 613:0.337652 615:0.482444 617:0.333333 618:0.390379 619:0.20625 620:0.178033 621:0.571527 622:0.205942 623:0.552239 624:0.24945 625:0.792121 626:0.389032 627:0.3868 655:0.221311 710:0.366391 711:0.110602 712:0.699531 713:0.836765 715:0.412766 717:0.290637 718:0.378004 719:0.277384 720:0.359655 721:0.482118 722:0.445681 723:0.333562 724:0.240488 725:0.364255 726:0.208481 727:0.166159 755:0.23371 810:0.23913 811:0.32338 812:0.93608 813:0.582187 815:0.419081 817:0.169574 818:0.510638 819:0.252167 820:0.251267 821:0.544761 822:0.234304 823:0.381215 824:0.239716 825:0.279832 826:0.323504 827:0.206555 855:0.185593 910:0.280563 911:0.268169 912:0.379931 913:0.382332 915:0.840224 917:0.183575 918:0.660924 919:0.285603 920:0.343168 921:0.548924 922:0.227243 923:0.270615 924:0.394904 925:0.35042 926:0.213356 927:0.169428 955:0.359524 1900:0.625 2000:1 
0.1 10:0.452968 11:0.14701 12:0.548497 13:0.590153 15:0.293238 17:0.204037 18:0.708991 19:0.217111 20:0.277452 21:0.404645 22:0.680908 23:0.551641 24:0.459027 25:0.535529 26:0.513274 27:0.347518 55:0.240813 110:0.438935 111:0.175535 112:0.259563 113:0.568655 115:0.193922 117:0.58466 118:0.687452 119:0.589198 120:0.579672 121:0.370079 122:0.214475 123:0.298013 124:0.292472 125:0.294951 126:0.461786 127:0.655634 155:0.435573 210:0.329347 211:0.203786 212:0.164147 213:0.174742 215:0.162086 217:0.701881 218:0.160845 219:0.863411 220:0.508273 221:0.148276 222:0.139726 223:0.139716 224:0.155509 225:0.120794 226:0.205104 227:0.820823 255:0.22399 310:0.143258 311:0.123051 312:0.560027 313:0.893566 315:0.199436 317:0.445552 318:0.513267 319:0.359903 320:0.22738 321:0.292029 322:0.178694 323:0.580851 324:0.439331 325:0.325796 326:0.170034 327:0.5808 355:0.258722 410:0.328889 411:0.202116 412:0.139504 413:0.155332 415:0.146809 417:0.752 418:0.138414 419:0.705686 420:0.518139 421:0.147384 422:0.147925 423:0.118692 424:0.132497 425:0.133731 426:0.303466 427:0.949461 455:0.198233 510:0.409498 511:0.15389 512:0.633803 513:0.345554 515:0.487234 517:0.32 518:0.419847 519:0.190438 520:0.178033 521:0.571527 522:0.212851 523:0.552239 524:0.24945 525:0.791246 526:0.383218 527:0.381634 555:0.210261 610:0.36886 611:0.105054 612:0.699531 613:0.873476 615:0.408708 617:0.303164 618:0.390379 619:0.282031 620:0.359655 621:0.482118 622:0.428089 623:0.309879 624:0.253852 625:0.352892 626:0.155099 627:0.195489 655:0.17864 710:0.188246 711:0.32894 712:0.8833 713:0.575735 715:0.41844 717:0.17603 718:0.487983 719:0.252167 720:0.257717 721:0.548831 722:0.225785 723:0.341112 724:0.230438 725:0.270638 726:0.310954 727:0.206555 755:0.214956 810:0.277391 811:0.268169 812:0.389915 813:0.382332 815:0.84735 817:0.174459 818:0.641337 819:0.280536 820:0.320058 821:0.548924 822:0.227832 823:0.285714 824:0.393617 825:0.35042 826:0.213356 827:0.159299 855:0.365165 910:0.479332 911:0.304225 912:0.380623 913:0.716872 915:0.218641 917:0.256039 918:0.653093 919:0.5759 920:0.460404 921:0.342817 922:0.227889 923:0.547976 924:0.420382 925:0.327731 926:0.620121 927:0.330572 955:0.277619 1900:0.625 2000:1 
0.1 10:0.352511 11:0.189797 12:0.577869 13:0.440361 15:0.333808 17:0.242249 18:0.811514 19:0.261501 20:0.242313 21:0.715693 22:0.299065 23:0.456365 24:0.428381 25:0.558925 26:0.531778 27:0.285264 55:0.279765 110:0.310376 111:0.188151 112:0.345628 113:0.676838 115:0.226483 117:0.296671 118:0.376443 119:0.356792 120:0.57377 121:0.281317 122:0.245684 123:0.606328 124:0.319787 125:0.335695 126:0.667739 127:0.335697 155:0.615587 210:0.397424 211:0.237194 212:0.37581 213:0.356632 215:0.336857 217:0.322721 218:0.330626 219:0.315397 220:0.238915 221:0.62 222:0.238356 223:0.282979 224:0.269874 225:0.791199 226:0.638941 227:0.521388 255:0.433782 310:0.725655 311:0.228285 312:0.400402 313:0.366958 315:0.55673 317:0.241281 318:0.359038 319:0.229469 320:0.246263 321:0.862319 322:0.237113 323:0.298582 324:0.285914 325:0.435511 326:0.305556 327:0.2984 355:0.245582 410:0.656889 411:0.249443 412:0.250168 413:0.287481 415:0.304965 417:0.653818 418:0.268274 419:0.692308 420:0.407729 421:0.274871 422:0.630522 423:0.230277 424:0.221757 425:0.541738 426:0.293322 427:0.478045 455:0.265745 510:0.409498 511:0.224872 512:0.368209 513:0.368955 515:0.35461 517:0.570182 518:0.365564 519:0.306773 520:0.268485 521:0.625172 522:0.543507 523:0.296375 524:0.292737 525:0.819865 526:0.373702 527:0.370682 555:0.24645 610:0.306766 611:0.208972 612:0.316566 613:0.307927 615:0.292135 617:0.389257 618:0.291009 619:0.367969 620:0.293611 621:0.609354 622:0.218096 623:0.257285 624:0.268525 625:0.623638 626:0.548415 627:0.578947 655:0.654291 710:0.545455 711:0.186246 712:0.780684 713:0.428676 715:0.366667 717:0.205243 718:0.335033 719:0.198582 720:0.187365 721:0.709766 722:0.280759 723:0.334935 724:0.276382 725:0.625532 726:0.360424 727:0.210366 755:0.272421 810:0.37913 811:0.139718 812:0.372869 813:0.584359 815:0.879152 817:0.134682 818:0.583587 819:0.163909 820:0.162201 821:0.350451 822:0.259547 823:0.373323 824:0.312766 825:0.361345 826:0.254987 827:0.147104 855:0.224414 910:0.613896 911:0.244507 912:0.370934 913:0.348298 915:0.362299 917:0.340925 918:0.356304 919:0.316119 920:0.286491 921:0.629424 922:0.298903 923:0.338831 924:0.291578 925:0.772269 926:0.64961 927:0.52259 955:0.254286 1900:0.625 2000:1 
0.1 10:0.308676 11:0.188151 12:0.345628 13:0.676838 15:0.239146 17:0.299207 18:0.385647 19:0.365617 20:0.640556 21:0.293455 22:0.246996 23:0.659728 24:0.319787 25:0.343154 26:0.667739 27:0.335697 55:0.630818 110:0.432507 111:0.233681 112:0.359973 113:0.361997 115:0.319103 117:0.322721 118:0.355658 119:0.317512 120:0.245902 121:0.605583 122:0.273572 123:0.336277 124:0.302465 125:0.816652 126:0.588898 127:0.509062 155:0.447048 210:0.773689 211:0.228285 212:0.429806 213:0.366958 215:0.55673 217:0.234443 218:0.351747 219:0.235927 220:0.200529 221:0.82069 222:0.239726 223:0.298582 224:0.285914 225:0.418464 226:0.3431 227:0.326877 255:0.238188 310:0.627341 311:0.249443 312:0.250168 313:0.295473 315:0.30303 317:0.639858 318:0.28607 319:0.666667 320:0.406766 321:0.27029 322:0.620619 323:0.231915 324:0.221757 325:0.549414 326:0.296296 327:0.4616 355:0.265745 410:0.406222 411:0.239978 412:0.368209 413:0.365533 415:0.35461 417:0.582545 418:0.335148 419:0.321906 420:0.294953 421:0.66986 422:0.543507 423:0.296375 424:0.278243 425:0.817717 426:0.387997 427:0.38111 455:0.254644 510:0.329749 511:0.208972 512:0.316566 513:0.315133 515:0.295035 517:0.375273 518:0.312977 519:0.355378 520:0.293611 521:0.609354 522:0.2249 523:0.257285 524:0.268525 525:0.622054 526:0.544118 527:0.5754 555:0.621622 610:0.549583 611:0.180011 612:0.780684 613:0.450457 615:0.363062 617:0.219279 618:0.343849 619:0.203906 620:0.187365 621:0.709766 622:0.257934 623:0.311301 624:0.290536 625:0.610226 626:0.302485 627:0.243943 655:0.217454 710:0.336088 711:0.14212 712:0.351442 713:0.577941 715:0.880142 717:0.138577 718:0.557902 719:0.163909 720:0.169419 721:0.356259 722:0.251309 723:0.334248 724:0.304379 725:0.353191 726:0.241166 727:0.147104 755:0.259918 810:0.606957 811:0.244507 812:0.380682 813:0.348298 815:0.365371 817:0.333566 818:0.345745 819:0.311269 820:0.267198 821:0.629424 822:0.299676 823:0.357537 824:0.290071 825:0.772269 826:0.64961 827:0.516768 855:0.273407 910:0.699208 911:0.213521 912:0.278201 913:0.26937 915:0.773651 917:0.334714 918:0.292091 919:0.301252 920:0.256988 921:0.285219 922:0.629438 923:0.257871 924:0.215145 925:0.380672 926:0.307025 927:0.546687 955:0.205952 1900:0.625 2000:1 
