svm_type c_svc
kernel_type rbf
gamma 0.1
nr_class 2
total_sv 210
rho -1.00865
label 1 0
probA -5.75459
probB 2.72613
nr_sv 106 104
SV
0.1 11:0.267878 14:0.277562 26:0.329314 28:0.110602 29:0.125168 51:0.305902 52:0.178871 53:0.133252 54:0.153212 56:0.769207 57:0.720483 111:0.0884224 114:0.236057 126:0.578225 128:0.138796 129:0.563571 151:0.541025 152:0.636925 153:0.754902 154:0.271157 156:0.260413 157:0.665021 211:0.124487 214:0.311634 226:0.0887728 228:0.0687773 229:0.118698 251:0.0229841 252:0.0182796 253:0.0165125 254:0.0143091 256:0.93178 257:0.00250268 311:0.180374 314:0.151662 326:0.573043 328:0.289863 329:0.103382 351:0.522781 352:0.545018 353:0.473498 354:0.458809 356:0.77973 357:0.506368 411:0.154282 414:0.0300752 426:0.174749 428:0.0505111 429:0.0516373 451:0.461653 452:0.413699 453:0.334357 454:0.403064 456:0.129838 457:0.962331 
0.1 11:0.215709 14:0.17834 26:0.568646 28:0.362751 29:0.117093 51:0.492852 52:0.53956 53:0.404645 54:0.458333 56:0.78772 57:0.537533 111:0.204835 114:0.0525292 126:0.170174 128:0.0897436 129:0.0521429 151:0.454545 152:0.412491 153:0.337535 154:0.362263 156:0.107066 157:0.962623 211:0.547196 214:0.450139 226:0.637076 228:0.492358 229:0.435227 251:0.233289 252:0.148172 253:0.1714 254:0.0695012 256:0.849037 257:0.249196 311:0.185479 314:0.128116 326:0.129565 328:0.0443506 329:0.0185067 351:0.404392 352:0.366088 353:0.184099 354:0.474018 356:0.0511453 357:0.866437 411:0.349972 414:0.455229 426:0.705686 428:0.100421 429:0.446474 451:0.464452 452:0.51895 453:0.610031 454:0.236955 456:0.594636 457:0.672708 
0.08601340599300318 11:0.130129 14:0.174449 26:0.201299 28:0.194842 29:0.201211 51:0.895345 52:0.878939 53:0.631112 54:0.786458 56:0.349583 57:0.462844 111:0.236641 114:0.268482 126:0.31656 128:0.165552 129:0.223571 151:0.53621 152:0.49897 153:0.364496 154:0.492228 156:0.871336 157:0.281735 211:0.0923393 214:0.878116 226:0.051349 228:0.652838 229:0.876197 251:0.112239 252:0.215484 253:0.255284 254:0.0936222 256:0.263425 257:0.0775831 311:0.115712 314:0.126039 326:0.405217 328:0.0876452 329:0.278877 351:0.737969 352:0.727834 353:0.522968 354:0.737643 356:0.525886 357:0.520482 411:0.176971 414:0.221463 426:0.19398 428:0.0883945 429:0.170025 451:0.189588 452:0.147032 453:0.129649 454:0.131163 456:0.863761 457:0.297441 
0.1 11:0.218054 14:0.268482 26:0.30705 28:0.170201 29:0.210633 51:0.500367 52:0.494446 53:0.318154 54:0.494792 56:0.871336 57:0.310072 111:0.12659 114:0.858625 126:0.0265325 128:0.705686 129:0.989286 151:0.123267 152:0.229238 153:0.270658 154:0.0988774 156:0.32706 157:0.090268 211:0.129959 214:0.126039 226:0.4047 228:0.0982533 229:0.278877 251:0.74028 252:0.683871 253:0.483487 254:0.701554 256:0.494428 257:0.501966 311:0.176971 314:0.211219 326:0.208696 328:0.0739176 329:0.158902 351:0.18591 352:0.146252 353:0.134276 354:0.127165 356:0.843113 357:0.319449 411:0.0136132 414:0.050581 426:0.132943 428:0.0829826 429:0.117758 451:0.771226 452:0.794521 453:0.48857 454:0.98516 456:0.139592 457:0.317697 
0.1 11:0.116647 14:0.858625 26:0.012987 28:0.725501 29:0.932032 51:0.107405 52:0.227159 53:0.236247 54:0.0993924 56:0.32706 57:0.105243 111:0.161578 114:0.154345 126:0.397987 128:0.139353 129:0.320714 151:0.754815 152:0.727522 153:0.512605 154:0.740933 156:0.538106 157:0.508815 211:0.20383 214:0.211219 226:0.208007 228:0.0840611 229:0.158902 251:0.162421 252:0.136559 253:0.120211 254:0.110793 256:0.835866 257:0.293171 311:0.0136132 314:0.0380886 326:0.145217 328:0.0691658 329:0.105935 351:0.756267 352:0.794333 353:0.506007 354:0.880862 356:0.0975839 357:0.339071 411:0.32785 414:0.295967 426:0.298495 428:0.126879 429:0.448992 451:0.778503 452:0.83516 453:0.837257 454:0.581139 456:0.219445 457:0.552239 
0.1 11:0.148886 14:0.154345 26:0.38961 28:0.143266 29:0.302153 51:0.708394 52:0.720925 53:0.447433 54:0.744792 56:0.538106 57:0.552999 111:0.23028 114:0.234112 126:0.191217 128:0.124861 129:0.186429 151:0.173729 152:0.145276 153:0.127451 154:0.117012 156:0.850046 157:0.302891 211:0.00683995 214:0.0380886 226:0.144473 228:0.0791485 229:0.105935 251:0.759433 252:0.746452 253:0.467635 254:0.840147 256:0.0334347 257:0.31355 311:0.32785 314:0.286704 326:0.317391 328:0.107709 329:0.441608 351:0.763403 352:0.835009 353:0.867138 354:0.524292 356:0.179793 357:0.566265 411:0.147476 414:0.382775 426:0.140468 428:0.108839 429:0.175063 451:0.287927 452:0.184247 453:0.102013 454:0.247966 456:0.961597 457:0.0845771 
0.1 11:0.212192 14:0.234112 26:0.179963 28:0.128367 29:0.175639 51:0.155425 52:0.143958 53:0.111247 54:0.117622 56:0.850046 57:0.332705 111:0.0470738 114:0.0719844 126:0.124428 128:0.119844 129:0.127143 151:0.774076 152:0.794097 153:0.495798 154:0.887306 156:0.116939 157:0.32299 211:0.385773 214:0.286704 226:0.316797 228:0.118996 229:0.441608 251:0.766903 252:0.784731 253:0.805152 254:0.495094 256:0.121918 257:0.549517 311:0.147476 314:0.374654 326:0.153043 328:0.0918691 329:0.164008 351:0.282342 352:0.183501 353:0.105654 354:0.230249 356:0.943834 357:0.113253 411:0.440726 414:0.408066 426:0.175585 428:0.382441 429:0.188917 451:0.311065 452:0.288356 453:0.259297 454:0.245572 456:0.926547 457:0.0891969 
0.1 11:0.283705 14:0.699092 26:0.233766 28:0.25788 29:0.838493 51:0.633798 52:0.669916 53:0.503667 54:0.567274 56:0.497686 57:0.302905 111:0.111959 114:0.149805 126:0.187557 128:0.0685619 129:0.193571 151:0.465331 152:0.309311 153:0.330882 154:0.175734 156:0.130824 157:0.74048 211:0.00478796 214:0.259695 226:0.115753 229:0.0146777 251:0.455277 252:0.187312 253:0.166777 254:0.149632 256:0.0989531 257:0.158742 311:0.170732 314:0.34072 326:0.431304 328:0.0876452 329:0.529036 351:0.776761 352:0.753656 353:0.804594 354:0.448669 356:0.641983 357:0.284337 411:0.0703347 414:0.907724 426:0.25 428:0.603127 429:0.314232 451:0.106923 452:0.0993151 453:0.102013 454:0.0698899 456:0.807681 457:0.134684 
0.1 11:0.103165 14:0.149805 26:0.176252 28:0.0704871 29:0.182369 51:0.432918 52:0.306506 53:0.288814 54:0.176649 56:0.130824 57:0.80083 111:0.0451654 114:0.279507 126:0.094236 128:0.039019 129:0.025 151:0.46822 152:0.199268 153:0.176821 154:0.158031 156:0.176797 157:0.17031 211:0.196306 214:0.34072 226:0.430809 228:0.0982533 229:0.529036 251:0.780885 252:0.708172 253:0.746697 254:0.421913 256:0.619385 257:0.256704 311:0.0703347 314:0.90651 326:0.266957 328:0.525871 329:0.305041 351:0.104849 352:0.0984918 353:0.105654 354:0.0730883 356:0.785378 357:0.16179 411:0.0822462 414:0.261791 426:0.671405 428:0.055923 429:0.137909 451:0.670088 452:0.659132 453:0.543159 454:0.624701 456:0.775069 457:0.350036 
0.1 11:0.0416178 14:0.279507 26:0.0816327 28:0.0401146 29:0.0235532 51:0.435667 52:0.197461 53:0.15434 54:0.158854 56:0.176797 57:0.190871 111:0.223282 114:0.355383 126:0.425435 128:0.139353 129:0.600714 151:0.795647 152:0.753375 153:0.791667 154:0.445596 156:0.652268 157:0.266925 211:0.0752394 214:0.90651 226:0.266319 228:0.55131 229:0.305041 251:0.0775713 252:0.0916129 253:0.093461 254:0.0584628 256:0.773725 257:0.129424 311:0.0822462 314:0.252078 326:0.705217 328:0.0454065 329:0.126356 351:0.657091 352:0.658821 353:0.562544 354:0.562738 356:0.751804 357:0.370396 411:0.0663642 414:0.10458 426:0.426421 428:0.0817799 429:0.320529 451:0.941407 452:0.817808 453:0.674855 454:0.772618 456:0.574215 457:0.4172 
0.1 11:0.27374 14:0.20428 26:0.41744 28:0.2 29:0.225437 51:0.700513 52:0.588302 53:0.480134 54:0.444444 56:0.308547 57:0.843455 111:0.272901 114:0.310636 126:0.68161 128:0.198439 129:0.253571 151:0.437404 152:0.424388 153:0.429622 154:0.271157 156:0.817649 157:0.305007 211:0.281806 214:0.204986 226:0.83725 228:0.165393 229:0.203574 251:0.64164 252:0.417419 253:0.369551 254:0.336059 256:0.380615 257:0.675009 311:0.102099 314:0.124654 326:0.56 328:0.13094 329:0.179962 351:0.776944 352:0.78862 353:0.535689 354:0.834812 356:0.242548 357:0.377625 411:0.206466 414:0.394395 426:0.219064 428:0.17258 429:0.237406 451:0.265721 452:0.206621 453:0.188673 454:0.173289 456:0.935386 457:0.171997 
0.1 11:0.251465 14:0.310636 26:0.67718 28:0.204011 29:0.238896 51:0.406342 52:0.42054 53:0.375 54:0.272569 56:0.817649 57:0.334968 111:0.302799 114:0.228275 126:0.852699 128:0.207915 129:0.236429 151:0.655624 152:0.444063 153:0.391807 154:0.354922 156:0.434125 157:0.679478 211:0.113543 214:0.124654 226:0.559617 228:0.143013 229:0.179962 251:0.781076 252:0.741075 253:0.495376 254:0.795585 256:0.189463 257:0.353593 311:0.206466 314:0.386427 326:0.234783 328:0.147835 329:0.227186 351:0.260567 352:0.205896 353:0.195406 354:0.164343 356:0.91685 357:0.197935 411:0.158253 414:0.15311 426:0.675585 428:0.141311 429:0.195844 451:0.758537 452:0.741324 453:0.771068 454:0.477262 456:0.323377 457:0.478678 
0.1 11:0.279015 14:0.228275 26:0.850649 28:0.213754 29:0.222746 51:0.614003 52:0.440036 53:0.341993 54:0.356771 56:0.434125 57:0.735571 111:0.14631 114:0.153048 126:0.560842 128:0.185061 129:0.21 151:0.79584 152:0.788378 153:0.52521 154:0.840242 156:0.259488 157:0.362482 211:0.239398 214:0.386427 226:0.234117 228:0.16048 229:0.227186 251:0.240567 252:0.192688 253:0.177345 254:0.14677 256:0.915231 257:0.166965 311:0.158253 314:0.141967 326:0.709565 328:0.12038 329:0.185067 351:0.743824 352:0.741088 353:0.798587 354:0.432615 356:0.28679 357:0.495009 411:0.249575 414:0.225564 426:0.282609 428:0.189417 429:0.218514 451:0.629595 452:0.528539 453:0.389969 454:0.565821 456:0.534288 457:0.713575 
0.1 11:0.307737 14:0.355383 26:0.333952 28:0.226361 29:0.294078 51:0.376466 52:0.314214 53:0.249694 54:0.246962 56:0.881518 57:0.358355 111:0.343511 114:0.232815 126:0.549863 128:0.220178 129:0.253571 151:0.607473 152:0.479982 153:0.426821 154:0.379534 156:0.429806 157:0.786319 211:0.243502 214:0.292936 226:0.738033 228:0.235808 229:0.543714 251:0.660984 252:0.641505 253:0.662153 254:0.399836 256:0.332658 257:0.560601 311:0.263755 314:0.227147 326:0.327826 328:0.152059 329:0.216975 351:0.591034 352:0.424817 353:0.386572 354:0.340515 356:0.589896 357:0.693976 411:0.183778 414:0.272044 426:0.398829 428:0.185207 429:0.236776 451:0.702743 452:0.642466 453:0.653361 454:0.435136 456:0.753124 457:0.33049 
0.1 11:0.31653 14:0.232815 26:0.543599 28:0.226361 29:0.238896 51:0.568182 52:0.475629 53:0.372555 54:0.38151 56:0.429806 57:0.849868 111:0.267176 114:0.310636 126:0.748399 128:0.279822 129:0.617143 151:0.675077 152:0.682453 153:0.702031 154:0.42228 156:0.390312 157:0.566643 211:0.308482 214:0.227147 226:0.327241 228:0.164847 229:0.216975 251:0.586478 252:0.39871 253:0.356011 254:0.317253 256:0.563323 257:0.682159 311:0.183778 314:0.262465 326:0.421739 328:0.158923 329:0.226548 351:0.689113 352:0.642139 353:0.676678 354:0.395437 356:0.729212 357:0.351463 411:0.175269 414:0.618592 426:0.211538 428:0.414913 429:0.84005 451:0.454749 452:0.560046 453:0.610372 454:0.322642 456:0.548918 457:0.37349 
0.1 11:0.223916 14:0.299611 26:0.305195 28:0.166762 29:0.207268 51:0.183101 52:0.162775 53:0.128362 54:0.12934 56:0.946004 57:0.183327 111:0.236005 114:0.730869 126:0.259835 128:0.789855 129:0.388571 151:0.339946 152:0.26836 153:0.25 154:0.198187 156:0.673866 157:0.512341 211:0.502052 214:0.166205 226:0.257615 228:0.144105 229:0.171666 251:0.48688 252:0.425591 253:0.428666 254:0.278414 256:0.370821 257:0.703969 311:0.555303 314:0.352493 326:0.203478 328:0.180042 329:0.430759 351:0.6871 352:0.567185 353:0.577032 354:0.376003 356:0.733605 357:0.325301 411:0.180942 414:0.401914 426:0.348662 428:0.168972 429:0.200252 451:0.690054 452:0.668037 453:0.510406 454:0.689325 456:0.38342 457:0.816631 
0.1 11:0.217468 14:0.730869 26:0.249536 28:0.812034 29:0.366083 51:0.3136 52:0.265926 53:0.218215 54:0.199219 56:0.673866 57:0.556771 111:0.507634 114:0.191958 126:0.243367 128:0.186176 129:0.200714 151:0.5 152:0.452757 153:0.454482 154:0.294041 156:0.425177 157:0.708039 211:0.660055 214:0.352493 226:0.202785 228:0.193777 229:0.430759 251:0.687033 252:0.532688 253:0.534016 254:0.351594 256:0.718001 257:0.299249 311:0.180942 314:0.394044 326:0.369565 328:0.144667 329:0.189534 351:0.67667 352:0.667733 353:0.528622 354:0.619772 356:0.348604 357:0.822375 411:0.21384 414:0.278195 426:0.358696 428:0.230908 429:0.248741 451:0.886173 452:0.667352 453:0.596042 454:0.567736 456:0.707101 457:0.493603 
0.1 11:0.701055 14:0.406615 26:0.254174 28:0.338109 29:0.56393 51:0.592742 52:0.572206 53:0.387225 54:0.545573 56:0.665227 57:0.387401 111:1 114:0.273671 126:0.292772 128:0.250279 129:0.284286 151:0.500578 152:0.495081 153:0.522059 154:0.290587 156:0.506634 157:0.484838 211:0.183311 214:0.858033 226:0.147955 228:0.68941 229:0.751755 251:0.296112 252:0.312903 253:0.320343 254:0.198283 256:0.473151 257:0.203432 311:0.177538 314:0.218837 326:0.25913 328:0.144667 329:0.202297 351:0.745105 352:0.681901 353:0.693286 354:0.449092 356:0.679008 357:0.509122 411:0.19342 414:0.442925 426:0.198161 428:0.193025 429:0.238035 451:0.387013 452:0.25 453:0.232344 454:0.202968 456:0.945748 457:0.196517 
0.1 11:0.0679953 14:0.301556 26:0.384972 28:0.127794 29:0.370794 51:0.686217 52:0.931081 53:0.867054 54:0.551215 56:0.396174 57:0.254621 111:0.164758 114:0.20428 126:0.53065 128:0.604794 129:0.32 151:0.455508 152:0.340197 153:0.344888 154:0.216753 156:0.850355 157:0.412906 211:0.0889193 214:0.608033 226:0.355962 228:0.0987991 229:0.17358 251:0.390921 252:0.555484 253:0.728203 254:0.154538 256:0.747383 257:0.168037 311:0.100964 314:0.486842 326:0.486087 328:0.435586 329:0.164646 351:0.748216 352:0.723035 353:0.639576 354:0.589354 356:0.759962 357:0.297418 411:0.310834 414:0.302802 426:0.297659 428:0.0847865 429:0.115239 451:0.767867 452:0.552055 453:0.375981 454:0.634753 456:0.590674 457:0.672708 
0.1 11:0.104338 14:0.149157 26:0.134508 28:0.152436 29:0.374832 51:0.876466 52:0.935162 53:0.785452 54:0.674913 56:0.405122 57:0.489249 111:0.129135 114:1 126:0.0137237 128:0.330546 129:0.486429 151:0.144646 152:0.12194 153:0.141457 154:0.0556995 156:0.499229 157:0.109309 211:0.174419 214:0.335873 226:0.758921 228:0.421397 229:0.51372 251:0.560812 252:0.449032 253:0.475231 254:0.265331 256:0.553529 257:0.592778 311:0.036869 314:0.0401662 326:0.257391 328:0.0596621 329:0.116146 351:0.514547 352:0.742916 353:0.861131 354:0.361217 356:0.130217 357:0.264028 411:0.285309 414:0.353383 426:0.104515 428:0.261575 429:0.77267 451:0.395969 452:0.228995 453:0.255885 454:0.125898 456:0.598598 457:0.304193 
0.1 11:0.118992 14:1 28:0.339828 29:0.458277 51:0.127749 52:0.120834 53:0.123472 54:0.0559896 56:0.499229 57:0.125613 111:0.202926 114:0.350843 126:0.770357 128:0.469342 129:0.583571 151:0.574345 152:0.477694 153:0.503852 154:0.280225 156:0.592101 157:0.598378 211:0.0348837 214:0.0401662 226:0.256745 228:0.0693231 229:0.116146 251:0.506416 252:0.698065 253:0.799538 254:0.337285 256:0.0685579 257:0.23561 311:0.285309 314:0.344875 326:0.115652 328:0.225977 329:0.769623 351:0.388289 352:0.228291 353:0.265018 354:0.122518 356:0.570129 357:0.32599 411:0.325581 414:0.142174 426:0.123746 428:0.0883945 429:0.29534 451:0.675872 452:0.73379 453:0.758444 454:0.479177 456:0.173728 457:0.355721 
0.1 11:0.186987 14:0.350843 26:0.767161 28:0.482521 29:0.549798 51:0.536657 52:0.473362 53:0.439792 54:0.281684 56:0.592101 57:0.648812 111:0.0731552 114:0.07393 126:0.242452 128:0.10981 129:0.138571 151:0.519646 152:0.742622 153:0.847689 154:0.356218 156:0.149028 157:0.246121 211:0.334473 214:0.344875 226:0.114883 228:0.241266 229:0.769623 251:0.374258 252:0.213763 253:0.242404 254:0.106296 256:0.542047 257:0.299964 311:0.325581 314:0.130886 326:0.135652 328:0.0739176 329:0.285897 351:0.662763 352:0.733547 353:0.785512 354:0.434305 356:0.132727 357:0.375904 411:0.0862167 414:0.0498975 426:0.083612 428:0.0901984 429:0.0535264 451:0.36574 452:0.229909 453:0.186967 454:0.224509 456:0.110027 457:0.829424 
0.1 11:0.283705 14:0.345655 26:0.288497 28:0.220057 29:0.271871 51:0.326063 52:0.274994 53:0.222494 54:0.210503 56:0.908053 57:0.308186 111:0.212468 114:0.194553 126:0.324794 128:0.201226 129:0.294286 151:0.913328 152:0.813315 153:0.828431 154:0.513385 156:0.26319 157:0.543371 211:0.268126 214:0.372576 226:0.259356 228:0.197598 229:0.251436 251:0.319096 252:0.247957 253:0.23712 254:0.177841 256:0.92435 257:0.213801 311:0.220079 314:0.310942 326:0.678261 328:0.18057 329:0.239949 351:0.604941 352:0.522852 353:0.532862 354:0.346853 356:0.727016 357:0.372117 411:0.171299 414:0.165414 426:0.325251 428:0.162959 429:0.203401 451:0.913976 452:0.70411 453:0.563971 454:0.689804 456:0.269735 457:0.725302 
0.1 11:0.19578 14:0.194553 26:0.315399 28:0.206877 29:0.277254 51:0.859238 52:0.80594 53:0.723105 54:0.516059 56:0.26319 57:0.589966 111:0.290076 114:0.385214 126:0.245197 128:0.240803 129:0.29 151:0.331279 152:0.263784 153:0.251401 154:0.187824 156:0.930886 157:0.224612 211:0.255814 214:0.310942 226:0.677981 228:0.194323 229:0.239949 251:0.601034 252:0.490968 253:0.492734 254:0.323385 256:0.710908 257:0.347873 311:0.171299 314:0.154432 326:0.345217 328:0.139388 329:0.192725 351:0.896249 352:0.703839 353:0.584099 354:0.620194 356:0.231566 357:0.733907 411:0.233693 414:0.330827 426:0.275084 428:0.167769 429:0.247481 451:0.349879 452:0.252968 453:0.227226 454:0.216371 456:0.926852 457:0.245203 
0.06231898396379969 11:0.235639 14:0.206226 26:0.975881 28:0.182808 29:0.195155 51:0.597691 52:0.465427 53:0.311736 54:0.448351 56:0.52237 57:0.483214 111:0.239186 114:0.297017 126:0.188472 128:0.175028 129:0.213571 151:0.318567 152:0.199268 153:0.183123 154:0.150259 156:0.920086 157:0.390691 211:0.19357 214:0.486842 226:0.915579 228:0.140284 229:0.200383 251:0.646811 252:0.532043 253:0.514201 254:0.374898 256:0.344816 257:0.462281 311:0.178106 314:0.274931 326:0.198261 328:0.105069 329:0.179962 351:0.181153 352:0.14191 353:0.134982 354:0.118293 356:0.967681 357:0.156282 411:0.0680658 414:0.117567 426:0.249164 428:0.0775707 429:0.325567 451:0.801642 452:0.693607 453:0.423405 454:0.865007 456:0.321548 457:0.320185 
0.1 11:0.220399 14:0.297017 26:0.17718 28:0.179943 29:0.201211 51:0.293255 52:0.197461 53:0.159841 54:0.151042 56:0.920086 57:0.426631 111:0.220738 114:0.492218 126:0.935041 128:0.182274 129:0.232857 151:0.660824 152:0.566003 153:0.545168 154:0.395941 156:0.401419 157:0.469676 211:0.205198 214:0.274931 226:0.197563 228:0.116266 229:0.179962 251:0.157441 252:0.132473 253:0.120872 254:0.102208 256:0.969943 257:0.123704 311:0.0680658 314:0.105956 326:0.266087 328:0.0644139 329:0.316528 351:0.786093 352:0.693327 353:0.438516 354:0.77482 356:0.284907 357:0.34148 411:0.145207 414:0.155161 426:0.560201 428:0.105232 429:0.142317 451:0.699011 452:0.473516 453:0.444217 454:0.374342 456:0.577263 457:0.568941 
0.1 11:0.2034 14:0.492218 26:0.934137 28:0.187393 29:0.219381 51:0.618952 52:0.560871 53:0.475856 54:0.398003 56:0.401419 57:0.511128 111:0.231552 114:0.293774 126:0.180238 128:0.157748 129:0.21 151:0.168721 152:0.140929 153:0.128151 154:0.107945 156:0.972539 157:0.135755 211:0.0725034 214:0.105956 226:0.265448 228:0.0742358 229:0.316528 251:0.790653 252:0.651398 253:0.404557 254:0.737531 256:0.235056 257:0.316053 311:0.145207 314:0.144044 326:0.589565 328:0.0887012 329:0.130823 351:0.685453 352:0.473035 353:0.460071 354:0.341783 356:0.548164 357:0.582444 411:0.152014 414:0.12782 426:0.584448 428:0.105232 429:0.15869 451:0.85445 452:0.736301 453:0.571136 454:0.747247 456:0.370619 457:0.643213 
0.1 11:0.213365 14:0.293774 26:0.168831 28:0.162178 29:0.197847 51:0.15066 52:0.139651 53:0.111858 54:0.108507 56:0.972539 57:0.153904 111:0.108142 114:0.135538 126:0.251601 128:0.114827 129:0.362857 151:0.80547 152:0.692976 153:0.428922 154:0.778929 156:0.301142 157:0.325458 211:0.165527 214:0.144044 226:0.589208 228:0.099345 229:0.130823 251:0.685309 252:0.444086 253:0.424703 254:0.318479 256:0.518406 257:0.566321 311:0.152014 314:0.116343 326:0.614783 328:0.0887012 329:0.147415 351:0.837877 352:0.73606 353:0.591519 354:0.670891 356:0.335425 357:0.654389 411:0.111174 414:0.119617 426:0.414716 428:0.115454 429:0.163728 451:0.794365 452:0.863927 453:0.772433 454:0.732408 456:0.438891 457:0.561834 
0.1 11:0.0996483 14:0.135538 26:0.241187 28:0.118052 29:0.341857 51:0.756598 52:0.686692 53:0.374389 54:0.782986 56:0.301142 57:0.356846 111:0.194656 114:0.171206 126:0.591949 128:0.140468 129:0.155 151:0.699538 152:0.472432 153:0.45028 154:0.336356 156:0.560012 157:0.572285 211:0.173735 214:0.116343 226:0.614447 228:0.099345 229:0.147415 251:0.844857 252:0.691613 253:0.547556 254:0.636958 256:0.289429 257:0.641044 311:0.111174 314:0.108033 326:0.438261 328:0.0976769 329:0.152521 351:0.778957 352:0.863803 353:0.8 354:0.657795 356:0.405711 357:0.575559 411:0.117413 414:0.125769 426:0.704013 428:0.116657 429:0.15806 451:0.792685 452:0.803653 453:0.745821 454:0.64337 456:0.362085 457:0.410448 
0.1 11:0.123095 14:0.520752 26:0.241187 28:0.196562 29:0.467026 51:0.73607 52:0.768307 53:0.687042 54:0.495226 56:0.273064 57:0.439834 111:0.178117 114:0.363813 126:0.504117 128:0.154961 129:0.194286 151:0.701464 152:0.715626 153:0.553922 154:0.66753 156:0.751311 157:0.32299 211:0.565663 214:0.458449 226:0.367276 228:0.290393 229:0.855775 251:0.456809 252:0.552258 253:0.691546 254:0.193786 256:0.465383 257:0.302109 311:0.115145 314:0.206371 326:0.428696 328:0.10982 329:0.155712 351:0.730467 352:0.681673 353:0.69576 354:0.445712 356:0.592093 357:0.320482 411:0.0964265 414:0.966507 426:0.0844482 428:0.297054 429:0.603275 451:0.126889 452:0.172831 453:0.211191 454:0.0708473 456:0.608961 457:0.147832 
0.1 11:0.164127 14:0.363813 26:0.497217 28:0.159312 29:0.183042 51:0.657625 52:0.709136 53:0.483496 54:0.671007 56:0.751311 57:0.354206 111:0.566794 114:0.465629 126:0.358646 128:0.335563 129:0.966429 151:0.469761 152:0.587509 153:0.733193 154:0.204663 156:0.511571 157:0.311707 211:0.129275 214:0.206371 226:0.428198 228:0.121179 229:0.155712 251:0.732427 252:0.64043 253:0.64498 254:0.419052 256:0.565687 257:0.294244 311:0.0964265 314:0.966066 326:0.0947826 328:0.257128 329:0.597958 351:0.124428 352:0.172075 353:0.218728 354:0.0739332 356:0.580797 357:0.174527 411:0.0277935 414:0.0451128 426:0.127926 428:0.0655442 429:0.123426 451:0.53872 452:0.771461 453:0.87001 454:0.401628 456:0.15605 457:0.228145 
0.1 11:0.388628 14:0.373541 26:0.544527 28:0.893983 29:0.460969 51:0.57643 52:0.668102 53:0.634169 54:0.378472 56:0.55631 57:0.278763 111:0.414758 114:0.210117 126:0.287283 128:0.134894 129:0.148571 151:0.221302 152:0.196751 153:0.192577 154:0.133851 156:0.833693 157:0.492948 211:0.392613 214:0.326177 226:0.562228 228:0.115721 229:0.472878 251:0.700441 252:0.697634 253:0.577609 254:0.611202 256:0.634583 257:0.276368 311:0.133863 314:0.319945 326:0.130435 328:0.0728617 329:0.139757 351:0.0827081 352:0.0699269 353:0.0664311 354:0.0671736 356:0.961719 357:0.0853701 411:0.023823 414:0.0287081 426:0.121237 429:0.187657 451:0.760403 452:0.749772 453:0.486865 454:0.893729 456:0.0932642 457:0.376688 
0.03982986784901212 11:0.15592 14:0.924773 26:0.0630798 28:0.317479 29:0.425976 51:0.139296 52:0.144185 53:0.136308 54:0.0824653 56:0.734958 57:0.14636 111:0.201654 114:0.175097 126:0.906679 128:0.149944 129:0.307143 151:0.70859 152:0.67353 153:0.504902 154:0.648532 156:0.541191 157:0.373061 211:0.181259 214:0.689058 226:0.164491 228:0.167576 229:0.261008 251:0.162996 252:0.155269 253:0.164465 254:0.0915781 256:0.919959 257:0.105113 311:0.136699 314:0.364958 326:0.693043 328:0.152059 329:0.54499 351:0.583898 352:0.725091 353:0.796113 354:0.405999 356:0.634139 357:0.323924 411:0.0731707 414:0.075188 426:0.215719 428:0.039086 429:0.125315 451:0.681097 452:0.529452 453:0.422723 454:0.521781 456:0.123438 457:0.313077 
0.1 11:0.152989 14:0.848898 26:0.345083 28:0.740401 29:0.380888 51:0.370418 52:0.186806 53:0.159841 54:0.130642 56:0.616476 57:0.342512 111:0.159669 114:0.139429 126:0.73376 128:0.118729 129:0.204286 151:0.773883 152:0.723633 153:0.811275 154:0.365285 156:0.416847 157:0.441114 211:0.250342 214:0.0526316 226:0.251523 228:0.0895197 229:0.0536056 251:0.441486 252:0.395484 253:0.280383 254:0.404742 256:0.159068 257:0.700751 311:0.128758 314:0.456371 326:0.645217 328:0.130412 329:0.443523 351:0.630375 352:0.65745 353:0.65583 354:0.448669 356:0.704424 357:0.423408 411:0.140669 414:0.347232 426:0.102007 428:0.14552 429:0.173804 451:0.204516 452:0.134018 453:0.133743 454:0.0981331 456:0.905212 457:0.0803127 
0.1 11:0.147128 14:0.139429 26:0.730056 28:0.122063 29:0.192463 51:0.72654 52:0.717071 53:0.70813 54:0.367188 56:0.416847 57:0.480573 111:0.273537 114:0.0856031 126:0.236962 128:0.130435 129:0.0685714 151:0.454353 152:0.420728 153:0.297269 154:0.427461 156:0.231719 157:0.704866 211:0.145691 214:0.456371 226:0.644909 228:0.142467 229:0.443523 251:0.627658 252:0.617634 253:0.607662 254:0.421913 256:0.686592 257:0.401144 311:0.140669 314:0.338643 326:0.113043 328:0.124076 329:0.162731 351:0.200549 352:0.133227 353:0.138516 354:0.0980144 356:0.885786 357:0.109122 411:0.217243 414:0.460014 426:0.48913 428:0.262778 429:0.299748 451:0.842508 452:0.950228 453:0.965541 454:0.642413 456:0.454435 457:0.31059 
0.1 11:0.162954 14:0.438392 26:0.363636 28:0.297994 29:0.780619 51:0.495418 52:0.610746 53:0.340159 54:0.686198 56:0.742055 57:0.21539 111:0.166667 114:0.407263 126:0.547118 128:0.507246 129:0.567143 151:0.635401 152:0.84237 153:0.888655 154:0.493955 156:0.674175 157:0.278209 211:0.181259 214:0.563019 226:0.180157 228:0.143559 229:0.21889 251:0.407776 252:0.309247 253:0.369881 254:0.130008 256:0.857481 257:0.225956 311:0.0799773 314:0.130886 326:0.251304 328:0.0850053 329:0.133376 351:0.802013 352:0.834095 353:0.667845 354:0.760879 356:0.604644 357:0.351807 411:0.0828134 414:0.25769 426:0.607023 428:0.115454 429:0.221662 451:0.78914 452:0.968721 453:0.954282 454:0.696984 456:0.213045 457:0.343994 
0.1 11:0.0615475 14:0.0622568 26:0.351577 28:0.0968481 29:0.110363 51:0.749633 52:0.984357 53:0.846271 54:0.682726 56:0.118173 57:0.423237 111:0.311069 114:0.888457 126:0.146386 128:0.26087 129:0.523571 151:0.222843 152:0.303592 153:0.277311 154:0.231002 156:0.778155 157:0.098378 211:0.0629275 214:0.189751 226:0.0626632 228:0.0791485 229:0.0350989 251:0.371768 252:0.248817 253:0.244386 254:0.170482 256:0.0141844 257:0.755452 311:0.222915 314:0.461911 326:0.366087 328:0.138332 329:0.595405 351:0.433669 352:0.265539 353:0.229682 354:0.233629 356:0.874176 357:0.280551 411:0.0788429 414:0.764867 426:0.311037 428:0.416115 429:0.248111 451:0.740996 452:0.681735 453:0.513818 454:0.71326 456:0.611704 457:0.406183 
0.1 11:0.117819 14:0.0726329 26:0.496289 28:0.105444 29:0.117093 51:0.792339 52:0.660168 53:0.555318 54:0.47526 56:0.178649 57:0.712939 111:0.30598 114:0.108301 126:0.450137 128:0.0947603 129:0.0978571 151:0.869992 152:0.496454 153:0.377801 154:0.471071 156:0.525764 157:0.464386 211:0.0854993 214:0.361496 226:0.685814 228:0.069869 229:0.111678 251:0.655238 252:0.64129 253:0.647622 254:0.417416 256:0.444782 257:0.58098 311:0.290981 314:0.197368 326:0.473913 328:0.0580781 329:0.090619 351:0.86624 352:0.714122 353:0.556537 354:0.672159 356:0.330719 357:0.629948 411:0.256948 414:0.576897 426:0.456522 428:0.116657 429:0.178212 451:0.412017 452:0.404795 453:0.369157 454:0.335567 456:0.906126 457:0.224591 
0.1 11:0.281946 14:0.108301 26:0.442486 28:0.0974212 29:0.0921938 51:0.817999 52:0.491952 53:0.329768 54:0.473524 56:0.525764 57:0.50547 111:0.120229 114:0.374838 126:0.693504 128:0.110368 129:0.133571 151:0.669299 152:0.682224 153:0.686625 154:0.440846 156:0.492749 157:0.586742 211:0.341313 214:0.197368 226:0.473455 228:0.0676856 229:0.090619 251:0.874545 252:0.670968 253:0.514861 254:0.638185 256:0.284363 257:0.61566 311:0.256948 314:0.57133 326:0.481739 328:0.0987328 329:0.167198 351:0.404026 352:0.40425 353:0.382332 354:0.307562 356:0.886727 357:0.248881 411:0.326149 414:0.78879 426:0.489967 428:0.474444 429:0.56801 451:0.409218 452:0.380365 453:0.407711 454:0.230254 456:0.710454 457:0.34968 
0.1 11:0.139508 14:0.327497 26:0.0491651 28:0.10086 29:0.127187 51:0.0108138 52:0.00634777 53:0.00244499 54:0.00868056 56:0.875656 111:0.139949 114:0.0940337 126:0.935956 128:0.100334 129:0.105714 151:0.677773 152:0.706703 153:0.582283 154:0.615717 156:0.416538 157:0.412553 211:0.223666 214:0.0367036 226:0.289817 228:0.0496725 229:0.0772176 251:0.874928 252:0.834409 253:0.707728 254:0.710139 256:0.147923 257:0.724348 311:0.259217 314:0.474377 326:0.110435 328:0.309398 329:0.252712 351:0.174016 352:0.117687 353:0.138516 354:0.069286 356:0.958268 357:0.192771 411:0.0504821 414:0.0608339 426:0.542642 428:0.059531 429:0.115239 451:0.814891 452:1 453:0.862504 454:0.891336 456:0.330997 457:0.412935 
0.1 11:0.128957 14:0.0940337 26:0.935065 28:0.103152 29:0.0995962 51:0.635081 52:0.700295 53:0.508252 54:0.618924 56:0.416538 57:0.450019 111:0.248728 114:0.0706874 126:0.277219 128:0.0897436 129:0.095 151:0.890216 152:0.887669 153:0.75035 154:0.75 156:0.221537 157:0.728138 211:0.30301 214:0.474377 226:0.109661 228:0.327511 229:0.252712 251:0.149971 252:0.109677 253:0.124174 254:0.0547833 256:0.959811 257:0.161602 311:0.0504821 314:0.0484765 326:0.571304 328:0.0485744 329:0.103382 351:0.799085 352:1 353:0.893286 354:0.798057 356:0.294634 357:0.431325 411:0.235394 414:0.161312 426:0.704013 428:0.330126 429:0.31738 451:0.418362 452:0.267123 453:0.191061 454:0.296793 456:0.803414 457:0.422886 
0.1 11:0.229191 14:0.0706874 26:0.267161 28:0.0922636 29:0.089502 51:0.837243 52:0.879619 53:0.654951 54:0.753906 56:0.221537 57:0.787627 111:0.322519 114:0.480545 126:0.0878317 128:0.373467 129:0.291429 151:0.16121 152:0.116678 153:0.131653 154:0.0578584 156:0.963283 157:0.173131 211:0.0512996 214:0.0484765 226:0.570931 228:0.0578603 229:0.103382 251:0.804252 252:0.94 253:0.82959 254:0.760016 256:0.245525 257:0.409367 311:0.235394 314:0.150277 326:0.73913 328:0.286167 329:0.308232 351:0.410247 352:0.266453 353:0.19788 354:0.273342 356:0.780985 357:0.440964 411:0.229155 414:0.547505 426:0.490803 428:0.460613 429:0.496222 451:0.715059 452:0.824658 453:0.874446 454:0.506941 456:0.544346 457:0.336532 
0.1 11:0.297186 14:0.480545 26:0.0751391 28:0.383954 29:0.274563 51:0.143512 52:0.11562 53:0.114914 54:0.0581597 56:0.963283 57:0.193889 111:0.0884224 114:0.0817121 126:0.572736 128:0.0981048 129:0.124286 151:0.819145 152:1 153:0.879552 154:0.802677 156:0.310707 157:0.417489 211:0.274282 214:0.150277 226:0.738903 228:0.303493 229:0.308232 251:0.397242 252:0.249677 253:0.179657 254:0.252249 256:0.768997 257:0.419378 311:0.229155 314:0.541551 326:0.517391 328:0.400739 329:0.48947 351:0.701189 352:0.824497 353:0.905654 354:0.458809 356:0.514277 357:0.357315 411:0.239365 414:0.171565 426:0.382943 428:0.280818 429:0.259446 451:0.755925 452:0.680137 453:0.58103 454:0.615606 456:0.78726 457:0.324449 
0.1 11:0.181125 14:0.90856 26:0.356215 28:0.340974 29:0.451548 51:0.22489 52:0.205169 53:0.185513 54:0.12934 56:0.709966 57:0.176537 111:0.117048 114:0.123865 126:0.494968 128:0.152174 129:0.18 151:0.833783 152:0.945093 153:0.82528 154:0.765976 156:0.21228 157:0.307828 211:0.663475 214:0.205679 226:0.248042 228:0.139738 229:0.172304 251:0.455468 252:0.29914 253:0.271466 254:0.232625 256:0.60385 257:0.640329 311:0.169597 314:0.446676 326:0.505217 328:0.139916 329:0.210593 351:0.540348 352:0.438071 353:0.500707 354:0.228559 356:0.841544 357:0.324957 411:0.386273 414:0.280246 426:0.229097 428:0.175586 429:0.493073 451:0.617279 452:0.434018 453:0.368816 454:0.397319 456:0.826882 457:0.512438 
0.1 11:0.107855 14:0.123865 26:0.487941 28:0.156447 29:0.169583 51:0.783541 52:0.936522 53:0.720355 54:0.769965 56:0.21228 57:0.337986 111:0.657761 114:0.228923 126:0.233303 128:0.181717 129:0.201429 151:0.468413 152:0.318234 153:0.287815 154:0.245682 156:0.638075 157:0.645275 211:0.194938 214:0.446676 226:0.504787 228:0.152293 229:0.210593 251:0.533423 252:0.411183 253:0.462682 254:0.208913 256:0.834178 257:0.298892 311:0.386273 314:0.270776 326:0.245217 328:0.150475 329:0.48628 351:0.605306 352:0.433501 353:0.381979 354:0.362062 356:0.805146 357:0.527711 411:0.110607 414:0.0950103 426:0.553512 428:0.107035 429:0.147985 451:0.937675 452:0.690183 453:0.460252 454:0.806127 456:0.224322 457:0.458067 
0.1 11:0.104924 14:0.0972763 26:0.188312 28:0.119771 29:0.310229 51:0.761547 52:0.851281 53:0.653423 54:0.701823 56:0.149954 57:0.676349 111:0.0986005 114:0.0674449 126:0.545288 128:0.113712 129:0.13 151:0.866718 152:0.781972 153:0.761204 154:0.537133 156:0.141314 157:0.528209 211:0.0916553 214:0.74446 226:0.687554 228:0.153384 229:0.408424 251:0.547979 252:0.576989 253:0.598085 254:0.3565 256:0.572442 257:0.215588 311:0.133296 314:0.4259 326:0.315652 328:0.0728617 329:0.229738 351:0.290027 352:0.176645 353:0.187633 354:0.119561 356:0.837151 357:0.416523 411:0.0595576 414:0.69378 426:0.0133779 428:0.610944 429:0.921914 451:0.052062 452:0.156621 453:0.204026 454:0.0469124 456:0.638525 457:0.0124378 
0.1 11:0.332356 14:0.490921 26:0.11039 28:0.162751 29:0.363392 51:0.328812 52:0.398549 53:0.388142 54:0.211806 56:0.910213 57:0.134289 111:0.265903 114:0.172503 126:0.132662 128:0.161093 129:0.62 151:0.843991 152:0.817433 153:0.879202 154:0.458549 156:0.279852 157:0.430889 211:0.311218 214:0.232687 226:0.399478 228:0.0769651 229:0.208679 251:0.554108 252:0.561075 253:0.626816 254:0.290679 256:0.301587 257:0.741509 311:0.622235 314:0.288781 326:0.292174 328:0.0871172 329:0.412253 351:0.514364 352:0.340722 353:0.270671 354:0.323616 356:0.442736 357:0.777281 411:0.0737379 414:0.220779 426:0.208194 428:0.0859892 429:0.177582 451:0.313678 452:0.310502 453:0.256568 454:0.295835 456:0.300213 457:0.817697 
0.1 11:0.245018 14:0.172503 26:0.120594 28:0.165616 29:0.584118 51:0.793255 52:0.81002 53:0.767421 54:0.460938 56:0.279852 57:0.469634 111:0.330153 114:0.254215 126:0.392498 128:0.117614 129:0.242143 151:0.567604 152:0.596889 153:0.664566 154:0.306995 156:0.361925 157:0.745063 211:0.740766 214:0.288781 226:0.291558 228:0.0977074 229:0.412253 251:0.506225 252:0.31957 253:0.247688 254:0.300899 256:0.404931 257:0.768681 311:0.0737379 314:0.210526 326:0.223478 328:0.0718057 329:0.16656 351:0.307594 352:0.309872 353:0.265724 354:0.272497 356:0.262943 357:0.823408 411:0.612592 414:0.304853 426:0.258361 428:0.0835839 429:0.179471 451:0.278224 452:0.23653 453:0.215626 454:0.198181 456:0.823529 457:0.625089 
0.1 11:0.182298 14:0.280156 26:0.108534 28:0.154728 29:0.171602 51:0.114553 52:0.0936296 53:0.0816015 54:0.0633681 56:0.996297 57:0.0916635 111:0.124682 114:0.142672 126:0.548033 128:0.183946 129:0.168571 151:0.87943 152:0.885152 153:0.773459 154:0.716753 156:0.451095 157:0.432652 211:0.228454 214:0.639889 226:0.157528 228:0.153384 229:0.239311 251:0.106493 252:0.0946237 253:0.100727 254:0.0551922 256:0.931104 257:0.0711477 311:0.129325 314:0.0740997 326:0.327826 328:0.0707497 329:0.176771 351:0.873376 352:0.992916 353:0.896113 354:0.78158 356:0.31754 357:0.425129 411:0.0589904 414:0.0717703 426:0.158027 428:0.0583283 429:0.153023 451:0.78746 452:0.827397 453:0.763903 454:0.667784 456:0.11399 457:0.598792 
0.1 11:0.114889 14:0.142672 26:0.541744 28:0.189112 29:0.158816 51:0.826979 52:0.877125 53:0.675122 54:0.720486 56:0.451095 57:0.47152 111:0.253181 114:0.635538 126:0.138152 128:0.195652 129:0.276429 151:0.117488 152:0.100663 153:0.106793 154:0.0582902 156:0.937056 157:0.083921 211:0.146375 214:0.0740997 226:0.327241 228:0.080786 229:0.176771 251:0.882015 252:0.933333 253:0.832232 254:0.744072 256:0.270179 257:0.402932 311:0.0589904 314:0.0595568 326:0.171304 328:0.0475185 329:0.141672 351:0.772187 352:0.827239 353:0.791166 354:0.60076 356:0.0712269 357:0.61136 411:0.256948 414:0.269993 426:0.143813 428:0.108238 429:0.165617 451:0.142937 452:0.105708 453:0.101672 454:0.0837721 456:0.99939 457:0.168799 
0.1 11:0.233294 14:0.635538 26:0.12616 28:0.201146 29:0.260431 51:0.101906 52:0.0997506 53:0.0932152 54:0.0585938 56:0.937056 57:0.0984534 111:0.176845 114:0.105707 126:0.31656 128:0.121516 129:0.206429 151:0.897342 152:0.992908 153:0.882353 154:0.785838 156:0.33323 157:0.411142 211:0.0615595 214:0.0595568 226:0.170583 228:0.0567686 229:0.141672 251:0.776097 252:0.777419 253:0.734148 254:0.569092 256:0.00506586 257:0.596353 311:0.256948 314:0.260388 326:0.156522 328:0.0913411 329:0.154435 351:0.140165 352:0.10489 353:0.1053 354:0.0853401 356:0.982742 357:0.194836 411:0.412365 414:0.276145 426:0.663043 428:0.389657 429:0.38665 451:0.760776 452:0.719406 453:0.709314 454:0.517951 456:0.392563 457:0.628287 
0.1 11:0.0855803 14:0.0972763 26:0.731911 28:0.118052 29:0.313594 51:0.763746 52:0.869644 53:0.651284 54:0.740017 56:0.237272 57:0.413052 111:0.0547074 114:0.333982 126:0.325709 128:0.108696 129:0.248571 151:0.722072 152:0.801418 153:0.92472 154:0.372193 156:0.342487 157:0.421016 211:0.208618 214:0.640582 226:0.668407 228:0.614629 229:0.69113 251:0.44819 252:0.466237 253:0.551519 254:0.203598 256:0.637285 257:0.172685 311:0.112309 314:0.559557 326:0.513043 328:0.0786695 329:0.246331 351:0.344373 352:0.263254 353:0.262544 354:0.190114 356:0.877942 357:0.307057 411:0.0550199 414:0.0478469 426:0.630435 428:0.0402886 429:0.161839 451:0.912297 452:0.860046 453:0.679973 454:0.853997 456:0.339835 457:0.429282 
0.1 11:0.0504103 14:0.333982 26:0.316327 28:0.111748 29:0.234186 51:0.677236 52:0.794151 53:0.807152 54:0.374132 56:0.342487 57:0.459072 111:0.234733 114:0.636187 126:0.675206 128:0.666667 129:0.782143 151:0.461094 152:0.495996 153:0.584734 154:0.215026 156:0.668621 157:0.184062 211:0.125855 214:0.559557 226:0.51262 228:0.0889738 229:0.246331 251:0.32829 252:0.246667 253:0.240092 254:0.171709 256:0.873354 257:0.2803 311:0.0550199 314:0.0353186 326:0.662609 328:0.031679 329:0.150606 351:0.894602 352:0.859918 353:0.70424 354:0.765104 356:0.303734 357:0.44716 411:0.377765 414:0.330144 426:0.56689 428:0.286831 429:0.20403 451:0.499533 452:0.574429 453:0.568748 454:0.411202 456:0.757391 457:0.593106 
0.1 11:0.129543 14:0.149157 26:0.226345 28:0.2149 29:0.222073 51:0.839993 52:0.858989 53:0.649756 54:0.721788 56:0.252391 57:0.401358 111:0.18257 114:0.148508 126:0.252516 128:0.214047 129:0.233571 151:0.882126 152:0.714711 153:0.57458 154:0.640328 156:0.267819 157:0.530677 211:0.155267 214:0.141274 226:0.164491 228:0.153384 229:0.112317 251:0.359701 252:0.311613 253:0.265852 254:0.263287 256:0.323202 257:0.718627 311:0.131594 314:0.964681 326:0.105217 328:0.629884 329:0.67709 351:0.212626 352:0.255256 353:0.284099 354:0.149556 356:0.422968 357:0.178657 411:0.20363 414:0.335612 426:0.214883 428:0.174985 429:0.228589 451:0.323195 452:0.214384 453:0.203344 454:0.16898 456:0.967693 457:0.179104 
0.1 11:0.165299 14:0.939689 26:0.0695733 28:0.731805 29:0.722073 51:0.182185 52:0.252097 53:0.240831 54:0.140625 56:0.436902 57:0.178423 111:0.260178 114:0.342412 126:0.21409 128:0.205128 129:0.252857 151:0.311633 152:0.212766 153:0.203081 154:0.151123 156:0.955261 157:0.185472 211:0.276334 214:0.364958 226:0.257615 228:0.248908 229:0.268028 251:0.481708 252:0.385161 253:0.352378 254:0.295993 256:0.771023 257:0.437254 311:0.237096 314:0.297091 326:0.873043 328:0.23548 329:0.507339 351:0.709607 352:0.634598 353:0.475265 354:0.622307 356:0.421086 357:0.489845 411:0.157119 414:0.495557 426:0.216555 428:0.229705 429:0.268892 451:0.717298 452:0.752511 453:0.824974 454:0.425084 456:0.356599 457:0.412935 
0.07457519728168002 11:0.24619 14:0.521401 26:0.514842 28:0.232092 29:0.28533 51:0.360704 52:0.397189 53:0.368888 54:0.236545 56:0.852823 57:0.302905 111:0.142494 114:0.149157 126:0.21409 128:0.16165 129:0.207857 151:0.651579 152:0.801418 153:0.885854 154:0.420121 156:0.37581 157:0.332863 211:0.182627 214:0.42036 226:0.21584 228:0.194323 229:0.231015 251:0.725915 252:0.408172 253:0.386724 254:0.29722 256:0.586964 257:0.24276 311:0.460011 314:0.295706 326:0.355652 328:0.168955 329:0.560944 351:0.377493 352:0.320155 353:0.331449 354:0.212928 356:0.783495 357:0.356627 411:0.180942 414:0.586466 426:0.169732 428:0.19543 429:0.263224 451:0.217578 452:0.176484 453:0.172637 454:0.132599 456:0.946967 457:0.130419 
0.1 11:0.124853 14:0.175097 26:0.0844156 28:0.130086 29:0.076716 51:0.511364 52:0.473589 53:0.320905 54:0.450955 56:0.2527 57:0.912109 111:0.151399 114:0.0992218 126:0.580055 128:0.107023 129:0.208571 151:0.842257 152:0.516358 153:0.372549 154:0.515112 156:0.328294 157:0.787377 211:0.151163 214:0.188366 226:0.420366 228:0.0704148 229:0.110402 251:0.515035 252:0.413763 253:0.373844 254:0.323794 256:0.547112 257:0.812299 311:0.12025 314:0.284626 326:0.713913 328:0.061774 329:0.201021 351:0.63678 352:0.431444 353:0.368905 354:0.373891 356:0.672105 357:0.555938 411:0.108905 414:0.349282 426:0.603679 428:0.096813 429:0.372166 451:0.759657 452:0.535388 453:0.333675 454:0.659167 456:0.625114 457:0.554726 
0.1 11:0.139508 14:0.0992218 26:0.574212 28:0.110029 29:0.196501 51:0.791606 52:0.511675 53:0.325183 54:0.517795 56:0.328294 57:0.851 111:0.181298 114:0.212711 126:0.414456 128:0.110925 129:0.132143 151:0.528313 152:0.440174 153:0.396359 154:0.341969 156:0.586239 157:0.81488 211:0.135431 214:0.284626 226:0.713664 228:0.0715066 229:0.201021 251:0.634361 252:0.404946 253:0.339498 254:0.34955 256:0.651807 257:0.538792 311:0.108905 314:0.34072 326:0.634783 328:0.0813094 329:0.363752 351:0.744922 352:0.534963 353:0.345583 354:0.593156 356:0.597427 357:0.568675 411:0.102666 414:0.466165 426:0.578595 428:0.357787 429:0.378463 451:0.694346 452:0.624658 453:0.609348 454:0.45955 456:0.654678 457:0.486141 
0.1 11:0.167057 14:0.212711 26:0.406308 28:0.11404 29:0.124495 51:0.492852 52:0.436182 53:0.345966 54:0.34375 56:0.586239 57:0.880422 111:0.166667 114:0.302853 126:0.722781 128:0.11204 129:0.233571 151:0.648305 152:0.430794 153:0.359944 154:0.369171 156:0.681888 157:0.545134 211:0.121751 214:0.34072 226:0.634465 228:0.0917031 229:0.363752 251:0.747558 252:0.502366 253:0.317701 254:0.561733 256:0.571429 257:0.55202 311:0.102666 314:0.459141 326:0.608696 328:0.310454 329:0.370134 351:0.680878 352:0.624314 353:0.631095 354:0.416984 356:0.627863 357:0.502238 411:0.0862167 414:0.283664 426:0.303512 428:0.0829826 429:0.109572 451:0.687815 452:0.380365 453:0.270897 454:0.422212 456:0.606827 457:0.352878 
0.1 11:0.162954 14:0.529831 26:0.721707 28:0.228653 29:0.47039 51:0.730022 52:0.712537 53:0.687653 54:0.387587 56:0.291577 57:0.359864 111:0.21883 114:0.177691 126:0.906679 128:0.176143 129:0.245714 151:0.673151 152:0.759552 153:0.778711 154:0.47323 156:0.373342 157:0.408322 211:0.177155 214:0.569252 226:0.357702 228:0.481987 229:0.764518 251:0.349358 252:0.440215 253:0.522127 254:0.190515 256:0.66768 257:0.195209 311:0.0964265 314:0.286011 326:0.297391 328:0.0960929 329:0.162731 351:0.739982 352:0.774223 353:0.583039 354:0.751584 356:0.49545 357:0.338038 411:0.130459 414:0.911825 426:0.0811037 428:0.282622 429:0.38728 451:0.193693 452:0.157306 453:0.17332 454:0.0914313 456:0.67388 457:0.0842217 
0.1 11:0.201641 14:0.177691 26:0.90538 28:0.181089 29:0.231494 51:0.630682 52:0.752664 53:0.679707 54:0.475694 56:0.373342 57:0.445492 111:0.205471 114:0.56939 126:0.348582 128:0.531215 129:0.864286 151:0.36171 152:0.468314 153:0.553571 154:0.201209 156:0.69639 157:0.206276 211:0.106703 214:0.286011 226:0.29678 228:0.106987 229:0.162731 251:0.742387 252:0.727527 253:0.53963 254:0.715045 256:0.461668 257:0.312478 311:0.130459 314:0.910665 326:0.0913043 328:0.244456 329:0.379068 351:0.189936 352:0.156536 353:0.179505 354:0.0920997 356:0.647631 357:0.112909 411:0.100964 414:0.123035 426:0.322742 428:0.101022 429:0.15995 451:0.944206 452:0.902511 453:0.860798 454:0.689325 456:0.308138 457:0.486851 
0.1 11:0.237397 14:0.332685 26:0.21243 28:0.195415 29:0.229475 51:0.282441 52:0.21061 53:0.167787 54:0.164931 56:0.935205 57:0.301018 111:0.201654 114:0.201038 126:0.400732 128:0.183389 129:0.215714 151:0.901772 152:0.739419 153:0.733193 154:0.491364 156:0.550756 157:0.500353 211:0.0984952 214:0.143352 226:0.353351 228:0.1119 229:0.234844 251:0.8552 252:1 253:0.896301 254:0.791496 256:0.258359 257:0.341437 311:0.202496 314:0.265235 326:0.493913 328:0.116156 329:0.19783 351:0.357182 352:0.312614 353:0.335336 354:0.194339 356:0.891434 357:0.322203 411:0.164492 414:0.484621 426:0.632107 428:0.206254 429:0.509446 451:0.692853 452:0.521233 453:0.523712 454:0.362853 456:0.51844 457:0.651031 
0.1 11:0.48007 14:0.498703 26:0.54731 28:0.224642 29:0.255047 51:0.800587 52:0.496033 53:0.362775 54:0.434462 56:0.376118 57:0.69785 111:0.188931 114:0.235409 126:0.461116 128:0.202341 129:0.222143 151:0.74037 152:0.557767 153:0.486695 154:0.452504 156:0.660599 157:0.267278 211:0.124487 214:0.136427 226:0.441253 228:0.1381 229:0.307594 251:0.866692 252:0.795054 253:0.653897 254:0.701962 256:0.189801 257:0.44941 311:0.837209 314:0.790859 326:0.138261 328:0.247096 329:0.641353 351:0.25581 352:0.285192 353:0.232862 354:0.26616 356:0.382805 357:0.371084 411:0.140102 414:0.159262 426:0.672241 428:0.115454 429:0.187657 451:0.690801 452:0.795205 453:0.897987 454:0.412159 456:0.528193 457:0.489694 
0.1 11:0.174091 14:0.235409 26:0.453618 28:0.208023 29:0.209287 51:0.694648 52:0.552709 53:0.424817 54:0.454861 56:0.660599 57:0.294606 111:0.156489 114:0.164073 126:0.436414 128:0.180045 129:0.352857 151:0.881934 152:0.845802 153:0.693277 154:0.741364 156:0.259796 157:0.456982 211:1 214:0.790859 226:0.137511 228:0.2631 229:0.641353 251:0.235587 252:0.267312 253:0.212351 254:0.245298 256:0.340426 257:0.3468 311:0.140102 314:0.148199 326:0.706087 328:0.0976769 329:0.176771 351:0.677402 352:0.795018 353:0.930035 354:0.375158 356:0.497647 357:0.50568 411:0.165627 414:0.405332 426:0.157191 428:0.150331 429:0.202771 451:0.267401 452:0.150457 453:0.148755 454:0.111537 456:0.970131 457:0.113006 
0.1 11:0.470106 14:0.32166 26:0.404453 28:0.208596 29:0.244953 51:0.359787 52:0.255271 53:0.209046 54:0.19184 56:0.89386 57:0.285175 111:0.120865 114:0.183528 126:0.179323 128:0.537904 129:0.262857 151:0.717065 152:0.851064 153:1 154:0.373057 156:0.233878 157:0.284203 211:0.239398 214:0.144737 226:0.239339 228:0.149017 229:0.148054 251:0.42942 252:0.355484 253:0.311427 254:0.29027 256:0.230665 257:0.889882 311:0.207601 314:0.319945 326:0.24087 328:0.137804 329:0.215699 351:0.259469 352:0.202925 353:0.19258 354:0.162231 356:0.951992 357:0.205508 411:0.0680658 414:0.138072 426:0.177258 428:0.147324 429:0.196474 451:0.690241 452:0.771918 453:0.872398 454:0.399234 456:0.246571 457:0.26688 
0.1 11:0.111372 14:0.183528 26:0.167904 28:0.553009 29:0.247645 51:0.672471 52:0.843346 53:0.872861 54:0.375 56:0.233878 57:0.312712 111:0.263359 114:0.171855 126:0.224154 128:0.191193 129:0.174286 151:0.442219 152:0.378174 153:0.330182 154:0.306563 156:0.297131 157:0.891396 211:0.240766 214:0.319945 226:0.240209 228:0.150109 229:0.215699 251:0.239418 252:0.189892 253:0.174703 254:0.144726 256:0.953056 257:0.17483 311:0.0680658 314:0.126731 326:0.191304 328:0.12566 329:0.185705 351:0.676853 352:0.771709 353:0.903534 354:0.363752 356:0.207719 357:0.289845 411:0.122518 414:0.114833 426:0.136288 428:0.159351 429:0.104534 451:0.367792 452:0.33242 453:0.278744 454:0.310675 456:0.152088 457:0.732409 
0.1 11:0.242673 14:0.171855 26:0.213358 28:0.196562 29:0.164199 51:0.410924 52:0.374745 53:0.288203 54:0.30816 56:0.297131 57:0.962278 111:0.264631 114:0.335927 126:0.225069 128:0.192308 129:0.25 151:0.251156 152:0.202013 153:0.185224 154:0.15285 156:0.957112 157:0.186178 211:0.0725034 214:0.126731 226:0.190601 228:0.137555 229:0.185705 251:0.676307 252:0.725161 253:0.839168 254:0.339738 256:0.151976 257:0.262424 311:0.122518 314:0.103186 326:0.148696 328:0.13622 329:0.0925335 351:0.360659 352:0.33181 353:0.288693 354:0.285594 356:0.110449 357:0.740792 411:0.251276 414:0.181135 426:0.275084 428:0.156945 429:0.191436 451:0.490203 452:0.404795 453:0.356534 454:0.353279 456:0.401097 457:0.75764 
0.1 11:0.243845 14:0.335927 26:0.214286 28:0.197708 29:0.235532 51:0.229106 52:0.200181 53:0.161675 54:0.153646 56:0.957112 57:0.207846 111:0.108142 114:0.154994 126:0.172919 128:0.179487 129:0.216429 151:0.690485 152:0.771448 153:0.889706 154:0.358808 156:0.225239 157:0.272567 211:0.138167 214:0.103186 226:0.147955 228:0.148472 229:0.0925335 251:0.345336 252:0.311183 253:0.264531 254:0.264105 256:0.0472813 257:0.730783 311:0.251276 314:0.17036 326:0.293043 328:0.134108 329:0.1806 351:0.480695 352:0.40425 353:0.369258 354:0.323194 356:0.366803 357:0.765232 411:0.220647 414:0.241285 426:0.862876 428:0.156344 429:0.211587 451:0.47173 452:0.360046 453:0.309451 454:0.325515 456:0.743676 457:0.366027 
0.1 11:0.0996483 14:0.154994 26:0.16141 28:0.184527 29:0.203903 51:0.647177 52:0.764453 53:0.776589 54:0.360677 56:0.225239 57:0.300264 111:0.169211 114:0.132944 126:0.128088 128:0.190635 129:0.112143 151:0.357666 152:0.331046 153:0.280462 154:0.278929 156:0.12959 157:0.734485 211:0.293434 214:0.17036 226:0.292428 228:0.146288 229:0.1806 251:0.470983 252:0.379355 253:0.339828 254:0.300491 256:0.323202 257:0.756167 311:0.220647 314:0.231302 326:0.904348 328:0.13358 329:0.201021 351:0.46258 352:0.359461 353:0.320495 354:0.29869 356:0.719485 357:0.385886 411:0.497448 414:0.172249 426:0.889632 428:0.161756 429:0.197103 451:0.727001 452:0.519178 453:0.409075 454:0.519387 456:0.394392 457:0.452381 
0.1 11:0.147128 14:0.309339 26:0.0992579 28:0.27851 29:0.218708 51:0.0729472 52:0.112219 53:0.131112 54:0.0286458 56:0.991669 57:0.069785 111:0.145674 114:0.306744 126:0.298262 128:0.110368 129:0.141429 151:0.279083 152:0.404713 153:0.553571 154:0.0811744 156:0.920395 157:0.124824 211:0.0259918 214:0.154432 226:0.402089 228:0.0491266 229:0.191449 251:0.721126 252:0.831398 253:0.889366 254:0.479558 256:0.0780142 257:0.571684 311:0.211571 314:0.0152355 326:0.155652 328:0.0174234 329:0.0555201 351:0.586276 352:0.453154 353:0.400707 354:0.376003 356:0.0978977 357:0.70327 411:0.532615 414:0.227614 426:0.5 428:0.190018 429:0.134761 451:0.41239 452:0.349315 453:0.370181 454:0.217808 456:0.420299 457:0.812722 
0.1 11:0.134232 14:0.306744 26:0.288497 28:0.113467 29:0.133244 51:0.255682 52:0.401043 53:0.483191 54:0.0815972 56:0.920395 57:0.14221 111:0.0648855 114:0.180934 126:0.395242 128:0.0891862 129:0.222857 151:0.735555 152:0.884466 153:0.942927 154:0.506477 156:0.157667 157:0.577574 211:0.245554 214:0.0152355 226:0.154917 228:0.025655 229:0.0555201 251:0.581498 252:0.425376 253:0.369221 254:0.351594 256:0.0337724 257:0.691813 311:0.532615 314:0.217452 326:0.526957 328:0.163147 329:0.123165 351:0.404392 352:0.34872 353:0.383392 354:0.203633 356:0.38657 357:0.818589 411:0.171299 414:0.287765 426:0.546823 428:0.275406 429:0.243703 451:0.614294 452:0.631963 453:0.725691 454:0.311632 456:0.788479 457:0.265103 
0.1 11:0.059789 14:0.180934 26:0.386827 28:0.0916905 29:0.20996 51:0.690066 52:0.876445 53:0.823044 54:0.509115 56:0.157667 57:0.626556 111:0.269084 114:0.0505837 126:0.135407 128:0.0652174 129:0.0707143 151:0.595146 152:0.452528 153:0.391457 154:0.37133 156:0.117248 157:0.696051 211:0.632695 214:0.217452 226:0.526545 228:0.17631 229:0.123165 251:0.391113 252:0.327097 253:0.353038 254:0.184791 256:0.344478 257:0.811584 311:0.171299 314:0.278393 326:0.575652 328:0.23812 329:0.233567 351:0.602379 352:0.631627 353:0.75159 354:0.286439 356:0.76561 357:0.288124 411:0.318775 414:0.435407 426:0.227425 428:0.231509 429:0.342569 451:0.174473 452:0.186073 453:0.23712 454:0.0622307 456:0.953063 457:0.177683 
0.1 11:0.0890973 14:0.0907912 26:0.597403 28:0.10659 29:0.118439 51:0.806268 52:0.910224 53:0.724022 54:0.71441 56:0.36933 57:0.364768 111:0.170483 114:0.498703 126:0.0896615 128:0.134337 129:0.187143 151:0.094376 152:0.114848 153:0.0507703 154:0.154145 156:0.912681 157:0.0342031 211:0.0738714 214:0.0948753 226:0.29678 228:0.0616812 229:0.107211 251:0.654472 252:0.712043 253:0.642668 254:0.558054 256:0.582236 257:0.156596 311:0.0499149 314:0.065097 326:0.617391 328:0.375924 329:0.111678 351:0.926441 352:0.871572 353:0.687986 354:0.806084 356:0.304048 357:0.291222 411:0.0992626 414:0.637731 426:0.274247 428:0.452796 429:0.208438 451:0.568949 452:0.534247 453:0.562948 454:0.335089 456:0.796404 457:0.271144 
0.1 11:0.42966 14:0.374189 26:0.420223 28:0.146132 29:0.287349 51:0.462427 52:0.515756 53:0.503056 54:0.273003 56:0.886763 57:0.29272 111:0.118957 114:0.667315 126:0.391583 128:0.409699 129:0.687857 151:0.607666 152:0.72043 153:0.863445 154:0.294905 156:0.610614 157:0.203103 211:0.253078 214:0.208449 226:0.778068 228:0.0851528 229:0.165284 251:0.747749 252:0.614624 253:0.44782 254:0.614064 256:0.627153 257:0.375045 311:0.146341 314:0.234765 326:0.22087 328:0.0607181 329:0.139119 351:0.198902 352:0.160878 353:0.153357 354:0.13139 356:0.917163 357:0.139071 411:0.327283 414:0.177033 426:0.607023 428:0.0901984 429:0.222292 451:0.8078 452:0.873288 453:0.77175 454:0.752992 456:0.490704 457:0.395522 
0.03726254491250499 11:0.150645 14:0.628405 26:0.0556586 28:0.178223 29:0.216016 51:0.173754 52:0.131489 53:0.150061 54:0.0386285 56:0.925332 57:0.0467748 111:0.124682 114:0.112192 126:0.568161 128:0.426979 129:0.317857 151:0.767912 152:0.746511 153:0.544118 154:0.73791 156:0.352977 157:0.645275 211:0.482216 214:0.432133 226:0.332463 228:0.141376 229:0.552648 251:0.560812 252:0.554839 253:0.65753 254:0.240801 256:0.553191 257:0.330711 311:0.293817 314:0.350416 326:0.346957 328:0.0686378 329:0.276324 351:0.123513 352:0.0680987 353:0.0667845 354:0.0633714 356:0.943834 357:0.13012 411:0.406126 414:0.231716 426:0.672241 428:0.0757667 429:0.108942 451:0.698824 452:0.384475 453:0.396793 454:0.254189 456:0.530326 457:0.732765 
0.1 11:0.0943728 14:0.0881971 26:0.690167 28:0.110602 29:0.119112 51:0.780609 52:0.90297 53:0.707518 54:0.723958 56:0.323666 57:0.380611 111:0.0597964 114:0.0538262 126:0.0969808 128:0.148829 129:0.157143 151:0.687404 152:0.619538 153:0.585784 154:0.446891 156:0.163838 157:0.214034 211:0.233242 214:0.663435 226:0.356832 228:0.579694 229:0.609445 251:0.665964 252:0.722581 253:0.822655 254:0.355274 256:0.501182 257:0.321058 311:0.211004 314:0.666898 326:0.0982609 328:0.275079 329:0.797703 351:0.196889 352:0.285878 353:0.337456 354:0.142374 356:0.792281 357:0.259208 411:0.20363 414:0.508544 426:0.209866 428:0.514732 429:0.697103 451:0.352864 452:0.462329 453:0.405664 454:0.404978 456:0.852789 457:0.169154 
0.1 11:0.0550996 14:0.0538262 26:0.0844156 28:0.153009 29:0.148048 51:0.644245 52:0.61392 53:0.511308 54:0.449219 56:0.163838 57:0.237646 111:0.257634 114:0.657588 126:0.347667 128:0.630992 129:0.690714 151:0.680085 152:0.768703 153:0.872199 154:0.375216 156:0.544276 157:0.330395 211:0.24487 214:0.666898 226:0.0974761 228:0.292031 229:0.797703 251:0.173913 252:0.267957 253:0.310106 254:0.125511 256:0.781155 257:0.230604 311:0.20363 314:0.502078 326:0.225217 328:0.448258 329:0.693044 351:0.34602 352:0.461837 353:0.420141 354:0.368821 356:0.831817 357:0.195181 411:0.228588 414:0.669856 426:0.311873 428:0.573662 429:0.507557 451:0.818436 452:0.787671 453:0.699761 454:0.674485 456:0.591893 457:0.289268 
0.1 11:0.138921 14:0.133593 26:0.877551 28:0.102579 29:0.11642 51:0.586327 52:0.600091 53:0.485941 54:0.458767 56:0.635606 57:0.325915 111:0.0661578 114:0.400778 126:0.484904 128:0.127648 129:0.486429 151:0.803351 152:0.969572 153:0.888305 154:0.734456 156:0.236038 157:0.425247 211:0.179891 214:0.145429 226:0.078329 228:0.058952 229:0.176133 251:0.746026 252:0.81828 253:0.899604 254:0.441946 257:0.65177 311:0.0555871 314:0.847645 326:0.495652 328:0.446146 329:0.807913 351:0.337237 352:0.432815 353:0.55477 354:0.154204 356:0.354879 357:0.188985 411:0.115712 414:0.403964 426:0.277592 428:0.371016 429:0.234887 451:0.295018 452:0.160731 453:0.16479 454:0.110579 456:0.941176 457:0.339019 
0.1 11:0.131887 14:0.319715 26:0.438776 28:0.163897 29:0.567968 51:0.581562 52:0.48039 53:0.246638 54:0.569444 56:0.78988 57:0.4255 111:0.157761 114:0.173152 126:0.515096 128:0.115385 129:0.135 151:0.735747 152:0.603981 153:0.468838 154:0.561744 156:0.769207 157:0.438999 211:0.0752394 214:0.0450139 226:0.612707 228:0.0584061 229:0.0765795 251:0.828577 252:0.756344 253:0.55251 254:0.753884 256:0.157042 257:0.612084 311:0.0640953 314:0.433518 326:0.327826 328:0.43189 329:0.361838 351:0.743275 352:0.749543 353:0.578445 354:0.711449 356:0.417948 357:0.473322 411:0.207033 414:0.196856 426:0.590301 428:0.102225 429:0.215995 451:0.751446 452:0.723744 453:0.777209 454:0.431786 456:0.60317 457:0.500355 
0.1 11:0.285463 14:0.337873 26:0.623377 28:0.223496 29:0.269179 51:0.402676 52:0.32895 53:0.258557 54:0.262587 56:0.876581 57:0.367409 111:0.31743 114:0.2393 126:1 128:0.225753 129:0.262857 151:0.629045 152:0.491192 153:0.429272 154:0.397668 156:0.466523 157:0.492595 211:0.274282 214:0.377424 226:0.268059 228:0.200873 229:0.256541 251:0.332312 252:0.256989 253:0.244716 254:0.185609 256:0.921648 257:0.224169 311:0.254112 314:0.196676 326:0.474783 328:0.151003 329:0.221442 351:0.762672 352:0.56947 353:0.501413 354:0.470638 356:0.301224 357:0.772117 411:0.242768 414:0.315106 426:0.294314 428:0.182802 429:0.309824 451:0.459974 452:0.53653 453:0.58103 454:0.314505 456:0.827796 457:0.404051 
0.1 11:0.292497 14:0.2393 26:1 28:0.232092 29:0.247645 51:0.58871 52:0.486738 53:0.374694 54:0.39974 56:0.466523 57:0.535647 111:0.295802 114:0.389754 126:0.254346 128:0.244147 129:0.295714 151:0.344569 152:0.273393 153:0.259454 154:0.196028 156:0.928417 157:0.234838 211:0.296854 214:0.196676 226:0.474326 228:0.163755 229:0.221442 251:0.766137 252:0.534839 253:0.463342 254:0.443173 256:0.252617 257:0.763318 311:0.242768 314:0.306094 326:0.313043 328:0.156811 329:0.300574 351:0.451052 352:0.536106 353:0.601767 354:0.288973 356:0.806087 357:0.422719 411:0.231991 414:0.374573 426:0.256689 428:0.193025 429:0.257557 451:0.328793 452:0.253196 453:0.229273 454:0.213978 456:0.917403 457:0.212864 
0.1 11:0.272567 14:0.389754 26:0.24397 28:0.251003 29:0.2786 51:0.317999 52:0.270914 53:0.226467 54:0.197049 56:0.928417 57:0.259902 111:0.316794 114:0.220493 126:0.47118 128:0.206243 129:0.256429 151:0.780817 152:0.568977 153:0.491246 154:0.468048 156:0.317186 157:0.766573 211:0.283174 214:0.306094 226:0.312446 228:0.16976 229:0.300574 251:0.439954 252:0.503441 253:0.557133 254:0.267375 256:0.796015 257:0.400429 311:0.231991 314:0.366343 326:0.273913 328:0.165787 329:0.247607 351:0.322415 352:0.252514 353:0.237456 354:0.200253 356:0.898337 357:0.237522 411:0.121384 414:0.154477 426:0.264214 428:0.162959 429:0.222922 451:0.728494 452:0.828311 453:0.852269 454:0.545716 456:0.306614 457:0.40334 
0.1 11:0.291911 14:0.220493 26:0.463822 28:0.212034 29:0.241588 51:0.733138 52:0.563818 53:0.42879 54:0.470486 56:0.317186 57:0.828744 111:0.304071 114:0.322957 126:0.301006 128:0.212375 129:0.345 151:0.452812 152:0.535575 153:0.590686 154:0.282383 156:0.813638 157:0.408674 211:0.270178 214:0.366343 226:0.273281 228:0.179039 229:0.247607 251:0.305305 252:0.236559 253:0.216645 254:0.181521 256:0.895306 257:0.20808 311:0.121384 314:0.143352 326:0.281739 328:0.139388 329:0.212508 351:0.714364 352:0.828154 353:0.882686 354:0.493029 356:0.269532 357:0.422031 411:0.28304 414:0.219412 426:0.32107 428:0.190619 429:0.2267 451:0.572868 452:0.467808 453:0.41317 454:0.405936 456:0.451387 457:0.777541 
0.1 11:0.186987 14:0.193256 26:0.327458 28:0.167908 29:0.218708 51:0.849157 52:0.764226 53:0.492054 54:0.764323 56:0.252391 57:0.511882 111:0.201018 114:0.16537 126:0.172919 128:0.218506 129:0.148571 151:0.433744 152:0.387783 153:0.332633 154:0.321675 156:0.177106 157:0.758463 211:0.201094 214:0.285319 226:0.577023 228:0.225437 229:0.499681 251:0.8077 252:0.797204 253:0.873184 254:0.434587 256:0.389395 257:0.429389 311:0.249007 314:0.194598 326:0.866087 328:0.152587 329:0.207403 351:0.610247 352:0.470293 353:0.420141 354:0.384453 356:0.401632 357:0.702238 411:0.240499 414:0.210526 426:0.954849 428:0.182802 429:0.221662 451:0.593581 452:0.463927 453:0.398499 454:0.418382 456:0.461749 457:0.46162 
0.1 11:0.185229 14:0.16537 26:0.16141 28:0.224642 29:0.139973 51:0.402859 52:0.384267 53:0.290342 54:0.323351 56:0.177106 57:0.820068 111:0.227735 114:0.303502 126:0.57914 128:0.269231 129:0.567857 151:0.822612 152:0.84809 153:0.92577 154:0.458981 156:0.442147 157:0.437236 211:0.290698 214:0.194598 226:0.86597 228:0.165393 229:0.207403 251:0.606589 252:0.441505 253:0.387384 254:0.359771 256:0.360689 257:0.69074 311:0.240499 314:0.200139 326:1 328:0.156811 329:0.211232 351:0.582068 352:0.463437 353:0.412721 354:0.380651 356:0.429244 357:0.478485 411:0.0986954 414:0.184552 426:0.205686 428:0.173782 429:0.219773 451:0.791939 452:0.777169 453:0.866257 454:0.418861 456:0.328558 457:0.297797 
0.1 11:0.209848 14:0.303502 26:0.573284 28:0.276791 29:0.534993 51:0.772911 52:0.840399 53:0.808068 54:0.461372 56:0.442147 57:0.476424 111:0.311069 114:0.218547 126:0.882891 128:0.207915 129:0.240714 151:0.620378 152:0.469687 153:0.410714 154:0.379965 156:0.415921 157:0.694993 211:0.280438 214:0.200139 226:1 228:0.16976 229:0.211232 251:0.577093 252:0.435054 253:0.380449 254:0.356092 256:0.390409 257:0.458348 311:0.0986954 314:0.173823 326:0.22087 328:0.148891 329:0.209317 351:0.776578 352:0.776965 353:0.897173 354:0.381073 356:0.292124 357:0.319793 411:0.146909 414:0.71907 426:0.15301 428:0.469633 429:0.918766 451:0.342788 452:0.407306 453:0.438076 454:0.244136 456:0.42609 457:0.216063 
0.1 11:0.145955 14:0.613489 26:0.485158 28:0.553009 29:0.590848 51:0.684384 52:0.869644 53:0.844438 54:0.465712 56:0.397717 57:0.368917 111:0.332697 114:0.671206 126:0.225984 128:0.472129 129:0.965714 151:0.328775 152:0.350949 153:0.390056 154:0.181347 156:0.629744 157:0.25952 211:0.0376197 214:0.0443213 226:0.207137 228:0.029476 229:0.0759413 251:0.752346 252:0.713333 253:0.385733 254:0.878577 256:0.0297197 257:0.252056 311:0.268293 314:0.686288 326:0.215652 328:0.246568 329:0.726867 351:0.279048 352:0.367916 353:0.412367 354:0.204478 356:0.67995 357:0.42926 411:0.308565 414:0.277512 426:0.183946 428:0.120866 429:0.187657 451:0.187348 452:0.144292 453:0.131013 454:0.123504 456:0.974703 457:0.176617 
0.1 11:0.270809 14:0.245136 26:0.751391 28:0.249284 29:0.279273 51:0.742669 52:0.752437 53:0.658924 54:0.504774 56:0.44585 57:0.563938 111:0.315522 114:0.322957 126:0.309241 128:0.27369 129:0.284286 151:0.688752 152:0.474949 153:0.437325 154:0.357081 156:0.549522 157:0.771509 211:0.19357 214:0.851801 226:0.182768 228:0.432314 229:0.822591 251:0.34208 252:0.376989 253:0.404888 254:0.215454 256:0.429922 257:0.236325 311:0.254112 314:0.331717 326:0.326957 328:0.156811 329:0.256541 351:0.369442 352:0.287706 353:0.269258 354:0.227292 356:0.897709 357:0.311876 411:0.525241 414:0.185236 426:0.210702 428:0.19543 429:0.219773 451:0.485912 452:0.545662 453:0.550665 454:0.376257 456:0.278269 457:0.793177 
0.1 11:0.290739 14:0.322957 26:0.299629 28:0.281375 29:0.267833 51:0.645528 52:0.470642 53:0.381724 54:0.358941 56:0.549522 57:0.834025 111:0.220738 114:0.833982 126:0.164684 128:0.480491 129:0.929286 151:0.354391 152:0.401052 153:0.429272 154:0.227547 156:0.479173 157:0.246827 211:0.296854 214:0.331717 226:0.326371 228:0.16976 229:0.256541 251:0.35453 252:0.269677 253:0.246367 254:0.207686 256:0.89463 257:0.285306 311:0.525241 314:0.174515 326:0.226087 328:0.167899 329:0.209317 351:0.476487 352:0.545247 353:0.570318 354:0.343473 356:0.240351 357:0.799656 411:0.251276 414:0.30417 426:0.598662 428:0.182201 429:0.251259 451:0.506998 452:0.367808 453:0.322074 454:0.324079 456:0.835111 457:0.48081 
0.1 11:0.291911 14:0.346952 26:0.306122 28:0.218338 29:0.2786 51:0.33926 52:0.284289 53:0.227995 54:0.220486 56:0.903733 57:0.324406 111:0.620865 114:0.199741 126:0.209515 128:0.22408 129:0.242857 151:0.479584 152:0.544727 153:0.559524 154:0.338083 156:0.257328 157:0.794781 211:0.293434 214:0.295014 226:0.629243 228:0.169214 229:0.241225 251:0.488221 252:0.344516 253:0.306473 254:0.275552 256:0.80412 257:0.477655 311:0.231991 314:0.555402 326:0.256522 328:0.24868 329:0.516911 351:0.408783 352:0.345293 353:0.346643 354:0.241234 356:0.758707 357:0.460929 411:0.512195 414:0.220096 426:0.688127 428:0.180998 429:0.226071 451:0.79679 452:0.675114 453:0.595019 454:0.585448 456:0.516306 457:0.576759 
0.1 11:0.572098 14:0.199741 26:0.198516 28:0.230372 29:0.228802 51:0.446481 52:0.539787 53:0.488386 54:0.339844 56:0.257328 57:0.858921 111:0.313613 114:0.312581 126:0.634035 128:0.211817 129:0.278571 151:0.501348 152:0.366507 153:0.32493 154:0.291019 156:0.821043 157:0.484838 211:0.270178 214:0.555402 226:0.255875 228:0.264738 229:0.516911 251:0.39571 252:0.323871 253:0.318692 254:0.221177 256:0.745019 257:0.440114 311:0.512195 314:0.209834 326:0.722609 328:0.155227 329:0.215699 351:0.781336 352:0.674817 353:0.616254 354:0.528095 356:0.485409 357:0.590017 411:0.230856 414:0.618592 426:0.237458 428:0.265785 429:0.331234 451:0.45307 452:0.325571 453:0.311157 454:0.250838 456:0.787565 457:0.414712 
0.1 11:0.0967175 14:0.0836576 26:0.254174 28:0.115759 29:0.126514 51:0.724523 52:0.862843 53:0.791259 54:0.528212 56:0.12527 57:0.794417 111:0.339059 114:0.322309 126:0.151876 128:0.150502 129:0.164286 151:0.259245 152:0.0981469 153:0.0962885 154:0.066494 156:0.887072 157:0.12976 211:0.286594 214:0.0415512 226:0.305483 228:0.0655022 229:0.0650925 251:0.598927 252:0.631828 253:0.514531 254:0.564186 256:0.0773387 257:0.816589 311:0.0561543 314:0.413435 326:0.213913 328:0.445618 329:0.807275 351:0.397438 352:0.647852 353:0.787633 354:0.273342 356:0.224663 357:0.39346 411:0.139535 414:0.395762 426:0.173077 428:0.108238 429:0.246851 451:0.251166 452:0.111416 453:0.109519 454:0.0847295 456:0.929595 457:0.313433 
0.1 11:0.312427 14:0.322309 26:0.140074 28:0.154728 29:0.154778 51:0.236804 52:0.0972569 53:0.0840465 54:0.0668403 56:0.887072 57:0.147492 111:0.307252 114:0.075227 126:0.293687 128:0.105909 129:0.0814286 151:0.612673 152:0.672157 153:0.545518 154:0.595855 156:0.15705 157:0.819111 211:0.0581395 214:0.413435 226:0.213229 228:0.468341 229:0.807275 251:0.383835 252:0.608602 253:0.730845 254:0.252249 256:0.170213 257:0.370039 311:0.139535 314:0.387812 326:0.186957 328:0.0913411 329:0.236758 351:0.246295 352:0.110603 353:0.113428 354:0.086185 356:0.910888 357:0.33494 411:0.305729 414:0.128503 426:0.462375 428:0.098617 429:0.324937 451:0.690427 452:0.660274 453:0.613784 454:0.528004 456:0.594941 457:0.677683 
0.1 11:0.283118 14:0.075227 26:0.283859 28:0.108883 29:0.076716 51:0.57313 52:0.666062 53:0.476161 54:0.598958 56:0.15705 57:0.884949 111:0.0947837 114:0.423476 126:0.196706 128:0.51728 129:0.912143 151:0.396379 152:0.647449 153:0.77486 154:0.266408 156:0.241901 157:0.378702 211:0.158687 214:0.387812 226:0.186249 228:0.102074 229:0.236758 251:0.225627 252:0.103011 253:0.100727 254:0.0711365 256:0.908815 257:0.30926 311:0.305729 314:0.117036 326:0.487826 328:0.0828933 329:0.31589 351:0.677036 352:0.659963 353:0.635689 354:0.477398 356:0.566363 357:0.68778 411:0.11401 414:0.758715 426:0.0710702 428:0.200241 429:0.50063 451:0.209181 452:0.226484 453:0.290003 454:0.0727621 456:0.868942 457:0.109097 
0.1 11:0.117819 14:0.322309 26:0.638219 28:0.112321 29:0.133917 51:0.628116 52:0.718431 53:0.422066 54:0.776042 56:0.353903 57:0.743493 111:0.163486 114:0.32166 126:0.701738 128:0.287068 129:0.195 151:0.82916 152:0.579044 153:0.438375 154:0.552245 156:0.503857 157:0.582511 211:0.133379 214:0.295014 226:0.306353 228:0.105895 229:0.382897 251:0.575369 252:0.567527 253:0.509908 254:0.44767 256:0.806484 257:0.212013 311:0.0873511 314:0.1759 326:0.584348 328:0.0601901 329:0.188896 351:0.801281 352:0.545018 353:0.388693 354:0.560203 356:0.306872 357:0.548709 411:0.133296 414:0.560492 426:0.32107 428:0.156945 429:0.259446 451:0.296137 452:0.180365 453:0.201296 454:0.100527 456:0.877172 457:0.197584 
0.1 11:0.270809 14:0.481193 26:0.202226 28:1 29:0.497308 51:0.367119 52:0.338699 53:0.295844 54:0.228299 56:0.642703 57:0.311958 111:0.364504 114:0.370947 126:0.391583 128:0.237458 129:0.341429 151:0.474191 152:0.367422 153:0.332283 154:0.283679 156:0.8556 157:0.382581 211:0.228454 214:0.642659 226:0.250653 228:0.491266 229:0.87492 251:0.473281 252:0.498495 253:0.531044 254:0.29027 256:0.424181 257:0.315338 311:0.204197 314:0.34626 326:0.294783 328:0.218057 329:0.283344 351:0.733028 352:0.729205 353:0.810601 354:0.396282 356:0.629746 357:0.373838 411:0.267158 414:0.460014 426:0.272575 428:0.289236 429:0.316751 451:0.46128 452:0.359361 453:0.347322 454:0.270943 456:0.831759 457:0.278607 
0.1 11:0.335873 14:0.370947 26:0.383117 28:0.244126 29:0.321669 51:0.441349 52:0.36409 53:0.290037 54:0.285156 56:0.8556 57:0.417955 111:0.253181 114:0.638132 126:0.236048 128:0.540691 129:0.987857 151:0.486325 152:0.530313 153:0.563025 154:0.306563 156:0.473928 157:0.324753 211:0.236662 214:0.34626 226:0.294169 228:0.233079 229:0.283344 251:0.735108 252:0.685161 253:0.752312 254:0.371218 256:0.606214 257:0.34966 311:0.267158 314:0.452909 326:0.290435 328:0.250264 329:0.307594 351:0.452333 352:0.358775 353:0.359717 354:0.250528 356:0.810166 357:0.301205 411:0.16506 414:0.183869 426:0.30602 428:0.184606 429:0.236146 451:0.872551 452:0.767123 453:0.750597 454:0.560077 456:0.359037 457:0.454869 
0.1 11:0.150059 14:0.150454 26:0.701299 28:0.139255 29:0.179004 51:0.708578 52:0.884607 53:0.794927 54:0.56467 56:0.44153 57:0.466994 111:0.646947 114:0.509079 126:0.216834 128:0.215719 129:0.590714 151:0.521379 152:0.51041 153:0.457283 154:0.399396 156:0.808701 157:0.306065 211:0.122435 214:0.788781 226:0.369887 228:0.215611 229:0.545629 251:0.46562 252:0.496774 253:0.604359 254:0.196239 256:0.642013 257:0.272435 311:0.184912 314:0.0976454 326:0.364348 328:0.0776135 329:0.119336 351:0.510522 352:0.327239 353:0.289046 354:0.276722 356:0.242234 357:0.8358 411:0.269994 414:0.347232 426:0.09699 428:0.40469 429:0.573048 451:0.572122 452:0.4121 453:0.437052 454:0.255625 456:0.173728 457:0.216773 
0.1 11:0.596131 14:0.509079 26:0.205937 28:0.221777 29:0.556528 51:0.486254 52:0.505781 53:0.399144 54:0.401476 56:0.808701 57:0.3361 111:0.15458 114:0.774968 126:0.361391 128:0.259197 129:0.619286 151:0.478621 152:0.528483 153:0.640756 154:0.207254 156:0.67294 157:0.28244 211:0.213406 214:0.0976454 226:0.363795 228:0.0878821 229:0.119336 251:0.502203 252:0.306882 253:0.264861 254:0.255519 256:0.189125 257:0.82946 311:0.269994 314:0.338643 326:0.107826 328:0.351637 329:0.567326 351:0.561025 352:0.411563 353:0.45265 354:0.237009 356:0.132727 357:0.241308 411:0.461713 414:0.107997 426:0.173077 428:0.0962117 429:0.117758 451:0.357903 452:0.272146 453:0.235756 454:0.244615 456:0.355379 457:0.821251 
0.1 11:0.142438 14:0.774968 26:0.352505 28:0.266476 29:0.583445 51:0.445565 52:0.523691 53:0.559291 54:0.208333 56:0.67294 57:0.310826 111:0.239186 114:0.127756 126:0.354986 128:0.128763 129:0.142143 151:0.515408 152:0.32647 153:0.280812 154:0.269862 156:0.259179 157:0.831805 211:0.316005 214:0.338643 226:0.10705 228:0.371179 229:0.567326 251:0.555066 252:0.386237 253:0.417768 254:0.217089 256:0.0712597 257:0.212013 311:0.461713 314:0.0962604 326:0.186957 328:0.0807814 329:0.105935 351:0.350961 352:0.271481 353:0.24417 354:0.227292 356:0.319736 357:0.82685 411:0.0499149 414:0.0533151 426:0.339465 428:0.0685508 429:0.124055 451:0.570256 452:0.698174 453:0.766291 454:0.39349 456:0.171594 457:0.334755 
0.1 11:0.220399 14:0.127756 26:0.346011 28:0.132378 29:0.133917 51:0.480572 52:0.323509 53:0.24511 54:0.271267 56:0.259179 57:0.898529 111:0.334606 114:0.353437 126:0.0850869 128:0.41806 129:0.643571 151:0.568567 152:0.41089 153:0.442927 154:0.229275 156:0.151496 157:0.222849 211:0.547196 214:0.0962604 226:0.186249 228:0.0911572 229:0.105935 251:0.335185 252:0.254409 253:0.222919 254:0.207686 256:0.272543 257:0.820164 311:0.0499149 314:0.0408587 326:0.36 328:0.0564942 329:0.112317 351:0.559195 352:0.697898 353:0.79364 354:0.358682 356:0.13053 357:0.355594 411:0.14861 414:0.262474 426:0.241639 428:0.105232 429:0.161839 451:0.124277 452:0.0956621 453:0.0904128 454:0.0785065 456:0.992685 457:0.109453 
0.1 11:0.308324 14:0.353437 26:0.0723562 28:0.429799 29:0.606326 51:0.531158 52:0.407164 53:0.386614 54:0.230469 56:0.151496 57:0.247077 111:0.549618 114:0.126459 126:0.168344 128:0.132107 129:0.127143 151:0.347458 152:0.270647 153:0.236345 154:0.219344 156:0.33539 157:0.822638 211:0.0506156 214:0.0408587 226:0.359443 228:0.066048 229:0.112317 251:0.553151 252:0.655699 253:0.73646 254:0.334832 256:0.0688956 257:0.330711 311:0.14861 314:0.25277 326:0.258261 328:0.0887012 329:0.150606 351:0.121866 352:0.0948355 353:0.0936396 354:0.0806929 356:0.975839 357:0.137349 411:0.0743052 414:0.145591 426:0.185619 428:0.107637 429:0.487406 451:0.634633 452:0.482648 453:0.390652 454:0.468645 456:0.144773 457:0.334755 
0.1 11:0.223329 14:0.249676 26:0.313544 28:0.261318 29:0.288694 51:0.797104 52:0.829744 53:0.781785 54:0.478299 56:0.366862 57:0.493399 111:0.368957 114:0.442931 126:0.322964 128:0.254181 129:0.377857 151:0.484399 152:0.38275 153:0.338936 154:0.304404 156:0.888306 157:0.347673 211:0.352941 214:0.365651 226:0.419495 228:0.210699 229:0.32993 251:0.528251 252:0.402366 253:0.352378 254:0.3287 256:0.843972 257:0.409725 311:0.131027 314:0.227839 326:0.333913 328:0.19641 329:0.266114 351:0.935773 352:0.905622 353:0.698587 354:0.856358 356:0.351741 357:0.500172 411:0.300624 414:0.373889 426:0.397157 428:0.227901 429:0.338791 451:0.545997 452:0.429224 453:0.369498 454:0.386309 456:0.871076 457:0.413291 
0.1 11:0.339977 14:0.442931 26:0.313544 28:0.261318 29:0.355989 51:0.451063 52:0.379279 53:0.295844 54:0.30599 56:0.888306 57:0.380611 111:0.368957 114:0.378729 126:0.413541 128:0.254181 129:0.377857 151:0.541602 152:0.428049 153:0.373599 154:0.34715 156:0.857451 157:0.417842 211:0.148427 214:0.227839 226:0.333333 228:0.210699 229:0.266114 251:0.947328 252:0.851183 253:0.647622 254:0.816435 256:0.306991 257:0.480872 311:0.300624 314:0.365651 326:0.42 328:0.19641 329:0.32993 351:0.535407 352:0.428702 353:0.382686 354:0.352345 356:0.850643 357:0.43167 411:0.243902 414:0.645249 426:0.230769 428:0.526759 429:0.839421 451:0.546184 452:0.565297 453:0.572842 454:0.386309 456:0.538251 457:0.342573 
0.1 11:0.339977 14:0.378729 26:0.40538 28:0.261318 29:0.355989 51:0.505499 52:0.424167 53:0.3261 54:0.348958 56:0.857451 57:0.455677 111:0.178753 114:0.249676 126:0.322964 128:0.254181 129:0.306429 151:0.96302 152:0.905514 153:0.686625 154:0.862263 156:0.366862 157:0.488011 211:0.352941 214:0.365651 226:0.419495 228:0.210699 229:0.32993 251:0.528251 252:0.402366 253:0.352378 254:0.3287 256:0.843972 257:0.409725 311:0.243902 314:0.640582 326:0.246957 328:0.458817 329:0.837269 351:0.53559 352:0.564899 353:0.593286 354:0.352345 356:0.508001 357:0.363167 411:0.300624 414:0.305537 426:0.479933 428:0.227901 429:0.275819 451:0.880202 452:0.678995 453:0.573183 454:0.624222 456:0.446815 457:0.766525 
0.1 11:0.164713 14:0.249676 26:0.313544 28:0.261318 29:0.288694 51:0.906525 52:0.897302 53:0.599328 54:0.866753 56:0.366862 57:0.530743 111:0.368957 114:0.378729 126:0.413541 128:0.254181 129:0.377857 151:0.541602 152:0.428049 153:0.373599 154:0.34715 156:0.857451 157:0.417842 211:0.284542 214:0.640582 226:0.246301 228:0.481987 229:0.837269 251:0.528443 252:0.530538 253:0.549207 254:0.3287 256:0.475177 257:0.338577 311:0.300624 314:0.296399 326:0.506087 328:0.19641 329:0.266114 351:0.863129 352:0.678702 353:0.59364 354:0.562315 356:0.413869 357:0.773838 411:0.187748 414:0.373889 426:0.230769 428:0.287432 429:0.526448 451:0.75014 452:0.860502 453:0.878199 454:0.576831 456:0.356294 457:0.413291 
-0.1 11:0.262603 14:0.197147 26:0.625232 28:0.189112 29:0.204576 51:0.619685 52:0.446157 53:0.343521 54:0.366319 56:0.454489 57:0.833648 111:0.258906 114:0.240597 126:0.68161 128:0.217949 129:0.554286 151:0.67681 152:0.590483 153:0.503151 154:0.493955 156:0.315643 157:0.730254 211:0.218878 214:0.248615 226:0.803307 228:0.14738 229:0.191449 251:0.480942 252:0.415484 253:0.449141 254:0.233851 256:0.728808 257:0.283161 311:0.568917 314:0.0457064 326:0.161739 328:0.0570222 329:0.0740268 351:0.531565 352:0.297761 353:0.24947 354:0.26954 356:0.165045 357:0.436833 411:0.180942 414:0.2365 426:0.759197 428:0.146723 429:0.18199 451:0.551036 452:0.380365 453:0.265097 454:0.430349 456:0.78665 457:0.433547 
-0.1 11:0.340563 14:0.316472 26:0.858998 28:0.320344 29:0.291386 51:0.707295 52:0.583995 53:0.449572 54:0.479601 56:0.551682 57:0.606564 111:0.431934 114:0.316472 126:0.413541 128:0.256968 129:0.309286 151:0.697419 152:0.567147 153:0.515056 154:0.435233 156:0.551682 157:0.765515 211:0.353625 214:0.434211 226:0.334204 228:0.266921 229:0.330568 251:0.515035 252:0.386237 253:0.389366 254:0.252249 256:0.806484 257:0.342867 311:0.356778 314:0.299169 326:0.42 328:0.19905 329:0.268666 351:0.68344 352:0.567642 353:0.525442 354:0.43853 356:0.539693 357:0.771084 411:0.190584 414:0.241285 426:0.234114 428:0.289838 429:0.216625 451:0.62437 452:0.523744 453:0.441146 454:0.483964 456:0.301128 457:0.798152 
-0.1 11:0.199883 14:0.345006 26:0.219852 28:0.277937 29:0.530283 51:0.668988 52:0.836545 53:0.782702 54:0.490017 56:0.293119 57:0.437948 111:0.323155 114:0.43061 126:0.330284 128:0.324415 129:0.358571 151:0.684707 152:0.473576 153:0.471989 154:0.311744 156:0.718605 157:0.380465 211:0.30985 214:0.447368 226:0.286336 228:0.264192 229:0.304403 251:0.438039 252:0.335914 253:0.329921 254:0.230172 256:0.794326 257:0.272792 311:0.271696 314:0.230609 326:0.483478 328:0.189018 329:0.244416 351:0.775297 352:0.607861 353:0.538516 354:0.497254 356:0.336366 357:0.857831 411:0.281906 414:0.335612 426:0.747492 428:0.232712 429:0.284635 451:0.644337 452:0.492009 453:0.427499 454:0.436573 456:0.739409 457:0.478678 
-0.1 11:0.152403 14:0.343061 26:0.227273 28:0.296275 29:0.641992 51:0.731855 52:0.759238 53:0.412592 54:0.867622 56:0.271521 57:0.410788 111:0.281807 114:0.311284 126:0.273559 128:0.200111 129:0.258571 151:0.596687 152:0.439259 153:0.316527 154:0.438687 156:0.822894 157:0.426657 211:0.237346 214:0.326177 226:0.585727 228:0.190502 229:0.228462 251:0.612909 252:0.472043 253:0.409181 254:0.390842 256:0.734549 257:0.33965 311:0.197958 314:0.342105 326:0.218261 328:0.170011 329:0.227186 351:0.44172 352:0.385969 353:0.433922 354:0.212083 356:0.882962 357:0.2179 411:0.12422 414:0.123035 426:0.327759 428:0.133494 429:0.178841 451:0.980034 452:0.817123 453:0.616513 454:0.85304 456:0.25541 457:0.521677 
-0.1 11:0.339977 14:0.442931 26:0.313544 28:0.375358 29:0.355989 51:0.687867 52:0.514396 53:0.447738 54:0.348958 56:0.73465 57:0.456054 111:0.368957 114:0.442931 126:0.322964 128:0.365106 129:0.377857 151:0.733243 152:0.519103 153:0.512955 154:0.34715 156:0.73465 157:0.418195 211:0.216826 214:0.227839 226:0.246301 228:0.264738 229:0.202936 251:0.604482 252:0.487742 253:0.417768 254:0.410057 256:0.206011 257:0.800501 311:0.187748 314:0.227839 326:0.246957 328:0.24868 329:0.202936 351:0.608234 352:0.519424 353:0.45265 354:0.436417 356:0.257923 357:0.807917 411:0.187748 414:0.237867 426:0.230769 428:0.287432 429:0.213476 451:0.620265 452:0.519863 453:0.437052 454:0.48157 456:0.295337 457:0.801706 
-0.1 11:0.194607 14:0.201038 26:0.217996 28:0.246418 29:0.205922 51:0.630682 52:0.656994 53:0.606968 54:0.395833 56:0.251466 57:0.779706 111:0.21374 114:0.410506 126:0.196706 128:1 129:0.508571 151:0.64426 152:0.641501 153:0.460084 154:0.643351 156:0.317186 157:0.326869 211:0.237346 214:0.705679 226:0.283725 228:0.268559 229:0.428845 251:0.666347 252:0.64129 253:0.663144 254:0.398201 256:0.355623 257:0.55631 311:0.168463 314:0.256233 326:0.248696 328:0.163675 329:0.404595 351:0.672278 352:0.788163 353:0.858657 354:0.447824 356:0.261061 357:0.53012 411:0.119682 414:0.267943 426:0.185619 428:0.191822 429:0.43262 451:0.629595 452:0.898402 453:1 454:0.4854 456:0.252972 457:0.331557 
-0.1 11:0.203986 14:0.313878 26:0.144712 28:0.184527 29:0.201884 51:0.244318 52:0.153027 53:0.132335 54:0.105035 56:0.940759 57:0.137307 111:0.120229 114:0.0907912 126:0.492223 128:0.120959 129:0.130714 151:0.725539 152:0.7035 153:0.423669 154:0.805268 156:0.189756 157:0.555712 211:0.0451436 214:0.0339335 226:0.230635 228:0.0234716 229:0.0593491 251:0.746217 252:0.663656 253:0.274439 254:0.921913 256:0.199595 257:0.391848 311:0.129325 314:0.578947 326:0.178261 328:0.143083 329:0.264837 351:0.225618 352:0.149909 353:0.186926 354:0.0709759 356:0.808911 357:0.0843373 411:0.1384 414:0.241285 426:0.35786 428:0.0895971 429:0.237406 451:0.19332 452:0.132192 453:0.0839304 454:0.164193 456:0.913746 457:0.109097 
-0.1 11:0.339977 14:0.442931 26:0.313544 28:0.261318 29:0.355989 51:0.451063 52:0.379279 53:0.295844 54:0.30599 56:0.888306 57:0.380611 111:0.242366 114:0.378729 126:0.231473 128:0.309365 129:0.590714 151:0.752311 152:0.860444 153:0.896008 154:0.518998 156:0.336316 157:0.417842 211:0.216826 214:0.365651 226:0.246301 228:0.264738 229:0.520102 251:0.73779 252:0.808817 253:0.845112 254:0.491415 256:0.273556 257:0.409725 311:0.187748 314:0.365651 326:0.246957 328:0.24868 329:0.520102 351:0.73559 352:0.860603 353:0.909894 354:0.52049 356:0.320678 357:0.43167 411:0.15882 414:0.333561 426:0.22408 428:0.239327 429:0.501889 451:0.704422 452:0.845434 453:0.883999 454:0.537099 456:0.30448 457:0.388415 
-0.1 11:0.109613 14:0.158236 26:0.150278 28:0.178797 29:0.226783 51:0.805718 52:0.88234 53:0.883557 54:0.434462 56:0.231719 57:0.362505 111:0.14631 114:0.179637 126:0.26441 128:0.186176 129:0.431429 151:0.90312 152:0.937543 153:0.762605 154:0.829016 156:0.298365 157:0.519746 211:0.162107 214:0.193906 226:0.228024 228:0.171943 229:0.265475 251:0.892358 252:0.886667 253:0.782034 254:0.717498 256:0.196893 257:0.38148 311:0.0629609 314:0.695983 326:0.12087 328:0.121964 329:0.23612 351:0.653614 352:0.814899 353:0.64311 354:0.754964 356:0.447757 357:0.212737 411:0.102666 414:0.922761 426:0.240803 428:0.273001 429:0.425693 451:0.5014 452:0.551598 453:0.551006 454:0.388224 456:0.561109 457:0.125089 
-0.1 11:0.186401 14:0.460441 26:0.217069 28:0.402865 29:0.757739 51:0.659091 52:0.854455 53:0.863386 54:0.409722 56:0.353595 57:0.38212 111:0.257634 114:0.308042 126:0.674291 128:0.250836 129:0.49 151:0.687404 152:0.794784 153:0.847339 154:0.455095 156:0.368405 157:0.437941 211:0.240082 214:0.23892 226:0.682332 228:0.18559 229:0.341417 251:0.763072 252:0.673978 253:0.703104 254:0.410875 256:0.323202 257:0.441902 311:0.218378 314:0.449446 326:0.273913 328:0.295143 329:0.661774 351:0.50064 352:0.604433 353:0.680919 354:0.320659 356:0.731723 357:0.331842 411:0.147476 414:0.252221 426:0.250836 428:0.183403 429:0.393577 451:0.838776 452:0.788128 453:0.804504 454:0.528483 456:0.280098 457:0.395522 
-0.1 11:0.290152 14:0.424125 26:0.310761 28:0.326648 29:0.329744 51:0.633065 52:0.453639 53:0.400061 54:0.300347 56:0.711817 57:0.401735 111:0.3257 114:0.381323 126:0.317475 128:0.275362 129:0.317143 151:0.631934 152:0.423702 153:0.403711 154:0.301813 156:0.755014 157:0.511636 211:0.246922 214:0.367036 226:0.246301 228:0.205786 229:0.241225 251:0.547788 252:0.422366 253:0.287318 254:0.447261 256:0.728808 257:0.332857 311:0.12025 314:0.141274 326:0.247826 328:0.131468 329:0.189534 351:0.887466 352:0.726691 353:0.8053 354:0.397972 356:0.378726 357:0.425129 411:0.184345 414:0.62406 426:0.813545 428:0.202044 429:0.266373 451:0.520993 452:0.334018 453:0.295462 454:0.29057 456:0.586102 457:0.53909 
-0.1 11:0.199297 14:0.200389 26:0.74026 28:0.154728 29:0.193136 51:0.702163 52:0.525278 53:0.434291 54:0.388889 56:0.597964 57:0.554508 111:0.538804 114:0.220493 126:0.876487 128:0.178372 129:0.449286 151:0.554314 152:0.39968 153:0.301471 154:0.382556 156:0.587164 157:0.49189 211:0.171683 214:0.103186 226:0.54047 228:0.0862445 229:0.116146 251:0.655813 252:0.360645 253:0.267834 254:0.354047 256:0.34279 257:0.702538 311:0.163358 314:0.119114 326:0.495652 328:0.094509 329:0.13529 351:0.773285 352:0.575183 353:0.463604 354:0.526405 356:0.352055 357:0.79759 411:0.170732 414:0.134655 426:0.342809 428:0.123873 429:0.147985 451:0.621571 452:0.500685 453:0.438758 454:0.438966 456:0.419384 457:0.779318 
-0.1 11:0.127784 14:0.16083 26:0.239332 28:0.179943 29:0.193809 51:0.83816 52:0.868964 53:0.467298 54:1 56:0.240049 57:0.427763 111:0.137405 114:0.156291 126:0.244282 128:0.165552 129:0.195714 151:0.881741 152:0.867765 153:0.517157 154:1 156:0.231719 157:0.386812 211:0.177155 214:0.231994 226:0.247171 228:0.180131 229:0.364391 251:0.708868 252:0.814409 253:0.840819 254:0.507359 256:0.179331 257:0.666786 311:0.186047 314:0.267313 326:0.276522 328:0.166843 329:0.379068 351:0.684538 352:0.792733 353:0.822261 354:0.499789 356:0.531221 357:0.49432 411:0.152014 414:0.827068 426:0.382943 428:0.321708 429:0.446474 451:0.63538 452:0.757306 453:0.630843 454:0.707516 456:0.434319 457:0.406894 
-0.1 11:0.212778 14:0.310636 26:0.216141 28:0.252722 29:0.482503 51:0.613636 52:0.798458 53:0.760697 54:0.448351 56:0.29929 57:0.541682 111:0.298346 114:0.23022 126:0.788655 128:0.223523 129:0.265 151:0.774846 152:0.664608 153:0.676471 154:0.420121 156:0.409442 157:0.640339 211:0.222982 214:0.197368 226:0.652742 228:0.170852 229:0.221442 251:0.818617 252:0.693333 253:0.492734 254:0.708095 256:0.431611 257:0.503396 311:0.239932 314:0.482687 326:0.650435 328:0.184266 329:0.287173 351:0.56322 352:0.558501 353:0.575972 354:0.361217 356:0.688735 357:0.471256 411:0.195689 414:0.181818 426:0.310201 428:0.206855 429:0.238665 451:0.891024 452:0.734018 453:0.576936 454:0.734323 456:0.359951 457:0.638593 
-0.1 11:0.347597 14:0.261349 26:0.362709 28:0.252149 29:0.26716 51:0.59824 52:0.513942 53:0.406479 54:0.406684 56:0.474853 57:0.853263 111:0.21374 114:0.197147 126:0.357731 128:0.166667 129:0.247857 151:0.845917 152:0.683368 153:0.591737 154:0.560017 156:0.244986 157:0.48237 211:0.145007 214:0.164127 226:0.289817 228:0.157751 229:0.216975 251:0.863436 252:0.895269 253:0.834214 254:0.669256 256:0.228639 257:0.40901 311:0.253545 314:0.219529 326:0.783478 328:0.166843 329:0.238034 351:0.794876 352:0.593007 353:0.525442 354:0.485425 356:0.397239 357:0.639931 411:0.221781 414:0.19959 426:0.402174 428:0.175586 429:0.234257 451:0.918455 452:0.693379 453:0.644149 454:0.554811 456:0.338616 457:0.662047 
-0.1 11:0.180539 14:0.281453 26:0.111317 28:0.165043 29:0.174966 51:0.235337 52:0.120154 53:0.109413 54:0.0746528 56:0.950941 57:0.107129 111:0.141221 114:0.201686 126:0.280878 128:0.875697 129:0.283571 151:0.499615 152:0.717685 153:0.884104 154:0.264249 156:0.402345 157:0.588505 214:0.0297784 226:0.16101 228:0.186135 229:0.11104 251:0.658111 252:0.809677 253:1 254:0.301308 256:0.0212766 257:0.17769 311:0.149745 314:0.141274 326:0.27913 328:0.334741 329:0.224633 351:0.778957 352:0.795932 353:0.94735 354:0.356147 356:0.421713 357:0.328055 411:0.0674986 414:0.23445 426:0.45903 428:0.511124 429:0.38539 451:0.89513 452:0.724429 453:0.821563 454:0.370991 456:0.377934 457:0.422886 
-0.1 11:0.339977 14:0.442931 26:0.313544 28:0.375358 29:0.355989 51:0.687867 52:0.514396 53:0.447738 54:0.348958 56:0.73465 57:0.456054 111:0.242366 114:0.249676 126:0.231473 128:0.309365 129:0.235714 151:0.618259 152:0.518874 153:0.442927 154:0.433074 156:0.274607 157:0.803597 211:0.352941 214:0.296399 226:0.505657 228:0.210699 229:0.266114 251:0.871289 252:0.637634 253:0.549538 254:0.531889 256:0.37386 257:0.765105 311:0.300624 314:0.296399 326:0.506087 328:0.19641 329:0.266114 351:0.863129 352:0.678702 353:0.59364 354:0.562315 356:0.413869 357:0.773838 411:0.187748 414:0.373889 426:0.230769 428:0.287432 429:0.526448 451:0.75014 452:0.860731 453:0.87854 454:0.576831 456:0.356294 457:0.413291 
-0.1 11:0.252052 14:0.155642 26:0.217069 28:0.157593 29:0.15747 51:0.379399 52:0.333031 53:0.25978 54:0.268663 56:0.321197 57:0.817805 111:0.203562 114:0.321012 126:0.757548 128:0.152731 129:0.195 151:0.536402 152:0.438801 153:0.401261 154:0.333333 156:0.802839 157:0.374471 211:0.0971272 214:0.177285 226:0.257615 228:0.0616812 229:0.227824 251:0.637234 252:0.510108 253:0.457728 254:0.403107 256:0.0857818 257:0.559886 311:0.150879 314:0.186288 326:0.364348 328:0.0786695 329:0.227824 351:0.650869 352:0.497715 353:0.483039 354:0.359949 356:0.39818 357:0.826506 411:0.0879183 414:0.089542 426:0.454849 428:0.0547204 429:0.0900504 451:0.715992 452:0.419406 453:0.323439 454:0.430349 456:0.574825 457:0.499645 
-0.1 11:0.17585 14:0.13489 26:0.731911 28:0.140401 29:0.148048 51:0.775477 52:0.681478 53:0.496027 54:0.60026 56:0.38013 57:0.718974 111:0.245547 114:0.285344 126:0.402562 128:0.113155 129:0.125714 151:0.850732 152:0.576527 153:0.448179 154:0.535406 156:0.331996 157:0.5878 211:0.0882353 214:0.123269 226:0.308964 228:0.080786 229:0.121889 251:0.832408 252:0.766667 253:0.608983 254:0.703598 256:0.337724 257:0.595281 311:0.0981282 314:0.317175 326:0.29913 328:0.092397 329:0.214422 351:0.869533 352:0.827468 353:0.873852 354:0.502324 356:0.358331 357:0.59759 411:0.304027 414:0.122351 426:0.559365 428:0.098617 429:0.27267 451:0.947565 452:0.71895 453:0.656431 454:0.591192 456:0.499238 457:0.579247 
-0.1 11:0.225088 14:0.379377 26:0.222635 28:0.319198 29:0.555182 51:0.706928 52:0.851281 53:0.779951 54:0.522135 56:0.339093 57:0.457563 111:0.244275 114:0.379377 126:0.233303 128:0.310479 129:0.589286 151:0.753274 152:0.859071 153:0.893557 154:0.51943 156:0.339093 157:0.419605 211:0.218878 214:0.366343 226:0.248042 228:0.26583 229:0.518826 251:0.738747 252:0.807527 253:0.842801 254:0.491823 256:0.276596 257:0.411512 311:0.18945 314:0.366343 326:0.248696 328:0.249736 329:0.518826 351:0.736505 352:0.859232 353:0.90742 354:0.520913 356:0.323502 357:0.433391 411:0.18945 414:0.374573 426:0.232441 428:0.288635 429:0.525189 451:0.751073 452:0.859361 453:0.876151 454:0.57731 456:0.359037 457:0.415068 
-0.1 11:0.239742 14:0.19585 26:0.688312 28:0.186819 29:0.201211 51:0.676686 52:0.572659 53:0.437347 54:0.47526 56:0.477939 57:0.754055 111:0.102417 114:0.122568 126:0.180238 128:0.123746 129:0.192143 151:0.969954 152:0.966598 153:0.72409 154:0.931347 156:0.158284 157:0.306065 211:0.110123 214:0.51385 226:0.194952 228:0.152838 229:0.220804 251:0.735683 252:0.76 253:0.799207 254:0.455437 256:0.486322 257:0.322846 311:0.16903 314:0.443213 326:0.18 328:0.121436 329:0.198468 351:0.203477 352:0.137797 353:0.137102 354:0.108154 356:0.970505 357:0.142169 411:0.0964265 414:0.395762 426:0.308528 428:0.601323 429:0.502519 451:0.659451 452:0.802283 453:0.862163 454:0.477262 456:0.39043 457:0.426439 
-0.1 11:0.303634 14:0.250973 26:0.978664 28:0.24298 29:0.259758 51:0.616386 52:0.508048 53:0.391809 54:0.416233 56:0.48411 57:0.557148 111:0.20229 114:0.190661 126:0.294602 128:0.201784 129:0.304286 151:0.942604 152:0.839854 153:0.804972 154:0.592401 156:0.258254 157:0.535966 211:0.244186 214:0.151662 226:0.483029 228:0.133188 229:0.181238 251:0.696227 252:0.557204 253:0.549207 254:0.379395 256:0.228977 257:0.773329 311:0.107771 314:0.098338 326:0.238261 328:0.0976769 329:0.156988 351:0.774199 352:0.799132 353:0.780212 354:0.561893 356:0.210543 357:0.484682 411:0.159955 414:0.159945 426:0.508361 428:0.126278 429:0.197103 451:0.651428 452:0.757991 453:0.777209 454:0.50359 456:0.482475 457:0.527719 
-0.1 11:0.137749 14:0.113489 26:0.0862709 28:0.178797 29:0.0854643 51:0.284091 52:0.292451 53:0.216076 54:0.253038 56:0.102438 57:0.772539 111:0.117048 114:0.0629053 126:0.229643 128:0.0880713 129:0.0864286 151:0.598035 152:0.429421 153:0.356092 154:0.37133 156:0.147177 157:0.527856 211:0.171683 214:0.41482 226:0.274151 228:0.126638 229:0.165922 251:0.663666 252:0.376774 253:0.266182 254:0.386754 256:0.700777 257:0.530568 311:0.251276 314:0.193906 326:0.527826 328:0.328405 329:0.117422 351:0.739433 352:0.482404 353:0.408834 354:0.420363 356:0.422027 357:0.778313 411:0.110607 414:0.0861244 426:0.389632 428:0.0877931 429:0.213476 451:0.874044 452:0.622831 453:0.571818 454:0.508377 456:0.245047 457:0.748045 
-0.1 11:0.340563 14:0.315824 26:0.496289 28:0.26361 29:0.290713 51:0.833028 52:0.672637 53:0.509169 54:0.56467 56:0.430731 57:0.827989 111:0.335242 114:0.44358 126:0.348582 128:0.335006 129:0.372143 151:0.692219 152:0.495081 153:0.491947 154:0.32772 156:0.738044 157:0.400917 211:0.216142 214:0.166898 226:0.319408 228:0.159934 229:0.193363 251:0.752729 252:0.49871 253:0.428005 254:0.418234 256:0.287065 257:0.443332 311:0.187181 314:0.166898 326:0.32 328:0.147307 329:0.193363 351:0.749863 352:0.531079 353:0.463604 354:0.444867 356:0.333229 357:0.464028 411:0.172433 414:0.215995 426:0.336957 428:0.217078 429:0.278338 451:0.857063 452:0.87032 453:0.856363 454:0.628052 456:0.387687 457:0.495736 
-0.1 11:0.0849941 14:0.0927367 26:0.117811 28:0.10086 29:0.100942 51:0.806085 52:0.813874 53:0.418093 54:0.96441 56:0.294662 57:0.466616 111:0.0973282 114:0.127108 126:0.117109 128:0.45262 129:0.166429 151:0.834938 152:0.792267 153:0.897059 154:0.389033 156:0.359766 157:0.405148 211:0.107387 214:0.360803 226:0.228024 228:0.102074 229:0.129547 251:0.782609 252:0.37914 253:0.369551 254:0.263287 256:0.530564 257:0.350375 311:0.124787 314:0.213989 326:0.665217 328:0.0744456 329:0.210593 351:0.677402 352:0.553016 353:0.534276 354:0.400929 356:0.790712 357:0.402754 411:0.115712 414:0.45728 426:0.37291 428:0.108238 429:0.160579 451:0.525285 452:0.352055 453:0.297168 454:0.325993 456:0.911917 457:0.255864 
-0.1 11:0.345252 14:0.263943 26:0.423006 28:0.252722 29:0.274563 51:0.682918 52:0.558603 53:0.435819 54:0.450521 56:0.452947 57:0.890607 111:0.269084 114:0.269131 126:0.306496 128:0.246377 129:0.404286 151:0.817219 152:0.889957 153:0.796218 154:0.697755 156:0.366245 157:0.602257 211:0.209302 214:0.298476 226:0.317668 228:0.225437 229:0.263561 251:0.9276 252:0.735699 253:0.547556 254:0.720769 256:0.486998 257:0.406149 311:0.191719 314:0.193906 326:0.333043 328:0.178986 329:0.237396 351:0.856176 352:0.82404 353:0.615548 354:0.804816 356:0.344525 357:0.599656 411:0.211004 414:0.262474 426:0.306856 428:0.20926 429:0.25 451:0.747528 452:0.683105 453:0.48857 454:0.751556 456:0.640963 457:0.619758 
-0.1 11:0.246776 14:0.245136 26:0.741187 28:0.221777 29:0.230821 51:0.867302 52:0.569939 53:0.383252 54:0.546875 56:0.439371 57:0.584685 111:0.183206 114:0.533722 126:0.389753 128:0.235229 129:0.302143 151:0.893297 152:0.740334 153:0.771008 154:0.446459 156:0.298056 157:0.471086 211:0.158687 214:0.616343 226:0.201915 228:0.199782 229:0.294193 251:0.812105 252:0.604516 253:0.534346 254:0.487735 256:0.553191 257:0.387558 311:0.192286 314:0.194598 326:0.666087 328:0.1283 329:0.188258 351:0.796157 352:0.710238 353:0.586219 354:0.629489 356:0.570756 357:0.549742 411:0.203063 414:0.183185 426:0.667224 428:0.149128 429:0.216625 451:0.705915 452:0.712557 453:0.727738 454:0.477741 456:0.455044 457:0.667377 
-0.1 11:0.418523 14:0.136187 26:0.339518 28:0.174212 29:0.125168 51:0.578079 52:0.602584 53:0.471883 54:0.483507 56:0.238815 57:0.799321 111:0.15458 114:0.160182 126:0.186642 128:0.17447 129:0.190714 151:0.753467 152:0.850149 153:0.887605 154:0.509931 156:0.343721 157:0.557475 211:0.134063 214:0.126731 226:0.563098 228:0.129367 229:0.179962 251:0.724765 252:0.824516 253:0.92041 254:0.428046 256:0.170213 257:0.473007 311:0.562677 314:0.354571 326:0.382609 328:0.124604 329:0.183153 351:0.398719 352:0.341865 353:0.378092 354:0.197296 356:0.86696 357:0.371084 411:0.128191 414:0.180451 426:0.647993 428:0.137102 429:0.302897 451:0.835044 452:0.691553 453:0.681679 454:0.498325 456:0.618409 457:0.399076 
-0.1 11:0.33939 14:0.442931 26:0.312616 28:0.260745 29:0.355316 51:0.450147 52:0.378146 53:0.294927 54:0.305122 56:0.888615 57:0.380234 111:0.24173 114:0.37808 126:0.231473 128:0.309365 129:0.590714 151:0.752119 152:0.860215 153:0.896008 154:0.518566 156:0.33539 157:0.417489 211:0.183311 214:0.261773 226:0.288077 228:0.231441 229:0.412891 251:0.843517 252:0.830753 253:0.851387 254:0.525348 256:0.252617 257:0.420093 311:0.157119 314:0.322715 326:0.236522 328:0.205385 329:0.493299 351:0.686551 352:0.843921 353:0.915548 354:0.48289 356:0.263885 357:0.404475 411:0.146341 414:0.277512 426:0.238294 428:0.233915 429:0.435768 451:0.793805 452:0.865982 453:0.889458 454:0.572523 456:0.306004 457:0.38877 
-0.1 11:0.339977 14:0.442931 26:0.313544 28:0.375358 29:0.355989 51:0.687683 52:0.514396 53:0.447738 54:0.348958 56:0.73465 57:0.456054 111:0.242366 114:0.249676 126:0.322964 128:0.309365 129:0.377857 151:0.981895 152:0.814459 153:0.721289 154:0.647668 156:0.397408 157:0.488011 211:0.149111 214:0.227839 226:0.333333 228:0.210699 229:0.266114 251:0.947137 252:0.850968 253:0.647622 254:0.816026 256:0.306991 257:0.480872 311:0.187748 314:0.227839 326:0.333913 328:0.19641 329:0.266114 351:0.844831 352:0.860146 353:0.874205 354:0.562315 356:0.382805 357:0.500172 411:0.243902 414:0.645249 426:0.230769 428:0.526759 429:0.838791 451:0.546184 452:0.565297 453:0.572842 454:0.386309 456:0.538251 457:0.342573 
-0.1 11:0.225088 14:0.379377 26:0.222635 28:0.319198 29:0.555182 51:0.706928 52:0.851281 53:0.779951 54:0.522135 56:0.339093 57:0.457563 111:0.244275 114:0.379377 126:0.233303 128:0.310479 129:0.589286 151:0.753274 152:0.859071 153:0.893557 154:0.51943 156:0.339093 157:0.419605 211:0.218878 214:0.366343 226:0.248042 228:0.26583 229:0.518826 251:0.738747 252:0.807527 253:0.842801 254:0.491823 256:0.276596 257:0.411512 311:0.301191 314:0.297784 326:0.505217 328:0.197994 329:0.26739 351:0.862763 352:0.679159 353:0.594346 354:0.562315 356:0.415751 357:0.772117 411:0.301191 414:0.306904 426:0.479097 428:0.229705 429:0.277078 451:0.879828 452:0.679452 453:0.573866 454:0.624222 456:0.448644 457:0.764748 
-0.1 11:0.311254 14:0.243839 26:0.43321 28:0.25043 29:0.271871 51:0.794905 52:0.619361 53:0.482579 54:0.500434 56:0.396174 57:0.851754 111:0.21374 114:0.169909 126:0.287283 128:0.175585 129:0.204286 151:0.827234 152:0.529627 153:0.451681 154:0.442573 156:0.298056 157:0.424189 211:0.236662 214:0.187673 226:0.395126 228:0.220524 229:0.261008 251:0.936028 252:0.690968 253:0.623514 254:0.541701 256:0.280311 257:0.596711 311:0.175269 314:0.297784 326:0.248696 328:0.181626 329:0.377792 351:0.729003 352:0.717322 353:0.780565 354:0.410224 356:0.483527 357:0.376936 411:0.282473 414:0.229665 426:0.371237 428:0.201443 429:0.241184 451:0.752752 452:0.528082 453:0.458888 454:0.468167 456:0.446205 457:0.785714 
-0.1 11:0.217468 14:0.344358 26:0.193878 28:0.255014 29:0.246299 51:0.51228 52:0.310814 53:0.283924 54:0.19184 56:0.606603 57:0.25877 111:0.125954 114:0.140078 126:0.193047 128:0.16165 129:0.2 151:0.723998 152:0.862274 153:0.921919 154:0.490501 156:0.330762 157:0.307475 211:0.143639 214:0.617036 226:0.140992 228:0.379367 229:0.912572 251:0.290366 252:0.444301 253:0.523448 254:0.196648 256:0.425532 257:0.178763 311:0.202496 314:0.310249 326:0.228696 328:0.142555 329:0.211232 351:0.274474 352:0.207952 353:0.203534 354:0.158428 356:0.940697 357:0.239587 411:0.23426 414:0.167464 426:0.407191 428:0.146723 429:0.179471 451:0.505505 452:0.394521 453:0.34391 454:0.349449 456:0.373057 457:0.830135 
-0.1 11:0.219812 14:0.227626 26:0.33859 28:0.315186 29:0.322342 51:0.911657 52:0.816595 53:0.654645 54:0.633681 56:0.382598 57:0.536401 111:0.374046 114:0.299611 126:0.849954 128:0.278149 129:0.327857 151:0.763675 152:0.593686 153:0.52381 154:0.474525 156:0.54767 157:0.582863 211:0.177839 214:0.231994 226:0.316797 228:0.219978 229:0.279515 251:0.832982 252:0.805806 253:0.8679 254:0.457482 256:0.304965 257:0.41902 311:0.155417 314:0.231994 326:0.317391 328:0.205385 329:0.279515 351:0.826532 352:0.857404 353:0.934276 354:0.485425 356:0.349859 357:0.44062 411:0.155417 414:0.241969 426:0.298495 428:0.238124 429:0.289043 451:0.842881 452:0.857534 453:0.902081 454:0.537099 456:0.384639 457:0.42253 
-0.1 11:0.170574 14:0.13489 26:0.217996 28:0.156447 29:0.152086 51:0.615286 52:0.426661 53:0.316015 54:0.368056 56:0.266893 57:0.392305 111:0.225827 114:0.245136 126:0.278134 128:0.219064 129:0.257143 151:0.801233 152:0.768245 153:0.828431 154:0.428325 156:0.491206 157:0.533145 211:0.111491 214:0.154432 226:0.239339 228:0.167031 229:0.216337 251:0.786631 252:0.77957 253:0.869221 254:0.405969 256:0.202297 257:0.327851 311:0.190584 314:0.165512 326:0.513913 328:0.156283 329:0.179962 351:0.679414 352:0.599863 353:0.619788 354:0.385298 356:0.267022 357:0.843718 411:0.545661 414:0.196172 426:0.255017 428:0.171978 429:0.214736 451:0.785408 452:0.842694 453:0.844422 454:0.586884 456:0.429442 457:0.431414 
