svm_type c_svc
kernel_type rbf
gamma 0.1
nr_class 2
total_sv 2149
rho -2.32127
label 1 0
probA -2.83128
probB 1.37628
nr_sv 1097 1052
SV
0.1 11:0.232394 14:0.201483 16:0.16793 18:0.230221 20:0.218092 21:0.205729 22:0.234194 23:0.221379 24:0.176918 26:0.308426 28:0.172043 29:0.42138 54:0.255823 56:0.437048 57:0.878865 111:0.22715 114:0.450032 116:0.121247 118:0.150181 120:0.33891 121:0.160979 122:0.156889 123:0.142555 124:0.141672 126:0.394612 128:0.178834 129:0.22747 154:0.194536 156:0.909282 157:0.297199 211:0.22066 214:0.23424 216:0.153537 218:0.211689 220:0.479554 221:0.366388 222:0.656129 223:0.205803 224:0.172677 226:0.498829 228:0.163155 229:0.194821 254:0.258278 256:0.752066 257:0.492247 311:0.153597 314:0.150803 316:0.19839 318:0.422064 320:0.188088 321:0.529298 322:0.856959 323:0.266129 324:0.219274 326:0.210324 328:0.138168 329:0.147349 354:0.64541 356:0.400826 357:0.452803 411:0.146784 414:0.910929 416:0.203565 418:0.177224 420:0.471759 421:0.185668 422:0.411082 423:0.160618 424:0.402048 426:0.311248 428:0.288945 429:0.432182 454:0.354996 456:0.463105 457:0.199638 511:0.20398 514:0.330385 516:0.234717 518:0.643416 520:0.340278 521:0.367734 522:0.489691 523:0.50672 524:0.382979 526:0.451464 528:0.205688 529:0.237361 554:0.463038 556:0.570838 557:0.641953 611:0.225082 614:0.405457 616:0.384704 618:0.283167 620:0.24727 621:0.307949 622:0.344872 623:0.343373 624:0.267419 626:0.532567 628:0.73002 629:0.528527 654:0.489439 656:0.505292 657:0.700539 711:0.193319 714:0.178004 716:0.352873 718:0.331669 720:0.306513 721:0.532398 722:0.271549 723:0.678046 724:0.29927 726:0.422222 728:0.16927 729:0.209907 754:0.630788 756:0.413031 757:0.746905 811:0.145674 814:0.131274 816:0.201878 818:0.264622 820:0.154994 821:0.549801 822:0.219231 823:0.450469 824:0.226941 826:0.308046 828:0.141562 829:0.133501 854:0.659886 856:0.314787 857:0.79024 911:0.176114 914:0.150129 916:0.219484 918:0.299566 920:0.17834 921:0.564409 922:0.565866 923:0.366573 924:0.304141 926:0.490119 928:0.145592 929:0.163728 954:0.72468 956:0.40006 957:0.771598 1900:0.571429 2000:1 
0.1 11:0.227519 14:0.436959 16:0.112536 18:0.161083 20:0.33891 21:0.151693 22:0.177419 23:0.162069 24:0.141672 26:0.41097 28:0.178397 29:0.239901 54:0.188755 56:0.911747 57:0.297199 111:0.22066 114:0.241248 116:0.154157 118:0.201444 120:0.479554 121:0.366388 122:0.646012 123:0.191955 124:0.175536 126:0.491284 128:0.163155 129:0.188316 154:0.258278 156:0.747672 157:0.496544 211:0.153597 214:0.150803 216:0.19839 218:0.42124 220:0.185874 221:0.529298 222:0.855484 223:0.266532 224:0.217753 226:0.20687 228:0.138168 229:0.147349 254:0.652318 256:0.400826 257:0.454382 311:0.160627 314:0.912855 316:0.203565 318:0.177224 320:0.484013 321:0.183516 322:0.411082 323:0.160618 324:0.411313 326:0.311248 328:0.306712 329:0.432182 354:0.354996 356:0.463105 357:0.199638 411:0.208356 414:0.330385 416:0.236918 418:0.643416 420:0.345956 421:0.366775 422:0.489691 423:0.50672 424:0.374061 426:0.451464 428:0.203518 429:0.237361 454:0.463038 456:0.570838 457:0.641953 511:0.221669 514:0.403664 516:0.38293 518:0.276868 520:0.248737 521:0.306336 522:0.341495 523:0.340726 524:0.254633 526:0.530046 528:0.723718 529:0.536375 554:0.489439 556:0.5183 557:0.698373 611:0.193319 614:0.179569 616:0.358827 618:0.331669 620:0.302505 621:0.532398 622:0.26859 623:0.678046 624:0.29927 626:0.422222 628:0.175205 629:0.195611 654:0.630788 656:0.397944 657:0.736445 711:0.145674 714:0.141767 716:0.199652 718:0.264622 720:0.167944 721:0.547094 722:0.221646 723:0.450469 724:0.226941 726:0.308046 728:0.141562 729:0.147988 754:0.660439 756:0.331958 757:0.79024 811:0.175246 814:0.151223 816:0.219484 818:0.295292 820:0.17834 821:0.564409 822:0.558974 823:0.349398 824:0.319841 826:0.472797 828:0.145592 829:0.163728 854:0.715622 856:0.40006 857:0.75783 911:0.176114 914:0.137242 916:0.337441 918:0.327062 920:0.164073 921:0.632802 922:0.527579 923:0.400281 924:0.345553 926:0.404743 928:0.138035 929:0.156171 954:0.444399 956:0.357121 957:0.896552 1900:0.571429 2000:1 
0.1 11:0.221018 14:0.23424 16:0.145773 18:0.211689 20:0.479554 21:0.359375 22:0.656129 23:0.210345 24:0.175536 26:0.507949 28:0.162757 29:0.200746 54:0.250602 56:0.749699 57:0.496544 111:0.153597 114:0.155315 116:0.199192 118:0.413718 120:0.185874 121:0.529298 122:0.849703 123:0.255469 124:0.220456 126:0.194929 128:0.138168 129:0.14046 154:0.652318 156:0.390207 157:0.458348 211:0.160627 214:0.912855 216:0.203565 218:0.176051 220:0.478315 221:0.183516 222:0.409032 223:0.160594 224:0.40846 226:0.309133 228:0.306712 229:0.432182 254:0.356374 256:0.463105 257:0.201947 311:0.221201 314:0.34487 316:0.236918 318:0.643416 320:0.361129 321:0.362524 322:0.489691 323:0.50672 324:0.382682 326:0.451464 328:0.22342 329:0.237361 354:0.463038 356:0.570838 357:0.641953 411:0.225948 414:0.403664 416:0.384704 418:0.276868 420:0.252888 421:0.305537 422:0.341495 423:0.340726 424:0.246416 426:0.530046 428:0.71608 429:0.536375 454:0.489439 456:0.5183 457:0.698373 511:0.189608 514:0.178774 516:0.356978 518:0.325267 520:0.30303 521:0.5258 522:0.26482 523:0.676747 524:0.287577 526:0.419106 528:0.173692 529:0.209001 554:0.630788 556:0.413518 557:0.734539 611:0.145674 614:0.143401 616:0.207016 618:0.264622 620:0.163134 621:0.547094 622:0.219231 623:0.450469 624:0.226941 626:0.308046 628:0.147029 629:0.132915 654:0.660439 656:0.314787 657:0.779174 711:0.175246 714:0.161475 716:0.217063 718:0.295292 720:0.190932 721:0.56179 722:0.565133 723:0.349398 724:0.319841 726:0.472797 728:0.145592 729:0.177709 754:0.716084 756:0.415094 757:0.75783 811:0.175246 814:0.138353 816:0.337441 818:0.322397 820:0.164073 821:0.632802 822:0.521154 823:0.381526 824:0.360319 826:0.390038 828:0.138035 829:0.156171 854:0.439788 856:0.357121 857:0.880554 911:0.150798 914:0.371778 916:0.187793 918:0.41534 920:0.158236 921:0.444887 922:0.371188 923:0.544242 924:0.216565 926:0.36996 928:0.125945 929:0.155542 954:0.660604 956:0.374962 957:0.823508 1900:0.571429 2000:1 
0.1 11:0.153846 14:0.150803 16:0.191254 18:0.42124 20:0.185874 21:0.524089 22:0.855484 23:0.272414 24:0.220456 26:0.210652 28:0.13783 29:0.15289 54:0.632932 56:0.391265 57:0.458348 111:0.160627 114:0.940165 116:0.204388 118:0.165343 120:0.478315 121:0.183516 122:0.39354 123:0.144672 124:0.410504 126:0.298732 128:0.306712 129:0.427595 154:0.356374 156:0.45359 157:0.20371 211:0.221201 214:0.34487 216:0.236918 218:0.642908 220:0.356877 221:0.362524 222:0.487742 223:0.508097 224:0.380028 226:0.45121 228:0.22342 229:0.237361 254:0.466474 256:0.570838 257:0.642986 311:0.238507 314:0.416564 316:0.384704 318:0.276868 320:0.270219 321:0.301996 322:0.341495 323:0.340726 324:0.252095 326:0.530046 328:0.723175 329:0.536375 354:0.489439 356:0.5183 357:0.698373 411:0.194063 414:0.178774 416:0.358827 418:0.325267 420:0.308087 421:0.52443 422:0.26482 423:0.676747 424:0.279181 426:0.419106 428:0.171859 429:0.209001 454:0.630788 456:0.413518 457:0.734539 511:0.141515 514:0.142767 516:0.204729 518:0.258363 520:0.166035 521:0.54017 522:0.215206 523:0.448253 524:0.212766 526:0.304314 528:0.145759 529:0.147349 554:0.660439 556:0.332349 557:0.777577 611:0.175246 614:0.163071 616:0.224267 618:0.295292 620:0.186256 621:0.56179 622:0.558974 623:0.349398 624:0.319841 626:0.472797 628:0.151127 629:0.163009 654:0.716084 656:0.40006 657:0.747217 711:0.175246 714:0.14876 716:0.33372 718:0.322397 720:0.176884 721:0.630595 722:0.526896 723:0.381526 724:0.360319 726:0.390038 728:0.138035 729:0.170279 754:0.440699 756:0.373231 757:0.880554 811:0.150055 814:0.372587 816:0.187793 818:0.409415 820:0.158236 821:0.444887 822:0.366667 823:0.518742 824:0.23424 826:0.356322 828:0.125945 829:0.155542 854:0.652563 856:0.374962 857:0.808813 911:0.193176 914:0.452964 916:0.375 918:0.395803 920:0.463684 921:0.522576 922:0.380921 923:0.229635 924:0.199593 926:0.228458 928:0.163224 929:0.217884 954:0.259198 956:0.713638 957:0.652948 1900:0.428571 2000:1 
0.1 11:0.160888 14:0.912855 16:0.196501 18:0.176051 20:0.478315 21:0.174479 22:0.409032 23:0.164138 24:0.410504 26:0.314785 28:0.305963 29:0.440025 54:0.345783 56:0.454819 57:0.20371 111:0.221201 114:0.355188 116:0.237875 118:0.638267 120:0.356877 121:0.362524 122:0.473962 123:0.508116 124:0.38217 126:0.442948 128:0.22342 129:0.2312 154:0.466474 156:0.563232 157:0.648599 211:0.238507 214:0.416564 216:0.384704 218:0.275837 220:0.267038 221:0.301996 222:0.339355 223:0.34143 224:0.250347 226:0.530835 228:0.723175 229:0.536375 254:0.493377 256:0.5183 257:0.699243 311:0.207139 314:0.196539 316:0.358827 318:0.325267 320:0.324138 321:0.518352 322:0.26482 323:0.676747 324:0.285615 326:0.419106 328:0.192553 329:0.209001 354:0.630788 356:0.413518 357:0.734539 411:0.146234 414:0.142767 416:0.207016 418:0.258363 420:0.168806 421:0.538762 422:0.215206 423:0.448253 424:0.204778 426:0.304314 428:0.144221 429:0.147349 454:0.660439 456:0.332349 457:0.777577 511:0.171365 514:0.16235 516:0.22203 518:0.288968 520:0.188763 521:0.55454 522:0.556701 523:0.346774 524:0.308854 526:0.469954 528:0.149822 529:0.176942 554:0.716084 556:0.415584 557:0.745389 611:0.175246 614:0.150381 616:0.33985 618:0.322397 620:0.172126 621:0.630595 622:0.521154 623:0.381526 624:0.360319 626:0.390038 628:0.143443 629:0.155486 654:0.440699 656:0.357121 657:0.868223 711:0.150055 714:0.380165 716:0.185723 718:0.409415 720:0.171137 721:0.44155 722:0.370706 723:0.518742 724:0.23424 726:0.356322 728:0.125945 729:0.169659 754:0.653128 756:0.390625 757:0.808813 811:0.192223 814:0.453668 816:0.375 818:0.390157 820:0.463684 821:0.522576 822:0.376282 823:0.218876 824:0.217651 826:0.219157 828:0.163224 829:0.217884 854:0.257526 856:0.713638 857:0.641296 911:0.16951 914:0.134665 916:0.18838 918:0.271346 920:0.162127 921:0.396414 922:0.828683 923:0.479635 924:0.20706 926:0.232411 928:0.144081 929:0.147355 954:0.393551 956:0.37345 957:0.795699 1900:0.428571 2000:1 
0.1 11:0.22156 14:0.34487 16:0.230321 18:0.642908 20:0.356877 21:0.355469 22:0.487742 23:0.51931 24:0.38217 26:0.459459 28:0.222874 29:0.24363 54:0.45261 56:0.564759 57:0.648599 111:0.238507 114:0.429026 116:0.386259 118:0.266426 120:0.267038 121:0.301996 122:0.322347 123:0.333804 124:0.252937 126:0.523772 128:0.723175 129:0.532629 154:0.493377 156:0.509763 157:0.705347 211:0.207139 214:0.196539 216:0.358827 218:0.324305 220:0.320322 221:0.518352 222:0.262581 223:0.678812 224:0.283634 226:0.418423 228:0.192553 229:0.209001 254:0.637417 256:0.413518 257:0.735305 311:0.160087 314:0.16131 316:0.207016 318:0.258363 320:0.188088 321:0.532518 322:0.215206 323:0.448253 324:0.209497 326:0.304314 328:0.165605 329:0.147349 354:0.660439 356:0.332349 357:0.777577 411:0.175921 414:0.16235 416:0.224267 418:0.288968 420:0.191913 421:0.553094 422:0.556701 423:0.346774 424:0.300341 426:0.469954 428:0.148241 429:0.176942 454:0.716084 456:0.415584 457:0.745389 511:0.171365 514:0.149716 516:0.337947 518:0.316014 520:0.174874 521:0.621816 522:0.518686 523:0.379032 524:0.350721 526:0.386749 528:0.142204 529:0.169544 554:0.440699 556:0.373672 557:0.867269 611:0.150055 614:0.381345 616:0.193214 618:0.409415 620:0.166346 621:0.44155 622:0.366667 623:0.518742 624:0.23424 626:0.356322 628:0.131148 629:0.154859 654:0.653128 656:0.374962 657:0.797487 711:0.192223 714:0.460267 716:0.370865 718:0.390157 720:0.471903 721:0.519706 722:0.380428 723:0.218876 724:0.217651 726:0.219157 728:0.163224 729:0.23096 754:0.258733 756:0.720814 757:0.641296 811:0.168675 814:0.135779 816:0.18838 818:0.267475 820:0.162127 821:0.396414 822:0.81859 823:0.457162 824:0.22495 826:0.222989 828:0.144081 829:0.147355 854:0.389748 856:0.37345 857:0.7815 911:0.15355 914:0.391753 916:0.353873 918:0.372648 920:0.201686 921:0.450199 922:0.245944 923:0.70014 924:0.632043 926:0.439526 928:0.164232 929:0.209068 954:0.663497 956:0.403387 957:0.530219 1900:0.428571 2000:1 
0.1 11:0.0953413 14:0.0698393 16:0.109621 18:0.158232 20:0.0712515 21:0.236979 22:0.130968 23:0.151034 24:0.0960608 26:0.0771065 28:0.123656 29:0.0546924 54:0.361044 56:0.0536145 57:0.701346 111:0.442942 114:0.235519 116:0.353926 118:0.579783 120:0.486989 121:0.446877 122:0.222808 123:0.299929 124:0.409122 126:0.768621 128:0.268006 129:0.142324 154:0.477235 156:0.513668 157:0.487086 211:0.158464 214:0.325093 216:0.387579 218:0.381326 220:0.642503 221:0.155184 222:0.134194 223:0.582996 224:0.415395 226:0.283372 228:0.585497 229:0.295314 254:0.200745 256:0.731995 257:0.452939 311:0.139535 314:0.262052 316:0.3272 318:0.378648 320:0.136677 321:0.728268 322:0.347294 323:0.356855 324:0.307961 326:0.287365 328:0.0955414 329:0.127004 354:0.575548 356:0.274793 357:0.752622 411:0.140187 414:0.222994 416:0.387579 418:0.523843 420:0.349166 421:0.212378 422:0.157216 423:0.389785 424:0.497611 426:0.70339 428:0.290955 429:0.352651 454:0.448822 456:0.687131 457:0.394937 511:0.155334 514:0.108023 516:0.132065 518:0.203559 520:0.476641 521:0.329197 522:0.50451 523:0.200269 524:0.16129 526:0.885978 528:0.0909091 529:0.124538 554:0.432575 556:0.343861 557:0.537794 611:0.121577 614:0.340736 616:0.304773 618:0.669044 620:0.264611 621:0.336673 622:0.228205 623:0.358099 624:0.469144 626:0.411494 628:0.411373 629:0.143574 654:0.515028 656:0.62534 657:0.643806 711:0.152245 714:0.239034 716:0.486361 718:0.445792 720:0.368455 721:0.485638 722:0.476345 723:0.294511 724:0.462508 726:0.590038 728:0.108312 729:0.165325 754:0.401706 756:0.280955 757:0.714858 811:0.0985761 814:0.0624196 816:0.129108 818:0.18331 820:0.0609598 821:0.357902 822:0.157051 823:0.323293 824:0.253484 826:0.111111 828:0.112343 829:0.0623426 854:0.347844 856:0.0943453 857:0.75091 911:0.517887 914:0.364691 916:0.428991 918:0.62301 920:0.212711 921:0.297477 922:0.159637 923:0.353933 924:0.589274 926:0.371542 928:0.112846 929:0.15932 954:0.455974 956:0.704868 957:0.450501 1900:0.571429 2000:1 
0.1 11:0.443662 14:0.228677 16:0.347522 18:0.585175 20:0.486989 21:0.440755 22:0.241935 23:0.315862 24:0.409122 26:0.786169 28:0.267351 29:0.154755 54:0.463052 56:0.51506 57:0.487086 111:0.158464 114:0.334819 116:0.389145 118:0.373285 120:0.642503 121:0.155184 122:0.112722 123:0.58645 124:0.417415 126:0.272583 128:0.585497 129:0.289621 154:0.200745 156:0.727245 157:0.456893 211:0.139535 214:0.262052 216:0.3272 218:0.377762 220:0.135068 221:0.728268 222:0.345161 223:0.357625 224:0.305825 226:0.284934 228:0.0955414 229:0.127004 254:0.581126 256:0.274793 257:0.753336 311:0.154137 314:0.239802 316:0.387579 318:0.523843 320:0.364263 321:0.209916 322:0.157216 323:0.389785 324:0.509078 326:0.70339 328:0.308672 329:0.352651 354:0.448822 356:0.687131 357:0.394937 411:0.159978 414:0.108023 416:0.13456 418:0.203559 420:0.484596 421:0.328339 422:0.50451 423:0.200269 424:0.153584 426:0.885978 428:0.0899497 429:0.124538 454:0.432575 456:0.343861 457:0.537794 511:0.117192 514:0.339229 516:0.302768 518:0.661922 520:0.265783 521:0.334422 522:0.224227 523:0.355511 524:0.463281 526:0.40832 528:0.407821 529:0.15783 554:0.515028 556:0.635478 557:0.64123 611:0.152245 614:0.240482 616:0.491087 618:0.445792 620:0.364804 621:0.485638 622:0.471154 623:0.294511 624:0.462508 626:0.590038 628:0.113217 629:0.15047 654:0.401706 656:0.262474 657:0.704847 711:0.0985761 714:0.0737444 716:0.127684 718:0.18331 720:0.0753512 721:0.354041 722:0.158782 723:0.323293 724:0.253484 726:0.111111 728:0.112343 729:0.0780186 754:0.348903 756:0.11704 757:0.75091 811:0.515334 814:0.365508 816:0.428991 818:0.614123 820:0.212711 821:0.297477 822:0.157692 823:0.337349 824:0.59854 826:0.357854 828:0.112846 829:0.15932 854:0.45118 856:0.704868 857:0.442462 911:0.504678 914:0.0708763 916:0.16608 918:0.485528 920:0.344358 921:0.286853 922:0.758598 923:0.660112 924:0.477936 926:0.577075 928:0.0911839 929:0.104534 954:0.529558 956:0.343514 957:0.418613 1900:0.571429 2000:1 
0.1 11:0.158722 14:0.325093 16:0.38309 18:0.381326 20:0.642503 21:0.145833 22:0.134194 23:0.595862 24:0.417415 26:0.288553 28:0.584066 29:0.302051 54:0.194779 56:0.729217 57:0.456893 111:0.139535 114:0.269892 116:0.328522 118:0.369675 120:0.135068 121:0.728268 122:0.328279 123:0.350741 124:0.308224 126:0.274168 128:0.0955414 129:0.11995 154:0.581126 156:0.261941 157:0.759913 211:0.154137 214:0.239802 216:0.387579 218:0.523165 220:0.359975 221:0.209916 222:0.154839 223:0.390688 224:0.505548 226:0.706479 228:0.308672 229:0.352651 254:0.451987 256:0.687131 257:0.396682 311:0.173607 314:0.127318 316:0.13456 318:0.203559 320:0.496552 321:0.324533 322:0.50451 323:0.200269 324:0.157123 326:0.885978 328:0.11269 329:0.124538 354:0.432575 356:0.343861 357:0.537794 411:0.122045 414:0.339229 416:0.304773 418:0.661922 420:0.270218 421:0.33355 422:0.224227 423:0.355511 424:0.453925 426:0.40832 428:0.403518 429:0.15783 454:0.515028 456:0.635478 457:0.64123 511:0.148148 514:0.239419 516:0.489619 518:0.439146 520:0.364268 521:0.480078 522:0.468428 523:0.291667 524:0.456417 526:0.587827 528:0.11224 529:0.164612 554:0.401706 556:0.281287 557:0.702712 611:0.0985761 614:0.0755076 616:0.13571 618:0.18331 620:0.0700064 621:0.354041 622:0.157051 623:0.323293 624:0.253484 626:0.111111 628:0.117316 629:0.062069 654:0.348903 656:0.0943453 657:0.740395 711:0.515334 714:0.373172 716:0.42426 718:0.614123 720:0.224777 721:0.293253 722:0.15943 723:0.337349 724:0.59854 726:0.357854 728:0.112846 729:0.173375 754:0.452071 756:0.712264 757:0.442462 811:0.502191 814:0.0720721 816:0.16608 818:0.478602 820:0.344358 821:0.286853 822:0.749359 823:0.629183 824:0.489715 826:0.557088 828:0.0911839 829:0.104534 854:0.523596 856:0.343514 857:0.411143 911:0.990094 914:0.0947165 916:0.0352113 918:0.0289436 920:0.135538 921:0.0803453 922:0.0798183 923:0.0414326 924:0.00203666 926:0.136759 928:0.10529 929:0.0711587 954:0.0206697 956:0.365891 957:0.190582 1900:0.714286 2000:1 
0.1 11:0.0801733 14:0.386279 16:0.345773 18:0.655025 20:0.480173 21:0.351563 22:0.385161 23:0.461379 24:0.469247 26:0.151033 28:0.130987 29:0.332505 54:0.767068 56:0.379518 57:0.304474 111:0.135749 114:0.157861 116:0.158776 118:0.429603 120:0.327757 121:0.212492 122:0.145023 123:0.550459 124:0.187284 126:0.265452 128:0.123959 129:0.267247 154:0.741308 156:0.65395 157:0.654056 211:0.153056 214:0.34178 216:0.0701553 218:0.305061 220:0.486369 221:0.0843529 222:0.225161 223:0.202429 224:0.0998613 226:0.266198 228:0.143067 229:0.157213 254:0.154801 256:0.868949 257:0.263974 311:0.0605733 314:0.0840544 316:0.294997 318:0.664057 320:0.222571 321:0.334836 322:0.165593 323:0.605511 324:0.587291 326:0.284284 328:0.104851 329:0.328607 354:0.831844 356:0.159091 357:0.393128 411:0.17757 414:0.259002 416:0.378378 418:0.523132 420:0.144416 421:0.4443 422:0.288015 423:0.582661 424:0.317406 426:0.385208 428:0.0753769 429:0.125154 454:0.78879 456:0.501476 457:0.459675 511:0.132117 514:0.321541 516:0.101499 518:0.0733096 520:0.390152 521:0.0633573 522:0.0798969 523:0.0866935 524:0.0754976 526:0.274268 528:0.157948 529:0.584464 554:0.0739236 556:0.896694 557:0.269439 611:0.334064 614:0.252538 616:0.267395 618:0.547789 620:0.57675 621:0.269873 622:0.169872 623:0.666667 624:0.473125 626:0.315709 628:0.263832 629:0.126646 654:0.487002 656:0.514968 657:0.580969 711:0.3954 714:0.0959949 716:0.349391 718:0.579886 720:0.439974 721:0.362057 722:0.249514 723:0.585007 724:0.554745 726:0.241379 728:0.0906801 729:0.159133 754:0.731113 756:0.409198 757:0.592134 811:0.594195 814:0.277349 816:0.424883 818:0.422967 820:0.177043 821:0.615538 822:0.250641 823:0.548862 824:0.354346 826:0.354789 828:0.130479 829:0.155542 854:0.582181 856:0.521318 857:0.625273 911:0.266373 914:0.192655 916:0.33392 918:0.429812 920:0.202983 921:0.338645 922:0.273199 923:0.257725 924:0.357094 926:0.903557 928:0.435264 929:0.354534 954:0.323687 956:0.431207 957:0.550612 1900:0.428571 2000:1 
0.1 11:0.114301 14:0.0988875 16:0.180175 18:0.561654 20:0.327757 21:0.53125 22:0.187742 23:0.363448 24:0.347616 26:0.164547 28:0.0982405 29:0.108763 54:0.773494 56:0.225904 57:0.699891 111:0.115197 114:0.285805 116:0.654734 118:0.705415 120:0.394052 121:0.262717 122:0.151615 123:0.41355 124:0.695923 126:0.359746 128:0.152866 129:0.436917 154:0.459851 156:0.464704 157:0.431793 211:0.368307 214:0.127318 216:0.355377 218:0.607983 220:0.179058 221:0.354153 222:0.170323 223:0.499325 224:0.887656 226:0.161593 228:0.44292 229:0.168311 254:0.422185 256:0.301948 257:0.345114 311:0.274202 314:0.49382 316:0.319149 318:0.67331 320:0.317241 321:0.338699 322:0.171392 323:0.327957 324:0.528631 326:0.459938 328:0.385105 329:0.453761 354:0.525995 356:0.667651 357:0.38047 411:0.127543 414:0.161087 416:0.297872 418:0.68968 420:0.210526 421:0.458632 422:0.275129 423:0.344758 424:0.688055 426:0.395223 428:0.126131 429:0.287916 454:0.537368 456:0.612161 457:0.426401 511:0.0972913 514:0.21036 516:0.285467 518:0.801423 520:0.26452 521:0.548008 522:0.339562 523:0.395161 524:0.50652 526:0.342065 528:0.114271 529:0.154131 554:0.62104 556:0.239374 557:0.565642 611:0.110077 614:0.0926396 616:0.187464 618:0.569187 620:0.109827 621:0.53507 622:0.363462 623:0.251673 624:0.525547 626:0.213793 628:0.121926 629:0.100313 654:0.468318 656:0.142123 657:0.732855 711:0.375685 714:0.129688 716:0.208938 718:0.686163 720:0.282248 721:0.40147 722:0.215165 723:0.625837 724:0.592568 726:0.363985 728:0.122922 729:0.162848 754:0.495938 756:0.498231 757:0.634377 811:0.155531 814:0.565637 816:0.167254 818:0.53495 820:0.357977 821:0.426959 822:0.487821 823:0.329987 824:0.368945 826:0.354789 828:0.560202 829:0.353904 854:0.446705 856:0.751134 857:0.346322 911:0.090809 914:0.180412 916:0.36561 918:0.442113 920:0.435798 921:0.325365 922:0.210902 923:0.738062 924:0.369314 926:0.187352 928:0.325441 929:0.484887 954:0.704837 956:0.471122 957:0.271413 1900:0.428571 2000:1 
0.1 11:0.115385 14:0.277503 16:0.651312 18:0.709195 20:0.394052 21:0.254557 22:0.172258 23:0.426897 24:0.695923 26:0.375994 28:0.152493 29:0.449347 54:0.446185 56:0.465964 57:0.431793 111:0.368307 114:0.131127 116:0.356813 118:0.602888 120:0.179058 121:0.354153 122:0.149637 123:0.498941 124:0.888044 126:0.14897 128:0.44292 129:0.161591 154:0.422185 156:0.289576 157:0.348127 211:0.274202 214:0.49382 216:0.319149 218:0.672844 220:0.313507 221:0.338699 222:0.169032 223:0.32861 224:0.524965 226:0.459797 228:0.385105 229:0.453761 254:0.530629 256:0.667651 257:0.382257 311:0.141698 314:0.179234 316:0.297872 318:0.68968 320:0.22884 321:0.453316 322:0.275129 323:0.344758 324:0.703911 326:0.395223 328:0.147967 329:0.287916 354:0.537368 356:0.612161 357:0.426401 411:0.102254 414:0.21036 416:0.287522 418:0.801423 420:0.268935 421:0.54658 422:0.339562 423:0.395161 424:0.496928 426:0.342065 428:0.113065 429:0.154131 454:0.62104 456:0.239374 457:0.565642 511:0.105583 514:0.0922299 516:0.185121 518:0.562278 520:0.113636 521:0.528413 522:0.36018 523:0.248656 524:0.52162 526:0.209553 528:0.120874 529:0.11529 554:0.468318 556:0.163813 557:0.730922 611:0.375685 614:0.131345 616:0.216216 618:0.686163 620:0.278099 621:0.40147 622:0.212821 623:0.625837 624:0.592568 626:0.363985 628:0.128074 629:0.147962 654:0.495938 656:0.485334 657:0.625494 711:0.155531 714:0.570884 716:0.165409 718:0.53495 720:0.367816 721:0.423514 722:0.493195 723:0.329987 724:0.368945 726:0.354789 728:0.560202 729:0.364706 754:0.447604 756:0.75737 757:0.346322 811:0.0903614 814:0.181467 816:0.36561 818:0.435806 820:0.435798 821:0.325365 822:0.208333 823:0.703481 824:0.383543 826:0.17931 828:0.325441 829:0.484887 854:0.696094 856:0.471122 857:0.26657 911:0.131535 914:0.676546 916:0.338615 918:0.158466 920:0.343061 921:0.158035 922:0.114212 923:0.181882 924:0.155465 926:0.136759 928:0.360705 929:0.93073 954:0.155023 956:0.498639 957:0.164998 1900:0.428571 2000:1 
0.1 11:0.229686 14:0.28801 16:0.118367 18:0.177477 20:0.356258 21:0.138021 22:0.185806 23:0.18 24:0.15273 26:0.220986 28:0.173509 29:0.207582 54:0.188755 56:0.859036 57:0.553292 111:0.473229 114:0.273074 116:0.121824 118:0.164621 120:0.334572 121:0.176433 122:0.160185 123:0.160903 124:0.149965 126:0.332013 128:0.158746 129:0.196395 154:0.20447 156:0.85371 157:0.53474 211:0.171444 214:0.156984 216:0.224842 218:0.679259 220:0.478315 221:0.294913 222:0.235484 223:0.574899 224:0.516644 226:0.570648 228:0.151886 229:0.176326 254:0.60803 256:0.389906 257:0.563289 311:0.4543 314:0.299135 316:0.129385 318:0.338078 320:0.533542 321:0.133934 322:0.655928 323:0.190188 324:0.417598 326:0.171032 328:0.182754 329:0.196671 354:0.183591 356:0.72255 357:0.183725 411:0.102804 414:0.0568541 416:0.140886 418:0.234164 420:0.103979 421:0.179805 422:1 423:0.204301 424:0.139932 426:0.171803 428:0.0723618 429:0.094328 454:0.28554 456:0.206316 457:0.274141 511:0.0967385 514:0.262792 516:0.291811 518:0.646975 520:0.170455 521:0.316786 522:0.713273 523:0.575269 524:0.597117 526:0.193374 528:0.118334 529:0.167078 554:0.623883 556:0.307851 557:0.428933 611:0.126506 614:0.334391 616:0.376653 618:0.288873 620:0.118818 621:0.50501 622:0.182692 623:0.212851 624:0.18779 626:0.429119 628:0.171619 629:0.474608 654:0.454915 656:0.174176 657:0.746858 711:0.150055 714:0.185633 716:0.192687 718:0.291013 720:0.259898 721:0.227789 722:0.204148 723:0.565596 724:0.246184 726:0.214559 728:0.119899 729:0.181424 754:0.651503 756:0.75737 757:0.32083 811:0.0646221 814:0.0546976 816:0.221244 818:0.292439 820:0.075227 821:0.549137 822:0.219872 823:0.465863 824:0.23424 826:0.186207 828:0.0594458 829:0.0900504 854:0.945891 856:0.130632 857:0.332119 911:0.13814 914:0.315077 916:0.204225 918:0.586107 920:0.446174 921:0.227756 922:0.354315 923:0.518258 924:0.53632 926:0.336759 928:0.167758 929:0.435768 954:0.528731 956:0.685516 957:0.258806 1900:0.714286 2000:1 
0.1 11:0.473998 14:0.265142 16:0.11312 18:0.175339 20:0.334572 21:0.167318 22:0.180645 23:0.18 24:0.149965 26:0.348172 28:0.158358 29:0.208825 54:0.198394 56:0.856024 57:0.53474 111:0.171444 114:0.16168 116:0.225751 118:0.67509 120:0.478315 121:0.294913 122:0.216216 123:0.577982 124:0.518314 126:0.564184 128:0.151886 129:0.169671 154:0.60803 156:0.379093 157:0.568207 211:0.4543 214:0.299135 216:0.129385 218:0.337135 220:0.527261 221:0.133934 222:0.654194 223:0.190283 224:0.414702 226:0.167057 228:0.182754 229:0.196671 254:0.181705 256:0.72255 257:0.18608 311:0.117361 314:0.0772559 316:0.140886 318:0.234164 320:0.124765 321:0.177721 322:1 323:0.204301 324:0.143156 326:0.171803 328:0.0955414 329:0.094328 354:0.28554 356:0.206316 357:0.274141 411:0.101704 414:0.262792 416:0.293847 418:0.646975 420:0.173299 421:0.315961 422:0.713273 423:0.575269 424:0.587031 426:0.193374 428:0.117085 429:0.167078 454:0.623883 456:0.307851 457:0.428933 511:0.122167 514:0.332912 516:0.374856 518:0.282562 520:0.122475 521:0.49902 522:0.178479 523:0.209677 524:0.172272 526:0.42604 528:0.170137 529:0.483354 554:0.454915 556:0.1951 557:0.745027 611:0.150055 614:0.187183 616:0.200115 618:0.291013 620:0.25562 621:0.227789 622:0.201923 623:0.565596 624:0.246184 626:0.214559 628:0.125 629:0.166771 654:0.651503 656:0.751134 657:0.316338 711:0.0646221 714:0.0661157 716:0.218804 718:0.292439 720:0.0893997 721:0.546426 722:0.222294 723:0.465863 724:0.23424 726:0.186207 728:0.0594458 729:0.105263 754:0.945979 756:0.152417 757:0.332119 811:0.137459 814:0.315959 816:0.204225 818:0.577746 820:0.446174 821:0.227756 822:0.35 823:0.493976 824:0.546782 826:0.324138 828:0.167758 829:0.435768 854:0.522783 856:0.685516 857:0.254188 911:0.308751 914:0.404639 916:0.241784 918:0.368307 920:0.124514 921:0.843958 922:0.193381 923:0.273876 924:0.360489 926:0.483004 928:0.11335 929:0.161209 954:0.518396 956:0.190203 957:0.681869 1900:0.714286 2000:1 
0.1 11:0.171723 14:0.156984 16:0.218076 18:0.679259 20:0.478315 21:0.287109 22:0.235484 23:0.587586 24:0.518314 26:0.581081 28:0.151515 29:0.182101 54:0.58996 56:0.38012 57:0.568207 111:0.4543 114:0.308084 116:0.129908 118:0.32852 120:0.527261 121:0.133934 122:0.644034 123:0.175723 124:0.416724 126:0.154517 128:0.182754 129:0.19018 154:0.181705 156:0.717633 157:0.187705 211:0.117361 214:0.0772559 216:0.140886 218:0.233072 220:0.123296 221:0.177721 222:0.99871 223:0.204453 224:0.142164 226:0.167838 228:0.0955414 229:0.094328 254:0.285596 256:0.206316 257:0.276235 311:0.116279 314:0.278739 316:0.293847 318:0.646975 320:0.192476 321:0.312299 322:0.713273 323:0.575269 324:0.600559 326:0.193374 328:0.139147 329:0.167078 354:0.623883 356:0.307851 357:0.428933 411:0.126993 414:0.332912 416:0.376653 418:0.282562 420:0.124519 421:0.49772 422:0.178479 423:0.209677 424:0.164505 426:0.42604 428:0.168342 429:0.483354 454:0.454915 456:0.1951 457:0.745027 511:0.145937 514:0.186355 516:0.197809 518:0.284698 520:0.256944 521:0.227956 522:0.197809 523:0.563844 524:0.23267 526:0.210324 528:0.123921 529:0.180641 554:0.651503 556:0.758264 557:0.311392 611:0.0646221 614:0.0678934 616:0.225992 618:0.292439 620:0.0841362 621:0.546426 622:0.219872 623:0.465863 624:0.23424 626:0.186207 628:0.0635246 629:0.0896552 654:0.945979 656:0.130632 657:0.327469 711:0.137459 714:0.324221 716:0.201973 718:0.577746 720:0.454662 721:0.223113 722:0.353856 723:0.493976 724:0.546782 726:0.324138 728:0.167758 729:0.445201 754:0.523558 756:0.693396 757:0.254188 811:0.307229 814:0.405405 816:0.241784 818:0.363053 820:0.124514 821:0.843958 822:0.191026 823:0.261044 824:0.374917 826:0.4659 828:0.11335 829:0.161209 854:0.512612 856:0.190203 857:0.669701 911:0.103467 914:0.135309 916:0.434272 918:0.324168 920:0.190661 921:0.288845 922:0.219987 923:0.389045 924:0.244399 926:0.202372 928:0.10932 929:0.160579 954:0.885076 956:0.59994 957:0.281795 1900:0.571429 2000:1 
0.1 11:0.0942579 14:0.331891 16:0.0886297 18:0.261582 20:0.289963 21:0.14974 22:0.933548 23:0.195862 24:0.292329 26:0.163752 28:0.0967742 29:0.139217 54:0.273896 56:0.497892 57:0.304111 111:0.104922 114:0.326544 116:0.305427 118:0.54296 120:0.307311 121:0.273664 122:0.464074 123:0.618913 124:0.52868 126:0.445325 128:0.207251 129:0.370416 154:0.521937 156:0.4617 157:0.636595 211:0.0930233 214:0.224969 216:0.412881 218:0.245189 220:0.112144 221:0.56407 222:0.592903 223:0.3583 224:0.434119 226:0.354411 228:0.200882 229:0.1418 254:0.781457 256:0.403483 257:0.504147 311:0.277988 314:0.327565 316:0.39908 318:0.356584 320:0.287147 321:0.326465 322:0.345361 323:0.680108 324:0.457402 326:0.563174 328:0.348849 329:0.303946 354:0.370024 356:0.707202 357:0.422061 411:0.194612 414:0.263424 416:0.26912 418:0.388612 420:0.37484 421:0.291205 422:0.227448 423:0.393145 424:0.412287 426:0.617103 428:0.116583 429:0.359433 454:0.510154 456:0.791913 457:0.40651 511:0.290768 514:0.616551 516:0.28143 518:0.196441 520:0.301136 521:0.188112 522:0.215851 523:0.468414 524:0.216884 526:0.399846 528:0.344845 529:0.466091 554:0.318846 556:0.774498 557:0.471971 611:0.209748 614:0.429569 616:0.462335 618:0.508559 620:0.340398 621:0.392118 622:0.664744 623:0.364123 624:0.435965 626:0.357854 628:0.172643 629:0.382445 654:0.481316 656:0.670094 657:0.431957 711:0.202629 714:0.233948 716:0.30354 718:0.505706 720:0.358238 721:0.374749 722:0.481529 723:0.464525 724:0.430657 726:0.37318 728:0.172292 729:0.260062 754:0.714866 756:0.563974 757:0.478514 811:0.179628 814:0.28121 816:0.238263 818:0.231812 820:0.218547 821:0.40571 822:0.230769 823:0.240964 824:0.30856 826:0.248276 828:0.17733 829:0.233627 854:0.46786 856:0.545207 857:0.811362 911:0.202532 914:0.27384 916:0.34507 918:0.465991 920:0.402724 921:0.529216 922:0.397794 923:0.49368 924:0.357094 926:0.524111 928:0.241814 929:0.284005 954:0.488218 956:0.534624 957:0.743048 1900:0.857143 2000:1 
0.1 11:0.105092 14:0.317058 16:0.298542 18:0.548824 20:0.307311 21:0.265625 22:0.478065 23:0.627586 24:0.52868 26:0.461844 28:0.206745 29:0.382846 54:0.506426 56:0.462952 57:0.636595 111:0.0930233 114:0.2317 116:0.41455 118:0.235379 120:0.112144 121:0.56407 122:0.581411 123:0.351447 124:0.436075 126:0.344691 128:0.200882 129:0.134866 154:0.781457 156:0.392911 157:0.508549 211:0.277988 214:0.327565 216:0.39908 218:0.355666 220:0.283767 221:0.326465 222:0.343226 223:0.682186 224:0.45423 226:0.564403 228:0.348849 229:0.303946 254:0.371689 256:0.707202 257:0.423729 311:0.20768 314:0.279357 316:0.26912 318:0.388612 320:0.389342 321:0.28783 322:0.227448 323:0.393145 324:0.421788 326:0.617103 328:0.138658 329:0.359433 354:0.510154 356:0.791913 357:0.40651 411:0.294667 414:0.616551 416:0.283496 418:0.196441 420:0.306162 421:0.187622 422:0.215851 423:0.468414 424:0.208874 426:0.399846 428:0.341206 429:0.466091 454:0.318846 456:0.774498 457:0.471971 511:0.206191 514:0.427669 516:0.460784 518:0.501779 520:0.340278 521:0.388635 522:0.663015 523:0.361559 524:0.428964 526:0.354391 528:0.171153 529:0.392725 554:0.481316 556:0.679162 557:0.427848 611:0.202629 614:0.235406 616:0.309948 618:0.505706 620:0.354528 621:0.374749 622:0.476282 623:0.464525 624:0.430657 626:0.37318 628:0.178279 629:0.246395 654:0.714866 656:0.552767 657:0.471813 711:0.179628 714:0.289892 716:0.235636 718:0.231812 720:0.230524 721:0.402138 722:0.233312 723:0.240964 724:0.30856 726:0.248276 728:0.17733 729:0.24644 754:0.468725 756:0.556604 757:0.811362 811:0.201533 814:0.274775 816:0.34507 818:0.459344 820:0.402724 821:0.529216 822:0.392949 823:0.470549 824:0.371599 826:0.505747 828:0.241814 829:0.284005 854:0.482913 856:0.534624 857:0.729789 911:0.311502 914:0.266108 916:0.224765 918:0.3589 920:0.281453 921:0.356574 922:0.573005 923:0.338483 924:0.375424 926:0.358893 928:0.310327 929:0.268262 954:0.59322 956:0.614454 957:0.691138 1900:0.857143 2000:1 
0.1 11:0.0931744 14:0.224969 16:0.408746 18:0.245189 20:0.112144 21:0.559245 22:0.592903 23:0.366207 24:0.436075 26:0.36089 28:0.200391 29:0.147296 54:0.758233 56:0.393976 57:0.508549 111:0.277988 114:0.337365 116:0.400693 118:0.347292 120:0.283767 121:0.326465 122:0.326302 123:0.690191 124:0.456116 126:0.557845 128:0.348849 129:0.298322 154:0.371689 156:0.702013 157:0.427428 211:0.20768 214:0.279357 216:0.26912 218:0.387741 220:0.384758 221:0.28783 222:0.225161 223:0.394062 224:0.418863 226:0.619048 228:0.138658 229:0.359433 254:0.514487 256:0.791913 257:0.408222 311:0.306111 314:0.624845 316:0.283496 318:0.196441 320:0.322257 321:0.185448 322:0.215851 323:0.468414 324:0.213687 326:0.399846 328:0.357668 329:0.466091 354:0.318846 356:0.774498 357:0.471971 411:0.210555 414:0.427669 416:0.462335 418:0.501779 420:0.345956 421:0.387622 422:0.663015 423:0.361559 424:0.419795 426:0.354391 428:0.169347 429:0.392725 454:0.481316 456:0.679162 457:0.427848 511:0.199005 514:0.234365 516:0.307958 518:0.498932 520:0.354167 521:0.371653 522:0.473582 523:0.462366 524:0.423473 526:0.3698 528:0.176739 529:0.25894 554:0.714866 556:0.56464 557:0.467993 611:0.179628 614:0.291244 616:0.242668 618:0.231812 620:0.226076 621:0.402138 622:0.230769 623:0.240964 624:0.30856 626:0.248276 628:0.183402 629:0.232602 654:0.468725 656:0.545207 657:0.8 711:0.201533 714:0.283535 716:0.341265 718:0.459344 720:0.411877 721:0.526386 722:0.397278 723:0.470549 724:0.371599 726:0.505747 728:0.241814 729:0.295975 754:0.483753 756:0.546285 757:0.729789 811:0.309967 814:0.267053 816:0.224765 818:0.35378 820:0.281453 821:0.356574 822:0.566026 823:0.322624 824:0.389516 826:0.345594 828:0.310327 829:0.268262 854:0.586249 856:0.614454 857:0.678806 911:0.198679 914:0.208119 916:0.342723 918:0.413169 920:0.19585 921:0.503984 922:0.288125 923:0.348315 924:0.42702 926:0.290909 928:0.206045 929:0.246222 954:0.617197 956:0.383127 957:0.760845 1900:0.857143 2000:1 
0.1 11:0.27844 14:0.327565 16:0.394752 18:0.355666 20:0.283767 21:0.31901 22:0.343226 23:0.697241 24:0.456116 26:0.574722 28:0.347996 29:0.310752 54:0.360643 56:0.703916 57:0.427428 111:0.20768 114:0.287715 116:0.270208 118:0.379783 120:0.384758 121:0.28783 122:0.205669 123:0.38885 124:0.420871 126:0.613312 128:0.138658 129:0.354257 154:0.514487 156:0.788225 157:0.411786 211:0.306111 214:0.624845 216:0.283496 218:0.195296 220:0.318463 221:0.185448 222:0.213548 223:0.469636 224:0.212205 226:0.398907 228:0.357668 229:0.466091 254:0.319536 256:0.774498 257:0.473494 311:0.223364 314:0.440049 316:0.462335 318:0.501779 320:0.361129 321:0.383129 322:0.663015 323:0.361559 324:0.429469 326:0.354391 328:0.190103 329:0.392725 354:0.481316 356:0.679162 357:0.427848 411:0.203408 414:0.234365 416:0.309948 418:0.498932 420:0.360077 421:0.370684 422:0.473582 423:0.462366 424:0.414334 426:0.3698 428:0.174874 429:0.25894 454:0.714866 456:0.56464 457:0.467993 511:0.175788 514:0.289956 516:0.240484 518:0.225623 520:0.227904 521:0.398432 522:0.226804 523:0.237903 524:0.297186 526:0.244222 528:0.181818 529:0.245376 554:0.468725 556:0.557261 557:0.798553 611:0.201533 614:0.284898 616:0.347326 618:0.459344 620:0.408478 621:0.526386 622:0.392949 623:0.470549 624:0.371599 626:0.505747 628:0.248975 629:0.282759 654:0.483753 656:0.534624 657:0.719569 711:0.309967 714:0.275906 716:0.222287 718:0.35378 720:0.292465 721:0.352705 722:0.572262 723:0.322624 724:0.389516 726:0.345594 728:0.310327 729:0.280495 754:0.586921 756:0.624116 757:0.678806 811:0.1977 814:0.209138 816:0.342723 818:0.407275 820:0.19585 821:0.503984 822:0.284615 823:0.331995 824:0.439947 826:0.279693 828:0.206045 829:0.246222 854:0.609845 856:0.383127 857:0.747269 911:0.201981 914:0.155928 916:0.436033 918:0.500724 920:0.226329 921:0.47344 922:0.244646 923:0.627809 924:0.418194 926:0.316996 928:0.163224 929:0.201511 954:0.855312 956:0.315392 957:0.552836 1900:0.714286 2000:1 
0.1 11:0.208017 14:0.279357 16:0.262974 18:0.387741 20:0.384758 21:0.279948 22:0.225161 23:0.402759 24:0.420871 26:0.630366 28:0.138319 29:0.366687 54:0.499197 56:0.790361 57:0.411786 111:0.306111 114:0.643539 116:0.284642 118:0.184838 120:0.318463 121:0.185448 122:0.193804 123:0.46789 124:0.214927 126:0.389857 128:0.357668 129:0.461778 154:0.319536 156:0.770502 157:0.477628 211:0.223364 214:0.440049 216:0.462335 218:0.501069 220:0.356877 221:0.383129 222:0.66129 223:0.362348 224:0.426491 226:0.352849 228:0.190103 229:0.392725 254:0.485099 256:0.679162 257:0.429499 311:0.216333 314:0.250927 316:0.309948 318:0.498932 320:0.374922 321:0.366388 322:0.473582 323:0.462366 324:0.423883 326:0.3698 328:0.195492 329:0.25894 354:0.714866 356:0.56464 357:0.467993 411:0.180319 414:0.289956 416:0.242668 418:0.225623 420:0.231707 421:0.397394 422:0.226804 423:0.237903 424:0.288737 426:0.244222 428:0.179899 429:0.245376 454:0.468725 456:0.557261 457:0.798553 511:0.197899 514:0.283639 516:0.345444 518:0.452669 520:0.407197 521:0.519922 522:0.38982 523:0.468414 524:0.362388 526:0.503082 528:0.246826 529:0.294698 554:0.483753 556:0.54693 557:0.717541 611:0.309967 614:0.277284 616:0.229442 618:0.35378 620:0.288375 621:0.352705 622:0.566026 623:0.322624 624:0.389516 626:0.345594 628:0.318648 629:0.267085 654:0.586921 656:0.614454 657:0.6693 711:0.1977 714:0.21869 716:0.338944 718:0.407275 720:0.208174 721:0.501002 722:0.287751 723:0.331995 724:0.439947 726:0.279693 728:0.206045 729:0.258824 754:0.610479 756:0.398585 757:0.747269 811:0.200986 814:0.157014 816:0.436033 818:0.493581 820:0.226329 821:0.47344 822:0.241667 823:0.598394 824:0.431321 826:0.304981 828:0.163224 829:0.201511 854:0.844182 856:0.315392 857:0.542972 911:0.228949 914:0.164948 916:0.218897 918:0.437771 920:0.248379 921:0.554449 922:0.643738 923:0.397472 924:0.505092 926:0.64664 928:0.127456 929:0.282116 954:0.627119 956:0.394013 957:0.548387 1900:0.714286 2000:1 
0.1 11:0.306609 14:0.624845 16:0.277551 18:0.195296 20:0.318463 21:0.176432 22:0.213548 23:0.48 24:0.214927 26:0.4062 28:0.356794 29:0.474208 54:0.31004 56:0.77259 57:0.477628 111:0.223364 114:0.453215 116:0.464203 118:0.494585 120:0.356877 121:0.383129 122:0.651285 123:0.355681 124:0.428473 126:0.343106 128:0.190103 129:0.387819 154:0.485099 156:0.673476 157:0.433248 211:0.216333 214:0.250927 216:0.309948 218:0.498218 220:0.370508 221:0.366388 222:0.471613 223:0.463563 224:0.420943 226:0.368462 228:0.195492 229:0.25894 254:0.723096 256:0.56464 257:0.469528 311:0.193618 314:0.305315 316:0.242668 318:0.225623 320:0.24953 321:0.392788 322:0.226804 323:0.237903 324:0.295391 326:0.244222 328:0.200392 329:0.245376 354:0.468725 356:0.557261 357:0.798553 411:0.202309 414:0.283639 416:0.347326 418:0.452669 420:0.413992 421:0.518567 422:0.38982 423:0.468414 424:0.353584 426:0.503082 428:0.244221 429:0.294698 454:0.483753 456:0.54693 457:0.717541 511:0.307352 514:0.276058 516:0.22722 518:0.347331 520:0.289141 521:0.350098 522:0.563789 523:0.319892 524:0.38092 526:0.342065 528:0.315896 529:0.279285 554:0.586921 556:0.624852 557:0.666908 611:0.1977 614:0.220178 616:0.345026 618:0.407275 620:0.203597 621:0.501002 622:0.284615 623:0.331995 624:0.439947 626:0.279693 628:0.212602 629:0.245141 654:0.610479 656:0.383127 657:0.736804 711:0.200986 714:0.167196 716:0.431225 718:0.493581 720:0.238186 721:0.470274 722:0.244329 723:0.598394 724:0.431321 726:0.304981 728:0.163224 729:0.214861 754:0.844435 756:0.332547 757:0.542972 811:0.22782 814:0.166023 816:0.218897 818:0.431526 820:0.248379 821:0.554449 822:0.635897 823:0.378849 824:0.516257 826:0.624521 828:0.127456 829:0.282116 854:0.619609 856:0.394013 857:0.538602 911:0.239956 914:0.357603 916:0.0721831 918:0.275687 920:0.289235 921:0.103586 922:0.166775 923:0.162921 924:0.0936864 926:0.286166 928:0.103275 929:0.261965 954:0.129806 956:0.862413 957:0.480163 1900:0.714286 2000:1 
0.1 11:0.299025 14:0.355377 16:0.30379 18:0.238774 20:0.431227 21:0.119141 22:0.101935 23:0.318621 24:0.252246 26:0.486486 28:0.137341 29:0.155376 54:0.170281 56:0.696386 57:0.620953 111:0.249324 114:0.18205 116:0.287529 118:0.149458 120:0.380421 121:0.247263 122:0.831905 123:0.252646 124:0.1085 126:0.434231 128:0.0950514 129:0.100062 154:0.201987 156:0.541003 157:0.630775 211:0.301244 214:0.270705 216:0.281771 218:0.148967 220:0.640644 221:0.424984 222:0.130968 223:0.340756 224:0.128294 226:0.713505 228:0.366977 229:0.308261 254:0.183361 256:0.71281 257:0.413631 311:0.48675 314:0.307787 316:0.361127 318:0.168683 320:0.511599 321:0.171281 322:0.173325 323:0.161962 324:0.189246 326:0.227273 328:0.121019 329:0.127004 354:0.194963 356:0.347403 357:0.897288 411:0.15558 414:0.307644 416:0.332375 418:0.398577 420:0.385751 421:0.219544 422:0.148196 423:0.252016 424:0.273038 426:0.416025 428:0.1 429:0.250925 454:0.309911 456:0.775384 457:0.622785 511:0.696517 514:0.324068 516:0.468858 518:0.145907 520:0.535354 521:0.330503 522:0.113402 523:0.21707 524:0.38641 526:0.243451 528:0.120366 529:0.319975 554:0.331438 556:0.71222 557:0.493309 611:0.122673 614:0.793147 616:0.101208 618:0.199001 620:0.513166 621:0.0607882 622:0.074359 623:0.0829987 624:0.0942269 626:0.22682 628:0.310451 629:0.388088 654:0.0718928 656:0.752344 657:0.31526 711:0.358708 714:0.0756516 716:0.12072 718:0.46933 720:0.128991 721:0.269873 722:0.192482 723:0.200803 724:0.180491 726:0.314176 728:0.0745592 729:0.102167 754:0.432575 756:0.258255 757:0.919519 811:0.104053 814:0.41184 816:0.360329 818:0.645506 820:0.433852 821:0.40571 822:0.282692 823:0.583668 824:0.603185 826:0.229119 828:0.242821 829:0.284005 854:0.486574 856:0.599335 857:0.501457 911:0.0820033 914:0.204253 916:0.545188 918:0.638205 920:0.220493 921:0.462151 922:0.150552 923:0.458567 924:0.342838 926:0.116206 928:0.0987406 929:0.232997 954:0.305085 956:0.223465 957:0.768632 1900:0.285714 2000:1 
0.02219930610299304 11:0.249729 14:0.176761 16:0.280466 18:0.160371 20:0.380421 21:0.238932 22:0.838065 23:0.269655 24:0.1085 26:0.450715 28:0.0948192 29:0.112492 54:0.195984 56:0.54247 57:0.630775 111:0.301244 114:0.278803 116:0.28291 118:0.137906 120:0.640644 121:0.424984 122:0.109426 123:0.333098 124:0.131306 126:0.709192 128:0.366977 129:0.302672 154:0.183361 156:0.70772 157:0.417243 211:0.48675 214:0.307787 216:0.361127 218:0.167498 220:0.505576 221:0.171281 222:0.170968 223:0.161943 224:0.187933 226:0.224044 228:0.121019 229:0.127004 254:0.193295 256:0.347403 257:0.897584 311:0.169281 314:0.322621 316:0.332375 318:0.398577 320:0.4 321:0.216999 322:0.148196 323:0.252016 324:0.27933 326:0.416025 328:0.122489 329:0.250925 354:0.309911 356:0.775384 357:0.622785 411:0.698186 414:0.324068 416:0.470385 418:0.145907 420:0.544288 421:0.329642 422:0.113402 423:0.21707 424:0.377474 426:0.243451 428:0.119095 429:0.319975 454:0.331438 456:0.71222 457:0.493309 511:0.118297 514:0.78964 516:0.0986159 518:0.192883 520:0.510101 521:0.0646636 522:0.0695876 523:0.0793011 524:0.0754976 526:0.22265 528:0.30777 529:0.398274 554:0.0718928 556:0.759445 557:0.310307 611:0.358708 614:0.0774112 616:0.12881 618:0.46933 620:0.123956 621:0.269873 622:0.190385 623:0.200803 624:0.180491 626:0.314176 628:0.0788934 629:0.0865204 654:0.432575 656:0.23919 657:0.906643 711:0.104053 714:0.418945 716:0.356355 718:0.645506 720:0.442529 721:0.402138 722:0.285807 723:0.583668 724:0.603185 726:0.229119 728:0.242821 729:0.295975 754:0.487409 756:0.609375 757:0.501457 811:0.0815991 814:0.205277 816:0.545188 818:0.629101 820:0.220493 821:0.462151 822:0.148718 823:0.437082 824:0.357664 826:0.110345 828:0.0987406 829:0.232997 854:0.302685 856:0.223465 857:0.754916 911:0.529994 914:0.530284 916:0.812207 918:0.289436 920:0.124514 921:0.64741 922:0.116807 923:0.275281 924:0.434487 926:0.233202 928:0.153652 929:0.585013 954:0.396858 956:0.418809 957:0.437152 1900:0.428571 2000:1 
0.1 11:0.243229 14:0.487021 16:0.239067 18:0.396294 20:0.287485 21:0.56901 22:0.276774 23:0.305517 24:0.280581 26:0.799682 28:0.224829 29:0.276569 54:0.46988 56:0.47741 57:0.58785 111:0.258518 114:0.245067 116:0.229792 118:0.296029 120:0.284387 121:0.495171 122:0.455504 123:0.283698 124:0.26745 126:0.83439 128:0.206761 129:0.224984 154:0.38245 156:0.522679 157:0.600218 211:0.267712 214:0.224969 216:0.20414 218:0.46258 220:0.292441 221:0.244688 222:0.274194 223:0.458165 224:0.266297 226:0.289617 228:0.179814 229:0.217016 254:0.332781 256:0.598288 257:0.699964 311:0.223364 314:0.270087 316:0.174238 318:0.596441 320:0.344201 321:0.221507 322:0.544459 323:0.27957 324:0.282821 326:0.309707 328:0.169525 329:0.224414 354:0.41511 356:0.821133 357:0.307776 411:0.271578 414:0.196462 416:0.20069 418:0.287544 420:0.257381 421:0.252769 422:0.29317 423:0.270833 424:0.225939 426:0.4453 428:0.161307 429:0.210234 454:0.324533 456:0.491736 457:0.768897 511:0.125484 514:0.126342 516:0.317762 518:0.325979 520:0.145202 521:0.898106 522:0.227448 523:0.327957 524:0.289636 526:0.279661 528:0.0934485 529:0.17016 554:0.676686 556:0.205431 557:0.40868 611:0.145674 614:0.127538 616:0.233468 618:0.268188 620:0.12781 621:0.703407 622:0.213462 623:0.246988 624:0.226941 626:0.211494 628:0.151127 629:0.122884 654:0.395613 656:0.160871 657:0.736445 711:0.176889 714:0.151303 716:0.278003 718:0.665478 720:0.237548 721:0.532398 722:0.278678 723:0.713521 724:0.529529 726:0.442912 728:0.155668 729:0.213622 754:0.453696 756:0.353479 757:0.590313 811:0.144578 814:0.123552 816:0.231221 818:0.300285 820:0.146563 821:0.543161 822:0.257051 823:0.30589 824:0.246184 826:0.491188 828:0.093199 829:0.137909 854:0.805533 856:0.358936 857:0.454115 911:0.252064 914:0.190722 916:0.203638 918:0.306078 920:0.253567 921:0.27158 922:0.530175 923:0.476826 924:0.241005 926:0.479051 928:0.15869 929:0.194584 954:0.341877 956:0.527971 957:0.781609 1900:0.571429 2000:1 
0.1 11:0.258938 14:0.237948 16:0.222157 18:0.305061 20:0.284387 21:0.489583 22:0.469677 23:0.3 24:0.26745 26:0.852146 28:0.206256 29:0.237415 54:0.371084 56:0.524096 57:0.600218 111:0.267712 114:0.2317 116:0.204965 118:0.455596 120:0.292441 121:0.244688 122:0.255768 123:0.455893 124:0.268832 126:0.278922 128:0.179814 129:0.21069 154:0.332781 156:0.591169 157:0.706075 211:0.223364 214:0.270087 216:0.174238 218:0.595866 220:0.340149 221:0.221507 222:0.542581 223:0.280027 224:0.28086 226:0.307572 228:0.169525 229:0.224414 254:0.417632 256:0.821133 257:0.309773 311:0.283396 314:0.213844 316:0.20069 318:0.287544 320:0.274608 321:0.249839 322:0.29317 323:0.270833 324:0.231145 326:0.4453 328:0.182264 329:0.210234 354:0.324533 356:0.491736 357:0.768897 411:0.130291 414:0.126342 416:0.319724 418:0.325979 420:0.147625 421:0.895765 422:0.227448 423:0.327957 424:0.281229 426:0.279661 428:0.0924623 429:0.17016 454:0.676686 456:0.205431 457:0.40868 511:0.141515 514:0.126974 516:0.231257 518:0.261922 520:0.131313 521:0.693011 522:0.209407 523:0.243952 524:0.212766 526:0.207242 528:0.149822 529:0.137485 554:0.395613 556:0.182113 557:0.734539 611:0.176889 614:0.152919 616:0.284646 618:0.665478 620:0.233141 621:0.532398 622:0.275641 623:0.713521 624:0.529529 626:0.442912 628:0.161373 629:0.199373 654:0.453696 656:0.336861 657:0.582047 711:0.144578 714:0.134139 716:0.228671 718:0.300285 720:0.159642 721:0.540414 722:0.259883 723:0.30589 724:0.246184 726:0.491188 728:0.093199 729:0.152322 754:0.805849 756:0.375 757:0.454115 811:0.250821 814:0.191763 816:0.203638 818:0.301712 820:0.253567 821:0.27158 822:0.523718 823:0.454485 824:0.258129 826:0.462069 828:0.15869 829:0.194584 854:0.338893 856:0.527971 857:0.767662 911:0.225647 914:0.282216 916:0.137911 918:0.193198 920:0.343709 921:0.458831 922:0.190785 923:0.1875 924:0.154107 926:0.403953 928:0.149118 929:0.214736 954:0.231087 956:0.875113 957:0.427883 1900:0.714286 2000:1 
0.1 11:0.268147 14:0.224969 16:0.197085 18:0.46258 20:0.292441 21:0.236328 22:0.274194 23:0.468276 24:0.268832 26:0.294913 28:0.179374 29:0.22312 54:0.322892 56:0.592771 57:0.706075 111:0.223364 114:0.278167 116:0.174942 118:0.590614 120:0.340149 121:0.221507 122:0.529993 123:0.269584 124:0.283345 126:0.297147 128:0.169525 129:0.218148 154:0.417632 156:0.817963 157:0.312477 211:0.283396 214:0.213844 216:0.20069 218:0.286529 220:0.271375 221:0.249839 222:0.290968 223:0.271255 224:0.229542 226:0.444965 228:0.182264 229:0.210234 254:0.325331 256:0.491736 257:0.769564 311:0.144402 314:0.145241 316:0.319724 318:0.325979 320:0.167398 321:0.885383 322:0.227448 323:0.327957 324:0.287709 326:0.279661 328:0.11514 329:0.17016 354:0.676686 356:0.205431 357:0.40868 411:0.146234 414:0.126974 416:0.233468 418:0.261922 420:0.133504 421:0.691205 422:0.209407 423:0.243952 424:0.204778 426:0.207242 428:0.148241 429:0.137485 454:0.395613 456:0.182113 457:0.734539 511:0.173024 514:0.152243 516:0.282584 518:0.658363 520:0.234848 521:0.5258 522:0.271907 523:0.712366 524:0.525738 526:0.439908 528:0.15998 529:0.2127 554:0.453696 556:0.353896 557:0.579024 611:0.144578 614:0.135787 616:0.235768 618:0.300285 620:0.154785 621:0.540414 622:0.257051 623:0.30589 624:0.246184 626:0.491188 628:0.0978484 629:0.137304 654:0.805849 656:0.358936 657:0.447756 711:0.250821 714:0.201526 716:0.201393 718:0.301712 720:0.265006 721:0.267201 722:0.529488 723:0.454485 724:0.258129 726:0.462069 728:0.15869 729:0.20805 754:0.339968 756:0.5398 757:0.767662 811:0.224535 814:0.28314 816:0.137911 818:0.190442 820:0.343709 821:0.458831 822:0.188462 823:0.178715 824:0.173192 826:0.389272 828:0.149118 829:0.214736 854:0.229862 856:0.875113 857:0.420248 911:0.237204 914:0.201031 916:0.194836 918:0.47178 920:0.268482 921:0.339973 922:0.275795 923:0.305478 924:0.270876 926:0.8917 928:0.160202 929:0.20529 954:0.378255 956:0.589356 957:0.504635 1900:0.714286 2000:1 
0.1 11:0.223727 14:0.270087 16:0.166764 18:0.595866 20:0.340149 21:0.212891 22:0.542581 23:0.286207 24:0.283345 26:0.313196 28:0.16911 29:0.230578 54:0.405221 56:0.820181 57:0.312477 111:0.283396 114:0.220242 116:0.201501 118:0.277256 120:0.271375 121:0.249839 122:0.272907 123:0.260409 124:0.232205 126:0.436609 128:0.182264 129:0.203853 154:0.325331 156:0.482728 157:0.776282 211:0.144402 214:0.145241 216:0.319724 218:0.325018 220:0.165428 221:0.885383 222:0.225161 223:0.32861 224:0.285714 226:0.277127 228:0.11514 229:0.17016 254:0.684189 256:0.205431 257:0.410386 311:0.160087 314:0.145859 316:0.233468 318:0.261922 320:0.153605 321:0.683194 322:0.209407 323:0.243952 324:0.209497 326:0.207242 328:0.169525 329:0.137485 354:0.395613 356:0.182113 357:0.734539 411:0.17757 414:0.152243 416:0.284646 418:0.658363 420:0.238768 421:0.52443 422:0.271907 423:0.712366 424:0.516041 426:0.439908 428:0.158291 429:0.2127 454:0.453696 456:0.353896 457:0.579024 511:0.140409 514:0.135186 516:0.233564 518:0.29395 520:0.157828 521:0.533638 522:0.253222 523:0.303091 524:0.23267 526:0.488444 528:0.0970036 529:0.151665 554:0.805849 556:0.375443 557:0.443761 611:0.250821 614:0.203046 616:0.208741 618:0.301712 620:0.260758 621:0.267201 622:0.523718 623:0.454485 624:0.258129 626:0.462069 628:0.164447 629:0.19373 654:0.339968 656:0.527971 657:0.756912 711:0.224535 714:0.291799 716:0.13639 718:0.190442 720:0.353768 721:0.455578 722:0.190538 723:0.178715 724:0.173192 726:0.389272 728:0.149118 729:0.227864 754:0.231113 756:0.878243 757:0.420248 811:0.236035 814:0.202059 816:0.194836 818:0.46505 820:0.268482 821:0.339973 822:0.272436 823:0.291165 824:0.287326 826:0.862069 828:0.160202 829:0.20529 854:0.374695 856:0.589356 857:0.49563 911:0.18437 914:0.658505 916:0.323357 918:0.203329 920:0.295071 921:0.200531 922:0.171317 923:0.216292 924:0.190088 926:0.2 928:0.349118 929:0.823678 954:0.212898 956:0.606894 957:0.483871 1900:0.857143 2000:1 
0.1 11:0.283857 14:0.213844 16:0.193586 18:0.286529 20:0.271375 21:0.241536 22:0.290968 23:0.277241 24:0.232205 26:0.4531 28:0.181818 29:0.216283 54:0.315663 56:0.484036 57:0.776282 111:0.144402 114:0.149586 116:0.321016 118:0.316245 120:0.165428 121:0.885383 122:0.205669 123:0.320395 124:0.288182 126:0.266244 128:0.11514 129:0.163456 154:0.684189 156:0.191349 157:0.413969 211:0.160087 214:0.145859 216:0.233468 218:0.26087 220:0.151797 221:0.683194 222:0.207097 223:0.244265 224:0.208044 226:0.203747 228:0.169525 229:0.137485 254:0.397765 256:0.182113 257:0.735305 311:0.190914 314:0.170581 316:0.284646 318:0.658363 320:0.256426 321:0.518352 322:0.271907 323:0.712366 324:0.527933 326:0.439908 328:0.179324 329:0.2127 354:0.453696 356:0.353896 357:0.579024 411:0.145135 414:0.135186 416:0.235768 418:0.29395 420:0.160462 421:0.532248 422:0.253222 423:0.303091 424:0.224573 426:0.488444 428:0.0959799 429:0.151665 454:0.805849 456:0.375443 457:0.443761 511:0.247651 514:0.202148 516:0.206459 518:0.295374 520:0.261995 521:0.266492 522:0.521263 523:0.452285 524:0.245024 526:0.459168 528:0.163027 529:0.207152 554:0.339968 556:0.540437 557:0.755154 611:0.224535 614:0.293147 616:0.144336 618:0.190442 620:0.350032 621:0.455578 622:0.188462 623:0.178715 624:0.173192 626:0.389272 628:0.154713 629:0.213793 654:0.231113 656:0.875113 657:0.414363 711:0.236035 714:0.211697 716:0.192687 718:0.46505 720:0.279693 721:0.336005 722:0.275437 723:0.291165 724:0.287326 726:0.862069 728:0.160202 729:0.218576 754:0.375711 756:0.599646 757:0.49563 811:0.183461 814:0.658945 816:0.323357 818:0.200428 820:0.295071 821:0.200531 822:0.169231 823:0.206158 824:0.208361 826:0.191571 828:0.349118 829:0.823678 854:0.211961 856:0.606894 857:0.475237 911:0.239406 914:0.18299 916:0.200704 918:0.327062 920:0.250973 921:0.353918 922:0.281635 923:0.308287 924:0.449423 926:0.947826 928:0.16272 929:0.202771 954:0.358413 956:0.452979 957:0.474601 1900:0.714286 2000:1 
0.1 11:0.23402 14:0.230532 16:0.259475 18:0.582324 20:0.298017 21:0.347005 22:0.299355 23:0.415862 24:0.364893 26:0.713831 28:0.197458 29:0.247359 54:0.629317 56:0.543072 57:0.463805 111:0.178475 114:0.16359 116:0.181871 118:0.27148 120:0.211896 121:0.223439 122:0.955834 123:0.240649 124:0.19765 126:0.229794 128:0.140617 129:0.154133 154:0.339818 156:0.444878 157:0.36195 211:0.142239 214:0.351669 216:0.333525 218:0.361368 220:0.213135 221:0.341919 222:0.256774 223:0.408232 224:0.295423 226:0.224824 228:0.291524 229:0.676942 254:0.839818 256:0.297816 257:0.532276 311:0.14278 314:0.196539 316:0.303048 318:0.575801 320:0.287774 321:0.334192 322:0.26482 323:0.706989 324:0.65014 326:0.241911 328:0.195492 329:0.221948 354:0.670593 356:0.418536 357:0.359855 411:0.128642 414:0.185092 416:0.277171 418:0.587189 420:0.251605 421:0.525733 422:0.217784 423:0.37836 424:0.840273 426:0.22265 428:0.158794 429:0.209618 454:0.37896 456:0.411747 457:0.477034 511:0.229961 514:0.34681 516:0.248558 518:0.239858 520:0.299874 521:0.218811 522:0.23518 523:0.235887 524:0.210021 526:0.457627 528:0.257491 529:0.669544 554:0.266044 556:0.634888 557:0.618807 611:0.186747 614:0.196701 616:0.178263 618:0.268188 620:0.204881 621:0.281229 622:0.215385 623:0.233601 624:0.469144 626:0.423755 628:0.598361 629:0.198119 654:0.280666 656:0.474751 657:0.786355 711:0.166484 714:0.838525 716:0.213001 718:0.167618 720:0.292465 721:0.172345 722:0.61698 723:0.155288 724:0.162575 726:0.187739 728:0.291184 729:0.580805 754:0.201462 756:0.626769 757:0.327021 811:0.108434 814:0.147362 816:0.250587 818:0.564194 820:0.199741 821:0.540505 822:0.246795 823:0.378179 824:0.31785 826:0.219923 828:0.119395 829:0.156171 854:0.910903 856:0.398851 857:0.339403 911:0.533847 914:0.164304 916:0.203638 918:0.752533 920:0.223735 921:0.320053 922:0.520441 923:0.337781 924:0.489477 926:0.227668 928:0.126448 929:0.161839 954:0.615544 956:0.555488 957:0.452354 1900:0.857143 2000:1 
0.1 11:0.22156 14:0.588999 16:0.340525 18:0.205987 20:0.366791 21:0.186198 22:0.174839 23:0.224138 24:0.208017 26:0.222576 28:0.380743 29:0.825979 54:0.215261 56:0.751205 57:0.256821 111:0.276906 114:0.314449 116:0.159353 118:0.225271 120:0.374226 121:0.244688 122:0.216875 123:0.215243 124:0.205252 126:0.638669 128:0.190593 129:0.249223 154:0.275662 156:0.827876 157:0.382685 211:0.270416 214:0.33869 216:0.128235 218:0.184604 220:0.403346 221:0.16291 222:0.199355 223:0.178812 224:0.158114 226:0.297424 228:0.188633 229:0.259556 254:0.210679 256:0.916175 257:0.283808 311:0.235803 314:0.28492 316:0.296147 318:0.353737 320:0.610031 321:0.521571 322:0.331186 323:0.361559 324:0.312151 326:0.301233 328:0.243018 329:0.258323 354:0.78879 356:0.451299 357:0.461483 411:0.284222 414:0.277953 416:0.277171 418:0.35516 420:0.302953 421:0.391531 422:0.35116 423:0.344758 424:0.31058 426:0.624037 428:0.238693 429:0.281751 454:0.603981 456:0.559032 457:0.697649 511:0.225539 514:0.247631 516:0.313725 518:0.362278 520:0.241793 521:0.717178 522:0.321521 523:0.359543 524:0.326699 526:0.305855 528:0.238192 529:0.257707 554:0.572299 556:0.375148 557:0.711031 611:0.249179 614:0.188452 616:0.251869 618:0.331669 620:0.217084 621:0.521042 622:0.300641 623:0.313922 624:0.285335 626:0.363218 628:0.173668 629:0.196865 654:0.406986 656:0.325068 657:0.96553 711:0.251917 714:0.277177 716:0.295995 718:0.359486 720:0.292465 721:0.689379 722:0.65068 723:0.345382 724:0.329794 726:0.339464 728:0.226196 729:0.273684 754:0.575548 756:0.580483 757:0.603787 811:0.267251 814:0.28314 816:0.339202 818:0.398003 820:0.272374 821:0.737716 822:0.371154 823:0.386881 824:0.371599 826:0.368582 828:0.257431 829:0.289043 854:0.680635 856:0.432416 857:0.618354 911:0.19978 914:0.204897 916:0.30223 918:0.438495 920:0.229572 921:0.573041 922:0.607398 923:0.511236 924:0.649695 926:0.3083 928:0.209068 929:0.233627 954:0.584539 956:0.335652 957:0.669633 1900:0.857143 2000:1 
0.1 11:0.277356 14:0.305315 16:0.15102 18:0.23521 20:0.374226 21:0.236328 22:0.236129 23:0.233103 24:0.205252 26:0.655803 28:0.190127 29:0.261653 54:0.26747 56:0.83012 57:0.382685 111:0.270416 114:0.348822 116:0.128753 118:0.174007 120:0.403346 121:0.16291 122:0.179301 123:0.163726 124:0.161023 126:0.286846 128:0.188633 129:0.253574 154:0.210679 156:0.914689 157:0.286286 211:0.235803 214:0.28492 216:0.296147 218:0.352815 220:0.60285 221:0.521571 222:0.329032 223:0.362348 224:0.309986 226:0.298985 228:0.243018 229:0.258323 254:0.798427 256:0.451299 257:0.463036 311:0.295836 314:0.293572 316:0.277171 318:0.35516 320:0.319122 321:0.386993 322:0.35116 323:0.344758 324:0.317737 326:0.624037 328:0.257717 329:0.281751 354:0.603981 356:0.559032 357:0.697649 411:0.229797 414:0.247631 416:0.315699 418:0.362278 420:0.245828 421:0.715309 422:0.321521 423:0.359543 424:0.318089 426:0.305855 428:0.235678 429:0.257707 454:0.572299 456:0.375148 457:0.711031 511:0.245992 514:0.187618 516:0.249712 518:0.325267 520:0.219066 521:0.514696 522:0.297036 523:0.311156 524:0.273164 526:0.359784 528:0.172169 529:0.210234 554:0.406986 556:0.342385 557:0.96528 611:0.251917 614:0.278553 616:0.302473 618:0.359486 620:0.288375 621:0.689379 622:0.64359 623:0.345382 624:0.329794 626:0.339464 628:0.233094 629:0.260188 654:0.575548 656:0.569701 657:0.595332 711:0.267251 714:0.291799 716:0.335461 718:0.398003 720:0.283525 721:0.736139 722:0.375243 723:0.386881 724:0.371599 726:0.368582 728:0.257431 729:0.300929 754:0.681154 756:0.446639 757:0.618354 811:0.198795 814:0.20592 816:0.30223 818:0.43224 820:0.229572 821:0.573041 822:0.6 823:0.487282 824:0.657598 826:0.296552 828:0.209068 829:0.233627 854:0.577705 856:0.335652 857:0.657684 911:0.225096 914:0.708763 916:0.180164 918:0.181621 920:0.428664 921:0.152058 922:0.171317 923:0.194522 924:0.18873 926:0.222134 928:0.277582 929:0.382872 954:0.184374 956:0.745086 957:0.233222 1900:0.857143 2000:1 
0.1 11:0.270856 14:0.33869 16:0.120117 18:0.184604 20:0.403346 21:0.153646 22:0.199355 23:0.182759 24:0.161023 26:0.302862 28:0.188172 29:0.266004 54:0.204418 56:0.917169 57:0.286286 111:0.235803 114:0.293444 116:0.297344 118:0.344404 120:0.60285 121:0.521571 122:0.3118 123:0.355681 124:0.31237 126:0.288431 128:0.243018 129:0.252331 154:0.798427 156:0.441574 157:0.467079 211:0.295836 214:0.293572 216:0.277171 218:0.354241 220:0.315366 221:0.386993 222:0.349032 223:0.345479 224:0.315534 226:0.626073 228:0.257717 229:0.281751 254:0.610099 256:0.559032 257:0.698521 311:0.242293 314:0.263906 316:0.315699 318:0.362278 320:0.263323 321:0.707019 322:0.321521 323:0.359543 324:0.325419 326:0.305855 328:0.254777 329:0.257707 354:0.572299 356:0.375148 357:0.711031 411:0.250137 414:0.187618 416:0.251869 418:0.325267 420:0.222721 421:0.513355 422:0.297036 423:0.311156 424:0.264846 426:0.359784 428:0.170352 429:0.210234 454:0.406986 456:0.342385 457:0.96528 511:0.248756 514:0.277322 516:0.300461 518:0.353025 520:0.289141 521:0.679295 522:0.641753 523:0.342742 524:0.319149 526:0.335901 528:0.231082 529:0.272503 554:0.575548 556:0.581169 557:0.592405 611:0.267251 614:0.293147 616:0.341576 618:0.398003 620:0.279383 621:0.736139 622:0.371154 623:0.386881 624:0.371599 626:0.368582 628:0.264857 629:0.287774 654:0.681154 656:0.432416 657:0.609695 711:0.198795 714:0.215512 716:0.298897 718:0.43224 720:0.241379 721:0.570474 722:0.60661 723:0.487282 724:0.657598 726:0.296552 728:0.209068 729:0.24644 754:0.578392 756:0.3523 757:0.657684 811:0.223987 814:0.709138 816:0.180164 818:0.17903 820:0.428664 821:0.152058 822:0.169231 823:0.185408 824:0.207034 826:0.213027 828:0.277582 829:0.382872 854:0.183889 856:0.745086 857:0.22906 911:0.231701 914:0.321521 916:0.268192 918:0.515919 920:0.324254 921:0.306773 922:0.259572 923:0.59691 924:0.312288 926:0.337549 928:0.235264 929:0.551637 954:0.375362 956:0.736317 957:0.536893 1900:0.857143 2000:1 
0.1 11:0.236186 14:0.28492 16:0.290379 18:0.352815 20:0.60285 21:0.516276 22:0.329032 23:0.370345 24:0.31237 26:0.304452 28:0.242424 29:0.264761 54:0.774699 56:0.442771 57:0.467079 111:0.295836 114:0.302355 116:0.278291 118:0.345848 120:0.315366 121:0.386993 122:0.332235 123:0.338038 124:0.317899 126:0.620444 128:0.257717 129:0.275948 154:0.610099 156:0.551217 157:0.70462 211:0.242293 214:0.263906 216:0.315699 218:0.361368 220:0.260223 221:0.707019 222:0.319355 223:0.360324 224:0.323162 226:0.303669 228:0.254777 229:0.257707 254:0.577815 256:0.375148 257:0.711864 311:0.262304 314:0.205192 316:0.251869 318:0.325267 320:0.240752 321:0.507405 322:0.297036 323:0.311156 324:0.27095 326:0.359784 328:0.191083 329:0.210234 354:0.406986 356:0.342385 357:0.96528 411:0.252886 414:0.277322 416:0.302473 418:0.353025 420:0.293967 421:0.677524 422:0.641753 423:0.342742 424:0.31058 426:0.335901 428:0.228643 429:0.272503 454:0.575548 456:0.581169 457:0.592405 511:0.264234 514:0.291851 516:0.339677 518:0.391459 520:0.280303 521:0.725016 522:0.367912 523:0.384409 524:0.362388 526:0.365177 528:0.26257 529:0.29963 554:0.681154 556:0.447166 557:0.606872 611:0.198795 614:0.217005 616:0.305348 618:0.43224 620:0.236994 621:0.570474 622:0.6 623:0.487282 624:0.657598 626:0.296552 628:0.215676 629:0.232602 654:0.578392 656:0.335652 657:0.648474 711:0.223987 714:0.712651 716:0.178178 718:0.17903 720:0.43742 721:0.146961 722:0.171095 723:0.185408 724:0.207034 726:0.213027 728:0.277582 729:0.393189 754:0.185215 756:0.751474 757:0.22906 811:0.230559 814:0.322394 816:0.268192 818:0.508559 820:0.324254 821:0.306773 822:0.25641 823:0.568942 824:0.327804 826:0.324904 828:0.235264 829:0.551637 854:0.371847 856:0.736317 857:0.527312 911:0.236654 914:0.782861 916:0.198944 918:0.201158 920:0.335927 921:0.189243 922:0.203764 923:0.195927 924:0.177868 926:0.274308 928:0.285139 929:0.427582 954:0.2253 956:0.722105 957:0.435298 1900:0.857143 2000:1 
0.1 11:0.296316 14:0.293572 16:0.271137 18:0.354241 20:0.315366 21:0.380208 22:0.349032 23:0.353103 24:0.317899 26:0.63752 28:0.257087 29:0.288378 54:0.591968 56:0.552711 57:0.70462 111:0.242293 114:0.271801 116:0.316975 118:0.353069 120:0.260223 121:0.707019 122:0.301912 123:0.353564 124:0.325501 126:0.293185 128:0.254777 129:0.251709 154:0.577815 156:0.364073 157:0.718079 211:0.262304 214:0.205192 216:0.251869 218:0.324305 220:0.237918 221:0.507405 222:0.294839 223:0.311741 224:0.269071 226:0.358314 228:0.191083 229:0.210234 254:0.409354 256:0.342385 257:0.96538 311:0.265008 314:0.292954 316:0.302473 318:0.353025 320:0.310345 321:0.669672 322:0.641753 323:0.342742 324:0.317737 326:0.335901 328:0.247918 329:0.272503 354:0.575548 356:0.581169 357:0.592405 411:0.268279 414:0.291851 416:0.341576 418:0.391459 420:0.284981 421:0.723127 422:0.367912 423:0.384409 424:0.353584 426:0.365177 428:0.259799 429:0.29963 454:0.681154 456:0.447166 457:0.606872 511:0.195135 514:0.216045 516:0.303345 518:0.425623 520:0.238636 521:0.563031 522:0.597938 523:0.485215 524:0.658202 526:0.292758 528:0.213814 529:0.245376 554:0.578392 556:0.352715 557:0.645931 611:0.223987 614:0.713198 616:0.185739 618:0.17903 620:0.434168 621:0.146961 622:0.169231 623:0.185408 624:0.207034 626:0.213027 628:0.285348 629:0.381191 654:0.185215 656:0.745086 657:0.225853 711:0.230559 714:0.330579 716:0.265235 718:0.508559 720:0.33461 721:0.302605 722:0.259235 723:0.568942 724:0.327804 726:0.324904 728:0.235264 729:0.559133 754:0.372868 756:0.742925 757:0.527312 811:0.235487 814:0.78314 816:0.198944 818:0.198288 820:0.335927 821:0.189243 822:0.201282 823:0.186747 824:0.196417 826:0.263602 828:0.285139 829:0.427582 854:0.224166 856:0.722105 857:0.427531 911:0.264722 914:0.192655 916:0.235329 918:0.534009 920:0.25227 921:0.36587 922:0.319922 923:0.352528 924:0.317719 926:0.745455 928:0.1733 929:0.219144 954:0.40678 956:0.410946 957:0.779385 1900:0.714286 2000:1 
0.1 11:0.242687 14:0.263906 16:0.310204 18:0.361368 20:0.260223 21:0.703776 22:0.319355 23:0.368276 24:0.325501 26:0.309221 28:0.254154 29:0.264139 54:0.560643 56:0.36506 57:0.718079 111:0.262304 114:0.21133 116:0.252887 118:0.315523 120:0.237918 121:0.507405 122:0.276862 123:0.302752 124:0.271596 126:0.348653 128:0.191083 129:0.203853 154:0.409354 156:0.33073 157:0.973809 211:0.265008 214:0.292954 216:0.302473 218:0.352103 220:0.306691 221:0.669672 222:0.64 223:0.343455 224:0.315534 226:0.334114 228:0.247918 229:0.272503 254:0.581126 256:0.581169 257:0.593581 311:0.280151 314:0.307169 316:0.341576 318:0.391459 320:0.301567 321:0.714746 322:0.367912 323:0.384409 324:0.361732 326:0.365177 328:0.278295 329:0.29963 354:0.681154 356:0.447166 357:0.606872 411:0.19956 414:0.216045 416:0.305348 418:0.425623 420:0.242619 421:0.561564 422:0.597938 423:0.485215 424:0.647782 426:0.292758 428:0.211558 429:0.245376 454:0.578392 456:0.352715 457:0.645931 511:0.220564 514:0.710044 516:0.183391 518:0.172954 520:0.432449 521:0.148922 522:0.164948 523:0.182124 524:0.192176 526:0.208783 528:0.282885 529:0.391492 554:0.185215 556:0.752361 557:0.220253 611:0.230559 614:0.331853 616:0.271995 618:0.508559 620:0.330764 621:0.302605 622:0.25641 623:0.568942 624:0.327804 626:0.324904 628:0.242316 629:0.549216 654:0.372868 656:0.736317 657:0.519928 711:0.235487 714:0.78576 716:0.19675 718:0.198288 720:0.346105 721:0.184369 722:0.2035 723:0.186747 724:0.196417 726:0.263602 728:0.285139 729:0.437152 754:0.225426 756:0.729068 757:0.427531 811:0.263417 814:0.193694 816:0.235329 818:0.526391 820:0.25227 821:0.36587 822:0.316026 823:0.336011 824:0.333112 826:0.720307 828:0.1733 829:0.219144 854:0.402766 856:0.410946 857:0.765477 911:0.263071 914:0.311211 916:0.127347 918:0.204052 920:0.386511 921:0.172643 922:0.213498 923:0.206461 924:0.176511 926:0.32253 928:0.171285 929:0.252519 954:0.217032 956:0.905352 957:0.315536 1900:0.857143 2000:1 
0.02409248257764138 11:0.143012 14:0.124227 16:0.200583 18:0.232359 20:0.130112 21:0.66862 22:0.183871 23:0.22 24:0.181064 26:0.176471 28:0.155425 29:0.119329 54:0.310843 56:0.134337 57:0.734813 111:0.235262 114:0.292807 116:0.0866051 118:0.126354 120:0.35316 121:0.119124 122:0.135135 123:0.119266 124:0.116102 126:0.240095 128:0.149437 129:0.209447 154:0.154387 156:0.90778 157:0.222626 211:0.146025 214:0.875773 216:0.298447 218:0.163934 220:0.276332 221:0.16291 222:0.109032 223:0.463563 224:0.166436 226:0.116315 228:0.365997 229:0.794698 254:0.190397 256:0.414109 257:0.172016 311:0.257977 314:0.321384 316:0.277171 318:0.353025 320:0.339812 321:0.455892 322:0.313789 323:0.416667 324:0.507682 326:0.337442 328:0.534542 329:0.294698 354:0.59342 356:0.733471 357:0.475949 411:0.579989 414:0.311434 416:0.246694 418:0.325267 420:0.517972 421:0.291205 422:0.299613 423:0.301075 424:0.550853 426:0.293529 428:0.244724 429:0.2836 454:0.359464 456:0.778335 457:0.457143 511:0.401327 514:0.263424 516:0.21684 518:0.35516 520:0.448232 521:0.303723 522:0.258376 523:0.287634 524:0.479753 526:0.381356 528:0.189944 529:0.231196 554:0.636881 556:0.701594 557:0.505967 611:0.48138 614:0.711929 616:0.255894 618:0.49572 620:0.277457 621:0.476954 622:0.267308 623:0.293173 624:0.535501 626:0.258238 628:0.26332 629:0.398746 654:0.447604 656:0.485637 657:0.582765 711:0.163746 714:0.186268 716:0.40917 718:0.599857 720:0.201788 721:0.522378 722:0.274789 723:0.354752 724:0.68215 726:0.234483 728:0.182368 729:0.219814 754:0.677092 756:0.301297 757:0.605972 811:0.187295 814:0.436293 816:0.234742 818:0.39729 820:0.182879 821:0.381806 822:0.28141 823:0.291165 824:0.269409 826:0.240613 828:0.198489 829:0.220403 854:0.700976 856:0.306622 857:0.735251 911:0.186021 914:0.186211 916:0.262324 918:0.734443 920:0.203632 921:0.550465 922:0.29721 923:0.456461 924:0.431093 926:0.267194 928:0.194458 929:0.207809 954:0.620918 956:0.307529 957:0.6967 1900:0.428571 2000:1 
0.1 11:0.146262 14:0.875773 16:0.292711 18:0.163934 20:0.276332 21:0.153646 22:0.109032 23:0.473793 24:0.169316 26:0.118442 28:0.365103 29:0.805469 54:0.184739 56:0.404819 57:0.173518 111:0.257977 114:0.330999 116:0.278291 118:0.343682 120:0.335812 121:0.455892 122:0.294001 123:0.41355 124:0.505874 126:0.325674 128:0.534542 129:0.288999 154:0.599338 156:0.728747 157:0.48163 211:0.586804 214:0.326329 216:0.246694 218:0.324305 220:0.522924 221:0.28783 222:0.297419 223:0.301619 224:0.559639 226:0.291179 228:0.263596 229:0.2836 254:0.360927 256:0.778335 257:0.458709 311:0.414278 314:0.279357 316:0.219091 318:0.35516 320:0.468339 321:0.29942 322:0.258376 323:0.287634 324:0.481145 326:0.381356 328:0.208231 329:0.231196 354:0.636881 356:0.701594 357:0.505967 411:0.483233 414:0.708781 416:0.255894 418:0.488968 420:0.283055 421:0.470358 422:0.263531 423:0.290323 424:0.522184 426:0.254237 428:0.258291 429:0.408755 454:0.447604 456:0.499115 457:0.579747 511:0.159757 514:0.186987 516:0.412918 518:0.592883 520:0.199495 521:0.516003 522:0.268041 523:0.352151 524:0.683596 526:0.230354 528:0.186897 529:0.218866 554:0.677092 556:0.301653 557:0.594575 611:0.187295 614:0.444162 616:0.239218 618:0.39729 620:0.190751 621:0.37809 622:0.28141 623:0.291165 624:0.269409 626:0.240613 628:0.204918 629:0.219436 654:0.701462 656:0.306622 657:0.724955 711:0.185104 714:0.197076 716:0.259431 718:0.723966 720:0.215837 721:0.547762 722:0.296824 723:0.435074 724:0.443928 726:0.256705 728:0.194458 729:0.221053 754:0.614135 756:0.324882 757:0.684268 811:0.189485 814:0.194981 816:0.263498 818:0.528531 820:0.229572 821:0.515936 822:0.285897 823:0.497992 824:0.461181 826:0.426054 828:0.181864 829:0.208438 854:0.744101 856:0.467796 857:0.620175 911:0.10732 914:0.302835 916:0.215376 918:0.706946 920:0.301556 921:0.468127 922:0.232966 923:0.341292 924:0.369993 926:0.294862 928:0.10932 929:0.153652 954:0.809839 956:0.425159 957:0.463107 1900:0.714286 2000:1 
0.1 11:0.258397 14:0.321384 16:0.271137 18:0.352103 20:0.335812 21:0.44987 22:0.311613 23:0.426897 24:0.505874 26:0.341812 28:0.533236 29:0.301429 54:0.581526 56:0.730723 57:0.48163 111:0.586804 114:0.336092 116:0.247691 118:0.315523 120:0.522924 121:0.28783 122:0.279499 123:0.292167 124:0.561161 126:0.280507 128:0.263596 129:0.277812 154:0.360927 156:0.774407 157:0.462714 211:0.414278 214:0.279357 216:0.219091 218:0.354241 220:0.462825 221:0.29942 222:0.256129 223:0.288124 224:0.477809 226:0.380172 228:0.208231 229:0.231196 254:0.643626 256:0.701594 257:0.507393 311:0.491617 314:0.71508 316:0.255894 318:0.488968 320:0.299687 321:0.464907 322:0.263531 323:0.290323 324:0.534218 326:0.254237 328:0.276825 329:0.408755 354:0.447604 356:0.499115 357:0.579747 411:0.164376 414:0.186987 416:0.414606 418:0.592883 420:0.202824 421:0.514658 422:0.268041 423:0.352151 424:0.673038 426:0.230354 428:0.184925 429:0.218866 454:0.677092 456:0.301653 457:0.594575 511:0.183527 514:0.442198 516:0.237024 518:0.390747 520:0.193182 521:0.374918 522:0.277706 523:0.288306 524:0.256692 526:0.236518 528:0.203149 529:0.232429 554:0.701462 556:0.32438 557:0.722966 611:0.185104 614:0.198604 616:0.266245 618:0.723966 620:0.211304 621:0.547762 622:0.29359 623:0.435074 624:0.443928 626:0.256705 628:0.20082 629:0.206897 654:0.614135 656:0.307529 657:0.674686 711:0.189485 714:0.204704 716:0.260592 718:0.528531 720:0.241379 721:0.513026 722:0.289047 723:0.497992 724:0.461181 726:0.426054 728:0.181864 729:0.221672 754:0.744517 756:0.481132 757:0.620175 811:0.106791 814:0.303732 816:0.215376 818:0.696862 820:0.301556 821:0.468127 822:0.230128 823:0.325301 824:0.384207 826:0.283525 828:0.10932 829:0.153652 854:0.79943 856:0.425159 857:0.454843 911:0.204733 914:0.322165 916:0.226526 918:0.573082 920:0.262646 921:0.302125 922:0.256327 923:0.573034 924:0.5852 926:0.46166 928:0.161713 929:0.211587 954:0.362133 956:0.583006 957:0.716722 1900:0.714286 2000:1 
0.1 11:0.587757 14:0.326329 16:0.240233 18:0.324305 20:0.522924 21:0.279948 22:0.297419 23:0.308276 24:0.561161 26:0.296502 28:0.262952 29:0.290242 54:0.350201 56:0.776506 57:0.462714 111:0.414278 114:0.287715 116:0.219977 118:0.345848 120:0.462825 121:0.29942 122:0.23731 123:0.278052 124:0.479613 126:0.37084 128:0.208231 129:0.224984 154:0.643626 156:0.696305 157:0.511822 211:0.491617 214:0.71508 216:0.255894 218:0.488239 220:0.296159 221:0.464907 222:0.26129 223:0.290823 224:0.530513 226:0.251366 228:0.276825 229:0.408755 254:0.450745 256:0.499115 257:0.580959 311:0.177934 314:0.204574 316:0.414606 318:0.592883 320:0.221317 321:0.508693 322:0.268041 323:0.352151 324:0.688547 326:0.230354 328:0.205292 329:0.218866 354:0.677092 356:0.301653 357:0.594575 411:0.188015 414:0.442198 416:0.239218 418:0.390747 420:0.196406 421:0.373941 422:0.277706 423:0.288306 424:0.248464 426:0.236518 428:0.201005 429:0.232429 454:0.701462 456:0.32438 457:0.722966 511:0.181316 514:0.197726 516:0.264129 518:0.716726 520:0.213384 521:0.540823 522:0.289948 523:0.432796 524:0.4372 526:0.252696 528:0.199086 529:0.220099 554:0.614135 556:0.325266 557:0.672333 611:0.189485 614:0.206218 616:0.267395 618:0.528531 620:0.236994 621:0.513026 622:0.285897 623:0.497992 624:0.461181 626:0.426054 628:0.188012 629:0.207524 654:0.744517 656:0.467796 657:0.61149 711:0.106791 714:0.312142 716:0.213001 718:0.696862 720:0.312261 721:0.46493 722:0.232664 723:0.325301 724:0.384207 726:0.283525 728:0.10932 729:0.167802 754:0.799756 756:0.439564 757:0.454843 811:0.203724 814:0.323037 816:0.226526 818:0.564907 820:0.262646 821:0.302125 822:0.253205 823:0.546185 824:0.594559 826:0.445211 828:0.161713 829:0.211587 854:0.358828 856:0.583006 857:0.703933 911:0.211337 914:0.434923 916:0.120305 918:0.162808 920:0.410506 921:0.12085 922:0.441921 923:0.175562 924:0.158859 926:0.211858 928:0.196474 929:0.243073 954:0.160397 956:0.84941 957:0.192065 1900:0.571429 2000:1 
0.1 11:0.414951 14:0.279357 16:0.212245 18:0.354241 20:0.462825 21:0.291667 22:0.256129 23:0.294483 24:0.479613 26:0.387122 28:0.207722 29:0.237415 54:0.624498 56:0.698193 57:0.511822 111:0.491617 114:0.736474 116:0.256928 118:0.481588 120:0.296159 121:0.464907 122:0.242584 123:0.280875 124:0.532135 126:0.240095 128:0.276825 129:0.403978 154:0.450745 156:0.490237 157:0.586031 211:0.177934 214:0.204574 216:0.414606 218:0.592302 220:0.218711 221:0.508693 222:0.265806 223:0.352901 224:0.683773 226:0.227166 228:0.205292 229:0.218866 254:0.684603 256:0.301653 257:0.595745 311:0.20119 314:0.454265 316:0.239218 318:0.390747 320:0.215047 321:0.369607 322:0.277706 323:0.288306 324:0.25419 326:0.236518 328:0.22097 329:0.232429 354:0.701462 356:0.32438 357:0.722966 411:0.185816 414:0.197726 416:0.266245 418:0.716726 420:0.216945 421:0.539414 422:0.289948 423:0.432796 424:0.427986 426:0.252696 428:0.196985 429:0.220099 454:0.614135 456:0.325266 457:0.672333 511:0.185738 514:0.205306 516:0.265283 518:0.521708 520:0.238636 521:0.506858 522:0.282216 523:0.495968 524:0.455045 526:0.422958 528:0.186389 529:0.220715 554:0.744517 556:0.4817 557:0.60868 611:0.106791 614:0.313452 616:0.220242 618:0.696862 620:0.308285 621:0.46493 622:0.230128 623:0.325301 624:0.384207 626:0.283525 628:0.114242 629:0.152978 654:0.799756 656:0.425159 657:0.448474 711:0.203724 714:0.331214 716:0.224028 718:0.564907 720:0.273946 721:0.297929 722:0.255995 723:0.546185 724:0.594559 726:0.445211 728:0.161713 729:0.224768 754:0.35987 756:0.593455 757:0.703933 811:0.210296 814:0.43565 816:0.120305 818:0.160485 820:0.410506 821:0.12085 822:0.436538 823:0.167336 824:0.177837 826:0.203065 828:0.196474 829:0.243073 854:0.160293 856:0.84941 857:0.188638 911:0.581728 914:0.287371 916:0.194836 918:0.22576 920:0.292477 921:0.207835 922:0.227125 923:0.226124 924:0.181263 926:0.281423 928:0.205542 929:0.537154 954:0.244316 956:0.717266 957:0.686689 1900:0.571429 2000:1 
0.1 11:0.108342 14:0.120519 16:0.230321 18:0.295082 20:0.118959 21:0.434245 22:0.250968 23:0.318621 24:0.220456 26:0.216216 28:0.0933529 29:0.125544 54:0.855422 56:0.181325 57:0.355038 111:0.179016 114:0.155952 116:0.183025 118:0.227437 120:0.157993 121:0.31745 122:0.195122 123:0.198306 124:0.175536 126:0.169572 128:0.184713 129:0.123679 154:0.298013 156:0.191349 157:0.841761 211:0.187669 214:0.182324 216:0.265095 218:0.699216 220:0.24969 221:0.622666 222:0.261935 223:0.488529 224:0.371012 226:0.604215 228:0.162665 229:0.204069 254:0.633692 256:0.460744 257:0.442842 311:0.24013 314:0.2911 316:0.184014 318:0.376512 320:0.362382 321:0.500322 322:0.216495 323:0.247312 324:0.226257 326:0.547766 328:0.181284 329:0.229963 354:0.379773 356:0.848583 357:0.397107 411:0.0929082 414:0.102969 416:0.243818 418:0.309609 420:0.107189 421:0.437785 422:0.255799 423:0.331989 424:0.227304 426:0.217257 428:0.079397 429:0.12762 454:0.924452 456:0.199823 457:0.351537 511:0.178552 514:0.147821 516:0.238754 518:0.425623 520:0.188763 521:0.361202 522:0.272552 523:0.350806 524:0.278655 526:0.553929 528:0.14322 529:0.179408 554:0.811129 556:0.310803 557:0.744304 611:0.563527 614:0.267766 616:0.152961 618:0.223252 620:0.328195 621:0.195057 622:0.232692 623:0.211513 624:0.19708 626:0.386207 628:0.166496 629:0.211285 654:0.244517 656:0.815543 657:0.560503 711:0.161555 714:0.40178 716:0.153221 718:0.129101 720:0.211367 721:0.0941884 722:0.108231 723:0.196118 724:0.15992 726:0.105747 728:0.980353 729:0.468731 754:0.134444 756:0.284788 757:0.185361 811:0.187842 814:0.136422 816:0.271127 818:0.557775 820:0.170558 821:0.743028 822:0.26859 823:0.333333 824:0.32714 826:0.322605 828:0.125945 829:0.173174 854:0.590724 856:0.250378 857:0.790969 911:0.176114 914:0.133376 916:0.27054 918:0.674385 920:0.180285 921:0.727092 922:0.274497 923:0.36868 924:0.346911 926:0.531225 928:0.122922 929:0.176322 954:0.637453 956:0.269126 957:0.619948 1900:0.571429 2000:1 
0.1 11:0.179307 14:0.151422 16:0.174927 18:0.237349 20:0.157993 21:0.309896 22:0.214839 23:0.216552 24:0.175536 26:0.185215 28:0.184262 29:0.136109 54:0.289157 56:0.191867 57:0.841761 111:0.187669 114:0.187778 116:0.266166 118:0.695307 120:0.24969 121:0.622666 122:0.243243 123:0.48765 124:0.373186 126:0.598257 128:0.162665 129:0.197638 154:0.633692 156:0.451187 157:0.446708 211:0.24013 214:0.2911 216:0.184014 218:0.375624 220:0.358116 221:0.500322 222:0.214194 223:0.247638 224:0.224688 226:0.54879 228:0.181284 229:0.229963 254:0.381623 256:0.848583 257:0.398846 311:0.107626 314:0.122373 316:0.243818 318:0.309609 320:0.1279 321:0.432711 322:0.255799 323:0.331989 324:0.232542 326:0.217257 328:0.102401 329:0.12762 354:0.924452 356:0.199823 357:0.351537 411:0.183068 414:0.147821 416:0.240943 418:0.425623 420:0.191913 421:0.360261 422:0.272552 423:0.350806 424:0.270307 426:0.553929 428:0.141709 429:0.179408 454:0.811129 456:0.310803 457:0.744304 511:0.563295 514:0.266582 516:0.150519 518:0.217082 520:0.328283 521:0.19595 522:0.228737 523:0.208333 524:0.181881 526:0.382897 528:0.165058 529:0.224414 554:0.244517 556:0.821133 557:0.557324 611:0.161555 614:0.402919 616:0.161012 618:0.129101 620:0.206808 621:0.0941884 622:0.107051 623:0.196118 624:0.15992 626:0.105747 628:1 629:0.45768 654:0.134444 656:0.266405 657:0.182765 711:0.187842 714:0.146853 716:0.268137 718:0.557775 720:0.183269 721:0.741483 722:0.271549 723:0.333333 724:0.32714 726:0.322605 728:0.125945 729:0.186997 754:0.591389 756:0.269163 757:0.790969 811:0.175246 814:0.134492 816:0.27054 818:0.664765 820:0.180285 821:0.727092 822:0.271154 823:0.351406 824:0.361646 826:0.512644 828:0.122922 829:0.176322 854:0.62978 856:0.269126 857:0.608886 911:0.26197 914:0.415593 916:0.215962 918:0.289436 920:0.249027 921:0.260956 922:0.287476 923:0.280899 924:0.226748 926:0.447431 928:0.198489 929:0.438287 954:0.319967 956:0.498942 957:0.794587 1900:0.571429 2000:1 
0.1 11:0.187974 14:0.182324 16:0.258892 18:0.699216 20:0.24969 21:0.61849 22:0.261935 23:0.49931 24:0.373186 26:0.615262 28:0.162268 29:0.210068 54:0.614859 56:0.45241 57:0.446708 111:0.24013 114:0.299809 116:0.184758 118:0.367509 120:0.358116 121:0.500322 122:0.194463 123:0.235709 124:0.227367 126:0.541997 128:0.181284 129:0.223741 154:0.381623 156:0.8459 157:0.402328 211:0.107626 214:0.122373 216:0.243818 218:0.308624 220:0.126394 221:0.432711 222:0.253548 223:0.332659 224:0.230929 226:0.213895 228:0.102401 229:0.12762 254:0.936672 256:0.199823 257:0.353408 311:0.196322 314:0.166255 316:0.240943 318:0.425623 320:0.210658 321:0.356085 322:0.272552 323:0.350806 324:0.276536 326:0.553929 328:0.163155 329:0.179408 354:0.811129 356:0.310803 357:0.744304 411:0.565695 414:0.266582 416:0.152961 418:0.217082 420:0.333761 421:0.19544 422:0.228737 423:0.208333 424:0.174061 426:0.382897 428:0.163317 429:0.224414 454:0.244517 456:0.821133 457:0.557324 511:0.157546 514:0.401137 516:0.158593 518:0.123132 520:0.208965 521:0.097322 522:0.102448 523:0.192876 524:0.143445 526:0.100924 528:0.991366 529:0.466708 554:0.134444 556:0.285124 557:0.176854 611:0.187842 614:0.148477 616:0.274871 618:0.557775 620:0.178548 621:0.741483 622:0.26859 623:0.333333 624:0.32714 626:0.322605 628:0.131148 629:0.172414 654:0.591389 656:0.250378 657:0.779892 711:0.175246 714:0.144946 716:0.267557 718:0.664765 720:0.192848 721:0.725451 722:0.274141 723:0.351406 724:0.361646 726:0.512644 728:0.122922 729:0.190093 754:0.630382 756:0.287441 757:0.608886 811:0.260679 814:0.416345 816:0.215962 818:0.285307 820:0.249027 821:0.260956 822:0.283974 823:0.267738 824:0.244194 826:0.431418 828:0.198489 829:0.438287 854:0.317331 856:0.498942 857:0.780408 911:0.173363 914:0.139175 916:0.421948 918:0.358177 920:0.201686 921:0.584993 922:0.69111 923:0.608146 924:0.289885 926:0.552569 928:0.141562 929:0.193325 954:0.656883 956:0.364076 957:0.548016 1900:0.428571 2000:1 
0.1 11:0.24052 14:0.2911 16:0.176676 18:0.375624 20:0.358116 21:0.494792 22:0.214194 23:0.253103 24:0.227367 26:0.558824 28:0.180841 29:0.236172 54:0.370281 56:0.848193 57:0.402328 111:0.107626 114:0.126034 116:0.244804 118:0.299639 120:0.126394 121:0.432711 122:0.234674 123:0.324629 124:0.233587 126:0.20206 128:0.102401 129:0.120572 154:0.936672 156:0.185641 157:0.356493 211:0.196322 214:0.166255 216:0.240943 218:0.424804 220:0.208178 221:0.356085 222:0.270323 223:0.351552 224:0.274619 226:0.555035 228:0.163155 229:0.179408 254:0.821192 256:0.310803 257:0.745041 311:0.572742 314:0.282447 316:0.152961 318:0.217082 320:0.349216 321:0.193175 322:0.228737 323:0.208333 324:0.178073 326:0.382897 328:0.184223 329:0.224414 354:0.244517 356:0.821133 357:0.557324 411:0.162177 414:0.401137 416:0.161012 418:0.123132 420:0.212452 421:0.0970684 422:0.102448 423:0.192876 424:0.135836 426:0.100924 428:0.980905 429:0.466708 454:0.134444 456:0.285124 457:0.176854 511:0.18408 514:0.147821 516:0.27278 518:0.55089 520:0.181187 521:0.730242 522:0.26482 523:0.330645 524:0.316404 526:0.318952 528:0.130015 529:0.18619 554:0.591389 556:0.269481 557:0.7783 611:0.175246 614:0.146574 616:0.274296 618:0.664765 620:0.188182 621:0.725451 622:0.271154 623:0.351406 624:0.361646 626:0.512644 628:0.128074 629:0.175549 654:0.630382 656:0.269126 657:0.600359 711:0.260679 714:0.423395 716:0.213581 718:0.285307 720:0.260536 721:0.256513 722:0.287103 723:0.267738 724:0.244194 726:0.431418 728:0.198489 729:0.447678 754:0.31844 756:0.511498 757:0.780408 811:0.172508 814:0.140283 816:0.421948 818:0.353067 820:0.201686 821:0.584993 822:0.682692 823:0.579652 824:0.305906 826:0.533333 828:0.141562 829:0.193325 854:0.648902 856:0.364076 857:0.538237 911:0.222895 914:0.212629 916:0.218897 918:0.318379 920:0.238003 921:0.309429 922:0.401687 923:0.344803 924:0.251188 926:0.543874 928:0.603526 929:0.241184 954:0.577511 956:0.530692 957:0.700408 1900:0.428571 2000:1 
0.1 11:0.396533 14:0.133498 16:0.237901 18:0.344262 20:0.169145 21:0.533854 22:0.490968 23:0.402069 24:0.612301 26:0.313196 28:0.138319 29:0.159105 54:0.870683 56:0.294277 57:0.307385 111:0.468361 114:0.396563 116:0.189376 118:0.237545 120:0.387237 121:0.206697 122:0.348055 123:0.223006 124:0.497581 126:0.198098 128:0.235669 129:0.245494 154:0.299255 156:0.76149 157:0.279374 211:0.377501 214:0.677998 216:0.225992 218:0.235923 220:0.550186 221:0.322601 222:0.24 223:0.234818 224:0.287795 226:0.30523 228:0.277315 229:0.48767 254:0.371689 256:0.818477 257:0.321673 311:0.252569 314:0.283066 316:0.183439 318:0.318861 320:0.333542 321:0.336768 322:0.321521 323:0.231183 324:0.217877 326:0.348228 328:0.207251 329:0.238594 354:0.290414 356:0.83294 357:0.518626 411:0.206157 414:0.25458 416:0.26452 418:0.466904 420:0.2362 421:0.348534 422:0.663015 423:0.37164 424:0.634812 426:0.392142 428:0.222613 429:0.505549 454:0.530057 456:0.427096 457:0.620615 511:0.172471 514:0.193304 516:0.444637 518:0.414235 520:0.196338 521:0.366427 522:0.282861 523:0.400538 524:0.284832 526:0.392912 528:0.182326 529:0.217633 554:0.893176 556:0.371311 557:0.566727 611:0.217415 614:0.402919 616:0.243818 618:0.32311 620:0.224791 621:0.484302 622:0.695513 623:0.307229 624:0.457863 626:0.301149 628:0.206967 629:0.227586 654:0.594639 656:0.384336 657:0.715978 711:0.151698 714:0.171647 716:0.240279 718:0.477889 720:0.192848 721:0.552438 722:0.600778 723:0.369478 724:0.516257 726:0.234483 728:0.15466 729:0.303406 754:0.759545 756:0.384139 757:0.598689 811:0.3023 814:0.185328 816:0.237089 818:0.57204 820:0.236057 821:0.418991 822:0.241667 823:0.524096 824:0.716656 826:0.406897 828:0.163728 829:0.190176 854:0.625305 856:0.534624 857:0.447196 911:0.1541 914:0.200387 916:0.666667 918:0.560058 920:0.306744 921:0.452191 922:0.376379 923:0.47823 924:0.684318 926:0.318577 928:0.16927 929:0.400504 954:0.552294 956:0.488358 957:0.465703 1900:0.714286 2000:1 
0.1 11:0.469122 14:0.385043 16:0.181341 18:0.247327 20:0.387237 21:0.197917 22:0.364516 23:0.24069 24:0.497581 26:0.213831 28:0.235093 29:0.257924 54:0.290361 56:0.763554 57:0.279374 111:0.377501 114:0.698281 116:0.226905 118:0.225993 120:0.550186 121:0.322601 122:0.220831 123:0.222301 124:0.290256 126:0.29477 128:0.277315 129:0.48353 154:0.371689 156:0.81526 157:0.324482 211:0.252569 214:0.283066 216:0.183439 218:0.31789 220:0.329616 221:0.336768 222:0.319355 223:0.231444 224:0.216366 226:0.346604 228:0.207251 229:0.238594 254:0.290563 256:0.83294 257:0.520014 311:0.219037 314:0.270705 316:0.26452 318:0.466904 320:0.253918 321:0.344495 322:0.663015 323:0.37164 324:0.649441 326:0.392142 328:0.242038 329:0.505549 354:0.530057 356:0.427096 357:0.620615 411:0.17702 414:0.193304 416:0.446233 418:0.414235 420:0.199615 421:0.365472 422:0.282861 423:0.400538 424:0.276451 426:0.392912 428:0.180402 429:0.217633 454:0.893176 456:0.371311 457:0.566727 511:0.21393 514:0.401137 516:0.241638 518:0.316726 520:0.226641 521:0.478772 522:0.693943 523:0.304435 524:0.451613 526:0.297381 528:0.20518 529:0.240444 554:0.594639 556:0.400236 557:0.713924 611:0.151698 614:0.173223 616:0.247269 618:0.477889 620:0.188182 621:0.552438 622:0.594231 623:0.369478 624:0.516257 626:0.234483 628:0.160348 629:0.290282 654:0.759545 656:0.36831 657:0.590305 711:0.3023 714:0.195168 716:0.234475 718:0.57204 720:0.247765 721:0.415498 722:0.244329 723:0.524096 724:0.716656 726:0.406897 728:0.163728 729:0.203715 754:0.625914 756:0.546285 757:0.447196 811:0.153341 814:0.201416 816:0.666667 818:0.552068 820:0.306744 821:0.452191 822:0.371795 823:0.455823 824:0.69144 826:0.306513 828:0.16927 829:0.400504 854:0.545972 856:0.488358 857:0.457393 911:0.173363 914:0.179124 916:0.575117 918:0.317656 920:0.211414 921:0.374502 922:0.257625 923:0.536517 924:0.336728 926:0.305138 928:0.157179 929:0.210957 954:0.8148 956:0.51769 957:0.601038 1900:0.714286 2000:1 
0.1 11:0.378115 14:0.677998 16:0.219242 18:0.235923 20:0.550186 21:0.315104 22:0.24 23:0.24 24:0.290256 26:0.310811 28:0.276637 29:0.49596 54:0.360643 56:0.81747 57:0.324482 111:0.252569 114:0.291534 116:0.18418 118:0.309025 120:0.329616 121:0.336768 122:0.301912 123:0.218772 124:0.219074 126:0.336767 128:0.207251 129:0.232443 154:0.290563 156:0.829979 157:0.524554 211:0.219037 214:0.270705 216:0.26452 218:0.466144 220:0.250929 221:0.344495 222:0.66129 223:0.37247 224:0.644938 226:0.391101 228:0.242038 229:0.505549 254:0.534768 256:0.427096 257:0.621709 311:0.190373 314:0.210754 316:0.446233 318:0.414235 320:0.218182 321:0.361236 322:0.282861 323:0.400538 324:0.282821 326:0.392912 328:0.200882 329:0.217633 354:0.893176 356:0.371311 357:0.566727 411:0.218252 414:0.401137 416:0.243818 418:0.316726 420:0.230424 421:0.477524 422:0.693943 423:0.304435 424:0.442321 426:0.297381 428:0.203015 429:0.240444 454:0.594639 456:0.400236 457:0.713924 511:0.147595 514:0.172457 516:0.245098 518:0.471174 520:0.190657 521:0.545395 522:0.592139 523:0.366935 524:0.512011 526:0.230354 528:0.158964 529:0.302096 554:0.759545 556:0.384593 557:0.587342 611:0.3023 614:0.196701 616:0.241518 618:0.57204 620:0.243417 621:0.415498 622:0.241667 623:0.524096 624:0.716656 626:0.406897 628:0.16957 629:0.189342 654:0.625914 656:0.534624 657:0.440934 711:0.153341 714:0.211062 716:0.659315 718:0.552068 720:0.317369 721:0.448898 722:0.375891 723:0.455823 724:0.69144 726:0.306513 728:0.16927 729:0.410526 754:0.54671 756:0.501179 757:0.457393 811:0.172508 814:0.18018 816:0.575117 818:0.313124 820:0.211414 821:0.374502 822:0.254487 823:0.511379 824:0.351692 826:0.293487 828:0.157179 829:0.210957 854:0.804312 856:0.51769 857:0.590313 911:0.363236 914:0.189433 916:0.252347 918:0.700434 920:0.225681 921:0.321381 922:0.288774 923:0.570927 924:0.496945 926:0.297233 928:0.186398 929:0.208438 954:0.660604 956:0.463562 957:0.622914 1900:0.714286 2000:1 
0.1 11:0.252979 14:0.283066 16:0.176093 18:0.31789 20:0.329616 21:0.329427 22:0.319355 23:0.236552 24:0.219074 26:0.352941 28:0.206745 29:0.244873 54:0.281928 56:0.832229 57:0.524554 111:0.219037 114:0.278803 116:0.265589 118:0.459206 120:0.250929 121:0.344495 122:0.651285 123:0.366267 124:0.646164 126:0.381933 128:0.242038 129:0.501554 154:0.534768 156:0.416942 157:0.627137 211:0.190373 214:0.210754 216:0.446233 218:0.4134 220:0.215613 221:0.361236 222:0.280645 223:0.401484 224:0.28086 226:0.391881 228:0.200882 229:0.217633 254:0.904801 256:0.371311 257:0.567977 311:0.230936 314:0.414091 316:0.243818 318:0.316726 320:0.248276 321:0.47199 322:0.693943 323:0.304435 324:0.452514 326:0.297381 328:0.22293 329:0.240444 354:0.594639 356:0.400236 357:0.713924 411:0.152281 414:0.172457 416:0.247269 418:0.471174 420:0.193838 421:0.543974 422:0.592139 423:0.366935 424:0.502389 426:0.230354 428:0.157286 429:0.302096 454:0.759545 456:0.384593 457:0.587342 511:0.299613 514:0.195831 516:0.239331 518:0.565125 520:0.244949 521:0.411496 522:0.237758 523:0.522177 524:0.719286 526:0.403698 528:0.168106 529:0.202836 554:0.625914 556:0.54693 557:0.43689 611:0.153341 614:0.212563 616:0.66245 618:0.552068 620:0.313423 621:0.448898 622:0.371795 623:0.455823 624:0.69144 626:0.306513 628:0.175205 629:0.398746 654:0.54671 656:0.488358 657:0.450987 711:0.172508 714:0.190083 716:0.568775 718:0.313124 720:0.223499 721:0.370741 722:0.257291 723:0.511379 724:0.351692 726:0.293487 728:0.157179 729:0.224149 754:0.80463 756:0.529776 757:0.590313 811:0.361446 814:0.190476 816:0.252347 818:0.690442 820:0.225681 821:0.321381 822:0.285256 823:0.544177 824:0.508295 826:0.285824 828:0.186398 829:0.208438 854:0.652563 856:0.463562 857:0.611799 911:0.330765 914:0.463918 916:0.197183 918:0.36686 920:0.528534 921:0.242364 922:0.245944 923:0.258427 924:0.31704 926:0.457708 928:0.3733 929:0.371537 954:0.287309 956:0.776837 957:0.5165 1900:0.714286 2000:1 
0.1 11:0.219393 14:0.270705 16:0.258309 18:0.466144 20:0.250929 21:0.33724 22:0.66129 23:0.38069 24:0.646164 26:0.398251 28:0.241447 29:0.513984 54:0.518876 56:0.418072 57:0.627137 111:0.190373 114:0.217059 116:0.448037 118:0.405776 120:0.215613 121:0.361236 122:0.26236 123:0.396613 124:0.283345 126:0.382726 128:0.200882 129:0.211311 154:0.904801 156:0.360168 157:0.572936 211:0.230936 214:0.414091 216:0.243818 218:0.315752 220:0.245353 221:0.47199 222:0.692258 223:0.304993 224:0.449376 226:0.295082 228:0.22293 229:0.240444 254:0.600579 256:0.400236 257:0.714749 311:0.166036 314:0.190358 316:0.247269 318:0.471174 320:0.212539 321:0.537669 322:0.592139 323:0.366935 324:0.513966 326:0.230354 328:0.178344 329:0.302096 354:0.759545 356:0.384593 357:0.587342 411:0.303463 414:0.195831 416:0.241518 418:0.565125 420:0.249037 421:0.410423 422:0.237758 423:0.522177 424:0.708532 426:0.403698 428:0.166332 429:0.202836 454:0.625914 456:0.54693 457:0.43689 511:0.149254 514:0.211623 516:0.661476 518:0.545196 520:0.313763 521:0.444154 522:0.368557 523:0.453629 524:0.693205 526:0.302773 528:0.173692 529:0.408755 554:0.54671 556:0.501771 557:0.447016 611:0.172508 614:0.191624 616:0.572743 618:0.313124 620:0.219011 621:0.370741 622:0.254487 623:0.511379 624:0.351692 626:0.293487 628:0.16291 629:0.210031 654:0.80463 656:0.51769 657:0.582047 711:0.361446 714:0.200254 716:0.249565 718:0.690442 720:0.237548 721:0.317301 722:0.288399 723:0.544177 724:0.508295 726:0.285824 728:0.186398 729:0.221672 754:0.653128 756:0.477005 757:0.611799 811:0.329135 814:0.464607 816:0.197183 818:0.361626 820:0.528534 821:0.242364 822:0.242949 823:0.246319 824:0.332449 826:0.441379 828:0.3733 829:0.371537 854:0.285191 856:0.776837 857:0.507283 911:0.192075 914:0.221649 916:0.308099 918:0.651954 920:0.276265 921:0.274236 922:0.251785 923:0.475421 924:0.549898 926:0.249802 928:0.172796 929:0.20529 954:0.461348 956:0.65951 957:0.586948 1900:0.714286 2000:1 
0.1 11:0.231311 14:0.24042 16:0.420408 18:0.411262 20:0.246592 21:0.788411 22:0.407742 23:0.404828 24:0.440912 26:0.508744 28:0.220919 29:0.252952 54:0.503614 56:0.352108 57:0.592215 111:0.451055 114:0.373647 116:0.333718 118:0.587726 120:0.439901 121:0.482292 122:0.301252 123:0.352152 124:0.671735 126:0.276545 128:0.269966 129:0.28092 154:0.478477 156:0.552118 157:0.571481 211:0.283396 214:0.334981 216:0.257044 218:0.406272 220:0.638166 221:0.316162 222:0.318065 223:0.311066 224:0.299584 226:0.509758 228:0.273395 229:0.293465 254:0.470199 256:0.789551 257:0.460151 311:0.31801 314:0.515451 316:0.304773 318:0.361566 320:0.429467 321:0.3915 322:0.428479 323:0.349462 324:0.34567 326:0.393683 328:0.318961 329:0.348952 354:0.452478 356:0.711334 357:0.607957 411:0.300165 414:0.324068 416:0.528465 418:0.439858 420:0.314506 421:0.381107 422:0.382088 423:0.366263 424:0.350171 426:0.336672 428:0.290955 429:0.330456 454:0.558489 456:0.503837 457:0.768174 511:0.297955 514:0.344283 516:0.307958 518:0.483274 520:0.636995 521:0.375572 522:0.378866 523:0.364919 524:0.363075 526:0.342835 528:0.301676 529:0.329223 554:0.496344 556:0.636364 557:0.699819 611:0.374589 614:0.530457 616:0.324899 618:0.42582 620:0.317919 621:0.583166 622:0.386538 623:0.373494 624:0.403451 626:0.538697 628:0.309939 629:0.337931 654:0.595045 656:0.504082 657:0.621544 711:0.234392 714:0.268277 716:0.301799 718:0.562054 720:0.271392 721:0.645959 722:0.378483 723:0.512048 724:0.483079 726:0.324904 728:0.246348 729:0.278638 754:0.668968 756:0.445755 757:0.543336 811:0.209748 814:0.223938 816:0.307512 818:0.387304 820:0.328145 821:0.879814 822:0.300641 823:0.444444 824:0.330458 826:0.31954 828:0.210076 829:0.234887 854:0.656631 856:0.350166 857:0.489439 911:0.201431 914:0.411727 916:0.367371 918:0.364689 920:0.61738 921:0.358566 922:0.260221 923:0.318118 924:0.528853 926:0.229249 928:0.44937 929:0.515113 954:0.331955 956:0.473843 957:0.653319 1900:0.857143 2000:1 
0.1 11:0.451788 14:0.362794 16:0.327114 18:0.593015 20:0.439901 21:0.476563 22:0.31871 23:0.366897 24:0.671735 26:0.292528 28:0.269306 29:0.29335 54:0.464257 56:0.553614 57:0.571481 111:0.283396 114:0.345003 116:0.258083 118:0.398556 120:0.638166 121:0.316162 122:0.300593 123:0.302047 124:0.302004 126:0.502377 128:0.273395 129:0.287756 154:0.470199 156:0.785822 157:0.464169 211:0.31801 214:0.515451 216:0.304773 218:0.360656 220:0.424411 221:0.3915 222:0.426452 223:0.350202 224:0.343273 226:0.392662 228:0.318961 229:0.348952 254:0.455712 256:0.711334 257:0.609088 311:0.31152 314:0.33869 316:0.528465 318:0.439858 320:0.330408 321:0.37669 322:0.382088 323:0.366263 324:0.35824 326:0.336672 328:0.308672 329:0.330456 354:0.558489 356:0.503837 357:0.768174 411:0.301814 414:0.344283 416:0.309948 418:0.483274 420:0.647625 421:0.374593 422:0.378866 423:0.364919 424:0.354266 426:0.342835 428:0.298492 429:0.329223 454:0.496344 456:0.636364 457:0.699819 511:0.372582 514:0.528111 516:0.322953 518:0.419217 520:0.318182 521:0.575441 522:0.383376 523:0.370968 524:0.395333 526:0.53621 528:0.307263 529:0.348952 554:0.595045 556:0.517119 557:0.618807 611:0.234392 614:0.26967 616:0.308223 618:0.562054 620:0.26718 621:0.645959 622:0.374359 623:0.512048 624:0.483079 626:0.324904 628:0.253586 629:0.265204 654:0.668968 656:0.431509 657:0.535727 711:0.209748 714:0.233312 716:0.304121 718:0.387304 720:0.338442 721:0.879092 722:0.303953 723:0.444444 724:0.330458 726:0.31954 728:0.210076 729:0.247678 754:0.657189 756:0.36645 757:0.489439 811:0.200438 814:0.412484 816:0.367371 818:0.359486 820:0.61738 821:0.358566 822:0.257051 823:0.303213 824:0.539482 826:0.219923 828:0.44937 829:0.515113 854:0.329129 856:0.473843 857:0.641661 911:0.381948 914:0.343428 916:0.253521 918:0.257598 920:0.260052 921:0.27158 922:0.323816 923:0.255618 924:0.217923 926:0.364427 928:0.198489 929:0.223552 954:0.381149 956:0.690959 957:0.726733 1900:1 2000:1 
