svm_type c_svc
kernel_type rbf
gamma 0.1
nr_class 2
total_sv 576
rho -1.22599
label 1 0
probA -16.1504
probB 14.9024
nr_sv 306 270
SV
0.1 10:0.159091 11:0.0977485 12:0.361955 13:0.729496 14:0.396597 15:0.164345 20:0.385276 21:0.520266 22:0.326174 23:0.531947 25:0.416391 26:0.53479 28:0.651236 29:0.294808 53:0.648084 56:0.54265 110:0.273116 111:0.477535 112:0.645227 113:0.536719 114:0.0617685 115:0.874562 120:0.0834502 121:0.476015 122:0.123841 123:0.306171 125:0.345199 126:0.116162 128:0.0777719 129:0.076445 153:0.203645 156:0.185012 210:0.419616 211:0.1037 212:0.531165 213:0.338553 214:0.080427 215:0.220714 220:0.133047 221:0.838644 222:0.126761 223:0.515848 225:0.507066 226:0.338004 228:0.0810661 229:0.105297 253:0.539457 256:0.378041 310:0.236072 311:0.0753425 312:0.195927 313:0.12963 314:0.0665362 315:0.988661 320:0.346405 321:0.243207 322:0.246996 323:0.133333 325:0.437708 326:0.0720486 328:0.0824635 329:0.031491 353:0.154989 356:0.0648562 410:0.459902 411:0.0932878 412:0.404895 413:0.664352 414:0.169338 415:0.229993 420:0.447832 421:0.348819 422:0.146471 423:0.592184 425:0.359635 426:0.460616 428:0.0945044 429:0.327785 453:0.808993 456:0.568261 1900:0.75 2000:1 
0.1 10:0.305871 11:0.468424 12:0.653897 13:0.573381 14:0.0634817 15:0.875348 20:0.0730061 21:0.431229 22:0.125503 23:0.34844 25:0.345199 26:0.117314 28:0.0710153 29:0.0760198 53:0.276713 56:0.187284 110:0.360445 111:0.0794931 112:0.531483 113:0.354687 114:0.0916775 115:0.229152 120:0.154278 121:0.922509 122:0.137748 123:0.516614 125:0.509106 126:0.363636 128:0.0588544 129:0.128651 153:0.544757 156:0.379975 210:0.233569 211:0.0969731 212:0.189024 213:0.113348 214:0.0512456 215:0.977143 220:0.367668 221:0.231186 222:0.243461 223:0.106973 225:0.443059 226:0.0639229 228:0.117157 229:0.0382897 253:0.0989651 256:0.0748596 310:0.491974 311:0.0936073 312:0.402388 313:0.664352 314:0.158513 315:0.255138 320:0.45679 321:0.332201 322:0.134179 323:0.611667 325:0.359635 326:0.44184 328:0.0934238 329:0.325193 353:0.769791 356:0.564537 410:0.324877 411:0.100114 412:0.638462 413:0.62963 414:0.523345 415:0.457102 420:0.132791 421:0.66032 422:0.153795 423:0.424809 425:0.695183 426:0.486301 428:0.41962 429:0.319462 453:0.370183 456:0.309471 1900:0.5 2000:1 
0.01357938974521454 10:0.376894 11:0.177375 12:0.334875 13:0.393525 14:0.165576 15:0.862117 20:0.187117 21:0.357475 22:0.237584 23:0.645617 25:0.616722 26:0.283172 28:0.167806 29:0.185414 53:0.397793 56:0.235442 110:0.660103 111:0.239055 112:0.285037 113:0.320313 114:0.194408 115:0.329362 120:0.27209 121:0.357196 122:0.266887 123:0.297468 125:0.639073 126:0.837542 128:0.153967 129:0.218148 153:0.361893 156:0.40143 210:0.413549 211:0.149103 212:0.254065 213:0.269202 214:0.0939502 215:0.227143 220:0.139485 221:0.19661 222:0.97049 223:0.232171 225:0.27847 226:0.190893 228:0.118823 229:0.116784 253:0.226714 256:0.246725 310:0.425873 311:0.219178 312:0.282303 313:0.576389 314:0.244618 315:0.233877 320:0.294844 321:0.267663 322:0.213618 323:0.321667 325:0.406977 326:0.699653 328:0.133612 329:0.205656 353:0.364877 356:0.735463 410:0.216858 411:0.215017 412:0.143357 413:0.126543 414:0.358188 415:0.0879596 420:0.380759 421:0.111957 422:0.147137 423:0.107052 425:0.13206 426:0.255993 428:0.138675 429:0.21959 453:0.127451 456:0.936015 1900:1 2000:1 
0.1 10:0.339962 11:0.124108 12:0.24967 13:0.256835 14:0.114529 15:0.920613 20:0.31227 21:0.278405 22:0.159732 23:0.236256 25:0.528146 26:0.319579 28:0.113624 29:0.114957 53:0.4036 56:0.250551 110:0.269692 111:0.142857 112:0.536899 113:0.555469 114:0.205462 115:0.680448 120:0.227209 121:0.328413 122:0.216556 123:0.367089 125:0.338576 126:0.420034 128:0.16763 129:0.390926 153:0.670077 156:0.498756 210:0.219414 211:0.186659 212:0.371274 213:0.626398 214:0.262633 215:0.372857 220:0.320458 221:0.235254 222:0.383635 223:0.299525 225:0.395677 226:0.194396 228:0.196002 229:0.197192 253:0.441462 256:0.714286 310:0.15864 311:0.179224 312:0.0723315 313:0.0964506 314:0.308545 315:0.0765415 320:0.41467 321:0.0720109 322:0.088785 323:0.1175 325:0.0805648 326:0.163194 328:0.131524 329:0.183805 353:0.127692 356:1 410:0.206219 411:0.131399 412:0.351748 413:0.405864 414:0.205575 415:0.2062 420:0.352304 421:0.742574 422:0.334221 423:0.535259 425:0.359635 426:0.229452 428:0.119158 429:0.341869 453:0.788709 456:0.556858 1900:1 2000:1 
0.03703164065294633 10:0.150568 11:0.182317 12:0.0931308 13:0.157554 14:0.309555 15:0.0752089 20:0.393865 21:0.0704319 22:0.0973154 23:0.148588 25:0.089404 26:0.186893 28:0.135718 29:0.209518 53:0.164925 56:1 110:0.169521 111:0.129608 112:0.33717 113:0.398438 114:0.190507 115:0.222845 120:0.392006 121:0.739483 122:0.327815 123:0.509494 125:0.36755 126:0.231481 128:0.12927 129:0.361094 153:0.738171 156:0.552861 210:0.158746 211:0.394619 212:0.699187 213:0.800149 214:0.11032 215:0.208571 220:0.144492 221:0.537627 222:0.468142 223:0.408082 225:0.270989 226:0.294221 228:0.131594 229:0.136567 253:0.49806 256:0.287586 310:0.203966 311:0.454909 312:0.205758 313:0.295525 314:0.386171 315:0.211198 320:0.375454 321:0.199728 322:0.339786 323:0.255 325:0.186047 326:0.19184 328:0.199374 329:0.232648 353:0.40825 356:0.780511 410:0.235679 411:0.357793 412:0.369231 413:0.253858 414:0.742857 415:0.221341 420:0.550136 421:0.337395 422:0.223036 423:0.227698 425:0.221761 426:0.318493 428:0.242424 429:0.480794 453:0.321163 456:0.839088 1900:0.75 2000:1 
0.1 10:0.191288 11:0.136738 12:0.353369 13:0.446043 14:0.193063 15:0.227716 20:0.342945 21:0.668439 22:0.332215 23:0.539376 25:0.36755 26:0.228155 28:0.122567 29:0.359085 53:0.762195 56:0.559647 110:0.139555 111:0.378456 112:0.699391 113:0.838281 114:0.118986 115:0.217239 120:0.165498 121:0.594834 122:0.474834 123:0.409019 125:0.274007 126:0.321549 128:0.106674 129:0.159105 153:0.503836 156:0.289801 210:0.199191 211:0.469731 212:0.198509 213:0.273676 214:0.4 215:0.193571 220:0.39628 221:0.187797 222:0.336687 223:0.222662 225:0.191189 226:0.184764 228:0.241532 229:0.238034 253:0.369017 256:0.77355 310:0.233239 311:0.359018 312:0.366573 313:0.253858 314:0.695369 315:0.246634 320:0.566449 321:0.322011 322:0.210948 323:0.254167 325:0.221761 326:0.297743 328:0.243737 329:0.478792 353:0.33212 356:0.8377 410:0.557283 411:0.226394 412:0.233566 413:0.252315 414:0.297561 415:0.237924 420:0.308943 421:0.354151 422:0.304927 423:0.223449 425:0.333056 426:0.36387 428:0.168978 429:0.222151 453:0.300203 456:0.854609 1900:1 2000:1 
0.04466777653759189 10:0.577652 11:0.332784 12:0.39498 13:0.5 14:0.36911 15:0.408078 20:0.235583 21:0.273754 22:0.267785 23:0.365527 25:0.351821 26:0.268608 28:0.094687 29:0.170581 53:0.327526 56:0.827195 110:0.244863 111:0.0570276 112:0.797563 113:0.778906 114:0.079974 115:0.269797 120:0.119215 121:0.598524 122:0.276159 123:0.410601 125:0.300497 126:0.511785 128:0.0635838 129:0.131137 153:0.527174 156:0.248445 210:0.173913 211:0.310538 212:0.351626 213:0.651752 214:0.347331 215:0.133571 220:0.178827 221:0.472542 222:0.093226 223:0.587163 225:0.330008 226:0.17951 228:0.8995 229:0.323548 253:0.454398 256:0.389894 310:0.276676 311:0.140982 312:0.0442416 313:0.0617284 314:0.481409 315:0.0581148 320:0.451707 321:0.0516304 322:0.0547397 323:0.0741667 325:0.0647841 326:0.319444 328:0.389353 329:0.329692 353:0.0885654 356:0.98754 410:0.591653 411:0.298635 412:0.387413 413:0.589506 414:0.142857 415:0.348234 420:0.172764 421:0.434882 422:0.165779 423:0.327952 425:0.595515 426:0.504281 428:0.0796097 429:0.113316 453:0.562542 456:0.500792 1900:1 2000:1 
0.1 10:0.172348 11:0.291598 12:0.3679 13:0.707914 14:0.339005 15:0.149025 20:0.174233 21:0.474419 22:0.10604 23:0.612927 25:0.332781 26:0.208738 28:0.827459 29:0.339308 53:0.510163 56:0.396601 110:0.239726 111:0.138825 112:0.0433311 113:0.05 114:0.478544 115:0.0511563 120:0.485975 121:0.0531365 122:0.0622517 123:0.0522152 125:0.0736755 126:0.340067 128:0.401997 129:0.351771 153:0.0393223 156:0.975746 210:0.670374 211:0.317265 212:0.371274 213:0.557793 214:0.124555 215:0.355 220:0.18598 221:0.39661 222:0.149564 223:0.315372 225:0.600998 226:0.481611 228:0.112715 229:0.116146 253:0.518758 256:0.496257 310:0.354108 311:0.0633562 312:0.478933 313:0.746142 314:0.409654 315:0.182849 320:0.283951 321:0.452446 322:0.247664 323:0.6825 325:0.421096 326:0.407118 328:0.0892484 329:0.235861 353:0.632393 356:0.257508 410:0.435352 411:0.240046 412:0.641958 413:0.664352 414:0.314286 415:0.272531 420:0.207995 421:0.512567 422:0.139148 423:0.610025 425:0.278239 426:0.133562 428:0.109399 429:0.384123 453:0.583502 456:0.56541 1900:0.75 2000:1 
0.1 10:0.268939 11:0.145524 12:0.0667107 13:0.12518 14:0.482984 15:0.0571031 20:0.425153 21:0.0504983 22:0.0630872 23:0.109955 25:0.0736755 26:0.332524 28:0.395581 29:0.349815 53:0.127468 56:0.987724 110:0.572774 111:0.298963 112:0.371699 113:0.584375 114:0.13199 115:0.360897 120:0.206171 121:0.441328 122:0.160265 123:0.316456 125:0.602649 126:0.501684 128:0.0888071 129:0.139217 153:0.524297 156:0.497823 210:0.35996 211:0.0852018 212:0.46206 213:0.709172 214:0.425623 215:0.165 220:0.306152 221:0.44 222:0.244131 223:0.62916 225:0.426434 226:0.401926 228:0.124375 229:0.241225 253:0.608021 256:0.262944 310:0.463645 311:0.240868 312:0.640449 313:0.664352 314:0.294194 315:0.296953 320:0.19971 321:0.478261 322:0.126836 323:0.629167 325:0.278239 326:0.110243 328:0.108559 329:0.381748 353:0.567486 356:0.561661 410:0.284779 411:0.134812 412:0.248252 413:0.511574 414:0.319164 415:0.22783 420:0.666667 421:0.323686 422:0.362184 423:0.412065 425:0.394518 426:0.381849 428:0.148947 429:0.470551 453:0.677823 456:0.742794 1900:0.75 2000:1 
0.1 10:0.310606 11:0.170785 12:0.370542 13:0.480576 14:0.217277 15:0.320334 20:0.526994 21:0.554817 22:0.277852 23:0.482169 25:0.537252 26:0.322816 28:0.161494 29:0.245983 53:0.740418 56:0.38464 110:0.761986 111:0.793779 112:0.229519 113:0.274219 114:0.223667 115:0.371409 120:0.290323 121:0.264945 122:0.264901 123:0.255538 125:0.425497 126:0.324916 128:0.186022 129:0.228092 153:0.271419 156:0.447139 210:0.229525 211:0.130045 212:0.27981 213:0.385533 214:0.185765 215:0.236429 220:0.253219 221:0.342373 222:0.207243 223:0.461965 225:0.310889 226:0.224168 228:0.200999 229:0.228462 253:0.77555 256:0.2932 310:0.265345 311:0.625 312:0.40309 313:0.369599 314:0.227006 315:0.330262 320:0.213508 321:0.765625 322:0.220294 323:0.403333 325:0.391196 326:0.548611 328:0.152401 329:0.296915 353:0.70458 356:0.324281 410:0.453355 411:0.241183 412:0.332867 413:0.352623 414:0.326132 415:0.297044 420:0.359756 421:0.600152 422:0.255659 423:0.526763 425:0.622093 426:0.524829 428:0.179764 429:0.242638 453:0.381677 456:0.698765 1900:1 2000:1 
0.0292498532728008 10:0.846591 11:0.769907 12:0.248349 13:0.331655 14:0.22644 15:0.375348 20:0.253988 21:0.241196 22:0.268456 23:0.300892 25:0.425497 26:0.317961 28:0.179379 29:0.226823 53:0.338269 56:0.452628 110:0.199486 111:0.106567 112:0.280298 113:0.403906 114:0.187906 115:0.244569 120:0.27209 121:0.382288 122:0.217219 123:0.462816 125:0.313742 126:0.254209 128:0.172359 129:0.248602 153:0.778133 156:0.295398 210:0.264914 211:0.636771 212:0.388889 213:0.345265 214:0.226335 215:0.313571 220:0.236767 221:0.752542 222:0.216633 223:0.363708 225:0.396509 226:0.544658 228:0.19156 229:0.301851 253:0.684994 256:0.328135 310:0.484419 311:0.242009 312:0.330056 313:0.352623 314:0.305284 315:0.321049 320:0.362382 321:0.556386 322:0.243658 323:0.5475 325:0.622093 326:0.506944 328:0.180063 329:0.239717 353:0.386412 356:0.696166 410:0.285597 411:0.212742 412:0.268531 413:0.472994 414:0.340767 415:0.194665 420:0.586043 421:0.24524 422:0.704394 423:0.305013 425:0.252492 426:0.285103 428:0.174114 429:0.261204 453:0.469912 456:0.772569 1900:1 2000:1 
0.1 10:0.224432 11:0.114772 12:0.297886 13:0.451079 14:0.190445 15:0.249304 20:0.238037 21:0.346844 22:0.220134 23:0.495542 25:0.313742 26:0.25 28:0.165702 29:0.247219 53:0.79849 56:0.299024 110:0.229452 111:0.627304 112:0.389303 113:0.361719 114:0.224967 115:0.320252 120:0.255961 121:0.828782 122:0.22649 123:0.364715 125:0.399007 126:0.56229 128:0.163426 129:0.320075 153:0.688619 156:0.330224 210:0.499494 211:0.26065 212:0.318428 213:0.328859 214:0.311744 215:0.304286 220:0.383405 221:0.543729 222:0.240107 223:0.500792 225:0.627598 226:0.502627 228:0.220988 229:0.245054 253:0.345731 256:0.691204 310:0.29084 311:0.21347 312:0.265449 313:0.472994 314:0.318982 315:0.220411 320:0.604938 321:0.23981 322:0.693591 323:0.33 325:0.252492 326:0.263889 328:0.174322 329:0.258355 353:0.465575 356:0.770607 410:0.197218 411:0.163823 412:0.178322 413:0.246914 414:0.625087 415:0.166547 420:0.257453 421:0.233816 422:0.159121 423:0.259133 425:0.216777 426:0.201199 428:0.423729 429:0.93598 453:0.422921 456:0.424454 1900:1 2000:1 
0.1 10:0.257576 11:0.611203 12:0.404227 13:0.41223 14:0.227749 15:0.324513 20:0.223926 21:0.748837 22:0.22953 23:0.403418 25:0.399007 26:0.546117 28:0.15676 29:0.318294 53:0.717189 56:0.334278 110:0.428082 111:0.240783 112:0.31889 113:0.344531 114:0.302991 115:0.311142 120:0.399719 121:0.601476 122:0.249669 123:0.501582 125:0.629139 126:0.521886 128:0.191277 129:0.264761 153:0.353261 156:0.692164 210:0.292214 211:0.232623 212:0.256098 213:0.44519 214:0.32669 215:0.202857 220:0.622318 221:0.227797 222:0.692153 223:0.293978 225:0.257689 226:0.257443 228:0.214881 229:0.263561 253:0.430142 256:0.76388 310:0.188857 311:0.164384 312:0.17486 313:0.246914 314:0.585127 315:0.192771 320:0.252723 321:0.22962 322:0.146862 323:0.285 325:0.216777 326:0.178819 328:0.427975 329:0.935733 353:0.423415 356:0.419489 410:0.271686 411:0.159841 412:0.277622 413:0.304012 414:0.223693 415:0.219899 420:0.251355 421:0.225438 422:0.943409 423:0.259983 425:0.275748 426:0.248288 428:0.128403 429:0.163892 453:0.286342 456:0.490022 1900:0.75 2000:1 
0.04572589013999736 10:0.477273 11:0.242724 12:0.335535 13:0.396403 14:0.306283 15:0.31546 20:0.349693 21:0.544186 22:0.25302 23:0.531947 25:0.629139 26:0.507282 28:0.18464 29:0.263288 53:0.412602 56:0.700661 110:0.252568 111:0.211982 112:0.256601 113:0.466406 114:0.316645 115:0.211633 120:0.633941 121:0.257565 122:0.696026 123:0.295095 125:0.260762 126:0.286195 128:0.185497 129:0.282784 153:0.436701 156:0.764614 210:0.183013 211:0.184417 212:0.168699 213:0.226696 214:0.617082 215:0.175 220:0.275393 221:0.217627 222:0.142857 223:0.251189 225:0.221945 226:0.171629 228:0.484731 229:0.936184 253:0.385188 256:0.421085 310:0.274788 311:0.160388 312:0.274579 313:0.304012 314:0.209393 315:0.245216 320:0.246187 321:0.222147 322:0.933244 323:0.285833 325:0.275748 326:0.226563 328:0.127871 329:0.160668 353:0.30088 356:0.485623 410:0.305237 411:0.13595 412:0.520979 413:0.652778 414:0.185366 415:0.78659 420:0.165312 421:0.657273 422:0.235686 423:0.389975 425:0.351329 426:0.247432 428:0.151002 429:0.201665 453:0.637593 456:0.223313 1900:0.75 2000:1 
0.09392541448925044 10:0.283144 11:0.215266 12:0.274769 13:0.508633 14:0.320026 15:0.216574 20:0.554601 21:0.234551 22:0.705369 23:0.338039 25:0.260762 26:0.280744 28:0.178853 29:0.281211 53:0.488386 56:0.774001 110:0.160103 111:0.162442 112:0.169262 113:0.2375 114:0.581925 115:0.184303 120:0.293829 121:0.246494 122:0.153642 123:0.252373 125:0.225166 126:0.203704 128:0.440883 129:0.93785 153:0.392263 156:0.422886 210:0.275025 211:0.180493 212:0.264905 213:0.281879 214:0.207117 215:0.227857 220:0.268956 221:0.210169 222:0.932931 223:0.251981 225:0.280964 226:0.21979 228:0.165464 229:0.16656 253:0.254528 256:0.485652 310:0.313503 311:0.136416 312:0.518961 313:0.652778 314:0.173516 315:0.802268 320:0.153958 321:0.607337 322:0.223632 323:0.413333 325:0.351329 326:0.225694 328:0.150835 329:0.198586 353:0.616015 356:0.216613 410:0.545008 411:0.562002 412:0.364336 413:0.380401 414:0.229268 415:0.371305 420:0.227642 421:0.423458 422:0.300932 423:0.357689 425:0.874585 426:0.450342 428:0.156651 429:0.216389 453:0.397228 456:0.354134 1900:0.75 2000:1 
0.1 10:0.475379 11:0.160351 12:0.488771 13:0.728777 14:0.20877 15:0.408774 20:0.239264 21:0.563455 22:0.237584 23:0.634473 25:0.550497 26:0.27589 28:0.146239 29:0.264524 53:0.6536 56:0.419578 110:0.22089 111:0.188364 112:0.172647 113:0.275 114:0.418726 115:0.6363 120:0.478962 121:0.211808 122:0.151656 123:0.177215 125:0.289735 126:0.358586 128:0.205991 129:0.523306 153:0.195972 156:0.804415 210:0.142568 211:0.202915 212:0.0995935 213:0.093214 214:0.775801 215:0.0878571 220:0.399142 221:0.0888136 222:0.0938967 223:0.0950872 225:0.105569 226:0.158494 228:0.255969 229:0.328653 253:0.110931 256:0.896756 310:0.409821 311:0.132991 312:0.397472 313:0.48534 314:0.138943 315:0.387668 320:0.189542 321:0.328804 322:0.231642 323:0.7075 325:0.446013 326:0.587674 328:0.11952 329:0.180591 353:0.73673 356:0.265495 410:0.252864 411:0.0972696 412:0.546853 413:0.832562 414:0.326829 415:0.540735 420:0.145664 421:0.336634 422:0.561252 423:0.478335 425:0.51495 426:0.234589 428:0.115562 429:0.161972 453:0.534821 456:0.208426 1900:1 2000:1 
0.05313856978296158 10:0.311553 11:0.154311 12:0.535007 13:0.48777 14:0.390052 15:0.405989 20:0.25092 21:0.487708 22:0.234228 23:0.919019 25:0.332781 26:0.227346 28:0.196213 29:0.420272 53:0.553136 56:0.436261 110:0.833048 111:0.310484 112:0.237644 113:0.275781 114:0.349155 115:0.479327 120:0.258065 121:0.271587 122:0.245033 123:0.249209 125:0.506623 126:0.39899 128:0.175512 129:0.333126 153:0.409847 156:0.488184 210:0.375126 211:0.174327 212:0.280488 213:0.363908 214:0.299644 215:0.877857 220:0.155937 221:0.467797 222:0.452046 223:0.230586 225:0.509559 226:0.401926 228:0.189895 229:0.155712 253:0.28881 256:0.238927 310:0.271955 311:0.63242 312:0.337079 313:0.239198 314:0.16047 315:0.877392 320:0.130719 321:0.565897 322:0.182911 323:0.249167 325:0.344684 326:0.407118 328:0.145616 329:0.134961 353:0.403094 356:0.236741 410:0.792962 411:0.203641 412:0.324476 413:0.334877 414:0.477352 415:0.485941 420:0.215447 421:0.269612 422:0.363515 423:0.424809 425:0.488372 426:0.381849 428:0.159733 429:0.208707 453:0.50879 456:0.455812 1900:1 2000:1 
0.1 10:0.925189 11:0.309171 12:0.256275 13:0.333094 14:0.352749 15:0.482591 20:0.225767 21:0.247176 22:0.248322 23:0.294948 25:0.506623 26:0.389159 28:0.168858 29:0.331273 53:0.463995 56:0.494177 110:0.322774 111:0.152074 112:0.280975 113:0.38125 114:0.291938 115:0.873861 120:0.176718 121:0.518819 122:0.45894 123:0.231804 125:0.511589 126:0.425084 128:0.16185 129:0.17775 153:0.296995 156:0.241294 210:0.271992 211:0.644058 212:0.325203 213:0.219239 214:0.153737 215:0.865 220:0.155222 221:0.55322 222:0.179074 223:0.217116 225:0.349958 226:0.401926 228:0.184342 229:0.141034 253:0.363519 256:0.24267 310:0.876298 311:0.204338 312:0.321629 313:0.334877 314:0.446836 315:0.506733 320:0.207698 321:0.261549 322:0.351802 323:0.4475 325:0.488372 326:0.361979 328:0.159708 329:0.205656 353:0.500455 356:0.451118 410:0.275777 411:0.184869 412:0.366434 413:0.270833 414:0.321951 415:0.450613 420:0.295393 421:0.265804 422:0.464714 423:0.256585 425:0.2799 426:0.719178 428:0.160247 429:0.198464 453:0.515213 456:0.706367 1900:1 2000:1 
0.04610954128730822 10:0.360795 11:0.158155 12:0.298547 13:0.430216 14:0.295157 15:0.874652 20:0.154601 21:0.469767 22:0.465101 23:0.278603 25:0.511589 26:0.414239 28:0.155181 29:0.176761 53:0.361498 56:0.244256 110:0.235445 111:0.634793 112:0.32566 113:0.229687 114:0.158648 115:0.861247 120:0.176017 121:0.611808 122:0.189404 123:0.218354 125:0.352649 126:0.425084 128:0.156595 129:0.163456 153:0.370844 156:0.245025 210:0.91911 211:0.223655 212:0.310298 213:0.311708 214:0.466192 215:0.491429 220:0.231044 221:0.249492 222:0.348759 223:0.405705 225:0.493766 226:0.356392 228:0.199334 229:0.211232 253:0.467335 256:0.451965 310:0.279509 311:0.185502 312:0.363764 313:0.270833 314:0.30137 315:0.472006 320:0.293391 321:0.258152 322:0.453271 323:0.2825 325:0.2799 326:0.703993 328:0.16023 329:0.195373 353:0.506218 356:0.703834 410:0.246318 411:0.967008 412:0.136364 413:0.115741 414:0.452962 415:0.170151 420:0.176152 421:0.162986 422:0.139148 423:0.104503 425:0.402824 426:0.208048 428:0.151002 429:0.165813 453:0.187289 456:0.350966 1900:1 2000:1 
0.06567461191794705 10:0.551136 11:0.189456 12:0.379128 13:0.442446 14:0.200916 15:0.347493 20:0.235583 21:0.631894 22:0.65906 23:0.445765 25:0.400662 26:0.311489 28:0.158864 29:0.241656 53:0.682056 56:0.345609 110:0.228596 111:0.140553 112:0.761679 113:0.544531 114:0.171001 115:0.341275 120:0.268583 121:0.729151 122:0.275497 123:0.781646 125:0.402318 126:0.315657 128:0.162901 129:0.233064 153:0.487532 156:0.284826 210:0.92821 211:0.317265 212:0.265583 213:0.319165 214:0.275445 215:0.403571 220:0.339056 221:0.259661 222:0.295104 223:0.305864 225:0.458022 226:0.345884 228:0.218767 229:0.248245 253:0.320181 256:0.6335 310:0.242682 311:0.167237 312:0.523174 313:0.416667 314:0.190476 315:0.413182 320:0.185911 321:0.922554 322:0.23498 323:0.438333 325:0.446844 326:0.351563 328:0.11691 329:0.21144 353:0.509857 356:0.248562 410:0.669394 411:0.267918 412:0.28042 413:0.346451 414:0.320557 415:0.332372 420:0.326558 421:0.329018 422:0.275632 423:0.338997 425:0.386213 426:0.342466 428:0.178223 429:0.331626 453:0.610548 456:0.68166 1900:1 2000:1 
0.1 10:0.256629 11:0.147172 12:0.767503 13:0.580576 14:0.173429 15:0.345404 20:0.234969 21:0.659136 22:0.279195 23:0.794948 25:0.402318 26:0.309061 28:0.156234 29:0.231768 53:0.534553 56:0.288322 110:0.791096 111:0.298963 112:0.26608 113:0.334375 114:0.269831 115:0.408549 120:0.356241 121:0.292251 122:0.303974 123:0.306962 125:0.460265 126:0.371212 128:0.189175 129:0.267868 153:0.328005 156:0.634639 210:0.240647 211:0.18722 212:0.504743 213:0.390753 214:0.186477 215:0.397143 220:0.209585 221:0.909153 222:0.231388 223:0.396989 225:0.452203 226:0.345884 228:0.153803 229:0.216975 253:0.477361 256:0.254211 310:0.733711 311:0.268836 312:0.277388 313:0.346451 314:0.300065 315:0.355776 320:0.326797 321:0.314538 322:0.263685 323:0.363333 325:0.386213 326:0.322049 328:0.178497 329:0.329049 353:0.59175 356:0.678914 410:0.333879 411:0.193402 412:0.698601 413:0.432099 414:0.193031 415:0.358327 420:0.182249 421:0.846915 422:0.26964 423:0.376381 425:0.738372 426:0.390411 428:0.11813 429:0.192061 453:0.43712 456:0.266709 1900:0.75 2000:1 
0.1 10:0.258523 11:0.250961 12:0.270145 13:0.376978 14:0.635471 15:0.272284 20:0.318405 21:0.301661 22:0.228188 23:0.405646 25:0.286424 26:0.254045 28:0.465544 29:0.840544 53:0.526713 56:0.54265 110:0.230308 111:0.192396 112:0.52065 113:0.478906 114:0.242523 115:0.476524 120:0.293829 121:0.918819 122:0.290728 123:0.445411 125:0.533113 126:0.425926 128:0.158697 129:0.289621 153:0.574169 156:0.350435 210:0.467139 211:0.325112 212:0.251355 213:0.308725 214:0.387189 215:0.26 220:0.488555 221:0.229153 222:0.28169 223:0.286846 225:0.283458 226:0.402802 228:0.241532 229:0.334397 253:0.280078 256:0.874922 310:0.266289 311:0.194064 312:0.888343 313:0.638889 314:0.244618 315:0.418143 320:0.180828 321:0.51087 322:0.351802 323:0.488333 325:0.443522 326:0.322049 328:0.147704 329:0.201799 353:0.445557 356:0.313419 410:0.346154 411:0.193402 412:0.472028 413:0.638889 414:0.261324 415:0.32372 420:0.392276 421:0.473724 422:0.363515 423:0.8887 425:0.443522 426:0.342466 428:0.249615 429:0.332266 453:0.648749 456:0.413367 1900:1 2000:1 
0.1 10:0.258523 11:0.196595 12:0.532365 13:0.520144 14:0.245419 15:0.479805 20:0.257055 21:0.8299 22:0.294631 23:0.479198 25:0.533113 26:0.415049 28:0.152025 29:0.28801 53:0.61324 56:0.354737 110:0.400685 111:0.307028 112:0.251862 113:0.323437 114:0.371912 115:0.267694 120:0.502805 121:0.259041 122:0.290728 123:0.287975 125:0.286424 126:0.425926 128:0.21072 129:0.351771 153:0.288363 156:0.875311 210:0.265925 211:0.213565 212:0.857046 213:0.605518 214:0.245552 215:0.402143 220:0.204578 221:0.498305 222:0.348759 223:0.444532 225:0.448878 226:0.316112 228:0.186563 229:0.207403 253:0.408797 256:0.31753 310:0.360718 311:0.194064 312:0.469803 313:0.638889 314:0.244618 315:0.347271 320:0.39724 321:0.443614 322:0.351802 323:0.9025 325:0.443522 326:0.322049 328:0.251044 329:0.329692 353:0.626024 356:0.408307 410:0.346154 411:0.193402 412:0.332867 413:0.48534 414:0.261324 415:0.32372 420:0.325203 421:0.473724 422:0.296937 423:0.550552 425:0.361296 426:0.342466 428:0.198767 429:0.268246 453:0.817106 456:0.382008 1900:1 2000:1 
0.1 10:0.44697 11:0.305876 12:0.270145 13:0.376978 14:0.375654 15:0.272284 20:0.439877 21:0.23588 22:0.294631 23:0.331352 25:0.286424 26:0.415049 28:0.204103 29:0.349815 53:0.353659 56:0.886056 110:0.230308 111:0.192396 112:0.857143 113:0.634375 114:0.242523 115:0.407148 120:0.224404 121:0.55203 122:0.356954 123:0.445411 125:0.451159 126:0.342593 128:0.158697 129:0.228092 153:0.415601 156:0.319652 210:0.367037 211:0.213565 212:0.453252 213:0.605518 214:0.245552 215:0.330714 220:0.41774 221:0.431186 222:0.348759 223:0.838352 225:0.448878 226:0.316112 228:0.296502 229:0.334397 253:0.601229 256:0.410168 310:0.360718 311:0.194064 312:0.330056 313:0.48534 314:0.244618 315:0.347271 320:0.325345 321:0.443614 322:0.285047 323:0.570833 325:0.361296 326:0.322049 328:0.199374 329:0.265424 353:0.77707 356:0.376677 410:0.346154 411:0.193402 412:0.332867 413:0.48534 414:0.261324 415:0.32372 420:0.325203 421:0.473724 422:0.296937 423:0.550552 425:0.361296 426:0.342466 428:0.198767 429:0.268246 453:0.817106 456:0.382008 1900:0.75 2000:1 
0.1 10:0.258523 11:0.196595 12:0.860634 13:0.663309 14:0.245419 15:0.410864 20:0.196319 21:0.499668 22:0.361745 23:0.479198 25:0.451159 26:0.334951 28:0.152025 29:0.226823 53:0.469222 56:0.323576 110:0.315925 111:0.192396 112:0.453622 113:0.634375 114:0.242523 115:0.337071 120:0.43338 121:0.478967 122:0.356954 123:0.838608 125:0.451159 126:0.342593 128:0.262743 129:0.351771 153:0.605818 156:0.412002 210:0.367037 211:0.213565 212:0.318428 213:0.457122 214:0.245552 215:0.330714 220:0.346924 221:0.431186 222:0.28169 223:0.522979 225:0.366584 226:0.316112 228:0.241532 229:0.270581 253:0.76229 256:0.379289 310:0.360718 311:0.194064 312:0.330056 313:0.48534 314:0.244618 315:0.347271 320:0.325345 321:0.443614 322:0.285047 323:0.570833 325:0.361296 326:0.322049 328:0.199374 329:0.265424 353:0.77707 356:0.376677 410:0.427169 411:0.306598 412:0.402797 413:0.408951 414:0.330314 415:0.32372 420:0.325203 421:0.473724 422:0.363515 423:0.382328 425:0.525748 426:0.85274 428:0.249615 429:0.268246 453:0.4476 456:0.571112 1900:0.75 2000:1 
0.1 10:0.35322 11:0.196595 12:0.466975 13:0.663309 14:0.245419 15:0.341226 20:0.379141 21:0.433887 22:0.361745 23:0.84844 25:0.451159 26:0.334951 28:0.256181 29:0.349815 53:0.641986 56:0.41706 110:0.315925 111:0.192396 112:0.31889 113:0.478906 114:0.242523 115:0.337071 120:0.363955 121:0.478967 122:0.290728 123:0.523734 125:0.369205 126:0.342593 128:0.21072 129:0.289621 153:0.765026 156:0.381219 210:0.367037 211:0.213565 212:0.318428 213:0.457122 214:0.245552 215:0.330714 220:0.346924 221:0.431186 222:0.28169 223:0.522979 225:0.366584 226:0.316112 228:0.241532 229:0.270581 253:0.76229 256:0.379289 310:0.454202 311:0.307648 312:0.400281 313:0.408951 314:0.309198 315:0.347271 320:0.325345 321:0.443614 322:0.351802 323:0.405833 325:0.525748 326:0.83941 328:0.251044 329:0.265424 353:0.445557 356:0.567412 410:0.264321 411:0.193402 412:0.541259 413:0.48534 414:0.261324 415:0.467195 420:0.257453 421:0.927647 422:0.296937 423:0.46644 425:0.525748 426:0.427226 428:0.14792 429:0.268246 453:0.615281 456:0.350649 1900:0.75 2000:1 
0.1 10:0.249053 11:0.118616 12:0.825627 13:0.668345 14:0.145288 15:0.586351 20:0.171779 21:0.41794 22:0.261074 23:0.621842 25:0.353477 26:0.250809 28:0.125197 29:0.182942 53:0.52381 56:0.237331 110:0.164384 111:0.200461 112:0.464455 113:0.196094 114:0.351756 115:0.134548 120:0.645863 121:0.180812 122:0.142384 123:0.181171 125:0.154801 126:0.22138 128:0.187073 129:0.247359 153:0.174233 156:0.864428 210:0.335693 211:0.230942 212:0.270325 213:0.263236 214:0.529537 215:0.447857 220:0.271102 221:0.309153 222:0.214621 223:0.250396 225:0.751455 226:0.759194 228:0.196002 229:0.238034 253:0.258409 256:0.58141 310:0.644948 311:0.209475 312:0.263343 313:0.290895 314:0.195695 315:0.303331 320:0.535948 321:0.297554 322:0.214953 323:0.294167 325:0.830565 326:0.422743 328:0.113779 329:0.170308 353:0.354261 356:0.55016 410:0.626023 411:0.178043 412:0.286713 413:0.278549 414:0.181185 415:0.781543 420:0.174797 421:0.560548 422:0.58522 423:0.433305 425:0.406146 426:0.382705 428:0.14227 429:0.153649 453:0.288709 456:0.366804 1900:1 2000:1 
0.1 10:0.185606 11:0.204283 12:0.477543 13:0.259712 14:0.355366 15:0.139972 20:0.565031 21:0.165449 22:0.144295 23:0.231055 25:0.154801 26:0.218447 28:0.180431 29:0.245983 53:0.25 56:0.875039 110:0.289384 111:0.210253 112:0.270819 113:0.275781 114:0.501951 115:0.451997 120:0.289621 121:0.346125 122:0.224503 123:0.251582 125:0.752483 126:0.768519 128:0.16763 129:0.257924 153:0.266944 156:0.582711 210:0.671385 211:0.2287 212:0.254065 213:0.269202 214:0.192171 215:0.286429 220:0.554363 221:0.285424 222:0.211268 223:0.259905 225:0.836243 226:0.417688 228:0.150472 229:0.176133 253:0.311449 256:0.548659 310:0.683664 311:0.178653 312:0.283708 313:0.278549 314:0.169602 315:0.797307 320:0.164125 321:0.52106 322:0.574099 323:0.455833 325:0.406146 326:0.362847 328:0.141962 329:0.150386 353:0.303003 356:0.361342 410:0.38707 411:0.166667 412:0.283916 413:0.633488 414:0.27108 415:0.190339 420:0.593496 421:0.543793 422:0.368176 423:0.434155 425:0.253322 426:0.549658 428:0.144838 429:0.196543 453:0.475321 456:0.74026 1900:1 2000:1 
0.1 10:0.323864 11:0.213619 12:0.288639 13:0.333094 14:0.506545 15:0.455432 20:0.253374 21:0.314286 22:0.227517 23:0.297177 25:0.752483 26:0.744337 28:0.160968 29:0.256489 53:0.334204 56:0.589865 110:0.57363 111:0.207949 112:0.25457 113:0.282031 114:0.193758 115:0.293623 120:0.567321 121:0.320295 122:0.221192 123:0.261076 125:0.836921 126:0.440236 128:0.12454 129:0.197638 153:0.319373 156:0.550062 210:0.712841 211:0.19843 212:0.273713 213:0.257271 214:0.163701 215:0.784286 220:0.188126 221:0.508475 222:0.572099 223:0.413629 225:0.411471 226:0.357268 228:0.180455 229:0.15635 253:0.256792 256:0.364317 310:0.407932 311:0.167237 312:0.280899 313:0.633488 314:0.253751 315:0.216159 320:0.612927 321:0.506114 322:0.356475 323:0.456667 325:0.253322 326:0.532118 328:0.144572 329:0.193445 353:0.470428 356:0.738019 410:0.644845 411:0.205347 412:0.259441 413:0.285494 414:0.207666 415:0.482336 420:0.223577 421:0.284844 422:0.533289 423:0.428207 425:0.673588 426:0.577911 428:0.128916 429:0.172855 453:0.277552 456:0.586633 1900:0.75 2000:1 
0.1 10:0.638258 11:0.211422 12:0.272787 13:0.338849 14:0.196335 15:0.29805 20:0.496319 21:0.29103 22:0.224161 23:0.306092 25:0.836921 26:0.428803 28:0.117833 29:0.196539 53:0.381823 56:0.556815 110:0.608733 111:0.176843 112:0.274204 113:0.269531 114:0.16775 115:0.78206 120:0.208275 121:0.5631 122:0.577483 123:0.414557 125:0.413907 126:0.382155 128:0.152916 129:0.178372 153:0.265345 156:0.366294 210:0.417594 211:0.18722 212:0.271003 213:0.600298 214:0.255516 215:0.198571 220:0.630186 221:0.493559 222:0.353454 223:0.414422 225:0.25852 226:0.528021 228:0.183232 229:0.199107 253:0.435317 256:0.732065 310:0.705382 311:0.20605 312:0.25632 313:0.285494 314:0.19439 315:0.503189 320:0.216412 321:0.275136 322:0.522029 323:0.450833 325:0.673588 326:0.560764 328:0.128392 329:0.169666 353:0.292994 356:0.583067 410:0.613748 411:0.180319 412:0.611888 413:0.581019 414:0.208362 415:0.269647 420:0.199187 421:0.498096 422:0.240346 423:0.582838 425:0.475914 426:0.724315 428:0.145865 429:0.346991 453:0.489182 456:0.378841 1900:0.75 2000:1 
0.1 10:0.677083 11:0.181768 12:0.291942 13:0.327338 14:0.170157 15:0.783426 20:0.182209 21:0.509635 22:0.585235 23:0.450223 25:0.413907 26:0.372977 28:0.146239 29:0.177379 53:0.332753 56:0.37079 110:0.358733 111:0.165323 112:0.271496 113:0.628906 114:0.251625 115:0.207428 120:0.641655 121:0.546863 122:0.361589 123:0.415348 125:0.261589 126:0.546296 128:0.155544 129:0.220012 153:0.441816 156:0.732898 210:0.736097 211:0.225336 212:0.24729 213:0.263982 214:0.190747 215:0.487857 220:0.239628 221:0.263051 222:0.519785 223:0.408875 225:0.679135 226:0.556918 228:0.166019 229:0.175495 253:0.246119 256:0.580786 310:0.6695 311:0.180936 312:0.610253 313:0.581019 314:0.195042 315:0.294118 320:0.190269 321:0.465353 322:0.228304 323:0.6025 325:0.475914 326:0.709201 328:0.145616 329:0.344473 353:0.482863 356:0.373482 410:0.744681 411:0.187713 412:0.24965 413:0.395062 414:0.180488 415:0.627253 420:0.384146 421:0.255903 422:0.556591 423:0.414613 425:0.400332 426:0.449486 428:0.126348 429:0.154289 453:0.382015 456:0.439658 1900:1 2000:1 
0.1 10:0.400568 11:0.170785 12:0.2893 13:0.658273 14:0.254581 15:0.212396 20:0.56135 21:0.495017 22:0.366443 23:0.450966 25:0.261589 26:0.530744 28:0.148869 29:0.218789 53:0.493031 56:0.741895 110:0.628425 111:0.204493 112:0.2478 113:0.276562 114:0.192458 115:0.49124 120:0.258766 121:0.295941 122:0.525828 123:0.40981 125:0.680464 126:0.574074 128:0.139254 129:0.197017 153:0.254795 156:0.58209 210:0.697674 211:0.200673 212:0.588753 213:0.54959 214:0.191459 215:0.277143 220:0.213877 221:0.452881 222:0.224681 223:0.55309 225:0.481297 226:0.706655 228:0.184342 229:0.349075 253:0.448577 256:0.37617 310:0.820585 311:0.188356 312:0.246489 313:0.395062 314:0.16895 315:0.645641 320:0.388526 321:0.249321 322:0.545394 323:0.4375 325:0.400332 326:0.430556 328:0.125783 329:0.151028 353:0.386715 356:0.434824 410:0.462357 411:0.424346 412:0.322378 413:0.516975 414:0.216028 415:0.361932 420:0.322493 421:0.706778 422:0.225033 423:0.436703 425:0.412791 426:0.664384 428:0.151515 429:0.391165 453:0.644016 456:0.368388 1900:1 2000:1 
0.1 10:0.841856 11:0.396485 12:0.411493 13:0.472662 14:0.132199 15:0.328691 20:0.322086 21:0.422591 22:0.403356 23:0.389302 25:0.620033 26:0.436084 28:0.0899527 29:0.145859 53:0.460511 56:0.440667 110:0.631849 111:0.11924 112:0.448883 113:0.498437 114:0.120286 115:0.292221 120:0.299439 121:0.357934 122:0.493377 123:0.782437 125:0.512417 126:0.454545 128:0.10247 129:0.222498 153:0.454604 156:0.422575 210:0.85541 211:0.44787 212:0.266938 213:0.192394 214:0.140925 215:0.465714 220:0.408441 221:0.328814 222:0.527834 223:0.222662 225:0.620116 226:0.34676 228:0.298168 229:0.125718 253:0.351876 256:0.570805 310:0.747875 311:0.331621 312:0.555478 313:0.350309 314:0.121983 315:0.645641 320:0.124183 321:0.60462 322:0.290387 323:0.353333 325:0.539867 326:0.460938 328:0.0793319 329:0.10347 353:0.326054 356:0.446965 410:0.332242 411:0.514221 412:0.558042 413:0.539352 414:0.227178 415:0.467195 420:0.117886 421:0.593298 422:0.313582 423:0.527613 425:0.745847 426:0.597603 428:0.0806369 429:0.12356 453:0.480392 456:0.280013 1900:0.5 2000:1 
0.1 10:0.702652 11:0.126853 12:0.462351 13:0.538129 14:0.122382 15:0.296657 20:0.261963 21:0.324917 22:0.5 23:0.795691 25:0.512417 26:0.442557 28:0.0957391 29:0.221261 53:0.504646 56:0.427762 110:0.729452 111:0.43318 112:0.267434 113:0.201563 114:0.146944 115:0.469516 120:0.424264 121:0.367528 122:0.533775 123:0.223892 125:0.621689 126:0.372054 128:0.264319 129:0.148539 153:0.359335 156:0.572139 210:0.781598 211:0.348655 212:0.535908 213:0.326622 214:0.111744 215:0.631429 220:0.148784 221:0.591864 222:0.287056 223:0.316165 225:0.545303 226:0.456217 228:0.113826 229:0.109764 253:0.281371 256:0.44791 310:0.344665 311:0.515982 312:0.55618 313:0.539352 314:0.212655 315:0.488306 320:0.103123 321:0.550272 322:0.301736 323:0.548333 325:0.745847 326:0.580729 328:0.0793319 329:0.12018 353:0.474977 356:0.273802 410:0.48527 411:0.0967008 412:0.491608 413:0.516204 414:0.100348 415:0.729632 420:0.23916 421:0.656512 422:0.541278 423:0.404418 425:0.565615 426:0.380137 428:0.0729327 429:0.0909091 453:0.422921 456:0.29395 1900:0.75 2000:1 
0.1 10:0.810606 11:0.426139 12:0.285337 13:0.264748 14:0.149215 15:0.472841 20:0.371166 21:0.333555 22:0.54094 23:0.271174 25:0.621689 26:0.363269 28:0.257759 29:0.147713 53:0.418118 56:0.579163 110:0.666952 111:0.331221 112:0.536222 113:0.342187 114:0.120286 115:0.632095 120:0.169705 121:0.653875 122:0.296026 123:0.317247 125:0.547185 126:0.477273 128:0.0898581 129:0.133002 153:0.289642 156:0.449627 210:0.349848 211:0.529709 212:0.536585 213:0.509321 214:0.210676 215:0.472857 220:0.12804 221:0.537627 222:0.298457 223:0.501585 225:0.751455 226:0.577058 228:0.113826 229:0.126356 253:0.440168 256:0.278852 310:0.521246 311:0.097032 312:0.489466 313:0.516204 314:0.0939335 315:0.746279 320:0.233115 321:0.606658 322:0.53004 323:0.4275 325:0.565615 326:0.360243 328:0.0715031 329:0.0874036 353:0.423415 356:0.287859 410:0.254501 411:0.0841866 412:0.34965 413:0.32716 414:0.600697 415:0.356885 420:0.278455 421:0.288652 422:0.411451 423:0.392523 425:0.392027 426:0.346747 428:0.202363 429:0.74968 453:0.773496 456:0.253405 1900:0.75 2000:1 
0.1 10:0.49053 11:0.199341 12:0.166446 13:0.233094 14:0.32199 15:0.446379 20:0.370552 21:0.166777 22:0.153691 23:0.220654 25:0.403146 26:0.423139 28:0.16728 29:0.222497 53:0.247387 56:0.7356 110:0.26113 111:0.192972 112:0.508463 113:0.585156 114:0.241873 115:0.452698 120:0.571529 121:0.621402 122:0.280132 123:0.558544 125:0.571192 126:0.305556 128:0.209143 129:0.25606 153:0.640345 156:0.37842 210:0.456016 211:0.520179 212:0.661247 213:0.602535 214:0.281851 215:0.465714 220:0.54578 221:0.493559 222:0.300469 223:0.366086 225:0.550291 226:0.466725 228:0.267074 229:0.254627 253:0.384864 256:0.430131 310:0.300283 311:0.253425 312:0.268961 313:0.283951 314:0.342466 315:0.277817 320:0.372549 321:0.258832 322:0.254339 323:0.2875 325:0.270764 326:0.467882 328:0.218685 329:0.264781 353:0.323628 356:0.928115 410:0.280687 411:0.17463 412:0.746154 413:0.405093 414:0.214634 415:0.296323 420:0.207995 421:0.669459 422:0.582557 423:0.516568 425:0.684385 426:0.307363 428:0.144325 429:0.185659 453:0.438134 456:0.394362 1900:1 2000:1 
0.1 10:0.292614 11:0.197144 12:0.520476 13:0.617986 14:0.244764 15:0.456128 20:0.5 21:0.562126 22:0.283893 23:0.585438 25:0.571192 26:0.299353 28:0.202525 29:0.254635 53:0.673345 56:0.383066 110:0.391267 111:0.507488 112:0.661476 113:0.63125 114:0.275683 115:0.469516 120:0.558906 121:0.546863 122:0.309272 123:0.367089 125:0.552152 126:0.487374 128:0.234892 129:0.274083 153:0.391944 156:0.431903 210:0.302326 211:0.271861 212:0.259485 213:0.262491 214:0.352313 215:0.260714 220:0.393419 221:0.24678 222:0.250838 223:0.253566 225:0.275977 226:0.463222 228:0.262077 229:0.269943 253:0.278784 256:0.917654 310:0.285175 311:0.175228 312:0.745084 313:0.405093 314:0.200913 315:0.32034 320:0.19971 321:0.618207 322:0.571429 323:0.5375 325:0.684385 326:0.286458 328:0.14405 329:0.182519 353:0.437064 356:0.389137 410:0.242226 411:0.473834 412:0.807692 413:0.614198 414:0.189547 415:0.52199 420:0.185637 421:0.376238 422:0.470706 423:0.3339 425:0.5 426:0.239726 428:0.126348 429:0.15493 453:0.502705 456:0.380424 1900:0.75 2000:1 
0.07448110302133146 10:0.292614 11:0.253707 12:0.278071 13:0.332374 14:0.343586 15:0.272981 20:0.358282 21:0.253156 22:0.263758 23:0.300149 25:0.278974 26:0.470874 28:0.223567 29:0.287392 53:0.352497 56:0.929178 110:0.247432 111:0.173387 112:0.719025 113:0.397656 114:0.19896 115:0.310441 120:0.242637 121:0.668635 122:0.574834 123:0.492089 125:0.691225 126:0.308081 128:0.155018 129:0.209447 153:0.40665 156:0.393346 210:0.238625 211:0.48991 212:0.778455 213:0.581655 214:0.172242 215:0.527143 220:0.199571 221:0.344407 222:0.45674 223:0.320919 225:0.505403 226:0.211033 228:0.163243 229:0.157626 253:0.461514 256:0.377729 310:0.686497 311:0.510274 312:0.581461 313:0.318673 314:0.225701 315:0.313962 320:0.250545 321:0.581522 322:0.222296 323:0.295833 325:0.607973 326:0.511285 328:0.140919 329:0.182519 353:0.317561 356:0.573802 410:0.553191 411:0.172355 412:0.658741 413:0.570216 414:0.201394 415:0.533526 420:0.203252 421:0.584158 422:0.258988 423:0.634664 425:0.345515 426:0.460616 428:0.158706 429:0.191421 453:0.60142 456:0.315806 1900:1 2000:1 
0.008274375446889424 10:0.193182 11:0.176277 12:0.22325 13:0.329496 14:0.83966 15:0.211699 20:0.343558 21:0.233887 22:0.172483 23:0.325409 25:0.229305 26:0.212783 28:0.312993 29:0.476514 53:0.608014 56:0.592698 110:0.292808 111:0.230415 112:0.262695 113:0.2875 114:0.320546 115:0.26349 120:0.419355 121:0.314391 122:0.613907 123:0.272152 125:0.634106 126:0.54798 128:0.191802 129:0.254817 153:0.287084 156:0.675062 210:0.292214 211:0.197309 212:0.28523 213:0.354959 214:0.313167 215:0.248571 220:0.270386 221:0.308475 222:0.590208 223:0.375594 225:0.353283 226:0.605079 228:0.260411 229:0.563497 253:0.65718 256:0.489707 310:0.259679 311:0.103311 312:0.348315 313:0.590278 314:0.144814 315:0.278526 320:0.200436 321:0.347826 322:0.258344 323:0.5075 325:0.32309 326:0.236979 328:0.127349 329:0.189589 353:0.775857 356:0.256869 410:0.248773 411:0.128555 412:0.528671 413:0.321759 414:0.147038 415:0.214131 420:0.161247 421:0.252856 422:0.958722 423:0.248938 425:0.269103 426:0.228596 428:0.0898819 429:0.12612 453:0.266396 456:0.411783 1900:1 2000:1 
0.1 10:0.283144 11:0.18067 12:0.30317 13:0.421583 14:0.307592 15:0.261142 20:0.252761 21:0.313621 22:0.603356 23:0.414562 25:0.35596 26:0.601942 28:0.221988 29:0.571693 53:0.692218 56:0.497325 110:0.224315 111:0.100806 112:0.336493 113:0.585156 114:0.143043 115:0.269096 120:0.243338 121:0.374908 122:0.264238 123:0.463608 125:0.331126 126:0.260101 128:0.138203 129:0.216283 153:0.763747 156:0.264614 210:0.246714 211:0.149664 212:0.50813 213:0.299031 214:0.128826 215:0.222143 220:0.17382 221:0.234576 222:0.948357 223:0.24168 225:0.274314 226:0.19965 228:0.12382 229:0.128909 253:0.235446 256:0.408609 310:0.196412 311:0.0953196 312:0.255618 313:0.364969 314:0.508154 315:0.223246 320:0.210603 321:0.313179 322:0.479973 323:0.450833 325:0.266611 326:0.193576 328:0.169624 329:0.254499 353:0.747649 356:0.282109 410:0.444354 411:0.145051 412:0.360839 413:0.657407 414:0.186063 415:0.271089 420:0.212737 421:0.373953 422:0.256325 423:0.632116 425:0.556478 426:0.288527 428:0.14227 429:0.234955 453:0.906356 456:0.277479 1900:1 2000:1 
0.04387642982575904 10:0.251894 11:0.109281 12:0.352708 13:0.617986 14:0.145288 15:0.273677 20:0.212883 21:0.340199 22:0.267785 23:0.496285 25:0.331126 26:0.255663 28:0.13151 29:0.21508 53:0.785424 56:0.267863 110:0.214041 111:0.126728 112:0.508463 113:0.313281 114:0.135891 115:0.230554 120:0.19425 121:0.264945 122:0.949007 123:0.24288 125:0.277318 126:0.23064 128:0.0993169 129:0.151647 153:0.244246 156:0.410448 210:0.191102 211:0.116592 212:0.246612 213:0.34079 214:0.533096 215:0.205714 220:0.233906 221:0.301017 222:0.477532 223:0.408875 225:0.27182 226:0.186515 228:0.209883 229:0.259732 253:0.730918 256:0.286962 310:0.474032 311:0.145548 312:0.358146 313:0.657407 314:0.174168 315:0.295535 320:0.204793 321:0.35462 322:0.244326 323:0.650833 325:0.556478 326:0.267361 328:0.141962 329:0.232005 353:0.857143 356:0.271246 410:0.285597 411:0.180887 412:0.514685 413:0.378086 414:0.301045 415:0.253064 420:0.239837 421:0.532369 422:0.234354 423:0.569244 425:0.560631 426:0.669521 428:0.199281 429:0.537772 453:0.617985 456:0.463415 1900:1 2000:1 
0.1 10:0.173295 11:0.144975 12:0.229194 13:0.346763 14:0.707461 15:0.204735 20:0.258282 21:0.277741 22:0.163087 23:0.359584 25:0.240066 26:0.194984 28:0.35455 29:0.794808 53:0.761324 56:0.399119 110:0.36387 111:0.22523 112:0.529452 113:0.353906 114:0.479844 115:0.323055 120:0.304348 121:0.567528 122:0.251656 123:0.306962 125:0.762417 126:0.492424 128:0.206516 129:0.461156 153:0.342072 156:0.601679 210:0.374115 211:0.272982 212:0.296748 213:0.303505 214:0.241281 215:0.275714 220:0.311159 221:0.343729 222:0.259557 223:0.296355 225:0.566916 226:0.909807 228:0.199334 229:0.226548 253:0.304657 256:0.589832 310:0.694051 311:0.241438 312:0.358848 313:0.358025 314:0.198956 315:0.62438 320:0.20915 321:0.560462 322:0.272363 323:0.360833 325:0.766611 326:0.5 328:0.148747 329:0.196015 353:0.387625 356:0.336422 410:0.331424 411:0.236633 412:0.248252 413:0.306327 414:0.329617 415:0.222062 420:0.615854 421:0.275704 422:0.223702 423:0.497026 425:0.561462 426:0.346747 428:0.164869 429:0.241997 453:0.378972 456:0.826101 1900:0.75 2000:1 
0.1 10:0.40625 11:0.227897 12:0.540951 13:0.405036 14:0.484293 15:0.327298 20:0.266258 21:0.513621 22:0.255034 23:0.349183 25:0.762417 26:0.478964 28:0.199895 29:0.458591 53:0.402439 56:0.609065 110:0.321918 111:0.253456 112:0.297224 113:0.317969 114:0.238622 115:0.283111 120:0.328892 121:0.383764 122:0.268874 123:0.297468 125:0.568709 126:0.9133 128:0.170783 129:0.246737 153:0.31266 156:0.591107 210:0.723964 211:0.26009 212:0.346206 213:0.334079 214:0.19573 215:0.61 220:0.232475 221:0.547797 222:0.268947 223:0.323296 225:0.772236 226:0.495622 228:0.187674 229:0.201659 253:0.347025 256:0.339988 310:0.34372 311:0.237443 312:0.245084 313:0.306327 314:0.308545 315:0.247342 320:0.636892 321:0.266984 322:0.211615 323:0.518333 325:0.561462 326:0.326389 328:0.164927 329:0.239075 353:0.383985 356:0.824601 410:0.342062 411:0.239477 412:0.323776 413:0.35108 414:0.244599 415:0.370584 420:0.27981 421:0.389185 422:0.280959 423:0.341546 425:0.546512 426:0.923801 428:0.162815 429:0.21767 453:0.465179 456:0.495407 1900:0.5 2000:1 
0.1 10:0.359848 11:0.254805 12:0.314399 13:0.371942 14:0.241492 15:0.287604 20:0.28773 21:0.348173 22:0.272483 23:0.340267 25:0.568709 26:0.883495 28:0.164124 29:0.245365 53:0.375726 56:0.598363 110:0.618151 111:0.240207 112:0.346649 113:0.35 114:0.197009 115:0.611072 120:0.251753 121:0.605904 122:0.278146 123:0.324367 125:0.773179 126:0.515152 128:0.159748 129:0.222498 153:0.35454 156:0.34204 210:0.348837 211:0.256166 212:0.23645 213:0.284116 214:0.315302 215:0.23 220:0.653791 221:0.254915 222:0.207914 223:0.473059 225:0.566916 226:0.32049 228:0.204886 229:0.244416 253:0.343144 256:0.816594 310:0.355996 311:0.240297 312:0.320927 313:0.35108 314:0.228963 315:0.393338 320:0.276688 321:0.368207 322:0.269025 323:0.365833 325:0.546512 326:0.911458 328:0.162839 329:0.214653 353:0.461328 356:0.491054 410:0.449264 411:0.233788 412:0.327273 413:0.368827 414:0.32892 415:0.303533 420:0.262873 421:0.389947 422:0.271638 423:0.520816 425:0.714286 426:0.723459 428:0.214176 429:0.535211 453:0.54023 456:0.500158 1900:0.5 2000:1 
0.1 10:0.6875 11:0.242175 12:0.362616 13:0.401439 14:0.199607 15:0.61351 20:0.220245 21:0.548173 22:0.281879 23:0.365527 25:0.773179 26:0.500809 28:0.153077 29:0.221261 53:0.413763 56:0.346239 110:0.300514 111:0.236175 112:0.236967 113:0.297656 114:0.306242 115:0.238262 120:0.664797 121:0.287085 122:0.217881 123:0.473892 125:0.568709 126:0.346801 128:0.176038 129:0.264139 153:0.350703 156:0.817164 210:0.361982 211:0.258969 212:0.309621 213:0.327368 214:0.22847 215:0.377143 220:0.298999 221:0.355932 222:0.265594 223:0.328051 225:0.551953 226:0.910683 228:0.202665 229:0.220166 253:0.425614 256:0.490954 310:0.479698 311:0.234589 312:0.324438 313:0.368827 314:0.307893 315:0.327427 320:0.258533 321:0.368886 322:0.25968 323:0.541667 325:0.714286 326:0.708333 328:0.215031 329:0.533419 353:0.528662 356:0.495847 410:0.349427 411:0.128555 412:0.796503 413:0.791667 414:0.179094 415:0.280461 420:0.180894 421:0.670982 422:0.254328 423:0.427358 425:0.453488 426:0.280822 428:0.109399 429:0.167734 453:0.415822 456:0.403231 1900:0.75 2000:1 
0.09731737322542558 10:0.348485 11:0.241076 12:0.326948 13:0.394964 14:0.229712 15:0.38649 20:0.277301 21:0.360133 22:0.278523 23:0.369985 25:0.553808 26:0.884304 28:0.16728 29:0.239184 53:0.484321 56:0.498584 110:0.423801 111:0.233295 112:0.313473 113:0.360938 114:0.305592 115:0.317449 120:0.299439 121:0.397786 122:0.265563 123:0.496044 125:0.721026 126:0.717172 128:0.226484 129:0.548788 153:0.503197 156:0.497201 210:0.371082 211:0.149664 212:0.767615 213:0.753169 214:0.161566 215:0.287857 220:0.194564 221:0.60678 222:0.238766 223:0.408082 225:0.458853 226:0.253065 228:0.144919 229:0.170389 253:0.378396 256:0.400187 310:0.296506 311:0.185502 312:0.427669 313:0.351852 314:0.187215 315:0.537916 320:0.19971 321:0.852582 322:0.220294 323:0.365 325:0.577243 326:0.563368 328:0.117432 329:0.187018 353:0.416439 356:0.420447 410:0.38216 411:0.216155 412:0.14965 413:0.194444 414:0.463415 415:0.14708 420:0.557588 421:0.148515 422:0.352863 423:0.293968 425:0.288206 426:0.263699 428:0.164869 429:0.240077 453:0.198445 456:0.885968 1900:1 2000:1 
0.1 10:0.221591 11:0.21966 12:0.219287 13:0.272662 14:0.866492 15:0.247214 20:0.379755 21:0.219269 22:0.167785 23:0.225854 25:0.240066 26:0.231392 28:0.412415 29:0.606304 53:0.362369 56:0.61536 110:0.320205 111:0.139977 112:0.563304 113:0.891406 114:0.212614 115:0.316748 120:0.282609 121:0.457565 122:0.342384 123:0.602848 125:0.437914 126:0.346801 128:0.206516 129:0.277812 153:0.560742 156:0.344216 210:0.276036 211:0.171525 212:0.874661 213:0.577927 214:0.190747 215:0.371429 220:0.181688 221:0.524068 222:0.308518 223:0.417591 225:0.424771 226:0.303853 228:0.154914 229:0.186981 253:0.417529 256:0.296007 310:0.470255 311:0.210046 312:0.370084 313:0.309414 314:0.221135 315:0.912828 320:0.18809 321:0.412364 322:0.264352 323:0.328333 325:0.416944 326:0.260417 328:0.215031 329:0.183162 353:0.373976 356:0.269649 410:0.423077 411:0.309443 412:0.393007 413:0.412809 414:0.310801 415:0.344629 420:0.343496 421:0.469916 422:0.352197 423:0.404418 425:0.566445 426:0.846747 428:0.217257 429:0.284891 453:0.455037 456:0.566677 1900:1 2000:1 
0.1 10:0.200758 11:0.189456 12:0.21004 13:0.331655 14:0.340314 15:0.177577 20:0.390184 21:0.215282 22:0.179866 23:0.343982 25:0.209437 26:0.224919 28:0.186744 29:0.253399 53:0.625145 56:0.727731 110:0.214897 111:0.109447 112:0.330399 113:0.652344 114:0.288036 115:0.578837 120:0.246844 121:0.358672 122:0.217881 123:0.6875 125:0.307119 126:0.227273 128:0.235943 129:0.601616 153:0.755754 156:0.271455 210:0.17998 211:0.100897 212:0.246612 213:0.350485 214:0.149466 215:0.200714 220:0.218169 221:0.309831 222:0.173709 223:0.425515 225:0.270989 226:0.181261 228:0.172682 229:0.196554 253:0.760996 256:0.246101 310:0.173749 311:0.125 312:0.474719 313:0.361883 314:0.141553 315:0.362863 320:0.132171 321:0.976902 322:0.185581 323:0.38 325:0.388704 326:0.289931 328:0.0772443 329:0.163882 353:0.445557 356:0.176677 410:0.189853 411:0.209329 412:0.106993 413:0.145833 414:0.409059 415:0.0886806 420:0.450542 421:0.0944402 422:0.135819 423:0.158029 425:0.114618 426:0.203767 428:0.193631 429:0.238156 453:0.178161 456:0.812797 1900:0.5 2000:1 
0.1 10:0.241477 11:0.117518 12:0.346764 13:0.679856 14:0.29123 15:0.581476 20:0.215951 21:0.325581 22:0.220805 23:0.706538 25:0.307119 26:0.22411 28:0.229353 29:0.598269 53:0.778165 56:0.274788 110:0.157534 111:0.0766129 112:0.247123 113:0.367188 114:0.154746 115:0.20953 120:0.237728 121:0.346863 122:0.184106 123:0.426424 125:0.274007 126:0.212963 128:0.14556 129:0.217526 153:0.763747 156:0.248445 210:0.166835 211:0.14574 212:0.457995 213:0.337808 214:0.133096 215:0.346429 220:0.156652 221:0.96339 222:0.181757 223:0.341521 225:0.394015 226:0.283713 228:0.111605 229:0.169751 253:0.408797 256:0.18403 310:0.180359 311:0.210046 312:0.10323 313:0.145833 314:0.382909 315:0.11623 320:0.459695 321:0.105299 322:0.123498 323:0.185833 325:0.114618 326:0.181424 328:0.194154 329:0.235219 353:0.203822 356:0.811182 410:0.194763 411:0.210466 412:0.121678 413:0.135031 414:0.393728 415:0.0857967 420:0.427507 421:0.0997715 422:0.138482 423:0.137638 425:0.11794 426:0.221747 428:0.175141 429:0.231114 453:0.158215 456:0.935698 1900:0.5 2000:1 
0.1 10:0.807765 11:0.177924 12:0.194188 13:0.289928 14:0.183246 15:0.239554 20:0.223926 21:0.192691 22:0.320134 23:0.505201 25:0.442881 26:0.389159 28:0.10626 29:0.18665 53:0.585075 56:0.687756 110:0.678938 111:0.146313 112:0.590386 113:0.6125 114:0.130039 115:0.346181 120:0.183029 121:0.442804 122:0.515894 123:0.239715 125:0.572848 126:0.449495 128:0.093011 129:0.155376 153:0.33376 156:0.433147 210:0.557128 211:0.180493 212:0.123984 213:0.140194 214:0.503915 215:0.146429 220:0.419886 221:0.12678 222:0.327968 223:0.140254 225:0.41729 226:0.225919 228:0.184897 229:0.200383 253:0.318564 256:0.748596 310:0.462701 311:0.138128 312:0.168539 313:0.202932 314:0.175473 315:0.170092 320:0.450254 321:0.281929 322:0.695594 323:0.435833 325:0.374585 326:0.618924 328:0.0887265 329:0.124679 353:0.356385 356:0.71246 410:0.726678 411:0.131399 412:0.39021 413:0.213735 414:0.452962 415:0.180966 420:0.191057 421:0.162986 422:0.575233 423:0.374681 425:0.341362 426:0.15839 428:0.0832049 429:0.149808 453:0.607167 456:0.665188 1900:0.75 2000:1 
0.1 10:0.264205 11:0.173531 12:0.260898 13:0.323741 14:0.210079 15:0.218663 20:0.247853 21:0.198671 22:0.919463 23:0.271174 25:0.261589 26:0.253236 28:0.11415 29:0.189122 53:0.29878 56:0.666352 110:0.212329 111:0.124424 112:0.595125 113:0.434375 114:0.158648 115:0.293623 120:0.401823 121:0.697417 122:0.251656 123:0.418513 125:0.358444 126:0.457071 128:0.130846 129:0.210068 153:0.700128 156:0.290423 210:0.435794 211:0.177691 212:0.313008 213:0.599553 214:0.198577 215:0.372857 220:0.253219 221:0.24 222:0.820255 223:0.319334 225:0.291771 226:0.220665 228:0.158245 229:0.171666 253:0.368693 256:0.5733 310:0.325779 311:0.155822 312:0.682584 313:0.712963 314:0.154599 315:0.427356 320:0.16122 321:0.519701 322:0.255007 323:0.445833 325:0.708472 326:0.3125 328:0.117954 329:0.172237 353:0.543828 356:0.241853 410:0.239771 411:0.102958 412:0.802098 413:0.763889 414:0.140767 415:0.260274 420:0.184959 421:0.513328 422:0.254993 423:0.836024 425:0.44103 426:0.26113 428:0.125321 429:0.170294 453:0.45808 456:0.230282 1900:0.75 2000:1 
0.01746481499572429 10:0.417614 11:0.16145 12:0.330251 13:0.657554 14:0.202225 15:0.382312 20:0.238037 21:0.246512 22:0.833557 23:0.361813 25:0.294702 26:0.246764 28:0.125197 29:0.192213 53:0.433217 56:0.581681 110:0.284247 111:0.153802 112:0.658768 113:0.709375 114:0.152796 115:0.416258 120:0.20547 121:0.561624 122:0.260927 123:0.405063 125:0.715232 126:0.333333 128:0.128744 129:0.199503 153:0.519182 156:0.25 210:0.235592 211:0.124439 212:0.773035 213:0.726324 214:0.12242 215:0.267857 220:0.198856 221:0.466441 222:0.239437 223:0.789223 225:0.446384 226:0.232925 228:0.162132 229:0.172942 253:0.418823 256:0.229881 310:0.189802 311:0.215753 312:0.110253 313:0.153549 314:0.389432 315:0.123317 320:0.466231 321:0.112092 322:0.130174 323:0.194167 325:0.122924 326:0.190104 328:0.199374 329:0.241645 353:0.212618 356:0.814696 410:0.214403 411:0.552901 412:0.355245 413:0.401235 414:0.229965 415:0.255948 420:0.20393 421:0.747906 422:0.207057 423:0.682243 425:0.312292 426:0.235445 428:0.145865 429:0.334187 453:0.870521 456:0.243586 1900:1 2000:1 
0.1 10:0.181818 11:0.217463 12:0.128798 13:0.210791 14:0.390707 15:0.12117 20:0.437423 21:0.109635 22:0.138926 23:0.216939 25:0.131623 26:0.211974 28:0.204103 29:0.265142 53:0.246225 56:0.817438 110:0.178082 111:0.556452 112:0.340555 113:0.39375 114:0.213264 115:0.271198 120:0.238429 121:0.744649 122:0.201325 123:0.646361 125:0.320364 126:0.237374 128:0.156595 129:0.353636 153:0.815537 156:0.245336 210:0.210313 211:0.112668 212:0.612466 213:0.409396 214:0.145196 215:0.245714 220:0.198856 221:0.349153 222:0.22334 223:0.418384 225:0.301746 226:0.197898 228:0.153248 229:0.223357 253:0.937257 256:0.232689 310:0.501416 311:0.193493 312:0.322331 313:0.38966 314:0.178735 315:0.325301 320:0.210603 321:0.350543 322:0.255674 323:0.411667 325:0.775748 326:0.336806 328:0.124739 329:0.188303 353:0.605702 356:0.429393 410:0.382979 411:0.209898 412:0.392308 413:0.587963 414:0.185366 415:0.334535 420:0.183604 421:0.648134 422:0.270972 423:0.370433 425:0.906977 426:0.411815 428:0.12378 429:0.18694 453:0.397228 456:0.267659 1900:0.75 2000:1 
0.1 10:0.359848 11:0.260846 12:0.307133 13:0.366187 14:0.257853 15:0.278552 20:0.306135 21:0.33887 22:0.271812 23:0.33581 25:0.496689 26:0.865696 28:0.168858 29:0.254635 53:0.37108 56:0.654076 110:0.180651 111:0.127304 112:0.773189 113:0.460938 114:0.153446 115:0.353889 120:0.18864 121:0.914391 122:0.239735 123:0.376582 125:0.40149 126:0.313131 128:0.101944 129:0.196395 153:0.483696 156:0.225746 210:0.200202 211:0.153587 212:0.789973 213:0.436987 214:0.160142 215:0.345714 220:0.176681 221:0.831186 222:0.224681 223:0.358954 225:0.394846 226:0.283713 228:0.124375 229:0.172942 253:0.400388 256:0.314099 310:0.356941 311:0.18379 312:0.405899 313:0.69213 314:0.184605 315:0.323175 320:0.228758 321:0.38587 322:0.285714 323:0.595833 325:0.627076 326:0.582465 328:0.152923 329:0.212082 353:0.631483 356:0.329393 410:0.243863 411:0.209898 412:0.282517 413:0.576389 414:0.370035 415:0.153569 420:0.398374 421:0.224676 422:0.201731 423:0.31096 425:0.216777 426:0.27226 428:0.17206 429:0.241357 453:0.448614 456:0.875515 1900:0.75 2000:1 
0.1 10:0.203598 11:0.134541 12:0.778732 13:0.503597 14:0.155759 15:0.357939 20:0.165031 21:0.825914 22:0.242953 23:0.414562 25:0.40149 26:0.306634 28:0.095213 29:0.195303 53:0.531069 56:0.228517 110:0.174658 111:0.13076 112:0.790115 113:0.457813 114:0.164499 115:0.351787 120:0.197055 121:0.914391 122:0.234437 123:0.359968 125:0.397351 126:0.311448 128:0.0998424 129:0.194531 153:0.407289 156:0.316231 210:0.362993 211:0.203475 212:0.391599 213:0.656972 214:0.180071 215:0.306429 220:0.251788 221:0.373559 222:0.282361 223:0.546751 225:0.632585 226:0.578809 228:0.192115 229:0.217613 253:0.60705 256:0.333125 310:0.242682 311:0.210616 312:0.279494 313:0.576389 314:0.34638 315:0.180014 320:0.403776 321:0.221467 322:0.189586 323:0.335833 325:0.216777 326:0.250868 328:0.172234 329:0.238432 353:0.446466 356:0.874441 410:0.220131 411:0.218999 412:0.584615 413:0.278549 414:0.413937 415:0.155011 420:0.452575 421:0.236101 422:0.180426 423:0.225998 425:0.188538 426:0.242295 428:0.200308 429:0.24968 453:0.246788 456:0.790624 1900:0.5 2000:1 
0.1 10:0.434659 11:0.256452 12:0.32893 13:0.479137 14:0.117147 15:0.219359 20:0.263804 21:0.396013 22:0.238926 23:0.537147 25:0.629967 26:0.587379 28:0.0799579 29:0.344252 53:0.75 56:0.383695 110:0.221747 111:0.135369 112:0.0460393 113:0.0515625 114:0.347854 115:0.0455501 120:0.366059 121:0.0531365 122:0.0635762 123:0.0466772 125:0.0703642 126:0.338384 128:0.096164 129:0.270976 153:0.101343 156:1 210:0.413549 211:0.131166 212:0.482385 213:0.284116 214:0.18363 215:0.367143 220:0.115165 221:0.326102 222:0.659289 223:0.289223 225:0.776392 226:0.325744 228:0.112715 229:0.183791 253:0.615783 256:0.224579 310:0.399433 311:0.135274 312:0.110955 313:0.21142 314:0.42531 315:0.201276 320:0.358751 321:0.0951087 322:0.671562 323:0.116667 325:0.111296 326:0.159722 328:0.0991649 329:0.26671 353:0.147407 356:0.910543 410:0.50491 411:0.210466 412:0.578322 413:0.513117 414:0.602091 415:0.369863 420:0.533198 421:0.472963 422:0.134487 423:0.402719 425:0.440199 426:0.418664 428:0.14227 429:0.480794 453:0.361055 456:0.537536 1900:0.75 2000:1 
0.1 10:0.372159 11:0.0950027 12:0.704756 13:0.702878 14:0.175393 15:0.630223 20:0.114724 21:0.52093 22:0.226846 23:0.523031 25:0.543874 26:0.500809 28:0.0773277 29:0.122991 53:0.413763 56:0.32389 110:0.264555 111:0.0760369 112:0.447529 113:0.639062 114:0.102081 115:0.784863 120:0.334502 121:0.292251 122:0.331126 123:0.349684 125:0.534768 126:0.219697 128:0.383079 129:0.119329 153:0.494246 156:0.424129 210:0.455005 211:0.106502 212:0.563686 213:0.618195 214:0.102491 215:0.289286 220:0.313305 221:0.455593 222:0.594903 223:0.624406 225:0.427265 226:0.325744 228:0.113826 229:0.143586 253:0.65912 256:0.398628 310:0.387158 311:0.310502 312:0.547051 313:0.435185 314:0.186562 315:0.445783 320:0.151053 321:0.779212 322:0.148198 323:0.374167 325:0.401163 326:0.335938 328:0.118998 329:0.430591 353:0.620564 356:0.561661 410:0.342062 411:0.244027 412:0.458741 413:0.314043 414:0.125436 415:0.938717 420:0.0907859 421:0.49048 422:0.154461 423:0.15633 425:0.316445 426:0.120719 428:0.112994 429:0.0877081 453:0.221771 456:0.230915 1900:0.75 2000:1 
0.1 10:0.321023 11:0.197694 12:0.411493 13:0.488489 14:0.202225 15:0.342618 20:0.253374 21:0.659801 22:0.291946 23:0.571322 25:0.494205 26:0.636731 28:0.16202 29:0.249073 53:0.662311 56:0.370161 110:0.294521 111:0.214862 112:0.321598 113:0.478125 114:0.252276 115:0.261388 120:0.387097 121:0.363838 122:0.260265 123:0.860759 125:0.354305 126:0.470539 128:0.201261 129:0.279677 153:0.45844 156:0.673197 210:0.293225 211:0.232623 212:0.26355 213:0.337062 214:0.356584 215:0.239286 220:0.436338 221:0.281356 222:0.228035 223:0.366086 225:0.422278 226:0.271454 228:0.240977 229:0.259094 253:0.595084 256:0.691828 310:0.254013 311:0.248858 312:0.186096 313:0.167438 314:0.381605 315:0.155918 320:0.433551 321:0.161685 322:0.174232 323:0.1825 325:0.17608 326:0.280382 328:0.1738 329:0.256427 353:0.213527 356:0.91853 410:0.298691 411:0.153015 412:0.312587 413:0.338735 414:0.15122 415:0.251622 420:0.165312 421:0.257426 422:0.974035 423:0.28972 425:0.313123 426:0.268836 428:0.115049 429:0.150448 453:0.319473 456:0.297118 1900:1 2000:1 
0.1 10:0.329545 11:0.218012 12:0.338177 13:0.519424 14:0.255236 15:0.266017 20:0.33865 21:0.330233 22:0.263758 23:0.869242 25:0.354305 26:0.457929 28:0.194634 29:0.278121 53:0.50813 56:0.68146 110:0.253425 111:0.211982 112:0.264049 113:0.353125 114:0.343953 115:0.247372 120:0.451613 121:0.315867 122:0.237748 123:0.367089 125:0.424669 126:0.299663 128:0.210194 129:0.278434 153:0.599744 156:0.692786 210:0.252781 211:0.267377 212:0.179539 213:0.149888 214:0.395018 215:0.137857 220:0.453505 221:0.149831 222:0.170355 223:0.153724 225:0.181214 226:0.274081 228:0.214325 229:0.261646 253:0.161384 256:0.908297 310:0.305949 311:0.153539 312:0.309691 313:0.338735 314:0.141553 315:0.2764 320:0.153958 321:0.250679 322:0.963952 323:0.315 325:0.313123 326:0.247396 328:0.114301 329:0.147172 353:0.330604 356:0.291054 410:0.576923 411:0.243458 412:0.286713 413:0.451389 414:0.344251 415:0.277578 420:0.498645 421:0.270373 422:0.257656 423:0.338148 425:0.330565 426:0.318493 428:0.175141 429:0.246479 453:0.478026 456:0.777003 1900:0.75 2000:1 
0.1 10:0.284091 11:0.215266 12:0.282034 13:0.404317 14:0.347513 15:0.252089 20:0.395092 21:0.287043 22:0.24094 23:0.405646 25:0.424669 26:0.293689 28:0.203577 29:0.276885 53:0.636469 56:0.701291 110:0.219178 111:0.247696 112:0.180095 113:0.157031 114:0.379064 115:0.147863 120:0.468443 121:0.172694 122:0.180795 123:0.155063 125:0.184603 126:0.302189 128:0.184971 129:0.28092 153:0.171036 156:0.908582 210:0.308392 211:0.173767 212:0.29878 213:0.315436 214:0.133096 215:0.259286 220:0.178112 221:0.238644 222:0.963783 223:0.279715 225:0.318371 226:0.240806 228:0.151027 229:0.153159 253:0.286223 256:0.295696 310:0.627007 311:0.244292 312:0.283708 313:0.451389 314:0.322244 315:0.301914 320:0.511256 321:0.262228 322:0.245661 323:0.3625 325:0.330565 326:0.297743 328:0.175365 329:0.243573 353:0.472854 356:0.77508 410:0.314239 411:0.165529 412:0.44965 413:0.35108 414:0.193031 415:0.783706 420:0.172087 421:0.888804 422:0.235686 423:0.344945 425:0.405316 426:0.307363 428:0.146379 429:0.180538 453:0.430358 456:0.230599 1900:0.75 2000:1 
0.1 10:0.246212 11:0.249314 12:0.200132 13:0.223741 14:0.382853 15:0.153203 20:0.409816 21:0.15814 22:0.183221 23:0.206538 25:0.184603 26:0.296117 28:0.178327 29:0.279357 53:0.247096 56:0.919736 110:0.266267 111:0.151498 112:0.299255 113:0.330469 114:0.139792 115:0.266994 120:0.198457 121:0.269373 122:0.964238 123:0.280854 125:0.321192 126:0.270202 128:0.125066 129:0.175264 153:0.294437 156:0.297886 210:0.652174 211:0.262892 212:0.273713 213:0.42431 214:0.330249 215:0.285 220:0.530043 221:0.250169 222:0.242119 223:0.324881 225:0.335827 226:0.291594 228:0.215991 229:0.248883 253:0.437904 256:0.768247 310:0.32389 311:0.166096 312:0.447331 313:0.35108 314:0.180691 315:0.799433 320:0.16122 321:0.813859 322:0.223632 323:0.369167 325:0.405316 326:0.286458 328:0.146138 329:0.177378 353:0.430088 356:0.223962 410:0.373159 411:0.270193 412:0.348252 413:0.363426 414:0.262021 415:0.302091 420:0.29336 421:0.41965 422:0.306924 423:0.348343 425:0.55814 426:0.940068 428:0.181305 429:0.240077 453:0.388438 456:0.49319 1900:0.75 2000:1 
0.1 10:0.299242 11:0.15486 12:0.350066 13:0.510072 14:0.239529 15:0.302228 20:0.286503 21:0.401329 22:0.271812 23:0.558692 25:0.380795 26:0.314725 28:0.205155 29:0.295426 53:0.818815 56:0.370475 110:0.361301 111:0.908986 112:0.19499 113:0.167969 114:0.26593 115:0.283111 120:0.323282 121:0.262731 122:0.218543 123:0.192247 125:0.370861 126:0.345118 128:0.233316 129:0.24798 153:0.210358 156:0.513993 210:0.375126 211:0.20796 212:0.342818 213:0.365399 214:0.175089 215:0.304286 220:0.222461 221:0.281356 222:0.959088 223:0.332013 225:0.374065 226:0.298599 228:0.183232 229:0.191449 253:0.348642 256:0.353088 310:0.306893 311:0.150685 312:0.345506 313:0.474537 314:0.238748 315:0.307583 320:0.287582 321:0.410326 322:0.26235 323:0.5775 325:0.372924 326:0.300347 328:0.200418 329:0.273136 353:0.810737 356:0.361022 410:0.3527 411:0.187713 412:0.358042 413:0.390432 414:0.192334 415:0.297044 420:0.207317 421:0.305407 422:0.969374 423:0.345794 425:0.368771 426:0.325342 428:0.144838 429:0.18886 453:0.384719 456:0.355401 1900:0.5 2000:1 
0.1 10:0.403409 11:0.879736 12:0.214663 13:0.233813 14:0.268979 15:0.287604 20:0.282822 21:0.239203 22:0.221477 23:0.241456 25:0.370861 26:0.337379 28:0.226723 29:0.246601 53:0.282811 56:0.520302 110:0.322774 111:0.186636 112:0.343263 113:0.382813 114:0.178153 115:0.311142 120:0.241935 121:0.315867 122:0.959603 123:0.33307 125:0.376656 126:0.325758 128:0.155544 129:0.212554 153:0.356138 156:0.3551 210:0.309403 211:0.170964 212:0.333333 213:0.446682 214:0.239146 215:0.290714 220:0.309728 221:0.397966 222:0.258887 223:0.529319 225:0.378221 226:0.294221 228:0.242643 229:0.278239 253:0.798189 256:0.364005 310:0.368272 311:0.188356 312:0.355337 313:0.390432 314:0.180039 315:0.321049 320:0.198983 321:0.293478 322:0.959279 323:0.37 325:0.368771 326:0.304688 328:0.144572 329:0.185733 353:0.389142 356:0.34984 410:0.389525 411:0.901024 412:0.204895 413:0.178241 414:0.286411 415:0.268205 420:0.285908 421:0.250571 422:0.224368 423:0.194562 425:0.362957 426:0.345034 428:0.220853 429:0.225352 453:0.230561 456:0.517263 1900:0.5 2000:1 
0.03902084738252346 10:0.360795 11:0.191104 12:0.359313 13:0.431655 14:0.180628 15:0.31546 20:0.211656 21:0.287043 22:0.972483 23:0.3737 25:0.376656 26:0.31877 28:0.148869 29:0.211372 53:0.415215 56:0.359459 110:0.361301 111:0.908986 112:0.19499 113:0.167969 114:0.26593 115:0.283111 120:0.323282 121:0.262731 122:0.218543 123:0.192247 125:0.370861 126:0.345118 128:0.233316 129:0.24798 153:0.210358 156:0.513993 210:0.296259 211:0.216368 212:0.547425 213:0.43475 214:0.222064 215:0.439286 220:0.247496 221:0.854237 222:0.266935 223:0.44374 225:0.503741 226:0.397548 228:0.181011 229:0.250798 253:0.534929 256:0.300998 310:0.864023 311:0.3379 312:0.333567 313:0.411265 314:0.279843 315:0.500354 320:0.321714 321:0.328804 322:0.357143 323:0.414167 325:0.54485 326:0.402778 328:0.20929 329:0.267995 353:0.439187 356:0.52492 410:0.44108 411:0.205916 412:0.36993 413:0.305556 414:0.230662 415:0.909156 420:0.192412 421:0.437928 422:0.272304 423:0.299065 425:0.416113 426:0.278253 428:0.21058 429:0.181178 453:0.362407 456:0.267342 1900:1 2000:1 
0.1 10:0.403409 11:0.879736 12:0.214663 13:0.233813 14:0.268979 15:0.287604 20:0.282822 21:0.239203 22:0.221477 23:0.241456 25:0.370861 26:0.337379 28:0.226723 29:0.246601 53:0.282811 56:0.520302 110:0.255993 111:0.195276 112:0.547732 113:0.455469 114:0.221066 115:0.443588 120:0.26648 121:0.939483 122:0.276159 123:0.44462 125:0.505795 126:0.420875 128:0.153442 129:0.270354 153:0.540281 156:0.303172 210:0.905966 211:0.354821 212:0.321816 213:0.385533 214:0.283986 215:0.485 220:0.343348 221:0.31661 222:0.354125 223:0.37401 225:0.550291 226:0.397548 228:0.252082 229:0.273133 253:0.402005 256:0.524017 310:0.470255 311:0.206621 312:0.367275 313:0.305556 314:0.215917 315:0.92275 320:0.183007 321:0.411685 322:0.260347 323:0.324167 325:0.416113 326:0.256944 328:0.211378 329:0.178021 353:0.369123 356:0.261022 410:0.294599 411:0.282139 412:0.194406 413:0.243056 414:0.500348 415:0.178803 420:0.539973 421:0.189642 422:0.219041 423:0.26593 425:0.219269 426:0.313356 428:0.259373 429:0.320102 453:0.306288 456:0.848274 1900:1 2000:1 
0.1 10:0.409091 11:0.19989 12:0.515852 13:0.864748 14:0.213351 15:0.352368 20:0.23681 21:0.413953 22:0.330872 23:0.558692 25:0.659768 26:0.394822 28:0.182009 29:0.261434 53:0.546458 56:0.339314 110:0.293664 111:0.169355 112:0.320921 113:0.35625 114:0.159948 115:0.289418 120:0.220898 121:0.292989 122:0.959603 123:0.306962 125:0.34851 126:0.297138 128:0.141356 129:0.194531 153:0.325448 156:0.327114 210:0.946411 211:0.325112 212:0.27981 213:0.336316 214:0.271174 215:0.427857 220:0.332618 221:0.274576 222:0.31053 223:0.323296 225:0.484622 226:0.355517 228:0.22543 229:0.250798 253:0.341203 256:0.585777 310:0.501416 311:0.184932 312:0.316713 313:0.351852 314:0.163079 315:0.313962 320:0.180102 321:0.263587 322:0.940587 323:0.331667 325:0.351329 326:0.271701 328:0.128914 329:0.16581 353:0.348195 356:0.328435 410:0.687398 411:0.254835 412:0.588112 413:0.600309 414:0.236237 415:0.39005 420:0.26084 421:0.414318 422:0.322903 423:0.613424 425:0.628738 426:0.390411 428:0.174114 429:0.231754 453:0.461122 456:0.40038 1900:0.75 2000:1 
0.1 10:0.328598 11:0.174629 12:0.337517 13:0.407194 14:0.162304 15:0.293872 20:0.193252 21:0.266445 22:0.972483 23:0.349183 25:0.34851 26:0.291262 28:0.134666 29:0.193449 53:0.38734 56:0.33113 110:0.806507 111:0.307028 112:0.280298 113:0.352344 114:0.26593 115:0.432376 120:0.34993 121:0.308487 122:0.319205 123:0.324367 125:0.486755 126:0.380471 128:0.195481 129:0.270354 153:0.348785 156:0.587065 210:0.517695 211:0.204596 212:0.305556 213:0.328113 214:0.156584 215:0.297143 220:0.203863 221:0.251525 222:0.940309 223:0.295563 225:0.356608 226:0.265324 228:0.166574 229:0.171666 253:0.304981 256:0.33219 310:0.754485 311:0.255708 312:0.586376 313:0.600309 314:0.221135 315:0.412473 320:0.256354 321:0.390625 322:0.311081 323:0.6325 325:0.628738 326:0.37066 328:0.174322 329:0.228792 353:0.457689 356:0.395208 410:0.346972 411:0.931172 412:0.172727 413:0.142747 414:0.252962 415:0.233598 420:0.251355 421:0.214014 422:0.193076 423:0.15463 425:0.319767 426:0.300514 428:0.196199 429:0.194622 453:0.183232 456:0.469116 1900:0.75 2000:1 
0.06513339039322377 10:0.169508 11:0.0494234 12:0.782695 13:0.432374 14:0.395288 15:0.175487 20:0.0638037 21:0.604651 22:0.16443 23:0.248886 25:0.688742 26:0.300971 28:0.040505 29:0.270087 53:0.658827 56:0.0764873 110:0.384418 111:0.0558756 112:0.552471 113:0.686719 114:0.053316 115:0.344078 120:0.0995792 121:0.41476 122:0.802649 123:0.366297 125:0.504139 126:0.367845 128:0.0462428 129:0.0857676 153:0.345588 156:0.327425 210:0.355915 211:0.059417 212:0.820461 213:0.661447 214:0.301779 215:0.278571 220:0.266094 221:0.370847 222:0.100604 223:0.431854 225:0.378221 226:0.224168 228:0.0699611 229:0.211232 253:0.450517 256:0.502495 310:0.151086 311:0.485731 312:0.0498596 313:0.227623 314:0.712329 315:0.192771 320:0.769063 321:0.0774457 322:0.17223 323:0.254167 325:0.103821 326:0.188368 328:0.189979 329:0.726221 353:0.281165 356:0.723323 410:0.355974 411:0.373151 412:0.274825 413:0.408179 414:0.354704 415:0.697909 420:0.431572 421:0.450114 422:0.186418 423:0.343246 425:0.568937 426:0.331336 428:0.113508 429:0.380922 453:0.42833 456:0.556541 1900:1 2000:1 
0.1 10:0.342803 11:0.0455794 12:0.824967 13:0.717266 14:0.29712 15:0.29039 20:0.24908 21:0.374751 22:0.113423 23:0.467311 25:0.380795 26:0.25 28:0.0415571 29:0.230532 53:0.506678 56:0.51023 110:0.125856 111:0.486751 112:0.0487475 113:0.217969 114:0.708713 115:0.184303 120:0.792426 121:0.0811808 122:0.178808 123:0.223101 125:0.112583 126:0.212963 128:0.201261 129:0.735239 153:0.242327 156:0.718595 210:0.379171 211:0.390695 212:0.262195 213:0.38255 214:0.340925 215:0.701429 220:0.459227 221:0.410169 222:0.170355 223:0.329635 225:0.574397 226:0.304729 228:0.149361 229:0.382897 253:0.390362 256:0.551154 310:0.368272 311:0.207192 312:0.59691 313:0.545525 314:0.326158 315:0.37562 320:0.190269 321:0.700408 322:0.368491 323:0.565 325:0.339701 326:0.250868 328:0.0584551 329:0.376607 353:0.657567 356:0.434185 410:0.219313 411:0.0813424 412:0.142657 413:0.176698 414:0.690592 415:0.199712 420:0.480352 421:0.323686 422:0.0918775 423:0.169924 425:0.259967 426:0.27911 428:0.433487 429:0.735595 453:0.603448 456:0.48147 1900:0.75 2000:1 
0.1 10:0.403409 11:0.135091 12:0.653897 13:0.800719 14:0.528141 15:0.259749 20:0.220245 21:0.331561 22:0.473154 23:0.708767 25:0.457781 26:0.250809 28:0.166228 29:0.263906 53:0.437282 56:0.432798 110:0.589897 111:0.160714 112:0.50914 113:0.45625 114:0.512354 115:0.284513 120:0.271388 121:0.571218 122:0.217219 123:0.523734 125:0.338576 126:0.386364 128:0.171308 129:0.263518 153:0.622762 156:0.41107 210:0.311426 211:0.230942 212:0.235772 213:0.258762 214:0.303203 215:0.225714 220:0.639485 221:0.270508 222:0.201207 223:0.266244 225:0.611804 226:0.686515 228:0.223209 229:0.504148 253:0.372574 256:0.692452 310:0.195467 311:0.0941781 312:0.280899 313:0.399691 314:0.180039 315:0.230333 320:0.202614 321:0.331522 322:0.198264 323:0.6525 325:0.267442 326:0.184028 328:0.128392 329:0.258355 353:1 356:0.374121 410:0.43126 411:0.168373 412:0.581818 413:0.376543 414:0.174216 415:0.618601 420:0.195122 421:0.476009 422:0.237683 423:0.57859 425:0.724252 426:0.409247 428:0.123267 429:0.163252 453:0.546653 456:0.338613 1900:1 2000:1 
0.1 10:0.65625 11:0.166392 12:0.521136 13:0.499281 14:0.517016 15:0.288997 20:0.237423 21:0.516944 22:0.220134 23:0.552749 25:0.338576 26:0.377023 28:0.16465 29:0.262052 53:0.657375 56:0.416116 110:0.268836 111:0.210253 112:0.23629 113:0.271094 114:0.295189 115:0.234057 120:0.650771 121:0.304059 122:0.211258 123:0.267405 125:0.613411 126:0.698653 128:0.193379 129:0.517091 153:0.379795 156:0.693408 210:0.190091 211:0.115471 212:0.271003 213:0.374348 214:0.175089 215:0.212857 220:0.226037 221:0.319322 222:0.1945 223:0.600634 225:0.272652 226:0.176883 228:0.166019 229:0.263561 253:1 256:0.376794 310:0.458924 311:0.16895 312:0.580056 313:0.376543 314:0.163079 315:0.637137 320:0.185911 321:0.445652 322:0.225634 323:0.598333 325:0.724252 326:0.389757 328:0.122651 329:0.160026 353:0.534425 356:0.332907 410:0.55892 411:0.207053 412:0.151049 413:0.19213 414:0.34216 415:0.379957 420:0.497967 421:0.154608 422:0.168442 423:0.194562 425:0.218439 426:0.226884 428:0.162815 429:0.209987 453:0.313725 456:0.842572 1900:1 2000:1 
0.1 10:0.301136 11:0.213619 12:0.254954 13:0.328777 14:0.298429 15:0.238858 20:0.569325 21:0.276412 22:0.214094 23:0.312036 25:0.613411 26:0.677184 28:0.186744 29:0.514215 53:0.436702 56:0.70192 110:0.166096 111:0.0915899 112:0.271496 113:0.392188 114:0.178153 115:0.221444 120:0.245442 121:0.357196 122:0.204636 123:0.601266 125:0.275662 126:0.208754 128:0.139254 129:0.282784 153:1 156:0.378731 210:0.472194 211:0.188901 212:0.559621 213:0.351976 214:0.156584 215:0.622857 220:0.209585 221:0.43322 222:0.221999 223:0.549128 225:0.729842 226:0.384413 228:0.159911 229:0.165922 253:0.503558 256:0.336556 310:0.606232 311:0.207763 312:0.147472 313:0.19213 314:0.320287 315:0.402551 320:0.51053 321:0.158967 322:0.156208 323:0.221667 325:0.218439 326:0.204861 328:0.162839 329:0.206941 353:0.325447 356:0.841214 410:0.502455 411:0.164391 412:0.274126 413:0.466049 414:0.521951 415:0.643836 420:0.205285 421:0.287129 422:0.586551 423:0.461342 425:0.385382 426:0.60274 428:0.202363 429:0.556978 453:0.417174 456:0.419702 1900:0.75 2000:1 
0.1 10:0.1875 11:0.100494 12:0.2893 13:0.440288 14:0.180628 15:0.226323 20:0.214724 21:0.324252 22:0.207383 23:0.625557 25:0.275662 26:0.206311 28:0.132562 29:0.281211 53:1 56:0.383381 110:0.404966 111:0.167051 112:0.559919 113:0.36875 114:0.161248 115:0.623686 120:0.229313 121:0.481181 122:0.231788 123:0.549842 125:0.73096 126:0.408249 128:0.133473 129:0.187694 153:0.509271 156:0.338619 210:0.629929 211:0.227018 212:0.142276 213:0.173751 214:0.328114 215:0.386429 220:0.529328 221:0.147119 222:0.152247 223:0.190967 225:0.223608 226:0.197898 228:0.202665 229:0.212508 253:0.280724 256:0.832813 310:0.541076 311:0.164954 312:0.271067 313:0.466049 314:0.488584 315:0.661942 320:0.196805 321:0.277174 322:0.575434 323:0.483333 325:0.385382 326:0.585938 328:0.203027 329:0.55527 353:0.418259 356:0.414696 410:0.639935 411:0.197383 412:0.268531 413:0.450617 414:0.416028 415:0.269647 420:0.639566 421:0.421935 422:0.215047 423:0.270178 425:0.76495 426:0.400685 428:0.132512 429:0.192061 453:0.280933 456:0.590434 1900:1 2000:1 
0.1 10:0.451705 11:0.172433 12:0.570674 13:0.418705 14:0.163613 15:0.626045 20:0.200613 21:0.43588 22:0.234899 23:0.577266 25:0.73096 26:0.398058 28:0.126775 29:0.18665 53:0.554297 56:0.342776 110:0.538527 111:0.206221 112:0.142857 113:0.182031 114:0.317945 115:0.391731 120:0.542777 121:0.169742 122:0.162914 123:0.192247 125:0.226821 126:0.228956 128:0.173936 129:0.233064 153:0.289003 156:0.833333 210:0.560162 211:0.184978 212:0.261518 213:0.438479 214:0.511744 215:0.647857 220:0.220315 221:0.265085 222:0.573441 223:0.439778 225:0.39069 226:0.582312 228:0.245419 229:0.558392 253:0.37969 256:0.416407 310:0.699717 311:0.198059 312:0.265449 313:0.450617 314:0.389432 315:0.294118 320:0.662309 321:0.397418 322:0.202937 323:0.295833 325:0.76495 326:0.381076 328:0.132046 329:0.188946 353:0.296027 356:0.586901 410:0.285597 411:0.0967008 412:0.466434 413:0.740741 414:0.156098 415:0.201154 420:0.457317 421:0.497334 422:0.20972 423:0.727273 425:0.336379 426:0.342466 428:0.11813 429:0.161972 453:0.717715 456:0.380108 1900:1 2000:1 
0.1 10:0.599432 11:0.209775 12:0.163804 13:0.246763 14:0.321335 15:0.395543 20:0.474847 21:0.155482 22:0.165101 23:0.241456 25:0.226821 26:0.225728 28:0.16728 29:0.231768 53:0.354239 56:0.843563 110:0.479452 111:0.163018 112:0.262018 113:0.459375 114:0.485696 115:0.648213 120:0.239832 121:0.298155 122:0.578808 123:0.440665 125:0.393212 126:0.598485 128:0.214398 129:0.569919 153:0.386829 156:0.418221 210:0.73003 211:0.217489 212:0.256098 213:0.423565 214:0.403559 215:0.277143 220:0.678827 221:0.385085 222:0.199195 223:0.26149 225:0.770574 226:0.375657 228:0.169906 229:0.194639 253:0.249353 256:0.584529 310:0.29084 311:0.097032 312:0.464185 313:0.740741 314:0.146119 315:0.22679 320:0.466957 321:0.464674 322:0.197597 323:0.744167 325:0.336379 326:0.322049 328:0.117432 329:0.15874 353:0.687898 356:0.37476 410:0.483633 411:0.150171 412:0.404196 413:0.744599 414:0.266899 415:0.319394 420:0.51626 421:0.389185 422:0.184421 423:0.315208 425:0.363787 426:0.203767 428:0.414484 429:0.203585 453:0.526707 456:0.6484 1900:1 2000:1 
0.1 10:0.536932 11:0.294893 12:0.431968 13:0.490647 14:0.257199 15:0.440808 20:0.266258 21:0.460465 22:0.352349 23:0.452452 25:0.846026 26:0.515372 28:0.191478 29:0.283066 53:0.504646 56:0.394397 110:0.398973 111:0.222926 112:0.496953 113:0.803125 114:0.224967 115:0.373511 120:0.28331 121:0.473801 122:0.336424 123:0.52057 125:0.69702 126:0.439394 128:0.195481 129:0.27284 153:0.501918 156:0.354478 210:0.401416 211:0.233184 212:0.445122 213:0.487696 214:0.209964 215:0.379286 220:0.296853 221:0.688136 222:0.291751 223:0.773376 225:0.657523 226:0.39317 228:0.225986 229:0.254627 253:0.521669 256:0.335621 310:0.331445 311:0.168379 312:0.328652 313:0.36034 314:0.158513 315:0.295535 320:0.173566 321:0.269022 322:0.959947 323:0.338333 325:0.336379 326:0.270833 328:0.127871 329:0.163882 353:0.355475 356:0.316294 410:0.732406 411:0.260523 412:0.440559 413:0.751543 414:0.248084 415:0.395818 420:0.268293 421:0.361767 422:0.334887 423:0.479184 425:0.4701 426:0.360445 428:0.183873 429:0.240717 453:0.472617 456:0.433323 1900:0.75 2000:1 
0.1 10:0.445076 11:0.2257 12:0.509247 13:0.818705 14:0.227749 15:0.377437 20:0.247853 21:0.429236 22:0.34094 23:0.549777 25:0.69702 26:0.427994 28:0.188848 29:0.271323 53:0.547619 56:0.358829 110:0.345034 111:0.212558 112:0.445498 113:0.510938 114:0.210013 115:0.384723 120:0.314867 121:0.758672 122:0.300662 123:0.773734 125:0.65894 126:0.416667 128:0.196006 129:0.274083 153:0.527174 156:0.337687 210:0.335693 211:0.188341 212:0.317073 213:0.336316 214:0.151601 215:0.278571 220:0.197425 221:0.256949 222:0.959759 223:0.301902 225:0.341646 226:0.264448 228:0.165464 229:0.169751 253:0.312743 256:0.320337 310:0.806421 311:0.261416 312:0.438202 313:0.751543 314:0.232224 315:0.418143 320:0.264343 321:0.34375 322:0.323097 323:0.500833 325:0.4701 326:0.340278 328:0.184238 329:0.237789 353:0.468001 356:0.428435 410:0.271686 411:0.225825 412:0.705594 413:0.405093 414:0.402787 415:0.245854 420:0.693089 421:0.37243 422:0.23968 423:0.344945 425:0.289037 426:0.300514 428:0.212121 429:0.263764 453:0.35666 456:0.713335 1900:0.75 2000:1 
0.07284520508255669 10:0.385417 11:0.215815 12:0.459049 13:0.54964 14:0.212696 15:0.388579 20:0.27546 21:0.685714 22:0.304698 23:0.787519 25:0.65894 26:0.406149 28:0.189374 29:0.272559 53:0.570557 56:0.341832 110:0.289384 111:0.166475 112:0.317536 113:0.352344 114:0.156697 115:0.285915 120:0.217391 121:0.289299 122:0.960265 123:0.303006 125:0.344371 126:0.292929 128:0.138728 129:0.191423 153:0.320652 156:0.32245 210:0.844287 211:0.279709 212:0.422764 213:0.714392 214:0.232028 215:0.402143 220:0.286838 221:0.331525 222:0.31992 223:0.456418 225:0.475478 226:0.334501 228:0.22543 229:0.24314 253:0.43273 256:0.429819 310:0.274788 311:0.226598 312:0.704354 313:0.405093 314:0.377038 315:0.27073 320:0.71968 321:0.353261 322:0.227637 323:0.369167 325:0.289037 326:0.279514 328:0.212944 329:0.260925 353:0.363967 356:0.710863 410:0.273322 411:0.159841 412:0.351049 413:0.421296 414:0.307317 415:0.276136 420:0.232385 421:0.44326 422:0.735686 423:0.433305 425:0.332226 426:0.254281 428:0.182332 429:0.430858 453:0.763016 456:0.2949 1900:1 2000:1 
0.08559163463896992 10:0.323864 11:0.171884 12:0.334214 13:0.403597 14:0.159031 15:0.29039 20:0.190184 21:0.263123 22:0.973154 23:0.345468 25:0.344371 26:0.287217 28:0.132036 29:0.190358 53:0.382985 56:0.326409 110:0.720034 111:0.260369 112:0.423155 113:0.748437 114:0.230169 115:0.407148 120:0.305049 121:0.37048 122:0.328477 123:0.457278 125:0.477649 126:0.360269 128:0.195481 129:0.262896 153:0.439258 156:0.431592 210:0.275025 211:0.245516 212:0.679539 213:0.379567 214:0.390036 215:0.253571 220:0.735336 221:0.341017 222:0.224011 223:0.33122 225:0.294264 226:0.273205 228:0.255969 229:0.266114 253:0.321798 256:0.705552 310:0.276676 311:0.160388 312:0.348315 313:0.421296 314:0.287671 315:0.300496 320:0.225853 321:0.41644 322:0.724967 323:0.455833 325:0.332226 326:0.232639 328:0.182672 329:0.428663 353:0.728541 356:0.288818 410:0.803601 411:0.299772 412:0.333566 413:0.385802 414:0.262021 415:0.431867 420:0.277778 421:0.359482 422:0.334221 423:0.362787 425:0.650332 426:0.412671 428:0.180277 429:0.240077 453:0.406018 456:0.455812 1900:1 2000:1 
0.1 10:0.800189 11:0.261395 12:0.437252 13:0.768345 14:0.232984 15:0.410864 20:0.266871 21:0.336213 22:0.332886 23:0.490342 25:0.477649 26:0.351942 28:0.188848 29:0.261434 53:0.490708 56:0.43689 110:0.238014 111:0.22523 112:0.679756 113:0.397656 114:0.374512 115:0.261388 120:0.744741 121:0.380812 122:0.233775 123:0.332278 125:0.297185 126:0.301347 128:0.224383 129:0.28527 153:0.329604 156:0.706468 210:0.277048 211:0.180493 212:0.336043 213:0.395227 214:0.292527 215:0.283571 220:0.248927 221:0.404068 222:0.723675 223:0.413629 225:0.33749 226:0.225919 228:0.223765 229:0.432674 253:0.710543 256:0.293512 310:0.888574 311:0.300799 312:0.330758 313:0.385802 314:0.245271 315:0.453579 320:0.27451 321:0.341712 322:0.32243 323:0.386667 325:0.650332 326:0.393229 328:0.180585 329:0.237147 353:0.40825 356:0.451118 410:0.301146 411:0.147895 412:0.339161 413:0.425926 414:0.187456 415:0.273973 420:0.220867 421:0.351866 422:0.826232 423:0.441801 425:0.343854 426:0.291952 428:0.146893 429:0.204866 453:0.730223 456:0.318657 1900:1 2000:1 
0.1 10:0.267045 11:0.227897 12:0.687583 13:0.445324 14:0.378272 15:0.266017 20:0.651534 21:0.345515 22:0.236913 23:0.372957 25:0.297185 26:0.295307 28:0.21778 29:0.283684 53:0.391115 56:0.71514 110:0.239726 111:0.15841 112:0.336493 113:0.414063 114:0.285436 115:0.29082 120:0.267882 121:0.449446 122:0.727152 123:0.414557 125:0.340232 126:0.255892 128:0.193904 129:0.447483 153:0.713875 156:0.295709 210:0.932255 211:0.318386 212:0.319106 213:0.360925 214:0.246263 215:0.437857 220:0.296853 221:0.329492 222:0.319249 223:0.347861 225:0.65586 226:0.387916 228:0.221544 229:0.242502 253:0.369017 256:0.451965 310:0.308782 311:0.148402 312:0.336376 313:0.425926 314:0.175473 315:0.29837 320:0.213508 321:0.334918 322:0.815754 323:0.464167 325:0.343854 326:0.270833 328:0.14666 329:0.201799 353:0.69912 356:0.31278 410:0.765957 411:0.286121 412:0.3 413:0.35108 414:0.311498 415:0.39005 420:0.338076 421:0.321401 422:0.305593 423:0.331351 425:0.602159 426:0.379281 428:0.187468 429:0.243918 453:0.370859 456:0.598986 1900:0.75 2000:1 
0.1 10:0.350379 11:0.179572 12:0.43461 13:0.654676 14:0.206152 15:0.334958 20:0.342331 21:0.424585 22:0.324832 23:0.932392 25:0.430464 26:0.343851 28:0.241978 29:0.306551 53:0.656794 56:0.379918 110:0.256849 111:0.144009 112:0.32566 113:0.457813 114:0.230169 115:0.291521 120:0.319074 121:0.43321 122:0.260927 123:0.518196 125:0.370861 126:0.311448 128:0.207042 129:0.290242 153:0.795716 156:0.356965 210:0.219414 211:0.227578 212:0.193767 213:0.208799 214:0.913879 215:0.222857 220:0.395565 221:0.215593 222:0.153588 223:0.197306 225:0.236076 226:0.19965 228:0.47085 229:0.683472 253:0.321475 256:0.577355 310:0.420208 311:0.305365 312:0.219803 313:0.26929 314:0.369211 315:0.236003 320:0.440087 321:0.220788 322:0.23765 323:0.276667 325:0.282392 326:0.389757 328:0.186326 329:0.298843 353:0.29269 356:0.88147 410:0.273322 411:0.138794 412:0.896503 413:0.684414 414:0.198606 415:0.344629 420:0.170732 421:0.551409 422:0.316245 423:0.46644 425:0.408638 426:0.319349 428:0.12378 429:0.1863 453:0.467884 456:0.288565 1900:1 2000:1 
0.06312640440078163 10:0.214962 11:0.210324 12:0.214003 13:0.280576 14:0.859948 15:0.236072 20:0.360123 21:0.222591 22:0.166443 23:0.2474 25:0.239238 26:0.227346 28:0.421357 29:0.687886 53:0.390825 56:0.585773 110:0.369863 111:0.304724 112:0.212593 113:0.260156 114:0.36671 115:0.22705 120:0.474755 121:0.2369 122:0.243709 123:0.244462 125:0.290563 126:0.408249 128:0.197583 129:0.321939 153:0.254476 156:0.872512 210:0.277048 211:0.159753 212:0.864499 213:0.649515 214:0.181495 215:0.351429 220:0.183834 221:0.500339 222:0.30114 223:0.444532 225:0.413965 226:0.292469 228:0.160466 229:0.188896 253:0.428202 256:0.287274 310:0.364495 311:0.167237 312:0.405899 313:0.53858 314:0.21135 315:0.360028 320:0.278867 321:0.419837 322:0.334446 323:0.590833 325:0.412791 326:0.331597 328:0.179541 329:0.256427 353:0.761905 356:0.360383 410:0.279051 411:0.189989 412:0.558042 413:0.450617 414:0.231359 415:0.423216 420:0.223577 421:0.964204 422:0.274301 423:0.453696 425:0.48505 426:0.410103 428:0.138161 429:0.241357 453:0.564571 456:0.293633 1900:1 2000:1 
0.1 10:0.412879 11:0.303679 12:0.231836 13:0.318705 14:0.370419 15:0.231894 20:0.415337 21:0.215947 22:0.24698 23:0.29049 25:0.290563 26:0.398058 28:0.190952 29:0.320148 53:0.32288 56:0.883223 110:0.239726 111:0.137097 112:0.86459 113:0.680469 114:0.184005 115:0.357393 120:0.204067 121:0.554244 122:0.309934 123:0.445411 125:0.416391 126:0.319865 128:0.133999 129:0.210068 153:0.434783 156:0.28949 210:0.371082 211:0.18722 212:0.391599 213:0.508576 214:0.209253 215:0.343571 220:0.301144 221:0.407458 222:0.331321 223:0.541997 225:0.418121 226:0.325744 228:0.220433 229:0.261646 253:0.746119 256:0.363381 310:0.283286 311:0.190639 312:0.55618 313:0.450617 314:0.216569 315:0.445074 320:0.216412 321:0.881114 322:0.26235 323:0.475833 325:0.48505 326:0.390625 328:0.137787 329:0.238432 353:0.5505 356:0.28754 410:0.428805 411:0.199659 412:0.361538 413:0.296296 414:0.223693 415:0.912761 420:0.185637 421:0.427266 422:0.26498 423:0.28887 425:0.404485 426:0.267979 428:0.205444 429:0.174776 453:0.350913 456:0.258156 1900:1 2000:1 
0.1 10:0.268939 11:0.143877 12:0.8679 13:0.705755 14:0.186518 15:0.361421 20:0.178528 21:0.501661 22:0.314094 23:0.479198 25:0.416391 26:0.313107 28:0.127301 29:0.2089 53:0.486643 56:0.293044 110:0.319349 111:0.165323 112:0.392011 113:0.532813 114:0.209363 115:0.349685 120:0.319074 121:0.453137 122:0.339735 123:0.542722 125:0.42053 126:0.351852 128:0.190751 129:0.28092 153:0.749041 156:0.365361 210:0.284125 211:0.210202 212:0.536585 213:0.423565 214:0.214947 215:0.429286 220:0.239628 221:0.867797 222:0.258887 223:0.432647 225:0.490441 226:0.385289 228:0.176013 229:0.243778 253:0.520699 256:0.292265 310:0.456091 311:0.200342 312:0.358848 313:0.296296 314:0.209393 315:0.926293 320:0.175744 321:0.402174 322:0.253004 323:0.314167 325:0.404485 326:0.246528 328:0.206159 329:0.171594 353:0.358811 356:0.251757 410:0.288871 411:0.145051 412:0.339161 413:0.463735 414:0.247387 415:0.276136 420:0.281165 421:0.425743 422:0.266312 423:0.543755 425:0.362126 426:0.309932 428:0.194658 429:0.268246 453:0.849222 456:0.356351 1900:1 2000:1 
0.06395706071029793 10:0.357008 11:0.170785 12:0.406869 13:0.569784 14:0.212042 15:0.35376 20:0.279141 21:0.410631 22:0.344295 23:0.570579 25:0.42053 26:0.343851 28:0.184114 29:0.279357 53:0.772067 56:0.369846 110:0.245719 111:0.18894 112:0.536899 113:0.44375 114:0.214564 115:0.433777 120:0.258766 121:0.954244 122:0.268212 123:0.433544 125:0.49255 126:0.409091 128:0.148713 129:0.263518 153:0.526215 156:0.294465 210:0.469161 211:0.219731 212:0.346206 213:0.274422 214:0.207117 215:0.914286 220:0.199571 221:0.389831 222:0.249497 223:0.278922 225:0.409809 226:0.23993 228:0.248751 229:0.177409 253:0.3163 256:0.25733 310:0.294618 311:0.145548 312:0.336376 313:0.463735 314:0.231572 315:0.300496 320:0.278141 321:0.400815 322:0.254339 323:0.564167 325:0.362126 326:0.289063 328:0.195198 329:0.265424 353:0.805884 356:0.350799 410:0.378069 411:0.906143 412:0.198601 413:0.171296 414:0.278746 415:0.260274 420:0.2771 421:0.242193 422:0.21771 423:0.186066 425:0.352159 426:0.333904 428:0.215716 429:0.21831 453:0.220757 456:0.505226 1900:1 2000:1 
0.1 10:0.356061 11:0.214168 12:0.532365 13:0.476259 14:0.139398 15:0.575905 20:0.276687 21:0.582724 22:0.461745 23:0.263744 25:0.566225 26:0.365696 28:0.0841662 29:0.248455 53:0.623403 56:0.612213 110:0.324486 111:0.216014 112:0.696005 113:0.5625 114:0.223667 115:0.377015 120:0.230715 121:0.59631 122:0.377483 123:0.568829 125:0.597682 126:0.322391 128:0.211771 129:0.251709 153:0.598146 156:0.318719 210:0.422649 211:0.191143 212:0.504065 213:0.452647 214:0.484698 215:0.540714 220:0.255365 221:0.399322 222:0.606304 223:0.533281 225:0.616791 226:0.386165 228:0.216546 229:0.303127 253:0.449547 256:0.427324 310:0.486308 311:0.22774 312:0.313202 313:0.483796 314:0.23092 315:0.459957 320:0.246187 321:0.491848 322:0.50267 323:0.543333 325:0.499169 326:0.383681 328:0.364823 329:0.237147 353:0.660601 356:0.599681 410:0.284779 411:0.278726 412:0.332168 413:0.381944 414:0.487805 415:0.356164 420:0.409892 421:0.390708 422:0.207057 423:0.468139 425:0.378738 426:0.674658 428:0.405752 429:0.260563 453:0.611562 456:0.719354 1900:1 2000:1 
0.1 10:0.182765 11:0.0708402 12:0.309115 13:0.654676 14:0.106021 15:0.319638 20:0.169325 21:0.293688 22:0.210738 23:0.442051 25:0.298841 26:0.195793 28:0.100473 29:0.174289 53:0.809814 56:0.201763 110:0.206336 111:0.154378 112:0.194313 113:0.430469 114:0.79844 115:0.159776 120:0.354137 121:0.42583 122:0.138411 123:0.178006 125:0.206126 126:0.545455 128:0.22701 129:0.391548 153:0.290921 156:0.74005 210:0.780586 211:0.200112 212:0.20122 213:0.427293 214:0.218505 215:0.412143 220:0.445637 221:0.189831 222:0.167673 223:0.499208 225:0.429759 226:0.289842 228:0.154914 229:0.16656 253:0.324386 256:0.776045 310:0.266289 311:0.179795 312:0.337079 313:0.61034 314:0.16047 315:0.454996 320:0.431373 321:0.313179 322:0.38518 323:0.674167 325:0.250831 326:0.428819 328:0.122651 329:0.252571 353:0.828632 356:0.395527 410:0.251227 411:0.0949943 412:0.455245 413:0.783179 414:0.184669 415:0.454218 420:0.326558 421:0.26428 422:0.502663 423:0.387426 425:0.303987 426:0.230308 428:0.115562 429:0.231754 453:0.657539 456:0.515996 1900:0.5 2000:1 
0.1 10:0.232008 11:0.160351 12:0.214003 13:0.47554 14:0.804974 15:0.165042 20:0.309816 21:0.386047 22:0.140268 23:0.228083 25:0.206126 26:0.529935 28:0.22041 29:0.38937 53:0.355981 56:0.749134 110:0.666096 111:0.178571 112:0.20176 113:0.447656 114:0.217815 115:0.416959 120:0.460729 121:0.216236 122:0.178146 123:0.5 125:0.432119 126:0.31734 128:0.128744 129:0.188316 153:0.332161 156:0.776741 210:0.265925 211:0.199552 212:0.325203 213:0.577927 214:0.153737 215:0.439286 220:0.451359 221:0.301017 222:0.382294 223:0.621236 225:0.256027 226:0.423818 228:0.159911 229:0.257817 253:0.81727 256:0.397692 310:0.25118 311:0.0953196 312:0.452949 313:0.783179 314:0.172864 315:0.475549 320:0.326797 321:0.256793 322:0.491322 323:0.410833 325:0.303987 326:0.208333 328:0.114823 329:0.228792 353:0.63391 356:0.511821 410:0.765139 411:0.161547 412:0.221678 413:0.22608 414:0.123345 415:0.813266 420:0.128726 421:0.255141 422:0.191744 423:0.197961 425:0.511628 426:0.357877 428:0.100668 429:0.104353 453:0.308654 456:0.227748 1900:0.75 2000:1 
0.1 10:0.74053 11:0.183416 12:0.221268 13:0.491367 14:0.22055 15:0.420613 20:0.403067 21:0.197342 22:0.180537 23:0.530461 25:0.432119 26:0.31068 28:0.122041 29:0.187268 53:0.393438 56:0.786276 110:0.230308 111:0.177995 112:0.32566 113:0.605469 114:0.158648 115:0.443588 120:0.466339 121:0.337269 122:0.390066 123:0.621835 125:0.259106 126:0.446128 128:0.133473 129:0.277191 153:0.819373 156:0.399565 210:0.249747 211:0.116592 212:0.436992 213:0.744966 214:0.16726 215:0.46 220:0.348355 221:0.244746 222:0.488934 223:0.37084 225:0.309227 226:0.201401 228:0.151582 229:0.234205 253:0.609638 256:0.511229 310:0.844193 311:0.1621 312:0.218399 313:0.22608 314:0.11546 315:0.82849 320:0.114742 321:0.248641 322:0.179573 323:0.225 325:0.511628 326:0.337674 328:0.0996868 329:0.1009 353:0.320898 356:0.221086 410:0.110475 411:0.139363 412:0.0636364 413:0.10571 414:0.560279 415:0.0439798 420:0.498645 421:0.0753998 422:0.075233 423:0.112999 425:0.0664452 426:0.117295 428:0.228557 429:0.712548 453:0.322853 456:0.719671 1900:0.75 2000:1 
0.1 10:0.258523 11:0.182867 12:0.34214 13:0.636691 14:0.160995 15:0.447075 20:0.407975 21:0.306312 22:0.395302 23:0.644874 25:0.259106 26:0.434466 28:0.126775 29:0.275649 53:0.835947 56:0.40447 110:0.21661 111:0.0927419 112:0.437373 113:0.780469 114:0.171001 115:0.46391 120:0.365358 121:0.276015 122:0.495364 123:0.371835 125:0.312086 126:0.232323 128:0.125591 129:0.254195 153:0.61413 156:0.512749 210:0.884732 211:0.182175 212:0.210705 213:0.206562 214:0.104626 215:0.815714 220:0.139485 221:0.23661 222:0.175721 223:0.194136 225:0.517041 226:0.331874 228:0.13548 229:0.107211 253:0.275873 256:0.227386 310:0.088763 311:0.13984 312:0.059691 313:0.10571 314:0.524462 315:0.0722892 320:0.511256 321:0.0883152 322:0.0627503 323:0.141667 325:0.0664452 326:0.09375 328:0.229645 329:0.71144 353:0.333637 356:0.717252 410:0.311784 411:0.151308 412:0.513986 413:0.321759 414:0.13101 415:0.60274 420:0.160569 421:0.303884 422:0.18775 423:0.553951 425:0.452658 426:0.951199 428:0.0955316 429:0.129962 453:0.354293 456:0.284447 1900:0.75 2000:1 
0.1 10:0.324811 11:0.115321 12:0.193527 13:0.348201 14:0.512435 15:0.307103 20:0.570552 21:0.459136 22:0.414765 23:0.589896 25:0.612583 26:0.559061 28:0.365597 29:0.292336 53:0.53252 56:0.617564 110:0.588185 111:0.360599 112:0.327691 113:0.289063 114:0.192458 115:0.38192 120:0.131837 121:0.497417 122:0.819868 123:0.356013 125:0.373344 126:0.506734 128:0.074619 129:0.368552 153:0.318414 156:0.352301 210:0.560162 211:0.0941704 212:0.599593 213:0.58091 214:0.397865 215:0.540714 220:0.183119 221:0.400678 222:0.487592 223:0.55626 225:0.507897 226:0.435201 228:0.657413 229:0.42374 253:0.412354 256:0.19058 310:0.548631 311:0.0616438 312:0.711376 313:0.627315 314:0.145466 315:0.333806 320:0.385621 321:0.439538 322:0.445928 323:0.805 325:0.300664 326:0.332465 328:0.0579332 329:0.119537 353:0.583258 356:0.296486 410:0.62766 411:0.0921502 412:0.532867 413:0.344136 414:0.174216 415:0.39726 420:0.107724 421:0.214775 422:0.659787 423:0.480884 425:0.519934 426:0.465753 428:0.199281 429:0.163252 453:0.693374 456:0.313906 1900:0.75 2000:1 
0.1 10:0.294508 11:0.11587 12:0.268824 13:0.238129 14:0.106675 15:0.967967 20:0.096319 21:0.42392 22:0.157047 23:0.213224 25:0.284768 26:0.142395 28:0.125723 29:0.103214 53:0.25813 56:0.115833 110:0.326199 111:0.111175 112:0.240352 113:0.175 114:0.106632 115:0.966363 120:0.115007 121:0.316605 122:0.15894 123:0.166139 125:0.284768 126:0.142256 128:0.133999 129:0.105034 153:0.225384 156:0.123756 210:0.220425 211:0.143498 212:0.288618 213:0.655481 214:0.15516 215:0.191429 220:0.223891 221:0.263729 222:0.187123 223:0.400951 225:0.476309 226:0.404553 228:0.13437 229:0.171666 253:0.727361 256:0.58796 310:0.150142 311:0.186073 312:0.0948034 313:0.128086 314:0.342466 315:0.107725 320:0.409586 321:0.0944293 322:0.109479 323:0.156667 325:0.0930233 326:0.151042 328:0.169102 329:0.205013 353:0.173491 356:0.833866 410:0.222586 411:0.162116 412:0.209091 413:0.353395 414:0.241115 415:0.149243 420:0.424797 421:0.211729 422:0.348202 423:0.51147 425:0.196013 426:0.229452 428:0.115562 429:0.181178 453:0.589249 456:0.80171 1900:0.75 2000:1 
0.1 10:0.378788 11:0.152663 12:0.201453 13:0.282014 14:0.495419 15:0.258357 20:0.18773 21:0.193355 22:0.244295 23:0.319465 25:0.271523 26:0.293689 28:0.922672 29:0.417182 53:0.539199 56:0.301228 110:0.133562 111:0.0552995 112:0.849695 113:0.671875 114:0.152796 115:0.288017 120:0.107994 121:0.523985 122:0.331788 123:0.353639 125:0.392384 126:0.138889 128:0.116658 129:0.541952 153:0.53133 156:0.149565 210:0.450961 211:0.33352 212:0.508808 213:0.306488 214:0.414947 215:0.36 220:0.243205 221:0.293559 222:0.43729 223:0.313788 225:0.812968 226:0.47986 228:0.232649 229:0.359285 253:0.30304 256:0.540861 310:0.286119 311:0.295091 312:0.559691 313:0.348765 314:0.292237 315:0.346563 320:0.302106 321:0.781929 322:0.44259 323:0.441667 325:0.340532 326:0.372396 328:0.637787 329:0.438946 353:0.590537 356:0.413419 410:0.37725 411:0.203641 412:0.466434 413:0.381944 414:0.250871 415:0.716655 420:0.212737 421:0.597867 422:0.587883 423:0.406117 425:0.33887 426:0.226027 428:0.170005 429:0.1863 453:0.643002 456:0.3535 1900:0.75 2000:1 
0.1 10:0.316288 11:0.177375 12:0.523778 13:0.48705 14:0.202225 15:0.614206 20:0.257055 21:0.662458 22:0.251678 23:0.780832 25:0.583609 26:0.319579 28:0.166228 29:0.228059 53:0.487515 56:0.397545 110:0.302226 111:0.173387 112:0.638456 113:0.442188 114:0.179454 115:0.5452 120:0.252454 121:0.42583 122:0.265563 123:0.607595 125:0.68543 126:0.337542 128:0.149764 129:0.213797 153:0.545396 156:0.393035 210:0.403438 211:0.241031 212:0.29336 213:0.451156 214:0.321708 215:0.365714 220:0.372675 221:0.452881 222:0.226023 223:0.322504 225:0.290108 226:0.267075 228:0.229872 229:0.262285 253:0.581177 256:0.811291 310:0.603399 311:0.206621 312:0.355337 313:0.472222 314:0.207436 315:0.440113 320:0.262164 321:0.350543 322:0.640854 323:0.92 325:0.515781 326:0.299479 328:0.194154 329:0.228149 353:0.47892 356:0.357508 410:0.240589 411:0.119454 412:0.434266 413:0.660494 414:0.187456 415:0.291276 420:0.201897 421:0.820259 422:0.249667 423:0.649958 425:0.357143 426:0.281678 428:0.133539 429:0.252881 453:0.818458 456:0.244536 1900:1 2000:1 
0.1 10:0.338068 11:0.178473 12:0.647292 13:0.486331 14:0.181937 15:0.54805 20:0.220859 21:0.386047 22:0.269128 23:0.631501 25:0.68543 26:0.330097 28:0.143083 29:0.212608 53:0.587108 56:0.39786 110:0.346747 111:0.220622 112:0.293839 113:0.472656 114:0.312094 115:0.371409 120:0.389201 121:0.502583 122:0.235762 123:0.323576 125:0.293046 126:0.295455 128:0.199685 129:0.281541 153:0.585997 156:0.811878 210:0.626896 211:0.225897 212:0.342818 213:0.444444 214:0.204982 215:0.424286 220:0.284692 221:0.338305 222:0.639168 223:0.854992 225:0.521197 226:0.293345 228:0.23598 229:0.233567 253:0.444373 256:0.360574 310:0.238905 311:0.119863 312:0.431882 313:0.660494 314:0.175473 315:0.315379 320:0.193174 321:0.752717 322:0.23765 323:0.668333 325:0.357143 326:0.260417 328:0.13309 329:0.25 353:0.778283 356:0.238019 410:0.456628 411:0.226962 412:0.276923 413:0.304784 414:0.262718 415:0.255948 420:0.294715 421:0.313024 422:0.635153 423:0.28802 425:0.526578 426:0.752568 428:0.149974 429:0.209347 453:0.400609 456:0.653468 1900:0.75 2000:1 
